patient_id,0,1,2,3,4,5,6,7,8,9,10,11,12,13,14,15,16,17,18,19,20,21,22,23,24,25,26,27,28,29,30,31,32,33,34,35,36,37,38,39,40,41,42,43,44,45,46,47,48,49,50,51,52,53,54,55,56,57,58,59,60,61,62,63,64,65,66,67,68,69,70,71,72,73,74,75,76,77,78,79,80,81,82,83,84,85,86,87,88,89,90,91,92,93,94,95,96,97,98,99,100,101,102,103,104,105,106,107,108,109,110,111,112,113,114,115,116,117,118,119,120,121,122,123,124,125,126,127
MMRF_1231,-0.58660483,-1.9503566,0.42680493,-0.089950524,1.5669513,0.5407499,0.6593368,0.14638455,-2.261961,0.7797626,-0.9777458,-1.433013,-1.0371001,-0.9323339,1.5870242,-0.3400436,1.552727,-1.1606869,1.1881173,0.38956213,-0.12543117,-0.58574057,-0.2446087,0.4245262,-0.91441226,-0.6571111,0.7218157,0.09325633,0.5298561,-1.5218788,1.1979591,-0.34562624,1.1968205,-0.44054055,0.17969023,-1.7635999,1.0079008,0.8812975,-1.5968065,2.086279,0.45302132,0.2545317,-1.7227399,1.313516,-0.32676405,0.4926184,-0.10454081,2.0002463,-0.5151945,1.5668964,0.99973977,0.01984489,1.3604974,1.0423276,-1.0021282,-1.3044086,-0.13461466,-1.03358,-0.47779536,1.7176024,0.6906548,-0.023203341,0.7254592,0.071740575,0.42497322,3.1531017,-1.1561966,0.70712334,0.8719813,0.46651357,1.0171274,0.16583523,-0.10508483,-1.5610796,-1.0735875,-0.9525853,0.33556864,-0.45216155,-0.52028,-1.3317918,-0.33843356,1.9176741,-0.2519739,-1.1129273,0.26297712,-0.25966787,1.2837974,0.18157496,0.30753094,-1.5959625,0.20052685,-0.4306756,-0.3248538,-1.2440133,1.9068812,-1.2516563,-0.37323675,-1.1089131,-0.24836417,0.34556434,0.55634856,1.18849,-1.0275612,0.5387227,-0.22897099,-1.377075,0.7709011,0.1915924,0.8536401,-1.1758788,-0.30489713,0.94349366,-0.8388724,1.3839719,0.3257833,0.021276876,-0.61135566,0.19336988,-1.2956194,-0.4498527,0.5734271,1.1090655,-0.8828856,-0.80098116,0.47141674,-0.3794139,-0.83675635,-1.0104887
MMRF_1032,-0.0033265427,-0.7228023,1.4097832,0.1455718,-0.22100893,0.8275331,-0.59573907,0.6595811,2.2542865,0.4660869,0.5408185,0.78082657,1.5332128,-1.403021,1.035241,-0.71971846,-0.8859999,-0.5985913,-0.59583116,0.22128236,-1.780745,0.8344025,-1.1153003,-0.8707241,0.3723594,0.7212912,-0.53130114,-0.49614266,0.55293757,0.37474647,0.94346696,-0.27309048,-0.43221512,-0.34680054,0.5772449,1.2006643,0.8038342,0.5164421,-0.036446672,-1.3947552,-1.2852502,-0.28994694,-0.34808114,-0.9113584,-0.025374698,-2.2016165,0.3008959,-1.2307554,0.73503095,-1.4610871,-0.6192134,1.5220927,-1.6881918,0.54848653,1.0022303,0.7892724,1.2430079,1.033747,0.79719967,-0.92818624,-0.27243352,-0.29875034,-1.315733,-0.5495706,-0.13696687,-1.8864977,-0.23491861,0.07831386,-0.1528286,1.0877804,-1.7415773,0.62996423,-0.29738024,0.09069024,0.6095941,0.23131579,-1.0903776,0.60336435,0.45430875,0.31467336,-0.8441786,-1.73718,-0.18830395,0.9205488,-0.032771774,-0.22459036,-0.8270345,0.6805372,0.30597916,0.29220226,-0.5280243,0.96242154,0.47157082,1.9198382,-0.5991146,0.6866258,1.6711346,1.9666257,1.5268482,0.007657164,-2.0504515,-1.9702144,1.3243643,-0.3148228,0.2735437,1.1388088,-1.321822,-0.49313715,-0.96245813,0.66262543,-0.35749197,-1.8014994,-0.3682275,0.15100148,1.4227538,-1.2507412,0.558916,-0.05774513,0.58123624,0.95623255,-0.93664867,-1.4788715,-0.08355038,1.1777343,-1.0809798,-1.2263521,2.5562458,1.67976
MMRF_1327,0.96352535,-0.27114305,-0.78553253,-0.46591857,-0.71291745,-0.3006066,-0.39917353,0.38629764,-0.8138575,-1.1063877,1.8198626,-0.2569763,-1.2461302,1.4232957,0.4027465,1.3749743,0.45109817,1.5735359,-0.5665666,0.015418067,-0.7871151,0.14449309,-1.0400895,0.6733304,0.3370145,-0.99015635,-0.26241753,0.70654434,-1.2594755,0.11251256,-1.6775584,-0.87825984,-0.50479865,-0.22101998,0.23587227,-0.79313254,-0.49511558,-0.40245694,1.0492496,-2.1912172,-0.5094826,0.85061485,0.69638073,1.1180514,1.4668814,1.2507606,-2.4349904,0.9353939,0.70436186,0.86397284,-0.4122853,-0.6243111,0.7694952,0.40887204,0.9719231,1.1028726,0.0031629875,-1.6022996,-1.7430309,1.2329401,-0.20246357,0.075228944,0.4330814,1.7681001,-1.2884164,1.4005989,2.1074672,-1.3271973,0.35012937,-1.1759531,1.1354005,-1.028393,-1.8830936,-0.6469378,0.20401882,0.28506982,-0.82841164,-0.76630473,-0.52437747,-0.03814499,0.73012346,-0.10338162,-0.7656256,-2.6618981,0.3351757,-2.038709,-0.6732166,0.08689209,0.6250391,0.63589,0.045516074,-1.5403681,-0.94837964,1.8865963,0.26877537,0.25246817,0.014283994,0.106432386,0.90413857,0.82391673,0.30682248,0.4679978,-1.8459378,1.0349457,1.702136,-0.6949018,-1.1000446,0.27625385,-0.25946087,0.59606075,0.21413428,0.7525669,0.084794395,1.3668997,0.23369515,0.111864015,1.048789,1.9228201,1.0457529,-0.6183397,1.0269778,0.01855684,0.6622734,0.7341216,-0.06466769,-0.7233431,-1.5706594,-1.1572157
MMRF_1210,-0.76856524,0.5761401,2.0799527,0.61244166,-0.07732043,1.415691,-0.41995907,-0.6296652,1.1305625,0.80703986,-1.1235408,-0.8003561,0.31730193,-0.5716041,1.9550495,-0.37590772,0.16652727,-1.007661,-0.7938,-0.53104174,-0.6716784,1.9383568,-0.96574193,-1.3363388,-0.10628427,1.9056182,-0.43487674,-0.0678745,-0.48209068,-0.08577603,1.9892176,-1.1228234,-1.2012515,-0.45159528,-0.4097576,1.7375886,0.6091953,0.48399857,-0.19059531,-0.5502342,0.43919906,0.7203378,-1.5282056,-0.1428939,-0.7208931,-0.14492458,1.6548699,0.069481574,0.8439582,-1.7780364,-0.48710296,0.48817056,-1.1709721,0.3513497,-0.054012552,-1.1987376,0.9288015,0.43231928,0.7320658,-0.45301822,-0.32848722,-0.21051839,0.053937078,-0.07746371,0.24403049,-1.9839057,-0.55614966,1.0578377,-0.30640686,0.53103393,-1.2545112,0.39285716,1.1510528,-1.9345286,0.96984965,0.04261834,-0.801317,0.38144624,1.0286049,-0.14600293,-1.8360455,-1.3823197,-0.8529284,0.437576,-1.1279789,0.22609924,0.2673351,-0.12896277,0.036266744,-0.87078327,-0.9945778,0.54887575,0.25926152,0.9075629,-0.066415265,0.19832952,-0.18315305,1.8167073,0.9264952,-0.115974955,-0.47519928,-1.2999004,2.6331904,-1.5467116,-0.83793914,-0.0654785,-0.738044,0.31802043,-1.1422522,-0.17907816,-0.58446604,-0.6173855,-0.77106047,-0.16772051,1.3729948,-0.60224646,1.5524844,0.081273384,0.4636869,2.2020898,-1.0946892,-1.4948237,-0.29420188,1.0486333,-0.6747803,0.26138574,2.9045346,1.8722235
MMRF_1269,-0.35390353,-0.7176541,1.3919948,1.3191285,0.45009753,-0.034283306,-0.3238926,-0.19518384,-2.16518,-1.6540457,-1.4909449,0.6263731,0.1440433,0.75429666,1.1291418,-1.2924432,1.6407255,0.4884453,0.7866243,-0.8118202,1.6367459,-0.90019494,-0.3146948,-0.10948345,0.28499112,-1.0263252,0.35356507,0.9686713,-0.33588168,-1.3337059,-1.2784314,0.13708644,1.419373,-0.5947049,0.20346136,-2.741682,0.04493716,-0.094091296,-0.05182139,1.1428262,0.5450089,-0.43066272,-2.027003,-0.37395662,0.46767887,0.9461138,-0.5152782,0.7552854,-1.7019655,2.3737245,1.2011957,0.27754256,0.5142422,1.6324265,0.027179861,-1.091909,-0.78776383,-0.55249316,-1.2308276,0.72666603,-0.3698086,-0.54735684,1.4181998,-0.124668986,0.32082793,1.5660135,-0.1478321,-0.25950506,2.5826707,-0.31677824,1.0184534,0.5019767,1.0862646,-0.8987175,0.123020865,0.042775463,-1.2264535,-1.0126522,-0.14639081,0.59473556,-0.54706556,1.6925677,-0.076211214,-0.7774271,0.76704186,-0.6447535,1.3075942,-0.79124326,-0.114124276,0.024833892,1.7495077,-1.958326,-0.44012588,-1.2187033,1.3155994,-0.19731483,-1.7607557,-0.13187464,-0.49199423,-0.74978554,-0.7164729,1.3125834,0.96831465,0.54017097,-0.5612344,0.20766589,0.9330142,-0.05907608,0.63330173,-0.0651706,1.2137579,0.87936264,-0.58252674,0.5345888,0.83901197,-0.5925311,0.51809204,-1.77582,-0.08856592,0.5747417,0.66049975,-0.47408974,-1.0675687,0.28177714,-0.44410348,0.14260294,-2.6214402,-0.281804
MMRF_1251,-0.33723605,-0.10694828,-1.5952779,0.8720608,0.26165077,-1.2543797,-1.9475647,-0.20357575,-1.5074735,-0.25049418,-0.6675642,-0.6210396,-0.2534893,0.9014842,0.65149474,-0.4478295,1.6580604,-0.21580586,0.67587626,0.49146485,0.17036474,-0.1146672,-0.073636055,0.3155841,1.5718067,-2.2229023,0.59883374,0.29886052,-0.2199313,0.30709657,-1.9270629,0.5175845,-0.4359632,-1.602019,0.27960682,-0.37139177,0.4222191,0.30923218,-0.6037576,-0.5707654,-1.1894304,-0.55343354,-0.27827638,-0.87651634,1.020895,-0.37324077,-1.1083697,0.4266426,-1.0298545,-1.3344922,1.6425271,-0.6745404,0.5598691,1.4899458,-1.5418993,0.9198563,-2.5496154,0.9400709,-1.2110497,-0.5278088,0.7095279,-0.08173211,1.542122,0.04249817,-0.37822273,0.1306415,-0.30608347,-0.0580861,-1.112032,-0.58274573,-1.7796876,-0.48080283,0.82199824,-0.095539644,-0.65952456,0.6196138,0.19539763,-1.9980948,0.9022384,1.3807929,0.8241685,-1.0549272,0.75064516,0.45135874,-0.1114983,0.14265265,-0.7186471,-1.8369689,0.292975,0.9824075,1.5940251,0.5829476,3.0200026,-1.0606467,-1.8247305,0.1457597,1.5295588,0.33824232,0.72597253,0.6592801,-0.5082811,0.79127157,0.23772977,1.2555662,1.7590058,0.0047038514,0.6090884,0.61856365,-0.32656875,2.2025743,-1.1813462,1.1201293,0.25471762,1.7036682,-1.123981,0.30931607,-0.8788341,-0.34789357,-0.025123956,0.0005897945,-0.4394074,0.50090873,-0.05121387,2.115075,0.30220836,0.2079616,0.8007255,-0.76319486
MMRF_1328,-0.1582812,0.41609243,-0.9202991,-0.048165478,0.18620774,0.21757667,0.4308217,-0.87972325,-2.1668897,1.1041038,0.933546,0.61039644,-1.0651791,0.0666062,1.7222265,-0.12041914,0.031214263,0.14371921,0.58641946,-0.14412428,0.6911757,0.1258465,-0.13845277,-0.17366768,0.19235402,1.1690896,0.9871963,0.09014423,-0.45944166,-1.35882,-0.85516703,-1.0198803,0.4055521,-0.18248081,1.0795753,-1.8215677,0.4496059,0.027942369,0.04580523,0.41455847,0.81129664,0.18113881,0.2872336,1.8326255,-0.06540008,1.2450321,-1.6877968,1.8790296,-0.6254956,0.10135947,0.8081847,0.8836578,1.4250615,-0.49975324,-1.4272228,-1.3029965,-1.7060074,-0.17847356,-0.13334627,0.021532344,-0.071328685,-0.34214687,-0.017779209,-0.8236225,1.0908365,1.6802002,0.36609095,-0.20274419,0.07477192,0.5884204,1.308018,-0.58472973,0.34757555,1.615002,0.7781395,0.47627908,0.7601802,0.2661199,0.5479569,-0.38020825,0.62952995,1.3033854,-0.49783948,-2.297323,0.12679116,1.0229689,1.6751417,-0.53709394,-0.76554537,0.19636282,0.31713745,-0.75476015,1.5482086,-0.4644479,1.6416326,-1.7914666,-1.3996022,-2.095317,-1.2979804,0.12816708,0.26098973,2.0152278,-0.3403562,0.08805836,-0.8439584,0.6173087,-1.7000616,0.5125143,0.80392814,-0.38854745,-0.34973058,0.79876053,-2.1325688,0.47036567,-0.8267894,1.5016946,-0.8451858,-0.018478697,0.17516015,-0.8525906,-0.9721068,1.935772,-0.058979023,-2.1834993,0.068153016,-0.88087815,-2.7347229,-0.8246852
MMRF_1171,0.38659105,0.1348204,0.56082803,-0.8635161,-0.74606425,0.94213265,0.34265554,0.27282763,1.5312469,0.73799384,0.30966318,0.5181079,-0.05661048,-0.44005805,-0.3282269,0.4042738,0.43932137,-0.5342377,-0.89766514,-0.02614062,-1.7841603,-0.75077075,-0.69087166,-0.5029919,-1.1515584,-0.09711433,0.17222781,-1.5745046,1.2600796,-0.2079447,1.4629647,-0.7480674,1.3044804,-0.6177808,1.5402528,1.3560816,0.81614476,-1.1259685,0.91608745,-0.733107,-0.4662792,0.5763555,0.41076458,0.9702554,-0.5056551,-1.7982241,0.7213336,-0.8430255,1.7639477,0.14895055,0.65319365,-0.3876849,-0.44850117,-0.5261608,1.246852,-0.4029396,0.898124,0.7280834,2.720656,-0.40777734,-1.1824375,-0.3677335,0.67189586,0.24095395,0.09998687,-0.098920874,-0.23734953,-0.84124684,-0.50655764,0.23391135,0.27747363,0.7801666,-0.031250797,0.26325196,-0.74583954,2.3287942,-1.2148242,0.14435068,-0.12286552,-1.7872428,-0.94265187,-1.4110708,0.07141064,1.1112015,-1.5237266,-1.4611902,0.5992308,-1.0651978,0.13333179,0.5280727,-1.6228743,0.3246467,-0.57593435,1.1131111,-1.2003574,0.5210166,1.7130765,1.8366735,1.8644183,-0.09133716,-0.45155722,-1.4415368,-0.99091625,-0.513574,1.0289484,-0.91004294,-0.62796575,-0.5633631,-1.3983444,-1.6343129,0.47520038,0.70637274,0.6866672,-0.27736133,0.807596,-0.7213277,-0.9285143,1.8191228,1.1328379,0.038387842,0.2467774,-1.560905,-1.6672244,2.1697013,-0.10763665,-2.1238105,1.1253748,1.2635986
MMRF_1354,-0.7119736,0.7310979,0.7489722,-0.30392492,0.001254824,-0.40059513,-0.07706497,1.4985042,-0.23295586,-0.5162948,1.0612624,0.010275643,0.46916455,-0.4886369,-2.3479366,1.0274134,-0.7999118,0.13928834,0.71832526,-1.2231557,1.3825345,-0.5329828,0.43201366,-1.4049622,-0.35210615,0.89144796,-2.605182,-0.27908522,0.022733798,1.5872347,0.449049,0.7822894,-1.3958217,1.9014488,-1.0723753,0.19580938,-2.3693044,1.0000225,-0.21727072,1.1912153,-0.8850792,0.54234445,1.4180715,-1.4883213,-0.58876926,-0.3648582,0.66198653,0.06125979,0.3939344,1.107045,-1.0415004,0.38083297,1.7388942,-1.7962649,-0.26755622,0.1624028,-0.12095252,-0.062459007,-0.7065125,-0.29771698,0.31501555,1.556455,-1.1787659,0.83805037,2.331803,-0.37244904,-0.7469344,1.8111614,-0.59055585,-1.5536324,-0.23026031,-0.9712425,-0.9705361,1.4205796,1.04735,-1.8584114,1.6459807,-0.10357428,-0.8151561,0.9320589,0.36707842,0.33080748,-0.46781823,1.1371031,-0.53454655,-0.40968427,0.11805116,0.74412096,-0.25549918,-0.71901786,0.74152976,0.21382312,1.0519862,0.2362777,-0.43823108,1.0364524,-0.44571996,-1.592431,-1.553216,0.28153175,0.6432434,-0.9522532,0.023514748,-0.22865981,0.5948987,0.6139831,1.8824278,-1.0688189,0.7850114,0.1281843,0.7087476,-0.8352259,-0.19726467,-0.36579865,-0.266331,1.8671983,0.933715,-0.62229365,-1.0693183,-0.92143506,0.21748808,0.70156884,0.9239543,-2.330643,-0.26391977,0.64382625,-1.5987818,-0.014133482
MMRF_1344,-1.1086777,0.4014765,-0.63988614,-0.033627674,-2.168281,-0.19359334,1.46055,-0.30638188,0.46621513,0.2999931,1.4500004,1.2001584,-1.3349992,0.50299954,-0.73586994,0.7876604,0.4662881,1.8726336,-0.42514527,1.4039814,0.25361043,1.0710719,-0.39707246,0.7822511,1.4570814,0.52234286,-0.45301524,0.44819564,-1.7966028,-0.12880546,-1.1228855,-1.5757474,0.6637396,0.6042708,0.9788755,0.3270213,-1.6444515,-0.7987684,0.28458637,-0.870124,1.4937547,0.93581027,-0.15865004,0.2943407,1.5643483,1.764539,-0.4246841,-0.059032507,0.40413958,-0.27449027,-1.8095446,0.6157485,1.6452929,0.8690548,0.84343916,-1.2262081,-1.5121706,-1.4910271,-0.08142201,-0.7043179,-0.48390174,-0.92254686,0.8018011,-0.90254486,0.69342536,-0.8618663,2.5498214,1.6932505,1.1240069,0.888234,0.13622175,-1.0474465,-0.76768625,-1.3986046,-0.08095886,-0.12887174,-1.3403924,0.7349491,-0.21405342,-0.13976854,0.74793434,-0.3783815,-1.65682,-0.5624439,0.3658668,-0.30648616,-0.5409747,-0.70783615,-0.6929566,0.21512412,-0.31822455,-0.37891826,-0.9354268,1.2024459,0.5393507,1.1888964,-1.7030044,-0.60668015,-1.4619598,-1.1961236,0.29096586,-0.26261276,0.7512991,-0.19305481,1.041605,0.21758741,-1.4949684,1.2116617,0.8121159,-0.007905329,-1.2104107,-1.0815473,-0.5284183,0.47169155,-2.1177454,2.1601183,0.52616006,-0.07459521,0.6114483,0.74149245,0.95672673,-0.9976934,0.41873953,-1.157062,-0.6706339,1.8795583,0.12149476,-0.31252852
MMRF_1403,-1.7028815,1.4962138,0.9071637,1.4700775,0.25915334,0.4638301,-0.7649359,0.43252262,-1.7179143,-1.860371,0.18215086,0.06829314,-0.3411896,-0.88011974,1.29714,-0.91427433,0.42834646,0.7054104,1.3296394,-2.3099284,1.4463886,-0.517738,0.33498597,-0.706005,0.65271777,2.113368,-0.21301427,-0.019376833,-1.3585104,-1.7368346,-0.7278157,0.23664415,-0.0061249034,-0.7537494,0.60295016,-0.5398493,-1.8248372,-0.98080933,2.2005563,0.8966626,-1.7305492,0.6563597,0.7549277,-0.18565291,-0.47913548,0.6382299,-1.1202949,0.64727455,-1.3468641,-0.9410137,0.05577328,-0.04666254,0.6951286,0.07189623,-0.13404126,0.32622132,0.26587564,0.043178204,-0.38676608,-1.4066827,-0.2517485,0.32177195,-0.6316122,0.17219616,0.4815425,-0.766663,0.27758688,-0.45820814,2.1685617,0.66860586,1.3506358,-1.0380528,0.6492831,0.34732786,0.8469078,-1.4625477,-0.43957177,-0.32528985,1.8343556,0.7367403,1.7807469,-0.22237518,-0.2758454,-0.6824297,-0.3691808,-1.5414608,1.0552716,0.45673957,0.26653183,1.0160062,1.3883108,-0.5235805,1.6054804,-1.0754545,-0.5818168,-0.2643504,-0.43208832,-0.4450339,1.1116942,0.29362842,-0.5219623,0.5696012,2.9793344,1.7095761,1.3945214,1.2802598,0.24895246,-0.9511213,-0.40780842,1.4901848,-0.28866193,-0.076242454,-1.0706837,0.2040688,0.41238743,-0.13240409,-0.44702464,-1.769066,-0.62260574,-0.306256,-0.13120359,-0.07158836,-1.1343961,0.054518487,-0.92215765,-0.16108166,-1.9204214,-0.44742423
MMRF_1408,1.4057307,0.57905626,0.5961371,1.2717901,-0.71204233,-0.50723296,-1.1757267,1.5367543,-0.78430134,-1.9151927,0.13086528,-0.82879305,1.2293726,0.912969,0.34806767,-0.7983934,1.8611627,0.81859726,-0.3265293,0.09452547,-0.070542395,-0.042430583,-0.28352618,-0.13105606,-0.61564595,-1.5943333,0.41992867,0.5246141,-0.19729652,1.4303367,-1.8840032,0.2530082,-1.1734484,-0.36462036,-0.062527366,-0.97516274,1.7946805,-1.2903949,0.54922277,1.1701238,0.43570384,0.8993993,-0.18405454,-0.89497894,2.0105288,0.022773137,-1.3187109,-1.1952745,-0.25263688,0.756232,0.45686576,-1.9805169,-0.0653095,0.5229052,0.9482996,0.75376344,-0.56750965,-0.54202235,-1.8508595,0.54030067,0.7129129,0.8916136,0.6107449,0.3119724,0.84467345,0.9136094,-1.540456,0.32990253,0.34765464,-1.2353472,-0.30456623,-1.5278044,-0.2697646,-0.2427097,-0.7691323,-0.88442063,-0.5488128,-1.639178,-0.8536156,-0.04316487,-1.5605286,0.9932746,0.41206068,-1.3445069,0.4180677,-1.6868916,0.22236486,1.4884291,0.92258686,0.4781286,0.8957692,0.36010832,0.01879686,-0.50722086,-0.69433993,2.0456736,1.1635119,0.44717413,1.331132,-2.34094,-1.58425,-0.51539546,-0.252454,-0.69238627,0.42087722,-0.10264685,1.1378257,-1.5532545,-0.11819784,1.6074395,0.40775385,-0.2679758,0.6865053,1.2335281,-0.110663556,-2.552761,-0.31025547,-1.121338,0.16239838,-0.032981016,1.5021018,0.89635766,0.14410183,0.9072089,0.7330415,1.480553,0.5262783,-0.5586698
MMRF_1338,-1.1179055,-1.7689704,-0.5355123,0.10869863,0.15748069,0.63371676,-0.016688254,-0.04259864,-0.63655263,0.40391484,-0.8143149,-0.09795422,-1.1829895,0.2594626,-0.6040456,-0.43537104,-0.16466892,-1.1305958,0.8023051,0.4412209,1.5821291,-0.71253264,0.30696315,-1.2253187,-0.259569,1.4846512,0.014119328,-1.4351537,1.673634,-0.6280799,1.9822975,0.8885948,0.43911704,-0.4484278,0.06357094,-1.2401448,0.07379733,1.0543981,-0.2505308,0.7742722,-0.68604034,0.19401592,0.60458064,0.26069626,0.43636033,-1.0334172,0.6201898,0.4336459,1.2248759,1.0797995,0.7982391,-0.26288074,2.0159934,-1.2307663,-1.7398161,0.5836625,0.7755227,0.43720964,-0.81349933,0.8024944,0.3081431,-0.11495861,-0.4632188,-0.6386039,0.22267386,0.45807737,-0.35935923,-1.8538189,-0.89485073,0.30217004,0.19752464,0.73095614,1.2872866,1.5351923,1.3421137,-0.044977974,0.43984354,-0.014278049,0.8733214,0.43643743,1.0405823,-0.007063063,1.2014018,1.0087508,-0.07496078,1.2629339,-0.34677044,-1.0500474,-0.65944815,0.15790312,1.4992464,-1.2388341,0.20509571,-0.5314673,0.3476374,-1.5307014,-1.508333,-1.3100152,-0.33311126,-0.042770147,0.68682814,1.7878294,-1.6410838,1.0299162,-1.5594865,0.72714275,0.9236995,0.7339063,0.43260452,-0.5294938,1.5094321,1.0972077,0.27710542,-0.38786927,1.2167311,0.44377735,-0.37083387,1.86889,-1.1025054,-2.3069763,-0.26359874,0.027143836,-1.3596846,-2.311612,0.23613214,-2.9526782,-2.1845179,-0.8078511
MMRF_1342,0.52553225,1.9287871,-0.9130936,-1.1650054,-0.28706726,-0.12810008,1.34804,0.13910973,0.79267347,0.11963768,0.27823105,1.2826141,-0.11116306,-1.5737028,0.13182667,-1.5449357,-2.0641682,-0.45630044,0.17838353,0.8753784,-0.5379782,-0.6514209,-0.40210417,0.89342964,1.0863043,1.4128926,-0.32917258,0.024609685,0.13145621,-0.112447634,0.3922941,0.9290009,-1.7051077,-0.08659579,0.20802416,0.81716025,-0.9775371,-0.72267663,1.3766538,0.9727487,0.15842408,2.0828714,1.6213455,0.9797469,-1.0278472,-0.69100285,1.2084908,-1.6738952,0.7379662,1.6050689,-1.2060015,0.58035594,0.05332771,-1.9999554,0.4044525,-1.1615112,1.5070138,-1.1926969,0.36313888,-0.68458045,-1.7482952,0.30183223,-2.0447419,-0.6069232,0.8241106,-1.2722464,-0.09913617,1.1330528,0.2297695,0.847848,-0.14419593,0.5666342,0.96777946,-0.3217484,-1.2819717,-1.1567644,-1.49477,0.5957737,0.47650984,-0.52001095,0.70642304,-0.06161401,-1.6327116,1.0440075,-1.2592028,0.6034114,1.2288796,1.9392847,-0.55816406,0.2678844,0.754335,1.3640567,0.22228327,0.083763644,-1.8474239,0.4730296,0.14190647,-0.20777039,-0.021551246,-0.042691305,-0.72380984,-0.43101364,1.4693801,0.47252247,-1.1616912,0.4129279,0.82655233,-0.51462084,-0.11976332,0.22592333,-1.1496421,-1.4658722,-1.2519116,-1.8276132,0.41376016,1.346139,0.7026471,-0.14917815,-0.33180645,-1.0197326,0.07884371,0.41106123,-0.7498571,-1.8526088,0.18562625,1.3107246,0.98555344,1.7440012
MMRF_1352,-0.40877587,-2.1808424,0.5768409,0.74496627,-0.23358443,0.8417474,0.9487678,-0.3887854,-1.3081268,-0.6931982,0.14424017,-1.0098972,-0.55253965,-0.27739608,-0.33226573,-0.14965154,1.4621724,0.07795258,1.1404363,0.8673865,0.10167897,-0.68732154,-0.11392477,-1.20278,-0.19448763,0.6341824,0.032794423,-1.743469,2.4574838,-0.68745357,2.0395775,-1.0641357,0.54076433,-1.538161,0.11108948,-1.8440725,0.3100937,0.9522731,-0.020343468,0.5610146,-0.19926596,0.15829396,-1.1143168,1.0555081,-0.72372705,0.04183589,-0.6180833,1.3268917,0.5053642,0.36033022,0.43743917,-0.120845556,1.1392416,0.07749115,-1.05122,0.062452246,0.58427817,-0.43444636,-1.5362197,0.21608482,-0.024212107,-0.06926085,1.0940573,0.53772485,0.7161613,1.4286373,-0.57257366,-1.8131872,1.622076,-0.65024525,1.733831,1.0374618,0.16264549,0.9383402,0.8648959,1.8910387,-0.96853256,-0.08755711,-0.37424755,-1.5316396,-0.17632529,0.081925005,-0.0009221297,-0.4528527,0.30433545,-0.5705168,-0.098149784,-1.5540675,-0.093870126,0.43633977,0.64437807,-1.7785918,0.37661082,0.5852037,1.0503192,-0.7141576,0.13549381,-0.8563911,0.4513063,0.09411919,0.3785327,2.1472256,-1.5873451,1.1974561,-1.5283269,0.12764432,0.053230286,0.7374584,0.6431881,-1.1581662,1.1057059,0.86087674,-0.41754362,0.9597876,2.2886753,-1.1361691,-0.3399673,1.2205276,-0.13990073,-1.7830346,1.5087912,-0.19964476,-0.50663304,-0.504671,0.23654065,-2.486135,-2.1674657,-1.4631612
MMRF_1380,-0.6258327,-1.1495126,-0.35335153,0.98728406,0.24926743,0.54268247,0.7434319,0.3196069,-0.22282182,0.88099533,0.18150058,-3.022996,0.6706004,0.15358356,1.4086969,0.95540047,1.955163,-0.110562384,-0.23945457,1.1688195,-1.3948051,0.37067142,0.4998248,0.27995625,0.1694079,0.013078238,0.35811532,0.5783894,1.723855,1.2105042,1.6352438,0.17432252,-0.1481989,-1.556111,0.06952164,-0.6118218,0.8101599,1.5044482,0.42898542,0.7684073,-0.62703246,1.782515,0.8159645,0.49190852,-0.787929,-1.9287196,1.0243735,1.1483579,1.5594927,-0.24972948,-0.4416154,-2.271421,-1.3839664,0.57418907,1.6424912,-0.58032537,-0.6345147,-1.3784719,-0.74193543,0.8928394,-0.59220743,0.87777615,-0.38899863,0.2869499,0.122921124,-0.86887604,-0.5541703,0.12571816,-0.07706058,-0.094401136,-1.3461933,-0.55813587,-1.2170199,0.5092572,-1.176688,-0.6006906,-1.1453252,0.861946,-0.98828626,-1.2715291,-1.5751898,-1.0225809,1.1986511,0.29177806,-0.5493151,0.85796636,-1.352319,0.49995327,-0.19056499,0.80825126,1.8735468,2.3424766,-0.53264225,-0.54866236,0.5306597,0.1417481,0.9766918,0.6761328,0.07036089,-0.07929957,-1.7483684,0.3949741,-0.21573204,0.6750797,-0.99729323,-0.7316041,0.57489,-1.9766799,-0.097438104,-1.0823673,1.3757112,-1.5769567,1.0287732,0.56266195,-0.4208785,-2.0745857,-1.7420926,-0.9003293,0.2047698,-0.28046083,0.32647252,-0.37101775,-0.5369091,0.13657746,0.2603933,0.7957125,1.2850928,0.53059393
MMRF_1389,0.058671013,-0.33141235,1.1434002,-0.42682427,0.34027934,-1.18054,0.118732125,-0.35995692,-1.7590827,-0.39479038,-1.0128642,0.8795322,0.9029119,0.19153395,0.8779637,-2.1449623,1.4587001,0.6564177,1.0296384,-0.38520655,-0.6285782,-0.13195348,-0.28305316,1.2494841,-1.8716235,-0.33028537,0.795342,0.96694463,1.3845469,-0.59122914,-1.9921627,-0.6147778,0.67767453,0.47768456,0.8229497,-1.1960652,0.3950454,-0.012495196,-2.6508837,0.82832426,1.4790875,0.54192775,-1.5586066,0.32284912,2.171214,2.432362,-0.57971877,0.36273882,0.036039725,0.32406613,-0.041831616,1.6862627,1.3961049,0.1257353,-0.7969253,-1.4288808,-0.6261237,-0.24496496,0.39626026,1.5096005,1.1468832,-0.020677175,2.4006572,-0.53613824,0.020923898,2.535433,-0.020869864,0.555921,0.14047782,0.80905634,-0.42205518,-0.7259373,0.5603074,-0.421244,-0.3604513,0.18561247,-0.90788424,-1.4116353,-0.06473403,0.24906465,-2.2446496,1.7561578,-1.0650083,-1.4149041,-0.16186023,-0.7529201,0.65980285,-0.47060814,0.0050415886,-1.4952214,-0.44570497,0.21294796,-0.1685667,-0.70624113,2.06396,-0.43008938,0.19821517,-0.43559504,0.19619448,-0.8168078,-0.26067913,0.20771393,1.206922,-0.7384936,0.33073816,-1.0844688,-0.46673802,0.18804003,0.6394837,-2.4019327,0.22542049,1.4836069,0.21903129,0.21520768,0.3522519,-0.82501,0.7370322,-0.2720288,-0.13676503,0.76788837,-0.8020117,0.6066044,-0.5638188,0.042855125,0.24443111,-0.87425834,-0.6671056,-1.1459917
MMRF_1388,-0.56267285,1.0570743,-0.020610757,0.052761234,-0.99618304,-0.34600675,0.20508373,0.1278442,-1.2018875,-1.0872263,0.34336814,0.22666858,-1.2714075,0.7418074,0.16227543,0.3947941,-0.79338515,1.0612105,0.6327083,-1.1409633,0.26135647,-0.67903125,1.3000424,1.1867793,0.53968,-1.1785294,0.42503384,1.5590637,-1.1795285,-0.5318557,-2.049824,-0.7865494,0.041946188,0.94511026,0.0691195,-0.55834913,-0.47594032,-2.1031027,1.5175582,0.028786749,0.33835077,0.2960342,-0.3642893,-0.116525024,2.5216398,1.4724433,-1.4648206,0.57531136,-1.960932,0.7423358,-0.14881735,-0.90420157,0.9112808,1.4482603,0.8593185,-0.06041136,-0.19249748,-1.3757288,-0.97119284,0.6619111,-0.73198473,0.060730875,1.1433178,0.3532544,-1.1818018,2.0621002,2.2693665,-0.60835165,1.4522848,0.018550813,2.394216,-0.39468533,-0.05120928,-2.0208728,-1.2279426,-0.7195341,0.55445784,-1.0856737,-0.15424491,0.6846558,0.10467581,0.2604174,-1.298628,-1.3007609,0.7123672,-1.8900821,1.0374428,1.2815845,1.1703633,-1.3858423,0.73205364,-0.64263797,-1.1691436,-0.09171937,0.50842446,0.40437487,-1.2463355,-1.2082305,0.3239679,0.079780355,0.64265037,0.057786085,-0.08868778,1.4366604,1.3020756,-0.66214216,0.084343985,1.0412843,0.7881638,0.1147157,-0.50613695,0.18691225,-1.3485552,0.66144556,-1.3693898,0.27969083,0.60425603,-1.012173,-0.5288094,0.29597533,0.69157785,0.51928025,-0.25281164,0.7594604,0.27888876,1.7082654,-1.5356375,-1.5815593
MMRF_1395,-0.36388084,0.815686,1.101137,-0.07965992,-2.2312558,0.28151974,0.813962,-0.054096557,0.21356146,-0.8675485,-1.6716708,0.09299423,0.4215228,0.48727554,-0.45096934,0.019235913,-0.35823196,1.5304263,-0.369199,0.26632163,0.3877819,0.18769857,-0.7689135,-1.508094,-0.09458844,-0.12262804,0.46828565,0.41123784,-1.5534812,0.4327901,-0.3029474,-2.2913806,-0.97037506,-0.24734603,-0.22283393,0.19747433,0.86203027,-0.3409575,0.81645125,1.4622266,0.97804767,1.6466488,-0.6638017,-0.38125408,0.5965755,1.1770912,0.04676009,-0.54374886,0.052924693,1.4461297,1.0228275,-1.2279203,0.12040031,1.7830375,1.182855,-2.5415869,-0.25652727,-0.14504363,0.04322841,-0.8578378,-0.27178076,1.4944412,1.4705473,-1.9461555,0.693028,0.53515166,-0.3521607,2.3761215,1.7691487,-0.53609794,-0.44878367,-0.44929487,0.6964315,-0.9670802,-0.5284999,-1.9438018,-0.9341465,-0.16078219,0.5744325,-0.09596757,-0.2213725,1.2370765,-0.44782233,-1.0583082,0.17461999,-0.10415773,-0.37260634,-0.07779089,-0.51766664,-0.43895432,0.46303344,1.3006059,-0.33590066,-0.9507231,0.20763901,0.34710613,-1.5875418,-0.93417037,0.1454002,-2.422377,-0.9092121,0.12282576,1.8035299,-1.0454752,-1.0208257,-0.62023455,0.40959334,-0.7179807,0.31009567,2.07907,-0.90653354,-0.96408194,0.70224917,0.3475012,0.16216576,-0.17914516,0.084265195,-2.0492656,0.51904315,0.33157653,1.6288286,0.82144046,0.4044131,-0.921196,0.51042116,3.1015797,0.10626307,0.58293
MMRF_1391,0.7074413,-0.9033309,-2.591551,0.4519541,1.6275185,-0.79554874,0.21989311,0.6452887,-0.95669276,0.7212084,1.6937836,-1.653774,0.6068819,0.52180094,0.9733253,-0.69606197,0.24983802,0.29977766,0.62117517,0.21836218,-0.59612083,0.7290006,0.70611537,1.1366278,2.2692719,-0.5729771,1.252744,0.9625056,0.7887281,0.09364821,-0.013865165,0.6186438,-1.3552232,-0.29948315,-1.148692,-1.3800743,-0.10025494,-0.13784713,-0.36167628,1.3978032,-1.0954282,0.04510258,0.8773491,-0.019780291,-1.2493767,-0.5981483,0.27399212,1.4499794,-0.96637875,0.32337213,-0.20622966,0.27808195,0.7369627,0.42611387,0.798633,-1.0785989,-1.9332911,-0.69007385,-1.0839794,0.23001604,-0.3733016,0.51426923,-0.716782,0.017620035,0.14254472,0.45284754,-1.412,1.9520079,-0.10546403,0.9183187,-0.41899103,-0.60500395,-1.010661,0.67413825,-0.38759565,-1.4270641,0.3139217,-0.0903639,-0.3023784,0.21075396,1.113602,1.338093,-0.55819404,-1.1505135,-0.5042993,1.2884471,1.3805196,1.2735919,-1.1594102,0.60651565,1.1793637,0.27740908,1.8060744,-2.5432708,1.1525401,-0.33255306,1.5461506,-1.5774934,-0.47951242,-0.20571822,-0.041776434,0.6773011,0.23520601,0.66499585,0.21060559,0.04342406,-0.30959585,-0.46649343,0.65212214,0.3464378,-0.346648,0.2571232,-1.9400526,0.32931912,-1.2259183,0.32802758,-0.6360344,-1.842181,-1.2072889,-1.7969851,0.63445,2.0902605,-0.607396,-1.2679771,0.004646808,2.2059119,-1.4362676,-0.85280615
MMRF_1359,-1.1630462,-0.93271947,0.66544807,-1.1275126,1.4741371,-0.7568948,-0.31181026,0.781638,-0.17142244,2.3116965,1.3086514,-0.22932304,1.632528,-1.0124257,0.29246527,-0.5487306,-0.39471987,-1.4108416,1.0570922,0.42759317,-1.6221213,0.025757752,0.012248503,-1.1297961,0.42710605,-0.26286447,0.76539785,1.7029706,0.30917102,-0.63734806,0.48640737,0.37160364,-0.17256673,1.7372769,-0.14189212,-0.0037841657,-1.6887008,0.94297546,-1.0963112,0.5160974,0.46763998,-0.3603408,0.77327245,-0.36177272,-1.0044231,0.8388401,-1.300828,1.3662318,-1.4781395,-2.949685,-0.75621325,1.8669803,-0.94613713,0.78946626,-0.56546146,-1.3687477,-0.18720481,1.0996872,0.7187526,-0.383141,0.7520195,-0.3814653,-0.44384575,0.05153668,-0.4965443,-0.8646682,-0.6811214,3.3268273,-0.49517813,0.7541139,-1.0105985,-1.2895536,0.12270169,-0.10077374,-0.33324194,-0.35712698,0.36739075,0.15303262,-1.1763135,1.1316398,0.05777394,0.17395495,-0.50464785,0.21743542,-0.290323,0.9519572,0.785457,-1.4359896,-1.5518166,0.04000805,-0.43091127,0.09091613,0.9835227,-0.67537534,1.2769986,-0.8095128,1.3191361,-0.63175666,-0.9674685,1.4813211,1.246307,-0.353081,2.2347589,-0.33247668,1.4001372,-0.06672645,-0.112876266,0.6131159,-0.23711923,-1.400172,-1.0839953,-0.43957767,-0.48729473,0.69904435,-2.474304,0.93599313,1.2168773,-0.92277426,0.55315703,0.25718993,-0.17975985,0.69898164,0.6354774,0.16805612,-1.3017691,1.0082605,-0.548985,0.43071923
MMRF_1267,0.46220678,-0.84457785,-0.2593867,-0.2351208,-0.16215591,-0.40097722,0.353576,-0.30451843,0.11783881,1.9871426,1.8635353,0.5632828,1.5364555,0.7606629,1.2233918,-0.65876156,0.05051651,-0.64730376,0.6600915,0.93728334,-2.3472667,-0.5314168,-0.2016661,0.9318068,0.957722,0.12862681,2.0550582,1.0740721,0.8744793,-0.16077703,-0.72800785,-1.6963881,0.15292592,1.7641764,0.95766556,-2.0612242,-0.09761422,0.69499874,-0.78236794,0.50210273,1.2005795,-1.0936862,-0.2953005,0.17812687,0.3808962,1.3240436,-1.459692,-0.53478646,-0.8155396,-1.9019891,-0.9745043,2.1761694,-1.6003126,1.3242371,1.1218741,-0.87938535,-0.1945528,-0.39554092,0.79336864,1.298535,0.16919711,-0.3760091,0.14512081,-0.93838966,-0.93916106,-1.2562279,1.2588757,0.9318812,-0.35387594,0.9483448,-0.20730697,-0.33314168,-0.08318145,0.3532752,-0.16248932,1.1450077,-0.866581,0.5927532,-1.7939668,0.5282178,-0.9063875,-0.7011111,-0.66452205,-0.9738807,1.1628053,1.6119593,1.1103233,-1.0809493,-2.021232,-0.067936845,0.041238904,-0.24680755,0.8457611,-1.1259563,2.6987934,-0.699375,-0.90470994,-0.2617729,-0.99408346,0.77180094,0.21310255,-0.39613074,0.677489,-0.54703027,-0.5815728,0.6059225,-1.0758574,1.133019,0.49921426,-2.2352731,-0.5738736,0.5094897,-1.2108032,0.13350096,-1.4034724,0.041684806,-0.041429978,-1.267355,0.960307,0.81581306,-1.0881886,0.65395373,0.6796012,-0.54356885,-0.71484286,0.78735787,-0.9496254,0.24970579
MMRF_1274,0.43948957,0.88920647,0.36543497,0.5442064,0.26497877,-1.2646546,0.80353594,-0.7953348,0.059598215,0.47833136,-0.16409911,0.65726477,-0.7875272,0.7772236,-1.6861043,0.040621214,-0.0040846933,-0.16505596,-0.7717658,-0.1399445,0.44745073,0.16939451,-0.5403427,0.35606897,1.289669,-1.3222114,-0.019761723,0.15404086,-1.602107,0.18415277,-0.9435851,1.2673695,0.7198996,-1.4987552,0.14198829,0.4454872,-0.37540743,0.22410558,-0.8575655,-0.08992941,2.673798,0.33285895,0.90897167,0.31130037,-0.6609188,1.2716995,-0.1454716,-0.16357972,0.565291,2.0155497,0.23942676,0.49959898,1.134507,-0.5547234,-0.7426697,-1.7365904,-1.0040941,0.5993096,0.7449567,-0.97479105,0.76863766,-1.224857,-0.41303605,-1.5787375,0.5544872,0.17274578,1.2060348,0.62130284,-1.0739868,0.37718487,-0.89336455,-0.040640865,-0.36321083,-0.6910426,0.40217552,-1.3733915,0.7069967,-1.490187,-0.024492886,2.7438896,1.5040545,0.95973665,-0.5373842,0.4576478,-0.40412813,0.6886261,-2.1779988,-0.11004853,-1.0807015,-0.17429434,-0.39316422,1.7134261,-1.0128795,0.34302193,-1.4986039,0.0111792255,-1.4458958,-0.77697396,-2.274565,-0.027985964,-0.93637776,0.21583289,1.6300184,-0.068681724,-0.60485584,-0.38588363,-0.80794656,1.1694667,-1.2812504,1.624521,-0.5134691,-0.76484305,1.1892483,-0.40818745,-2.102385,2.599351,0.706679,0.24245031,0.33471495,1.0661886,-0.27958438,-0.9155246,0.68517345,-1.518528,-0.11933311,1.9984088,0.65709126,1.399198
MMRF_1037,0.32774368,0.11528138,2.3753262,1.4171606,-0.4193275,1.3512484,0.2951588,0.52582043,1.6962351,-0.032449983,-0.048746824,-0.8679186,0.5520101,-1.8795675,1.4160753,-0.40013912,0.091244765,-1.1328981,-1.9508334,0.47626084,-1.2348293,1.004695,-1.4765416,-0.6545298,-0.5589501,1.4430965,-0.5830297,-1.2727408,0.27380106,-0.13220496,1.6758648,-1.2339454,-0.5205464,-0.9236182,0.5167838,0.28074622,1.2567155,0.8841169,1.1545359,-0.5727557,-0.5173497,-0.06918119,-1.0479772,1.0051131,-0.9824076,-1.7078875,0.89558816,-0.22638501,0.09675525,-0.46386915,-0.677091,0.39784947,-1.7419335,-0.075009614,0.6309242,0.29956374,2.240001,0.3940777,0.36084977,-0.7392788,-0.67864776,-0.66123927,-0.64493704,1.1417501,0.54050165,-1.6450883,-0.56010056,-0.86624396,0.08488923,0.7062985,-0.41712493,0.15035471,-0.15895748,0.08435154,1.0706255,0.60068,-1.1302983,0.90948486,0.29226872,-0.3684523,-0.7812182,-1.9639784,-0.61810917,0.22345376,-0.37844652,-0.54537517,0.17323917,1.3186995,0.45438814,0.52676314,-0.9529666,0.7701563,-0.37400454,2.161092,-0.4930538,0.83596873,0.8672621,1.7154421,1.6619307,-0.41912016,-1.896468,-0.9849937,1.194249,-0.84372246,-1.1819872,0.81926924,-1.0547149,-0.6185134,-0.48629817,0.06050235,0.14487992,-1.7500057,-0.5651363,0.0057438994,2.1823,-1.4672546,0.8882959,0.71583146,0.7843685,0.5217654,-0.9739334,-1.247444,-0.22931305,1.0745796,-0.62404394,-1.3341504,1.8958181,1.060087
MMRF_1033,-0.25760746,-1.7628531,0.56543225,0.6012105,1.0596457,1.4339983,-0.049699474,0.07322702,1.0014514,0.48376244,-1.4945614,-2.6294627,0.98943764,-1.2495564,0.35875294,0.0707499,1.2835886,-1.191475,0.4893249,0.7818153,-1.8899282,0.41985628,-0.12349399,-1.2944303,0.09087704,-0.14815341,-0.24198328,-0.13793938,2.0767126,0.14313622,3.05513,0.09118181,0.6805808,-1.310544,-0.55615014,-0.0982517,0.16137399,-0.3836492,0.5551708,1.0074449,-0.46718913,0.75957686,0.7703305,-0.13961807,-1.8439174,-1.291655,1.9038763,1.7435375,0.4249218,-1.4346215,-0.24802977,-1.3351182,-1.5064856,-0.39350134,0.37466535,0.35709888,0.019391954,-1.013552,0.38352343,1.1829013,0.3548221,0.5532123,-0.47930342,0.44322187,0.10384699,-1.2260303,-1.2322494,0.75270003,0.5281436,-1.2741758,0.884014,0.5322486,-0.605271,0.39509532,-1.7391379,-0.97701347,-0.9922487,1.8747587,-0.6195339,-2.4425323,-0.98294735,-0.25107965,0.55732256,0.44800624,1.0362002,-0.26869917,0.42651302,-0.9850048,0.44945306,1.4857298,0.42941052,0.94902396,-0.78946435,-0.8327425,-0.15243104,-0.5235328,1.6044784,1.6332084,0.5315662,0.4529534,0.07277969,0.086867034,-0.5950643,-0.47045675,-0.30701068,-0.7393811,-0.5692585,-0.9406237,0.29741168,-0.5835272,-0.52143896,-1.9291514,0.67276555,0.5740772,-0.5434255,-0.84732395,-0.98098874,0.28504026,0.23490578,0.43398452,0.40946132,0.8766271,-1.0944256,2.4744127,0.017114876,0.45559168,1.0742364,1.136584
MMRF_1031,-1.3644553,1.1724414,0.8935649,-0.4566503,-0.12594292,-0.002434684,-0.7998078,-0.2957042,0.80724055,0.17545265,0.09739164,0.7961313,1.1849505,-0.5328082,1.3983647,-1.5412868,-1.2216325,-0.6333135,1.2017875,-0.39329588,-0.06937547,0.19624652,-0.5156825,-1.0227575,1.3225728,1.6073809,-0.35325533,0.053429607,-0.80566955,0.2579125,1.3682283,0.7396248,-1.1345725,0.76987493,-1.2576616,2.1402764,-1.2256856,-0.7285527,0.5609974,0.2284214,-0.3238265,1.9600272,1.3952688,-1.6648936,0.39767066,-0.3137768,0.70930475,-0.52295864,0.08977469,-1.5869415,-1.3538121,0.79308367,-1.1001657,-2.1347249,-0.3506429,-0.7174694,0.78008705,-0.4032264,0.014151581,-0.6601862,-1.2168822,1.0291004,-1.1939461,-0.10983731,0.4040557,-2.9477525,-0.26383543,2.168213,-1.1640149,0.3742812,-0.7579752,-0.58794385,1.4246808,-0.24960586,-0.42439824,-2.4783518,0.62949026,-0.06527834,1.1493757,-0.15955693,-0.7129499,-0.9961423,-0.83985746,0.72960085,-0.7652055,0.34270996,0.006502049,0.5247592,-0.35252243,-0.06644283,0.8136977,0.9902706,1.5720655,-0.23331735,-0.35059008,0.38435146,-0.35946733,1.029407,0.1637971,0.3927857,0.30724996,-1.3537607,2.9593382,-0.45669305,-0.08817056,1.16905,0.2591135,-0.48813123,-0.6388521,0.87495285,-1.0599829,-1.0623906,-0.4519413,-0.6152311,0.3292553,1.5816622,0.9942494,-0.65115213,-1.073198,0.76892924,-0.77337116,0.3100784,-0.6435643,0.11212614,-0.11574924,0.8564725,1.648987,1.9821405
MMRF_1068,-0.8223903,0.23996642,0.62058246,0.48049054,-0.29184577,0.2361063,-1.3036212,0.8835712,0.043480024,0.114491016,0.32505363,-0.09112554,1.4466983,-0.380178,-0.7516129,-0.54114217,0.91068274,-1.1948793,-0.72163016,-0.37030986,-0.32140717,1.4906663,-0.18885362,0.5768665,-0.13363697,-0.06629815,0.5699733,-1.3747839,-0.24479829,2.587198,1.8166777,0.024786247,-1.9599628,-1.0120304,-0.48308846,0.938522,0.299412,0.9256799,-0.30710882,-1.4068239,-1.4793885,0.2922623,-0.18414985,0.23125651,-1.3382297,-0.73138124,-0.32964498,-0.4296428,0.91460705,0.101976685,0.7014717,-0.85631955,-1.566844,-0.81488097,-1.0986385,0.44440588,-0.17486303,0.6386159,-0.08528773,-0.5422168,0.09341702,1.5773216,-1.3123415,-0.19083336,1.2605665,-1.5955708,-0.8196486,1.2205291,-2.335873,-0.052788287,-3.1819112,-0.79681385,-0.09715151,1.0793834,1.1378188,-0.9696787,2.0485163,0.34512088,0.6558833,-0.022878746,0.5730915,0.15217234,1.420128,0.0017146142,-1.8215947,0.43078715,-0.97906744,1.4146119,1.0682523,-1.3295281,-0.29284203,1.0029281,0.8629276,-0.08289441,0.21077712,1.1175165,1.6937841,0.028664697,1.2601229,-0.5153038,-0.7957565,-0.9091136,2.0098503,-0.9005487,-0.29501653,-0.37994716,0.7867676,-0.76786405,-0.06004884,0.745045,1.0207644,-0.9203045,1.5394484,-0.2122551,-0.57557154,-0.0425253,-0.85646725,-1.220583,-0.91830486,0.5718955,-1.463403,0.17791402,1.4500104,0.45195246,-0.043921866,1.1461738,2.2394462,-0.27737808
MMRF_1078,0.786152,1.5014422,0.41133398,0.44400355,1.7460821,-0.9046808,-0.8040249,-0.12369169,-1.0153804,-0.14541882,1.1866869,-0.08174572,-0.7862907,1.2143854,0.8526505,-0.5693449,0.8051511,0.14681187,-0.12730512,-2.0358236,1.3367312,0.19360933,-1.552079,0.34366938,2.8518572,-0.98933375,0.71688247,0.49348053,-0.98729104,0.96722275,-1.3555268,0.77794176,-1.0076165,-0.5441016,-0.8483173,-0.7197661,0.4878393,-0.04860715,0.51149493,0.8723082,-1.0484751,0.58268476,-0.51939225,0.077110626,-0.20463546,-0.7517984,0.123709716,0.13436374,-1.0192717,1.5638703,1.0727175,-1.445687,0.64648855,-0.32650918,0.65631056,-1.1205287,-1.827542,0.0045595737,-1.1876688,-0.09613317,-0.49495405,0.4182181,-0.025833825,-0.6665274,0.37816575,-0.44337007,-0.08617331,1.1082546,-0.4400431,0.37257165,-1.5431688,-0.4468189,0.4883683,1.5431908,0.7193431,-2.1417243,1.4802334,-1.6522663,1.2466375,0.82590103,0.6615066,1.2390705,0.53127337,-1.3432142,-0.5949955,-0.03645038,0.16877557,1.8821338,-0.31995046,0.5958629,1.8306631,-0.2640738,0.7300303,-2.2919064,0.23528111,0.32132128,-1.1787803,-0.78192145,-1.4702458,0.95317954,-0.73035645,-0.34538865,1.8244439,0.76674855,-1.0794103,0.50546587,-0.25388968,0.2514185,-0.7571746,1.8100523,0.17492273,-0.5702567,0.3892233,1.6237589,0.21081218,0.68122214,-0.23564011,-1.0889972,-1.6754465,-0.48416436,-2.0723686,0.61799526,-0.47818622,-0.79114497,-1.026444,1.9442061,-0.38157335,0.37549293
MMRF_1086,0.4273521,-1.2093931,0.26126832,1.0304899,-0.33465993,0.04690525,-0.45642826,1.0620148,0.3491705,-0.40662733,1.4630069,-2.1451876,0.43299863,0.35566407,-0.102700785,0.32393032,2.2653215,-0.22447407,-0.99647665,0.49287015,-0.5850593,0.94008523,-0.4188501,0.70049715,-0.3298728,-0.4028524,-0.56666476,-0.42913115,0.47535253,2.6093729,0.68164873,-0.81750524,-1.4389796,-0.8254094,-1.1003914,-0.39176324,0.6067887,1.2572789,0.30656388,0.16538386,-0.99406826,0.8746886,0.63766915,-1.1308751,0.061685663,-2.1462436,-0.03623668,0.13239424,1.0742873,-0.5310054,-1.302557,-1.4017543,-0.4280725,-0.9791611,0.98510283,1.5547838,-0.18182242,-0.32946512,-1.0141803,-0.09830044,0.077482015,1.6871637,-0.6323926,1.452574,0.9356702,-1.2887343,-0.41059276,0.36645448,-0.5854312,-1.5845909,-1.2000409,0.41465595,-1.451474,2.0645473,0.71767336,-0.7017844,0.75043136,0.30020106,-0.70060307,-0.9695889,-0.5275643,-0.84318084,1.1659586,-0.929269,0.48766306,-0.7164968,-0.36375073,1.9407305,-0.056801427,1.451011,0.250435,1.345714,0.37548757,0.8185867,-0.5896256,1.4946659,1.7984693,-0.44661367,0.6181852,-0.3685364,-2.4211154,-0.36713403,-1.1106081,0.12565535,-0.421405,0.29068205,-0.0051853554,-1.3574797,0.31606442,1.2159848,0.94942826,-2.6279697,0.5578449,1.9009472,-0.0062781908,-1.2192976,-1.3856899,-0.7410431,-0.122378424,-1.0475338,-0.1153912,0.9758327,1.3859142,-0.029368656,-0.057758287,-0.0285498,1.3260094,0.0676307
MMRF_1082,1.749031,0.0377941,-1.0684328,0.98946834,-0.36576277,-0.7937353,-1.2092998,0.036093228,-1.2414882,-3.017798,0.85213554,-0.35207063,0.14119089,1.007765,0.8513713,-1.0460477,1.3853226,1.2073579,0.6751512,-0.29978934,0.94018805,0.43510973,0.32538122,1.845016,0.7169916,-2.0058393,-0.15611915,-0.058637466,-0.78991497,1.2403624,-0.30153805,1.7775877,-2.1692655,-0.63953,-1.5712633,-0.70754695,0.6639319,-1.2304432,-0.75505126,0.921382,-0.56526977,-0.2818632,0.14156717,0.3317786,-1.873527,-0.9355466,-0.6421393,1.4824554,-0.34964925,2.5202804,0.0954383,-1.511163,-0.047233663,0.8584171,0.8991655,1.4747889,-1.0383638,-1.1444758,-1.701357,0.006351554,0.5818166,-0.1322518,-0.073755294,0.69788533,0.7342123,0.27051798,-1.3702466,0.010933524,-0.42418987,-1.4280986,0.5129002,0.44550282,-1.3026594,-0.04491532,-1.5041459,-0.44125453,-0.2998667,0.938298,-1.2984698,-0.1517203,0.0036399513,1.3871143,0.6017252,-0.83722126,0.12993707,-0.23298125,-0.35179853,1.8210851,0.39190096,0.47343764,0.09609019,0.074706666,-0.83131087,-0.094080694,-0.27120247,1.0526366,0.3850232,-0.50661695,1.0320063,-0.05950021,-1.7715443,0.29594702,-0.885094,-0.3930669,-0.74840045,-0.67462665,0.2862905,0.04202786,-0.13627058,2.9194033,0.7756266,-0.5703405,0.29128847,0.86982566,0.35132843,0.22662851,-0.32373548,-0.24078113,-0.74909264,-1.0458364,2.0346634,0.84077746,1.2961446,0.07166499,0.33858562,1.6549513,0.513147,-1.0106729
MMRF_1092,0.9144082,1.1212423,0.91853637,-0.34410748,0.17031963,0.5973392,1.01456,-1.025726,1.0972962,-0.7317346,-0.00538678,1.0669433,0.3287098,-1.0926961,-0.5855377,0.40650615,-0.6274702,-0.2123068,-1.4106518,0.18107472,-1.2652472,1.2212633,-0.5540407,-0.8252064,-1.5368972,-0.80027676,-0.94659656,0.05889678,-0.82757133,2.2805083,-0.084718555,-1.314824,-1.3155063,-0.2725835,-0.08575692,0.72299945,1.0885003,0.8670942,1.3911027,0.0403339,0.43974417,1.6003705,0.6007475,-0.20794377,-0.29193372,-0.035000138,0.40514585,-0.88497555,0.77573276,1.3750992,0.4281663,-0.67097175,-0.5895231,0.5242165,0.8400518,-2.131953,0.5111897,0.73135114,1.3987424,-1.0658563,-0.9315218,0.5018593,1.0036896,-1.7162387,0.045125864,0.28069633,-0.55054986,1.0668447,-0.669818,-0.45279688,-1.2590494,0.56562996,0.1018023,-0.52187777,-0.36251965,-0.20033602,0.48874956,-0.47199684,1.3814826,-0.007973999,-1.1533787,0.16786127,0.21643075,-0.46164563,-0.28753704,0.64192116,-0.675522,1.3022463,-1.5184125,0.24353138,-1.5385722,2.07634,-1.4458964,0.7856067,-0.36122647,1.1627736,0.45224768,0.35003385,0.5326094,-1.3679347,-2.0362146,-0.55436903,1.5520059,-2.4961615,-0.6837137,-0.8923195,0.4695199,-0.70339304,-0.2584093,0.72931427,1.2014366,-1.1397538,1.3581034,-0.78991437,0.2428504,-1.2740991,0.07015276,-1.2366906,0.4297593,1.1296574,-0.96492594,-1.2888864,1.1544422,-0.11382501,-0.7965658,3.0570478,1.7105874,1.4013007
MMRF_1325,-0.45350286,-1.6603453,0.81989115,-0.18429804,0.2132207,0.40774152,1.9302672,0.2512868,-1.3164865,0.9254478,0.08590443,-0.21389489,-0.7718725,-1.2211008,-1.1010512,-0.40753183,0.50909144,-0.9925979,1.0749731,0.3627682,-0.7970127,-0.6665538,0.7424333,-0.059237897,0.15829748,0.9654332,0.7374824,-0.6288231,0.44310915,-1.6854113,2.1326983,-0.92480356,0.966249,0.7357115,0.4349625,-1.2079402,-1.2142239,0.61940324,-0.63686496,0.6974937,1.4867555,-0.6025949,-1.0062604,0.374392,-0.4387763,1.893588,0.90016645,1.1979192,0.24719672,-0.16393821,-0.09944589,-0.24824122,0.6105308,0.49451536,-1.5568193,-0.26189908,0.5751301,-0.8325573,0.9370297,0.41377583,0.38330555,-1.5605457,0.42782933,0.73945093,0.9697115,1.1742896,-0.29228163,-0.4419883,0.1483492,0.99818385,2.66571,0.8992734,0.7189429,-1.2293411,-0.73805106,1.1211958,0.56011844,1.123936,-1.927157,-0.52159065,-0.29435712,1.5591993,-0.8315422,0.22907718,-0.2439774,-0.80198854,0.9105951,-1.7039032,-0.91628796,-0.65920806,-0.214214,-2.1724145,-1.2958207,0.0775694,1.5162919,-0.8389703,0.09807825,-1.6884618,0.3007311,-0.16007672,1.9678028,0.6993909,-1.1770816,0.3830215,1.2586772,-0.51173,0.46208352,0.9317019,1.5360714,-2.1770077,0.95496637,1.5943692,-1.2786194,-0.80328774,-0.74303275,-0.008252694,0.54516566,1.3075076,0.021584589,-0.34575376,0.44985962,-0.23957144,-0.60716057,-0.90585625,-0.33855993,-0.31348693,-1.731696,-2.0695655
MMRF_1364,0.5674668,0.93534184,0.0015493706,-0.67084575,-1.5930514,0.38914314,1.1161178,0.4064611,1.3220382,-1.1143458,-0.048775904,0.78013426,0.7451075,-0.50526416,-1.1997857,0.829536,-1.5174415,0.56939304,-0.5626561,0.49019536,1.1963727,0.76680875,-0.96150917,-0.05493153,-0.99573356,0.37299556,-0.89754564,-0.5270621,-1.5919665,1.2625378,0.1282212,-1.2915589,-1.9859004,-0.0016073044,0.23582287,2.11495,0.9402871,0.67600435,1.1575105,-0.5007058,0.3154827,0.2886649,0.3289604,-0.07156783,-0.20599963,0.3469073,-0.22050923,-1.7533286,0.7207982,2.3903432,0.690742,-1.3505582,-0.1740753,0.038132768,1.8682039,-1.4018273,0.2744069,-0.49054727,0.17028382,-0.86782473,-0.8017117,0.8560722,-0.21513389,-1.5739919,1.5543265,0.14889573,-0.31141177,2.109697,-0.35194087,-1.2187002,-1.4018552,-0.27890265,-0.095443845,-0.6941546,0.12871338,-0.9106789,-0.42848384,1.1103846,0.4633681,-0.841917,1.1097207,0.36292,0.005708681,-0.06146417,-0.41260827,-0.15944771,-1.2285125,1.2094684,-0.6674573,0.83510417,-1.2784038,1.8403897,-1.9691474,1.1243132,-0.35636085,1.6760685,-0.6411158,-0.21540095,0.19855085,-1.6596704,-0.58762014,-1.0060234,0.73550665,-2.0193903,-0.568372,-0.07824407,-0.20267604,-0.44697103,-1.2229702,2.4479434,0.15311831,-2.0522826,0.5976426,-0.53237003,0.09765333,1.2862508,0.49176255,-0.11826896,1.2053386,0.026045712,0.37900925,-0.53765446,1.238454,-1.1299905,-0.46211368,2.1358433,1.0868812,0.27906594
MMRF_1383,0.44909105,0.8307995,1.0428787,0.66115713,-0.29968587,0.17688096,0.4986778,0.97637355,-0.8385953,-0.70270383,1.7054303,-1.618217,0.1673631,-0.8473418,-0.2368455,0.34849373,1.7228286,0.07487503,-1.4213742,0.91764295,-0.79967594,0.43763858,-0.897183,1.3494109,-1.0547262,0.39376688,-1.231419,-0.75290966,0.5367001,1.4694093,-0.29989424,-0.6816607,-0.9847301,-1.3552967,0.07297636,-1.1562153,1.5716672,-0.015608271,0.5244939,1.0862528,0.026126824,0.40121034,0.23429279,-0.15806748,0.05421331,-1.6188616,-0.49734175,0.28945643,0.98785126,0.38122326,-1.4088665,-1.5666355,0.98342466,-1.4133677,0.9262717,0.60671777,0.29037312,0.189292,-1.2817379,0.4078583,0.100394815,1.3986825,-0.16308682,2.3812745,0.824557,0.5619107,-1.0967152,-0.67941886,-0.4702751,-1.184074,-0.79484856,-0.30252168,-2.164536,1.4577527,1.3559909,-0.4932411,-0.035266474,0.14924334,-0.80256736,-2.003367,-0.32717282,-0.7689782,0.4613838,-1.6387156,0.21146236,-0.6647513,0.32436952,2.0698586,0.64357185,2.0278306,-0.6702612,0.97071606,0.09243631,1.0377512,-1.3374288,1.4740154,1.978809,0.27853012,0.46342343,-0.905188,-1.2733932,-0.86627984,-2.0106065,-1.2284293,-0.614151,-0.22176766,0.2634187,-0.9306948,0.60870886,0.8080566,1.078449,-1.9245253,0.52234626,2.085803,1.1295058,-0.7354678,-0.28843394,0.22391915,0.09103168,-1.2130052,-0.9475669,1.0370728,0.6584777,-0.09794216,0.28755438,0.054033235,0.880384,-0.78015184
MMRF_1377,0.69735247,-1.2264673,-1.6786146,0.6500838,-0.85456425,0.5726122,-0.07265843,0.620848,-0.9896962,-0.24130385,1.3879814,-1.8946645,-0.15251973,0.68367016,-0.09987418,1.4729148,1.3891267,2.2500985,-0.12890723,1.0128635,-1.9442266,0.35118803,1.2493879,0.6973394,0.091404706,-0.8503864,0.9493125,1.1616215,-0.054331988,0.9938116,0.2853595,0.5881813,-1.490044,-0.76686305,-0.06766122,-0.6222055,1.1735172,-0.7265182,0.379607,0.08173665,-0.540546,1.2148848,1.187944,0.65488005,0.112458706,-0.92113173,-0.64138263,1.4077576,0.7185263,-0.8652608,-0.49031368,-2.3729374,-1.385703,0.8524294,0.7826594,1.441199,-0.5379079,-2.438089,-1.0517768,0.3967258,-0.5906406,1.3673878,0.2864722,1.1535279,-0.15133506,-0.5151698,-0.16742016,-1.154849,1.1200399,-0.7228731,1.7415292,0.153469,-1.9083313,0.032624513,-1.7796078,-0.43447164,-0.28468433,0.15812227,-1.3181498,-1.172387,-0.8266398,-0.14119743,0.77224624,-0.5487629,0.77889735,-0.17830366,-0.80914634,0.5133569,-0.064876676,1.0189205,1.2444502,0.3980087,-0.60015255,0.10842883,0.011333553,0.11842818,1.9382459,0.740267,0.64368623,-0.38121995,-0.6984719,0.47275597,-2.2701492,1.6927791,-0.02473199,-2.0633695,-1.2432742,-1.159429,0.54556215,0.75557494,0.3515412,-1.1503781,0.5439973,0.068354405,-0.29339844,-1.2638284,-1.5155543,-0.3976754,0.3264657,-0.7462244,1.7086802,0.79944104,0.049458183,0.89663786,1.4197863,-0.008540841,0.4453996,-0.26350206
MMRF_1360,-0.87152004,1.591433,1.0804199,0.74880326,-1.386542,0.5580806,1.4284499,-1.6610898,0.42648846,-0.37207276,-1.5710442,0.7747053,0.67559534,0.45480633,0.28309664,-0.63406575,-0.22367924,0.7069826,-0.36666754,0.28718036,-0.55164325,1.2892025,-0.57359827,-0.66684055,-1.6733744,0.26538613,0.7438624,0.64021665,-0.6863106,0.89105296,0.16395925,-0.9940254,-0.50827676,0.2998179,0.09268741,-0.34190685,0.57919085,-0.48482168,0.78828746,1.4155661,1.3296344,2.7868524,-0.3450095,0.15984347,1.1662279,-0.07103319,1.7844329,-0.023359016,0.7376528,-0.5827483,0.49954826,-0.5498723,0.26522467,0.9319438,-0.3114183,-2.964447,-0.6552646,-0.028790226,1.8740041,-0.7355929,-0.19992666,0.5233332,1.6806859,-2.9297707,-0.5116799,0.106145404,0.1920551,1.0028383,0.48943406,0.29695228,0.3463106,-1.1224563,0.8059156,0.80142176,-1.3797842,0.78664255,0.07272514,0.83273613,0.9844343,-0.52656,-1.8842309,0.9734606,-0.638833,0.49384233,0.43786985,1.2140268,0.27049747,-2.092577,-1.3597418,-0.94354266,-1.0422604,0.803187,-0.597967,0.4563171,0.8211579,0.6350245,-1.737421,0.98114526,0.009124769,-1.8620248,-0.35161668,-0.9163851,2.113951,-1.4976631,-0.47024965,-0.92022234,-0.96185595,-0.30382773,0.021651592,-0.8744472,0.13909344,0.14582507,0.29497296,-1.2267804,-0.001178408,-0.96462846,-1.3482561,-1.4542887,0.06021164,1.2997661,0.41936594,-0.5678583,-0.36993206,-0.6439552,0.5554818,1.2972767,0.6887896,0.7063888
MMRF_1371,-2.265641,1.4908012,2.702567,-0.606158,-2.0126035,-0.09603882,-0.9053765,0.4713913,0.16794679,-0.7694072,-2.1684248,0.24384212,1.3166963,-0.9663311,-1.4369797,-0.27058062,0.38694912,-0.6400626,0.2625381,-1.2912139,0.76064825,-0.20255993,-1.1643271,-0.15672998,-1.920039,1.2908262,-0.42246172,-0.76088166,0.11694642,1.1078851,0.87653726,0.28598756,-1.3459252,0.050542966,0.08245961,0.44439164,-1.0398268,0.42724043,-0.71745837,2.060094,-0.9220775,0.7819297,0.32242024,0.15779857,-0.36489415,1.2821599,0.6915845,1.0229446,1.8663361,-1.6918632,0.4464634,0.04872992,-0.11082906,-0.5215703,-3.0652971,-1.2597322,0.03301255,0.26433793,0.41898042,-0.021402936,1.4559915,1.109795,-0.5269058,-0.6466722,0.41434643,-1.1740085,0.22365625,1.9230472,-0.24964516,-0.010690264,0.4632978,-0.4522334,0.42686892,1.8005226,1.0085635,-2.3190136,-0.5395035,0.45332623,1.1894408,-0.2835055,1.0823233,0.4162015,-0.35219806,0.6434967,-0.42079034,-1.2137069,-0.20603617,-0.63894206,0.84780157,-2.0427897,-0.39259866,0.8987531,-0.7942761,0.79986024,-0.34449437,-0.11403904,-1.1135693,-0.439964,0.16080867,0.15607819,0.9579646,-0.02182975,1.9738002,-1.4498814,-0.22905447,0.118381165,0.8697353,0.7537254,1.285338,0.4763633,-0.81023854,-1.0513891,1.8793589,-0.034540135,0.20221871,0.7928335,0.07965429,-0.445452,-0.29192215,-0.6174536,-0.027136441,0.58212864,0.56645733,0.50740117,-0.54879683,-0.07341916,-0.5625757,1.042329
MMRF_1089,-0.36051464,1.0313108,1.4442992,-0.061284006,-1.3569561,1.2247612,0.60943896,0.35548115,1.4572643,0.158643,-1.6857977,-0.061672177,-0.08489991,-0.010899054,0.5819856,0.41395152,-1.4403752,0.064366266,-0.2023846,0.6574732,-0.16412511,1.2284738,-0.6926089,-0.86480737,0.118888445,1.6267295,-0.47264543,-1.0861409,-0.73471224,-0.7264386,2.0732062,-1.2103825,-0.63104695,-1.0802637,0.003008082,1.8243551,0.34547564,0.3463836,0.072735526,-0.5169004,1.0062231,0.7542379,-0.32047045,0.6791151,-1.0826063,-0.5156472,1.6229187,-1.0022211,1.5336314,0.2452445,-0.28786173,0.22174409,-0.5354557,-0.662785,1.4215888,-1.1990814,1.3012843,-0.050650664,1.2422235,-0.7722862,-0.7565743,0.14183798,-0.9353459,-0.67721415,0.16496994,-1.0781097,0.18862385,0.6900341,-0.58000624,-0.86419815,-0.8313224,0.42191485,1.2117869,-1.298563,0.38008797,-0.5319153,-1.4290066,0.75377357,-0.023863062,-0.43488294,-0.21034805,-0.6766435,-1.4839313,1.7637084,-0.86468077,0.43168512,-0.40430218,0.25624526,-0.70193255,-0.23632492,-1.0747993,1.8417968,-1.3416259,0.7203881,-1.0002571,0.0020372774,-1.356701,1.3058178,0.11181242,-0.44767472,-0.3901645,-0.8137502,0.71421176,-1.546285,-1.5892498,-0.31695053,0.10605971,-0.12527508,-1.4151232,0.45691594,-1.0992494,-1.3568655,0.0049238936,-2.1706622,1.2835411,1.4020712,1.6580383,0.9504285,1.1170768,1.5236862,0.5781774,-1.3847524,-0.16588491,-1.3672875,0.9369219,1.2557402,2.6456177,2.1469183
MMRF_1365,-0.41627535,-3.460351,-0.64608717,1.615634,0.71649015,0.8870768,0.2403209,0.24981451,-0.18643758,1.0101793,-0.7453028,-1.7017194,0.1576198,-0.11296416,0.7660584,0.6443803,1.356996,0.34494323,-0.26346123,0.27618912,-0.95715857,-0.026416129,0.54302883,-0.9775748,0.15657404,1.0962837,1.2584063,-0.9221743,1.6297524,-0.7540362,2.5571308,-0.5254356,0.9931143,-0.061380185,-0.03759786,-1.2414434,0.8556362,0.8497183,-0.29485115,0.3657663,-1.556785,-0.41626814,-0.39768136,0.2507852,-0.28440258,-0.24910405,0.5259963,0.7229857,-0.06364412,-1.0777295,-0.1137336,-1.1043601,-0.03599521,0.5377684,-0.7171079,1.3257333,1.292751,-1.7208759,-0.5088644,0.47968727,0.28011024,-0.58583975,0.10170493,0.44566745,-0.50837725,-0.58056873,-0.55992585,-1.663783,0.72352064,0.37515214,1.320777,0.35449547,0.61743087,0.27632213,0.49554878,1.4074321,0.9955239,0.8994639,-0.35630327,-1.0602294,-0.33504128,0.93053573,1.6064551,0.17518324,0.7653805,-0.040529396,-1.0295728,-0.8744255,-0.4304671,-0.17221116,1.5307618,-1.5516498,-0.14814606,-1.0964108,1.7133843,-1.5614909,-0.25514594,-0.84333986,-0.24557187,0.1491909,0.3672521,0.90510267,-0.9089309,1.9315268,0.5245876,-0.61548334,0.35180852,-1.0054021,1.2291619,-1.9318924,2.5256038,0.30642632,0.21227817,0.22148141,1.2939808,-1.3269697,-1.3945053,0.6985887,-1.0532095,-0.23431382,0.18746537,0.5413484,-1.7265067,-0.25176603,0.8369825,-2.210063,-1.1829062,-1.7147918
MMRF_1356,0.1828472,0.28076252,-0.8716115,-1.433572,-0.063907176,-1.333878,-0.8594948,-0.30657718,0.09471424,0.46849963,0.26654765,1.1995372,0.29690287,-0.0345522,-0.6119579,1.2860794,-1.0377682,0.7282417,0.83867264,-0.27719706,0.6271509,-1.4901956,0.94431347,0.34317717,0.2149341,-0.59146816,0.5173574,0.029766224,-1.2527512,-0.4397047,-2.0518556,0.47607386,0.70908153,2.5588813,-0.22225448,0.7915516,-0.58417314,-0.3352324,-0.9267319,0.42904502,0.29929745,-1.5893513,1.2221879,-1.6950058,0.105533674,1.0433582,-1.5802946,-0.27450684,-1.2783594,-2.9667852,-0.82788545,2.1185338,-0.5111677,0.9917489,-0.25479925,1.6817163,-0.2704822,1.8185794,-0.48566082,-0.06094312,1.5206729,-0.1996209,0.105199516,1.0061237,-1.7141824,-0.49324867,-0.029538168,-0.45319375,-0.720623,0.6740688,1.2240047,-0.4859009,-0.36558273,-0.13048741,1.3896573,-0.049003694,1.7863014,-0.56001365,-1.1197647,2.240209,1.0539479,-1.9715674,0.13109124,0.12730537,1.7959051,1.2626656,0.6607196,-0.93335724,-0.43167305,-0.46349633,-0.6855629,-0.628546,0.8199346,0.1477643,-0.11799958,-0.56374496,0.36679158,0.0044789743,-1.2494506,1.1554078,1.5522633,-0.5511087,-0.7430755,-0.22303271,1.978279,0.75029624,0.21128014,0.73641217,-0.5507127,0.5958847,-1.3542088,1.2329746,-0.36570862,0.22195427,-1.6886978,-0.2441932,0.18577452,-0.4727814,-0.6186821,-0.44784653,0.6632434,1.1318022,1.4698346,-0.90823776,-0.6030451,-0.79688126,-1.6914707,0.26264253
MMRF_1270,0.6806199,0.02082256,-0.068884104,1.0536246,-2.448835,-0.34455568,-1.3665001,1.8001686,0.99351645,-0.593079,-0.9647655,0.010549495,1.735417,-0.3637772,0.33783793,0.2699275,1.8454219,0.14403437,0.33526906,0.7830202,-0.33306208,-0.6764032,0.36857504,0.34795073,-0.76092035,-0.33256352,1.8042136,0.20390159,-0.768433,-0.091493994,-1.60605,0.83571696,0.21476322,0.72154313,0.9745929,0.24165295,-0.65529954,-0.19482857,1.4771821,-0.07810337,-0.27582446,-1.5063119,2.032866,-0.29586133,1.4145684,0.3605302,-1.3024335,0.36589503,-0.012899039,-1.4536489,-0.48164698,-0.91001266,-2.0468469,1.5637003,1.3365761,2.0654237,1.2069696,-0.49555084,-1.3340527,0.44295043,0.0064854827,1.1770238,-0.56243163,1.9285686,-1.135401,-0.75815344,0.9670018,-1.5527322,0.41742018,-0.6698806,1.3791581,-1.3980756,-0.6191746,-0.7968789,-1.1104271,-0.10434079,-0.44496277,-0.10624792,-2.2962906,0.48329622,0.37040997,-1.4569846,1.317714,-0.755431,0.27057546,-1.1434315,0.49529934,-0.49426463,0.44487697,0.44136024,1.0991756,-0.8841677,-1.8315771,-0.1504589,0.070885986,0.40542993,0.3997626,1.0519269,2.0237758,0.025867263,-0.6056733,-0.42837995,-0.92055213,0.27568132,1.0837818,1.1450213,0.47850093,-1.3355922,0.20227447,0.512184,-0.80307376,0.70178866,0.18099844,-1.024562,-1.0411464,-1.6671913,0.3018745,-1.1923895,1.3849231,1.0097573,0.5132678,-1.0482553,0.110414594,1.2892114,0.20093215,-1.1067085,-0.52462846,-0.54574126
MMRF_1323,-1.0432417,1.1321758,-0.35598865,-1.5917068,0.0635419,-0.60274583,-0.16364689,0.28163353,-0.3441186,0.2516423,0.27025855,-0.046131782,0.24612167,-0.004864635,0.2513187,0.5243997,-0.34905478,-0.62035704,1.6723515,-0.8537615,0.76103806,-1.1267499,0.94200134,-0.11580378,0.80025375,-0.87858635,-0.45706975,0.19196533,-0.4500491,0.18532118,-0.33244604,0.5333245,0.10194203,1.9931833,-0.91689277,1.2033706,-2.7133317,-0.6027784,0.7714339,1.4050328,0.16423477,0.5485656,2.7434106,-2.0446038,0.9153134,1.1176418,-0.39466482,0.60838133,-0.5854739,-2.1823862,-0.9015187,1.4635562,0.21544087,-0.31315058,-0.22099273,0.1609027,-0.7118551,0.6186771,0.33458522,-0.57078254,0.77448165,0.50311935,-1.0133358,-0.17282154,-0.8855643,-0.89482015,0.9482404,0.7004402,-1.7503762,-0.3237546,1.1023619,-0.7667088,0.40652683,1.1953644,-0.21302012,-1.679523,1.4682437,0.19676922,-0.2507959,0.49584568,1.5737295,-1.1155554,-1.0454166,-0.24815726,1.2146966,0.44424656,0.704903,-1.5873563,-1.3713609,0.6702103,-0.20011136,0.048103537,0.80183786,-0.88247776,-0.19413944,0.19768222,-0.42622173,-0.680722,-1.1196041,2.610474,0.5045024,-0.37588072,1.2437539,0.027566377,0.90502673,1.3787358,0.1492122,0.9412968,-0.46789616,0.60314614,-2.2410572,0.32947177,-0.71784306,-0.17724065,-2.0956633,2.4164133,-0.007301891,-0.39525226,0.0031390716,-0.8612155,0.31715465,0.96188575,0.5617899,-1.2054154,-1.8405502,0.32202485,-1.6010749,1.0435841
MMRF_1180,-0.15318197,1.037576,-1.0678928,-1.2096713,0.70195657,-0.39715353,0.24133393,-0.46384838,-0.82681894,-1.5305669,0.491041,2.3063293,-0.92383516,0.25768366,0.59156436,-0.9567384,0.27411702,0.7221067,1.928614,-0.58740795,1.0857415,-1.4786724,0.52527183,-0.38869995,0.3324671,-0.46187145,0.94045436,-0.44962162,-0.999801,-0.87018836,-2.119852,0.33164287,0.92856395,-0.24764808,0.7308616,0.17246349,-0.03550968,-1.4904145,-0.34003475,-0.3819399,-0.57941425,-0.75829685,0.05058098,-0.06100013,0.5575653,0.3865052,-2.6668363,0.027237358,-0.76299053,-0.36258838,0.72137994,0.5853015,0.71369797,0.79750717,0.12673326,0.6255433,-0.3664449,0.80275184,-0.18231209,-0.32114536,-0.65177345,-0.27545172,0.7140867,0.83045477,-1.0006762,0.52382356,-0.81996286,-1.5835848,0.5804054,0.11943734,0.32572085,0.63235885,0.9993091,-0.41689634,1.4037524,2.617496,-0.7824188,-0.687804,0.22559524,0.8569808,1.0546912,-1.6002178,0.23522559,-0.4148375,-0.8720457,-0.029272262,0.8384122,-1.75488,0.50510603,0.68471223,1.2963922,-1.7553735,1.5960857,1.0102135,-0.64418936,-0.89117247,1.0051495,0.18237945,1.0451149,0.40061253,0.009881123,0.4216019,0.081920594,1.8075465,1.4383115,1.2575604,0.7733662,-0.18347119,-1.5294881,0.117843665,-0.62584704,3.063025,-1.2675635,0.13615496,0.9045418,0.021344263,0.603442,0.32171154,-0.46005192,-0.3265888,-1.0918524,0.19363084,-0.47763118,0.53335464,-0.39266175,-2.6951044,-2.5062678,-1.2181721
MMRF_1188,0.9574289,0.67326385,-0.19997077,-0.36792567,0.31660685,-0.97876704,0.27418372,0.053865496,-0.5903583,-1.2777582,2.176633,-0.3743401,-0.15168375,0.38585705,-1.0577383,1.5995145,0.280242,0.7852042,-0.29417056,0.37646982,-1.1655878,0.61370003,0.57418036,1.3024596,-0.13426737,0.1634035,-1.5092779,-0.2065496,0.023509048,1.6895571,0.67442983,-0.9700991,-2.3292134,-1.0559918,-0.009619714,-0.63174766,0.63327736,0.5599096,0.95545137,-0.99901795,-0.81016874,1.7042643,1.2464218,0.29362655,-0.70869166,-1.0130736,-0.13168299,0.29610527,2.240776,0.0039899107,-1.0078968,-1.5872287,0.047504436,-2.3995445,0.9976452,0.6716837,-0.3225069,-1.065823,-0.8181697,0.17280753,-0.041448217,1.8605387,-0.9525148,0.9770546,0.94450504,-0.8902,-0.93041337,-0.81507397,-0.33033064,-1.3233917,-0.52101684,0.53746194,-2.2540348,1.3027159,0.90237623,-0.27699593,0.26045457,-0.31396905,-0.596353,-1.9629251,0.992363,0.27414376,0.38045174,-1.3511415,0.24967287,-0.41426048,-0.42397943,1.771618,0.6250753,1.1391976,0.7357827,0.34411755,0.59736556,0.12764262,-0.86697525,2.1708105,2.6574702,-0.6714062,-0.27844602,-0.66373247,-0.060518906,0.21177007,-2.1007128,-0.5257205,-1.2607037,-0.26218125,-0.17364863,-0.95083344,1.2350309,0.8489603,1.6207162,-1.4533795,1.0335138,-0.066587284,0.8804347,-0.40177375,-0.39352784,0.13400674,-0.09116267,-1.7438054,0.104492,0.9645399,1.3229753,-0.5255198,0.023504442,0.69817346,-0.012957737,-0.666543
MMRF_1300,-0.99291795,1.5794735,0.5467539,-1.0439216,-0.66961735,-1.1594889,-0.87549484,-0.29225105,0.3295815,0.18664289,0.19342035,1.2134862,0.9558648,-0.13547847,-1.0415556,-0.19526875,-0.92175084,0.28679866,0.72321296,-1.3407667,1.0161558,-1.0276576,0.33101267,-0.34400326,0.42432854,0.0008345209,-0.2860624,-0.021163385,-1.4771558,0.044592615,-1.9278758,0.592278,-0.42229337,2.4125075,-0.86812735,1.9114423,-2.3079774,-0.54313034,-1.0380667,0.8202347,0.7032737,-0.44777942,1.1681348,-2.3284366,-0.063798845,1.2119725,-1.1270673,-0.35478953,-1.3519201,-1.7160006,-1.0413636,2.0399652,0.10757265,-0.70476496,-0.40382805,0.15650696,-0.43113834,1.2742227,-0.111589506,-0.79937625,0.44640663,0.95240366,-0.41894108,0.18238732,-1.0661058,-1.91516,0.7986763,1.1563153,-0.54723823,-0.14245486,1.1947894,-0.6458778,0.080355026,-0.09775835,1.1905055,-1.948285,1.3882848,-0.48557118,-0.29065683,2.4345396,0.77204907,-1.2502937,-0.6830683,0.03258318,1.5819665,1.221255,0.39371207,0.114229225,-0.039171938,-0.46090898,-0.8280012,0.5680108,0.6736813,0.608073,-0.73611206,-0.5485476,-1.1000831,-0.15096109,-0.62277967,1.9454008,0.7985664,-0.5881514,0.8073076,-0.2617018,1.1349056,0.8023359,0.8224264,0.29701096,-0.72502935,1.2443798,-1.9512855,0.225131,0.24088852,-0.27610707,-0.93410516,1.7720098,1.4160808,-1.3604248,-0.43265975,1.2435298,0.081642784,0.5635277,1.2380029,-0.65487826,-0.2214935,0.11514768,-0.85143125,1.2035838
MMRF_1331,0.4975821,2.3368955,0.46194053,-1.0466676,0.22111097,-0.629083,1.0163617,-0.7372431,0.34361824,0.83987314,-1.0310491,1.209388,0.69544876,0.28077638,-1.1264738,0.3739678,-2.3168895,0.3006158,-1.003214,0.25024173,-0.16195345,-0.54336864,-1.1555009,-0.13354048,-0.17230198,-0.8009056,-0.22669499,0.26659158,-2.172622,0.0692455,-0.9146021,1.2174063,-0.20905711,-0.9810788,-0.48203623,1.1240264,0.30102023,0.077565506,-1.2258991,-0.7321593,1.536856,0.055345953,0.6249421,0.8278875,-1.463829,0.45777845,0.38237467,-0.7701038,1.0399896,1.5989524,1.2669873,1.1677516,0.17701836,0.152651,-0.48687872,-2.4339247,-0.0604261,1.4872524,1.5084406,-1.925155,-0.11552821,-1.0334212,-0.3782428,-1.1058646,-0.24025738,0.6863632,-0.40303087,0.837951,-1.2266291,0.26352108,-0.88585705,0.46612737,-0.041713983,-0.12071779,-0.33510202,0.25999513,1.4268894,-1.0565287,0.39791217,0.5498981,0.22839935,1.4385716,-0.06517254,1.3635163,-0.6020514,0.7867563,-1.0842378,0.1716229,-0.37409127,0.08075611,-1.2768897,1.6275816,-1.3879876,1.9180148,-1.7336984,0.6054074,0.055442974,0.9541968,-1.5093206,0.060667604,-0.37645358,-1.1140723,0.650485,-2.1604075,0.48163322,-0.6754424,-0.24053553,1.1443939,-1.4055191,0.6108365,-0.3184542,-0.11448275,0.99113774,-0.34509858,-0.9247351,2.3215508,1.340282,-0.54719234,0.341218,0.90453243,-0.63654006,-1.4475029,1.3599356,-1.0346274,-0.685823,0.7443946,0.52379715,2.1705377
MMRF_1185,-0.6483804,-2.167905,0.5339584,1.4790109,1.2437261,0.5123856,-0.53008807,0.016164985,-0.6257594,1.8934708,-1.3298781,-1.5647697,-0.09180704,-0.18399233,0.33710825,0.44283998,0.31082517,-0.6270833,-0.24496207,0.19883305,-1.0510477,-0.76971155,1.4734671,-1.3503976,0.58181316,1.4954603,1.5199262,-0.61286306,1.2997015,-1.2000223,2.6654425,0.9277146,1.360313,-1.5952802,0.5994976,-0.7596321,0.57444197,-0.32140556,-0.18510748,0.5074896,-1.6683664,-0.263692,0.38413084,1.9433804,-1.3564917,-0.6689511,0.47840023,1.6586426,0.2815919,0.25295514,0.32551962,-2.151946,-0.8689424,-0.47357032,-0.8512866,1.2866985,1.7817065,-0.11715337,0.55558336,0.8100062,0.49547973,-0.09779989,-0.25345376,-0.01882304,-0.1792187,-0.7106808,-0.58984846,-1.5548028,0.6274385,1.0317647,0.38569102,-0.32793808,-0.12865499,1.1015052,-0.56516844,-0.26779208,0.54918563,0.0989511,0.3566953,-0.7385996,0.67232436,0.76286036,1.9503306,0.27147081,-0.74922436,-0.32507634,-0.7613887,-1.7230259,0.12430405,-0.4056754,1.2324581,-0.4526341,-0.5096878,-1.6463267,0.8156747,-1.6482452,-0.030339906,-0.7092494,1.056362,-0.18520051,1.0949292,1.0239968,-1.4267669,1.6875684,0.025734581,-1.6185282,0.964542,-0.74933654,0.5660074,-1.5946426,1.3565042,0.41046587,1.0280586,0.20277664,0.44531128,-0.80620396,-1.7414134,0.69062084,-0.72987914,-1.8318206,-0.4914952,0.66708267,-1.4127444,0.5950963,0.7818063,-1.0315872,0.03371782,-0.5534777
MMRF_1348,0.94690603,-0.40521464,0.015920471,-2.0522206,0.22105421,-1.7280697,-1.440448,0.5031874,0.37079826,-0.33077392,-0.1767896,0.09436968,0.7771591,0.36386293,-2.0018332,0.006568812,-1.1990023,0.6490376,1.7703102,-0.06775063,-0.80308795,-0.19317412,1.8035018,-0.27661404,-0.4431321,-1.6630766,-0.34900886,-0.046938736,1.1903613,0.61319435,-1.4258169,1.3634716,-0.19726405,0.70245004,-0.78111327,1.4192879,-0.18184853,-1.0360557,-2.1722713,-0.833259,-0.40399283,-1.2516636,2.1960704,-1.0412723,-1.3976516,0.1089141,-0.124953255,0.57022566,0.28031084,-0.3194336,-0.55696654,0.57206136,0.5876203,-0.03393925,0.30880347,1.8256202,0.06804801,0.60050803,0.57830036,0.3701527,1.2800577,0.34097746,-1.2559528,1.2723054,-0.4511213,0.045120418,-0.8536856,0.92381597,-1.4173375,-0.909366,0.7979594,1.0373961,-2.1099932,-1.0677155,-1.1587886,-1.1740727,1.0731307,-0.6346142,-2.892531,1.8172371,-0.10680846,-0.853666,0.13376366,0.5548737,1.0492687,-0.02979832,0.013379721,-1.0992606,1.2635887,-0.88336927,-0.567154,-0.32230404,-0.16825962,0.05737036,-0.41764405,-0.25989607,2.16505,-0.6124713,1.4086623,0.5827086,0.8571621,0.67752916,-1.7974745,-0.64148754,1.5977916,0.00703723,1.1083701,0.5385448,-0.19697647,0.97415704,-1.3647983,0.8767389,0.80846786,-0.94998884,-1.4183214,0.92992824,0.36082655,0.53091574,-0.22648571,-0.1711565,1.8621936,0.1780966,0.7551641,0.78048134,0.40160313,-0.32788655,0.40520075,0.8111487
MMRF_1284,0.16567658,0.8660337,1.2828336,-2.4152734,0.2768683,-1.7984856,0.2478966,0.27248153,-0.47322896,0.72478527,0.03826745,0.7860778,1.1577016,-1.037321,-2.4847476,-1.2075965,-2.2062838,-0.44707248,1.1371113,-0.15420459,0.7455274,-2.042912,0.9615726,0.47298044,-0.29289582,-0.4541469,-0.81344706,0.5929519,-0.06654861,-0.29612783,-0.86921716,1.3141637,-1.4652553,2.1060746,-0.47287807,1.19606,-2.2663126,-0.23973633,-2.1496077,1.336092,0.8870005,-0.20768046,1.110356,-0.57749635,-1.6522031,1.5352533,0.027519055,-0.22006552,-0.3891674,-0.15040989,-0.0861228,1.8783064,0.65103894,-0.5691807,-1.1643614,-1.075039,0.6180947,1.2982552,1.2823235,0.20279197,0.8089687,-0.7213454,0.27497393,0.73777026,-0.3184148,0.07596155,-0.68285716,1.8434379,-0.44545382,-0.12958872,1.0781839,1.035845,-0.6856937,-1.5770978,-1.4486312,-1.2422773,0.7910486,0.84091747,-1.6633865,0.9573764,-0.046217926,-0.28710806,-1.854044,1.0263537,0.31727716,-0.20519932,1.0438294,-1.1375813,-0.014484348,-1.4224014,-1.4417372,0.048002694,0.27897313,0.46163267,-0.6139171,-0.3940546,0.7579112,-0.9616692,0.48425677,1.0235257,1.243351,0.19415909,-0.00062415376,-0.6494483,1.4167299,-0.24704152,0.89214045,1.0198469,0.13764255,0.1374667,-1.806003,0.13996662,0.42652532,0.11320885,-0.68909377,1.0896432,1.1174393,0.18635418,-0.0549223,-0.29512134,1.0959927,1.2042904,0.36242902,-0.21787542,0.06153506,0.76831406,-0.20778894,0.45155805
MMRF_1202,0.11038174,-1.1236858,-1.7609109,0.42650542,-0.5317408,-1.1753932,-1.3633444,0.8316862,-0.110292196,1.8411139,-0.034568224,-0.6627996,0.2223058,-0.6913394,1.5692986,0.075137645,0.23769414,-1.5972203,0.53189033,0.52414846,-0.92243016,-1.5878139,-0.036420856,-1.3465343,0.77403516,-2.737273,2.5200331,-0.17607623,-0.6777224,-0.048083074,-0.81349385,0.65258723,0.53603154,-0.4757302,1.6203574,-0.573349,-0.5135312,-0.74556786,-0.8153667,-0.6069795,0.19765802,0.8635695,1.712081,-0.23093398,0.96623373,1.4358884,-1.9000993,0.54168546,-1.2166715,-0.6800049,0.13950725,0.8700693,-0.03161713,0.6031966,-0.988594,-0.94474727,-0.7544886,-0.19775234,-0.29511657,0.48030293,0.8242665,0.25386125,1.2498696,-0.62728244,-0.29458517,0.1263435,0.8764086,0.9373821,-0.7111492,-0.27395433,-0.41850787,-1.5110699,1.3542337,-0.26067406,-1.7823944,0.9318161,0.9158759,-1.1301645,-0.12170116,1.7031072,-0.06567594,-1.2487578,-0.15067771,0.08364334,-0.22451,-0.285505,0.46052405,-1.6401074,0.1359241,-0.22406586,1.032299,1.1738267,2.5701985,-1.1681396,-0.38595122,-0.14898165,-0.12389337,-0.44748998,-0.024534116,0.8475368,-0.86030555,1.9569671,1.448898,0.8712251,2.0798905,-0.16080049,0.26056144,0.8370895,-0.7984085,-0.42207786,-1.1798346,-0.11605077,0.5581013,0.52434075,-2.2683759,0.5553905,-0.6070252,-1.1367868,0.38664806,1.2605768,-1.1771833,1.912367,-0.5622095,0.83379304,0.44190472,0.78731626,0.18007204,0.15427893
MMRF_1466,-0.49958846,1.8840789,0.98962486,-0.21515208,-1.7308944,0.08192073,0.91463387,-1.6102214,1.411614,-1.7153549,-1.0811687,1.3668983,-0.3213442,0.011344252,-1.6480737,-0.78116727,-0.8264026,0.27504104,0.08631653,-0.8206433,0.11522557,0.70309126,-1.1396289,0.4238992,-0.18508258,0.42837524,0.87019765,0.04047477,-0.7963375,1.0454444,0.40360874,-1.5434093,-1.9162418,-0.24931209,-0.55314857,-0.25546682,-0.5375249,-0.9330614,1.1749412,1.0245395,0.13813917,1.2476878,-0.47457457,1.2646898,0.11576356,0.54282135,0.93896824,-0.36637372,1.3985504,0.27559614,0.38467085,-0.13561898,0.38228142,0.7369431,-1.3275301,-2.0159433,0.04052989,0.3745266,1.346269,-0.940732,0.3612959,0.26561394,1.3660297,-2.6096141,-0.118360415,-1.4920261,1.3607106,1.2322757,-0.19954823,0.41486675,-0.4253965,1.3042785,1.227294,-0.04708969,0.585682,-0.5593467,-1.3716977,0.8699869,2.9205937,0.042775013,1.0738355,0.39258185,-0.82233804,1.0608599,-0.42565265,-0.15057887,0.03606794,-1.001152,-0.5049436,-1.8712434,-0.6594461,0.500226,-0.4441563,0.33737206,-0.58101475,-0.2392856,-2.4659765,-1.253375,0.3787821,-1.8287493,-0.18375587,0.76168334,1.4875305,-0.080339156,-1.7836355,-0.15386504,-0.9289791,1.7642391,0.020137008,2.0295055,-0.20151173,-0.7301382,0.66461796,-1.1304659,0.5173497,-0.7161647,0.16939606,-0.14594889,-0.34061643,0.20612685,0.49804765,0.28493065,-0.17160523,-0.38326588,0.93429047,1.5011387,0.43920165,1.0766525
MMRF_1446,0.15270261,-2.3334708,-2.0493462,1.3430144,-0.103742845,-0.4723148,-0.8776285,-0.43947783,1.1294397,-0.033333607,-2.050706,-0.44204718,0.33189762,1.0783588,0.68758017,0.5296631,0.94481146,-1.0113364,0.19679175,0.7169906,1.0037578,-1.0176857,0.23436989,-0.3490613,0.49176064,-0.9268475,-0.14649132,0.35841882,0.992761,-0.69355315,0.7403329,1.1620027,1.8137232,0.5244372,0.30411148,-1.3416106,0.7597985,1.6176428,-0.29541916,-1.3158233,-0.51744676,-0.6460277,-1.7391096,-1.8296043,1.9943868,0.17924039,0.6163001,-1.9183177,0.9440589,0.46595162,1.1579686,1.4425458,-0.6994596,1.2973711,0.007039491,1.2681062,-0.28537485,0.12530424,-1.2881151,1.1764594,0.83102816,-0.77613115,0.4462626,-0.54334986,-1.5009861,0.07464169,1.0924076,-1.9509062,0.05543441,-0.6104654,-1.5898291,0.83921,0.75655144,-0.5346416,-0.51258683,1.4829744,-1.036695,-0.1474289,0.27299333,1.2669829,0.47890517,-0.06585279,1.7605855,0.7028175,1.3623284,-0.46700788,-1.756821,-0.6374225,0.5627968,-0.31035793,1.4662346,-1.7135485,0.42611834,-0.5868441,1.2104093,0.7219587,-0.97247016,-0.1372986,-1.3109651,-0.1961342,-0.9729697,0.20372722,-1.4700437,1.4034458,-0.72790045,0.88977,0.38163352,0.317398,-0.19305457,-0.37128544,2.032881,1.03271,1.0533667,0.72925365,0.8748039,-1.4232578,0.10057252,0.03770343,-0.49223918,0.49799216,-0.32196504,-0.93278486,-0.24402548,0.2060166,-0.8002256,-1.6706127,-0.8992828,-0.8176535
MMRF_1447,1.3136779,0.41119343,-0.21521415,-0.048417322,-0.5328882,0.12011949,0.3867127,0.6711744,-0.40406957,-2.0103488,2.5416915,-0.66458756,0.3786134,0.40321478,-0.8163432,0.5126886,0.92383623,1.0572788,-1.0066031,0.9113177,-1.3298982,0.14542492,-0.73014945,0.8177712,-0.533159,-0.42228818,-0.73137283,0.6143541,0.57207555,1.5063826,-0.072728105,-0.96564204,-1.8896667,-1.2679635,-0.4798886,-0.9237234,1.7234701,-0.36502331,0.6421092,-0.44140458,0.58252394,1.127582,1.1252887,0.67928654,-0.04500602,-1.1439327,-1.178479,0.39370063,0.86815625,0.028967425,-0.09253008,-1.2084601,0.3028033,-0.9004363,1.0893338,1.2676914,0.10068642,-0.72122246,-0.90251046,0.29969335,-0.14292805,0.4440768,-0.45964313,0.9895915,0.06937432,0.5373312,-1.0528686,-0.96631294,-0.6343422,-1.6961594,0.3072239,0.90762556,-2.112815,1.6481133,0.7316464,0.71216166,-0.6882244,-0.11958737,-0.9474553,-1.332391,0.08813418,-0.75997186,0.018993365,-1.1394267,0.35660148,-0.4505595,-0.63999104,1.0896559,-0.38656285,2.1031954,-0.16246933,1.0223706,0.41830754,1.4008533,-1.2318419,1.15894,2.480091,1.0307326,0.17640088,-1.2861671,-1.2297258,0.25434768,-2.997634,-0.88574773,-1.4750348,-0.18345827,-0.96189904,-0.76580083,-0.08299899,1.4119743,1.2304455,-1.1993617,0.845307,1.3368849,0.88659364,-0.4906377,-1.1334215,1.1171397,0.97842324,-1.8969885,1.1863086,1.2435658,0.62941927,-0.114396945,-0.19471438,-0.45838913,0.62361753,-0.685822
MMRF_1445,0.40375727,-0.6477697,-1.7250192,1.1860152,-0.15890615,0.9369212,-0.0047438005,0.90413296,-0.18803947,1.23252,0.5979215,-0.82087445,0.5171333,0.24862197,0.89709026,0.81217337,1.3755354,0.9374732,0.19934328,0.54010195,-2.443214,0.44876662,1.5437841,-1.2419305,1.0957575,0.008476139,1.3687909,1.4452604,0.19418225,-1.1318295,0.9452692,0.86789256,0.06615489,0.49712935,0.5703526,0.38609657,-0.54672515,-0.99876636,1.5823811,-0.22496888,-0.56800866,0.98206365,0.9588135,0.55442953,1.0328432,-0.535837,-0.1215523,-0.3569043,0.055762105,-0.8448701,-1.0438384,-1.8536769,-1.3561307,-0.33852804,0.96905035,1.6964707,0.6041586,-1.6498188,1.0438046,0.840443,-0.27521753,0.40354586,-0.4949566,0.038831934,-0.8674973,-1.5805358,0.6030497,-0.92266464,0.50305206,0.3696695,0.81861866,-1.1163149,-0.72077334,-0.9801852,-2.4629154,-0.19160107,-0.8191528,0.4870347,-0.6320197,-1.3612317,-0.54488915,0.21991095,0.36233303,-0.06100705,-0.12882051,-0.79457444,-0.75875956,-0.5982154,-0.90322405,1.512858,1.7580962,-0.69827545,-0.43382835,-0.83646,0.6901367,-0.63790715,1.1587249,0.6789517,0.66198623,-0.7436126,0.3479507,-0.07087085,-1.6662488,2.2532115,2.4094424,-0.8088684,-0.15378527,-2.6473572,0.1252644,-0.070279896,-0.15089403,0.19148344,0.86593807,-1.125712,-1.4208237,-1.5181917,-1.105792,0.47643137,0.2648138,-0.08610955,0.71322036,0.2704814,-2.3990517,1.8989959,0.4581403,0.38254142,0.6318503,-0.5501628
MMRF_1433,-0.86876655,0.16052355,-0.8225646,-0.4367328,0.9614983,-0.57513493,0.37318596,-0.40791258,-0.7318748,1.2816428,1.6068482,0.7231515,0.21379378,-0.7718879,1.8611542,-1.2457297,-0.16903746,0.11845143,1.0328629,-0.26671737,-0.36904776,0.3487301,0.9659371,-0.32266912,0.70569485,0.31773943,0.750509,1.1608418,-1.3639431,-0.45498848,-1.1215764,1.1608285,1.3057877,0.42123768,0.1727611,-1.7737181,-2.3718092,-1.4926579,0.22474632,-0.33676565,0.7563858,0.25458184,2.0259185,-0.5435724,-0.009974568,1.9685498,-2.365954,0.8956999,-1.9296318,-1.4283727,-0.4242103,1.5796987,0.12054072,1.1841944,-0.6071893,-0.58158463,-0.93418527,0.20094709,0.6665457,-0.14593749,0.9080409,-0.6212628,-0.27641934,0.27725852,-0.33206695,0.1688942,0.12937179,1.2225541,0.07189821,1.3025662,0.55205536,-1.5738717,0.3717769,0.20753865,-0.17684327,0.72740877,-0.43465444,0.1505169,-0.4690692,1.7967099,0.9320034,-0.41637492,-1.2662246,-1.3933343,0.14913604,0.54910034,1.3908129,-1.0168529,-0.70219153,0.89258444,-0.2306331,-1.558069,1.0033028,-0.54841524,0.16060743,-0.79993415,0.47984308,-0.4698291,0.28570795,1.4364281,-0.1914008,0.33521867,2.2196403,0.39890787,2.4142385,0.8236442,-0.11512614,0.35558492,-0.9825666,-1.0141324,-0.9203573,0.7293064,-1.3826892,-0.042331763,-2.575592,0.08487346,1.2245343,-0.58525354,0.89305276,-0.31983054,-0.9034422,0.6160938,0.30924803,-0.039227046,-1.3942326,-0.58985496,-2.293347,-0.6443378
MMRF_1434,-1.193843,-1.3588408,0.12642334,0.55898345,0.16940804,1.7003441,1.4027619,-0.60854644,0.084809735,0.49097833,-0.34930456,-0.47125542,0.3248819,-1.1240404,0.45082575,-0.7534715,2.3081129,-1.2092502,0.50660473,1.3299356,-1.543094,0.23255259,-1.0946774,-0.6692394,-1.3502858,0.54111004,0.6832467,-1.141691,2.7071857,-1.5801401,1.7798947,0.09231583,1.2752144,-0.34506702,1.1725951,-1.5215575,0.14227843,0.9821662,-0.5438061,0.885248,0.23613627,0.4236107,0.063835524,1.7056218,-1.3304428,0.24958706,0.90496904,2.1740463,0.7346296,-0.08558382,-0.89058685,0.3606988,1.2183799,-0.57402724,-1.3033428,-0.4997435,0.5805536,-1.1553632,0.69209903,1.0858082,-0.03525971,-0.5491741,1.5127423,1.1918619,0.9543413,1.2552552,-0.941011,-0.20579658,0.32743937,0.857655,1.6475773,-0.97662824,-0.34762558,-0.18182747,-0.42442805,1.6790655,-1.4559286,0.59354115,-1.3234786,-0.9012429,-1.6341802,-0.14518313,-1.2303386,-0.13963117,-0.28382438,0.3490484,0.65174806,-1.4968225,-0.55084413,0.32488716,0.042667657,-1.600339,0.44628015,-0.30631962,0.2812534,-1.6230026,0.7727178,0.5932234,-0.47934014,-0.12156637,0.53591925,1.0579106,-0.34471077,0.15535066,0.88079023,-0.67512786,-0.39258155,0.0027544573,0.9445671,-3.1726706,-0.4952507,1.1267662,-0.623567,-0.93702745,0.31415203,-0.024309471,-0.5062186,1.6299989,-0.12259527,-0.1875587,0.30668423,-0.2802834,-0.5205478,-0.09580989,0.60718596,-1.9793835,-0.83133703,-0.6313487
MMRF_1436,0.33650178,0.32122523,0.41045395,0.72672546,-0.56338316,1.9937204,1.9705138,-1.2932476,1.1141638,0.5286326,-0.7784741,0.037672866,0.3060059,-0.72366863,0.09608038,0.6129009,-0.60167414,-0.85632235,-2.072114,1.2224602,-0.5016535,0.8148432,-0.5017727,-0.50242746,-1.862331,0.9725421,-0.6760309,-0.8269701,1.5309471,0.62353015,1.9918274,-1.0171318,-0.049677342,0.16580096,0.46171716,0.56189686,1.4864987,0.09471129,0.62734705,0.6728274,-0.7034466,0.87691903,-0.07888655,0.82584083,-1.1827334,-1.1739521,2.395188,-0.5250012,0.95113236,0.3674943,0.6991592,0.11096749,0.71485466,0.31111678,-0.54465425,-2.4960594,1.4289463,0.79684585,2.4848702,-0.8626208,-1.5231827,-0.3140333,1.9007246,-1.5684791,0.61092645,-0.016150374,-0.38957036,-0.54385084,0.48050854,1.0423924,0.28510857,-0.6852879,0.96109724,-0.031979375,-0.7298863,1.842209,-0.54515505,1.1620274,1.4414564,-0.99029315,-1.0912501,-0.9255972,-0.36468184,1.536511,0.1501093,0.19012646,0.086753756,-1.6347765,-1.7992357,-1.0692165,-1.2797611,0.7404151,-0.31209686,1.5836289,-0.41908967,0.26849627,0.10602032,0.46105236,0.18206349,-1.7910507,-0.025832634,-0.8819479,0.2710691,-1.6301469,-0.2965049,-1.0827615,-0.9866054,0.3597969,-0.7374195,-1.5025479,1.0260462,-0.42891598,-0.55762213,-1.2987535,1.1222587,-1.0265974,-1.2575895,0.70045704,0.2784305,-0.26408562,0.31109658,-1.1020774,-0.8486861,0.38941118,-0.030281125,0.2553901,0.344804,0.64304703
MMRF_1424,0.81002474,-0.67525285,-0.5015101,0.29450896,-1.5118774,-0.80156755,-0.4325977,0.111742355,-0.1839297,-0.7427798,1.8435752,-0.6952689,-0.44961864,1.9434159,-0.12332884,1.6958107,1.788779,2.2160583,0.49652258,0.713207,0.25618872,0.62100315,0.00973152,2.187306,0.20112947,-0.79293853,-0.10442381,0.3112669,0.15599819,1.4634418,-1.0095059,-1.9218833,-0.7819492,0.9337763,-1.0878356,0.11760717,0.93360424,0.25427425,-0.5523056,-0.20205021,-0.7036139,-0.2946281,-0.2585175,-1.9339559,1.1543174,-0.76287013,-1.9200957,0.70714885,0.5765986,-0.92869776,-1.4143685,-0.63840854,0.24994843,-0.6782053,1.8599342,1.7634505,-0.84749407,-0.6219857,-1.8799572,0.4445731,-0.4091357,0.9879173,0.6749176,1.685305,0.11337861,-0.38617674,0.36862794,-1.0181786,-0.16332352,-1.5340842,0.022320632,0.5068755,-1.1306446,0.8711999,2.113706,-0.11665357,0.85601956,-0.0864112,-1.1213293,-0.7947592,0.036743373,-1.401215,0.4985748,-1.3199924,1.9267038,0.21779816,-0.27799174,0.23918372,-0.79735416,1.291203,-0.36014286,-0.12847197,0.36223093,0.17011979,0.39239332,0.9975998,0.8995079,-0.14161342,-0.85833967,-0.3756303,-0.055124126,-0.49373168,-2.7327538,-0.035511684,0.04654024,0.10824794,-0.99366254,-0.1149264,0.013369434,1.1192541,0.2174551,-1.1213962,-0.83105856,1.5739682,0.6953279,0.32327947,-1.8280176,-0.0608821,-0.47778526,-1.4522074,0.84082115,1.8038944,1.6067991,-0.4703105,0.572242,-0.7425245,-0.076378725,-0.98668814
MMRF_1425,-0.14513186,1.3728951,0.03878563,0.24381915,-1.2339048,1.0235693,1.3621117,-0.07562447,-0.047889367,-0.23984043,-2.090505,-1.6899631,-0.31743303,-0.8283392,0.9217746,0.8905196,-1.1337657,0.33404875,-0.80407006,0.7922046,0.45662168,1.0829272,-1.1181034,0.32380763,0.009000555,1.3542509,0.034912653,0.51480246,-0.58846647,-0.51526517,1.9593457,-1.4261302,-0.8179586,-1.5050125,-1.051203,0.4965331,0.89655834,1.3161199,0.78915936,-0.37037313,0.19502865,0.46163428,-0.3070424,1.9001657,-2.0291364,0.41470158,2.3996403,-0.09415899,0.48839787,0.2476932,0.34738526,0.09271694,-1.2698594,0.3426937,0.67210317,-0.76756185,1.1722989,-0.29089034,-0.460858,-0.15378034,-1.3643069,-0.15115033,-0.32027173,0.37176615,1.2052803,-1.2280806,0.2123159,0.61347204,-0.17346933,-0.8866732,-0.7201118,1.1096143,1.3422356,-1.3899261,0.9098537,0.62957823,-1.7225435,1.7661207,0.65172213,-1.505149,0.065993614,-0.9367563,-0.8644842,1.185497,-0.24589828,-0.55576736,0.4297884,-0.036379475,-0.47941977,0.8950579,-0.27011544,1.6143678,-1.1308677,0.8735108,-0.5775605,0.34264648,-1.3653244,1.1469175,0.053719275,-0.3021798,0.47044337,-0.9108417,0.21769479,-1.3626435,-2.0028841,-0.5150213,-1.7980176,0.7182344,-1.0932868,0.9907932,-0.52160853,-2.194097,-1.1639705,-1.3646462,1.8933955,1.0142183,0.5421512,0.7406054,0.7742974,1.0813669,0.07886106,-1.0449291,0.2459809,-0.9835457,-0.19738553,0.07627364,1.9202925,1.5558786
MMRF_1439,0.578683,-1.2035338,0.43734825,-0.46856597,2.1615634,-0.7740431,1.1683303,-0.8740555,0.91390073,1.4154949,0.19661812,-0.3206717,0.7413254,0.3516746,-0.9610674,0.3689711,0.63188857,0.6297646,-0.05611492,1.2698321,-2.00046,0.7884481,0.6414038,-1.0215098,-0.9647997,-1.1045742,-0.05494581,1.1033436,1.6269424,0.60106397,1.5001768,0.92957246,0.75998837,0.9657429,-0.024864651,0.011021564,-0.5160691,1.1474036,-1.086335,-0.8780702,1.3411237,0.22705093,-0.26580715,-0.66250706,0.58910966,0.79075485,1.1945927,-0.23142853,0.4765277,-1.7568731,-0.5445317,1.8602184,-1.2605805,0.17847541,-0.6976605,0.15651363,-0.9579548,-0.037170637,2.1951954,1.4585912,1.4845626,-0.49658433,-0.4453302,-0.06725278,-1.1751659,0.44546232,-0.06670621,1.4426916,-0.91374147,1.1176388,-0.4496441,1.0543867,-1.6952373,-1.6765413,-1.4708304,0.796945,-0.97924596,0.3751793,-0.8499455,0.26640582,-1.8546352,0.44390643,-0.88136667,0.45835522,0.7640112,0.5103131,-0.7455185,-1.2576903,-1.4183767,-1.7290047,-1.0871291,-0.78155833,-0.8592434,-0.12102988,1.886897,0.09693777,0.9868399,-0.0018094266,0.07545296,0.018477434,0.8290129,-0.6303501,0.80041933,0.7907811,1.237176,-0.115053274,-0.9009817,-0.3424355,-0.47916278,-2.1985729,0.054958243,0.3474157,1.1090554,-0.83584267,-2.129944,-2.0699832,-0.27612376,1.2339084,-0.80478215,0.6388358,1.314892,-0.6512662,-0.3996455,0.47858658,-1.651155,0.7663435,0.33189598,-0.41858956
MMRF_1450,1.4143094,-0.48270398,-0.28058413,-0.71912193,2.0572648,-1.4827124,-0.08100094,-1.5160154,1.8388207,1.3563476,0.52117836,1.3041568,-0.14860222,0.7128712,-0.41588727,-1.1533648,-1.4284966,-0.17648137,0.38392857,0.17462088,-0.08295273,0.15818372,0.18022187,0.103290595,0.74746317,-0.5416764,-0.19049817,0.2725345,-0.0699471,0.23267454,-0.5874999,1.3828015,0.74591255,-0.47862598,-0.6144111,1.5238386,0.0899959,0.46855918,-0.87248814,-1.2872739,0.33001962,-0.68063515,-0.71655464,-0.93909717,-0.3693836,-0.39400232,1.441778,-1.9894936,0.30428016,0.3048492,1.9451531,2.042011,0.5154094,0.3775695,0.6996172,-0.87458897,-0.8577796,1.7534237,1.0284517,-0.33413225,-0.66200304,-1.1037288,0.19223861,-1.211196,-0.80972624,0.15970547,0.8666935,-0.3745864,-0.8089877,-0.39017484,-1.9671828,2.7062397,0.6259992,-1.6386918,0.023057414,1.6838126,-1.2430575,-0.90438235,1.2759281,1.0994248,0.3750401,-1.3303301,-0.6302838,1.6625974,-1.4820956,0.72628736,-0.8650782,-0.54424614,0.67031354,0.01370592,-0.64856595,0.75791705,-0.26011568,-0.09059487,-1.0415008,0.058057964,0.50071234,0.9579726,0.3985217,0.55737174,0.015466909,-0.71432936,-0.03263623,0.98570675,-1.0546908,0.64278716,-1.3570105,1.3629377,-2.2076008,0.2213273,-0.11876544,0.15394378,0.08568323,0.20549637,0.12590301,-0.46868232,0.5792322,0.5591912,0.10215192,2.0401087,-1.1954861,-2.190261,-1.5239071,0.41953462,-0.31664762,-1.8815347,1.5347215,0.011731524
MMRF_1451,-1.6352206,1.4940627,1.3189906,-0.40177915,-0.9278378,0.49375796,0.29767537,-0.31228125,0.10433481,0.9718445,-1.1125617,-0.6757197,0.21277231,-1.2417969,-1.0421321,-0.118051164,0.37249103,-0.20532438,-0.9453605,-0.873468,0.22687808,1.1056911,-0.8440352,-0.7559372,-0.87932944,-0.75017977,0.4437992,0.1992643,-0.6721631,0.76450926,-0.07058005,0.08109116,-0.15209675,0.28616196,-0.8258797,1.1134883,-0.85449827,-0.7560423,-0.50937045,0.026755001,1.9344611,1.1767726,0.45759252,0.1562697,0.621935,2.1487112,-0.37783128,0.82024056,-0.75883836,-0.6479048,-0.15054935,-0.38189793,0.160449,0.40090552,-1.5081272,-2.4389672,0.26716775,0.103020296,0.4225672,-0.32020783,0.30185038,-0.36760542,1.1125009,-0.45587352,1.3782499,1.2341084,1.4942533,2.1332011,-1.3142614,0.94178903,-0.4114913,-2.1104991,0.64801234,-1.0003955,-0.89494795,-1.543655,1.1400276,-0.57708514,-0.30008417,1.0330791,-0.08716986,0.59286267,-1.2020379,-0.46952525,-1.1052115,-1.0951569,-1.0526204,0.73323447,-0.45513442,-0.50516534,-1.3243638,0.79190516,-0.83623165,1.5824194,0.28599492,-0.34923837,-1.4856197,-1.4182748,-1.1896946,-0.06542663,0.7748802,-0.34621054,2.8512235,-0.6213555,0.79038686,-0.36368832,-0.061238714,1.508536,0.41788578,1.3806691,-1.5278355,-0.45928112,1.7939692,-0.49049908,-2.1714582,1.9505659,1.150477,0.23016018,0.80846226,1.0564898,-0.3835703,-0.21418191,0.31841022,0.66049194,0.31463784,2.2505088,0.092329636,-0.5585116
MMRF_1454,1.658117,-1.1396111,-0.27836695,1.0330894,-0.63763297,0.0990027,-1.4499875,1.5331998,-0.23176952,-2.1257818,1.7357558,-0.19570674,1.1541837,-0.04267568,0.4776577,-1.2800815,1.0471998,0.6835716,0.25843117,-0.18841374,-0.7598566,-0.014522901,0.28468305,-0.25131753,-0.16075249,-0.25821504,0.34150606,0.04130767,0.9473029,0.5571464,-0.04413117,0.5274842,-1.4474763,-1.8094442,-0.31514707,-0.575795,1.0381105,-0.41469002,0.6022858,0.04633947,-1.3118074,-0.077906094,0.9119274,-0.014664127,-0.6155356,-1.9484456,-0.5237303,0.50907725,0.19138958,0.44624236,-0.39470905,-0.31203833,-1.27224,-0.51881564,0.8438406,2.210143,-0.24782717,0.3330289,-1.0209402,0.14083996,-0.3503214,0.94699264,-1.3679539,1.3830488,0.7075312,-2.2820065,-1.9194069,-1.7525572,1.2226677,-1.1206951,1.2057219,0.67948574,-0.24741176,1.063369,0.0035579707,0.29672936,-0.79713374,-0.24930522,-1.2350116,-0.62745506,-0.54969424,-0.9628436,-0.039296422,-0.0052853166,0.55575633,-0.66084206,0.628493,1.1954743,1.450142,1.4339354,1.6887381,1.489748,0.5759944,-0.2993745,-1.7127273,0.34880555,2.6350546,1.3707355,1.3549545,0.005325986,-2.170057,0.21917368,-1.3355885,0.4813101,-0.8777605,0.71856284,-0.20365079,-0.9846341,-0.056250386,0.84932846,1.1926204,-0.48845983,-0.7302013,-0.73739415,2.4328604,-1.0365022,-0.17570446,-1.021338,-0.4822023,-0.48712072,0.15449867,-0.04080758,-0.3458544,1.9172175,0.74618137,-0.786156,-0.33387026,-0.31540525
MMRF_1460,-0.9368451,0.7974208,2.303722,0.2821526,-0.4592093,1.1674523,-0.47341806,-0.3353696,1.4572364,0.1704778,-1.5372484,-0.6321146,1.8027997,-0.953653,0.95248795,-1.0412793,0.8417267,-1.5774119,-0.6478275,-0.49058118,-1.5330111,1.2353805,-1.7056335,-1.6885717,-1.7870237,0.14193411,0.49577242,-0.6851424,0.17026708,0.6593651,0.41360873,-1.4448615,-0.6074939,0.08741324,0.6778454,1.1406006,1.007016,0.8473644,0.17848225,0.45556623,-0.7692526,1.5616248,-0.41031682,0.49702254,-0.7973673,-0.8459437,-0.1711967,0.9720951,0.49071106,0.08314048,0.74988145,-0.7364524,-0.053258497,1.1048144,-0.110111356,-2.3816588,0.9622325,0.015091157,1.6988131,-0.7126963,-0.41392168,0.94147944,1.2818948,-2.3379467,0.35880855,0.22435962,-0.5757881,2.0415366,-0.6883037,0.5208407,-1.1888425,-0.5335981,0.9302549,0.59178156,-0.71879363,0.67413396,0.168115,-0.09565295,1.5888023,-0.0022011294,-1.2632447,0.32614422,0.45947295,0.29422867,-1.3630725,-0.5451607,-0.53743196,-0.94772834,0.106552355,-0.27563176,-1.6783274,0.6425386,-0.04457391,0.7153141,0.7825165,0.048381902,0.29243174,0.9065632,1.1047988,-0.97719336,-1.887583,-1.0856395,2.7603214,-1.5628998,0.61518157,-0.41932088,-0.68268895,-0.62395316,-0.9118062,0.24869126,-0.3129426,-0.48495573,0.3490815,0.8024281,0.34265673,-1.4905274,-0.19000843,-0.7364623,0.36211023,2.0607576,-0.8682134,-0.36126933,-0.26318744,1.1439786,0.1138392,-0.5169667,1.4680934,1.4498124
MMRF_1461,-0.8880421,-0.9939124,-1.4691882,0.7076845,1.0276643,-0.41529056,0.24281833,0.07984726,0.2270814,1.2441604,0.19540873,-0.5681339,-0.10078521,-0.17558493,2.720137,-0.3296182,0.7204859,0.15215555,1.4882239,0.10370219,1.7481705,1.1296029,0.9190763,-0.70687044,2.3032603,0.60953933,0.957179,0.49405807,-0.040927306,-0.89605665,0.25057128,0.7438802,1.4242777,0.4947723,-0.36013645,-0.67795736,-1.6811352,-0.78579396,1.1052701,0.38672423,-1.0352066,-0.3647853,1.6952711,-1.3246452,0.62418693,0.57995397,-1.3292077,1.1172667,-1.4840356,-2.611077,-0.67130744,0.59431547,-0.23297471,0.8052733,-0.4447565,0.3688937,-0.5729406,-0.7601668,-0.3953288,-0.4273846,0.10435505,0.101978615,-1.0119786,0.021363493,0.74484056,-1.0378618,0.81598955,0.56373924,0.5145659,1.6296989,1.2827275,-0.80264753,0.5487222,0.6783231,0.40703678,-0.1737835,0.86600584,0.68850327,0.12113792,-0.1273822,1.762229,-1.1928432,-0.4674457,-1.6835022,0.44284755,-0.09592821,1.2711473,-1.2874963,-1.1389618,0.7322431,0.9648325,-2.0388136,0.7835208,-1.3590769,0.5036663,-0.09826364,0.7778287,-1.2746927,-0.6049206,0.41149643,0.3437521,-0.12310064,1.150753,0.9625616,1.6573963,1.3805873,-0.63894546,-0.5361571,-0.66883945,-0.2586412,-0.68012613,0.66437703,-2.1488185,0.8645448,-1.7772634,-0.10171048,-1.2310745,-0.7314315,0.2987113,-1.7680708,0.23549998,0.97826993,0.07295263,-0.6235491,-1.8765023,-0.4463152,-1.7480457,-1.1407769
MMRF_1324,0.51265997,0.14470167,-1.148602,1.4857267,-0.2337825,0.6820186,-0.61143845,-1.1446284,-0.1106509,-0.09460884,-0.9668794,-0.70469373,-0.011375159,-0.4025703,1.1718587,0.070806414,1.0009978,-1.1102802,-1.1726174,0.030151144,1.2427429,0.36758548,-0.18654922,0.9382876,0.7600451,0.5662803,0.6933441,1.5120603,-0.52306926,-0.62294614,-1.9472444,0.97998005,1.3482902,-0.3862059,0.77606434,-1.4465581,-0.69806015,0.066243455,1.361809,-0.7725491,-0.5610833,-1.9220449,-1.2336624,0.42024842,0.5673244,-0.21116558,-0.29685047,-0.36587906,-2.1557012,0.41533127,-1.0658251,0.4570653,-1.7196832,1.7190918,0.65261096,1.5758728,0.23927987,0.26864696,-2.3800294,0.3948732,-0.6667516,-1.087946,0.19008884,1.9284784,-1.2553682,0.06509826,1.1949931,-1.2593656,0.93025917,1.5552071,-0.7023252,0.057866525,-0.41172707,-0.08995284,-0.16648349,0.8424574,-0.92297024,0.503773,0.36295986,0.6781247,0.7195946,-0.8894471,1.7723109,-1.0461807,0.76944804,1.0352775,0.58626246,1.402989,1.3091828,0.3233039,1.4148756,-1.9536836,0.3524328,-1.3779736,1.8104281,0.1224565,-2.2981448,1.2565254,-0.0783939,0.09349669,-0.9709226,-0.3043108,0.8580341,0.2456334,-0.35762218,1.7803236,0.73119515,-0.027978972,0.81610644,0.24754986,-0.24534868,0.29866165,-1.3857179,0.5089072,-0.82577884,-1.1435587,0.4686298,-2.420206,0.8483636,0.52732795,-1.1733593,-0.5109533,-0.5613038,0.82781553,-1.4946338,0.26844966,-0.027261736,-0.3642602
MMRF_1392,0.1322824,0.88725644,1.3004688,0.28431013,-0.23382851,1.1930151,-0.13302916,-1.3466394,1.8284924,-1.3033445,0.25099367,0.8881373,-1.1689407,-0.93126386,-0.04874945,-0.17589872,-0.3245007,-0.49181366,-0.26216987,-0.9577782,-2.1275568,1.1700901,-2.1587842,-1.4891976,-0.8588613,0.80003476,-1.1073422,-1.1735054,1.2542082,-0.2838213,1.3460051,-0.20064983,1.1580334,-1.0467176,0.5818529,1.431888,1.3736181,-1.3856711,1.1414001,-1.0192105,-0.17392392,0.92992973,-0.3731173,0.561088,-0.40951148,-1.7425756,1.7029217,-0.051049724,1.5049253,0.54350054,0.59753925,0.741055,0.89522463,0.5634818,1.3135934,-0.9638964,0.7129854,1.5666163,1.1198399,-0.58105356,-1.1281755,-0.5559014,0.9496953,-0.56574386,0.18135872,0.20268755,-0.7629772,-0.97657615,-0.50609994,0.497202,-0.39770862,0.18138345,0.029697258,0.07450402,0.09174827,1.2023171,-1.4950835,-0.35173115,2.1942906,-0.42716986,-1.0662327,-0.9151149,0.11004916,0.9351988,-1.096101,0.56657064,-0.134379,-0.84937155,0.3334747,0.24746253,-1.6441444,0.09180335,0.86556274,1.6443003,-0.71625197,0.14791766,-0.23179701,1.8520586,1.0504203,-0.7847303,-0.18236305,-0.7656658,0.08424969,-0.45096344,-0.24333097,-0.17776167,-1.885684,0.21931662,-1.3740442,-0.54147303,-0.118698865,0.5882548,-0.19429563,-0.3923542,1.6967372,-1.2845525,-0.5179742,0.68816346,-0.71253914,1.106269,0.7934412,-2.2639735,-1.2215183,1.341622,0.27446505,-1.638818,1.6830598,1.3975738
MMRF_1413,0.5050505,1.0379148,0.18074618,-0.8045362,0.050718267,-1.4233729,-0.5924167,1.7930957,-0.6357628,0.33366087,1.8408959,-1.2457132,1.038438,-0.20066012,-1.27485,0.8652094,0.95177805,0.8173952,-0.42666206,0.5385397,-0.6003417,0.52275217,0.15397435,0.62218964,-0.4084788,-1.4898196,0.1361735,0.2162238,0.7257554,2.358519,-0.24907194,0.4846956,-1.4567595,-0.9079113,-0.4477756,-0.2460541,0.3428095,1.317551,-0.675731,0.11628699,0.5541351,0.84906304,0.4221293,-1.0393976,-1.0786893,-0.7486724,-1.0054648,-0.47733,1.6673048,0.7197412,0.09204503,-1.3837032,-0.7401021,-1.1294878,1.0391318,-0.37526658,-1.3445121,-0.09995954,-0.58304775,0.5212861,0.07804379,2.074307,-1.3271579,1.0590975,1.44081,-0.14264876,-1.2087045,2.2061903,-1.2862451,-0.94802594,-1.5667411,-0.3527781,-1.7569809,0.63455087,-0.5205479,-1.2570003,-0.033315636,-0.5080474,-2.6680768,0.15142824,-0.13460861,-0.14184852,-0.076503895,-0.55204374,-1.0220823,-0.5334224,-0.23462461,2.2390656,1.4353002,0.26264304,0.3465645,1.1437873,0.036663532,0.43688422,-0.7706237,2.1897573,2.6983287,-1.0027728,-0.061113853,0.022491494,-1.4196162,-0.28867024,-0.7858526,-0.09949176,-0.8554318,-0.2829032,0.93388844,-1.1686666,0.17091997,1.1252253,0.46184734,-1.2657373,1.5476823,0.1763578,-0.9710536,-0.06869151,-0.06557914,-0.86214626,0.48779702,-0.79617065,-0.14986692,0.25540313,1.4904442,-0.5149093,0.23989844,1.5478462,1.16783,-0.124344446
MMRF_1393,-0.3953768,0.6832798,1.3417165,-0.0747209,-0.83824855,1.0743196,1.1117141,-1.6239486,1.3654567,-1.0688964,-0.52566737,-0.04456203,-1.01164,0.3664926,-0.64022017,1.0476187,-1.2835597,-0.30008364,-0.52605337,0.95062405,-0.26311147,-0.31108913,-1.65667,-0.24083224,-1.1127923,0.33833107,-0.684864,-1.6015377,1.3093988,0.06728619,2.2891846,-0.98598444,0.41284385,-1.6069262,0.5996715,0.5943523,1.2546242,-0.2523796,0.86766076,0.3897971,0.43570024,1.0057774,-0.09733855,1.552691,-0.03066877,-1.0011593,1.9900357,0.09108115,1.7931867,-0.4326496,0.70272976,0.6144073,0.20492727,0.034235276,-0.069754235,-1.5008562,0.86567473,1.3532757,1.8563932,-0.65405035,0.20927966,-0.46196637,1.3090299,-1.9073731,0.6766197,0.03946267,-0.016119787,-0.67659706,-0.10798991,0.3741873,-0.26051936,0.7118131,0.36914536,1.0533884,-0.4696434,0.73607296,-1.5832264,-0.052301694,1.4462296,-0.9796044,-0.045881465,-0.45245147,-0.3622405,1.971379,0.52542925,-0.101993725,0.15818904,-2.673698,-0.8663361,-0.42507166,-1.8387767,0.82719046,-0.53186065,1.8629613,-0.5515517,0.7731337,-0.78468734,0.85142833,-0.1835186,-0.982777,0.77756834,-0.50186,-0.9806436,-0.74604374,-1.9993573,-0.3639207,-1.681509,1.2844937,-0.9231713,-0.5025329,-0.0997019,-0.36469102,0.50496,-0.43195415,1.1498841,-0.086135,-1.8451012,1.871263,0.9349581,-1.1471766,1.0925493,-1.268229,-0.77216357,-0.41343078,-0.20555423,-0.842248,0.78476864,1.3831977
MMRF_1148,-0.72089386,-0.4123719,1.592406,1.2466475,0.6163577,-0.036727335,-1.914213,-0.053624008,0.14466563,-0.6919254,0.018268758,0.95780724,-0.3324332,0.5445249,0.32487708,-0.6219411,1.0080338,-0.62099195,0.009514637,-0.6479557,1.1602826,-0.8662036,-1.2524866,-0.5622039,0.9899194,1.5938374,-1.4501773,-1.3767468,-0.7489435,-0.016339904,-0.19602281,1.0252192,0.28540993,0.24223337,-0.14013728,0.89941067,-0.09691046,1.4800268,-0.63397944,-2.0148406,-1.6816527,-1.164411,-0.09759905,-1.6760641,-0.17733848,-0.7265563,0.660993,-1.5683033,-0.039827175,-1.3867844,0.25568235,0.75944555,0.02558693,0.1742878,-0.22524846,1.9085819,0.22570111,1.2352986,-1.3656541,-0.22026797,-0.64137673,-0.31629482,-0.96450555,0.695302,0.492722,-2.7629128,-0.22275318,-0.72312415,-0.06204487,-0.316056,-1.2932587,0.94774586,1.007995,0.38397375,2.687008,1.2503376,-0.61722714,-0.34336725,1.4911045,1.5424454,0.8510903,-1.7673486,1.3556081,1.9977027,-0.26099202,-0.10312225,-1.031189,-0.83155775,0.5388879,0.6825351,1.1482567,-0.40647885,1.3184456,0.16941984,-0.28658098,0.40282983,-0.29539683,0.5897283,0.20481302,0.88720804,-0.48659086,-0.5894938,0.20528261,1.3972906,0.22293785,1.839966,0.16918454,0.24681132,-0.5032768,0.19939762,1.412283,-0.3642446,0.36864248,0.725495,1.3303807,-0.72619563,0.22526848,-0.70180154,-0.7370484,0.92069066,-0.78099585,-1.969325,0.1585854,-0.115514666,-1.6647065,-2.828717,0.26914722,0.7029235
