patient_id,0,1,2,3,4,5,6,7,8,9,10,11,12,13,14,15,16,17,18,19,20,21,22,23,24,25,26,27,28,29,30,31,32,33,34,35,36,37,38,39,40,41,42,43,44,45,46,47,48,49,50,51,52,53,54,55,56,57,58,59,60,61,62,63,64,65,66,67,68,69,70,71,72,73,74,75,76,77,78,79,80,81,82,83,84,85,86,87,88,89,90,91,92,93,94,95,96,97,98,99,100,101,102,103,104,105,106,107,108,109,110,111,112,113,114,115,116,117,118,119,120,121,122,123,124,125,126,127
MMRF_1231,-1.1945908,0.8609174,1.6249813,1.7937143,0.8398082,-1.1435218,-0.87291336,0.84284085,-0.04358524,-1.6493794,1.5342836,0.52978754,1.029769,-0.6790208,-0.38454443,-0.579337,-0.8052149,-2.4195406,-0.10767387,0.38334328,-1.6012336,0.11074992,-1.4842374,0.13755874,-1.2537905,0.34022695,-0.68484086,0.016054744,0.2705976,-0.61601937,-1.0127093,-1.1309595,2.0583274,0.5391732,-0.44663665,0.121607505,0.37305287,-0.30741012,0.17901744,0.6040755,0.78254735,0.49033177,-3.0990045,0.3913789,0.57220834,2.2179039,-1.7990897,-0.08104726,0.29858735,0.64742535,-1.0245287,-0.559868,-0.7702038,-0.36162832,-0.20782878,-2.0886314,-0.22095427,-0.13517457,-0.39868522,1.0670027,-0.09535272,-0.023378294,1.4625734,-0.04239785,-0.51300544,0.88223827,1.4435729,1.1570846,0.8448634,0.5945496,-1.2992295,-0.3927506,0.6172505,-0.2092656,0.75101346,-0.39083338,-0.9416449,-0.10584974,-0.23899083,0.08413092,-0.55588824,0.6335174,0.965831,-0.40250453,-1.0535787,1.4154555,1.5337663,0.0688619,0.84671474,1.8662347,-0.8909788,-0.49430117,1.0379442,0.7310374,-0.58546895,-0.6477728,1.0570276,-2.037142,0.4051165,0.4261494,2.233733,0.8908463,1.5131838,-0.502676,-0.26073238,1.5090584,0.03654612,-1.5748613,1.3353726,-0.010663607,-1.2005227,-1.0440677,-0.6226184,-0.65997106,-0.14355686,0.103352785,0.15002051,0.7859984,0.06765216,-1.7153552,-0.5732167,0.30068454,-0.26434913,1.8514767,-0.28810254,-1.4976875,0.14380804,0.10825379
MMRF_1032,-0.22689648,-1.3291533,0.14668211,1.4087354,-0.5682329,1.6386333,1.6696748,-1.3525205,-1.7182173,0.44878262,-0.41535908,-0.09147756,-0.710351,0.26699963,0.22207764,1.7675066,0.2234769,0.7246734,1.1332716,-0.47323725,-0.1997133,-0.3064272,-0.28728124,0.94748837,-0.5251814,-0.23980768,0.04939423,0.21769702,1.5042734,0.95850164,-1.1388388,0.30994856,-0.78097516,-0.7383443,1.704949,1.2919621,0.75598866,-1.0459172,-1.500946,-0.31210643,-1.2075591,-0.5625628,-0.48352453,-1.0298495,1.8208094,-0.6201816,0.8181976,2.628026,-1.1297827,-0.54434514,-0.6614143,1.0169836,-0.5513978,0.44484645,-0.8429036,1.4517075,0.80459523,-1.5335336,-0.69727015,0.5492688,0.8436082,-0.034718126,-1.2442809,-2.112863,-2.0815454,-0.91411126,-1.1490641,0.41075888,2.1080258,-0.7448326,-0.850397,-0.90888417,0.88707465,-0.29504025,-0.42137527,-0.66270036,-1.2471795,0.82905996,1.3784062,1.2401621,0.7673157,0.8041655,1.2810253,0.6269535,0.79149914,-1.0289248,0.9171731,1.2938349,0.76086515,1.9341264,-0.22897552,-0.34290102,0.060651347,-1.71357,0.4750812,-0.76727915,-0.20764029,-0.8371389,-0.5042667,-0.5218807,-0.78338087,0.6313269,0.05488003,0.6921526,0.76491,1.8609872,-0.12760483,-0.29716957,0.79092634,0.8545672,-0.3595683,-1.4663553,-0.022089412,0.4897939,0.23155762,-1.175436,-0.33668354,0.99951154,0.9954469,-1.1981952,-1.3846949,-0.7665485,-1.7735336,0.35408485,-1.3267982,0.69971037,-0.41309592,0.28583223
MMRF_1327,0.5871291,-0.82794464,0.83935565,-0.6377926,-1.3795221,-1.0157236,-0.42656422,-0.6427504,1.4385096,-1.0200607,-1.179224,-1.0030106,-0.8746785,-0.70411325,0.6238751,1.4556738,-0.07673225,-0.7364525,0.21257484,1.0068072,-0.9899961,-0.8008418,1.3030946,0.8041677,-0.40130916,1.143152,0.2905518,0.13240138,-2.2979023,0.015060598,1.1719017,-1.058459,0.26747668,0.9529735,0.8193794,0.9957535,0.61940366,0.30749726,-0.077327885,-0.3764654,-1.3631536,-0.79463416,0.49852285,-1.892255,0.024623057,0.461358,1.1323308,-0.49022555,-1.0696377,0.8727972,0.985501,1.2701453,-2.0596628,-1.5874884,0.49919114,-0.1808198,1.071604,0.54116774,-0.9886011,-1.4809233,0.26675,0.3998992,0.8240716,0.3779287,1.1431353,-1.719231,1.6377975,0.7578756,-1.101796,-0.010061299,0.90733707,-0.8454507,-0.27927202,0.41670814,0.15441506,-0.74066377,-0.9510214,-0.6389755,-0.2721584,0.5709885,0.049256265,-0.63877165,-0.7253334,0.39904985,1.268446,-0.025065308,-0.15707923,0.23486833,1.7056736,-1.5236814,-0.365895,-0.6005557,-0.16092859,0.45871836,-0.68747216,0.010367172,-1.2011465,0.39020878,0.95360017,0.9261639,-0.62748164,-0.16397084,-0.8593525,1.9580262,-1.9519067,0.8298486,1.2827955,1.1533166,-0.9482095,1.2557147,2.6256537,-0.5677122,-0.00023640506,-0.84462637,0.7168642,-2.311209,-0.9635705,-0.0037167557,-0.5099282,1.4860408,0.3939262,1.324309,1.6960604,-0.20491713,0.93709093,1.8355604,-1.1398807,-1.482615
MMRF_1210,-0.9592425,-0.07517519,-1.9418386,-0.7217967,-1.9166694,0.48239514,0.21401253,0.55807525,-0.07053787,-0.2066658,0.51563686,-1.495842,0.24948421,-0.31537324,1.1183926,-0.17337835,1.2841605,0.120547585,-0.49702436,0.86962664,-0.53395617,0.341252,-0.40745538,1.6727155,-0.93468636,1.2393562,-0.5179627,-0.9258476,-1.4305061,-0.07322051,-0.9433615,-0.5090026,-1.4303452,-1.831209,0.22153647,1.5655581,-0.35279274,-0.40977994,-0.16609782,-1.1128983,0.2314958,1.0400953,-0.10321687,-0.60599923,2.0164776,-0.1379834,1.1590681,-0.13529673,-0.4297089,-1.8308219,-0.28632796,1.3343656,-0.17819715,-0.84756154,0.6643809,0.1053392,-0.14605929,-1.2506683,0.28762168,0.43088353,1.1574098,-1.4230386,0.5613646,-0.28341487,0.65799516,0.11399953,-0.06118128,0.96275264,1.534008,-0.23803012,1.9802966,-1.2601004,-0.9611998,0.21640493,0.17232588,1.5849568,-1.7617017,1.4676713,0.83274335,1.2496958,0.32481617,0.8653017,1.3615744,-1.0433567,-0.70825046,-0.8494568,-0.47145736,0.5864713,-1.3199373,0.30684978,1.1142213,0.525035,0.6315858,-2.0213623,-0.24492526,-0.34018317,-0.2789007,-0.39170036,-0.8142497,0.75902873,-1.280795,-0.29202014,-0.9593917,1.2036598,-0.46348062,-0.58597374,1.3557717,1.1335034,-0.55692667,1.0195414,1.9053612,1.568816,-0.7230984,0.44144672,-0.85699797,-1.2711492,0.73863596,-0.4781885,-0.026537422,-0.927651,0.26065442,1.6152456,2.4047132,-0.59941846,1.0094893,-2.7131565,0.3850686,0.44353148
MMRF_1269,-1.1475075,0.92939776,1.3253366,-0.1487276,-1.3531708,-2.245595,0.9822343,0.36371973,0.31369823,-0.0864614,1.7399958,0.6886809,0.48068738,-0.14900112,0.07541099,-0.461712,0.015734734,-1.1053274,-0.36736414,-0.15534787,-0.13449588,0.25304174,0.15968783,0.57643676,-0.63478965,0.8690129,-0.2861164,1.1101544,-1.58511,-0.68818974,-0.49634275,-1.9214369,1.5892236,1.8056058,-0.6200849,-0.44310027,1.5848753,0.16538881,0.61778975,1.1181409,0.3641038,-0.5952638,-1.1733446,-0.37626597,-0.70094085,0.8537003,-0.23550296,-0.8981947,0.010231461,1.6048183,-0.71312636,-1.4811655,-0.18935475,0.009501748,-0.30561826,-1.4001268,-1.5819334,-0.62380224,0.06025722,-1.24767,0.422722,0.94131875,1.0273931,-0.98274827,-0.09320614,0.2774162,0.7825975,0.5849683,-2.9603527,0.70765257,-0.53331167,-1.1617293,-1.1819718,1.767556,-0.36225283,-0.455782,-0.10248106,-2.8607416,0.6132602,-0.1522846,0.66792154,0.08052873,-0.12365972,-0.6491838,-0.107203804,2.2095535,0.509879,-0.4755275,1.0102326,1.6247933,1.2013934,-0.884409,1.2422376,0.8300024,0.92484665,0.2929423,0.1431871,0.43316418,-1.2803077,0.8641605,2.0942461,-0.53792393,-0.22271906,0.0003655271,-1.6078016,2.3263466,-1.3260406,-0.5870845,0.0144739635,-0.5794476,1.5432208,0.5017169,-0.44372928,-0.9117884,0.39633918,-0.9112315,0.022928162,0.5736898,-0.56005514,-0.004929929,0.16077265,0.8171237,1.8656094,0.7035451,-1.7806978,0.028987082,-0.16420475,-0.25117838
MMRF_1251,-0.86084837,0.045209795,1.1189344,-1.7616377,-1.4369215,1.1701247,-1.341237,-0.45177063,0.9567521,-1.3594037,1.1031246,-1.8544736,-0.10136828,0.5339896,0.9155998,0.16050091,1.3167684,0.61767054,1.1676337,0.11353636,-0.2094777,-0.065849796,0.5407998,-1.6497397,-0.41709307,1.4697144,1.8534092,1.5960361,-0.48017076,0.6141897,0.24346279,-1.8271967,0.6897586,-0.99982435,-0.6980612,0.8226291,0.2990153,-0.7706959,-0.14260352,-1.2831123,1.0520049,1.7311754,0.7590359,0.8956035,-2.5001063,-0.012793081,0.64928204,1.4174429,-0.74221826,0.82219154,-1.348564,-1.8359182,0.0892172,0.5980008,1.254549,0.18003765,1.203979,0.28603336,0.8388463,0.97313213,-1.1362635,1.2318853,-1.1577245,0.1429016,0.840244,-0.08938106,0.7445809,-2.117892,-0.9348905,0.14213713,-0.8022895,1.6243871,1.1095955,0.6990699,0.98827493,0.9290099,0.83471185,0.30702397,-0.1063411,-0.840706,-0.7042825,-0.19337487,-1.626802,0.9281549,0.3184087,-1.1062695,-0.7551187,-1.2634883,0.28214866,-0.71557724,-2.0754743,-0.13044745,-0.090797625,0.33432367,0.5594225,0.5286248,-0.7638397,0.19308123,-0.5011691,0.5179461,-1.4130334,1.15647,0.6882087,1.4617641,-0.5047498,0.5729009,0.8303128,0.35824674,1.1578505,-0.71075994,-0.6815668,-2.1585171,-0.17716192,-0.7151911,1.9571358,0.5789968,-0.98584485,-0.901396,0.12463881,0.026894988,-0.26425767,1.1445588,-1.5897014,-0.5835672,-0.36037388,-0.47843114,0.14079821,-0.8449643
MMRF_1328,2.2458444,1.3226465,1.000795,-0.04602946,1.5142654,1.540399,-1.0832031,-0.14312091,0.74573064,-1.2853098,-1.8461579,0.7761328,-0.3450533,-0.41895065,-1.0109662,1.5445558,-0.9310273,1.1170373,-0.37481093,0.7769475,1.2033392,-0.16366027,0.6942725,1.0411124,1.0586677,-1.228764,-0.4044106,0.35109675,0.23252706,2.027723,-1.1012975,-0.4795031,-0.10096434,-1.6218551,0.34195352,-0.6781482,0.8518683,-0.6360026,0.6230478,1.171497,0.1738462,-0.84612536,-0.13220634,-0.13609557,-0.96665823,-1.0959111,-1.0730269,2.054275,-1.0164912,-0.95613545,-0.8807613,-0.8364383,-0.48816636,0.42232585,0.5411562,-0.13247377,-0.29779288,-0.12413108,-2.0070581,0.8794564,0.098962106,1.1044317,-0.32145533,0.5289797,0.55364156,-0.14863475,0.95013905,0.008489246,-1.186188,1.282279,-0.46820435,0.12036077,1.2195909,-0.1948757,-0.96725065,-1.4052244,2.1268048,0.7484506,-0.6526968,0.33427805,0.9053782,0.03127823,-0.21504101,0.31482616,0.9177301,-0.45992127,-1.769478,0.81512284,0.9268017,0.6109782,-2.451066,0.47737017,-0.4756387,0.7339823,-0.29220304,0.3245059,1.0501943,1.3346348,1.2184448,0.87101465,1.2082489,0.6263203,0.4827275,-0.13956611,0.86247635,0.16014305,-0.057095718,-0.33737126,-0.45746246,-1.8390301,-0.60209244,-2.4393096,0.6061374,0.6964201,-0.26625407,-1.2828708,-0.1885307,-1.3405316,-0.7744808,-1.4113292,-0.9696153,0.015987555,-1.5138645,1.0578825,-0.07172755,0.71619475,-2.6247158,-0.26090425
MMRF_1171,0.46061158,-1.5028744,-0.078405984,1.4987447,-0.4035635,0.72525734,-0.30620375,-0.61903924,0.68398345,-0.18704168,-0.856011,-1.1307824,-1.2827172,0.36115587,0.73001575,0.3640213,-0.4111041,-0.4779123,1.667996,-0.28263733,-1.0367785,0.16289645,-0.59911746,0.41840732,-1.1748213,-0.42503163,-0.35429087,0.7573523,0.2356966,1.3268007,0.89618295,-0.30084556,-1.7987903,-1.3383697,0.32497028,0.1681853,-0.30452755,-0.13390608,-0.63224137,-2.1248345,-0.92482036,0.1300512,-0.21122462,0.6099432,-1.1954585,0.6240722,1.9798069,1.1629305,-0.58294046,1.1137109,0.61900723,2.2838392,0.14592648,-1.0196707,0.2217727,1.9652505,0.8050937,-1.0541193,1.4616197,0.59795696,-0.18842931,-1.0687145,-1.0138868,-1.3718611,-1.5128961,0.45773396,-0.48337895,-0.32455555,1.823658,0.10349719,-1.2755052,-1.2747489,0.3279476,1.1067977,0.45185098,-0.5795835,-2.9942036,1.8398213,-1.2986823,-0.27732262,-0.543676,0.29621476,-0.35469174,0.33938536,-0.10606965,-0.95860904,1.1096511,0.71071833,0.3361475,-1.0638179,0.32610962,1.0251429,0.09536498,-1.5389214,-0.53973496,1.3661687,0.04190525,-1.9775412,1.9296141,-0.6670794,-0.18725213,0.32513624,-0.20135933,1.4544984,0.13658251,0.5936115,0.6685254,0.27116922,-0.19900125,1.0813353,0.58319896,-0.46193588,0.8485413,-0.22014932,0.57737416,-0.59636956,-1.8026868,-0.89881766,0.5960634,0.22244355,0.95169324,-0.035562858,-1.4417058,1.9563081,-1.3150443,-0.053276263,2.0161011,1.0228388
MMRF_1354,-1.089351,-0.51589036,-2.5355487,0.49132195,0.013286067,-0.7336875,-1.8723545,0.73018885,-2.282374,1.6370288,-0.39657676,-0.2988403,-0.087626874,0.51785123,0.8294675,-0.8847142,0.108273536,1.21805,0.37126407,0.7014145,0.4146945,0.5388024,0.18961324,-1.0227009,1.4836496,-2.6519678,-0.5022121,-0.052436024,-1.0138003,-0.65749615,0.19864208,-0.48017597,0.013095344,1.567518,0.070977665,-0.58780265,-1.4128137,-0.22227009,0.6049845,-0.17106265,0.8430478,-0.06449693,1.3960305,0.53352576,0.24395627,-0.7630515,-0.42929643,-0.48097017,1.4009254,-1.3067402,-0.04135375,-0.016203104,0.81141376,1.6472677,0.6974707,0.1522491,0.5737049,0.8082336,-0.28553396,0.18435195,-1.9737749,-0.0756638,0.13005815,0.4232261,-0.33056074,1.0323474,0.97869885,0.854885,0.063254535,-0.5363564,1.4967877,-1.2830185,-0.5160093,0.5059781,-1.1073203,1.2484956,0.06402459,0.19937189,0.4589081,1.1116031,0.604123,0.63795364,-0.34702784,-0.35139394,-0.26648116,0.5278194,0.2128806,1.1016171,-1.3861891,0.3279719,1.3600243,0.29948354,0.2148818,-1.7327623,-1.4221035,0.54131544,-0.33348823,1.2249871,-0.38792038,-2.1556628,0.36861974,0.33060807,-0.34598413,-1.6111078,1.3102311,-3.6744835,0.035427302,-0.2581143,-0.28607613,-0.6868713,0.9713865,1.0763732,-0.37206224,0.1096648,-1.1295742,2.0107875,1.09148,-1.1564114,0.027046103,-0.66909975,1.9308771,-0.107382484,0.68642867,-0.488744,1.4473832,-0.8698103,1.3638062,-0.7553513
MMRF_1344,0.53607756,0.056979023,-1.1204544,-2.2636154,0.5643052,0.38568142,2.3146393,1.3382078,0.8401155,-0.30892637,-0.47853196,-0.7225631,-0.33115026,-1.2720467,0.6579264,-0.14580911,-0.33059043,-0.56242204,-1.2879173,0.813773,-0.7681078,1.9336439,-1.209312,2.309558,-1.0794446,0.16632465,-0.7975213,0.059411313,-0.3741058,0.1136679,-0.6400668,-0.0042518545,-1.2570214,-0.88151145,-0.90137804,0.80733144,-0.95589095,-0.45012802,-0.4006289,-0.99188346,0.26719186,0.6579647,-0.44730556,-0.21917616,2.2162988,-0.72291374,-0.656463,0.10952539,0.2305397,0.026846115,0.17711513,1.1331636,-0.78521264,-2.449261,-0.21474002,0.4012819,-0.52583486,-0.091185436,0.89612055,0.43895283,2.2623103,-0.22032444,1.7779479,0.60248995,1.4726346,0.14979407,-0.17586374,0.16588278,1.8069301,-0.070222914,1.9554642,-0.7091687,-0.86656666,0.4705858,-0.05257986,0.7825953,-1.0267702,1.9354702,0.14924213,-1.556687,1.3564918,-1.4394679,2.2301815,-1.4308408,0.15795426,-0.29404047,0.04854034,0.79282796,-0.27680084,-0.97046494,-0.21644971,-1.2899481,-0.33244646,-0.22651625,0.09067303,0.23170719,-0.062103957,-1.024692,-0.031525757,0.3383806,-0.58258826,-1.0012369,-1.0743947,0.48045838,-1.8035722,1.1056861,-0.06544343,1.8053216,-0.52049327,0.6422155,0.27157694,1.9110205,-0.32628888,-0.02721557,-2.2354665,-0.3758772,0.48812225,0.58553207,-0.8930317,-0.1514833,0.44667968,1.6034307,1.2139668,-0.41721758,0.09704762,-1.5257784,0.072757095,0.112912446
MMRF_1403,0.18527052,-0.49911788,0.9371197,-0.30457905,1.4151562,0.64474845,-1.5918431,1.8207811,-0.83840394,-0.9876908,-2.6125565,-0.8679127,-0.23256868,-0.91201425,0.05550869,1.3610798,-0.896396,1.1427219,0.81034356,0.061316364,1.9580467,0.93185323,0.1825404,-0.5882739,-0.057998084,-2.315079,-0.45925,0.32617742,2.3077528,0.9763482,-0.2336042,-0.565438,-0.19370447,-1.2021283,1.1092032,-0.0055053066,0.17767109,-0.548123,-0.6151794,-0.2413429,-0.3990763,-0.73058176,0.51901513,0.18231685,-0.04156813,-1.5797011,0.034167547,2.589116,-1.0087739,0.9123181,1.0387183,0.5617978,0.08736175,-0.51650476,-0.22483847,0.6250492,0.335315,-0.40749902,-2.4427972,0.52571553,-0.877001,0.17403711,0.76448727,-0.69833356,0.0773425,0.8346403,-0.42055273,-0.6376961,0.46006703,0.9381427,0.52384603,1.0547503,1.4965363,0.29805437,-1.4873542,-1.8331785,1.3245357,2.030033,-0.04673934,1.33196,0.4273176,-0.99983907,-0.16171682,0.64814913,0.7806446,-0.42118797,-1.9268482,0.6556752,1.1564906,-0.3426652,-1.2246926,-1.0502257,0.2299305,-0.44316047,-0.6291699,0.5073567,0.4637309,-0.1729567,0.11321671,-0.49624342,-0.53590614,-0.61278105,-0.33247384,0.82474893,0.8292733,-0.58472675,1.3789023,0.74499196,0.023481803,-0.5258818,0.29158944,-0.98170644,1.7902796,0.13438672,-0.28759146,-1.7027377,-1.5430433,0.18147121,-0.19937852,0.8980054,0.6735953,-0.0804521,-3.0931418,-0.054905124,0.15846103,1.5179987,-1.1230981,-0.034360226
MMRF_1408,-1.6127095,-1.279638,0.43722624,0.035593733,-1.0449748,-1.3864888,-1.5606352,0.32263875,0.19636266,1.4243073,-0.30843818,-0.19742538,0.70562905,1.3418766,0.8754489,-0.54159117,-0.46806312,-0.2245837,-0.10954726,-0.07469082,-0.80370265,-0.0032933913,0.15873888,-0.74494326,-0.6604419,0.27139905,0.43023178,-0.08030814,-0.6220198,-1.568323,1.9604939,0.20598233,0.16933386,1.3350158,-0.08910202,-0.6568306,-0.27664486,0.1479754,-0.39753783,-2.7953627,-1.699973,1.2122229,0.4926711,0.91064525,-0.5713925,0.6730949,0.42009875,-1.1256071,-0.6148932,2.430656,0.44511482,2.5630045,-1.2262604,-1.8369027,-0.19279599,1.322845,0.7430896,0.4511142,0.7762346,0.8627308,-1.0048358,-2.1700335,-0.23727955,0.5386685,-1.3594733,1.2984782,0.21791878,1.5891452,0.31629747,0.24030882,0.16041027,-0.09179122,-0.5473771,1.2234548,-0.4939883,0.22499467,-1.8047268,1.873868,-2.4023898,-0.22506061,-0.37407,-0.16795605,-1.2612984,0.33161992,0.45259765,0.37476224,0.28511342,-0.25875673,-0.055802125,-1.4295001,0.011840951,0.1337708,-0.47450042,-0.95986843,-1.2365174,0.81707096,-0.48963523,-0.560792,-0.16240133,-0.66892505,-0.51167125,0.41797012,-0.6230638,0.26738033,-0.5864358,-0.81386465,0.6841307,-0.12765445,0.6895967,0.8705036,1.2886856,0.4772801,1.6785489,0.9598392,0.45032966,-0.21365917,-2.4242,-1.3078103,1.4527497,0.9944353,0.9505389,-0.37716305,0.7856652,0.86084586,1.9522766,0.47216797,1.2076381,0.30929816
MMRF_1338,-0.4404294,1.0836197,1.6284853,0.9007883,0.75573426,-1.0550205,0.06963255,1.5784923,-0.17076905,-1.0845108,1.4172533,0.6753198,0.16895248,0.6921593,-0.90608627,-0.90283847,-0.8490344,-1.3834747,-0.56818795,-0.8052092,-0.73936015,0.24804041,-0.7033607,-0.040709347,-0.3994153,-1.374813,0.7036812,-0.035508793,0.5391753,-1.2075827,-0.7214928,-1.242946,2.1377792,0.6716007,-0.9768726,-0.68897027,0.26638746,-0.21852326,0.45308217,0.9080224,1.5165355,-0.086158656,-0.97309834,1.4166232,-0.68277025,-0.004942082,-3.1509864,0.29876527,1.493122,0.49773467,-0.11877255,-1.0870485,-0.707529,-0.25754133,-1.0319033,-1.5076358,-0.25389886,1.1779166,0.34739244,1.011971,-0.05840572,1.4098172,1.268383,-0.5858444,-0.50174695,1.8378667,1.728192,0.93351865,-0.119420536,1.0612425,-1.5239942,-0.06099794,0.69070774,0.22439082,-0.31824917,-1.2227628,0.870032,-0.8494995,-0.2584126,-0.6016732,-0.4008224,-0.21306753,0.16706514,-0.2017681,-0.28624138,1.6457132,0.840303,0.7201485,1.0545095,1.8414043,-1.3410296,-0.3834245,0.44564313,2.2088966,0.44147068,-0.40924385,1.4169466,0.09701766,-0.2797682,-0.71826243,1.9034475,-0.07940127,1.23971,-1.3592218,-0.34253514,1.6006584,-0.7262581,-1.6142616,1.1136675,-1.9607697,-1.6158836,-0.9493006,-1.3971537,-0.43804997,-0.62730074,0.86246216,0.14882277,0.09000665,-0.60582435,-1.3505362,0.5312887,0.50088364,-0.97322166,0.6487005,-0.14459148,-1.5324384,0.28168988,0.007951438
MMRF_1342,0.18334082,-0.71678156,0.07943632,-0.45644748,0.5736802,0.9454916,1.2256747,-2.1831205,1.1954567,1.1138997,0.7236133,0.12068641,-0.633717,-0.0906077,-1.6318007,0.37536538,0.060517803,0.74309754,-0.09570228,-0.5484339,0.14307106,-0.10738031,-0.70756865,-0.14510947,1.305247,1.5805205,0.5471813,0.45765936,0.8504713,0.2537601,0.9839887,2.580648,-0.9310357,0.19113722,0.58088666,1.4895728,-0.43990153,-0.08736577,-1.6975071,-0.37025687,-1.3343,0.9985204,0.5439934,1.8362265,-0.17057194,0.022210995,1.1310358,-0.47610676,-0.6116452,0.52448326,0.201844,0.83528227,1.4261184,-0.9564287,-0.42071858,1.5261211,-0.15576018,0.5815799,1.1962255,-0.5146199,1.0767355,0.67327696,-0.9295192,-0.23351467,-0.6367037,-1.1233763,-1.9247792,-0.2510504,1.0182844,-0.76747257,-1.1596968,1.8093947,-0.05664232,-0.7046778,0.49333617,-0.03064039,-0.8023713,0.64473855,0.057891887,-1.9596348,-1.0347621,-0.7265444,-1.2518495,1.5773858,0.7468651,-1.7827548,0.85534626,-0.93298423,-1.6674647,-2.6173568,-0.3286591,0.028982434,-1.2573237,1.2363366,1.7764543,-0.07572703,-0.52096564,0.009101538,-0.16365023,-1.1278206,-2.1421697,-0.022455936,0.25862506,0.35331178,-0.6268491,0.8908213,-1.0058079,0.95996714,0.60192573,0.41705924,-2.2573602,-0.29404584,0.24684669,0.04155171,0.3269037,1.0745038,0.43190366,0.07817251,0.4957888,1.3071606,-1.2099446,-1.8857301,-1.3048506,0.15219764,-0.7344859,1.2319486,0.12083545,0.8513287
MMRF_1352,-0.15771039,0.6657945,1.1186115,2.0733352,0.32944512,-0.7160127,0.81794393,-0.063294,-0.1626171,-0.69391876,1.503477,-0.13498122,0.2695223,-0.7298701,-2.107437,-0.9093476,-0.09955317,-2.3585858,0.19145134,0.7690046,-1.4204389,0.16439933,-1.0594453,0.7989494,-0.536752,1.5456071,-0.19870418,-0.8921068,-0.50265265,-0.50680053,-0.03615237,0.17609107,0.81069034,0.070623934,0.03441863,1.5918702,0.43206042,-1.1284825,-0.6897149,1.1536266,-0.24009338,1.3751082,-3.036877,-0.20142944,0.9625602,1.449678,0.40613425,-0.9351093,0.06592412,0.48664182,-0.91478866,-0.06188494,-0.30919036,-0.3327918,-0.9221258,-0.8855124,-0.4295775,-1.3214471,0.06932747,-0.19715138,1.7172672,-0.07843438,0.63348955,-0.8863956,-0.5637234,0.9062701,-0.52692324,0.89237666,1.4800699,1.4649696,-1.1142318,-0.89844877,-0.4612593,-0.61758614,1.0107054,0.3677402,-1.6522013,-0.8727912,0.2235991,0.4544905,0.3888318,0.9140198,1.538605,-0.5719494,-2.0213506,0.42699674,2.2094078,0.99005747,0.2523618,1.1818037,0.6781502,-0.054550685,1.408898,0.6688181,-0.2487885,-0.014388394,0.7597124,-2.867019,-0.43685937,-0.1982358,0.6102759,0.71570843,0.9617027,0.22650105,-0.16508175,1.912703,-0.79456747,-0.9699946,0.7335442,1.1227288,-1.5211287,0.21088916,-0.40750933,-0.32547313,-0.752718,-0.49555764,0.7325812,0.9667406,0.40875638,-0.9762597,-1.1838675,0.40498996,0.14469467,1.5952425,-2.0421999,-1.6144868,0.13862386,-0.46162143
MMRF_1380,0.22759144,-1.0537453,1.5334835,-0.6741507,-1.1138437,-1.2677358,-0.3324024,-0.0036084205,-0.009573584,-0.044594623,0.2195521,-0.6204906,2.742503,-0.49220175,0.8919514,-1.190798,0.5130833,-0.610309,0.7562357,-0.11490379,-0.3950656,1.5712608,-0.6857827,-1.1606485,-1.3336267,1.5767121,-0.3659797,0.047114737,0.04881148,-0.2183684,0.86316675,0.24690409,-0.0372685,-0.08240552,0.079173915,-0.098930426,0.4339309,-2.2858965,-1.0506809,-2.40844,-1.4603537,1.4332472,-0.81335443,0.016771179,0.37371692,0.53461355,0.44297665,0.96481436,-0.96472454,1.7955303,0.09948736,1.2774799,-1.0179484,-2.1866014,-0.8753652,0.36415365,0.44037583,-0.08150163,1.1959045,1.672243,0.021162273,-2.3425884,-1.2047013,0.45259896,-0.5514344,-0.41280007,0.26658326,0.5107107,2.2601702,0.29794568,0.041485768,0.55093664,-0.29019952,0.8653498,0.81954575,-0.30759642,-2.6645544,1.0026693,-1.4104142,0.10551692,0.04572137,-0.8816241,-0.0016775206,0.80850315,0.23601928,0.62298286,1.0884575,-0.20114881,-0.25697586,-1.789178,-0.6512367,0.5455277,-0.6725191,-0.14666252,0.3846708,0.63500434,1.9192276,-1.3717678,-0.28555402,0.14384946,-0.45358974,0.6306993,0.4074751,0.96266943,-1.2965958,0.507948,0.030145768,-1.2549841,-0.40044922,0.6968197,-0.5226798,0.008433607,1.219813,0.99594635,0.39610553,-0.7196977,-2.129742,-0.95811075,1.3417219,0.51516885,-0.22810555,1.2884243,-0.023562122,1.5136389,2.0187442,-0.011142076,-0.035786584,0.09005548
MMRF_1389,1.6374534,-0.3804624,1.7886202,0.53235626,0.9778838,-1.4771085,-0.90931106,-0.4374988,-0.4116942,-0.6842006,-0.6491515,0.70941687,0.6010159,-0.5981986,-1.2338662,-0.34448183,0.36486846,0.278214,0.24094081,-0.076930046,0.9072355,0.8668072,-0.53936476,-0.44713116,0.8201498,-1.7974657,1.5315212,-0.038742326,1.1599448,0.14417632,1.6119264,0.11831322,0.46805257,-0.49698085,-0.17573144,-0.9269259,1.607614,-0.14381102,-1.1399077,-0.71846217,-1.1658992,0.6273974,0.051725954,0.26169792,-1.5537888,-1.394925,-0.828394,0.8111535,-0.39427945,1.6947163,1.2245768,1.1372402,0.51005334,-0.47562608,-1.1686457,0.37041587,0.7407654,-0.2660026,-0.35101378,0.98594564,-1.4001153,-0.37035167,-0.20175125,-0.28965852,-0.40314212,1.0854869,-0.15965915,-0.18750888,1.0353478,1.2439256,-0.62504154,1.7471236,0.13608684,0.3256107,-0.06495067,-1.9101526,1.4398186,2.6544516,-1.5897242,-0.42732024,-0.08397084,-0.3996031,-1.2449577,0.89444685,0.40725008,-0.632618,0.6002477,0.9493917,-0.43448162,-0.3038719,-1.3931354,1.0159066,-0.26907456,1.1136913,-0.72386193,1.0318195,0.35925883,0.45930734,-0.33789578,-1.362403,-1.0036671,0.48170543,0.2526283,0.059480116,1.1740992,-0.5417627,0.90666,-0.54734313,0.64735055,-1.2179703,-1.7153245,-0.523231,2.3668659,1.0920541,-0.014367202,-0.18994415,-2.5080457,-1.4130319,0.67320836,0.5318339,-0.50943524,-1.3024342,-3.3948452,-0.1129818,1.0176728,0.83443093,-0.5428154,0.15924773
MMRF_1388,1.0841963,0.6327769,0.5768574,-1.1747253,-0.062357176,0.119517714,0.76796573,-1.0243522,2.5021613,-0.014909029,-1.6730872,-0.1462707,-1.079704,-0.5897928,-1.018193,1.4594469,0.39734194,0.43982488,-1.3903164,1.1660609,-0.74311465,0.2852484,1.2346268,1.5580693,1.0530794,2.1727087,0.81366044,-0.19298626,-2.7265959,1.1690167,1.2969167,0.1923621,-0.9868367,-0.044868954,0.4139165,1.4218382,0.4454367,0.33224785,-0.96919256,0.57969075,-1.8053945,0.39728814,0.67106456,-1.2275151,0.217853,-0.41789195,0.7869176,-0.677699,-0.8397106,-0.95832133,0.6621617,0.6215012,-1.1305428,-1.2883055,-0.030016396,0.5959963,0.68556374,-0.4012952,-0.6529007,-1.4514122,1.9956026,1.1092004,1.2528323,0.8562278,1.8603308,-1.8474984,0.43558127,1.2730747,-0.58247113,0.7299897,1.3479917,0.6748306,-1.2193525,-0.45888227,-0.16656081,-0.64947927,0.11278711,0.06324502,-0.217733,0.05069401,0.23410219,-0.6795988,-0.4493848,0.93643045,0.67996866,-0.81889606,-0.78699225,0.34017646,0.38972044,-1.3559995,-1.193388,-0.6978522,-0.9133339,0.29549804,0.5551382,-0.8320871,-1.2470406,1.4081477,0.49982873,1.0259666,-1.582682,0.02060549,-1.5753499,1.3983189,-1.7682861,0.81789505,0.28533724,0.8717762,-1.1210468,0.18294728,0.23396194,-0.6410859,-0.052613385,-0.95831656,-0.08562512,-1.733643,0.32090846,0.181345,-0.7940187,0.85430354,-0.9600182,1.1061826,0.8179049,-0.3080949,0.618683,1.0231581,-1.9318476,-1.232932
MMRF_1395,-0.9832566,0.73076093,-0.5320569,1.0840008,-0.46596932,-1.0498041,1.339493,-0.012483206,1.1174346,2.316887,2.6332104,0.9091448,0.10404301,-0.22876002,-0.20623647,-0.91420263,-0.29803047,-0.49114943,-1.3125123,-0.81563514,-0.2572259,-0.66535413,-1.3477446,0.26296884,-0.2582584,0.20756882,0.16794497,-1.0180969,0.0026734397,-0.35171765,-0.78127944,1.6905719,-1.8905745,-0.40134853,0.058696095,-0.62193465,-0.771341,1.1467983,-0.06196794,0.34753594,-0.30280107,0.58772826,-0.9145481,0.30445576,0.82828194,1.5490268,1.4392867,-1.343712,-0.2815731,-2.0638542,1.5589161,1.285541,1.2711629,0.32386145,0.49759194,-0.39581808,0.5886821,-2.4468656,-0.3856241,-0.39456362,1.3302084,-1.6678659,-0.3457862,-0.44402996,0.09376146,-0.81331676,-0.6046957,1.122653,0.3418308,-2.0067055,-0.81637245,-1.5388211,-0.82146454,-0.55425274,-0.15136075,2.3481305,0.12377973,-0.72403187,0.07886184,-1.3682806,-0.7728753,1.3611027,0.40094176,-1.2697752,-0.38801992,-0.09585742,-0.1909727,-0.041351542,0.48848042,-0.6077277,0.75277317,0.5084633,-0.5328745,0.030390399,0.6471916,-0.6762503,-0.5961875,-0.3532201,-0.10683608,1.5151011,-0.056086168,-0.5814505,-0.21326081,-0.69535565,-0.5907574,0.9976664,1.9704393,0.43223304,1.5185004,0.21915628,0.10685895,1.5271219,-0.99337864,0.5882635,0.1921734,1.4169736,1.6256151,-0.31685892,0.5178453,-1.0625436,0.25363314,-2.7030146,1.5999542,0.22355898,-0.79199624,-0.75129724,0.77439415,1.0967847
MMRF_1391,-1.0792166,0.86423856,-1.584385,-2.9267495,0.5361963,1.5024482,-0.3878397,-1.744007,-0.997089,0.67252356,1.1385013,1.6300223,-0.39748505,1.0588089,0.1345438,0.46298516,0.83005387,0.8082096,0.37655982,0.53559184,-1.2740965,0.21160614,0.22243926,-0.66136503,0.7552348,1.4943634,0.20224911,0.121637106,-0.5132527,-0.6460425,-0.052683603,0.55664605,1.5854899,0.29663104,-0.6475889,1.877606,0.2601641,-0.6429607,-0.99478793,-0.5353608,-0.44760507,2.1827567,-0.02950748,1.0356243,-0.7024725,0.41513234,-0.1772041,-0.106902674,1.146415,1.1241097,-2.188158,-1.772464,0.9542524,-0.21203423,-0.56679,0.5361779,0.23764163,2.073816,1.4684782,0.14036638,-0.555091,2.2447124,-0.98400176,0.7551058,0.5109587,-0.6973397,0.21032023,-0.45811564,-1.0841974,-0.28640714,0.15608372,2.1931078,-0.19358599,-0.58249867,1.7943115,1.1976931,0.21948089,0.12485377,1.1107306,-0.12877877,0.016939297,-1.0874699,-0.70033723,0.5794379,0.1695437,-1.1133959,-0.2394374,0.51038665,-2.1473215,-0.1399844,-0.16871333,-0.44267374,-0.3585478,0.6465767,1.3393294,0.4901734,-0.31857923,1.7507566,-1.0057814,-0.67486227,-1.2352853,0.9099744,0.2529567,-0.25090966,0.05752032,0.2307984,-2.3862338,0.8968128,0.12551859,-0.84740305,-1.6261388,-0.40605697,-1.0769049,0.021565197,-0.14242822,1.2841494,-0.035699572,0.08048067,-0.6314612,0.6936923,-2.1153607,-0.021738568,-0.33657116,-0.8224009,-0.3016975,-1.3535461,-0.8878138,-0.9790605
MMRF_1359,-0.24198568,-0.6028037,0.4802962,-2.394335,-0.9159465,1.5357733,-0.596612,-1.5981362,-0.011727305,-0.9687273,0.89747095,0.05962047,-0.08355963,0.403218,-0.13808754,0.20323926,1.2410907,1.0052009,0.42953306,-0.42552233,0.2533147,0.52694666,-0.43711022,-0.514216,0.78973323,2.5941482,0.4873036,-0.114408925,-0.20988895,0.9384771,1.2779057,0.41778624,1.1740545,-0.78870595,0.4178345,1.560974,-0.7555659,-1.4315575,-0.6957023,-0.43450153,-0.28489923,1.4623605,1.0728933,1.0813788,-1.097396,-0.20141351,0.53634256,0.0022818819,-0.18846795,1.4464532,-1.1827753,-1.3279638,1.59467,-0.57578796,-0.9249129,-0.17417458,-0.93479276,0.92102385,1.738836,-0.7990221,-0.10894794,1.2755214,-1.3022757,1.4938422,0.15448393,-0.21007735,-0.55056196,-1.7468681,-0.39817995,0.7681712,0.74530107,2.757181,0.32885405,-0.21417035,2.4656131,0.06873574,0.68924695,0.44987926,0.956847,0.14914389,-0.5340601,-0.9301889,-0.9388924,1.9416552,-0.18882504,-0.123098455,-0.14940475,-1.2362722,-0.69029474,-1.8770677,-0.79185444,-0.7218695,-0.46023154,1.0781567,1.2838744,-0.09506908,1.3366615,1.1739308,-0.71210676,-1.2385355,-1.444916,1.3560569,-0.15479468,-0.18781517,-0.037884627,-0.47287804,-1.6362915,-0.43783325,-0.55107623,-0.4249613,-2.156399,0.10225312,0.7087835,0.018468069,0.7837524,0.6748659,-0.9537127,-1.1776856,-1.0705949,0.93676704,-1.9216325,0.5589342,-0.8587364,-0.88147444,0.69532526,0.04744669,-0.64638966,-0.2557554
MMRF_1267,-0.11523868,0.37243518,0.1836588,-0.8114181,-1.9630834,-1.1264987,-0.6229512,-0.02111334,1.6319766,-1.788451,1.0469207,-0.24854884,0.91625863,-0.8301243,1.5874182,-1.1694422,1.7875228,-0.18693458,-0.43839186,0.21545763,-1.6656371,0.16692922,0.18172874,-0.6147407,-0.50997925,2.881218,1.0218402,-1.2842399,-2.2180321,-0.2882689,0.24672644,-1.0908542,2.124343,-1.3390968,-0.8525465,1.3658011,-0.21847452,-0.50674057,0.17227246,-0.9506242,-0.027591117,1.4838692,0.634397,-0.24244107,-0.4124727,1.3493372,1.8915228,0.3347767,-0.67502946,0.6228578,-1.3244481,-0.7500979,-0.6329932,-1.4769994,-0.28562474,-1.105567,0.21059942,0.6243289,1.7377864,0.053026438,0.65504354,-0.32147315,0.048095636,0.51979285,1.4714936,-1.2470658,2.2113097,0.12313932,1.2850277,0.030382954,-0.17849189,-0.13192675,-1.2137815,0.11226849,2.7877913,0.85658604,-1.5987809,-0.55895597,-0.757344,0.015453199,-0.9028405,0.021187507,-0.7420561,0.17200547,-0.49003416,0.7810147,-0.40529868,-0.2571856,-0.27441365,-1.1232297,-0.1718977,0.33528367,0.31989282,0.98755246,-0.0735564,-0.12720351,0.6382393,-0.22585544,0.8080959,0.7152853,-0.9277214,0.13872868,1.0968167,0.95566905,-1.1811378,0.7782457,0.5979251,-0.7964774,-1.39187,0.12643082,-0.7729342,-0.30996224,-0.37795055,-0.38945514,1.0685401,-0.2737237,0.32310596,0.22115095,-0.25733995,0.32110515,-0.37486088,2.0582814,1.2492589,-0.20507261,1.3459456,-2.0278637,-0.41480178,-1.5751233
MMRF_1274,-0.77409565,0.27232572,-0.25287566,-0.9358427,-0.87594944,0.9788089,-0.9453835,0.8972721,0.69196284,-0.50579643,-1.1085745,-1.2500273,-0.13852952,-0.59432995,2.003018,0.78828454,-1.0168055,0.7598048,-1.5965048,1.3665519,-0.5521456,1.7769432,0.11215067,1.0438733,-1.081213,-0.16125526,-0.81256074,0.6364426,-0.31163627,0.56390613,0.9010039,-1.0902864,-0.008618452,-1.0304986,-0.64039296,-0.39558688,-0.96987593,1.3739789,1.0756884,-1.6564755,0.8795067,-0.4109304,1.3723801,-0.39442772,0.7025586,-0.73708314,0.41360635,0.0713545,-0.31882685,-0.5254535,0.6785067,0.108627066,-1.7981744,-1.1417598,1.476831,-0.51743823,-1.1252613,-0.09519294,-0.037666373,-0.8043417,0.11257469,-0.107453465,-0.20542407,0.66059154,2.6822693,0.113426864,1.0962905,-0.13059156,0.0870542,-0.43531793,1.9763441,-0.9100619,-0.50436056,1.0710752,-0.03659021,1.2609324,0.39801094,0.90595436,0.364637,0.107095174,0.33780453,0.26150584,-0.3401846,0.13251111,-0.35463277,0.47123682,-2.7524583,-1.1160702,0.6155009,-0.6271581,-0.30428615,-0.39924854,0.13546985,-0.51203805,-1.4137973,0.060343664,0.062287133,0.20832546,0.106515214,1.6374534,-0.72285676,-0.867965,-2.4918156,0.11790447,-1.2774998,-0.76943004,1.1537865,1.6989671,0.3444091,-0.74247444,2.610608,0.7262727,-0.2915461,-0.06245447,-0.7883123,-1.0145276,0.13973838,-0.74808705,-1.1077359,-0.1328897,2.4835107,1.5918833,2.2066762,-0.9897565,1.4730653,-0.6759258,-0.4952047,-0.3447721
MMRF_1037,-0.2533079,-0.55339575,-0.8188284,-0.6108053,-1.1347027,-0.093148775,0.9325531,-0.025762202,0.6662974,-0.8674296,0.40533006,-1.9860944,0.9476931,-0.0046951864,-0.19643551,-0.95413905,1.5187304,-0.21721524,-0.7957409,0.6240971,-1.1628103,-0.014919782,-0.8861515,1.2209876,0.22966063,1.41521,1.1029887,-0.25958687,-1.5082607,-0.16128041,-0.1297881,0.12320051,-1.3396838,-1.8361632,-0.38410664,1.5712236,-0.57766634,-0.60778576,-1.2063628,-1.6194576,-0.81538343,1.3189808,0.3167481,-1.3249933,1.6500494,0.104538456,1.3742573,-1.2954996,0.2440057,-1.7441559,-0.688107,2.7333162,0.6490249,-0.74353695,0.39429164,-0.020896705,-0.29786772,-1.1970809,1.9352881,0.7793614,1.3552462,-1.5673602,1.361855,-1.1803269,-0.6683734,-0.090336874,-0.65065324,0.24785349,2.687867,0.33080518,0.57384384,-0.43861333,-0.15129828,-0.26958004,1.241769,1.2946119,-1.868854,1.1258326,0.5979772,0.8011535,-0.8363114,0.4925346,0.5375137,-0.094190694,-0.6261005,-0.6187405,0.6446262,0.7100514,-1.38307,-1.0735098,0.2730345,1.23122,-0.42640275,-0.57884276,0.26226377,-1.1054869,0.47332904,-0.5571945,-0.94243485,-0.6168556,-1.6395531,0.2144235,-0.22637703,0.39635286,-0.15934646,0.30003655,0.69337255,1.0962449,-0.17917871,0.716265,0.14779016,2.013481,-0.012273576,0.68178487,-0.97116554,-1.3413194,1.2728051,-1.156393,0.9137766,0.21633756,-0.3413457,0.9051062,1.9430496,-0.21893744,1.4193107,-1.6801059,-0.087217115,0.70185745
MMRF_1033,0.16915496,-1.5585618,-0.17792964,1.8145623,-0.8265719,1.173606,0.53492326,-1.3147945,-1.0183734,0.37065,-0.0657409,-0.2345556,-0.44615865,1.0231028,-0.49724132,0.71314794,0.12811758,-1.0095459,1.6094418,-0.1781648,-0.45479622,-0.8287418,-0.76986104,0.28464925,-1.490108,0.52338624,0.3843666,-0.5843105,0.8807886,0.6052335,-0.4435633,0.8190092,-1.5753194,-0.8753473,1.0978951,1.2448514,-0.42474544,-1.17389,-1.4049742,-0.8337793,-1.1762452,0.48202208,-0.41300645,-0.048552856,0.5556682,0.32468343,1.5945779,1.5007942,-0.2798933,0.42773426,-0.2612244,2.399865,0.26656464,-0.66277593,-0.8816734,1.7038546,0.53594923,-1.5878856,1.0802966,0.8646083,1.3478153,-0.40228373,-1.4630817,-1.77734,-2.2812862,-0.45909372,-1.5927501,0.1924009,2.6899107,-0.5906598,-0.98432946,-1.1617007,0.21256799,0.245079,0.76630646,0.06928871,-3.0398343,0.9398216,-0.19676992,0.32357463,0.45362967,0.37769353,0.39998868,-0.62854314,-0.4152836,-1.4099376,1.6089244,1.2569174,0.2109822,-0.11360254,-0.096141584,0.49572542,0.4364344,-1.1306895,-0.022534538,0.9912332,0.7682555,-1.7308048,0.72485566,-0.5172964,-0.51831967,0.89265144,0.8779179,0.46873683,0.049870867,1.1540959,0.1569014,-0.4701575,-0.26093715,2.1348891,0.057526365,-1.0969566,0.08472177,0.13760754,0.67891884,-0.09468506,-0.039399013,-0.16609567,1.778462,-0.0896299,-1.3554792,-1.2076064,-0.93171924,1.1958926,-1.2342677,-0.067952394,1.0720276,0.6558876
MMRF_1031,-0.07341407,0.58013254,-1.2417954,-0.16725805,1.2201552,1.529073,2.0709348,1.4075696,-2.0993342,1.217905,0.14966741,0.14698549,0.28495008,0.91151905,0.7996573,-0.23765905,-0.022336204,0.3160746,-0.014241507,-1.0390385,2.1124322,-0.67753446,-0.48508558,-0.35476673,-0.90149885,-0.4437852,0.024568431,-1.4039085,2.9728007,-0.4360213,-1.1752664,1.033741,-0.68755823,-1.4438051,0.6617905,0.5358435,-0.69253814,1.519492,-0.67993355,-0.18993844,-0.60664433,-1.6900467,0.34563392,-0.27852976,1.7627372,-0.9097906,-0.18946254,1.1202942,1.0956322,-1.7155048,-1.086203,-0.8220569,-1.1335169,0.5428546,-1.5795457,0.75531983,0.25516504,0.0451177,0.92262506,0.8923077,0.21238093,-0.3082357,0.30691215,0.35003155,-0.7357488,0.8272956,-1.3410532,-0.87946147,1.4667168,-0.3828465,-0.7267246,1.9902633,1.6919305,-0.3966176,-1.6849314,0.4658862,-0.29596058,-0.33523366,0.13036907,0.4455624,0.18338403,-0.81582606,2.7202282,-0.60508406,1.2014488,0.1094934,0.28172848,0.061420612,0.450652,0.62893707,0.7790466,-0.80652833,-0.98790616,-0.57195395,0.59873694,-1.3037409,0.056956597,-1.1267463,-1.2308205,-0.34015456,0.16353133,-0.4919228,-0.03576669,-0.38879246,2.3118436,0.94594574,-0.7706232,0.66615164,-1.4397486,-0.117964365,-1.188025,0.50304115,-0.8439495,-0.45788908,-0.35837382,-0.7501725,0.7790747,1.7017238,1.477537,0.24981086,-1.3368572,-0.3758964,-0.8987389,-0.21867542,-0.89923626,-0.6642525,-0.9771099,0.5730854
MMRF_1068,-1.4285718,-1.2105038,-1.6999888,1.8026311,-0.22640394,-1.2382432,-2.100285,-0.29325962,-1.2108585,0.8423549,-0.3689436,-0.08216942,0.01947559,1.1559321,-0.15615185,0.002901229,-1.0009884,0.63889736,0.44032332,0.076546304,-0.5934657,-1.7560165,0.1926677,-1.4171766,-0.3335845,-1.7628399,0.4884542,-0.019083392,-1.3623911,-0.26910192,0.75091046,-1.4326956,-0.1684355,1.9847115,0.99888384,-0.3874722,-2.1325738,0.33183086,0.84109384,-0.2972339,-0.823262,-1.025486,1.0571884,0.763374,0.012644195,0.47151884,0.60184574,-1.4423952,1.1235505,-0.17062789,0.36596692,1.7909595,0.96930337,0.7969166,-0.3024306,0.2937311,1.6064504,1.0708607,0.08289813,-1.4065177,-1.6971791,-1.049193,0.39353853,0.43558976,-0.9861808,0.45814398,-0.48163295,0.9994023,-0.80382246,0.35153747,0.36310223,-1.8817644,0.28506082,0.09422985,-0.87176067,0.39782545,-0.52362657,-0.2325829,-0.0638026,-0.0017215349,-0.385481,1.4285704,-0.59684634,0.05691749,0.23455286,0.53495646,1.0376704,0.5184585,0.4340734,-0.50690484,1.688097,0.61118555,0.60388154,-1.21218,-2.2701566,-0.03491232,-2.5015917,-0.7820186,0.7449272,-0.9691119,0.15606317,0.3115574,0.53554183,-0.17140658,1.5344436,-2.4411962,1.489407,-0.7735834,0.5037185,0.70884204,1.960326,1.1565838,1.1294223,1.0389023,0.6516916,0.67854106,-0.26719216,0.22161494,1.0010095,0.53408116,1.5662255,-1.5367621,0.048637383,0.03102131,1.552404,0.33075297,0.7094467,-0.07769769
MMRF_1078,0.62607676,0.33501437,-1.3066181,-0.77324504,0.46974984,1.0008533,-0.8238467,-0.25830808,-3.2275083,1.1863809,-1.1267751,1.5660143,-0.42596224,0.8255281,0.7350444,0.23406915,1.0768441,0.2635011,0.9925367,0.24136853,1.108552,-0.18064344,1.1776924,-1.0254616,0.0017509776,-0.96543616,-1.2251846,-0.6715899,0.49881864,-0.72948426,-0.55747676,0.9951056,0.08971827,0.23215413,0.5965637,0.5235236,1.168296,-0.59009135,0.58353764,0.5232319,-0.079341576,-0.11458073,0.6381056,-1.753074,0.41337666,-2.0116334,-1.0422066,0.3542931,1.3791245,-1.0809544,-1.3436358,-1.7205193,-0.15275273,2.4590418,0.1545718,1.2824237,-0.29744002,1.0373154,-0.87427855,0.7095907,-2.0444741,0.64586383,0.19603996,1.1270336,0.2863592,0.8100688,-1.2560736,-0.6799417,-2.1179526,0.116067246,-0.03510252,-0.16603303,-0.7569937,-0.8162938,0.4202845,0.15645824,0.9828885,-0.46090147,-0.40564236,0.65220404,1.4243569,-0.20679113,1.625383,-0.9180104,1.3079096,-0.29238373,-0.15146081,2.746582,-1.7595147,0.5929246,0.87500805,1.0647408,0.76354885,-1.0113915,-0.7230656,0.50980633,0.52496797,0.5772407,-0.3626483,-1.3701657,0.56074375,0.59234923,0.5770582,-1.4106063,1.5899088,-2.653015,-0.9201471,0.067929626,-1.0789177,0.2625049,0.6538899,0.14091325,0.58559644,-0.04819926,0.38083062,0.9357417,-0.404713,0.17189409,0.80626494,-0.30556545,-1.3475789,-1.7294211,0.40060464,0.8236795,-0.80032927,-0.088019304,-0.5427206,-0.41440108
MMRF_1086,-0.671741,-1.6399866,-0.7721936,1.0892327,-1.3861816,-1.6508225,-2.0440898,-0.46689317,-0.6426955,0.25330263,-0.5647988,0.09793214,0.794246,0.48197675,0.3770192,-0.64891344,0.4838024,0.41994518,0.68122375,0.3454066,-1.3877023,-2.1979058,-0.62455463,-0.07701477,-0.4953106,0.50989515,0.54893804,0.5510629,-0.6427092,-0.3145299,1.108672,0.67857987,-0.4205569,0.17019862,0.31218603,-0.32729438,-1.2322321,-0.24932419,0.16950911,-0.963927,-1.0900065,1.5646605,1.2161058,0.457867,-0.5928457,1.6337442,1.5179119,-1.8109335,0.86855096,1.1014823,0.23324719,2.027005,0.43391204,-1.2517968,-0.27490377,1.1104766,1.5281222,1.0507834,0.5944004,-0.15877599,-1.3898995,-1.4155921,-0.39117104,-0.35197213,-1.4315413,0.522594,-1.0991293,0.72009856,1.5509171,0.17139621,0.6804852,-0.022161402,-0.59519583,-0.15227617,1.3518738,0.26282418,-2.0725276,1.5513202,-1.2752682,-0.3207505,-0.54461914,0.95196164,-1.3025064,0.23717219,-0.51819074,-0.16014022,1.7195071,-0.76035833,-0.4497697,-1.5519544,1.3457053,1.541953,-0.8665867,-1.7179126,-0.5402705,1.2004478,-1.6707422,-0.58246464,1.1112437,-0.9165115,-1.4095645,0.4262336,0.7708624,-0.41383526,0.77401406,-1.8732255,0.3983171,-0.7473487,0.15469414,0.90060437,-0.91234356,0.30465966,1.0218462,2.1189144,1.0109634,0.87299496,-0.7807335,-0.8450918,1.356516,0.46753863,1.3246137,0.030375902,-0.26255524,0.016269052,1.3898586,0.18622436,0.85803884,0.13168275
MMRF_1082,-0.26271966,0.9478595,1.2886997,-0.7658792,-0.79287225,0.42787093,1.3884714,-1.8422747,1.5594791,-0.71674407,2.6938176,1.2605315,1.0976374,1.6718577,-0.41888326,0.9764002,1.0663723,0.12025554,-1.4343643,0.15903759,0.53426844,-1.7325935,0.25987124,-0.84492713,-0.26684892,1.107132,0.66446465,0.21445127,-2.1223059,0.3341117,-1.5873283,-0.59926915,-0.93604285,1.033224,-0.22439921,-0.2354491,0.26943758,-0.15491255,0.8611894,-0.12386482,-0.43586424,1.1867027,0.2586312,0.3868488,-1.6709583,-0.21512271,-0.7541761,-1.150056,-0.6399559,-0.7556043,-0.92244166,-1.051806,1.1451874,0.09434119,-0.48567185,-0.86180604,-0.6478675,-0.008791093,1.3664267,-0.049992774,0.47411847,0.16404565,-0.07993483,0.35905808,-0.3902949,-1.7566254,-0.21029706,0.40264428,-2.732549,-1.0191609,-1.1071931,0.97742814,0.47075704,-0.5396524,0.25996503,1.4482594,0.75711435,-2.3036423,0.8299513,0.15571238,-0.25356653,0.81855714,-1.3469166,-1.0086017,0.62338644,-1.2752934,-0.07168692,-0.41933194,-0.07716761,0.65910053,0.15659517,1.3572994,0.5116211,0.5353331,1.0623058,-0.5009302,-0.8213462,1.4167503,-1.3344014,1.9049954,1.0482346,0.05273559,0.43013713,-0.32069942,-1.1296893,0.83905387,-0.49209535,0.75386643,0.3433719,-0.4076494,0.7184498,0.86282206,-0.80837584,-0.9337677,0.9295638,0.585665,2.1868625,-0.57443744,0.6536613,-0.28022918,-1.6715267,-1.1222603,2.571544,-0.33051926,-0.48338777,-0.98497236,-0.71337354,0.46921417
MMRF_1092,-1.0508634,-0.5823029,-1.1406807,0.48943868,-0.110511556,-0.24514808,0.17676781,0.011870796,0.001453774,1.3370463,0.5667459,0.9544744,1.2587819,0.17466979,0.64706975,-0.93723047,-0.5448728,0.8882821,-1.0853919,0.016856998,-0.716693,-1.7132486,-1.9329927,0.737432,-1.2030432,-0.30811495,-0.47769395,-0.278104,1.6194428,0.12685096,-1.6957128,1.3014452,-0.5212309,-0.13659407,0.2643127,-0.1018181,-1.3768371,1.6400993,-0.13356276,-1.2632177,-0.27369615,0.10999211,0.68059117,1.171685,1.609655,0.7454507,0.5457315,-1.2480469,-0.15770431,-1.8674575,1.3553361,1.3585845,0.08725108,-0.8276733,0.40493524,-0.6093984,1.1027181,-1.010974,0.5616925,-0.04020543,1.0248935,-1.8502047,-0.8762839,-0.42271194,-0.4914193,-0.67662203,-0.49209243,1.1076164,0.9857852,-2.2417316,-0.004617866,-1.2521462,0.5317461,0.38627085,-0.47364852,2.007848,-0.3726365,1.1392485,0.03411084,-1.2695998,-0.6642274,1.4137669,0.93344617,-0.7041306,-0.67974347,0.15282997,-0.7470252,-0.50376743,-0.8344851,1.4439025,1.5998759,0.0866541,-0.956221,-1.4855853,-0.09865372,-0.80006117,-0.93652296,-0.41680712,-0.16294062,0.9151127,-0.20928422,-0.04072678,-0.8170112,-0.9029935,0.011606386,0.17591617,2.4404757,0.5882651,1.6763966,0.81660664,0.32177776,0.4929126,-0.535098,1.7423185,0.106367104,1.3366759,1.5514673,-0.631194,0.72046775,-2.0332308,1.0145947,-1.3806696,0.34196585,-0.27514878,0.45656857,-2.2219214,0.9973113,1.5895942
MMRF_1325,-0.97219265,1.2612169,1.7332304,1.8497918,0.59648293,-0.49611455,-0.8966078,0.6407266,-0.08372578,-1.6617433,1.9505767,0.49256256,0.77692854,-0.28213266,-0.8248944,0.14672579,-0.20455004,-2.5480714,0.09075919,0.70531666,-0.9990872,-0.14935255,-1.0836935,0.041848853,-0.25655106,0.14043932,-0.1347107,-0.545587,-0.1959278,-1.1511294,-0.8183982,-0.5266495,1.73419,-0.013581542,-0.037181966,0.59711444,0.7984378,-0.679893,-0.1128121,1.2429961,1.1892364,0.86656755,-2.7624936,0.20491926,-0.28386196,1.1733438,-1.7554651,0.036349878,0.36636004,-0.36885017,-1.0513455,-1.2879862,-0.59854,0.519504,-0.50557876,-2.0901258,-0.617397,-0.14377877,-0.66969734,1.0378219,-0.4435656,0.4550135,0.57346815,-0.07425986,-1.1278076,1.1549147,1.455951,1.9045463,0.47980946,1.2918509,-1.4922014,-0.39026776,0.79657894,-0.4998695,0.8106347,0.095635794,0.5127947,-0.4512704,-0.026524637,0.32638574,-0.51408994,0.92042243,0.41606018,0.0064390376,-1.489392,0.8098687,1.5604029,0.39101076,1.1630119,2.393481,-1.1566533,0.18118238,1.1002896,1.1607032,-0.8073694,-0.9114502,1.2694362,-1.4504772,-0.43920892,-0.41811255,1.7364599,1.0004935,1.6869731,-0.26486832,0.508239,0.8492186,0.080143794,-0.76120645,1.2973546,-0.29509345,-1.4888495,-1.1655324,-0.6358927,-0.6102474,-0.37189516,-0.25791597,0.9234571,0.2083723,-0.21856949,-1.9313811,-0.8083919,0.075866,-0.7925719,1.1429929,-0.21109435,-2.3925054,-0.19903302,-0.0025651269
MMRF_1364,0.11959078,-0.7665434,-0.8405873,1.7388579,0.03531683,0.21470235,1.0317547,0.14556633,0.073167734,1.78397,0.089650616,-0.23508577,-0.5674365,-0.82083535,-0.31719723,0.21040398,-1.3737181,0.55425125,-1.3221276,-1.6679622,0.31955335,-0.1259366,-0.1431819,0.43719304,-0.3041309,-1.6033204,-0.21248834,-1.2475321,1.332536,0.48403952,-1.0985719,1.7257578,-1.5827554,-0.63613075,0.96136844,-0.099015675,-1.2712113,1.8691915,0.044577405,0.92889637,-0.3939437,-1.1338519,1.4663271,1.3287133,0.716703,0.63108265,2.3046572,-0.7352023,-1.0129665,-1.7116219,2.1126425,1.2579542,0.39888978,-0.4487641,-1.3137039,1.2958177,0.4791939,0.06119333,-0.056933913,-1.9852982,1.515825,-0.23338719,-0.034900967,-1.2184278,-0.62993824,-0.11605288,-1.6442082,-0.0861457,1.2036494,-1.0540502,-0.04671816,-0.34486344,-0.062051736,-0.15286109,-1.1685823,0.018841982,-0.68110865,-0.9215584,-0.27678144,-1.3321003,-1.4465446,0.49719766,-0.084802926,0.5280165,1.0652642,-0.07449042,-0.95465994,-1.240547,0.035232294,-1.6213949,1.3427906,0.48440906,-0.47174752,0.5837506,1.1761274,0.6168089,-1.4570482,0.08662197,0.45611316,-0.48990288,-1.0821627,-2.0294602,0.7527972,-0.3764525,-0.1255462,0.051641464,0.57938534,0.6927303,0.7892163,0.73131406,-0.486458,-0.6648544,-0.35971323,1.3587625,0.54680926,1.8446971,1.3387337,2.3464832,0.14436713,-0.16846575,1.6724597,-1.8589088,0.21296611,-0.53429973,-0.5353003,0.8777641,0.5131643,0.8268438
MMRF_1383,-0.6513318,-0.32474717,0.06366652,-0.6496209,-0.47710586,-0.89540386,-1.125299,-1.0082693,1.1657956,1.1416873,-0.36436516,0.71465224,-0.65525067,0.44755274,-0.34847927,0.4571467,-1.2255661,0.36779922,-0.30986556,-0.54996383,-1.1722132,-1.3943499,0.40176466,-0.49800646,0.41295162,-0.022275146,1.4596457,-0.6170576,-0.88054335,-0.34206,2.3064034,0.35591054,-0.34795114,1.7861559,-0.23633647,-0.2694476,-1.7685823,0.014532058,-0.045700677,-1.3846332,-0.9476363,0.7429756,1.5212095,1.61917,-0.9835201,0.6448737,0.4926847,-2.4897184,-0.49818447,2.077725,1.0937005,2.212641,1.2350458,-0.7815434,0.39818138,1.0422118,0.7709677,1.8299245,0.7194303,-0.5862155,-1.0813059,-0.6534825,-0.22145534,0.40315345,-0.14436828,-0.5166934,-0.8524411,1.1264364,0.13435881,-0.22797163,0.091276854,0.12609336,-0.41735458,0.22497426,0.016249679,-0.8235554,-0.8635267,0.21908067,-1.7641516,-1.1681112,-0.84168565,0.2842613,-2.5507195,1.1995662,0.20694253,-0.42703074,0.7688896,-1.0910436,0.9709923,-2.9088383,-0.062291663,0.76141775,-0.43919957,0.14723687,-1.2567935,0.6575342,-1.1251928,-0.35388476,0.21446383,-0.17355168,-0.48198017,-0.49052587,0.041113302,-0.69454104,0.095718995,-0.94990176,0.79723847,-0.041037656,0.18201458,0.56979096,0.31497216,1.3536406,1.4740542,0.5059548,0.83519936,0.90649205,-1.7197274,-1.0210621,0.122264706,1.4810417,1.4239181,-0.8982356,-0.2759698,-0.019424045,2.2187486,2.4767468,0.5349425,-0.045883216
MMRF_1377,-0.7231743,-2.3122962,0.5961027,0.72703874,-0.59297484,-1.8387318,-1.2994529,-0.60889536,-0.13997135,-0.376007,-1.2204638,-0.8200657,-0.69671845,0.5631547,1.2752417,-0.08052956,-1.0785933,-0.5879748,2.4334989,0.5652321,-0.76406217,-0.29237545,-0.18029357,-0.18801653,-1.8240423,-0.59470147,0.44790456,0.2533617,-0.92442656,0.023490956,0.2788049,-1.3148798,0.28301728,2.1277752,1.1388447,0.4237114,-0.29665142,-1.1086996,-0.030999593,-1.0848063,-0.78311634,-0.47119305,0.25949472,-0.79934055,0.9369751,1.0249168,-0.9252299,0.7666024,-1.0997148,1.4660593,0.4488551,2.250752,-2.2098856,-0.64864707,-0.18823561,0.15234548,2.5530424,0.4971318,-0.2725339,-0.30893266,-1.0286858,-0.5717169,0.9462999,0.13057083,-0.6950962,-0.9387058,1.5910116,0.93610585,0.15705156,-0.72112644,1.1386825,-1.5240784,0.681642,0.45944554,-0.5603383,-0.45670605,-1.3079963,0.801238,-0.7013245,0.04661648,0.88330334,-0.3645231,-0.113111146,0.07986508,0.23604873,0.8315828,1.0189843,0.9329017,2.2262015,-1.1169419,-1.2683188,-1.1712202,0.17905857,-1.3691053,-1.0735321,-0.51562166,-0.32970658,-1.2002977,1.2086823,-0.6228654,0.11517944,0.6143372,-0.22223268,0.6828117,-1.1925582,0.64191574,0.74980617,-0.33611667,-0.2145594,2.0787332,1.9235066,-0.73577917,0.1088794,-0.6270913,1.2778962,-0.990305,-1.4710277,0.54726666,1.0486732,1.2485024,0.84305614,0.50490546,0.36961237,0.6731824,1.4322712,1.6729286,0.32407755,-0.6519264
MMRF_1360,0.45189118,0.44097573,-1.3760391,0.7258674,-0.15515724,0.3032058,0.20804608,-1.1950763,-0.67335415,0.73112166,0.5114297,1.1080571,0.20850061,-0.33881104,0.8296333,0.08452646,0.42827195,-0.56969416,0.16342805,0.021059128,-1.6393673,-2.6229277,-0.2306206,0.8104812,-0.98410094,1.5589485,0.22502309,-0.68676776,0.7369592,0.43082023,-1.1719728,1.9192834,-1.5289783,-1.5514815,0.25993657,0.8230723,-0.85609496,2.3360972,-0.23282383,-0.15079378,0.09586876,-0.4229233,1.5150504,-0.84109116,0.40425715,-0.09523645,1.5176722,-1.6190667,0.2290867,-3.5351183,0.6572366,0.58995306,-0.0029036598,0.08120259,0.29714945,0.96736085,0.6572944,-0.29679576,0.41121656,-0.24722187,1.1953015,-0.12196159,0.4717738,-0.7279427,0.64116126,-0.9597147,-1.6111639,0.02643361,0.9501517,-2.2250834,-0.25790143,-0.5702075,-0.7285629,-1.4580449,1.3055736,1.5548248,0.031234013,-0.15029694,0.8443882,-1.6814088,-1.2582713,0.8673494,0.17594391,-0.25138965,-0.08621338,-0.97621715,-0.8454082,-0.8927188,-1.8854544,-0.4655837,1.0007206,0.5383834,-0.48647338,-0.3527018,0.5119726,-0.6140914,-1.3850611,0.122246414,1.1434075,0.25805324,-0.86285007,0.17115392,-0.2926226,-0.8280015,-0.012430529,-0.4350409,0.78157836,2.131793,0.31312203,0.846444,0.03481445,0.3204714,-0.266667,1.3191245,0.085415244,1.6425335,2.3502963,1.1534318,0.84881395,-0.65985703,0.45917132,-1.6349717,1.5936103,-0.8244335,0.029591326,-0.76485866,0.5707774,0.5104283
MMRF_1371,0.11858569,0.7709495,-1.9032722,1.0060794,-0.40535548,-0.39028051,0.58138317,1.6733572,0.12458465,1.8093213,-0.35999176,-0.279206,-0.37548,-0.79282653,-0.08229412,-0.942113,-1.0749539,0.38260177,-1.8078966,-1.7691696,-0.018512556,1.1268731,0.7560641,-0.23924297,0.43835387,-1.5896376,0.22223653,0.009382172,1.1287425,0.27541068,0.66185796,0.0077827685,-0.7105707,0.015126538,-0.4579813,-1.7780015,-1.4254895,1.9685086,1.8339759,0.21712145,0.30851525,-1.6678482,1.3576224,0.66005605,-0.115438096,-0.7903058,1.2289356,-0.81942075,0.21935593,-1.4107138,0.4243378,0.13987651,0.92561,-1.0860703,-0.68647724,1.3586566,-0.8002298,1.2664756,0.5748234,-0.985796,1.7980654,-0.75677544,1.2286319,0.7061461,2.0541441,1.2026317,-1.2893218,-0.42253903,0.058356896,-0.43146744,0.6209558,-0.0487262,-1.0269841,-0.5419739,-1.6622275,-0.31234473,-0.08677864,-1.1723287,-0.0712072,-1.7356422,-1.2378805,0.02325293,0.28101873,-0.44245464,0.5901902,0.809213,-0.8648758,-1.170188,-0.4322856,-2.4890594,0.9925786,-0.14457339,-0.3330058,1.16116,0.67971516,-0.07753582,-0.41830623,1.7111942,1.5426049,-0.08646277,-0.22850785,-2.2358212,1.0397034,-0.47196087,-0.7380073,-0.787119,-0.03931989,-0.20920205,-0.1183972,-0.7655229,-0.12462765,0.035016138,-0.7644696,0.33829057,-0.46954843,1.8028793,-0.43572974,1.5825708,-0.22198287,0.57853013,2.2782266,-0.059834354,1.2961371,-0.9959784,-0.07859396,0.95441014,1.1566362,0.66060257
MMRF_1089,-0.0141271185,0.696198,-1.8667389,-0.93277097,0.042630397,1.7851719,0.73668516,-0.89833117,0.68202466,1.0312115,0.9383874,-0.47934076,-0.39357263,-1.3102375,0.0058304165,0.4220872,0.9651795,-0.16940318,-1.5174212,0.22345799,-0.20990708,0.4492466,-0.4313138,1.844454,0.51932466,1.9348752,-0.589303,-1.4411718,-1.0869339,0.8265323,0.22487213,0.7970949,-1.871792,-1.8070816,0.45773208,1.1782426,-1.4114715,0.79574186,-0.33211163,1.0627601,0.44880512,0.94199914,0.39114916,-1.5057094,1.4007946,0.35311344,1.7731882,-0.8812182,0.44155455,-1.8899171,-1.4309981,-0.4050371,0.08966454,-0.3411174,1.0474834,1.8207507,-1.7027075,-1.460847,-0.26051137,-0.7307563,2.3958023,-0.022939188,0.26747003,-0.1935472,2.1438382,-1.4058809,-1.993146,-0.08040948,0.81187207,-0.19591148,1.2731432,4.638359e-05,-1.6746196,-1.1579777,0.36595324,1.7676777,-0.32316616,-0.5213912,1.0883579,-0.19434625,0.050337028,0.9211006,1.5136441,1.0758893,0.16329697,-0.63377666,-0.7963825,-0.41745645,-0.75109833,-1.4900657,-0.06071013,-0.47950548,-0.28032583,-0.48620915,1.2747381,-1.111745,0.038505003,-0.01241258,-0.25471267,0.949424,-1.2684727,-0.46260586,-0.8835103,0.7002709,-1.2135638,0.1492537,-0.31767914,0.80468684,-0.39200357,0.78253245,-0.6484883,1.4614813,-0.5394641,-0.08144469,-1.0069114,0.5754019,1.7174361,0.12051048,-0.49987245,0.083168134,-0.36368245,-0.08487892,1.7940863,0.10976218,0.5352037,-0.15201505,-1.4123905,-0.028161315
MMRF_1365,-1.2000676,0.7034515,2.131973,1.7707967,0.15090281,-0.6254378,-0.34134862,0.53679097,-0.49289945,-1.5755694,1.5907047,0.15222088,0.09928012,-0.46519467,-0.7135495,0.96910554,-0.33259228,-2.4004703,0.60235,0.33684552,-0.92138684,0.27428287,-0.54106337,0.47042173,-1.2075493,0.347302,-0.19867356,-0.71580046,-0.7964983,-1.0994579,-1.0629122,-1.0675455,1.2694621,0.55618435,0.85583115,1.0901285,0.6017414,-1.4742082,-0.3829336,1.1218972,-0.12733226,0.4536671,-2.7988548,-0.48791716,0.9554677,1.5603294,-0.6884627,-0.0119344015,-0.47934332,0.14010262,-0.9946202,-0.10217042,-1.6011431,-0.29795432,-0.7884949,-1.7784792,0.15906677,-0.92855084,-1.0031791,0.0009819511,0.25355536,0.47693878,1.152719,-1.1123127,-1.1796435,0.4132964,1.2127037,1.7705337,0.37038738,0.7355283,-1.5233673,-1.2490307,0.8593183,0.16876084,0.84650123,-0.29157123,-0.9029176,-0.7970645,0.6012579,1.1710405,0.8368505,0.9132451,0.64681166,0.10846709,-1.0049288,0.79933107,1.7760205,0.7245112,2.0086164,1.6633749,-0.71632487,-0.58001995,1.4479362,0.71100247,0.12671569,-0.94852316,0.75898296,-1.8739127,-0.62651926,-0.27724415,1.9133052,0.7972987,1.1885229,0.23793142,-0.36275944,2.3505602,-0.20208286,-0.60104394,0.7172356,0.19333798,-0.37797922,-0.95832145,-0.77785975,-0.9366929,-0.07237132,-1.5589895,0.07768597,1.075588,0.55501497,-1.259918,-0.5451317,0.6194023,0.09639844,1.7676142,-0.72849685,-0.70463187,-0.49385947,-0.62750185
MMRF_1356,2.4566543,0.74952024,0.99318314,-0.31036824,0.6668571,1.3013965,0.60785824,-0.20244524,1.5644441,-0.95680964,-1.0999974,-1.0506154,-0.8312389,-0.19482103,-1.1687428,-0.01743287,-0.07199137,-0.20973991,-0.38215053,-0.25705585,1.2896775,0.75282216,0.20967111,0.83233666,1.17496,-0.098293185,0.38498238,0.048268143,-0.12039183,1.8222927,0.7969473,-1.9452878,0.21914501,-0.7046154,-0.89895344,-0.74487686,0.3763425,0.7662522,0.06686465,0.66303205,0.57237643,-1.5641483,1.1130798,-0.3375689,-1.7615596,-1.7923082,-0.14582188,1.7519094,0.3427176,0.7931064,-0.91949993,-2.5560498,0.17765301,0.36818317,0.5903428,0.20807867,-2.1204364,1.2243161,0.26161963,-0.11808829,1.9098605,1.7491817,0.4409172,1.0914016,1.9587208,0.030632172,1.3037308,-1.6017063,-0.9975002,1.35568,-0.3216501,0.73068434,0.2331386,1.1482612,-1.6966811,-1.696587,0.90950716,-1.1883302,-0.52668357,-1.5187473,-0.60052204,-0.72546005,-0.09346101,-0.2390837,0.7923321,-0.30488852,-0.47645658,0.7838881,0.679434,-1.6256444,-1.2105166,-0.50459033,-1.1518201,2.090111,0.0036602947,0.62994117,0.1853807,1.5719773,0.89707583,0.8104608,1.0963773,0.18121462,0.14020553,0.044181537,-0.41947332,0.7549956,-0.64221865,0.2757369,-0.9391253,-1.6839769,-0.4546854,-1.564061,-0.16116092,-1.0729225,-0.18477695,-0.14369881,0.45070115,-0.010602055,0.057359144,0.2327389,-0.93050635,0.56809294,-0.5777437,0.08273188,-1.1627405,0.8128054,-1.8150272,-0.338079
MMRF_1270,0.100544415,-1.9657629,2.3299654,0.26341766,-0.9705289,-1.2299364,-0.11537381,-1.1415112,0.4155803,0.9496143,0.29314247,-0.7292763,-0.4088616,0.45196858,-0.29820615,0.7582524,0.2956732,1.3112751,1.05877,-0.879565,1.226066,0.025797412,0.7111871,-1.3569651,1.0799223,-0.0283502,2.081385,1.3653226,0.25339308,0.21358104,2.427092,-0.15371077,-0.4719989,-0.25384632,-0.48942497,-0.008718852,1.2827168,1.3949977,-1.2861841,-0.8830597,-1.4911642,-0.9760103,1.5913105,0.6010314,-1.4598017,-0.07300538,0.054328058,1.6237845,-1.3768122,1.2152251,1.1423172,0.92001355,-0.21655706,-0.31741622,-0.8746358,1.0723456,0.38782775,-0.7360953,0.30864775,0.54426634,0.476424,0.26228774,-0.13161074,-0.25223452,-1.5611572,-0.2907295,0.4492625,-0.2457938,-0.29492444,0.39479935,-1.0398208,1.395408,0.26221034,0.26021603,-0.48362803,-0.8273487,0.6921205,0.58928967,-1.6121166,-0.5389826,-0.88998675,-0.7724917,-2.2709806,1.5627457,1.2421893,-0.20244609,-0.5677133,-1.0650381,0.73834705,-1.5029813,-1.5651218,-0.115687236,0.29721177,0.6709855,0.39245266,0.04254312,-0.99402446,1.4406083,0.03879698,-0.97857594,-1.0036258,0.7094889,-1.1901604,1.8981383,-0.31430373,-0.13272557,0.7928857,-0.16028911,0.718287,-1.6197877,-0.11226788,-0.41729686,1.7139022,0.0025883522,0.6543273,-0.3327402,-2.3613222,-1.5379556,0.32713124,1.8393567,0.019140631,-0.7918111,-1.1533047,-1.0588943,-0.39402923,1.6943094,0.20378089,-0.58189905
MMRF_1323,1.2590221,0.58935964,0.33649713,-1.2235832,1.0075989,1.4322857,1.092717,0.75486815,1.4701719,0.097661115,-0.81061685,-2.0021834,0.010488525,-0.10729115,-0.6866777,-0.88063663,0.045651786,0.04950283,-0.92490554,-0.045758273,1.7125406,2.2907398,-1.278857,0.5789794,1.3097553,-0.07767554,0.0011944212,0.5218553,1.4764518,1.6593575,1.0418097,-0.78942204,-0.7605275,-1.032561,-1.1542372,-0.7664421,0.053345524,0.24824178,0.23400483,-0.52237797,0.9665508,0.4156686,0.31717873,0.3329364,-1.4184498,-2.234088,-0.7054918,0.516582,0.32249552,1.0116961,-0.3454742,-1.6294097,1.6120589,0.9197661,0.46849766,0.288617,-2.1269157,-0.54635763,0.69055444,0.9461251,1.4719843,0.510395,-0.0535259,0.4650269,1.3229089,0.89430267,-0.9931506,-2.3399534,0.6491349,1.9352407,0.87296706,1.960295,-0.55440956,1.0668356,-1.282225,-0.63294816,1.7925851,-0.057475947,-0.05710657,-1.1761516,1.0979303,-0.88591874,0.9237045,-0.7298479,-0.022542858,0.3903144,-0.7294941,-0.09108866,-0.4317192,-1.6733496,-1.6836998,-0.7637054,-1.1856081,1.4362434,0.4482916,-0.2459818,0.6513571,0.052245468,-1.1210603,-0.32814103,0.11012215,0.11464024,0.21491027,0.15007783,-0.19603084,-0.1458962,-1.2430243,0.57883203,-0.5691191,-1.3629458,-1.28994,0.8407821,0.87722284,-0.9925565,-1.2448934,0.33817124,0.38701683,-0.5291211,0.44745535,0.57414573,-1.184812,-0.78523254,-1.0055127,-0.40892732,-2.2011344,0.48690265,0.3505438,0.7760054
MMRF_1180,1.7695429,0.670349,-0.3632362,-0.62164754,1.1435348,1.7019181,-1.1799128,-0.079510026,-1.4826815,-1.1421678,-1.8081433,0.7020775,-0.9092076,-0.5503838,-0.11834395,1.5844316,0.020021716,0.72207075,0.8656471,0.058686588,1.0272865,-0.6313024,0.7097083,0.95517445,1.0290736,-0.5771819,-0.7271539,-0.5031962,-0.8449083,1.1308775,-0.39704657,-0.81870043,0.28995976,-0.7772786,0.77505314,-0.10352545,1.2892367,0.22032534,0.5264382,1.7334816,0.23741323,-0.5051291,1.2405604,-2.1758792,-0.2907093,-1.0754551,-0.71015114,1.2851698,0.7649039,0.10199,-1.5501957,-2.3887153,-0.55889064,1.3317766,0.28249776,1.0160582,-0.7883483,0.19294025,-1.8262596,-0.21094038,-0.108809575,1.7823647,-0.15206237,0.29947054,1.1955745,-0.6283222,0.1473872,-1.5396693,-2.5740933,1.0050616,1.3331853,0.4732378,0.23098373,-0.71576667,-0.35440668,-1.3366743,2.3580756,-0.6151732,0.4360733,1.1674708,1.7120535,0.07543074,1.4921427,0.037577573,1.7731731,0.11879629,-1.6137583,1.4949269,1.0719361,0.9494832,-0.51608735,-0.71896654,-0.07786589,-0.0962093,-0.38907602,0.4040089,-0.42923287,0.92293835,0.3577203,0.4178715,1.2816424,-0.026572334,0.4921097,-0.24579498,0.526081,-1.1415573,-0.89688826,-0.22376484,-0.79198736,-1.3076806,0.7053593,-1.3283814,-0.30302557,-0.25085372,0.5218029,-0.683554,0.16194874,-0.0162988,-0.6540611,0.15240188,-0.58277076,-0.3205208,-0.24973714,-0.24125001,-0.44691634,0.908981,-2.8663478,-1.3570954
MMRF_1188,0.064011104,-1.8653022,-1.474376,1.6338516,0.09168069,-0.9855279,-1.6079514,-0.6704767,-2.0598867,0.17823018,-1.1782174,0.4206326,0.07620567,0.7717701,0.37662244,-1.0093863,1.0276388,0.8591891,1.1390668,0.7651919,-0.21826231,-0.8093637,-0.13322353,-0.6692415,0.5150124,-1.387213,-0.007560565,-0.3540594,0.4524057,-0.8791316,1.7132072,0.8835338,0.048978873,0.576356,0.78243273,-0.42359915,-0.28108698,1.0440866,-0.18588741,-0.46255305,-0.28763768,0.32537925,1.1413565,-1.2430973,-0.42418084,0.6115519,0.7313319,-0.8054397,1.7336234,0.47993243,0.11823242,1.7239386,-0.10147232,0.6668659,0.09028101,1.2640227,0.9335466,0.6943486,-0.34269196,-0.4518253,-3.1181123,-0.73276174,0.35592347,-0.59659195,-0.9251439,0.6287232,-1.2147298,1.085326,1.0055437,0.25524366,0.16599415,-0.6006671,-0.27198347,-0.19274947,0.15172535,-0.6800486,-0.38517755,1.4672102,-1.4796972,0.115439795,0.08928278,0.93214977,-0.6113555,0.41810817,-0.17641917,-0.3587915,1.737073,1.3864983,-0.17359136,-0.8179734,1.4307121,0.9009596,-0.39695805,-1.3453312,-1.5939845,0.8942123,-0.75927836,-0.73366326,0.29938686,-2.3659208,-0.8199851,0.66762155,-0.5370569,-0.88480926,1.6980187,-3.3204541,-0.21530154,-0.029422875,-0.15788224,0.4987601,-0.38579786,1.7847946,1.4904968,1.0829252,-0.23475987,1.3364255,-0.92242724,-0.5058124,0.92831963,0.5104462,0.93462783,-1.5433707,-1.4282342,0.3212033,1.5824802,0.80754733,0.338385,-0.56527454
MMRF_1300,1.229789,1.0022907,-0.33672163,-0.64889497,-0.8760355,0.28648978,-0.37820804,-0.23417027,0.654298,0.15322237,-1.3412328,0.17955078,-0.8949196,1.168635,0.85115147,-1.1296784,1.0836079,0.058623128,-0.024999242,0.27863675,-0.7287332,0.53798884,0.3951305,0.5267645,0.47713798,0.44947788,0.07168788,-1.3124194,-0.53102654,0.40613085,1.4936152,-0.34944415,0.0026148972,-0.5117922,-1.2620682,-0.6893205,0.080248505,1.8511122,1.701253,-0.8233245,1.1481347,0.3528783,2.8536985,-1.1206684,-0.78712696,-1.5422015,0.871789,-1.7718011,1.1085675,-0.61395967,-1.0378233,-0.81027234,0.25779137,1.4999796,1.2089813,0.3582879,-2.0354216,1.543946,0.6339094,-1.0303513,0.0060720723,0.6965268,0.20260698,0.2936008,2.8788104,0.7569282,-1.3171698,-1.346666,-1.5533758,0.15087162,1.1782457,-0.54048496,-1.9713112,1.0296278,0.090231724,-0.17593654,-0.3205419,-1.3654768,-0.5432886,-0.7269732,0.59370136,0.6140921,-0.4219252,-1.5160005,0.7051227,0.245416,-1.2041526,0.33656514,-1.0729686,-1.7040188,0.24685025,1.2043906,-0.15351446,1.2207607,0.13962546,0.42175648,0.69799507,1.6627829,-0.64438534,0.50680846,0.27204132,-0.62488437,-0.5853903,-1.5858386,-0.45677325,-1.6313953,-0.7427874,0.53955466,-1.2055552,-1.0371542,0.7359515,1.7488965,-0.9717027,-0.7104229,0.13857986,0.7053748,0.87953186,-0.51108843,0.9201632,0.113858566,0.84746635,-1.4616102,2.370582,-0.00957988,-0.618845,0.055076428,-0.24357352,-0.23123303
MMRF_1331,0.0781923,0.504684,-0.8901625,0.8469648,-0.21592502,-0.3726222,1.0133618,-0.46182263,0.14789191,1.8685905,1.5640972,1.8531803,-0.48775023,0.49389282,0.65346885,-0.8498217,-0.66968614,0.6578166,-1.1373692,-1.2925602,0.0965502,-1.0281873,0.6135389,0.25266546,0.109504074,-1.0089486,0.003176921,0.3443328,0.7438273,0.10055968,-0.9630115,1.62482,-0.82204,-0.31158254,-0.85442007,-1.5642805,-0.6850854,1.7107044,1.6138612,0.14815411,0.5318423,-1.186377,1.4702346,1.5505459,-0.8935107,-0.036730103,1.0545044,-0.07978885,-0.20152338,-1.0768331,0.30739868,-0.27748546,1.4463365,-0.13175094,0.4848878,1.3121891,-0.61430573,0.1088409,1.2110354,-0.9261674,0.8399058,-0.40202177,-1.3172009,-0.26780596,0.22596365,0.150919,-1.734306,-0.35424203,-1.467289,-1.5828452,-0.94466424,-1.4735036,-1.8155419,0.22720152,-0.10450422,1.6764089,-0.31566674,-1.860474,-0.3410648,-2.2939606,-0.7778249,-0.062164728,-0.5110617,-0.22373846,1.0344707,-0.15000616,-0.9979296,-0.99301916,-1.0003532,-0.85579664,2.0044553,1.302277,-0.0623265,1.3921269,0.57412845,1.4082125,-0.77502096,1.147088,0.6785361,0.96149117,0.29931423,-2.3367171,0.5250231,-1.1949934,-0.038335208,-0.22413346,0.1613755,0.14657712,0.46337038,-0.60996205,0.34088796,0.9745254,-0.9058754,0.6824372,0.43931314,2.2199855,0.19384225,0.3011539,0.04618164,-1.0603272,1.4492106,-2.4475498,1.2177792,0.3028061,-1.1856263,0.36555693,0.3737453,0.9721866
MMRF_1185,-0.25989628,0.3100458,1.1449357,0.7065347,0.3535483,-1.0509765,0.2788936,-0.8046346,1.4810534,-0.9106864,1.7354977,0.42485145,0.85762554,-0.12349459,-0.70479155,-1.5809449,-0.17637943,-1.0841788,-0.520018,-1.014526,-1.5940299,0.8901754,-0.8398613,-0.44535547,0.30160058,0.5887888,2.070248,0.13245192,0.45065787,0.012012031,0.5964376,-0.797431,1.9174478,-0.035752874,-0.8542975,-1.1678408,-0.7139677,-0.21993893,0.7901693,-0.9889231,-0.5962074,0.012019355,-0.89176726,1.892976,-1.4431533,0.7971573,-0.9101485,1.4023639,-0.9446097,1.5523317,-0.9900472,-0.28067368,0.73083985,-1.9070555,-0.9451247,-0.3119447,0.10988554,1.0337473,1.6080784,1.1130352,0.15603481,-0.4529699,-0.39181593,0.231147,-0.7842087,0.260716,1.9926714,0.78995585,1.7802074,0.70597696,-1.4625711,1.4795913,0.4946406,0.28729036,0.099036664,-0.6179766,-1.2090347,0.66248477,-0.62413424,-1.7486039,-1.5245763,-0.031667054,-1.5916466,0.4165353,-0.19866514,0.3773044,1.2259501,-0.79784936,0.16102615,-0.9367213,-1.4747413,0.29436824,-0.6776437,2.0151315,0.034415197,-0.30549392,1.7175503,1.1917306,0.49516135,0.47897267,0.38814187,0.95157945,2.5414898,0.3231599,-0.45211986,1.3332702,0.37489554,-2.0839465,0.76875085,-1.2400066,-2.2138338,-1.1146247,-0.18617567,0.34736878,0.64450014,0.29907158,-1.0278411,-0.04734268,0.5924908,-0.5621624,-0.34465086,-0.6079031,-1.591264,0.43132168,0.54817337,-0.94349694,-0.13033834,0.33720437
MMRF_1348,-0.3940124,-0.57474786,2.0872743,-0.9015668,1.1374191,-0.6931963,-0.7460085,0.3411421,-0.103823595,0.36380252,1.4041394,0.6168507,1.851974,1.9942043,0.19180614,-0.335526,-0.4706277,0.34984937,0.3020834,-0.80153435,0.41197342,-0.54051113,0.22583386,-1.9910517,0.068935476,-1.8869678,0.57201767,1.6092409,1.2308478,-1.5234313,-0.1417066,-1.4007239,1.0977964,2.0597017,-1.5183991,-1.975144,1.1316234,0.23332687,-0.2200356,-1.6573901,0.33606645,0.18451317,-0.6943169,1.4758004,-1.6504188,0.22346929,-2.2983005,0.67791647,0.6817841,2.243558,-0.6802324,0.48741448,0.114590235,-0.61995095,-1.061428,-0.45614973,0.37130255,0.36122075,1.6558267,1.6359904,-1.5621501,-0.6285357,-0.52677524,-0.7852384,-1.7304797,0.90113324,-0.019325338,0.14890134,-0.742614,0.36222824,-1.6539485,0.70353055,1.6492072,1.6926315,-1.483571,-0.6620664,0.4955551,0.5694191,-0.49958053,-0.5110079,-0.34787852,-0.038408373,-1.8961581,0.012695327,0.5729981,0.67612785,-0.29034176,-0.3247939,-0.32690927,0.7294167,-0.56255996,0.4094208,-0.48950642,0.55500585,0.36856785,0.8453431,0.40281504,0.7926984,-1.3524102,0.19151533,0.8813582,0.33806002,0.07145706,0.032109763,-0.23139204,0.08519718,0.13714838,-1.1429905,1.5341768,-2.3657207,0.66376674,0.19778353,0.6639794,0.52876073,0.28346324,0.43852374,-1.3439561,-1.9577408,0.8282606,0.32079867,0.27003232,-0.57783604,-1.1551828,0.154949,0.52847844,-0.55967176,0.86782,0.38525763
MMRF_1284,1.0478361,0.3883019,0.4629605,-0.008342588,1.2756095,0.72852546,2.7797692,-2.498165,0.9642969,0.9244605,0.6576318,1.3356032,-0.60311705,0.5346635,-1.7121913,0.09388506,0.22898112,0.22609524,-0.22726683,-0.6741928,-0.08788165,-0.27537483,-0.53769964,0.49880582,0.47865888,0.26721868,0.47510722,0.82211417,1.495916,0.14351895,-0.48171535,2.697327,-0.7355858,0.6487482,-0.5335617,-0.35624275,0.057139017,-0.04714662,-1.0580086,-0.9624731,-0.52905136,-0.7863781,-0.17018074,1.5935361,0.0207227,-0.62193483,0.44932562,-0.39401993,-0.7650491,0.7440858,0.16507427,0.863236,1.8555862,-0.9784244,0.017901834,0.5499529,-0.6974104,0.18771566,2.0939379,-0.607932,1.7537328,0.42859024,-1.4646919,-0.59857357,-1.4728546,-0.426416,-1.4345948,0.005509123,0.5461637,-0.5052058,-2.3835146,0.46148223,-0.39285198,0.52025336,-0.022735639,0.2804363,-0.78895986,0.03448088,-0.36922708,-1.8883255,-0.8978298,0.07981274,-0.5887308,-0.44847977,-0.79851043,-1.1816493,1.0008608,0.4279746,-2.4844036,-0.34829417,0.9041192,1.538205,-0.83416057,0.9950351,1.341145,0.23786478,-0.46380597,0.5350684,-0.27823928,-0.20781276,-0.2333472,0.1943831,0.6173061,-1.2260548,-0.932002,1.6748724,-1.5151821,1.0052906,-0.38498223,-0.3591131,-1.0888013,0.76519674,-0.5481542,0.63349116,0.16656496,1.8902214,0.4414734,-0.01347458,1.1179961,-0.24950276,-1.5418466,-1.9478526,-1.2764816,0.5657309,-2.0299475,0.30396992,0.38565585,1.3152533
MMRF_1202,0.49495804,0.7458602,1.0024275,-1.7745868,-0.68184084,1.3181143,-1.9367211,-0.6469789,-0.076736964,-1.2619555,-0.51717585,1.0355315,-0.84596676,1.0252595,0.57181734,1.2238597,0.88023883,0.39224845,1.2382785,0.8406713,-0.45609957,-0.5253693,1.3106184,-0.76500493,0.14436378,1.2016685,-0.097045496,-0.3558032,-0.59032184,0.070463516,-0.6747993,-0.78653497,1.7966853,-0.054134194,-0.47742444,-0.22081774,1.2946779,-0.86039615,-0.25757155,0.6648845,0.98385954,0.97279865,1.0421182,-0.48308775,-0.8144298,-0.46422902,-0.3870427,0.50091594,1.1535075,1.8342097,-1.5221338,-2.7916424,-0.86712897,0.8958063,0.9358762,-1.2902714,0.17738052,1.1674576,-0.21804287,-0.5077434,-1.085813,1.846779,-1.2810346,-0.31940398,1.2231781,-0.9961942,1.0312268,-1.7837288,-2.6465454,0.12072766,0.27333853,1.2796589,1.2244062,1.3040555,1.2482072,-0.51201814,1.8945978,-1.2135724,0.61571026,1.1989846,0.73041564,-0.045775026,-1.938855,-0.3444802,0.653975,-0.45561796,-2.2055836,0.7763261,0.3168125,0.63075954,-1.6764998,-0.6940272,-0.09948609,0.68216366,0.6400359,0.059321743,0.705988,1.3414063,-0.9764142,0.45650148,0.6968059,0.6468952,0.39647728,-0.6764037,-0.7974922,0.5639951,-0.6327731,0.49166915,-0.51272625,-0.92521846,0.87678546,-1.5255693,-0.7796437,-1.044811,1.6884812,-0.39480934,0.32536444,-0.9050742,-0.659703,-0.35311022,-0.13788398,0.5939342,-0.27552608,0.05048669,0.65100586,-0.6668718,-1.1157974,-1.3419489
MMRF_1466,-0.44855317,0.83982843,-3.1889522,1.6882237,-0.7683521,-1.51016,0.11657816,0.8087503,-1.8265431,1.6102847,0.4357153,-0.7786469,0.5365747,-0.57228696,0.40814394,-1.3744206,0.3824029,-0.0023991535,0.9014889,-0.660298,-0.25910828,-0.3602285,-0.38661146,-0.70557606,-0.25848112,-1.7796884,0.45129696,-1.2799376,-0.13755827,-0.2701064,0.4105629,-0.02362788,-0.89365596,-0.045056365,0.7886906,0.74996346,-0.020338988,0.97765434,0.18385077,-0.085812,0.2126848,-0.13718508,0.7947,-0.90392834,0.8957881,0.37646082,1.4873631,-2.2333684,0.054042958,-2.8125374,-0.11009449,0.35876364,-0.31428993,1.7274939,-0.14354436,1.5550785,1.4475564,0.25621107,-0.20067528,-0.853835,-0.5509037,-0.7201794,0.4918085,0.25687063,0.026653564,0.68782145,-1.3038149,0.89887786,0.46922618,-0.76372397,1.9871542,-0.92968357,-1.4220796,-0.27656883,-1.1851507,0.75024617,-0.18813692,-1.2159156,0.40584454,-0.29403368,-0.6740765,0.99965477,1.46741,0.29818165,-0.122187965,1.0270048,0.6509757,1.250836,-0.16827834,-1.0350691,3.025364,0.18928206,-0.1429056,-0.8488082,-1.00164,-0.17503962,-0.9986116,-0.3870669,0.322826,-1.549693,-0.17496315,-0.5254456,-0.500546,-0.5186788,0.5675096,-1.9519298,-0.6352837,0.8752306,0.45616072,1.1098179,-0.6799991,1.6806846,-1.2790775,0.17147402,-0.6513839,1.87602,1.3517206,1.9883646,0.82115966,0.20150995,0.7701789,-0.6301787,0.9049143,-0.79094505,0.59960186,0.30241442,0.65627825,-0.39638662
MMRF_1446,-0.41171205,0.060521908,0.4397434,1.5321074,-1.6326339,-3.2532437,0.72362065,-0.30725393,0.7242987,-0.7771691,2.1727612,1.3385875,0.6571031,-0.42689747,-0.3501149,-2.2097197,0.088656664,-2.015472,0.4748179,0.16006477,-2.155108,-0.3227284,0.075012095,0.8414599,-1.3600811,1.7425786,0.46924448,0.4652679,-1.1835855,-0.34821135,0.39218742,-0.78716224,1.701016,0.87784666,-0.8762982,-0.23143572,1.2800536,-0.8045883,1.2667539,0.4129641,-0.5900938,0.7083537,-1.6370475,-0.7397612,-0.71796066,2.0734937,0.91748434,-1.143411,-0.34831762,1.6572412,-0.6186301,-0.028188195,-0.33763012,-1.1370193,-0.42437413,-0.7310681,0.16846994,-1.1685938,0.9649948,0.09437415,0.673297,-0.069009505,0.16064546,-0.4684987,-0.009813374,0.3427,0.96854025,1.1683019,-0.48552603,0.91501725,-1.0269699,-1.2213383,-1.524557,0.6494355,1.0309582,0.0019137375,-1.6617459,-1.9802998,-0.67097604,-0.19534437,-0.035385318,0.27754554,-0.32292336,-0.5956758,-0.9699761,1.4167179,1.7833096,0.0012685256,1.0719545,0.051122397,0.5621596,-0.135941,1.2055677,1.2971433,0.1527155,0.021303076,0.1298846,-1.2397603,0.551333,1.1228192,1.2310008,-0.25263134,0.82468814,0.706458,-1.478384,1.2487153,-0.5151408,-1.6431876,0.21436545,0.47897768,0.20281275,0.50732034,-0.22722183,-0.121245556,0.48788103,-0.703299,-1.1700222,0.69312483,0.132063,-0.8803264,0.38168925,0.60276556,1.7790112,1.491204,-1.377854,-0.4898557,0.064100266,-0.44021338
MMRF_1447,-0.1093321,-2.2503545,0.64672744,0.124670535,0.22205931,-0.27894557,-0.84815836,0.081280686,0.4453657,0.2867474,-0.8871601,-0.6977397,1.0388396,0.51409966,0.10329284,-0.5520113,0.32760268,0.4852711,0.3558287,0.08021,-0.85254747,-0.7835867,-1.0841378,0.14784056,0.18397284,0.7515633,0.096880056,-0.12391125,-0.19346553,-0.8745121,1.6065872,1.4994599,-0.6530609,-0.08213335,0.4184355,0.3464538,-0.28310868,-0.014418704,-1.3179684,-1.9244751,-1.4787334,1.0928038,1.0909584,0.2813225,-0.3018259,1.5088692,1.1487566,-1.3655506,-0.040845286,1.5561888,0.7610809,3.027537,-0.48573804,-1.5670825,-0.0700844,1.0140247,0.06757831,0.1923774,0.96036226,0.5342211,-0.6587856,-2.340907,0.22055979,-1.2735476,-2.2567985,0.24369363,-0.7471584,0.09972565,1.4234859,0.71774954,-0.19322531,0.28775847,0.07202192,0.12571816,0.033972766,-0.43331733,-2.0008683,1.6878947,-2.3122025,0.14545718,-0.9684966,0.1274731,-1.0150638,1.190251,0.8557547,0.12597571,1.0225011,-0.28397527,-0.14590485,-2.2500217,0.89618284,0.73115146,-0.63166344,-0.42791077,-0.26976958,0.65598285,-0.400472,-1.4819237,-0.24298288,-1.1232672,-1.2461394,-0.13873991,-0.52995723,0.74506974,-0.03515334,-0.8355301,0.6186572,-0.0045152605,0.17406076,0.8510927,-0.053309508,1.9794033,2.1874714,1.0932275,0.7184534,-0.7300799,-1.7956133,-1.5257039,0.50771916,1.6999856,1.2383705,-1.0184045,-0.5184843,1.0857817,1.6158435,-0.042098194,0.3920889,0.4196242
MMRF_1445,-0.19088298,-1.4070077,1.833812,-0.80565757,-1.6567711,-1.588102,-0.036625195,-0.7808077,0.2513571,0.5925304,-0.581713,0.2769353,-0.29644737,0.38048553,1.2246556,1.060775,-1.4387048,0.45960465,0.7527092,-0.56481606,0.023681866,-0.24623057,1.5420834,-0.6157082,-1.5082527,0.4470439,0.14234553,1.0870435,-0.8299153,0.32002088,0.37375602,-1.2599688,-0.46100712,1.745975,0.18657772,-0.90390235,0.16346064,0.75113606,-0.1892942,-1.4174353,-1.6560628,-1.3682798,0.8443889,-0.2597589,0.3642342,-0.31510204,0.38448444,0.43942887,-1.6879126,1.5094899,1.0204004,1.3226541,-1.6055019,-1.0776074,0.16647686,0.53613263,0.7219924,0.28497127,-0.6490722,-0.75658494,0.39979172,-0.43477616,-0.33738175,0.76161796,0.65708417,-1.2358965,1.197763,0.58647794,-1.9819949,-1.1898354,0.16667753,-1.0857449,0.20074731,1.139801,-0.975526,-0.3380065,-1.1681362,-0.3793914,-0.7721326,-0.42175356,0.22187845,-1.3767011,-1.0019501,0.7601194,1.6345859,0.18209307,-0.18136723,-0.8079119,1.9996136,-1.0982037,-0.9606026,-0.8312685,0.05726566,0.13055713,-0.6366975,0.22596703,-0.7771921,1.250075,0.7946349,1.7340635,0.15552357,-0.79953367,-1.154112,1.4661651,-1.3996434,1.2022771,1.1983045,0.46657357,0.06364545,0.3755111,3.047248,-1.0612047,0.5472567,0.08323969,1.2547657,-1.243115,-1.5731536,-0.37845248,0.97659636,0.8511446,1.0167446,0.22188504,1.7232473,-0.1051221,0.7433847,2.375961,-0.7215516,-0.4684883
MMRF_1433,1.047838,1.3331305,0.6374577,-2.2572203,-0.42636007,1.8625875,-0.71208704,0.057181068,-0.5725161,-1.3538445,-0.7719915,-1.0424607,-0.43828842,1.0652984,0.7263009,1.2383052,1.2943127,1.3003464,0.29815933,0.6085518,0.75102144,-0.5895709,0.6023348,-0.5699121,-0.14041956,1.2090656,0.25946498,-1.132084,-0.6551666,0.24396962,-0.1531542,-0.99361414,1.1997209,-0.7960702,-0.76346624,0.38229588,0.8222729,0.43668956,0.5070146,0.21558473,0.99893486,1.4715947,1.5799094,-1.3541145,-1.0720426,-1.4433389,-0.3775075,-0.29900458,0.10347542,0.4658294,-2.2991097,-2.5674686,-0.2555532,1.1818557,0.29073176,-0.95087016,-1.0311793,0.20619147,0.27781737,-0.40688315,0.08524255,1.3009678,-0.87126774,0.9913319,1.8419206,0.054704826,-0.1403648,-2.648495,-2.1181364,0.77807575,1.6684172,1.6830674,0.7548989,0.39056328,0.758998,-0.20103277,2.5794322,-0.41144007,0.6813601,1.4682977,1.1796057,0.45527995,-0.03865888,-0.24788523,0.87472856,-0.15021406,-2.2355726,-0.19475286,0.36659244,0.98001224,-1.1628401,-0.9367863,-0.16548067,0.2061358,0.68079334,-0.41278768,-0.44662288,0.8775979,-1.2834207,0.49995056,0.27006826,0.56428796,0.1311899,-0.35160884,-0.051483408,-0.38086957,-0.21455595,0.6466189,-0.9150244,-1.6254045,0.40991616,-1.269838,-0.8433967,-1.5417601,0.59332997,-0.5295652,1.1177123,-1.295536,0.2257142,0.30667588,-0.954534,1.3221349,0.37258935,-0.9814084,0.018298863,-0.6201792,-0.90019566,-0.27259374
MMRF_1434,-1.3153615,-0.829432,0.7874987,0.5758674,0.07334885,-1.3229421,-1.4273902,0.25626108,-0.6094209,-0.16086887,1.1095201,0.051374275,1.2869439,-0.24164784,0.039360225,-0.5261704,-0.2671822,-2.0413496,1.3253951,0.44881925,-0.60244316,1.5096307,-1.4945574,-0.72196025,0.63880754,-0.11152732,-1.2537767,0.11539749,-0.59104246,-1.3132778,0.7830287,0.43248788,1.2842304,1.0064687,0.07706774,0.3412895,0.28425923,-1.5317899,-1.3410603,-2.0821772,0.5702247,1.9426581,-1.861916,0.16333859,-0.8487383,1.2541766,-0.35313937,-0.45561036,0.44099617,1.878899,0.068948604,0.62508523,0.24713391,-1.019626,-1.0310762,-0.95666564,-0.7679134,-0.12299916,0.09704571,0.48498818,-2.1390655,-0.7586424,-0.08106616,0.72342765,-1.9891027,1.2089803,0.30683553,2.302539,1.5054868,1.50528,-0.7741874,0.42054784,0.50699705,0.18392196,1.1888983,-0.46160248,-1.2752521,1.574678,-0.44465813,0.3756001,-0.2777042,0.27331233,-0.39475384,0.51080054,-1.4165015,1.0136534,2.5250626,0.39986622,-0.107449226,-0.6912887,-0.44535697,0.32246408,0.38769197,0.19780058,0.22544484,0.57756805,2.4352956,-0.8465574,-0.71094346,-1.6265565,0.9100392,1.112887,0.3256658,0.2244986,-0.15293369,-1.0378227,-1.5618469,-0.52722776,0.45459944,-0.36969846,-0.7331387,0.7831014,1.3500882,0.814489,-1.7209365,0.28909573,-1.2653205,-1.1063403,-0.89998215,0.6806874,-0.40735573,0.36395168,-0.30106854,0.97894955,1.2263838,-0.2016919,0.9193371,0.6399107
MMRF_1436,-0.29319003,-0.12103488,-1.3757302,1.1253502,0.5923944,1.7068993,1.6028683,-1.6950282,-1.1494073,0.98960215,0.515538,0.73511004,-0.8104227,-0.4012941,-1.6486783,-0.032376803,-0.2607554,-0.774725,0.6512444,-0.005107617,-0.54048735,-0.30841324,-1.0752151,1.3637438,-1.197871,0.38608134,-0.08342283,-0.8740659,1.5482805,0.55136627,-1.4791536,0.72795147,-0.9836699,-0.53255713,1.4193655,0.7459181,-1.5708659,-0.7668394,-1.1967307,-0.12992363,-0.33488986,-0.44266972,-1.1827569,0.19967777,1.9981229,-0.44357106,0.32978213,0.44700533,0.42009646,-0.576159,-1.6201938,1.5234509,-0.19676328,-0.47346362,-0.37320527,0.9137374,0.13740736,-0.98393804,0.5165306,1.0068675,1.8178412,-0.07926012,-0.6464032,-0.75477,-0.80138314,-0.5859255,-1.5066159,0.6849736,2.8966408,-1.1392123,-0.5618375,0.19216213,0.92269135,-0.57496077,0.0990778,0.26447445,-2.365758,0.54026806,1.4880573,0.20121935,0.81457174,0.49106523,1.1184205,-0.8708046,-0.17050959,-1.5978465,2.1880417,1.5435516,-1.0825535,1.2955295,0.3011461,-0.25019497,-0.1945765,-0.5372899,-0.17208971,-0.93801045,0.6990941,-0.8053472,-0.08204298,-0.44825563,0.21143827,1.2980709,0.99980235,-0.79786247,0.50734997,2.429242,-0.648857,0.2583201,-0.0039011184,1.6904774,-0.49864376,-0.30716163,-0.5742568,0.58509606,-0.9280703,0.7486628,1.0816164,0.2937622,1.0302725,-0.83416426,-2.1722288,-1.6435775,-0.67198366,0.9494727,-0.7292011,-0.3339441,0.18477717,0.2623292
MMRF_1424,1.072648,-0.5050877,2.110833,0.050032582,-1.5536531,-0.60467166,0.306666,-1.605131,3.0215585,-0.013929078,0.58924514,0.5915593,0.8357553,-0.038200706,-0.23173918,-0.13774458,0.3054681,0.29520616,-0.6250702,0.18409769,-0.45080456,-1.3302531,0.5453242,-0.26788473,-0.447144,1.7101218,2.0160215,0.088909164,-0.52327377,0.43944836,1.661416,-0.01949357,-0.7312139,-0.01411497,-0.49944428,-0.95283425,0.86462915,0.17833683,0.058918364,-0.67357594,-1.9932162,0.301162,1.5439678,1.2705722,-1.3837143,-0.490885,0.09555358,0.4636606,-1.072677,0.64906114,1.095412,1.0673589,-0.35270062,-1.4822683,0.03774212,0.23819382,1.3733064,-0.10154924,1.0188727,1.197821,0.8817093,-0.761416,-1.706556,0.5952527,1.120083,-1.6715792,0.53195536,0.48700085,0.26579058,-0.37403178,-1.2205477,0.95972633,-0.43544537,0.093051255,0.32682633,-0.73670304,-1.6404487,-0.32789138,-1.7588265,-0.41888288,-1.1141708,-0.3039739,-2.111529,0.28835213,0.9045335,-0.8971279,0.3321226,-0.78688675,-0.17658015,-1.736579,-1.5936935,0.8988159,-0.13751836,1.1183045,1.0197085,-0.012710925,-0.0007779889,0.5887345,1.987111,2.0110564,-1.2077985,0.083248705,0.08452128,0.98714507,-1.195201,0.62193185,1.9214503,-1.4956774,-0.47713867,0.24570149,-1.1461662,-1.6596931,0.351831,-0.15558279,1.9233105,-0.12255322,-1.3202957,-1.1287783,1.1327943,-0.1383765,-0.91408414,-0.4934153,-0.28348964,0.26513308,1.0344136,0.23945169,-0.29664347,-0.4917533
MMRF_1425,0.47460783,-0.1297516,-1.7068557,0.46242866,-0.64936006,-0.1521355,1.0564318,-1.568861,0.61911577,-0.32003087,0.34164757,-0.4455393,-0.696243,-0.3813405,-0.7980523,0.14646298,1.262482,-0.28384542,-0.025005067,0.43421003,-2.2084644,-0.7784605,0.3674264,1.7432117,0.18143283,1.8203853,0.9531631,-0.5380608,-0.8865915,0.44685906,0.6537534,1.8365431,-1.3040835,-2.0780423,-0.0409668,1.3626707,-0.678963,0.5247797,-1.5003619,0.58432263,-0.32606447,0.91508764,1.1988941,-2.1161833,0.7384461,0.28924304,2.9406111,-1.489265,-0.08602756,-1.9734799,-0.36771718,1.2442728,0.40067017,-0.7369772,1.0814003,1.1230016,0.4911486,-1.4454913,1.2715309,-0.77888304,1.9503256,-0.67324585,1.0181955,-1.2202144,-0.21139015,-0.98970705,-0.84529436,0.97427297,1.8036784,0.070985824,-0.3170788,-0.75076896,-1.6430674,-0.8476491,1.8652961,1.3826926,-1.2179794,-0.042313665,0.44114536,-1.1086484,-0.4704486,1.2453883,0.04459274,0.09154488,-1.1040962,-0.8660516,0.24064824,0.85667974,-1.7878104,-0.59797096,0.5991969,0.4306095,0.33020854,-1.1256287,0.68656087,-0.25064993,-0.56598073,-0.17248406,0.6738219,-0.8753519,-1.7678932,0.5286796,-0.8963567,0.20521344,-0.6905184,-0.0072304774,-0.026507534,1.4596885,-0.2640648,1.0871518,0.30482852,1.1494085,-0.74932474,0.39721107,-0.26560053,-0.14744467,1.8985608,0.5681485,0.1732929,-0.24946788,-0.3217874,-0.89277625,1.5698954,0.2351929,-0.2416188,-0.7012831,0.31208712,-0.189141
MMRF_1439,-1.6638329,-0.9791203,1.6407491,0.020439327,-0.2008401,-1.9094725,-0.020123828,0.0077058524,-0.08779536,1.0230916,0.49231175,0.7163933,0.2918678,0.5534458,-0.48812458,-0.45636863,-1.258209,-1.2008734,1.0299097,-1.0874764,-1.0431767,0.90992266,0.22238483,-1.3811592,-0.7588306,-0.5576841,-0.7795987,1.7002037,0.018527942,-1.1000397,0.523217,-0.93092954,0.4975411,3.472034,0.024500564,-1.044184,-0.024440143,-1.4579198,0.093994565,-1.5655324,-0.775876,0.1340336,-1.5364642,0.5713844,0.5150828,1.9175224,-0.96297175,-1.4387317,-0.13634221,3.1575158,-0.39317077,1.7128261,-0.18010437,-1.0282227,-1.4691356,-0.2569983,0.21574543,0.42364505,1.1942484,0.6969234,-0.96547985,-0.71263194,0.802536,0.850579,-1.760166,0.5818503,0.035213493,1.3394617,-0.46884912,0.44589162,-1.1658425,-0.6447239,0.13692538,1.0692202,-0.5515758,-0.90899116,-1.6473792,-0.3738802,-0.081537925,0.19534877,-0.44819105,-0.5975169,-0.96671367,0.029633068,0.35262468,1.1909978,1.7169536,0.058310434,0.43324128,-0.93265486,-0.32957682,-0.40469345,0.2079415,-0.22262585,-0.0015877644,-0.2021331,0.44123825,-0.052325927,-0.1961765,-0.82968336,1.9463124,0.15457283,0.71224177,-0.26842946,-1.4540757,0.6870223,-1.560309,-1.7230622,0.48665217,0.09820389,1.1854049,0.92236745,0.9551107,0.1421674,0.03800819,-0.12992343,-1.7816246,0.3763101,0.39451528,0.9277248,0.27537447,-0.123096354,0.70608705,1.4341046,0.4762714,1.611578,1.8704412,0.6406087
MMRF_1450,0.3969408,-0.20655428,-0.55814916,0.5362505,0.26151064,1.1729249,0.15213978,1.3637902,0.47721916,-0.52954555,-0.9522139,-0.7676557,-0.8545825,-1.0396959,0.6018753,1.1529938,-1.3574278,1.1671373,-1.468657,-0.7393175,1.1859893,1.1556568,0.7687751,0.76990783,-0.5727165,-2.070936,-0.6522318,0.07386536,2.007759,0.66178703,-0.9663083,-0.95697916,-0.5284671,-1.349596,0.27619892,-1.7080734,-1.1739801,1.4666771,1.0909631,0.1301146,1.0224413,-2.4027839,1.4172739,0.34802607,0.25942016,-0.40095863,1.341388,1.9019873,-0.66820437,-0.37400272,0.930391,0.3136949,-1.1795256,-1.9269351,0.16503273,0.49790037,-0.5024308,-0.019421246,-1.1877879,-1.3949974,0.8224232,0.35328016,-0.0813127,0.09130405,1.6634114,-0.08828206,0.5036374,-0.45017222,0.73433936,0.031239344,0.87689173,-0.6497161,0.6571229,1.9088806,-2.5349865,-0.076943316,0.03594023,-0.9324574,-0.40375558,-1.0426152,0.3072615,-0.8107618,0.35978675,0.3936694,0.8058467,0.69565964,-2.635452,-1.004389,1.9274839,-1.1257915,0.021177925,-0.41867402,-0.7779014,1.0476695,-0.1390755,0.7060867,-0.58175325,0.18989754,1.1174397,1.3281398,-0.011849672,-2.1446497,-0.6811075,0.16080067,-0.7408271,0.82393116,1.0118808,0.47953597,-0.22522381,-0.7205852,1.5295552,-0.42953143,-0.8803645,0.59527445,0.09806714,-0.10682105,-0.31366965,1.2676638,-1.0699596,-0.5307258,2.281309,0.40687725,-0.28843236,-0.37200645,0.3255779,1.2289038,-0.7538997,-0.31808773
MMRF_1451,0.8065466,-0.48131487,1.2738565,-0.47777775,-0.68684745,-0.55745035,1.3411314,0.31788298,1.8519846,-0.73326826,-0.8476873,0.051876117,-0.1625818,0.04737228,1.1701127,-0.28857034,-0.6301537,0.0022605793,-0.56521535,-0.8635087,-0.82784104,0.5028804,0.6677439,1.0849556,-1.2309272,0.8822166,-0.77877975,1.2080455,-0.20981771,1.0618832,0.7603703,-0.8307103,0.17482734,0.7015443,-0.9783406,-1.5823452,-0.37127805,1.2803087,0.34568307,-0.98089945,0.016246391,-1.4602507,1.6555387,-0.29672176,-0.9222332,-1.1219801,1.0463088,0.08023898,-0.9923553,0.53514135,1.2607777,0.44651592,-1.3495874,-1.6463097,1.0984675,-0.20493825,-0.8133276,0.22895245,0.49969238,-1.3287568,1.2728082,0.2768416,-0.66230357,1.1675296,2.2175124,-0.48255053,1.0467095,-0.9017615,-1.2189852,-0.6202052,0.2635931,-1.0547209,-1.2209674,1.9371092,-0.4324971,-0.6524195,-0.85292584,-1.5973257,-1.1000125,-1.6730214,-0.4305644,-0.9190129,-0.48876223,-0.4716643,0.3722236,0.4694453,-1.3257138,-0.09835213,1.2637402,-1.9733955,0.4781281,-0.10817556,-0.33568048,1.9694937,-0.3179093,0.35124958,0.4573611,1.2369323,1.5364895,2.4131634,0.11500527,-2.4591675,-1.4716604,0.38162082,-2.2011883,1.0318928,0.9813185,0.23569483,-0.807679,0.3798605,1.8550768,0.45388588,-0.3970027,0.24657808,0.83417505,-1.2986639,-0.54918575,0.14385585,0.044256233,0.3469602,1.2321548,0.16749437,1.7220557,-0.024928847,0.2225247,1.0902431,0.19276461,-0.3073533
MMRF_1454,-0.525073,-0.8511224,1.3495114,-1.1159995,1.3163093,0.76257735,-1.290336,-1.6418684,-1.7365686,-0.16103007,-1.2180687,0.69247174,-1.1929653,-0.008502535,-0.50191134,1.7072334,-0.5296102,-0.5148537,1.347276,0.2868231,0.30531436,-0.1095692,0.14388943,-0.11369097,0.49254134,1.0521783,-0.13608317,0.43571317,0.67553914,-0.51384187,1.0167146,0.6769196,0.6830376,-0.5628656,1.1127132,-0.40352193,0.9109096,-2.3671603,-0.730345,-0.77699465,-1.4673136,0.39602348,-0.801556,0.05929004,-0.51041377,-1.2134184,0.08828926,1.5126455,-0.13719358,2.835188,-1.3449906,0.86213803,0.19169924,-0.11703078,-0.3869058,1.2419841,-0.053544547,0.18592353,-0.95105016,1.1203066,-1.6425006,0.4805623,-0.63138574,0.36391082,-1.2936684,0.32391295,-0.48837566,0.15018371,0.1886244,0.7032733,0.3967472,1.4459155,0.9669,0.9447741,0.036798935,-1.7662718,0.5784772,1.9996463,0.6320546,0.3842378,0.99336773,-1.1827682,-1.008513,0.8496026,1.0162747,-1.4172146,0.77008533,1.0976334,-0.7862924,0.0040009096,-1.0986359,0.87125045,-0.2920525,0.30503917,0.72462237,0.18624179,1.0593449,1.4554225,-0.7276792,-1.8807653,-0.14023063,1.4640654,1.1461713,0.6193694,0.104424566,0.15720874,-1.2251787,-0.1529172,-0.75193256,-0.9546482,-0.2850343,-0.52990586,1.5573058,0.5424946,0.82858604,-1.6783872,-2.379838,-1.8926141,1.1646783,0.5299552,-1.7462432,-0.5052692,-1.924434,0.7502759,0.06281883,0.796268,-0.31519404,0.41894704
MMRF_1460,-1.1433212,-0.38353652,0.45787433,0.026323639,-1.1331501,1.5085969,1.6388538,-1.4263428,-1.7110485,0.52616364,-0.2916487,0.15150198,-0.547587,0.2900027,0.59198993,2.3459322,-0.097443886,0.86470515,0.9581134,-0.5151108,-0.6154595,-0.57427335,-0.52770567,0.7338473,-1.0571425,0.66281074,-0.59968257,0.034170926,1.1542073,0.4013186,-2.32809,0.120012715,-0.7170546,-0.30314764,1.66124,0.66643584,-0.34736592,-1.1975319,-0.90299845,-1.1099045,-0.9030288,0.034395576,-1.2969838,0.9293935,1.6907358,-0.985187,0.67355335,2.257492,-2.0888374,0.7410722,-0.8707693,1.6275539,0.17043012,-0.9921417,-0.9650524,0.5301742,0.8603442,-0.78733194,-0.28206044,0.7836273,1.6111854,-0.27889073,-1.776682,-0.20799853,-1.3281168,-0.8984124,-1.5515133,0.07008265,1.525823,-1.4176234,0.16707565,-0.68223554,0.6053863,0.1919129,0.23196252,-0.4460719,-1.8473349,1.201008,1.7185888,1.3865978,1.4575158,-0.15391065,0.59745663,-0.7066874,0.3574244,-1.8158203,0.8048489,0.5582783,-0.23467499,1.619454,-0.21917151,-0.14266491,0.012102138,-1.3982319,0.72422975,-0.6806359,-0.067528255,0.025997782,-0.6505765,0.29305416,-0.6009854,0.31230554,0.8179302,1.1256988,-0.18023829,2.1107993,-0.06653082,0.46884003,0.7340617,1.0890558,0.7906482,-1.663907,-0.42299786,0.70031595,0.35788086,-0.77610576,-0.5955264,0.51984274,1.1720655,-1.3848926,-1.8280298,-0.4043631,-0.45389494,-0.3023341,-0.65051657,0.578748,0.823466,0.6940322
MMRF_1461,-0.1671152,1.2277083,0.9310561,-0.3161993,-0.3659335,0.99315,-1.354681,-0.853869,-0.3337636,-2.1460373,-0.8207946,1.7485553,-0.8027048,0.8311456,1.629329,1.3127404,-0.089390665,0.4165477,-0.1697105,1.1775173,-0.6295622,-0.5579326,0.8992745,0.25185472,0.42298132,0.47836983,0.43816993,0.64303404,-0.86512107,0.7360781,-0.25523117,-1.3926454,1.3048078,-0.37532932,0.1536675,-1.1249478,0.15487641,-0.17653628,1.9551158,0.46443895,0.18582484,-0.9039077,0.9653146,-0.47511673,0.011981015,-1.1720594,-0.5694972,2.164342,-0.023171004,0.52363473,-3.2165048,-3.1009166,-0.510147,0.31376156,-0.2745274,-0.632821,-0.458801,1.8276223,-0.12190442,-0.77291995,-1.2242559,1.8559825,-0.16254131,0.59426713,1.669214,-0.70156235,0.9976115,-0.5742024,-2.3020039,0.44812262,0.7157839,-0.65403014,0.50315595,0.8482402,-0.19776312,0.015172457,1.5289719,-0.3260788,1.3095762,-0.3093442,1.5296547,0.5430894,-0.09286192,-0.30958652,0.639768,0.069730155,-1.5798888,0.20003898,0.5233492,1.9892482,-0.9177096,0.86671585,-0.47301197,0.023923473,-0.78370917,0.6154702,0.6774592,1.6043236,0.7388613,0.48133487,0.6009837,0.33301288,0.69347286,-0.49545056,0.14955197,-0.3045417,-1.5376341,-1.0823718,-0.39002344,-1.8532255,0.9692749,-1.405832,-0.77630144,-0.13869391,0.87780046,-1.1922576,0.71735877,0.021984005,-0.6746068,-1.3156,-0.29126722,-0.19005273,0.1645868,0.28572464,0.3424543,-0.7566008,-1.9764575,-0.36850333
MMRF_1324,-0.1716792,0.6162074,-0.6303519,-2.1174185,-1.4571028,-0.091721304,0.19251852,-0.96302015,-0.9639141,-0.0170448,0.65648913,1.3977106,-0.09497183,1.4543443,0.59011275,-0.5593521,1.5319417,0.77054983,-0.24070422,0.5764754,-1.0000385,-0.13441087,1.2029699,0.054574095,-0.32327285,2.3628712,0.74417096,-0.9900738,-1.7172332,-0.22115766,-0.17842898,-0.14390652,1.6729916,-1.294188,-0.3355112,1.4144039,0.92873824,-0.39672422,-0.05316684,1.1537395,-0.3057393,0.96782756,1.5186421,-0.96450925,0.85566264,-0.29156846,0.8010406,-1.358771,0.9962064,-0.41883144,-1.8654922,-1.7898715,-0.4677114,0.9753207,-0.25704786,-0.8106475,-0.67295456,0.278217,0.8700248,-0.86984396,0.7552598,1.9182125,0.29576564,-0.38434106,1.6272901,-0.66665167,0.2511574,-0.39912963,-1.5291256,-0.25956658,0.62362313,0.4604848,-0.98964196,0.7650633,1.8106508,0.50704145,0.12835515,-1.25069,1.2250732,1.1218499,0.7585527,-0.14528698,-0.5535258,-0.19923505,0.13342983,0.3309252,-1.4645178,0.2404678,-1.0913624,0.20083046,-0.010699557,-0.50337505,0.8271196,1.0455196,1.6680502,-0.4739435,0.66094846,2.7392783,-1.19112,-0.00065231277,-0.7579643,-0.36869004,-0.67509586,-0.7452219,-0.60337883,0.44079733,-2.4390671,0.3046363,-1.4476174,-0.9277355,-0.5554928,0.22427435,-1.5030781,0.06323224,0.346968,-0.021803677,1.5821892,0.21416815,-0.09524418,-0.1367437,-1.4970189,1.0530448,2.3533862,-0.8145082,-0.04409655,-1.2111145,-1.13986,-0.9954318
MMRF_1392,-0.18234201,-0.78943217,-0.6641057,0.86439836,1.3265387,0.7382115,1.0504333,0.9328064,-0.3356134,1.3774673,-0.25397515,-0.6556071,0.7133428,-0.25883415,0.33792344,1.2172971,-1.5332175,2.0325267,-1.3765044,-0.24200629,1.7261909,0.6522824,-1.3948758,0.1883807,0.12018554,-2.964088,-1.7301552,0.8298842,3.0003486,0.12643632,-1.0021267,0.70382833,-0.121752076,-1.1191714,0.040612135,-1.5022128,-0.92465436,1.3511035,-0.14686738,-0.42386314,0.9151337,-2.3559778,0.42412892,1.2357534,1.1932682,-0.26641688,-0.25462618,1.4004484,-0.24641402,-0.786696,1.6875002,0.30909446,-0.7309092,-0.5145417,-0.30053228,0.108278364,-1.2283508,-1.2423694,-0.17090844,0.1996713,0.768499,-0.3304243,-0.9978317,-1.1455276,-1.9856573,0.52510655,0.8756129,-0.7492074,1.9717625,-0.7143844,-0.45512125,-0.3954016,1.1774421,2.1635082,-1.8860288,0.7817413,0.8218881,0.44112337,-0.6348572,-0.9162814,-0.70026624,0.21111259,-0.14060432,0.19200525,0.38781178,0.861787,-1.6929548,-1.2338208,0.57788944,0.47784957,-0.87186253,-0.8373848,-0.33005035,-0.9168152,-0.29424244,-0.6628657,0.33511767,-0.30668327,0.20346385,-0.16733551,0.29231638,-1.4050412,-1.137621,0.5742801,0.3855126,-0.08475769,1.6369888,0.438412,0.8385083,-0.24820417,0.5895571,0.16745359,0.57355654,0.04110004,-0.6453888,0.17968649,0.9974388,-0.3826585,-0.16016513,0.2894411,1.9849579,-0.38967934,-1.6556178,-0.04451848,0.16091762,-0.49563882,0.6180213,1.3494817
MMRF_1413,-1.1084826,-1.6970326,0.5063803,-0.79324555,-0.23015077,-0.46392173,-1.3529227,0.26375163,-0.86731505,0.7960551,0.008566875,-0.035331916,0.91309786,2.2235556,1.0383303,-0.43727654,-0.16745168,1.4995832,-0.10435147,0.7624499,-1.1130158,0.58589035,0.06294103,-1.457616,0.7668144,-0.81983113,-0.19492614,1.5969301,0.76880914,-1.4784961,0.60574245,0.043837637,1.2369179,1.4797286,-0.34442523,-1.0944766,-1.0813521,0.04670821,-0.6609186,-2.1875572,-0.61504257,1.0941074,0.569113,1.1460997,-0.5875805,0.4966971,-1.1309946,0.46831417,0.07998239,1.8232143,0.030113965,1.5321152,-0.38633794,-1.934959,0.34526598,-0.27497473,0.7167674,0.54740137,1.3076836,1.5413357,-1.119707,-1.2925758,-0.5670386,0.58318895,-1.5668861,0.57063776,0.62926966,0.27072722,0.4544934,0.29969677,0.20535436,0.042080753,0.7144484,1.1421918,-0.72540116,1.1077671,0.70630693,1.9911036,-1.3630513,0.47729534,-0.62690395,-0.73793364,-2.3492053,1.4882033,-0.011779299,0.7085126,-1.1069275,-0.5099625,-0.21176918,-0.71558374,-1.0724865,-0.4941741,-1.3250176,-0.47250292,-0.6396147,-0.6373856,-0.19170699,0.09517561,-0.70943344,-0.8121976,-0.51968247,0.9424759,-1.0305344,-0.031246532,-0.43548825,-1.4759725,0.6087774,-0.7731878,1.2286297,-0.9954251,1.0042908,1.2525676,1.1378086,1.2186049,0.01989609,0.0017616637,-1.832158,-2.1386118,0.49114674,0.40187308,1.7437725,0.19620417,-0.17281991,-0.21118262,2.7011898,-0.70022374,1.0758942,-0.2590796
MMRF_1393,0.54316765,1.1446712,-2.208987,-0.2556824,-0.8437147,2.0403128,1.3274446,-0.8738536,-1.7866116,1.4669464,-0.013512569,1.6806422,-1.4573584,-0.9343188,0.6013195,2.0194678,-0.34791747,0.10355559,-0.07551088,-0.41663086,0.36437118,0.12324747,0.8461951,1.9708347,-0.8830996,-0.69656,-1.7651412,-0.124061614,-0.56035835,1.5757151,-2.023793,-0.3338251,-1.4496046,-0.6354208,0.8050428,1.47742,-0.73649687,-0.96355087,-0.067811765,-0.099368215,0.2184861,-0.68137103,-1.2179965,-0.40065137,0.7178576,-1.3909779,0.6468627,2.1435761,-0.48999503,-0.16584754,-1.4445086,-0.38165587,-0.04435479,-1.0348347,0.03666433,2.5023868,-0.32306227,-0.4990656,-0.50772226,0.7122136,0.89750874,1.6128104,-1.0333223,1.0566077,0.6355122,-0.46586582,-0.5640197,0.8033743,0.15080406,-0.48807207,0.60195804,-1.1194001,-1.5667375,-0.32216623,1.04644,0.70138067,-1.1814638,-0.028297732,0.4739033,0.797108,1.2045349,-0.07322492,1.1430768,-0.3118166,0.08668889,-1.3867017,-0.30492127,2.0554788,-0.69677407,0.82304984,0.5525917,0.16707353,0.19096462,-1.9175377,-1.1947321,1.1492492,0.21260515,0.2457487,0.82183814,1.3375448,0.70986545,0.14673539,-0.546128,-0.1249998,-0.11100054,0.7026083,-1.2222046,0.588216,-0.534357,0.8014772,1.8459152,-0.76876247,-0.32686606,0.17302965,-1.0322572,-0.031993575,-0.5007303,-0.30030337,-1.1625524,-1.3868638,-1.3172066,1.4791077,1.0123376,0.32988414,-0.84689677,0.20230597,-0.46787146,-0.38815254
MMRF_1148,-0.69884336,-0.10429115,-0.70332843,0.33664447,2.032342,0.21956436,-0.93116146,2.344854,-1.2703127,0.67787814,-1.4576315,-2.160668,1.2102032,-1.1095537,0.20599453,0.75978965,-1.823415,2.0147808,-0.74308234,-0.2712627,2.395592,1.0272424,-0.69118583,-0.12165757,0.46151057,-2.4034653,-1.2169363,0.34608358,2.045631,0.3988339,-1.0793966,-0.28715682,0.19118984,-1.0416198,0.5370801,-0.50751907,-0.87172145,0.966599,-0.21707995,0.1289922,0.35255268,-1.8201761,0.4281504,0.8365887,1.5408084,-0.51089805,-0.81009346,0.89179444,-0.47584203,-1.7352175,1.1483676,0.45888102,-0.07652573,0.26575884,-0.3341754,-0.50365525,-0.5132443,-1.0025355,-1.2607127,0.80439353,-0.28276736,-0.5002138,0.8749181,-0.41894397,-0.6379306,1.264767,0.47672677,-1.3457263,1.3582683,-0.2449097,0.8209268,0.1463888,1.3601397,0.5869206,-2.4660041,0.15877685,1.4029696,0.9974279,0.27149418,1.3870844,0.13932955,-0.055074707,1.2819173,0.5816721,-0.30162314,1.6178668,-1.6938493,-1.8010155,0.5317123,0.8458285,-0.3757401,-1.551855,0.1944441,-0.8356789,0.019158162,-0.42141822,-0.13565212,0.042088263,0.23803845,-0.497935,0.102705374,-1.2747294,-0.92749494,0.5878099,1.1330264,-1.0572807,1.1995589,-0.12261081,0.027268082,-0.44390672,0.017735662,-0.4244211,0.08495214,-0.12176864,-1.3930979,-0.91528416,0.5423388,0.3145188,-0.14027652,1.0949267,1.2898117,1.2266481,-1.1873822,-0.91998136,0.7475714,0.054977953,0.1773377,0.9642299
