patient_id,0,1,2,3,4,5,6,7,8,9,10,11,12,13,14,15,16,17,18,19,20,21,22,23,24,25,26,27,28,29,30,31,32,33,34,35,36,37,38,39,40,41,42,43,44,45,46,47,48,49,50,51,52,53,54,55,56,57,58,59,60,61,62,63,64,65,66,67,68,69,70,71,72,73,74,75,76,77,78,79,80,81,82,83,84,85,86,87,88,89,90,91,92,93,94,95,96,97,98,99,100,101,102,103,104,105,106,107,108,109,110,111,112,113,114,115,116,117,118,119,120,121,122,123,124,125,126,127
MMRF_1231,-0.88999516,1.1145208,1.3529898,1.5967493,1.1707611,-1.0083665,-0.8385978,0.65061843,0.5373005,-1.2338386,1.5163883,0.24556574,1.0503087,-0.9733475,-0.6027873,-0.52502847,-1.0212876,-2.2675762,-0.35943988,0.3633641,-1.6703069,0.12181291,-1.7046105,0.31162196,-1.0400221,0.33562997,-0.5116297,-0.366993,0.099905156,-0.4284735,-1.1337845,-1.0717381,1.868073,0.36390617,-0.45448014,0.398063,0.2772841,-0.3198665,0.1815184,1.0344946,0.90531415,0.38363668,-2.9051788,0.8456018,0.49992046,2.2413073,-1.9892887,-0.13144039,0.3802817,0.50232786,-0.83934325,-0.3269642,-0.4033549,-0.17542863,-0.17153665,-1.8156848,-0.18017909,0.13118076,-0.45360374,1.0117921,-0.0008677067,-0.12986198,1.4772516,-0.13035439,-0.65918314,0.84281445,1.3300984,1.1482425,1.0217088,0.6075144,-1.2452104,-0.332128,0.6076893,-0.5252525,0.6573911,-0.47777537,-0.99009603,0.032954283,-0.4835866,-0.15211143,-0.831782,0.55513287,0.8231533,-0.3266113,-1.0826834,1.4111363,1.4670433,0.09050286,0.75014764,1.7434189,-1.1270802,-0.43267047,0.6692531,1.0136274,-0.9295791,-0.9137444,0.9109424,-1.8673319,0.55056345,0.2551888,2.1198103,1.0292014,2.0420518,-1.0103016,0.15824158,1.7020316,0.32618305,-1.4643512,1.3526573,0.17511004,-1.8221369,-1.045466,-0.7729002,-0.49436203,-0.051665872,0.5386579,0.38769653,0.7922393,-0.15345699,-1.7451539,-0.68318033,0.15160099,-0.6978669,1.4736367,-0.013407629,-1.4425738,0.023490313,0.15799986
MMRF_1032,-0.1290819,-1.1063988,0.048466217,0.8584458,-0.66927135,1.3540418,1.8291037,-1.1935686,-1.6125692,0.64621186,0.10131075,-0.37801638,-0.766844,0.028010046,0.3611279,1.560446,-0.20559105,0.6372576,0.78106326,-0.60139936,-0.34438884,-0.082242,-0.3015516,1.4080666,-1.0573758,-0.21497457,-0.53922474,-0.008842523,1.2110101,1.382263,-1.3657577,0.040113293,-1.0190082,-0.09379288,1.7622548,0.9950506,0.7160309,-1.1329249,-1.0899961,-0.3288022,-1.2459375,-0.56579316,-1.369731,-0.5608315,2.3400426,0.17719741,0.8757394,2.4337373,-0.973697,-0.06842471,-0.99898124,1.3801649,-0.80885166,0.064296916,-1.3000516,1.5257088,1.0978565,-1.2002679,0.17225498,0.68946034,0.4837984,-0.21069372,-1.1579697,-1.5980057,-1.913099,-0.778924,-1.3902886,0.2466135,2.3693821,-0.6492182,-0.69388866,-1.0320961,0.98341525,-0.075534165,-0.36336508,-0.88199365,-2.425241,0.67496175,1.0954404,1.1133908,0.505689,0.3699459,1.539875,0.44778252,0.8947408,-0.90792966,1.3841103,1.2658046,0.6776464,1.1574838,-0.06419071,-0.346838,-0.5132981,-1.6258503,0.27574548,-0.47570857,0.03605527,-1.4738876,-0.1505341,-0.31222957,-0.94567436,0.46786672,0.247185,0.56704295,0.739746,2.2259529,-0.2134937,-0.5661585,1.0603817,1.295975,-0.17181091,-1.3594426,0.050272092,0.5482306,0.31100392,-0.65819055,-0.654932,1.1656803,0.51474154,-1.2368426,-1.3071336,-0.11855689,-1.3451926,0.67497814,-1.1042613,0.3707064,-0.42599893,0.21977295
MMRF_1327,0.63269055,-0.40681657,0.7947146,-0.7139255,-1.2315191,-1.3302406,-0.12698895,-0.4552002,1.6864064,-0.67844814,-0.8873439,-0.9033618,-0.5791451,-0.82068497,0.46009162,0.7738698,0.18895346,-0.7848169,0.023626411,0.5187238,-0.94954497,-0.3288647,1.2340392,0.93123096,0.07625564,1.3489507,0.59135646,-0.094319195,-2.1448867,-0.2434356,1.7895159,-0.6583988,0.8259303,0.8987403,0.5377484,0.741593,0.74269015,0.4726222,0.06880209,-0.3295444,-1.572085,-0.62147665,0.3984356,-1.9366024,-0.18099912,0.5730303,1.3115522,-0.40418905,-1.5809573,1.0088934,0.66290873,0.95042706,-2.2079034,-1.5676643,0.4293762,-0.043849148,0.8660153,0.58606076,-0.7452223,-1.4345477,0.35308516,0.039113436,0.600276,0.36346278,0.9800113,-1.8730669,2.0679367,0.7156458,-0.80711114,-0.03577932,0.9929012,-0.81204253,-0.58970714,0.26956832,-0.013485448,-0.75579125,-1.1782446,-0.79561406,-0.8769902,0.16264506,-0.093734086,-0.6836138,-0.77452123,0.4496898,1.101355,0.5634578,-0.18241186,0.28616843,1.4983747,-1.5836521,-0.29098177,-0.6586505,-0.71491677,0.5780668,-0.48149493,0.046883903,-0.62362283,0.6826365,0.7274746,1.0549239,-0.8998273,-0.07243935,-0.8690856,1.9310694,-2.0171764,1.4185706,0.9580635,1.0983993,-0.7632999,0.9826739,2.2917259,-0.5668019,-0.16326833,-0.9302829,0.65951914,-2.4300082,-1.0001673,0.085335515,-0.43886876,1.8763816,0.3668415,1.1301608,1.744452,-0.122821815,0.7502191,1.9641272,-1.386977,-1.4243003
MMRF_1210,-0.67430955,-0.18519726,-1.9254162,-0.9068333,-1.8177683,1.1462481,0.10607432,0.2144211,-0.5758017,0.128595,0.1759049,-1.4041531,0.060337737,-0.46171874,1.0437992,0.034948226,1.0589191,0.33669585,-0.5852007,0.69351745,-0.074632324,0.13544458,-0.42613468,1.9504104,-0.9155216,0.5165336,-0.73550165,-0.9722355,-0.9576442,-0.0070841936,-1.6791091,-0.57822025,-2.026932,-1.6793184,0.68348527,1.5718234,-0.6304688,-0.7064715,-0.19601405,-1.0859767,0.2794226,0.8403839,-0.15832625,0.014515549,2.081174,0.09958567,1.2968128,0.40540558,-0.33333623,-1.5888826,-0.3198127,1.463074,0.1509307,-0.7568636,0.42627898,0.22986059,0.3518637,-1.0678116,0.3772576,0.55894864,1.0372579,-1.4104899,0.23425786,-0.09746476,-0.15987913,-0.23570317,0.0452473,0.9710334,2.1538334,-0.4432392,1.8072717,-1.4012787,-0.55600095,0.4476927,-0.062136225,1.2980032,-2.0200481,1.7996281,0.28738898,1.5820845,0.43752447,1.2967536,1.254062,-1.0405521,-0.52263635,-0.9917226,-0.27580318,0.79587775,-1.2816863,0.17546743,1.2075231,0.67522687,0.24958418,-2.4993746,-0.03419459,-0.2196708,-0.23256554,-0.65502375,-0.7669119,0.21382698,-1.4382064,-0.12171633,-0.59837925,0.7606368,0.13221219,-0.51470166,0.93506396,0.9192652,-0.7612016,1.3334558,1.4329458,1.4560324,-0.6412195,0.8994289,-0.78684735,-1.0057175,0.61379266,-0.3601162,-0.083585456,-1.1211812,0.42488503,1.7586764,1.7254752,-0.7899324,1.2777297,-2.4727273,0.7131089,0.26768428
MMRF_1269,-0.52771497,1.286737,1.9291781,0.33741307,-1.3723167,-2.064401,1.3795469,0.30497837,0.6963751,0.22811148,1.6833884,0.3641229,0.67246765,0.1637332,-0.4148558,-0.049931157,0.44238356,-1.3559271,-0.52562064,0.19467247,0.24406913,0.029463068,-0.28811404,0.7252924,-0.23336467,1.1213678,0.33298734,0.66318625,-1.5270934,-0.91836506,-0.9012895,-1.5118258,0.819406,1.2528236,-0.6103942,0.39186049,1.9418609,-0.3026485,0.09650029,1.7251374,0.05185385,-0.2201754,-1.706388,-0.03095029,-0.3026202,0.4952195,-0.30869788,-0.5561955,-0.42126158,1.3632076,-0.91170913,-1.8105332,0.23542696,0.58462167,-0.2511115,-1.3353275,-1.6433635,-1.0802599,-0.5490124,-0.81573236,1.172915,0.72527033,0.7825576,-1.6666445,-0.5866622,0.2698089,0.21429676,0.384801,-2.3946478,0.8662024,-0.5482921,-1.3702381,-1.2965724,0.93492836,-0.10773269,-0.67678034,0.14615898,-2.0113633,-0.116606705,0.147004,1.2253546,0.043385662,-0.22429137,-0.8596499,-0.7657088,1.3725635,1.124098,-0.31514582,0.57117087,2.5461533,0.71983075,-0.47121882,1.3555341,0.6458882,1.3466173,-0.0867028,-0.4426515,0.29394457,-1.7269138,0.7622124,1.6678331,-0.41299057,0.48822904,0.080231026,-0.9731413,2.8186145,-1.2498734,-0.27384564,0.41251308,-0.2429785,0.36453348,-0.53985035,-0.69836116,-0.7059484,0.59570277,-0.8352246,0.65444654,0.98446035,0.51548,-0.31214112,-1.2276165,0.4193138,1.508704,0.6468859,-2.5030177,-0.09972601,-0.56023514,0.30824795
MMRF_1251,-0.25652057,0.25457293,1.0317017,-1.1522362,-0.9491546,1.5850155,-1.8555837,0.033002105,-0.27964744,-1.2220488,-0.23230293,-1.3861341,-0.018575005,0.3085182,0.5294902,-0.14396352,0.9194369,0.80454206,1.3579373,-0.43712425,1.0471551,-0.66584057,0.5386878,-1.6080189,-0.60242116,1.6144009,1.5518154,0.020188652,0.1075031,-0.22061032,0.65985125,-1.9062109,1.4542966,-1.4362872,-0.5100143,0.4816717,0.4198918,-0.44199583,-0.19382565,-0.15560122,2.2894552,2.251533,1.019911,0.06906064,-2.9167626,-1.0690824,0.12745541,0.7689916,0.19031504,1.3067213,-1.4370861,-1.5005989,-0.21061966,1.000846,0.58302647,0.3822902,0.65418917,0.043314468,-0.26733968,0.27340642,-1.0045264,1.5007762,-1.0444983,-0.21251407,1.1460911,0.9836716,-0.43149203,-2.6034877,-0.6848826,0.3174659,0.36742914,2.0907636,0.87598175,0.1488091,1.3815814,-0.9178451,1.2573484,0.5435028,-0.09678358,-0.005300535,0.49119815,-0.02968301,-0.80936635,0.9373672,0.36690822,-0.5813255,-0.9873697,-0.7169692,0.12114067,-0.44813833,-1.772198,-0.06060551,0.0854535,0.75697494,0.49436513,0.7360071,-0.85871756,0.35448694,-1.3760637,0.23151092,-1.3224268,0.33403304,0.20087466,1.0755733,0.5976691,0.801232,0.059273593,0.73708993,0.20727839,-1.6737707,-0.2537067,-2.181027,0.5499064,0.07296589,1.7267922,0.768805,-1.5519933,-0.97894925,0.23050578,0.41457844,0.055153962,1.2047247,-1.784021,-0.8557731,-0.73610646,0.38670212,-0.24646862,-1.0382164
MMRF_1328,2.270771,1.2933899,0.835537,-0.12103429,1.3764676,1.5894879,-1.1893973,-0.24808513,0.35921168,-1.9989588,-1.6984718,0.36708328,-0.2511597,-0.6966982,-0.55255383,1.3299819,-0.80046743,0.9988158,-0.13031432,0.5623042,0.85219294,-0.60015273,-0.075075425,1.4803308,1.0826511,-1.1025665,-0.33548573,0.09892051,0.50593793,2.1870875,-1.2257156,-0.5433498,0.08313204,-1.5520207,0.4397455,-0.6265503,0.42828757,-0.71619797,0.6630332,1.2502719,-0.00037221238,-0.9002032,-0.17554002,0.48328945,-1.5680817,-1.1792055,-0.88209236,2.3041596,-1.2377307,-0.59189785,-1.1836091,-0.78111476,0.21624742,-0.11059934,0.33302,-0.4727049,-0.51419425,0.6789649,-1.9078815,0.8813466,0.54519546,0.8000667,-0.040614385,0.44789955,0.49873826,-0.12703174,0.8515323,-0.5352383,-0.680589,1.2423685,-0.2128444,0.2855772,1.4418156,-0.5723276,-0.94354975,-1.9748821,1.7759238,0.86286074,-0.5645793,0.29294977,0.9294289,-0.054322846,0.14933431,0.040688284,0.9398614,-0.4874995,-1.2988789,0.6817628,0.38197803,0.63236535,-2.0695896,0.5387684,-0.33213812,1.156018,-0.12468627,0.6210248,1.1872197,1.1997943,1.4111308,0.47232297,1.2280316,0.8860466,1.0158437,-0.020388637,1.2258046,0.52197593,-0.0896616,-0.29306015,-0.4815389,-1.2953124,-1.0770273,-2.6326382,0.6969908,0.84382945,-0.17884319,-1.007062,-0.29334164,-1.1552353,-0.98330885,-1.3161578,-0.9857813,-0.4149998,-1.6581296,0.7154005,0.1496663,0.65566516,-2.4622946,-0.08994736
MMRF_1171,0.58619136,-1.3103651,0.41032547,0.7615389,0.27057928,0.64779663,0.13063443,-1.3470954,1.2607936,0.6287793,-0.11184986,-0.728697,-1.1316357,0.8041282,0.08766886,-0.31298637,-0.77484757,0.295057,0.4557784,-0.80301416,-0.21961372,0.88079065,-0.7897789,0.42486006,-0.21618694,-0.35518488,0.11617481,0.8207566,-0.22481377,1.0754005,0.737877,-0.17136031,-1.5128709,-0.9135546,0.38375863,-0.9128115,-1.0384068,0.24225828,-0.2794783,-2.284411,-0.9033849,-0.17095526,0.22757666,2.1519418,-1.450707,0.15147701,1.470597,0.7470237,-0.26000273,1.5783191,0.9561489,2.44513,0.6689207,-1.6902381,0.09406982,1.5809963,0.13131078,-0.62730056,2.296255,0.4718465,-0.2809136,-1.4884329,-1.2919425,-1.1380343,-1.5314692,0.38430208,-0.40070558,-0.34918508,1.0293361,-0.2320462,-1.6981817,-0.9677964,0.46074128,1.8287085,-0.33245677,-0.14909309,-3.0037773,1.9866719,-1.6024268,-0.8971228,-1.0521533,0.13158917,-1.2248816,0.81543463,0.17359933,-0.73088807,1.2068555,0.5343922,-0.8451391,-1.4550873,0.24590549,1.4242456,-0.6389982,-0.60190904,0.5131401,1.5879261,0.6253814,-0.44305354,1.2279105,-0.6487177,-0.034217466,-0.30547443,-0.06474605,0.7326245,-0.0040294975,0.68692094,0.47038248,0.14112139,0.10541925,-0.19800308,0.10425806,-0.19818237,0.7527323,0.23956782,0.17768854,0.4069462,-1.5225466,-1.9280511,0.7692706,-0.21636866,0.9279397,-0.18634598,-1.1140741,1.9695097,-1.2059592,-0.14724086,1.6439922,1.2855929
MMRF_1354,-0.82689553,-0.5841829,-2.3171325,0.15057771,0.1787802,-0.35280794,-1.7244182,0.5801431,-2.192721,1.7699109,-0.4599466,-0.08130421,0.068386465,0.7116707,0.69758856,-1.1928262,0.12956034,1.0343728,0.32238984,0.6411734,0.36066592,1.0621138,-0.36959696,-0.9538974,1.9649096,-2.6163003,-0.57712966,0.050484277,-0.71880394,-0.65503997,0.5756661,-0.3799781,0.13636184,1.5228084,0.23137264,-0.4309367,-1.2498333,0.093637675,0.15407489,-0.32615387,0.94619066,0.4267874,1.4222783,0.3579957,-0.2094876,-0.6253422,-0.83448076,-0.5252558,1.5925283,-1.1561669,0.0886708,0.26791883,0.81403667,1.6994594,0.94670004,0.031218896,0.33409828,0.86085814,0.20793496,0.3861058,-2.1157508,0.12576286,0.05505675,0.5931868,-0.3647575,1.1936338,0.9582741,0.3234865,-0.10804668,-0.48806453,1.2381148,-1.1928638,-0.9096129,0.4591871,-0.7656669,1.2783114,0.4001615,0.26373452,0.21439429,1.0564327,0.61494225,0.6474423,-0.50826687,-0.169678,-0.043089323,0.5012765,0.24870004,1.0231342,-1.5406169,-0.16560471,1.2632381,0.42136845,0.01620779,-1.4737304,-1.054344,0.5530785,-0.026963856,1.3054488,-0.7854462,-1.9879738,0.40693244,0.41829258,-0.7198914,-1.7906234,1.2475934,-3.8316197,-0.07539429,-0.33154452,-0.01605603,-0.96469903,0.49237108,1.3416263,-0.19890715,0.35423633,-1.5310988,2.133474,0.85119593,-1.2760657,-0.13883653,-0.68713677,1.6665266,-0.6907652,0.40604126,-0.592567,1.2560296,-0.86781675,1.278288,-0.73199946
MMRF_1344,0.8936933,-0.47248492,-0.6108054,-2.2868617,0.74625635,0.40465197,2.5791397,0.9006897,0.64318925,-0.33146554,-0.547395,-0.60576797,0.026802145,-0.9264179,0.47211236,-0.635465,-0.34149185,-0.5702368,-1.282367,0.6304667,-0.911451,1.4848523,-1.6621125,2.1336393,-1.3349453,0.54040265,-0.34030482,0.09238964,0.5299077,-0.028005898,-0.95885855,0.05339274,-0.9613655,-1.0001317,-0.69826144,0.85029215,-0.8647897,-0.4103897,-0.73952216,-0.93107927,-0.10265614,0.62885195,-0.17978254,-0.11768545,2.3490887,-0.42886022,-0.65855825,0.21441257,0.43411565,0.2547967,-0.32221425,1.344207,-0.94408584,-2.176643,-0.37074095,0.3543838,-0.19491118,0.19768013,1.448848,0.7752118,2.2996893,-0.17230591,1.8573349,0.40878302,0.9858587,-0.26770538,-0.30581772,-0.52181727,2.2309203,-0.40854087,1.6017078,-0.6313701,-0.40245524,0.7576017,-0.4358934,0.7438058,-1.3106241,1.7605715,0.15067439,-1.7043308,1.1795245,-1.6460685,2.2171636,-1.4829825,0.74491864,-0.31986618,0.20131445,0.7919544,-0.09742232,-1.5116177,-0.42038727,-1.442859,-0.6879406,0.3377037,0.36693522,-0.17992382,0.13043378,-1.0031469,-0.050318845,0.2319056,-0.76505417,-0.97936213,-0.7029219,-0.06038263,-1.1428351,2.0701268,-0.5259534,1.319625,-0.4565079,0.7382937,-0.5688564,2.1027777,-0.3677922,0.47574863,-1.8990973,-0.44628236,0.8758837,0.9679705,-0.56235695,-0.0054311957,0.02750538,1.0803667,0.6704252,-0.36964753,0.033146955,-1.3260016,-0.16056536,0.043640237
MMRF_1403,0.140501,-0.4793001,1.077803,-0.3149947,0.7781582,0.635288,-1.4845612,1.5757284,-0.75794023,-1.0090907,-2.2143178,-0.5088342,-0.4874357,-0.79417974,0.267917,1.118364,-1.042568,1.037072,0.86028343,-0.11010622,1.4108377,0.8956446,0.29625487,-0.740851,-0.6360426,-1.9560101,-0.5443984,0.23632489,2.3345091,0.7484829,0.17663354,-0.52660334,-0.26968452,-0.6162746,1.332853,0.037934963,0.24327925,-0.18308555,-0.7793894,-0.5510189,-0.5780731,-0.3354953,0.4275333,-0.043010753,-0.68945706,-1.1515388,0.2514369,2.2318137,-1.411479,1.2549149,1.0442102,0.93340546,-0.17172784,-0.5641952,0.08826489,0.914988,0.7204207,0.074538395,-2.3653774,0.59848785,-1.2007915,-0.27259132,0.9304473,-0.19164917,0.42994028,0.46612263,-1.0137012,-0.30591103,0.20392397,0.7014668,0.067633316,0.67175967,1.1226054,-0.23375688,-1.4505669,-2.134198,0.9345413,2.0927744,-0.1514218,1.1571604,0.3904566,-1.4410082,-0.35118768,1.2361312,1.2878301,-0.34227502,-1.5784724,0.5423016,1.324369,-0.7846574,-1.1102942,-0.9798968,0.038046375,-0.3050494,-0.54688895,0.41363424,0.41819918,-0.5148486,0.643842,-0.47878462,-1.1241118,-0.5528358,-0.5054692,0.9642689,0.7724904,-0.041996516,1.4598534,0.5676431,0.065733805,-0.25967425,0.42392862,-0.97002345,2.0601165,0.10855632,0.09583376,-1.5821406,-2.2260177,0.8667665,-0.2700141,1.1922026,0.7980929,-0.56216425,-2.9306269,0.025688784,0.2851605,2.238458,-1.0684918,-0.093242675
MMRF_1408,-1.4356459,-1.1957234,0.78731924,-0.17000812,-1.127054,-1.2118055,-1.4887587,0.16460714,0.22525033,1.784571,-0.27783895,-0.3046562,0.5830624,1.4148055,0.90993524,-0.7620044,-0.29027227,0.16840212,-0.3548176,-0.23649064,-0.31646645,0.11850962,0.40522265,-0.94720846,-0.28274685,0.36147028,0.7990931,-0.49101123,-0.93171483,-1.8086166,2.2345188,0.3725758,0.5402334,1.4754664,0.12368041,-0.5004001,-0.44899568,0.3518273,-0.3765884,-2.4549272,-1.7872257,1.2349619,0.94714993,0.76018983,-0.74519056,0.46125185,-0.026073817,-1.0098565,-1.0098296,2.0287871,0.751606,2.3536222,-1.5906729,-1.6660558,-0.29808208,0.9489731,0.9003914,0.58043736,0.8270538,0.56152046,-0.8855336,-2.3720388,-0.34597102,0.3387214,-1.645188,1.0374777,0.37815917,1.3593669,0.13893068,0.2734886,0.43259746,-0.3574819,-0.92654896,1.1171654,-0.47971025,0.59238005,-1.2240249,1.5934538,-2.4981062,0.0024565477,-0.26160154,-0.42526186,-1.3314302,0.9904162,0.4210893,0.7823351,-0.22401308,-0.40296054,-0.105903916,-1.2364227,-0.041827276,0.15253752,-1.0329965,-0.7485936,-0.9476035,0.91327626,-0.17494872,-0.20015885,-0.5244147,-0.7835936,-0.95749164,0.6058224,-0.9943849,0.13856722,-0.86531013,-0.7012235,0.82295114,0.08750466,0.7995845,0.8470405,1.0668964,0.33780366,1.67423,0.81377006,0.34389073,0.037082367,-2.0599294,-1.1786299,1.2923565,1.1604373,0.93797165,-0.3739039,0.76988375,0.37133178,2.227875,0.658154,1.118153,0.022782624
MMRF_1338,-0.5677524,0.7658892,1.3053516,0.8104316,0.85645056,-1.3652396,0.01231827,1.6733199,0.0005306471,-0.5912885,1.1535375,0.2965303,0.7125438,0.29302225,-0.85104644,-1.2914624,-1.3026791,-1.480715,-0.42740095,-0.6391888,-1.4178354,0.9162864,-1.3264517,-0.06325517,-0.6117372,-0.9857581,0.3554934,-0.055024184,0.4972447,-1.1410702,-0.2678877,-1.332847,2.1352665,1.0206633,-0.6764755,-0.19390453,-0.12902805,-0.35656473,0.3355902,1.1012472,1.3162661,0.33201417,-1.1808524,1.4255413,-0.06640873,0.32839352,-3.353796,-0.031569503,1.4143268,0.61161685,0.51673114,-0.41493553,-0.5745336,-0.34931844,-1.2508318,-1.3075808,-0.038723886,1.2619328,0.161168,1.3112354,0.04208158,1.09968,1.6475475,-0.7915738,-0.45173505,1.8440458,1.283068,0.8470107,0.3382917,0.96735597,-1.2378638,-0.47169554,0.31998634,-0.5221391,-0.2251823,-1.636174,0.54698455,-0.53049946,-0.04371072,-0.42021486,-0.3455064,-0.51372623,0.3095944,0.083140254,-0.32087338,1.7600306,1.040689,0.4843227,0.9857407,1.8881075,-1.407116,-0.91250074,0.28467527,1.9497937,0.1615474,-0.83682334,1.4235114,-0.34135088,-0.03137753,-1.0934851,1.3918861,0.23619618,1.2586405,-1.2169981,-0.10708918,1.5892318,-0.485425,-2.1823184,1.568044,-1.3996543,-1.8632497,-0.8248429,-1.1580392,-0.43215308,-0.7501124,1.0439717,0.08593556,0.61161983,-0.8756814,-0.87861645,0.5637283,0.28084365,-0.94626284,0.30755112,-0.019020127,-0.9605514,0.8814188,-0.10763559
MMRF_1342,0.38191995,-0.40766168,-0.14210273,-0.57957214,0.6316715,1.2268399,1.107023,-2.1459696,1.111675,1.3740947,0.45320755,0.45120242,-0.48512048,-0.0317868,-1.5809553,0.3641925,-0.07733956,0.33144107,-0.3765232,-0.3769377,0.36432603,-0.33594668,-0.27572978,0.038369857,0.6897813,1.8867015,0.102589615,0.05138429,0.826623,0.3095183,0.81823725,2.5849493,-0.86782575,0.06545062,1.0274141,1.4888448,-0.77781516,-0.1640434,-1.6730689,-0.22996613,-1.0389901,0.9389157,0.42559722,1.913423,0.11661809,0.32757536,1.2915763,-0.8919046,-0.15813226,0.8134463,0.015563618,0.2597658,0.8951993,-1.1968175,-0.17084423,2.0042286,-0.27992597,0.8470214,1.3563071,-0.28615245,1.2306721,0.4658337,-1.071347,-0.39954528,-0.4799486,-0.9698007,-2.1193972,-0.061342187,0.8761398,-1.251143,-1.3135977,1.6654317,-0.30612677,-0.849912,0.5670465,-0.16564004,-1.762187,0.5340724,-0.025883008,-1.6239256,-0.9344286,-0.668426,-1.0448765,1.5291495,0.64181393,-1.9370733,1.2229403,-0.7959574,-2.0498238,-2.4301581,0.19840877,0.10361844,-1.2018327,0.71669126,1.5122794,0.44187805,-0.4185635,0.32371527,0.01670992,-0.8598194,-1.9983976,-0.61934614,0.21323653,0.22868879,-0.60163903,1.0066365,-1.5053471,0.8545733,0.23523198,0.93343836,-2.0426438,-0.6099469,-0.08789748,0.06574043,0.34888306,1.1321583,0.4249269,0.18678899,0.58137816,1.0624491,-1.3515886,-1.1896701,-0.6588998,0.8977696,-1.1263485,1.105062,-0.087822504,0.8616783
MMRF_1352,-0.27192464,0.41377974,1.0580329,1.7403084,0.6548278,-0.13869974,0.52524936,-0.17462529,-0.0049584266,-0.51831484,1.2760377,0.10070517,0.09683818,-0.6275482,-2.4529123,-0.87097293,-0.1099648,-2.0890303,0.07663451,0.9361809,-1.1933753,0.32805634,-1.0444745,0.57637286,-0.34257266,1.1524186,-0.0031844676,-1.1676435,-0.5492144,-0.91354084,-0.2716587,0.42156336,0.65506417,-0.014000188,0.038415253,1.5682861,0.44582045,-1.8286784,-0.6453906,1.5923594,-0.29274175,1.4600724,-2.7384624,0.47330442,1.2173253,1.4026073,0.034817494,-0.7210991,0.3170913,0.8080621,-0.946805,0.30767,-0.18085772,-0.13434516,-1.0244018,-1.0025557,-0.20143713,-1.1546612,0.28492615,-0.16558656,1.7731501,-0.13678046,0.63823044,-1.0661966,-0.78809047,0.8640915,-0.76913846,0.66095114,1.4102621,1.0579112,-1.0759357,-1.0462035,-0.057280004,-0.77400506,0.91892165,0.7918126,-1.5404031,-0.6409999,0.25676924,0.85485315,0.46082035,0.69444567,1.3791519,-1.1877221,-2.1129696,0.22243173,1.7009038,1.1978991,0.00047862367,1.3243155,0.6939019,-0.041985344,1.5809702,0.80280405,-0.11681079,0.0973975,0.79838496,-2.8429773,-0.54862106,-0.37622446,0.49221247,1.1366584,1.4854673,-0.53241557,-0.24772203,1.9696267,-0.7733354,-0.8432192,0.53368694,1.3572443,-1.5726372,0.526487,-0.48136893,-0.06406458,-0.32278723,-0.1269546,0.78694713,0.79168254,0.2952005,-0.8084459,-1.2968559,-0.15014096,-0.095874816,1.0835965,-1.7266256,-2.1105022,0.2424071,-0.7130855
MMRF_1380,0.25497776,-1.0832621,2.013634,-0.76771474,-1.2335253,-1.1988939,-0.15851952,-0.15033516,0.1700035,0.058391325,0.45143458,-0.38003018,2.5670912,-0.2481681,0.90552056,-1.3900672,0.65937084,-0.3342851,0.23676775,-0.3449394,-0.29755545,2.0300725,-0.5473284,-1.1093005,-1.0020844,1.224579,0.101787545,-0.29780093,-0.056799166,-0.19293308,0.8932133,0.11337662,0.33715412,0.056085203,-0.16529319,-0.30067232,-0.09858973,-2.0661492,-0.92538697,-2.2095654,-1.6376241,1.4656122,-0.01696648,0.870872,0.22348127,0.2571922,0.010786106,1.0344505,-0.8199231,1.6550982,0.5633591,0.853394,-1.0498091,-2.4821367,-1.0634838,-0.008264186,0.3936154,0.41158485,1.6039634,1.2091557,0.25074175,-1.9380857,-1.1531647,0.46471176,-0.71399015,-0.637758,0.32456717,0.6590473,2.3006504,0.5270932,0.12475918,0.35415727,-0.395394,1.1082407,1.3224946,-0.30668357,-2.3595896,0.64048296,-1.7615184,0.01899431,-0.31238922,-1.0439746,-0.28400734,1.1730763,0.15264374,1.2688761,0.9260448,-0.02589218,-0.4576707,-1.599188,-0.98939687,0.4150671,-0.9963283,0.27245623,0.8475983,0.7805639,2.4896805,-0.72246057,-0.31667814,-0.25069168,-0.54618144,0.6117326,0.14518929,0.29363576,-1.524112,0.5813877,-0.3415035,-1.6626096,-0.24835412,0.18902113,-1.0797341,0.29070842,0.86057436,0.980024,0.026091019,0.022993917,-1.8442072,-0.9005218,0.7892717,0.36159727,-0.024921924,0.86354816,-0.13917762,1.2673813,2.2358286,-0.21721064,0.22009903,-0.28776616
MMRF_1389,0.9521596,-0.9071725,1.7204695,0.40682387,0.37844905,-1.154696,-1.6936091,-0.695841,-1.1302072,-0.6098194,-0.88644105,0.23015353,0.09438003,-0.43598092,-0.82086676,0.06388244,0.5245249,0.27549937,0.50582623,0.5204248,0.60167813,0.5876611,-0.41032803,-0.63014877,0.026387867,-1.6769131,1.4284627,-0.29676384,1.4168514,0.2944246,1.1403221,-0.28740057,0.68698657,-0.12752128,0.34884542,-0.3158694,1.1955092,-0.38523495,-0.96995044,-0.90394515,-0.8423805,0.9301199,0.012074745,0.062670656,-1.6018212,-1.4073082,-0.74678814,0.86507696,-0.66815287,1.4075476,1.0861516,1.4232675,0.22814183,-0.2284002,-0.6899316,0.38884437,1.2838674,-0.2940939,-0.5931874,1.139706,-1.5402215,-0.27470848,0.12957223,-0.24505149,-0.06565694,0.7994332,-0.7299428,0.039539542,1.5457314,1.2399772,-0.73443323,1.1157618,0.08262892,-0.124111116,0.4574031,-1.5541378,1.4391209,2.7214217,-1.2280504,0.39002088,0.2960701,-0.20733579,-1.234891,1.2234871,0.4436323,-0.44617772,0.574251,1.0654453,-0.767662,0.10861382,-1.6226664,0.99908644,0.34118098,0.8284156,-0.9980794,0.9407759,0.23789677,-0.18619277,-0.14105646,-1.811821,-1.6679313,1.3370625,0.50046384,0.09398488,0.8880423,-0.815437,1.5901848,-0.817364,0.41465852,-0.32709715,-1.1747353,-0.8092216,2.6662056,0.7705929,0.01819316,-0.18988834,-2.8565931,-1.1817075,0.626492,0.48114043,-0.7144978,-1.5759246,-3.1007688,-0.03635077,1.2623307,0.9341416,0.13527387,-0.5032348
MMRF_1388,0.897962,0.70907646,0.9063345,-1.1114173,-0.09419608,-0.068063885,0.22167881,-1.1323186,2.2274659,-0.115721196,-1.9584923,-0.006329736,-1.3194419,-0.38085735,-0.74881405,1.5995488,0.45451057,0.7568956,-0.99187005,1.0518639,-0.77628535,-0.0330424,0.9460479,1.2786281,1.0606165,2.3841293,0.97835565,-0.33810592,-2.2892299,0.69359916,1.4775751,0.4417467,-0.78855973,0.04461396,0.26193604,1.3889155,0.8202698,0.32782048,-1.1752071,0.37446868,-2.1814606,0.83058935,0.7848774,-0.9375026,-0.28814346,-0.53033864,0.98266304,-0.5573719,-1.26796,-0.68871975,0.42940727,0.80883735,-1.2867616,-1.0040381,-0.10370946,0.67671895,1.2600572,-0.53019905,-0.8900722,-1.313715,1.8457656,0.88972664,1.1831625,1.0712419,1.7714972,-1.8249954,0.46853954,1.2064353,-0.50776476,0.3475053,1.1938449,0.9501245,-1.1902468,-0.5980896,-0.094285615,-0.76020604,0.24212359,0.62079364,-0.19523539,0.24566981,0.29022372,-0.68044066,-0.48227713,1.0087724,0.74134403,-1.0103499,-0.80980134,0.38187447,0.14262794,-1.01356,-1.5363377,-0.7390887,-0.8434633,0.19065797,0.8986854,-1.0450634,-1.293948,1.5651417,0.5106106,0.6064027,-1.7222018,0.14376213,-1.5987912,1.1207503,-1.3957088,1.1068296,0.21466875,1.0360032,-1.0521276,0.28030866,-0.1635622,-1.1588278,0.20429741,-0.7698297,0.28400582,-1.9388149,0.33231625,0.17449816,-0.5137288,0.8697748,-1.1557784,0.6704229,0.45542592,-0.65454596,0.73273504,1.3503416,-1.5759763,-1.1689546
MMRF_1395,-1.2644962,1.5263288,-1.1284043,0.50747937,-0.84458494,-1.3158221,1.2619307,0.14382014,0.92811745,2.2857993,2.7363381,0.92035943,0.011480652,-0.43805033,-0.13923325,-0.78334314,-0.5408509,-0.85344917,-1.5826534,-0.515052,-0.26182383,0.0024010502,-1.0400817,0.9288355,-0.18977715,0.2677709,-0.026714545,-1.215333,-0.8555804,0.14158814,-0.770466,0.65354925,-2.1046877,-0.60407305,-0.42056078,-0.7278582,-1.0976639,0.8780574,0.051551215,0.78069574,-0.26932153,0.4994246,-1.4814974,0.3830798,0.8943597,1.3417126,1.1098237,-1.3305856,0.44986668,-1.5865959,1.5139856,0.7667597,1.6092988,0.2566058,0.8132237,-0.7323059,0.48768285,-2.522152,-0.24580197,-0.085540496,1.0043732,-1.176913,0.3948473,-0.011334499,0.64001626,-0.07465321,0.26871616,1.1646416,0.17315942,-1.814237,-0.32738942,-1.372855,-1.1483353,-0.25636762,0.120698355,2.2406867,-0.10928243,-0.5363188,0.36720756,-0.85000885,-0.8029644,1.7076523,-0.023456885,-2.2773561,-0.43751392,-0.59057325,0.2535101,0.21283524,0.16439211,-0.4167896,0.69780844,0.22181454,-0.023487216,-1.0156081,0.252696,-0.549033,-0.7127147,-0.20566061,-0.19092047,1.8215842,0.5536576,-0.32030985,-0.6695862,-0.51100755,-0.44806844,0.299483,2.1690621,0.46017396,1.2033863,0.18575366,0.7906159,1.9728398,-0.5872739,0.32022485,-0.33053017,1.0216872,1.3020128,-0.50877047,0.0055340854,-1.4269756,0.26122144,-1.5867274,2.021693,0.28574222,-0.4670914,-1.491103,0.7141117,0.8573875
MMRF_1391,-0.9958404,0.7562117,-1.0051758,-2.2062807,0.9774306,1.7608732,-0.8331589,-1.2709819,-0.60822123,1.0451871,0.8059301,1.3726047,-0.14020978,1.3019243,-0.30367848,0.35781816,0.6514107,0.9016739,0.6301493,0.9298427,-0.14287543,0.23985718,0.42874604,-1.1300312,1.0263405,0.88737226,0.003723417,0.10061615,-0.34929612,-1.3731657,-0.027738336,0.6652252,1.650847,0.6658372,-0.35888448,1.1935626,0.8070818,-1.1407089,-0.8799654,-0.48660025,0.24292612,2.4824095,0.34711564,0.6584526,-0.9410153,-0.4172801,-0.6520005,-0.53086513,1.2090039,1.3108975,-1.784727,-1.7662332,1.1116501,0.40952903,-0.76835525,0.030448215,0.7397103,1.4559957,1.3455518,0.28179562,-1.0501474,1.8987048,-1.4174337,0.51035047,-0.17294915,-0.24458465,-0.013346219,-0.544959,-1.4196596,-0.4141621,0.08188142,1.8524492,0.14023188,-0.048057884,1.3957993,1.511604,0.44194263,0.14419048,1.5744725,0.26775858,0.6603547,-0.9413163,-0.52056706,-0.119852364,-0.26048464,-0.776087,-0.882921,1.077134,-2.3198676,0.5977594,-0.47795758,-0.14067245,-0.21172968,0.5583015,1.6130081,1.0189116,0.086469494,1.9291965,-1.6664257,-0.88412315,-0.9809023,0.67974865,-0.16316159,-1.2138437,0.29343238,0.0070605017,-2.435882,0.917473,0.082977094,-1.4429606,-1.0544752,-0.25454798,-1.2566694,0.21472156,-0.7617455,1.0773722,0.36746803,-0.5301695,-0.49916562,0.507587,-2.0573769,-0.25115177,-0.45484728,-0.8029798,-0.7241922,-1.3663614,-0.7879753,-0.68503433
MMRF_1359,-0.22530532,-0.7256197,1.1384717,-2.2259629,-0.2623247,1.7664207,-0.8126927,-1.0948098,-0.11150647,-0.97214997,0.45642108,-0.44609508,0.02071771,0.5773601,-0.17468156,0.2972202,1.4856905,0.62047154,0.9906057,-0.09355665,1.1402926,0.2239642,-0.6966574,-0.7118405,0.8768554,2.6115096,0.066087626,-0.46931112,0.46385446,0.6207359,0.79936796,0.7915911,1.2010083,-1.2205787,0.85564715,1.5209526,-0.17528108,-1.395031,-0.96046567,-0.61091524,0.1430136,1.6240689,0.5126706,0.8610761,-1.3926198,-0.2223548,0.48995382,-0.47253883,0.04626318,1.3825635,-0.80849063,-1.2764598,1.3937063,0.14481805,-0.6888813,-0.14004618,-0.7397145,0.41096568,1.2607881,-0.5004069,-0.3157131,1.1180661,-1.3225843,1.0424501,-0.4372182,0.04085046,-1.0054461,-1.944412,-0.06729087,0.40889472,0.23212534,2.4935038,0.7107337,-0.4253626,2.715842,-0.118122265,0.74983037,0.5041946,0.8671524,0.5790437,-0.42534703,-1.6516587,-0.53842056,1.905733,-0.8019277,-0.082200736,0.113111645,-0.76390827,-1.0439795,-1.399736,-1.0441211,-0.74287134,-0.31480592,1.3798535,1.620139,0.10345819,2.007748,1.0388336,-1.2878851,-1.5099338,-1.2145158,1.3002163,-0.47484154,-0.236046,0.12050188,-0.42609912,-1.6547557,0.082850635,-0.76870275,-0.27041027,-2.1062505,0.07036858,0.3405897,-0.3827095,0.4997923,0.34368637,-0.9088395,-1.6407651,-0.5604739,0.8826108,-1.9580668,0.8208891,-0.6895951,-0.31640252,-0.09225294,0.27228704,-0.48771808,-0.12072745
MMRF_1267,-0.27811548,0.28661144,0.5588503,-0.60359585,-1.6899782,-1.3298823,-0.69412446,0.30160928,1.5388132,-1.9507198,0.8029756,-0.6412773,0.8306196,-0.5868139,1.4123132,-1.3395207,2.1129293,-0.26130208,-0.6036636,0.1374979,-1.5477567,0.3211457,0.10216369,-0.45113575,-0.2530634,3.0899467,1.4383299,-1.5623399,-2.002812,-0.240978,0.6108758,-1.1249086,2.2763972,-1.4110779,-1.0916902,0.8711001,-0.14504528,-0.24662223,0.13243003,-0.6543296,-0.09614596,1.3407067,0.7774425,-0.44196147,-0.390287,0.88107485,1.8271234,0.4846483,-0.60692054,0.86136764,-1.2656311,-0.60288197,-0.59171665,-1.3899927,-0.22779655,-1.2803221,0.03785971,0.32859743,1.7601448,0.20485729,1.1157867,-0.10314358,0.49777696,0.4679155,1.444015,-1.1034951,2.1763196,-0.0083572185,1.7271124,0.16883443,0.045533292,-0.23130052,-1.3410537,0.43829197,2.3368123,0.61667687,-1.6361947,-0.8376801,-0.7074431,-0.19690418,-0.6221976,-0.31737435,-0.12810825,-0.25303712,-0.46204334,1.1659296,-0.6402794,-0.04766203,-0.15272835,-0.8986376,-0.40717494,0.07321747,0.24348173,1.2476645,0.03768109,0.034943976,0.87059814,-0.08534567,0.45342028,0.7385204,-0.54472023,0.4906057,0.7947244,0.52116966,-1.2700354,1.1417372,0.3617474,-1.071163,-1.6476586,-0.25780016,-0.6332706,-0.144414,-0.63288087,-0.7086907,0.96825373,-0.30912942,0.36088276,0.10550876,-0.40843076,0.280633,-0.36648983,1.7467914,1.1427381,-0.379895,1.1567296,-1.9764806,-0.18160161,-1.8159689
MMRF_1274,-0.15417227,0.030969894,0.34737268,-1.1271882,-0.9882818,1.3058516,-0.9204316,0.5605842,0.3876061,-0.96502995,-1.1399566,-1.0290364,-0.2525049,-0.11503403,2.218157,0.50978106,-0.5310856,0.5360672,-1.1563915,1.1963975,-1.0226073,1.8381845,-0.28235224,0.7210174,-1.2600338,0.076608375,-0.6585826,0.44786277,0.45299086,0.20496887,1.318892,-0.9323647,0.0726278,-1.1160609,-0.5538228,-0.119596906,-0.5739354,1.4301052,1.0209664,-2.009101,0.9251244,0.28286937,1.4430128,-0.7650388,-0.10471297,-1.0295552,0.6540649,0.34923053,-0.9159436,-0.65158635,0.9910895,0.3431739,-1.6398209,-1.0113896,1.528009,-0.8149804,-0.62118095,-0.040001076,0.23068352,-0.6945036,-0.28188246,-0.35400966,-0.74554414,1.1916404,2.745062,-0.19051743,0.9971097,-0.4666134,0.34795132,-0.59855986,1.9766413,-1.1760787,-0.22063683,1.2590834,0.111754574,0.8841801,0.60661477,1.1968341,-0.04157977,0.093712255,0.68703157,0.49296048,-0.4800935,0.23201983,-0.36516312,0.27451298,-2.8843179,-1.0122864,0.9984116,-0.5007639,-0.09810364,-0.18223137,-0.012449171,-0.3368409,-1.0453435,0.039650198,0.36402372,-0.47757113,-0.20667543,1.2950562,-1.3834178,-0.5612775,-2.8399177,0.23587255,-0.8564837,-0.5854313,1.6162215,1.4570585,0.40712056,-0.5409465,2.4064183,0.6453482,-0.14840135,-0.008132211,-0.66034275,-1.4942807,-0.2565444,-0.5456808,-0.81309426,-0.28215542,2.3657477,1.0170516,1.3834832,-1.3328408,1.5564029,-0.4493119,-0.044447325,-0.5608805
MMRF_1037,0.21914421,-1.4249789,-0.19732699,-0.87175214,-0.46254942,0.08983626,0.73789394,-1.0458784,0.18909544,-0.5751426,-0.048019666,-1.8288304,1.0096471,-0.11280817,-0.29366967,-0.8992644,1.2865869,0.71735823,-0.5885345,0.26266798,-0.9302395,-0.27493846,-1.525615,1.156801,0.4341551,0.94102395,1.0637094,-0.034535836,-0.65314883,0.09642091,-0.16684642,0.33472782,-0.8443263,-1.6909932,-0.09067986,1.5185748,-0.74828494,-0.75114506,-1.5102042,-1.7450418,-1.1571767,1.3510612,0.56830525,-0.084814645,1.3327695,0.7427274,1.194358,-0.60098577,0.3429366,-0.3092225,-1.108968,2.8058515,0.9588444,-1.059122,0.004142506,0.043688804,-0.022933062,-0.37609512,2.6673539,0.70593613,1.338396,-1.7444907,1.1337665,-1.469177,-1.78953,-0.58076465,-1.0492234,-0.463854,3.1980586,0.45296055,0.25151965,-0.43736276,-0.025245462,0.1938494,0.79728556,0.50812805,-2.4127564,1.6781019,0.07142951,0.4906034,-0.65961593,0.579529,0.05236493,0.48993376,0.04625225,-0.12064473,1.0662917,0.75244635,-1.8205165,-1.6616361,0.3333894,1.3498287,-0.7376774,-0.477945,0.7502132,-0.39294234,0.64602745,-0.44557232,-0.57163084,-1.2248199,-1.7420993,0.32357013,0.13052122,-0.05396877,-0.033025384,0.46671394,-0.07996602,0.37068328,-0.16634288,0.38866487,-0.80666846,2.2067804,0.4575467,1.4212204,-1.0275128,-0.66941446,0.5424012,-1.3873072,0.5348213,0.50805813,-0.27107152,0.57238805,0.4711883,0.09498255,1.3084928,-1.2758778,0.1112921,0.75517577
MMRF_1033,0.3668073,-1.3095527,-0.11762903,1.4525126,-0.65693027,1.3608409,0.033428006,-1.7292538,-1.061371,0.43995994,0.21611387,0.13136506,-0.41908395,1.2621533,-0.29523543,0.7373297,0.49683115,-0.6518473,1.6454891,-0.39883605,-0.223316,-0.8633703,-0.6704364,0.31422436,-1.6628402,0.59034395,0.20592704,-0.58242214,1.263172,0.43053508,-0.64336693,1.1974535,-1.7157513,-0.78992414,0.89286715,0.6962411,-0.8308937,-0.75067294,-0.799166,-0.7324375,-0.37346995,0.7242335,-0.41827905,0.1695298,0.17121838,0.8319319,1.5734955,1.341361,0.09742205,0.3972874,-0.07346782,2.1179464,0.44297096,-0.7969421,-0.8212523,1.745633,0.7191184,-1.5501816,1.6181866,1.0347188,0.82969946,-0.796615,-1.6785514,-1.5550861,-2.3473947,-0.5112327,-1.9744188,0.044280935,2.4909348,-0.90077585,-1.0107366,-1.4015644,-0.12292056,0.15790075,1.2677895,0.67869425,-2.8666136,1.0358655,-0.058311254,0.13477351,0.37834543,0.75752354,0.07608044,-0.6867255,-0.59578735,-1.5477159,1.1688763,1.0750555,-0.37551087,-0.11466074,-0.38228515,0.45456412,0.08836006,-1.2378311,0.12509996,1.2826821,0.8085138,-2.01652,0.97461504,-0.72414184,-0.66939354,1.188485,0.7997775,-0.018201848,-0.12138786,0.72558177,0.1970391,-0.35779077,-0.19461325,1.9769431,0.21196744,-0.29120186,0.08121422,0.36062357,0.62228096,0.8010627,-0.093787834,-0.7008675,1.0249006,-0.30664554,-0.9356878,-1.519117,-1.1764055,1.1383694,-1.3424097,-0.13246018,1.3642718,0.5926896
MMRF_1031,-0.27091113,0.86340946,-1.5457308,0.49334008,0.3092195,1.5753584,1.33909,0.61321807,-2.4996045,1.3110956,-0.35011783,0.02662276,0.45718104,0.34441316,0.6018909,-0.42286128,0.25251403,0.17017584,0.20773955,-1.1796739,1.8890494,0.026992168,-0.49033895,-0.59794056,-1.076308,0.5854472,-0.6741278,-1.5517334,3.0454876,-0.51374614,0.07620082,1.1642842,-0.41519475,-1.1294273,1.0298617,0.091563314,-0.70033324,1.9212104,-0.4543816,-0.057251014,-0.55737805,-0.70228004,0.17040668,-1.2219124,0.65412366,-0.8364404,0.67074424,0.4367357,0.75439346,-0.9482344,-0.9086853,-0.7304626,-0.666494,0.7003885,-1.6178898,1.4902197,0.42581856,0.6009263,0.90637624,0.29228956,-0.2900761,-0.8968477,0.7571926,0.92910254,0.083040744,1.2549958,-2.3440232,-1.218636,1.1927586,-0.6051927,-0.09105779,1.9161868,0.5003574,-1.14565,-1.7714622,-0.50502145,-0.85981673,-0.12762155,0.14872968,0.21973833,0.17969094,-0.27030304,2.7136235,-0.6860019,1.5549597,0.024440309,0.63475263,0.13420384,-0.4214201,-0.6013356,0.5977948,-0.28295386,-0.7726591,-1.1403196,0.590279,-0.8689637,-0.43489745,-1.563943,-0.73419476,-0.46933866,-0.7033264,-0.39465037,0.10086096,-0.17365119,2.1569414,0.4819246,-1.4467912,0.60823065,-1.409974,0.6216818,-0.91811097,0.42423314,0.32224032,0.049415715,-0.3135149,-0.2152534,-0.48636916,2.664734,1.6564194,1.1762598,-1.0696664,-0.700545,-0.7881715,0.10647345,-0.941897,0.4603903,-0.8392834,0.78002405
MMRF_1068,-1.6515509,-1.2619702,-2.2162843,1.6595135,-0.22871347,-1.0043895,-2.5740478,-0.027780132,-1.3213265,1.272165,-0.546016,-0.066466294,-0.100049,1.0427511,0.23989862,-0.9267307,-0.9434122,0.05041835,0.58521,0.7437111,-0.64291394,-1.2833542,-0.029680096,-1.2963951,-0.49225888,-1.5511475,0.59449303,-0.057594396,-1.4157956,-0.29528016,0.65647197,-1.1176294,-0.121595494,1.4173009,0.7212089,-0.1367188,-1.7907503,0.30871022,0.76403403,-0.4810541,-0.5307882,-0.7717772,0.80280906,0.57135457,0.19523945,0.76470447,0.092320815,-0.97369397,1.6993774,-0.64714223,0.32492197,1.5932904,0.47787845,1.4254771,0.24530375,0.13949335,2.2050188,1.0067395,0.31950206,-0.92228454,-1.9380964,-1.2152935,0.4504887,0.59196824,-1.1060969,0.6850857,0.1515545,1.0619811,-0.04115462,0.1121337,0.23659247,-2.0643635,-0.049311854,0.16878302,-0.34843534,0.89515126,-0.6926282,0.21281058,-0.35442227,-0.21167137,-0.09835264,1.5018728,-0.34771267,-0.30373505,-0.3366858,0.8251357,1.0294279,0.68410105,0.17774802,-0.36517885,1.5851606,0.14336522,-0.067365,-1.4715128,-2.0209622,0.0106462315,-2.1072733,-1.0771852,0.90446687,-1.4346203,-0.27922767,1.2434256,0.71082085,-0.4343299,1.6625844,-2.3343046,1.3593577,-0.633032,0.32400298,0.9479016,1.348641,0.5888955,0.58492166,0.8714731,0.5913707,1.1627988,-0.13668515,0.21439491,1.4800395,0.44735026,1.5415711,-1.2947862,-0.19556051,0.12516963,1.2784059,-0.3167666,1.2804102,-0.49710304
MMRF_1078,0.3269041,-0.017239211,-1.1697985,-0.7106629,0.10806811,0.7158491,-0.55658364,0.06518527,-2.9528852,1.1843376,-1.2918158,1.0331016,-0.5541417,0.71156156,0.4413543,0.11089761,1.3515891,0.1387346,1.0658792,0.32674107,1.3876002,0.5171014,0.9453535,-1.0878729,0.4093054,-1.1380589,-1.5371221,-0.33738396,0.5366131,-0.768314,-0.2549402,1.3381858,0.072797164,0.2937335,0.70431006,0.9652599,1.23287,-0.9274431,0.36355445,0.052436605,-0.06975084,0.040276386,0.63291043,-1.7609444,0.5489148,-2.093856,-0.9032114,0.32785356,1.1299362,-0.9097014,-0.7112084,-1.5220479,-0.35946217,2.5008483,0.62938297,0.85879487,-0.4652694,0.8111957,-1.2342933,0.38964248,-2.1921625,0.5778224,-0.20674804,1.4200461,-0.040792312,1.0474277,-0.7986782,-0.47723666,-1.7988019,0.13160487,-0.06829678,-0.14008628,-0.9602859,-0.5710696,0.68677413,0.6474442,0.92560583,-0.18558978,-0.9098218,0.46034747,1.3889811,-0.30982924,1.3240422,-1.3099236,1.1585718,-0.5604341,0.15622813,2.932816,-1.7286489,0.07779306,0.8333348,1.4079396,0.46407977,-1.0332631,-0.7109364,0.53116405,0.97002083,0.36706483,-0.6816675,-1.5199846,0.3202128,0.85515916,0.43861967,-1.4856745,1.2594826,-2.9245048,-0.78892606,0.5075096,-0.98091686,0.6123861,0.5124805,0.48256943,0.76915294,-0.11499511,0.22930412,0.5138249,-0.39049813,-0.38968092,0.94858783,0.028697867,-1.4524839,-1.9062335,0.111995935,1.1251336,-0.46481377,0.04891815,-0.23837619,-0.054367155
MMRF_1086,-0.970858,-1.6315384,-0.9834847,1.0030061,-1.5851922,-1.2451255,-2.0669906,-0.40033728,-0.8060499,0.3608455,-0.5162561,-0.17304897,0.36921567,0.63263243,0.16720973,-0.52599245,0.51512754,0.32902732,0.08594769,0.460901,-1.0843042,-1.5297151,-0.47077885,-0.114978336,0.069953635,0.23307414,0.543615,0.42862162,-1.0751318,-0.3115116,1.0895708,0.47392786,-0.30802956,0.15441798,0.3041534,-0.20300367,-1.4750892,-0.6868883,-0.2225993,-1.262162,-1.1485647,1.6363047,1.338039,0.9806433,-0.7002212,1.4597999,1.5112232,-1.472572,0.9977375,1.1595159,0.25083628,1.6253371,0.4270655,-1.2905464,0.01759858,1.0696393,1.5784565,1.07444,0.6238425,-0.37044924,-1.4437163,-1.2347041,-0.65628886,0.06202921,-1.4233357,0.45778614,-0.46724683,1.0743686,2.0320325,0.6326225,1.0595664,-0.09621614,-0.52640235,0.46752214,1.1936036,0.5769068,-1.9453559,1.7471888,-1.433572,-0.36117002,-0.515522,0.75851655,-1.3736508,0.81672424,-0.6128721,-0.043090284,1.2738523,-0.17620671,-0.5432381,-1.6202716,1.428712,1.5593796,-1.0167832,-1.3125565,-0.60418856,1.5033672,-1.1172019,-0.29453263,0.9513571,-1.3385775,-1.5856346,0.5652946,0.67643,-0.6947608,0.6752749,-2.1116793,0.36154956,-0.9155478,-0.04247601,0.6024264,-1.0791755,0.4546231,0.911197,2.1567936,0.4229218,0.9003066,-0.7947655,-1.1987984,1.0010897,-0.0024209665,1.3183511,0.4623527,-0.40575555,0.101772144,1.9210391,-0.17877366,0.7816921,-0.14886463
MMRF_1082,-0.2581358,0.7595763,1.6234463,-0.20296507,-0.81310356,-0.19931686,1.7450038,-1.7846335,0.9400199,-0.38318402,3.0271385,1.4359721,1.22489,1.4777647,-0.36500806,0.5522095,1.3594207,-0.5005339,-0.62297916,0.07801384,0.116009966,-1.4448093,0.05631087,-0.70144916,-1.32636,1.0582922,0.43852946,0.1530098,-1.9660258,0.6657316,-1.1491576,-0.1555984,-0.71058327,0.55703115,-0.33457696,0.035258405,0.80121714,0.23570651,0.97413576,-0.091592684,-0.027106805,0.6938811,-0.6565122,-0.15394484,-1.2065885,0.21838889,-0.68582505,-0.69783616,-0.5438284,-0.7496675,-0.45310903,-1.0154377,0.77531236,0.34927368,-0.22580245,-0.9655731,-0.6578438,-0.8541063,1.0241364,-0.30168203,0.06826785,0.4047365,-0.52150667,-0.2815586,-0.45643198,-1.4526101,-0.44430655,0.38148037,-2.719184,-0.8937141,-1.1331288,0.36099097,-0.10591868,-0.6381799,0.7628346,1.6484156,0.3570149,-2.245633,0.48541653,0.629936,-0.0321962,0.9216207,-1.04355,-1.6387573,0.02434032,-1.0211381,-0.12177402,-0.26757818,-0.0900227,0.87679386,0.914335,1.7238652,1.3430614,0.20064256,0.7224466,0.12179678,-0.81362635,0.8555619,-1.6460743,2.3190956,1.1008134,-0.008800217,-0.34712586,0.110677384,-0.9730292,0.47693223,-0.31811884,1.126866,0.6244989,-0.5370381,1.5444466,1.4853201,-0.4668822,-0.7346671,0.5482337,0.36407596,1.4895668,-0.25155675,1.0564842,-0.5449718,-1.4074206,-1.4581735,2.7005935,-0.10711721,-1.7633413,-1.3732967,-0.5605528,0.43644354
MMRF_1092,-1.2487457,-0.25827444,-0.97212565,0.4556,0.00082397833,-0.45182323,0.22671911,-0.4213369,0.3172813,2.0998526,0.8619662,1.1543084,1.5759606,0.532323,0.58498013,-1.1861228,-0.59742063,0.8008039,-1.5331256,-0.36634782,-0.8965078,-0.9540151,-2.1271353,0.40899187,-0.71504134,-0.23746192,-0.55161005,0.26520428,1.6030341,0.4787136,-1.0380462,1.475705,-0.08660218,0.60472894,-0.10183577,-0.5025132,-1.8762041,1.6904228,0.38132122,-1.0574887,-0.4110196,0.31607327,0.92108303,1.6772538,0.78314155,0.79929173,0.4727654,-1.3006248,0.3292795,-0.9403525,1.8372018,0.71216214,0.6374627,-1.0292093,0.0047465228,-0.24830449,0.7316364,-0.16440356,1.1279817,-0.25870845,0.5677882,-1.7904797,-0.7871832,-0.46139082,-0.28319037,-0.19132888,-0.77786136,0.60268366,0.8500157,-2.226225,-0.111278266,-1.2590072,-0.21194862,0.21514145,-0.7534932,1.846993,-0.28847212,0.66608256,-0.14692129,-2.0591722,-0.8118821,1.2529223,0.20305486,-0.6878567,0.14377269,0.0407331,-0.9916602,-0.7378785,-1.5623951,0.53071314,1.5071843,0.5008759,-1.2170775,-1.0626098,0.086697124,0.034952164,-0.89254534,0.0151017215,0.0037711337,0.43060267,-0.3187982,-0.19934002,-0.46233302,-1.201029,-0.17786033,-0.55973375,2.1663222,0.2036834,1.7958488,0.5563073,-0.57517403,0.7020832,-0.3521639,1.5778639,0.17336853,2.2441108,1.0145618,-0.39843047,0.71438307,-1.9698664,1.5377165,-2.0437834,0.36085457,-0.3192613,0.20322238,-1.809372,1.3563911,1.256519
MMRF_1325,-0.598575,1.3705134,1.4176277,1.4372317,1.094072,-0.09414347,-0.8473682,0.53220093,0.21406822,-1.4384855,1.6390451,0.008349535,0.7769332,-0.5401862,-1.3996642,0.058866475,-0.4618696,-2.53014,-0.24565844,0.85760355,-0.88729006,0.33943498,-1.3674408,-0.114321575,0.50338763,0.20619315,-0.5554115,-0.15101415,-0.09416872,-0.90490216,-0.6426071,-0.50553274,1.529589,0.35703212,-0.087674275,0.70756674,0.5009183,-0.59716576,-0.098877795,1.4622488,1.4455503,0.95015264,-2.9027479,0.38159472,-0.38784194,0.9102341,-2.46976,0.12694575,0.8038355,0.19922225,-0.7418381,-1.2817938,-0.07962302,0.3880949,-0.24249175,-2.1768734,-0.8268351,0.27204084,-0.65351015,1.1147171,-0.4245004,0.5742871,0.5487096,0.39689174,-0.9280873,1.2238423,1.2055391,1.3170246,0.49088606,1.492294,-1.2821941,0.1075232,0.6153816,-0.67074513,0.75599676,0.134367,0.87355065,-0.25084808,-0.17418918,0.04098346,-0.67917603,0.5272238,0.37900588,-0.31081638,-1.352895,0.53465307,1.2453601,0.5178965,0.31787178,2.0892818,-1.5706664,-0.10824376,0.45929074,1.3823617,-1.1813834,-0.8530243,1.1528814,-1.683058,-0.5293261,-0.39864388,1.403161,1.4185634,2.1997895,-0.47531936,0.504968,0.8917074,0.28562978,-0.44326508,1.5502214,-0.15437217,-1.6085601,-1.2291515,-0.38761973,-0.6995662,-0.44803262,0.21124227,1.2358233,-0.12513244,-0.44883272,-1.6053227,-0.93934894,-0.40291673,-1.2314134,1.2013575,-0.055726293,-2.322888,-0.20082282,0.1973475
MMRF_1364,-0.15965092,-0.7611904,-1.2564901,1.5847099,-0.35515556,0.0659905,0.58516556,0.16184635,-0.4619785,1.7560999,-0.018699136,-0.5353852,0.0673311,-0.8672266,0.09323546,0.38956246,-1.2804029,0.4398524,-1.3912283,-1.7568914,-0.055128366,-0.39256996,-0.07419199,0.4554153,-0.68863595,-0.9829999,-0.4856755,-1.2203718,1.1116812,0.6156293,-1.0972009,1.3774102,-1.4881294,-0.6310299,0.9880491,0.10022758,-0.9323737,1.8129802,0.29189464,1.457595,-0.6319747,-1.0824078,1.4315084,0.96900934,0.9720797,0.8767305,2.359067,-1.0568985,-1.124086,-1.804246,1.8614541,1.3559682,0.20918153,-0.1616243,-1.4072919,1.2295682,0.8266161,0.12396544,-0.060740735,-1.892858,0.8880407,-0.5139907,0.19539581,-1.2802441,-0.5757564,0.24744965,-1.5054164,-0.23876625,0.9969218,-1.02371,0.2493078,-0.52620614,0.06643973,-0.51199925,-1.6498168,-0.32650626,-0.9514865,-0.7489075,-0.09557387,-0.96615,-1.3990374,0.9277697,0.14115983,0.41427732,1.2346725,0.09415258,-1.0091801,-1.5602987,-0.28141207,-1.0471152,2.01489,0.41227332,0.007204902,-0.10881798,1.2935032,0.64636135,-1.9020474,-0.08706045,0.75713456,-0.6413691,-1.2706908,-1.5533168,0.8230805,-0.08950782,0.17041932,-0.3708432,0.67534333,0.29332486,0.7292522,1.0121003,-0.27303734,-1.1726873,-0.37942117,1.3959777,1.1412438,1.8067532,0.8989481,2.4246714,0.36660168,-0.3466529,1.4539329,-1.302127,0.5493233,-0.57723653,-0.1937678,0.7987875,0.9515357,0.8677342
MMRF_1383,-0.93039143,-0.5600586,0.44018763,-1.005384,-0.5974441,-1.0626494,-1.4339738,-0.9985032,1.6229613,0.8344307,-0.13490915,0.12814043,-0.8086737,0.27011302,-0.10073136,0.0159575,-0.85507476,0.39769283,-0.07882989,-0.11989779,-1.4614941,-0.95460254,0.33360422,-0.47379267,0.40869534,0.30446544,1.7253778,-0.26392776,-1.0115231,-0.32566193,2.275322,0.13322699,0.45155847,1.4960874,-0.13024247,0.3149888,-1.7900417,-0.5365768,-0.5327636,-1.7784324,-1.181617,1.2266117,1.1370646,1.7531426,-0.99699295,0.68815464,0.3120817,-1.7574421,-1.289773,2.1907053,1.0020304,2.0126793,0.9043607,-1.2088583,1.0584096,0.45539764,1.8231248,1.2663941,0.836959,-0.27594757,-0.8001841,-0.7499724,-0.42631337,0.3206717,-0.35038027,-0.8689873,-0.13476305,1.0086999,0.9444226,-0.2269024,0.12741609,0.20653182,-0.5184648,0.5578095,0.59817374,-0.35725504,-0.8523577,0.9391033,-1.8180636,-0.6227694,-0.79835755,-0.27012333,-2.674864,1.7310292,-0.5081462,0.08871444,0.3959082,-1.1145068,0.85846907,-2.6538594,-0.4503628,0.36738086,-0.7848439,0.06261579,-0.7965369,0.38474634,-0.6700143,-0.20858411,0.34364802,-0.1739591,-1.2243915,0.17053492,-0.07649628,-0.3520016,-0.24181911,-0.3147919,1.1949031,-0.4104397,0.12006228,0.8173389,-0.23974378,0.8300681,1.2752447,0.22716579,0.7794366,0.6198776,-1.9748958,-1.2194768,0.19498049,1.3483942,0.79106784,-0.14013548,-0.78059053,0.21443535,2.474959,2.2478604,0.7276748,-0.32684106
MMRF_1377,-0.7099721,-2.0225005,0.35077816,-0.012311707,-0.45826018,-1.3985631,-1.2144585,-0.7740875,-0.20076855,-0.44944486,-1.1013147,-0.9961012,-0.67766523,0.44135326,1.3041896,-0.18956272,0.021130566,0.07098865,2.2191873,0.6255735,-0.4682823,0.5855298,0.11823955,-0.17647272,-1.2767128,-0.42713392,0.4256317,-0.11156582,-1.1766306,-0.16085705,-0.13492966,-0.8269062,0.2488199,1.8184665,1.4329784,0.9552638,-0.42282662,-1.528792,-0.3137841,-1.519511,-0.5655211,0.062450882,0.30094093,-0.790978,1.3687984,0.4629712,-1.2173892,1.1540706,-1.7870386,0.611265,0.21420473,2.2395396,-2.4131675,-0.2427858,0.009976678,0.037499428,2.485092,0.30233943,-0.2540049,-0.05755055,-1.280908,-0.87728375,0.7657204,0.41124108,-0.9720831,-1.6828918,1.8467717,0.8696827,0.7887597,-1.2854797,1.3727127,-1.3009174,0.6550013,0.14116587,0.07854846,0.55805886,-1.0051764,1.0521644,-0.82500774,0.18125755,0.67086947,-0.5077698,-0.14277811,0.23222178,0.046308916,0.5947177,0.7639597,1.5640585,1.4570892,-1.3086958,-1.4843293,-0.950991,-0.4286817,-1.7556267,-0.91934717,-1.0005223,0.7709734,-0.9202003,0.9134564,-0.8936118,-0.43052512,1.3476677,-0.3024784,0.24916475,-1.5517015,0.3786943,1.1306984,0.45428795,0.008844603,2.3682082,1.4913112,-0.22338381,0.4977446,-0.9345709,0.92745525,-0.56491154,-0.8030887,0.19582343,0.49173394,1.1811816,0.43926242,0.43936276,0.28875282,0.3301058,2.257345,1.172902,0.17850927,-0.947805
MMRF_1360,0.279688,0.5209148,-1.3657339,0.6833383,-0.31030655,-0.37341705,0.5655364,-0.3411284,-0.22735314,1.0823549,0.6003919,0.9894078,0.4959376,-0.5233224,1.1249899,0.03618243,0.64724386,-0.16999929,-0.30639094,-0.33769318,-1.3410766,-1.8430203,-0.1384396,1.1130315,-1.2451462,0.87538433,-0.5526715,-0.99333084,0.69571435,0.92338777,-0.8230153,2.1323156,-1.3800691,-1.11157,0.52944934,0.96490324,-0.62633574,2.3728762,-0.41112503,0.43449533,-0.40592092,-0.3243262,1.0948553,-0.60473573,1.3064387,-0.03812573,1.7047817,-1.574162,-0.5324552,-2.7760892,1.0227274,0.39134637,0.11913451,-0.18206234,-0.43037918,0.40893915,0.8207328,-0.10438858,0.13110726,-1.0034986,1.2466072,-0.12877908,0.56168354,-0.7470987,1.0475031,-0.5382558,-1.6445327,-0.24650395,0.6215035,-1.9803945,0.5258415,-0.5799779,-1.3530841,-1.1453773,0.7052774,1.2782097,-0.1403557,-0.132161,0.3881274,-1.8950698,-0.7151149,1.0056986,0.69486874,-1.0537577,0.3576086,-0.8416756,-1.7828021,-0.7861766,-2.3256292,-0.50892353,1.7178967,0.8317568,-0.10247222,-0.86328745,0.32584256,-0.14980021,-1.3504469,0.077617064,0.9386839,0.6365786,-1.424866,-0.50706166,-0.85832644,-0.3466758,-0.25919533,-0.5402968,1.0612594,2.0035453,0.4479424,1.1826779,-0.02250952,0.66556746,-0.2543242,1.3886998,0.43603504,1.3912911,1.8602211,1.540864,0.32600138,-0.86756253,0.34977698,-1.5370593,1.5926398,-0.91032845,-0.3004817,-1.3369381,0.59523267,0.6670063
MMRF_1371,-0.1125647,1.0329069,-1.7074478,0.4081159,-0.205116,-0.53437364,0.3711004,1.873983,0.3135435,2.0761416,-0.27116534,-0.7930102,0.41578054,-0.9231875,-0.21409126,-0.54158473,-1.2372752,0.8379385,-2.5057442,-1.8397932,-0.41908914,1.6050216,0.35650215,-0.33848888,0.57274735,-1.8292267,0.33367795,0.43587425,0.90226537,0.16924445,0.6117693,-0.24199595,-1.0718641,0.1757039,-0.7828408,-1.938031,-1.5981051,1.7916845,1.5899591,0.15529352,0.21667418,-1.1085922,1.0263745,1.0613778,0.0712951,-0.83573425,0.77234846,-0.983293,0.5207466,-1.5507337,1.1151025,0.46452364,1.285752,-1.131242,-0.3068065,1.2157835,-0.49388105,0.6672718,0.7919447,-0.4352673,1.6585846,-0.8851809,1.1257225,0.58950126,2.1610258,1.18536,-0.9063092,-0.33706683,0.16563901,-0.52891976,0.41793555,0.0150409,-1.2049754,-0.60232383,-1.6279057,-0.047244806,0.541348,-0.70437884,-0.11703948,-1.3053282,-1.3349836,0.63257706,0.14027233,-0.44662172,0.3206213,1.0700427,-1.1179913,-1.3901426,-0.53160775,-1.9924864,0.52501005,-0.38744542,0.33981538,0.29393116,1.0708845,-0.72931945,-0.24557494,1.5908712,1.307903,-0.2116655,-0.6590738,-2.012498,0.63075143,-0.40068796,-0.52002627,-1.041295,0.33709717,-0.94693285,0.18794303,-0.9027166,-0.32304603,0.16428517,-0.5701808,0.20559911,-0.55712795,1.8640512,-0.067508824,0.9576902,-0.13723989,0.27344882,2.3840895,0.22348626,0.93088007,-1.1778761,0.39703667,0.34811276,1.7898189,0.8386861
MMRF_1089,0.24421076,0.6926995,-1.5499525,-0.70403653,0.3942634,1.6679721,0.41319767,-0.8732767,-0.28553656,0.60711765,0.80181473,-0.42441198,-0.3292179,-1.6319534,0.4192333,0.9604221,0.9905557,-0.46855432,-0.76655877,-0.013399333,-0.20118833,-0.11061943,-0.56252015,2.0729814,-0.059115656,1.7203454,-1.1909186,-1.8236147,-0.5046824,0.6374639,-0.035093177,1.1331302,-1.9251066,-1.9884628,0.3590294,1.2843877,-1.1774554,1.0401328,-0.76934874,1.561524,0.1705488,0.7260945,-0.26661837,-1.5219755,1.4532375,0.8834667,2.2912648,-0.59838176,0.46057883,-1.9072913,-1.2775202,-0.60871255,0.21530737,0.2395447,0.98330975,1.9743223,-1.3406126,-1.4880111,-0.78696525,-0.9678924,2.1340916,0.28984725,0.52015543,-0.39200813,1.924318,-1.434477,-1.8370247,-0.77259886,0.69305325,-0.9653854,0.7896834,-0.25286475,-1.5426335,-1.386857,0.6569473,1.2042221,-0.07359919,-0.5434217,1.1882709,0.024328524,0.09597505,1.3966262,1.7050474,0.7036083,0.50366783,-1.1159371,-0.6044388,-0.38477996,-0.63616425,-1.4923993,0.19818582,-0.29732183,0.3074428,-1.157167,1.438091,-0.8821899,-0.34273273,-0.4694245,0.12906325,0.5877886,-0.96086925,-0.37470472,-1.2737081,0.6251055,-0.47126245,0.30021277,-0.43614897,0.8716678,-0.28781876,1.2916199,-0.63088363,1.5949578,-0.082680546,0.1101645,-0.8090767,0.21366443,1.515419,0.67446804,-0.5925484,0.43172848,-0.21406978,-0.29688635,1.4176338,0.27034253,0.04306637,-0.014997473,-1.0896115,-0.0016060472
MMRF_1365,-0.7802648,0.60187244,2.0413373,1.7611281,0.6674365,-1.1132703,-0.5543711,0.45417666,-0.08512832,-1.5942898,1.309942,-0.025219686,0.316621,-0.78551835,-0.98337,0.49779472,-0.66967845,-2.7513144,0.44786876,0.19708079,-1.3507633,0.30477256,-0.8960886,0.6114467,-1.0327258,0.25451514,0.16814944,-0.6852125,-1.1256547,-0.9909943,-0.7297627,-1.179617,1.2898751,0.7597018,0.509774,0.9422023,0.5673793,-1.3879595,-0.13509853,1.4329305,-0.281189,0.46306267,-2.792705,-0.20674366,0.8131439,1.7763208,-1.1089718,-0.2648071,-0.50160426,0.18535106,-0.78029823,0.51598924,-1.226235,-0.4329204,-0.94706804,-1.8471713,0.38490942,-0.5840318,-0.8307439,-0.064220704,0.25047576,0.54001987,1.6575457,-1.1763084,-1.0991248,0.53005034,1.3736386,1.6216482,0.5158448,0.9838148,-1.1741737,-1.1435122,0.86698705,-0.27633584,0.7605127,-0.7510166,-0.98012114,-0.48782402,0.15485501,1.0151687,0.64961857,0.6994689,0.6386598,-0.0010107867,-1.1595203,1.0459687,1.8372505,0.69235235,1.7228134,1.4639502,-0.83025587,-0.3365502,1.2081246,1.2245547,-0.18414724,-0.9191084,0.59850895,-1.7170993,-0.1623924,-0.36540174,1.7828094,1.0710102,1.7548685,-0.14617427,-0.32793024,2.5055945,-0.41141966,-0.8398389,0.8934973,0.22306213,-0.7455909,-1.0057768,-0.8617465,-0.5874626,-0.038576014,-1.0192342,0.11684263,1.2116728,0.23079807,-1.0959573,-0.82423615,0.43851385,0.056075007,1.4727896,-0.55256635,-0.4260305,-0.19771941,-0.46814242
MMRF_1356,2.160667,0.3942935,1.3026003,-0.44540888,0.47502035,0.7643495,0.37030634,0.21030903,1.1437131,-0.96574336,-1.2325563,-1.4060504,-0.57463306,0.059288513,-0.37115273,-0.84219086,0.10778193,-0.23834655,-0.6178546,-0.29124627,1.1438583,0.9621378,-0.03172733,1.1863012,0.65592664,0.12117105,0.96482,0.20342141,0.09300978,1.5104754,1.143844,-2.1219678,0.63310724,-0.86705565,-1.4915776,-1.0992681,0.40780216,0.8419393,0.30369586,0.32588056,0.4192489,-1.7237178,1.1046476,-0.2837211,-1.8683839,-2.4481523,-0.12783368,1.79455,0.3076654,1.0730071,-0.8324119,-1.8605016,0.19706748,0.09329182,0.54789317,-0.0627474,-1.9743139,1.0498282,0.7727882,0.25179917,2.1342878,1.3369724,0.9438197,0.48514467,2.0684843,0.49925667,1.2041293,-1.7867271,-0.5239755,1.1717569,-0.04424143,0.34531912,-0.11576678,1.719874,-1.9767703,-2.068056,0.33375514,-0.7907023,-0.36996007,-1.59861,0.15554479,-1.0583854,0.31439802,-0.27379954,0.8206864,0.28282595,-0.44727913,0.5853384,0.33056545,-1.0133559,-1.1065154,-0.3484548,-0.81593376,2.2958603,0.26217094,0.8989883,0.34293875,1.7340939,0.47126412,0.41585732,1.0526004,0.12091625,-0.34304646,-0.010416545,-0.46476117,1.4028939,-0.7635745,-0.107974775,-0.8817507,-1.7412378,-0.32917297,-1.673189,-0.30285585,-1.1431756,-0.21230932,-0.27015015,-0.3903596,-0.4088259,0.47166944,0.07987402,-0.7007335,0.76681405,-0.23511076,-0.17538998,-1.4168817,0.5736961,-0.91429865,-0.10902178
MMRF_1270,0.28265825,-2.060928,2.1048768,0.40257722,-1.1179733,-1.098288,0.6119713,-1.639655,0.60963815,0.9841549,0.42992896,-0.58042526,-0.64724,0.48994595,-0.2260047,0.38008845,-0.12844697,1.2851216,0.7451654,-1.102786,1.0663879,0.47287673,0.4142633,-1.0973747,1.1395899,0.025693852,1.9587492,1.4970709,0.10405928,0.40316308,2.520423,-0.021041032,-0.5269146,-0.04191495,-0.5561587,-0.5425507,0.93319017,1.4138849,-0.9057994,-1.4587504,-1.5854257,-1.2304125,1.4499767,0.8580258,-1.478552,-0.16845988,0.16364636,1.8458935,-1.8223872,1.1231251,1.1279851,1.1814262,0.08239708,-0.61533844,-0.82349235,1.1874728,0.14923584,-0.49767917,0.6618067,0.49952173,0.69551057,0.16958055,-0.30792555,0.014527918,-1.4843056,-0.37114036,0.61562747,-0.09063964,-0.30360702,0.25461182,-0.9360352,0.768515,-0.038920574,0.405748,-0.80558527,-0.6007882,0.31975293,0.74803674,-1.8293233,-0.72350216,-0.9969067,-0.85111654,-1.8986613,1.7921362,1.2009931,-0.118089154,-0.3490353,-0.9643173,0.45680737,-1.564012,-1.3690608,0.4880562,-0.119943194,0.89048517,0.6191395,0.2806725,-0.7908553,1.850052,0.20727079,-0.9320012,-1.1538799,0.54023767,-1.3163162,1.8416982,-0.48669985,0.04360199,0.33689255,-0.2059868,0.8705053,-1.8325753,0.008131356,-0.4583508,1.6252162,0.21131065,0.37456733,-0.06784856,-2.194144,-1.2457696,0.26895714,1.281897,0.003345259,-0.8802264,-0.4751176,-1.0322849,-0.7052203,1.7755647,0.075232096,-0.19097847
MMRF_1323,1.4160388,0.5896453,0.09269885,-1.0646574,0.74609435,1.7355057,0.9539615,0.27242577,2.1528814,-0.040465176,-1.0291725,-1.2157129,0.07854658,-0.060113914,-0.95280427,-1.0230289,-0.22599539,-0.1996564,-0.80407137,0.22325811,1.1078397,2.535882,-1.116606,0.288543,1.0956976,-0.401412,-0.20972711,0.5331703,1.4107072,1.7768788,1.5821081,-0.50058526,-1.1568736,-0.7167453,-1.3084569,-1.2856143,-0.3637694,0.020684201,1.0031118,-1.5469307,1.1781038,0.25360757,0.9846451,0.60710466,-1.8292279,-2.0764275,-0.30618674,-0.09075923,0.09016986,0.6651,0.2857866,-1.8054563,1.6437056,0.7041873,1.2076992,0.5308008,-2.0546937,0.38530332,1.2159793,0.89147586,1.4444019,0.33858228,-0.70284754,0.96139354,1.9008864,0.449803,-0.291168,-1.4304186,0.23274025,1.4207108,0.2649498,1.2425932,-0.75394607,1.1217879,-1.4785526,-0.26577753,1.5587059,-0.50271815,-0.3154707,-1.7351916,0.20817217,-0.5878381,0.14468439,-0.8028886,-0.2654608,0.11417737,-0.6646384,-0.065653056,-0.65380615,-2.2162867,-1.3594744,0.059278745,-1.1088511,1.6251292,0.20575307,0.0015983675,0.7682361,0.42640334,-0.3918215,-0.026418716,0.08382507,0.19818088,0.047016572,0.1803318,-0.97962236,-0.9747271,-1.1923331,0.49640024,-0.4538714,-1.2006029,-0.7070916,1.2513113,0.81966543,-1.1396625,-1.0625606,0.81162125,0.44502735,-0.4373161,0.4848724,0.42353648,-0.49818936,-1.4638711,-0.43641022,0.116648376,-2.0329146,0.08420755,0.5690494,0.777903
MMRF_1180,1.8197052,0.7247622,-0.13306856,-0.7440074,1.2114642,1.8428713,-1.1911589,-0.048570655,-1.3528935,-1.39595,-1.9314859,0.7546987,-1.1851591,-0.70438623,-0.33605668,1.6204065,0.12946811,0.5267926,1.2507707,-0.014033228,1.0146247,-0.350739,0.54690015,0.7632048,1.0033993,-0.49065658,-1.0053004,-0.4208859,-0.1963943,0.89877754,-0.054150913,-0.628786,0.45399576,-0.6860392,0.48868173,0.04539308,1.5005199,-0.024485715,0.07598728,1.4654952,0.30481791,-0.0005981298,1.0381266,-1.9748694,-0.71203345,-1.26762,-0.47968677,1.464931,0.43327722,0.7742378,-1.8332611,-2.3742697,-0.33985,1.3676373,0.52325064,1.130993,-0.8140144,0.39818865,-1.8429506,-0.09361237,0.06322372,1.9409643,-0.1047336,0.42604065,1.0342382,-0.46102113,0.12547588,-2.0289903,-2.344226,0.95814705,1.3803092,0.89348435,0.11035032,-0.7369442,-0.096787855,-1.4816422,2.2916427,-0.48979038,0.09462623,1.0619711,1.6623031,-0.3972967,1.3538384,-0.17565724,1.6610605,-0.3282998,-1.6049188,1.8079567,0.636348,0.7937905,-0.5417493,-0.30770642,-0.35231024,-0.0017352947,-0.49051005,0.51825553,-0.33785045,0.66393226,0.3158065,0.18508281,1.1328005,0.36802205,0.4906029,-0.52980953,0.37830102,-0.8712899,-0.9782146,0.12714885,-0.43076184,-1.0185717,0.6211867,-1.2781438,0.09794804,-0.273725,0.8135356,-0.74888134,-0.02178909,0.11581157,-0.6983217,0.40075985,-0.9352346,-0.9417512,-0.44908878,-0.31027493,-0.76835793,0.93956023,-2.5170197,-1.4667686
MMRF_1188,-0.01707189,-2.2146626,-1.4075348,1.1920229,-0.096988216,-0.92782205,-1.2074474,-1.0300713,-2.3481958,-0.009091677,-0.9199956,0.10653715,-0.25336802,0.7437832,0.51333183,-1.268379,1.0972548,1.2001022,1.0230838,0.8285791,-0.39833516,-0.4438041,-0.23705155,-0.43551958,0.7920197,-1.4945624,-0.11914265,-0.03065198,0.14417988,-0.80203545,1.4462022,0.7494055,0.42274877,0.6106253,0.9062082,-0.09616318,-0.44152507,0.6672239,-0.3575799,-0.7790327,-0.21581924,0.65810883,1.3111823,-1.1800572,-0.57632285,0.5865528,0.4674611,-0.08287532,1.1900401,0.28305426,-0.49973264,1.9612718,-0.124832995,0.5074422,0.35674128,1.0445014,1.0538807,0.5424421,0.08068229,0.013741492,-3.1251924,-0.82498604,0.2129837,-0.20670907,-1.2302878,0.34917456,-0.5696988,0.86435115,1.4385953,0.2929802,0.13349837,-0.8400631,-0.3173043,-0.098481655,0.27278528,-0.056165744,-0.3352691,1.8126411,-1.7560692,0.27083096,0.31312576,0.7699407,-0.69369876,0.8396436,0.00963821,-0.0387329,1.5662532,1.5590142,-0.22164777,-0.912473,1.2387396,1.0180025,-0.57841235,-1.2745076,-1.4650904,0.74080485,-0.39482254,-0.5557685,0.25549856,-2.5759122,-1.230198,0.91573566,-0.38971323,-1.0245552,1.5609437,-3.1339207,0.12390232,-0.20906395,0.1755992,0.38788283,-0.43699414,1.7333294,1.5768058,1.2924134,-0.27090392,1.1410999,-1.1173217,-0.79422134,0.64725214,0.23469174,0.90994525,-1.2848854,-1.3746451,0.09266893,1.9658965,0.39081022,0.34347296,-0.7212536
MMRF_1300,1.1677091,0.45129183,-0.49117523,-0.7329751,-0.6516602,0.1368471,-0.48724,-0.44057524,0.159874,0.3146921,-1.403423,0.4236375,-1.0206898,0.73704046,0.52457064,-1.6423173,1.1710074,-0.5092069,0.68296736,0.2763224,-0.9740707,0.65783966,-0.44307595,0.64459836,0.68209636,0.21027473,-0.2238521,-1.3678104,-0.2118979,0.25396514,1.797657,-0.014704786,-0.41071823,-0.9853789,-0.9789379,0.0030629756,0.36911395,1.3878556,0.92823464,-1.3531207,1.1000826,0.9784162,2.3900468,-1.6588391,-0.9042211,-1.2560278,0.7431404,-1.8979964,1.2034982,-0.76046526,-0.24211566,0.013115111,0.41663334,1.564402,1.9161291,0.5887552,-1.9090015,1.2316787,0.4642436,-0.48346984,-0.3798953,0.4876543,0.25474507,0.5482124,2.7050557,0.8344471,-1.280559,-1.1212956,-0.7158413,-0.051276844,1.3599426,-0.7050793,-2.4418674,0.9615329,0.5976903,-0.086991824,-0.1108261,-0.6261828,-0.6770528,-0.64046705,0.4486017,0.41324022,-0.32848206,-1.3374604,0.5872358,0.14443803,-0.69209945,0.89548874,-1.2756152,-2.3344584,0.43355858,1.435117,0.07963165,0.87032205,-0.33516228,0.5977597,1.0110496,1.2102184,-0.7929385,0.18555048,0.03435705,-0.39140832,-1.173069,-1.3685868,-0.397515,-1.8750103,-0.726553,0.98498714,-1.2718692,-0.39628267,0.72906554,2.5689554,-0.48827434,-0.60348123,-0.2920211,0.4518918,0.55602145,-0.4737764,0.7950302,0.56967634,0.8937063,-2.0415502,1.9106041,0.027446894,-0.25776133,-0.08112001,0.16451003,-0.16164234
MMRF_1331,-0.13704419,0.5372764,-1.3264632,0.75500494,-0.27794757,-0.39130452,0.600867,-0.70379525,-0.5780373,1.9313887,1.2362294,2.0740027,-0.56169206,0.53541946,0.23548245,-0.8508676,-0.84521127,0.2587256,-0.5616207,-1.302243,0.5023428,-0.40064347,0.76785666,0.1803616,0.20948142,-1.1958187,-0.46925533,0.4234179,0.7178134,0.044819113,-0.7065568,1.1565354,-0.38795757,-0.0060643116,-1.2413666,-1.4273767,-0.26114568,1.270077,1.3774692,0.3133576,0.6959043,-0.99670565,1.4371345,1.4967754,-1.0346868,0.010156162,1.3037575,-0.3369903,-0.09120652,-0.36041093,0.1415956,-0.72300446,1.5019147,0.5624867,0.80284,1.7009758,-1.0493282,0.16345026,0.951529,-1.089882,0.30373824,-0.043387268,-1.2079539,-0.16346188,0.10594919,0.8597148,-1.3758805,-0.09482281,-1.886502,-1.2635778,-0.4746766,-1.697682,-1.8065456,0.738812,-0.76900554,1.3351275,-0.8825645,-1.9414779,-0.39315692,-1.79653,-0.70538896,0.1713933,-0.6067189,-0.24716201,1.0681643,-0.18502487,-0.721692,-0.46142408,-1.6125382,-0.67778075,2.3766232,1.5588974,0.5491135,0.8021983,0.2023171,2.146025,-0.74973124,1.3507708,0.44151893,1.0550791,0.7099823,-2.4207242,0.42717555,-1.26494,0.108043395,-0.7901869,-0.2804047,0.018962601,0.2850897,-0.6042711,0.89295757,0.82392037,-0.91938055,0.56470937,0.30759495,1.8239605,-0.11881344,0.20702726,-0.027151428,-1.0349859,1.4863285,-1.9997897,1.3285866,0.6902932,-1.6887487,0.43826312,0.30856887,0.7285147
MMRF_1185,-0.46182084,0.5453714,0.7862451,0.44854367,0.1987746,-1.083824,0.28898785,-0.24933922,1.4391468,-1.0690385,1.7412993,-0.058681928,0.9220855,0.37872493,-0.15783718,-1.3913324,0.25915924,-1.0586663,-0.98287326,-0.93290216,-1.6395488,0.40412313,-0.77002555,-0.48570016,0.35290405,0.43953028,2.1808317,0.09978402,0.4459109,-0.03142948,-0.0067573856,-1.4678606,1.9134086,0.10165011,-0.85215735,-1.5002373,-1.0220766,0.3180605,1.360079,-0.9556778,-0.6073838,-0.5972888,-0.6101995,1.787025,-1.289123,0.8368492,-1.1527267,1.4798266,-0.5680191,0.79008853,-0.8824557,-0.6447463,0.72415864,-1.8733038,-0.7020983,-0.39318714,0.062144857,1.3786256,1.5169754,1.1744293,0.36249316,-0.3493573,0.31577364,0.12306425,-0.46861038,0.05583469,2.287413,1.0994397,1.81772,0.2774566,-1.3148705,1.2744629,0.8282561,0.4140041,-0.13272817,-0.44028202,-0.9368527,0.41588157,-0.53722256,-1.6198415,-2.00502,0.012446316,-1.3813385,0.24865067,-0.40753448,0.46587366,0.8440138,-0.8378835,0.5428098,-0.47557202,-1.6952084,-0.22591513,-0.8242361,2.1554408,-0.1267934,-0.7970224,1.5380375,1.3964543,0.69993186,0.54533863,0.61295474,1.1273781,2.6005764,0.121159196,-0.5804045,1.134552,0.6127412,-2.1164534,0.66665727,-0.96103626,-2.0397954,-0.8637477,-1.1126546,-0.23327747,0.5103848,0.26683593,-0.35687023,-0.20276949,0.8288514,-0.5805107,-0.49312976,-0.3455845,-1.0633916,0.27742934,0.93895584,-1.1449348,0.019650102,0.40092963
MMRF_1348,-0.38649997,-0.7760148,1.8084399,-0.9388598,1.0593029,-0.36867836,-0.47988665,-0.33270735,-0.20670505,1.1023376,1.762232,0.68309766,1.7748913,1.906941,-0.46868232,-0.98068506,-0.30170563,0.21976031,0.42969108,-0.6994798,0.9919535,0.14451154,0.38947076,-2.546297,0.22558236,-1.9198836,0.72110134,1.7747161,0.95807964,-1.6806806,0.3468364,-0.49658915,1.2078859,2.061345,-1.2488416,-1.6386306,0.87924033,-0.08015892,-0.08972669,-2.0912068,0.51270336,0.4518906,-0.45135897,1.3307153,-1.9689267,0.2286513,-2.250714,0.300745,0.35720003,1.711586,-0.2028908,0.08688692,0.063707,-0.4722966,-0.61006224,-0.0765775,0.18836261,0.2558332,1.6946627,1.4609953,-1.2052203,-0.3443468,-0.85058725,-0.78998065,-1.6696048,0.36025596,-0.3870314,0.72920704,-0.90746665,0.12495032,-1.8664502,0.43044046,1.3440776,1.3558377,-1.362102,-0.0129197985,0.7041358,0.11424196,-0.63899827,-0.5520105,-0.58953923,-0.42537248,-1.9624977,0.70088047,0.3407124,0.49233112,-0.5439699,-0.32271793,-0.7095396,0.4092962,-0.44012237,0.48261312,-0.59151673,0.84102273,0.60470223,1.2376597,1.0694141,1.3418411,-1.5580881,-0.020264946,0.2762877,0.5674385,-0.18508556,0.045049086,-0.8964234,-0.48797938,-0.45198178,-0.85371536,2.0174897,-2.2559528,0.48147416,0.4676585,0.7008518,0.57331204,-0.43660066,1.2926403,-0.8822991,-1.7283117,0.5744607,0.6042433,0.27436304,-0.7232632,-0.54244995,-0.13696435,0.19613725,0.3281986,0.7879867,0.047576714
MMRF_1284,0.7446533,1.0049517,0.478978,0.10674172,1.4965209,0.31194088,2.3869057,-2.0025406,0.675558,1.1540093,0.5732148,2.0938027,-0.6527072,1.0186912,-1.3463156,0.25500125,0.23239313,-0.4975362,0.026436722,-0.50478584,-0.26254198,-0.29095054,0.24741909,0.8102308,-0.19763471,0.1059425,-0.19341746,1.3507316,1.0360368,0.44822094,-0.29968727,2.4188597,-1.326172,1.1257919,-1.1012977,-1.2151325,-0.026270216,0.26967067,-0.13140842,-0.21766284,-0.42068893,-1.3601165,-0.3979862,1.0489523,0.0074270316,-0.5657037,0.47522253,-0.80577105,-0.2883821,0.76488954,0.20704684,-0.11213602,1.3677127,-0.45167142,0.4348195,0.57650316,-0.91535723,-0.225143,1.8974019,-0.81902707,1.4049014,0.5124961,-1.539137,-0.28952214,-0.69904,-0.39999855,-1.7076317,0.13995436,-0.80031824,-0.6256536,-1.8724872,-0.30611897,-0.8831097,0.8056922,-0.26811227,0.53470695,-0.520706,-0.8492006,-0.17882836,-1.8936739,-0.3749791,0.3985264,-0.9792499,-1.6864592,-1.0685683,-1.370393,0.3540248,0.21174121,-2.5140433,0.42770922,1.8501488,1.634253,-0.3901429,-0.13875341,0.9485049,0.3821985,-0.68030053,0.5395474,0.002878895,0.72411436,0.5363145,-0.14018129,0.154091,-1.3529797,-1.4168168,1.2114329,-1.5439674,1.1563497,-0.33130994,-0.15115944,0.19205944,0.9684113,-0.52445954,0.28849787,0.60081834,1.6386445,0.89934397,0.41763523,1.4371687,-0.6989483,-1.2929671,-1.9046112,-0.22805518,1.0150937,-2.5936608,0.16713458,0.77283,1.3046479
MMRF_1202,0.40662196,0.68482596,1.3202375,-1.4391761,-0.6675778,1.3183125,-2.2744017,-0.30884993,-0.39245978,-1.1227721,-1.1497034,1.1372442,-0.95002115,0.90240055,0.5197776,1.0544176,0.8941949,0.040631697,1.821704,0.93266106,0.20030525,-0.92891943,1.059085,-0.72488034,-0.1948419,1.3444626,0.17430912,-0.66220343,-0.2240972,-0.4357439,-0.38601083,-0.32001755,1.7588227,-0.58318675,-0.23937538,-0.06501576,1.5418059,-0.99500287,-0.079201736,0.8766467,1.2045739,0.8590023,0.5245502,-0.50349367,-0.89250153,-0.8154558,-0.43801537,0.38433295,1.3547602,1.9133226,-1.220668,-2.7751672,-1.1329519,1.2018054,0.86301786,-0.98155755,0.44290295,0.81394166,-0.75627285,-0.22276843,-0.5076452,1.8554964,-1.1543362,-0.6519056,0.99408716,-0.54246867,0.56355596,-1.7044501,-2.5046558,0.1862571,0.5752815,1.3312656,0.7840711,0.94692296,1.6226534,-0.8472191,1.8527604,-0.69590193,0.7017604,1.4885893,1.3392473,-0.72219497,-1.1141459,-0.58272344,0.016787156,-0.36809197,-1.9255884,0.74311435,0.05792804,1.2423441,-1.9857315,-0.44741112,0.049604945,0.57497907,0.61451876,0.34523287,0.74809504,1.3497266,-1.2389324,0.06427765,0.6096279,0.50631917,0.11678563,-0.4827189,-0.58803874,0.53137344,-1.0921165,0.7592585,-0.7795039,-0.6648612,1.1018504,-2.0710588,-0.55270374,-0.83639187,1.6051145,-0.69981396,-0.107196726,-0.94809574,-0.22282867,-0.17165145,-0.123495564,0.41648048,-0.06778081,-0.06773752,-0.31956103,-0.5263253,-0.9467626,-1.1631974
MMRF_1466,0.09606342,1.0899806,-3.4177547,1.2660096,-0.43676242,-1.1303418,-0.07356865,0.7753247,-1.5028887,1.6183549,0.22315592,-0.48141798,0.099301584,-1.5619295,0.37767124,-0.852277,-0.04103498,-0.1867923,0.9173425,-0.40513703,-0.30110312,-0.66643244,0.018898888,0.34283492,-0.76660895,-1.3622555,-0.4569569,-1.3574632,-0.34438306,-0.16496402,0.023805775,0.054284297,-1.425839,-0.4826553,0.8206535,1.0925428,0.2085872,0.7478209,0.40909043,0.8796038,0.025091793,-0.18415667,0.584003,-1.2722985,1.2244647,0.59690225,1.1983341,-2.196279,0.28625676,-2.782912,-0.18216908,0.27409545,-0.37037045,1.8600516,0.03928427,1.8059305,1.6645699,0.45176405,-0.40241942,-0.5050236,-0.29000908,-0.4374878,1.264051,0.32574892,0.33987883,0.45659053,-1.1625353,0.2294237,0.40703878,-1.094472,1.9350485,-0.9350082,-1.8324898,-0.7694166,-0.74671125,0.44979626,-0.26914024,-1.2133222,0.46952975,-0.41662845,-0.5249654,0.7508183,1.779541,-0.16279079,0.29874733,0.49226093,0.33390605,1.0953951,-0.15186618,-1.2446697,2.644696,0.2729808,-0.08755624,-1.034062,-0.61623645,-0.4581206,-1.3723601,-0.6371607,1.0376202,-1.2919632,-0.3751132,-0.5450144,-0.44758606,-0.5277404,0.66962963,-1.3997561,-0.37015438,1.1130826,0.17901732,1.7174444,-0.7392978,1.6969465,-0.9399359,0.25980577,-0.6564515,1.6589798,1.1892437,2.2733433,0.19391549,0.5243335,0.80658245,-0.41506746,1.021534,-0.80538416,0.4724131,0.056100257,0.3163693,-0.56602675
MMRF_1446,-0.1915169,0.18111396,0.5823356,1.5340202,-1.1811737,-3.566615,0.4157844,-0.3259555,0.74909365,-0.5506167,1.8393394,1.2634614,0.5166046,-0.48110515,-0.5437164,-2.4968717,0.46579698,-2.1594796,0.8287293,0.39496884,-1.7885287,-0.21054135,-0.34921566,0.71330965,-1.1075592,1.6545267,0.71490824,0.31276608,-1.1740664,-0.7380431,0.71739656,-0.21465345,1.5094815,0.6573872,-1.0401554,0.017314646,1.5933176,-0.71281254,1.4708852,0.47030613,-0.8607574,0.71097106,-2.2042687,-0.7622434,-0.5497872,1.9697709,0.9523087,-1.0743589,-0.18289256,1.8973856,-0.5995912,0.20029587,-0.40748432,-1.1204517,-0.54670674,-0.57990485,0.37210426,-1.1957508,0.8141598,-0.294255,0.80176836,-0.15111151,0.35639438,-0.7070598,0.13571134,0.41926575,0.42081732,1.0941955,-0.21628803,1.0562222,-0.76678777,-1.3667058,-1.8313084,0.30026674,1.1126596,-0.22824231,-1.680655,-1.4829884,-1.0745388,-0.044835467,0.3465985,-0.24521317,0.13574915,-0.6707883,-1.0371609,1.538045,1.8293035,0.21015726,0.38478148,0.41753533,0.6984041,0.1545997,0.95783377,1.4388448,0.2874411,0.03659176,-0.011453761,-1.4924762,0.30933872,0.71408826,0.66798407,-0.14818195,1.0543407,0.6903336,-1.2108527,1.5450042,-1.0058147,-1.1889619,0.13439704,0.55267024,-0.27025747,0.51736814,-0.33242056,-0.22139332,0.05429105,-0.55048746,-1.0660434,0.66356796,0.30645004,-0.49261892,0.31113207,0.352444,1.5588791,1.5014125,-1.734496,-0.117700964,0.2564025,-0.21790724
MMRF_1447,-0.6508145,-2.0085094,0.8921825,-0.3507038,0.012645306,0.08686822,-1.3641456,0.02775757,0.46402135,0.7665893,-0.92667484,-0.8112996,0.82282406,0.47576317,0.33653736,-0.46598676,0.06958079,0.6981017,-0.41932485,0.1378384,-0.9193586,-0.47571033,-1.080781,0.0967806,0.4354256,0.51641035,-0.008119044,0.16361232,-0.15911794,-0.98501444,1.5617813,1.3777599,0.05749747,0.26563472,0.5523368,0.06176734,-0.9237597,0.21667789,-0.8555672,-2.3162267,-1.0635406,1.4565676,1.3711271,0.91555655,-0.6657326,1.134295,0.6662456,-1.766336,0.033033602,1.9464802,0.8444628,2.5753052,-0.46859962,-1.770325,0.6167313,0.37287286,0.027316917,0.69422215,1.3398577,0.5306221,-0.5403794,-2.404716,-0.27068958,-1.0784839,-2.248591,0.31986326,-0.18355706,-0.008250046,1.208775,0.43995222,0.06177669,-0.08462925,-0.4885695,0.4605894,0.4825006,0.4406607,-1.5477637,1.7205987,-2.3724608,0.33457989,-0.92037785,0.030952455,-1.3786757,1.3732756,0.41017276,0.65794295,0.4413859,-0.32911125,-0.92591304,-1.9833051,0.39207882,0.5862057,-0.90081555,-0.3871103,-0.046324346,0.8015443,0.1337672,-0.93185306,-0.42041242,-1.3174093,-1.2464525,0.09911114,-0.87176913,0.28666064,-0.6558689,-1.0980031,0.40569466,0.3833986,0.7017227,0.6387322,-0.016212441,1.7907867,1.9155253,1.1533062,-0.016372414,0.23171772,-1.4541357,-2.2760427,0.5649501,1.1457603,1.6156435,-0.828973,-0.056992956,1.2867217,1.6119428,-0.27396834,0.8945621,0.302118
MMRF_1445,-0.16450539,-1.1989573,1.6898623,-0.8402223,-1.9411098,-1.2166085,0.04365905,-0.81156266,0.22686237,0.82665145,-0.67626625,0.36538655,-0.030243939,0.8483593,1.1143241,0.4140376,-1.1241602,0.12641151,0.45725122,-0.6735117,0.013142031,0.36525023,1.5861684,-0.62551874,-1.4000268,0.9532366,-0.082940556,0.7294471,-0.6191108,0.42137215,0.4240767,-0.6671494,-0.42250335,1.7998843,0.234181,-0.9601479,-0.23879501,0.2219033,-0.16777615,-1.8598208,-1.9236119,-0.7218391,0.38405392,-0.17842874,0.3258521,-0.13253637,0.5347708,0.70941603,-1.9832978,1.4172126,0.87818855,1.5992655,-2.0189452,-1.5376133,0.19503957,0.46898866,0.8493177,0.40780556,-0.47039327,-0.60832477,-0.051984586,-0.5416559,-0.7981533,1.2044771,0.56772345,-1.4261765,0.81552076,0.8577797,-1.2452462,-0.95167005,0.5736641,-1.0418614,0.39695904,1.0745126,-0.8294962,-0.43078065,-1.5307112,-0.14933327,-1.4664162,-0.041708924,0.07400425,-1.4441048,-0.911943,0.94953436,1.9468184,0.33158502,-0.10595941,-0.46711618,1.5885454,-1.4047015,-0.7754247,-0.63481706,-0.7181385,0.06995882,-0.41191456,0.1872312,-0.21761262,0.91041,0.60081315,1.6378229,-0.7078529,-0.6981814,-0.77503246,1.6514304,-1.3372838,1.3307296,0.9328729,0.24451505,-0.034998797,0.55126345,2.7007468,-1.1313815,0.7642238,0.03611824,1.0079778,-1.4598325,-1.846508,-0.2390481,0.909812,0.98960763,1.0338252,-0.046148762,1.6248841,0.1976348,1.0990787,2.5780733,-0.5319927,-0.35761437
MMRF_1433,1.0130937,1.0020907,1.1032482,-1.7234273,-0.21993653,2.1144547,-0.9259156,0.17016675,-0.76858497,-1.4340338,-1.5684807,-0.76735884,-0.42982477,0.8744513,0.883678,1.2577846,0.8316556,1.1380668,0.5440362,0.4228019,0.8596564,-0.9770835,0.21104968,-0.32860377,-0.7104612,1.5491813,0.24563964,-1.6707791,0.390823,-0.17909425,0.4389256,-0.6330123,1.3717324,-1.3125126,-0.61799634,0.22803673,0.8537889,0.83531845,0.5233964,0.60473394,1.3135178,1.4727665,1.3965269,-1.7777631,-1.1906091,-1.4860333,-0.18404666,-0.32797998,0.15942028,0.85463583,-2.1770647,-2.0172703,-0.7382056,1.26184,0.19060072,-0.5636372,-0.7945691,0.21033365,-0.30453953,-0.3421636,0.14262109,1.2816238,-0.5948271,0.77789676,1.8056169,0.31256485,-0.51951444,-2.9312673,-1.503037,0.80025,2.0355842,1.6594579,0.49443418,0.09698612,0.9781886,-1.1627097,2.4947193,-0.23472665,0.34527895,1.1378578,1.8247457,0.109706864,0.5098372,-0.26076892,0.6540368,-0.10368644,-2.2338176,-0.30369166,0.6281518,0.9170369,-1.5338674,-0.52768797,-0.07266164,0.37866992,0.81091815,-0.26309127,-0.40035954,0.42939356,-1.1972506,0.46909568,0.14723027,0.5327212,-0.4933203,-0.38523453,0.338679,-0.102941,-0.44363996,0.54165775,-1.0122585,-1.6882387,0.39850488,-1.4207844,-0.3670167,-1.0534351,0.65000683,-0.62185645,0.18387206,-0.9127142,0.34222278,0.44068164,-0.7425517,0.90422547,0.091817565,-1.0223975,-0.4179896,-0.025478134,-0.9011139,-0.39330035
MMRF_1434,-0.43368325,-1.093801,1.0471104,0.097456045,0.451917,-0.69696015,-1.1251773,-0.15077178,-0.3144059,0.4143431,0.78265065,0.2136326,1.3058963,-0.21798857,-0.67726773,-1.0028145,-0.6518985,-1.595973,0.7851024,0.50243163,0.19152369,1.9243702,-1.5168605,-1.3431544,0.8943865,-0.8139108,-1.5043435,0.04514374,-0.12231668,-1.1648424,0.7201272,0.584272,1.388958,1.114441,0.2028201,0.49444535,-0.0665704,-1.3339387,-1.1572806,-2.2759342,0.79947793,1.9649954,-1.155861,0.73508406,-1.0898161,0.7107133,-1.0350071,-0.7761849,0.5723624,1.8640496,0.7377986,0.4640116,0.3802865,-1.0482495,-0.66477865,-1.0518914,-0.9150508,0.33501428,0.7804918,0.582386,-1.7661568,-0.7082518,-0.43781832,1.0636256,-1.5626817,1.049584,-0.13276073,1.8801188,1.1453525,1.4187464,-1.008262,0.19852312,0.4663975,0.42389077,1.2509536,-0.05056536,-0.85603505,1.4322269,-0.8274506,0.18042254,-0.28612164,-0.12092433,-0.7207455,0.6569833,-1.4556112,0.97201276,1.6370802,0.58549637,-0.84860444,-1.0984794,-0.3605467,0.7282862,0.06598836,0.86857474,0.35693213,0.91447395,3.0661845,-0.3678872,-0.7509534,-1.693818,0.60779,1.0887451,0.06548142,-0.29555914,-0.6730562,-1.3838046,-1.5174084,-0.33135113,0.5342435,-0.59709626,-0.99164635,0.9652044,1.2997248,0.9209015,-2.0064573,1.2836498,-0.870847,-1.4141423,-0.82306397,0.54162294,-0.6946183,0.19912326,-0.33987954,0.8357579,0.9159488,-0.2428259,1.030839,0.46977034
MMRF_1436,-0.40316588,0.26603135,-1.7717786,0.7675899,0.6540397,1.5879567,1.7169231,-1.2845173,-0.6158175,1.4040906,0.87698877,1.0657423,-0.32952613,-0.47499758,-1.4239004,-0.09246805,-0.11875899,-0.45454752,0.012102665,-0.2738114,0.13805702,-0.2028691,-1.0871991,1.3661784,-1.0899494,-0.33775014,0.011776763,-1.1887028,1.3820467,0.24298489,-1.410263,0.51089305,-1.5117863,-0.3858148,1.0915496,0.09542112,-1.9647123,-0.5038525,-0.92454684,0.55054253,-0.37594303,-0.5906504,-0.98010474,0.9003866,1.9418955,-0.10076398,0.22429973,0.32714647,0.99390495,-0.7671501,-1.530725,1.0741036,0.25093746,-0.3418035,-0.7710719,0.74035025,0.27087462,-0.85722184,0.917825,0.87260914,1.6605058,-0.32915223,-0.3647086,-0.4844843,-0.90295035,-0.5053762,-1.2008232,0.60100895,2.2907755,-1.0748657,-0.25136352,0.19584814,0.48545647,-0.42895842,-0.18626611,0.4959661,-2.3559904,-0.057497326,1.6491802,0.081339195,0.95732534,0.95562726,0.92132807,-1.6699643,0.095247015,-1.8729073,2.173345,1.5105335,-1.370475,1.6971776,1.251107,0.089760154,-0.1543817,-1.1237516,-0.11958485,-0.8072521,0.42181158,-0.5515098,-0.023263047,-0.6888857,0.42394298,1.1948996,0.7987261,-1.1668575,0.56304276,1.8978276,-0.30311662,-0.1356628,-0.25955814,1.4923878,-0.4786783,0.64608526,-0.5823256,0.79808414,-0.6274336,1.2522957,1.365411,0.3728758,0.34437788,-1.1362386,-2.0846603,-2.1862774,-0.66702235,0.46562025,-0.76528347,-1.109022,0.4637657,0.317149
MMRF_1424,1.1731919,-0.36898956,1.7256693,-0.1281041,-1.2807552,-0.8773065,0.09546711,-1.7388955,3.0619311,-0.1173273,0.595434,0.8140968,0.48962837,-0.3487747,-0.49129352,-0.49521172,0.36510506,0.09646576,-0.56554234,-0.05346643,-0.5263165,-0.88290286,0.19524148,-0.33940065,-0.19528309,1.707805,1.9577525,-0.060365908,-0.28520876,0.7609715,1.6795866,0.18929476,-0.26164484,0.3163783,-0.7084181,-0.9826942,0.18210065,0.18482272,0.06169077,-0.5811676,-1.9128172,0.4173268,1.0449698,1.2987975,-1.5060818,-0.55988926,0.47983944,0.36214823,-0.8666253,1.0672673,1.274308,0.68785644,0.030417472,-1.7243484,0.4487967,0.21832986,1.3894881,-0.29063183,1.2215841,0.9208201,0.9988133,-0.90456414,-1.6199616,1.0805559,1.6553341,-1.9037862,0.5356283,0.7717497,0.7403451,-0.30722597,-1.1571804,0.8133796,-0.62599653,-0.061553642,0.6051671,-0.75906044,-1.8333064,-0.36292002,-1.711825,-0.6830144,-1.0114529,-0.65413564,-1.6715322,0.68991196,0.3556177,-0.54042274,0.8055062,-0.51238334,-0.5419033,-1.7285757,-1.6574343,0.3890347,-0.21507299,1.0086904,0.8939909,0.20051011,0.56216604,0.25724736,2.3953052,1.9706144,-0.9299115,0.34853756,0.060319338,0.7959248,-1.0730447,0.66059774,1.6142366,-1.8008475,-0.7898316,0.6389586,-1.357609,-1.7861032,0.31066915,-0.5798327,1.3805037,0.21468127,-1.3042618,-1.3443251,0.5726077,-0.07897881,-0.77763826,-0.31578842,-0.5187372,0.6211581,0.9929586,0.57661617,-0.05580215,-0.6737956
MMRF_1425,0.7905863,0.038222477,-1.6664324,0.39013243,-0.78664106,-0.114107475,0.694801,-1.6668735,0.64322656,-0.2670878,0.47299477,-0.3133075,-0.8357523,-0.6400831,-0.6884129,-0.008349108,1.5389256,0.14047682,0.056202322,0.7066932,-1.7713561,-0.6421187,0.36528385,1.833151,0.18465988,1.5384924,0.8338283,-0.80048305,-0.88711363,0.36086327,0.8378426,1.6709728,-1.3468776,-1.7685566,-0.09420085,0.96023023,-0.94252634,0.6068244,-1.3829741,0.6108881,-0.5133833,1.2990961,1.3051901,-2.1986485,0.40146658,0.06440602,2.8052015,-1.2790849,0.103572026,-1.9110427,-0.34390375,1.0500914,0.5488191,-1.0136694,0.91223246,0.7695909,0.84953505,-1.3543276,1.4803147,-0.6874197,1.7116745,-0.6908095,1.1835008,-1.0877384,0.017508721,-0.95237964,-0.6466715,0.6735739,1.6628883,-0.030505687,-0.21359728,-0.84385496,-2.0260525,-0.42373472,1.7870737,1.5820265,-1.1931174,0.057620354,0.8105645,-1.1364682,0.012497203,1.6791471,-0.12822203,-0.32910135,-0.62360275,-1.1261781,0.31904814,1.1135957,-1.9061997,-0.51958376,0.50375855,0.48281035,0.012287115,-1.6501294,0.6012574,0.0094971275,-0.6301308,-0.23324169,0.7245609,-1.1624053,-1.8538643,0.8468641,-1.1453738,-0.21395855,-0.5372294,0.072818264,0.3090083,1.2845628,-0.45229864,0.91356266,0.42628133,1.5464684,-0.35759753,0.49858397,-0.68850714,0.0021642055,1.8586347,0.3914043,-0.3689889,-0.362146,-0.15522498,-0.9536361,0.9775593,0.27222726,-0.0733087,-0.9389994,0.45730633,-0.11064313
MMRF_1439,-1.19825,-0.7298254,2.0015984,-0.07998003,-0.02250248,-2.106412,0.2338905,0.025233813,0.01561592,0.9522849,0.45146468,0.53863627,0.6549546,0.397241,-0.6376227,-0.70020926,-1.2562876,-1.307016,0.7547788,-0.89556825,-1.0065643,1.1832225,-0.058801457,-1.635288,-0.7342149,-0.69629174,-0.67930645,1.8626757,0.21760799,-1.2116598,0.54870516,-0.52119017,0.6483778,3.2363207,-0.21094213,-0.92370766,0.24481979,-1.3565313,0.15695253,-1.5323826,-0.7580984,0.33578497,-1.6821327,0.74711007,0.41645083,2.0736647,-0.79196715,-1.6428182,-0.02416626,2.847983,-0.16408825,1.5770788,-0.04738776,-0.9978482,-1.285733,-0.25525346,0.12933418,0.39125425,1.3316346,0.44233966,-0.8254192,-0.7937167,0.87286353,0.64196706,-1.4911578,0.5311196,-0.44109982,1.4496588,-0.30606934,0.50600564,-1.3336067,-0.8257791,-0.09216947,0.99165237,-0.376339,-0.9967864,-1.4569762,-0.44201744,-0.36363938,0.1392747,-0.6909068,-0.7748621,-0.8609884,0.3002763,-0.09174806,1.3427961,1.7390479,-0.050162878,0.34902442,-0.7931589,-0.17209022,-0.0072295666,0.0885504,0.15508893,0.44506818,0.028375939,0.9907885,0.027688863,-0.24923421,-1.0618051,1.5535902,-0.10912261,0.7182091,-0.51353246,-1.4559278,0.56107545,-1.9507555,-2.1541119,0.68635243,0.054434415,0.3369884,1.1925685,0.5105094,0.23341973,-0.43185836,-0.0030637868,-1.3520488,0.27226606,0.4328835,0.9660245,0.010265261,0.13993372,0.60670733,1.5124693,0.30159366,1.8041505,2.0433135,0.67872244
MMRF_1450,0.2690797,-0.042872228,-0.5151647,0.5338243,0.16904593,1.1315953,0.015505012,1.3929932,-0.020902576,-0.38118446,-1.0833095,-0.87592345,-0.64283824,-0.66108894,0.90981305,1.2453169,-1.3736306,0.8515503,-1.2940882,-0.91472536,1.1331419,0.89821756,1.2516214,0.17235276,-0.8559856,-1.6706086,-0.7859094,0.02459186,1.9576288,0.2432246,-1.0340005,-0.8439178,-0.73883754,-1.3427824,0.65876657,-1.8059678,-0.9556682,1.4302567,0.9325914,0.22132084,0.4571322,-2.483084,0.979121,0.004423959,0.7961206,-0.42520607,1.6216146,1.9297978,-0.8213127,-0.6748017,1.0700227,0.5861704,-1.6394287,-1.6828743,0.11601976,0.25889745,0.04818991,-0.13605917,-1.4565734,-1.328653,0.18121916,0.06375377,-0.20336556,0.1754027,1.5130594,-0.119821295,0.34640333,-0.60815006,0.62257236,-0.28514665,0.6599942,-0.73112494,1.2653352,1.8128093,-2.5172515,-0.3514393,-0.0782121,-0.7261397,-0.46065992,-0.6548137,0.15005523,-0.7852035,0.6151752,0.35331008,0.942302,0.5433966,-2.626393,-1.0556161,2.096963,-0.6725013,0.2393044,-0.71631134,-0.5850035,0.5892646,0.0417851,0.477999,-0.6145461,-0.3130639,1.1986827,1.2812363,-0.5036225,-1.8848267,-0.39580503,0.83534265,-0.41639054,0.95347404,1.2184825,0.5224878,-0.44022968,-0.32558018,1.9324288,-1.0283413,-1.1054037,0.32989398,0.63289666,-0.5382873,-0.5913459,1.6414173,-0.5856901,-0.03985261,2.1694126,0.5027496,-0.21979873,-0.2758518,0.7186654,1.630979,-0.42260647,-0.23055857
MMRF_1451,0.52422875,-0.42279184,1.2655677,-0.7010417,-0.908579,-0.6282066,1.1593797,0.24960463,1.078172,-0.7771445,-0.8424606,0.22619125,0.031150736,-0.12761472,1.0781618,-0.56372464,-0.6391584,-0.112474844,-0.3856716,-1.0686367,-1.1060289,0.8003322,0.63366187,0.96427006,-1.5343311,1.0620636,-0.83595794,1.026358,0.04518094,1.1693524,0.9514639,-0.49049518,0.4880922,0.64383715,-1.0359459,-1.643046,-0.6283686,1.0246755,0.22260594,-1.0259199,-0.067755654,-1.1595949,1.4227182,-0.47597653,-0.75964487,-1.3316271,1.3931607,0.10385416,-1.0945729,0.52617437,1.243964,0.31212124,-1.6603229,-1.6726134,1.3168548,-0.40568298,-0.68263954,0.33582658,0.24053104,-1.3582684,0.9826895,0.30313846,-0.81199175,1.4473481,2.5024908,-0.7238457,1.1742454,-0.5503491,-0.66724944,-0.5244547,0.564747,-1.0929568,-1.0112418,1.8814816,-0.40448514,-0.8694634,-0.90460443,-1.6217668,-1.2427142,-1.5938115,-0.5098998,-0.95548755,-0.4931443,-0.1286274,0.38350645,0.74667275,-1.2307693,0.063950874,1.2588246,-1.914072,0.7153068,-0.022992402,-0.6492427,1.8739055,-0.20627454,0.5395229,0.9827176,1.2651719,1.4511266,2.4612503,-0.20259112,-2.0681276,-1.5797325,0.36013514,-2.0369558,1.063321,0.726433,0.18224803,-0.62888277,0.14616458,1.7746004,0.28027973,-0.28926754,0.28674862,0.6040901,-1.1953399,-0.68180305,0.20353813,0.08523387,0.33533007,1.3322741,0.15406762,1.6646205,0.037911907,0.58682793,1.3083893,0.37709448,-0.5724921
MMRF_1454,-0.2950979,-1.0249475,1.7145088,-1.2796795,1.5431024,0.65287447,-1.206709,-1.7678049,-1.3506018,-0.31063956,-1.3430558,0.3488375,-1.3711511,0.008061903,-0.48888338,1.3779185,-0.41367117,-0.43576717,1.3644559,0.25119424,0.60599375,-0.588991,-0.07896261,0.1863451,0.2569342,1.4805157,-0.23539177,0.5941784,0.44350773,-0.47569528,1.0078466,1.1245357,0.48296273,-0.6979993,1.0535762,-0.3915307,0.9639637,-2.011365,-0.380916,-0.9240576,-1.8995681,0.33325958,-1.0038708,0.3880334,-0.6851179,-0.70363367,0.14366157,1.2007697,-0.1349422,2.9274423,-1.1112524,0.8331742,-0.056178164,-0.3357793,-0.26245567,1.2832085,0.17883633,0.08673988,-0.24591833,0.9047048,-1.2792784,0.002941069,-0.42592663,-0.04320384,-1.477812,-0.019476917,-0.8255803,-0.04485726,0.4308804,0.44750637,0.35720438,1.4629352,1.0255407,0.5622824,0.25157762,-1.8767505,-0.20031548,2.3317146,0.33525547,0.54797286,0.7514544,-1.6031697,-0.52462757,1.0476145,1.0781989,-1.1911865,1.1109993,0.6545747,-1.0918118,0.09662609,-0.5833314,1.1937366,-0.69876707,0.08394411,1.17062,0.57971525,0.8771592,1.2018474,-0.72736436,-1.849066,-0.6535933,1.1940922,1.0047537,0.8955782,0.09141396,0.5396172,-1.5623802,0.15946122,-0.94220257,-0.87331915,-0.24245982,-0.48890755,1.4804246,0.22651881,0.9120289,-1.606334,-2.1986773,-2.1610365,1.2722822,0.5671149,-1.4542489,-0.34331077,-1.332995,1.2389039,-0.5116587,0.6126965,-0.14290899,0.8089426
MMRF_1460,-0.8066596,-0.2117129,0.35159975,0.79554164,-1.1296014,1.2454276,1.4763943,-1.2320076,-1.6100748,0.4849035,-0.1521264,-0.041431036,-0.94250256,0.4145594,0.22912794,2.1776192,-0.41361517,0.6613306,0.9509212,-1.3194981,-0.6418243,-0.7103879,-0.2228696,0.7672861,-1.2728235,0.025790982,-0.4840425,-0.26694304,1.0803701,0.70983213,-2.3975415,-0.23214477,-0.89042205,-0.11222017,1.4562453,0.06497088,-0.29767102,-1.1772759,-0.22357465,-0.31588453,-0.79810506,-0.76121736,-1.4416279,1.2656714,1.6408501,-0.38249794,1.2589616,2.4560246,-1.5553528,0.8041637,-0.78737015,1.4467981,0.54000807,-1.0089253,-1.3832078,0.4631438,1.1542557,-0.2005135,-0.16822173,-0.16817507,1.1191219,-0.10996752,-1.7465336,-0.8809312,-0.98275447,-0.47596812,-1.6807061,0.007799994,1.6988143,-0.7934981,0.06634496,-1.1555219,0.8803906,0.37169302,-0.58924586,-1.2521385,-2.4981008,0.4266013,1.4092405,1.000724,1.4523641,0.38252684,0.61950046,-1.1155726,0.4594724,-1.5540841,0.8350459,0.36523473,0.3973252,1.1405838,0.62330616,0.3126395,0.17835335,-1.0566491,0.70015335,0.2304343,-0.71165687,-0.77274156,-0.11797641,0.37929428,-0.5178627,0.0013135476,1.7305856,0.9833665,0.32690236,2.317985,-0.46777803,-0.21021475,0.41796857,0.86599606,0.8361895,-1.7827357,-0.9524531,0.87920505,0.76902187,-0.21617348,-1.0076731,1.2794933,0.8999738,-1.2898405,-1.267442,-0.23498258,-0.870741,0.21669349,-0.99241453,0.9349121,1.0110338,0.60376495
MMRF_1461,-0.16199614,0.66575485,1.0528381,0.009674778,-0.06725989,1.0289848,-1.4404763,-0.86196244,-0.91042614,-2.4165921,-1.2881866,1.979059,-1.367513,0.37592328,1.5217242,1.2593904,-0.43301073,-0.235915,0.5998178,0.80639035,-0.45239782,-0.5224004,0.010781091,0.35815907,0.3055047,0.32486698,-0.09992512,0.26244548,-0.7458908,0.5574025,-0.34660748,-1.0791287,0.9824151,-0.25882608,0.12894613,-1.0938355,0.15964942,-0.3096452,1.756247,0.70608175,0.07157042,-0.83459705,0.3587084,-0.50195366,-0.1257302,-0.95890415,-0.6574875,2.950656,-0.06130559,1.0296077,-3.1129162,-2.7929962,-0.08210169,0.89995515,-0.26485333,-0.28171784,-0.4835089,2.0872538,-0.5555017,-0.7087114,-0.7534034,1.6431059,0.05755462,1.2082535,1.0575212,-0.8803097,1.6031667,-0.17548177,-1.4251705,0.4659232,1.189527,-0.62192714,0.4348942,0.06709294,-0.011334442,-0.55609953,1.1645421,0.5868599,0.8811553,-0.43783078,1.7305435,-0.053577304,0.31005993,-0.34432134,0.5598722,-0.19137597,-0.64508134,0.65956116,0.8029139,1.6309757,-1.1661613,1.3679991,-0.74110335,0.010890452,-1.1819959,0.71272564,0.8104734,1.3846664,1.1748804,-0.13510029,0.6006056,0.9235005,1.1588659,-0.49081838,0.4411082,-0.42410484,-2.142342,-0.85309166,-0.75569445,-1.5965557,0.85297906,-1.5730784,-0.4715804,-0.3346451,1.144089,-0.9974859,0.51332104,0.32991254,-0.32576513,-1.2259666,-0.7790969,-0.9180877,0.066769674,0.22599916,0.37224385,-0.60446215,-1.797747,-0.29641864
MMRF_1324,-0.45676067,0.26865512,-0.12019866,-1.7106879,-1.1842947,0.15211159,0.2772564,-0.8224281,-0.90791917,-0.5130669,0.28382927,1.0020821,-0.41528398,1.8768545,0.16159454,-0.40032518,1.6775365,0.799722,-0.07451485,0.6520466,-0.6886202,-0.13123062,0.7501524,0.19923419,-0.039973974,1.8942311,1.2288506,-1.1560692,-0.86734843,-0.3389926,0.13204333,-0.10480352,1.7970278,-1.2892022,-0.666397,0.67045283,1.1009511,-0.4432711,-0.05025632,1.2773536,-0.23022735,0.8403263,1.9181546,-0.77521086,0.47683623,-0.9939828,0.4765443,-1.1699939,1.0248467,-0.33442187,-1.73146,-1.5102705,-0.11955356,1.2886435,-0.09459114,-1.2447827,-0.9639367,0.28928757,0.80473614,-0.92469484,1.088605,2.021114,0.42513645,-0.678793,1.3637575,-0.24060665,0.24955228,-0.42465138,-1.2468904,0.26515102,0.61510456,0.22843139,-0.5761287,1.3010883,0.78778857,0.08173296,0.31448966,-1.4510205,1.6840919,0.95264345,1.4644693,-0.004689485,-0.30541217,-0.8405592,0.17099401,0.5569382,-1.402035,0.33713028,-0.8749429,1.0068865,-0.26897418,-0.31963992,0.96798617,1.0827439,2.0213594,-0.3963951,1.0988667,2.8105671,-1.6308314,-0.5593332,-0.30276424,-0.039353926,-0.77858543,-1.2979028,-0.8741741,0.83900815,-2.3903842,0.11016606,-1.7824465,-1.31365,-0.37966827,-0.057817075,-1.9979721,-0.28768042,0.5416935,-0.44609752,1.5992118,0.018508157,0.08032006,-0.51605755,-1.2700467,0.30823374,1.776613,-0.901584,-0.54392517,-1.2356299,-0.6318071,-0.7278529
MMRF_1392,-0.04250844,-0.358039,-0.9823996,0.83471954,0.84313715,0.5980297,1.2448133,0.66824096,-0.7543475,1.9440752,-0.17390126,-0.6527547,1.2575041,0.038941015,0.7462726,0.9413893,-1.3735489,2.098438,-1.5697322,-0.6991893,1.7677301,0.66596544,-1.3759865,-0.03459357,0.35326797,-2.6864574,-1.3969728,0.7085023,2.8479145,-0.10853252,-0.73644495,0.94206464,-0.48181313,-1.0265087,0.08870123,-1.5781358,-1.1429898,1.531155,0.048477765,-0.37078267,0.93014956,-2.3084893,1.1219822,1.1924726,0.59978443,-0.3081674,-0.048393324,1.0503579,-0.502516,-1.0237719,1.7421151,0.4759443,-0.17968558,-0.2921633,-0.3717891,0.19300514,-1.3436246,-0.8350482,0.2945576,0.27313104,0.59666383,-0.7861207,-0.8252103,-1.1328443,-2.247022,0.6604476,0.4849516,-0.8311335,1.7645335,-1.1761454,-0.76525927,-0.50305444,0.6472441,1.674968,-2.0275517,0.75017977,0.9292787,0.12260099,-0.83145154,-0.78295666,-0.9111466,0.7360334,-0.48366866,0.23966403,0.67757547,0.9653554,-1.5203439,-1.7619816,0.15252605,0.16769713,-0.41207492,-0.32374993,-0.4704387,-0.97721505,0.36672363,-0.71411663,-0.09449587,-0.111788504,0.0388365,-0.50455135,0.12072724,-1.4101076,-0.9855602,0.45998895,0.6249257,-0.37000483,1.3242041,0.18789808,0.5611296,-0.27446964,0.048223186,0.708349,0.69409263,0.31646684,-0.8254626,0.7121956,0.74858415,-0.2235286,0.09862991,0.7985601,2.03824,-0.60181516,-1.4903034,-0.38805917,0.4090672,0.16621706,0.87719446,1.5247381
MMRF_1413,-1.1508734,-1.4325974,0.56652206,-0.40947908,-0.7127269,-0.24581493,-1.4434019,0.13781554,-0.7910598,0.98317677,0.087340795,-0.13547044,0.6528317,2.185926,1.0403697,-0.45719525,0.123653635,1.6150023,-0.3013791,0.46863285,-1.0045377,0.34115493,0.014096271,-1.4942518,1.0200101,-0.50444186,0.4617763,1.222549,0.4498191,-1.225948,1.0297614,0.079199046,1.3802385,1.3454504,-0.22568455,-0.9783226,-1.1874546,0.53596437,-0.7437188,-2.30668,-0.6332262,1.0719904,1.1273209,1.6331755,-1.1743389,0.21961679,-1.0521458,0.4535166,-0.15224937,1.2082646,0.45531508,1.3455992,-0.33657554,-1.6057231,0.21612945,-0.54259264,0.97688353,0.9927919,1.4925547,1.3196821,-0.7059436,-0.9872123,-0.79950863,0.39095834,-1.6802202,0.49512172,0.57324135,0.26595515,0.5094735,0.51337856,-0.004957974,-0.0475324,0.20083961,0.99580884,-0.48510092,1.1286001,1.0070102,1.6329938,-1.3097637,0.50667226,-1.0429485,-0.64291316,-2.4329019,1.9801104,-0.07924089,0.774171,-1.2016932,-0.6452727,-0.04301807,-0.7618776,-1.0851078,-0.35294813,-1.756464,0.30327106,-0.49537274,-0.42951372,-0.18776438,0.56443876,-0.6082975,-1.0982915,-1.1554039,0.97323817,-1.0086395,0.055617996,-0.65033215,-1.636822,0.7522838,-0.6692419,1.5297208,-1.1936024,0.4523741,0.8120734,0.8779529,1.1021056,-0.04830125,0.5933889,-1.638569,-1.8181553,0.3521174,0.26033777,1.457465,-0.24577677,-0.36328247,-0.7595997,2.6282268,-0.4503171,1.4033195,-0.60185474
MMRF_1393,0.57168674,1.9726714,-2.2186582,-0.36006755,-1.0119592,1.9564846,1.0863012,-1.0806268,-1.6576982,1.0281675,0.7207581,2.1610184,-0.8710678,-1.1565137,0.5433326,1.8873423,-0.73439103,-0.08041112,0.26552925,-0.62310755,0.99033666,-0.5012641,0.3507851,1.9546286,-1.4068681,-0.9399671,-1.9064748,-0.13681309,-0.3250001,1.4351468,-2.584915,-0.60075855,-2.4720793,-1.1728647,1.0641536,1.1804763,-1.24998,-0.5150956,0.22540773,-0.05445613,0.613475,-0.82668877,-1.0327917,-0.06215863,0.5313707,-0.5507656,0.7028361,1.4129211,-0.58075964,-0.46989352,-1.1584496,-0.58181196,0.5060679,-0.72843534,-0.40261444,1.6750659,0.052056953,-0.48113042,-0.46063265,0.88314396,0.74759704,0.9759045,-0.67348486,1.0571083,-0.08394663,-0.5758056,-0.29687297,0.6775436,0.03607315,-0.9187659,0.23372208,-0.9344271,-1.0493965,-0.31339777,0.7514754,1.5263525,-1.0304993,-0.06028912,0.7109035,0.81676126,0.35109347,0.6124459,0.6966177,-0.87338084,0.42365167,-1.8357878,-0.71595716,1.3549154,-0.68614674,0.81206745,0.76239914,0.91962856,-0.25475085,-2.0128827,-1.2238014,0.9370463,0.020570686,-0.10806231,1.0034506,1.8854874,0.83891,0.41888738,-0.34619412,-0.14666355,0.49791,0.9572054,-0.34616497,1.2543169,-0.2661077,0.7406931,1.5152647,0.2810307,-0.05526855,0.38373342,-0.7197507,0.15945646,0.37940487,-0.13981442,-1.3939929,-1.5378004,-1.3635632,0.9315244,0.97141623,0.023956658,-0.74864197,-0.07196201,-0.60395634,-0.10538517
MMRF_1148,-0.13428159,0.096491784,-0.20948143,0.35335466,1.8838773,0.47852397,-0.29919916,1.5913614,-1.3596361,1.2123001,-1.122196,-2.0104759,1.2506824,-0.9371095,0.22122964,0.6033305,-2.071683,2.2663732,-0.7836148,-0.68464667,2.3420513,0.84915805,-0.40590918,-0.44943842,0.33192894,-2.254917,-0.20993868,-0.23328471,2.6150732,0.33830643,-0.6347589,-0.24991374,-0.028802956,-1.1118351,0.6856072,-0.8459766,-0.71115017,1.4526473,-0.44487298,-0.03602006,0.5969961,-2.4031675,1.0153886,0.8568502,0.8073036,-0.44432235,-0.47441223,0.8278402,-0.7904391,-1.5697216,0.97300506,0.8798617,-0.027966319,0.51549846,-0.3144761,-0.107216395,-0.5025904,-0.60445845,-0.8111564,1.389322,-0.3396549,-0.87478364,0.6387402,-0.28611413,-0.8897286,0.96124154,-0.040838964,-1.5351766,1.2883245,-0.73231906,-0.28195852,-0.33688393,1.2526608,0.79516643,-2.7293816,-0.10722096,1.5810411,0.28259668,-0.15815662,1.057727,-0.040917072,0.1420834,0.5338065,1.01717,0.054487944,1.752744,-1.589409,-2.0048873,0.9943611,0.45146546,-0.6855706,-1.7187328,-0.13743389,-0.09766265,0.28017342,-0.520779,0.15080442,0.214666,0.311431,-0.949771,0.24904428,-1.107902,-1.0769447,0.27696666,1.2620552,-0.37027398,1.1562455,-0.6462833,0.045005668,-0.61018074,-0.39726064,0.020128258,0.0033484586,0.15808347,-1.2714705,-0.5742647,0.15873665,0.48560488,0.29100338,1.4301308,1.2063321,0.45749003,-1.6980939,-1.0147936,0.81943405,0.9013087,0.30503535,0.5945801
