patient_id,0,1,2,3,4,5,6,7,8,9,10,11,12,13,14,15,16,17,18,19,20,21,22,23,24,25,26,27,28,29,30,31,32,33,34,35,36,37,38,39,40,41,42,43,44,45,46,47,48,49,50,51,52,53,54,55,56,57,58,59,60,61,62,63,64,65,66,67,68,69,70,71,72,73,74,75,76,77,78,79,80,81,82,83,84,85,86,87,88,89,90,91,92,93,94,95,96,97,98,99,100,101,102,103,104,105,106,107,108,109,110,111,112,113,114,115,116,117,118,119,120,121,122,123,124,125,126,127
MMRF_1231,-1.2720443,-0.0630499,-0.4746542,-1.6649842,-0.70302325,1.2169979,0.9436063,1.0228362,0.95704275,0.81888133,-1.2759702,1.5748541,0.08674647,0.2947606,-0.16453327,-0.06934773,0.064993754,-0.11573947,0.32134745,1.573532,0.90234447,0.55230355,0.98589784,1.9482028,1.2743752,0.12515578,-1.6697013,-0.93869686,1.0057552,-0.047637943,-0.07629739,-0.30138797,-1.0404992,-0.92056024,0.8115629,-2.0323253,0.72068185,-1.1594664,0.7589277,0.25981843,-0.110268034,0.2582191,-0.4953406,-1.6669647,-1.0090145,1.4321859,-0.5047156,-0.26227066,-0.23339282,0.5900679,-1.5032512,0.77772194,0.882759,0.86414254,-1.6870768,-0.4888875,-0.94868386,0.51089966,0.93930995,-1.963854,-0.426428,0.49067706,0.7544217,1.9307563,1.6086705,0.70582247,0.4325301,-0.39073688,1.6544738,-0.608854,0.3981647,0.8276875,-0.7678173,1.70342,0.5092669,1.3587669,-0.469176,-0.42112026,0.9707134,-0.8728582,0.22650445,-0.0071746456,0.028003518,1.496865,-0.73876345,-0.37404877,0.8926563,0.4781493,-1.0931015,1.3494122,-0.52977884,0.009623723,0.89405,-1.3019186,1.2177668,2.0718343,-0.7738267,-1.018073,-0.017129365,-1.7389127,0.08754204,-0.5313748,-0.3595721,0.60427666,-0.18659627,-0.28743994,-1.5407557,-0.7488793,-1.1971986,-0.7497966,0.1809687,1.0440258,1.8038356,-0.7587076,-0.05709064,0.25331473,0.45419517,-2.232956,0.36344713,-1.6015909,1.1133525,-1.3239218,0.9092383,-1.6423444,-1.4392521,-0.4424161,-1.1852167,-0.5863877
MMRF_1032,-0.7532651,3.9381914,-0.4985246,0.23222932,0.078391775,-2.3407404,-0.05194302,0.7836215,0.497628,-2.038804,-0.17628616,-0.13322563,-0.78196913,0.15681727,-0.100268744,0.035147235,0.19191584,-0.9600992,-0.41170433,0.47871372,0.29847702,1.0350403,0.06979398,-0.09689662,-0.6882951,1.8045508,0.39865407,-0.6368722,-0.61771935,-1.3501118,0.1571668,-0.16138385,0.43241623,1.5109076,0.9808736,0.7012315,-0.22273676,-1.6,-1.1192968,-0.20916863,-0.28997076,0.95020545,-1.2490286,0.9339124,0.28614467,-1.903323,0.1555194,-0.30477154,-0.31648612,-0.42829403,1.7403682,1.0658436,0.47554675,-0.49699038,-0.18508315,-0.3291629,-1.210697,-0.013104999,1.1254091,0.9127356,0.100361206,0.9521171,-0.3704541,2.2845986,-0.5280791,1.2606016,-0.3275667,-0.6749643,0.17992136,-0.4048891,-0.96687305,0.55092216,0.024548423,0.7883525,-0.11118778,-0.5916941,-1.1496814,-2.8105443,-0.11234443,-0.24159476,-0.5627524,-1.0007751,0.06853303,1.0789384,0.021942534,0.3208037,-1.1379955,-0.18460108,0.63623345,-2.1476507,1.2080065,-0.97410965,0.2179793,-0.2292856,1.8159826,-0.9850106,0.23662636,-2.1750305,2.1768913,0.042201877,1.05643,0.963999,0.6767796,0.47811288,0.98710454,1.5692441,-0.101118155,-0.52660006,0.39166066,-0.39806232,-1.5167823,-1.1623011,-2.0065918,0.097357765,0.8739072,0.46985924,-0.3922036,-0.81396586,-0.28348204,1.1036338,-0.34247565,-0.022273354,0.0014538532,0.59518576,1.6132898,-0.028536296,-0.5548713,1.2178017
MMRF_1327,-0.83492726,0.4553875,-1.1388286,0.3151998,0.4048216,-0.7267115,0.080564655,0.60869694,1.6784062,-1.183965,0.5967401,0.36384884,-0.816461,-1.2105328,-1.173839,-0.8318103,0.18133108,0.12561622,-0.10533222,-0.9783536,0.86209714,0.7365992,1.2071154,-0.317977,0.15513128,0.8279126,0.56717944,-2.0561435,-0.62292016,0.7645123,1.0004632,0.056107633,1.6967921,0.25258306,1.593871,-0.7479486,-0.8017019,-1.9983491,-0.7709684,-0.27062902,-1.3720807,-0.45393863,0.18299592,0.2884191,-0.7309886,0.81632715,-0.6973254,-0.9995877,-0.052361026,-0.49433613,-1.2646776,1.8578593,0.91068023,0.24703063,-0.3041126,1.5204283,-1.2621092,1.4014466,-0.3889276,-0.5665214,-2.140427,-0.41704887,-1.4810677,1.3744494,0.080795735,1.3718687,2.435116,-0.3908495,-0.48534727,-0.1020811,0.9742439,0.37627986,-0.20438512,1.8769326,-1.0339307,1.3217505,-0.1751671,-1.1315094,-0.53765005,0.26894405,-0.45284134,-0.57071614,1.1920763,0.15101022,1.7916285,0.23121229,-0.9929435,1.1986777,-0.3191694,0.057713076,0.99039006,-1.5655308,-1.2257968,-1.0832599,0.35603094,-0.36926836,0.8500449,0.44876432,1.4066635,1.1582335,-0.8686328,-0.5375249,-0.59787387,0.78721017,0.5202388,0.4760209,-1.9132923,0.9220453,0.45105624,-1.0557126,0.3861775,-0.32209492,-0.060032655,-1.5041251,-0.4217455,2.1028256,-0.110071406,-0.38377059,0.3517295,1.0505233,-0.3528913,-1.8093603,-0.45232219,-1.8446671,1.1672288,1.9821447,1.1763878,-0.8485353
MMRF_1210,-1.4330868,3.8221986,0.060082685,1.4847857,-0.9217518,-0.82228523,1.8872927,-0.2555692,0.013107937,-0.80970466,-0.036671333,1.3092959,0.13284522,1.2907387,0.12930404,0.4571452,0.63855076,0.050430346,-0.031212728,-0.312431,-0.39496148,0.3689653,-1.4729353,0.03043571,0.41481498,-0.42634633,-0.7155091,-0.66915554,0.85573715,-1.288305,-0.5826897,0.06626537,-0.010944426,1.2657739,1.6606405,-1.1928273,-0.65221316,-0.6313233,-0.42963,1.0082542,-0.45743087,0.61687094,-0.585066,-0.38622504,-0.719783,-1.6187527,0.4236909,-0.42993987,0.381855,0.88027865,1.1594552,0.34601003,-0.31781292,0.73213434,-0.75895333,-0.955841,-1.3350956,-2.3494263,1.0925152,-0.11755199,0.4407242,1.5240772,0.18252255,2.6210775,-1.0969439,1.5732337,-0.50720143,0.43890753,1.3545773,-0.89076287,0.51791734,-0.86047447,0.40698257,0.10714358,-0.73785067,-0.070729636,-0.59401363,-1.6621966,-0.23818938,-1.4535717,-0.65362895,0.7279557,0.08859753,0.8058329,-0.16430223,0.355976,0.5765444,-0.8306783,1.3877121,-1.5635623,1.2431746,-0.7305609,-0.39327016,-0.46608695,1.5348402,-1.2194366,0.046466187,-1.3054696,0.36399892,-0.80867076,2.0900857,0.8063793,1.1123661,-0.10073624,1.9542531,0.66753095,-0.96428233,0.24349795,0.45109928,0.91569906,-1.5807997,0.058906257,-1.4882053,-0.29909483,-0.3572205,-0.45036194,-2.1134322,-0.69201505,-0.5051134,0.7557683,-0.16801576,0.25273693,-0.4608593,0.7558722,0.52156186,-0.9211471,-1.1782218,1.1018176
MMRF_1269,0.6804382,-0.43706313,1.7811488,-0.8270774,-0.7493445,1.3344254,-0.41542917,1.0429636,-0.91399586,1.2246208,-0.5289912,0.99832255,1.3591707,0.83490396,0.5149597,0.81724775,1.0660194,-0.27590528,1.5780565,1.5004098,0.1105662,-0.54554117,-0.90801334,0.38710496,3.249658,-0.5927249,-0.9536698,-0.9967688,0.5513823,0.81001264,1.552702,-2.2035823,-1.6988304,-2.9516973,0.16514911,0.66654426,1.015872,-0.48718795,0.70303214,0.32841992,0.3396279,-0.5747948,1.5296297,-1.202246,-0.2426706,1.6011842,-0.087736234,1.1463578,-0.39962286,-0.15643749,-1.5218358,-1.0010985,0.056251533,-0.79371303,0.57677436,-0.5329885,-1.0284035,-0.7011228,-1.1452527,-1.6164056,-0.098537974,0.26060528,0.26259857,-1.1701823,0.6930453,1.190819,-0.16905564,-0.91096485,0.5801837,0.5812395,0.03507032,0.3001305,-0.8428925,1.1093149,0.6036715,-0.8816214,0.77082765,0.10752924,1.5880706,0.44254613,-0.77443063,0.20576577,-0.5714,0.7976281,0.2516816,-0.783774,1.9317088,-1.7359308,-0.6034915,0.62886673,-0.7451528,1.1273024,1.4167137,-0.6130507,-0.23156284,0.42807114,-1.3043486,-0.4093688,-1.1128561,-0.016389873,0.3772453,0.39093152,-0.6327128,0.55300945,0.46277237,-1.6221961,-1.043453,-1.7171475,-0.57616794,1.0458435,0.073001176,0.6496134,1.690319,0.041360635,-1.2912313,0.48395666,-0.177264,0.16961163,-1.2817386,0.06684373,0.89327484,-0.6015668,0.6254359,-1.1892098,-1.7787749,-0.31595677,0.09199678,-0.8431562
MMRF_1251,1.1913646,-0.6606749,0.32607916,-1.0699054,-0.0014499122,0.5721244,-0.62668777,-0.6020519,-0.19196002,-0.41629028,0.010600725,-0.2412203,-0.2933424,-0.44837454,-0.58416265,0.6876959,1.2223551,0.27391213,-0.24170306,-0.64344734,0.062494703,-1.9975939,0.83664256,0.57434464,-0.8253652,-1.2683165,0.5775236,-1.0494283,-1.7994418,0.7818113,0.2813046,1.9264057,0.65420395,-0.42311147,0.42714477,0.9674092,0.27566355,-1.3700707,0.5496552,-0.5659268,-1.1887978,-1.6824644,2.6233246,-0.043836173,0.4144889,1.6078776,-0.118955255,-2.2556226,-0.6048816,0.41598815,-2.053238,0.06966188,-0.028728336,0.36048892,0.08853173,-0.66557616,0.63509667,2.025017,-0.8556835,-0.2146855,-1.1465747,-0.787008,-0.50010896,0.19980414,1.0780412,-0.9059084,0.7745926,0.29336655,-1.898035,0.30315214,0.29617897,-0.73438233,0.7997486,-0.7046905,-0.7800491,1.7042981,1.2122732,1.9653317,0.546493,-0.43349937,0.6749265,0.871472,2.8359284,-1.2683016,1.5247332,0.011693518,-0.3596406,1.9727597,-0.006564677,0.47760215,-0.12990673,-0.49473143,-1.0535474,0.04195771,-0.25497392,0.10500883,0.4865311,1.6802893,-0.14804544,0.8896368,-0.06584758,0.8545694,-0.7295445,0.19931881,-2.8754287,-0.261698,-0.43682632,1.8158292,-1.1708045,-0.52172357,-1.3190145,0.55005187,0.055365663,-0.60840636,-0.8336439,-0.47322935,1.1691622,-0.04516427,1.8284402,-0.71556616,-0.0575994,-0.4357467,0.45412958,-0.5465644,-0.4526655,0.79053956,0.89678574,-1.5940348
MMRF_1328,0.2707874,0.06716656,1.7136781,-1.6227854,-1.313592,-0.29089355,1.2991041,-0.42837137,-0.5810906,2.102049,0.2589066,2.0910604,-0.029044308,-0.571912,0.9042016,1.0572808,0.8233239,-0.21413729,0.622196,0.25435153,-0.15581045,-0.9554206,0.84225714,0.04068476,1.2934369,-0.58114535,-0.029847177,-0.7888042,-0.43515304,0.24167936,0.92952377,-0.86657083,-0.14427231,-0.9409636,1.0709875,1.4950445,-1.0307547,0.45832142,-0.09697967,1.2478106,-1.0677562,-0.16092741,0.16131848,0.4702475,0.56966305,1.0405712,-0.24061,-1.0822327,0.20458993,1.8455158,0.62002176,-2.2595246,-0.6444453,-0.80809885,2.1876822,0.93347865,-0.8897228,-1.1569041,-1.5733709,0.42538,-2.9034274,1.0451835,1.2586666,-1.2454414,-1.0755029,1.1788768,-0.10820277,0.37561166,0.103552364,-0.09974675,0.19036092,-0.77589,-0.8014146,-1.6814183,0.016547045,-2.1675797,1.2654412,0.39816263,-0.69780856,0.24053642,0.36348897,1.8193702,-0.49597043,-0.37496358,0.16068077,1.3929634,1.112016,-0.03530834,0.24275933,-0.14197552,-0.921297,0.25010532,-0.28725043,-0.5238292,-0.5348352,1.2081518,-0.7518561,-0.19809385,-0.97269696,1.2010043,-0.007110037,0.05327596,-1.5648364,-1.2064717,-0.5114238,0.8866886,0.4495086,-0.14429857,-0.36866874,-0.17838365,1.661992,0.7991469,1.6697253,0.38175252,-1.6521441,-1.1321243,-0.7670519,-0.07582099,0.44364548,-0.57134324,0.8662997,1.012135,-1.1279532,0.27653703,-2.7585025,-0.86213344,0.29045445,0.44647038
MMRF_1171,0.5358644,0.49607068,-0.018347884,-0.760133,-0.18570437,-0.85091174,-0.43195546,0.18435827,-0.07566585,-1.9912647,-0.28348845,0.64816886,-1.0834813,-0.4477818,0.91511863,0.40777683,-0.86018753,-1.9084865,-0.16853923,1.1528604,-0.3309547,0.0946139,0.8496616,-0.22929169,0.15806016,1.8496578,-0.5014041,2.040243,-1.5326053,-0.53128403,-1.4219604,1.3423389,-0.38338324,0.68655205,-0.35470024,1.8191365,-0.93660843,0.8718235,1.1666425,-1.1009542,0.7666206,0.72946894,0.24662635,1.0744345,1.2086079,-1.912472,-0.9236001,-1.2743046,0.28991172,0.48461533,3.2390602,-1.3073512,0.11607159,0.6874186,0.64923793,0.6533215,1.0082077,1.585019,-0.30303636,1.9826834,0.23448938,-0.85142577,-0.48857647,0.35499293,-0.7346222,-1.3517025,-0.08932139,1.1764121,-1.1502223,-0.30579948,-1.922531,-0.30148792,0.53813994,-3.246669,0.29530242,-0.7613199,0.05995094,0.36151135,0.31099528,1.0931004,-0.9834333,-0.44839638,0.82406825,-2.2220259,0.9308971,-0.92807734,-0.4876513,1.0990222,0.51934355,-0.84192336,-0.6979999,0.40711552,0.9626217,-0.42211518,-0.025495203,0.25209716,0.9425585,-1.6416805,-0.2051751,0.43090147,-0.7466135,-0.19893686,-0.4915087,0.8607475,-1.5897949,1.5873828,0.3952318,0.8703405,-0.26621133,-0.778763,-1.1628728,0.16932864,-0.4052162,1.6685444,0.48718706,-0.47242028,0.8708231,-0.28933802,1.0121922,-0.7990361,-0.28150845,1.0301449,-0.67938596,1.0664457,-0.3963237,-0.00020358851,0.6769344,-0.6231574
MMRF_1354,-0.082900025,-1.0202589,0.5927166,1.483252,1.4901057,-0.9708516,-0.5196654,0.14607269,-0.9417719,-0.47919673,1.5946023,0.28784698,1.1576616,-0.49980646,-0.27722213,0.18136676,0.2802961,1.8477442,0.030581504,0.28659618,0.8144994,-0.027989589,-1.0975146,-2.7900453,-1.9893303,0.5949935,1.7160552,0.6734464,-0.40325582,0.62201047,1.7744405,-0.60730743,-0.019041916,-0.5372719,-1.0360136,1.2809043,-0.9909869,1.7276626,-2.0287378,0.9782812,1.3267068,0.5619787,0.05580032,0.7220061,-0.029044315,0.5793731,0.44347325,0.4898526,0.2462927,-0.2638599,0.26088655,0.003837905,-0.74165386,-0.82941204,0.78880936,-0.9204598,0.3723805,0.44361684,-0.562991,1.1436179,0.24822937,0.09450558,-0.96314216,-0.64755064,-1.2139254,1.0604117,-2.8657405,-0.5599428,-0.66452706,1.8396057,-0.9238579,1.6136528,0.6034757,0.24981052,1.8539532,-1.0229089,0.8766819,0.26257887,-0.38160184,1.7060206,-0.16969757,-1.0144563,-0.14704655,0.21977644,-0.38744617,-0.20827703,2.2925375,-1.3241326,0.53596264,-0.58239007,0.1622615,0.872314,-0.06688983,0.5931134,-0.041859657,-0.042272232,-1.3205462,0.38798243,-0.32816145,-0.101158775,-0.6624504,-0.50610447,-0.03694371,-2.2144792,1.7001942,-0.9450776,-0.5171285,-1.6895409,-0.11260775,1.5836663,0.9893435,-0.2766706,-1.1790664,-0.3024272,-0.94730574,-0.24758267,-1.4348077,-0.16450338,-2.3032389,0.433833,0.24136253,-0.31295022,-0.27831316,1.010824,-0.4971926,-0.72934383,1.0797515,0.45249978
MMRF_1344,-0.7894102,0.099907905,2.001132,1.3641838,-0.7996495,0.9444641,-0.01099722,-0.7096198,1.783357,0.6277565,-0.08058545,-2.706595,-0.15029594,1.4396572,0.26125625,0.15645628,-0.90874213,0.03179371,-1.1338038,-0.1181052,-1.0762675,0.9439479,-1.1948172,-0.0960373,-0.023085872,0.12291929,0.28514966,1.3134943,0.95747536,-0.23798297,-1.0740075,2.6867619,-0.96341383,0.4184675,-0.3417303,-1.4545462,-0.8799109,0.38966557,0.57086855,-0.017555218,2.7620177,0.67573136,-0.80921143,0.059536625,-1.0677015,-1.9985043,0.3768862,0.8813907,2.1410015,-0.5180519,1.1261437,1.8053404,0.51049274,1.0373079,-0.735075,-0.030628935,0.31380627,-1.281132,-0.52331024,0.75411874,-0.3001031,-1.9379072,0.3904757,0.88420355,-1.201911,0.99238247,0.97688216,0.79248995,-0.6761558,-0.40640348,1.7566025,1.0454727,-1.6154253,-0.6390221,0.2600043,-1.8147264,0.5643367,-1.1473782,-0.9713529,-0.18440424,0.23952296,0.7598157,-1.7201589,0.27016866,-1.5133729,-0.6107206,0.35928366,-0.34694433,0.50581217,0.6419786,0.43785736,0.496109,0.62390196,-0.9073858,-2.497985,-0.4094748,0.016401062,0.55607927,-1.4109586,-0.5884915,0.57190824,-0.6664214,0.9850234,1.0872858,0.9337178,0.7816825,0.3237994,-0.8732481,-0.2521176,1.415394,-1.4817947,-0.28095078,0.24885383,-0.83433867,0.16320917,0.21754323,0.86493367,0.42904696,-0.25751713,-1.0805106,0.97583187,0.47579703,0.55743843,-0.87867874,-0.5350928,-0.59057516,-0.3879355,-0.737504
MMRF_1403,0.6090511,-1.7509022,1.3058103,1.8857149,-2.0654697,0.12387674,0.05263996,-1.1350121,-1.5565901,0.3746024,0.3343539,0.045989845,0.8686276,0.75063413,-0.2160413,0.67054695,1.9099983,1.2873168,1.5540422,-0.84698784,0.63455844,-1.1252178,-1.3791785,-0.01414817,1.1183877,-0.7516516,0.27975518,-1.3057833,0.9823613,1.4678323,0.589852,-1.1604975,0.15969755,0.104023896,-1.0213056,1.1612362,0.2553101,1.1903108,0.49775138,0.66962117,0.8920096,0.29699117,-0.035853285,1.0867734,-0.3618859,-0.77219564,0.24204811,2.0321674,0.24199915,0.51820076,-1.664273,-0.45576507,-1.9142084,-1.2691705,0.7555706,-0.10510289,1.1659002,-1.529541,-1.4610779,0.6032678,0.112330586,-1.2824826,-1.015124,-1.9840285,0.09604409,0.15733284,-0.2780009,-0.12956804,-0.42063347,-0.19271563,0.5828856,-0.43621126,-0.653852,0.30122516,0.13427232,-1.9693625,0.7828077,0.84316254,-0.10128721,0.019896086,-0.32280058,0.4428225,-1.7121139,1.2828708,-0.3481148,1.0861769,0.9619982,-0.9433769,-0.38174164,-1.0781739,-0.5267783,0.5049979,0.8601797,0.11094832,-0.82586837,-0.5670942,-2.2035217,1.4586469,-0.8744236,-0.2882143,0.69642806,0.0022936384,1.1517229,-0.59716636,2.4349651,-1.1079186,1.3419755,0.0070185456,0.3935815,0.38314894,0.33409023,-0.54766834,0.8081074,-2.3098903,0.453594,0.08835717,-0.22889668,1.7680255,-1.2706074,0.3502856,0.48198804,-0.0018519456,1.7632487,0.25144175,-1.0091257,-1.3485972,-0.4155842,-0.02217284
MMRF_1408,0.6346057,-0.40361977,-1.653873,0.13609877,0.8990099,-0.9802293,-1.2254671,0.2205396,0.25044698,-1.7912693,1.0471308,-0.89179045,-1.738394,-1.003221,0.41468498,0.6999439,-0.57977426,0.13616517,-1.2318902,-1.2611761,1.4226925,-1.3548434,0.719959,-0.36039352,-1.0402017,0.58794165,0.39064142,0.17086281,-0.58788687,0.04678997,2.7092915,-0.92141914,2.1133347,0.24043511,-0.3845652,0.96671605,0.884223,-2.0387845,-0.40506005,-2.1554117,-0.32434717,-0.78549737,0.7090032,2.4180021,-0.47107995,0.14486651,0.82980925,-0.560812,0.31432173,0.22747889,-0.9585192,0.024601068,1.0560312,0.5901702,0.8810494,1.374831,-0.8913093,2.017705,-0.22218172,1.3712451,-0.6190883,-1.96724,-1.6560028,0.8955164,1.5611395,-0.78837925,0.9444849,-0.53098327,-1.379105,1.0336443,-1.4503297,-0.6828689,1.1086186,-0.56370777,-0.56058896,1.0136467,-0.9479897,0.27667594,1.0143783,0.25546238,0.28502312,-0.6094395,1.5238031,0.09181356,0.86572486,-0.18945248,-1.3393879,1.6247683,0.49700204,-1.0875463,1.2018992,-0.9115893,-0.6061221,0.5480508,-1.3138624,-1.223396,0.830506,0.16286077,0.22218578,0.5206961,-0.97279125,0.85864496,-0.06593093,-0.45522112,-0.96890336,-0.01775705,-0.5209079,0.41135654,-0.28859177,-1.3618457,-0.5183578,-1.0389444,-0.5566794,0.94405144,0.53811175,0.8707124,0.686745,0.24230134,1.4932773,-0.46500298,-0.8876259,0.75295347,0.49324122,0.10222803,1.0097102,1.1412897,1.2684536,-1.0846537
MMRF_1338,-0.5263092,0.26161367,0.060148347,-1.8643318,-0.46974277,1.7682124,1.0346092,0.88790584,0.33550033,1.4628536,-0.6895166,0.72313815,0.35210449,-0.369017,0.1269236,0.4757945,1.0006446,-0.50195354,-0.13500999,1.2527598,0.16512546,1.1823171,1.0629295,0.72544277,1.1835325,0.037875667,-2.2436256,-0.54413754,0.5445681,0.8684213,-0.33217457,1.4664947,0.40342954,-1.0491214,1.3299408,-2.1094682,-0.46618032,1.0511951,0.97663325,0.97494626,-0.13338506,0.05483363,-1.0589608,-1.9899387,-0.66207564,0.14386263,0.37038153,1.069952,-0.74128884,-0.14408007,-0.24741746,0.5889989,0.1483086,0.10863504,-2.547815,-1.3233833,-0.5916289,-1.2435684,0.9139542,-1.9462417,-0.41079274,-0.17377053,1.1502225,1.2046175,-1.4424672,1.5318246,-0.18274325,0.31609133,2.533395,0.09322656,0.9606379,0.59748936,-1.365308,1.5713484,0.10379681,0.5737165,-0.7400377,-0.7720286,-1.132452,-0.90704733,0.51955205,1.0626391,-1.4175979,1.5744584,-0.33968532,0.42355385,1.1903175,-0.015786037,0.37540406,1.703581,-0.84114295,-0.37546375,-0.047057666,-0.7174981,1.5155159,1.9535843,-0.767358,-0.25161228,0.07967688,-0.10763463,0.72696954,-0.39397645,-0.7857946,-0.6189996,-1.2381878,0.3476023,-0.9273181,-0.029365694,-0.58128417,-0.97330165,0.27370638,-0.454928,0.8314071,0.45808342,-0.11841873,0.50622094,0.27893698,-2.6373036,-0.9508621,-0.6628248,1.2659693,-0.2638597,0.55865526,-1.1178815,-1.8767858,-0.7704139,-1.0844244,-0.022411285
MMRF_1342,-0.94002724,0.47479132,-0.40930483,0.4053731,1.525908,-1.5272784,-0.47894615,0.077060536,0.005422624,-1.5501189,-0.62091464,0.4802953,0.58372766,0.15766148,2.244532,0.121672794,0.050838597,-0.9266975,-2.0426183,0.48485327,0.7913866,-0.5485649,-1.7236843,-0.96173894,0.44753256,1.115486,0.15514839,1.3014622,-0.4039376,-0.23586908,-1.098851,0.4575008,-0.33143824,1.3475028,-0.3786261,0.5453956,-0.70137495,0.0619063,-1.8617961,-0.2651545,-0.16924448,-0.26420832,0.6812283,-0.20101346,0.7867017,-2.1429226,-0.24456894,0.80610317,0.25812447,-0.6136394,2.4082115,-1.335116,0.26585713,1.352955,-0.26241812,-1.3103497,0.6724138,-0.7974434,0.79061073,0.9279853,1.9944637,0.74577814,1.0076472,0.27177638,-1.144627,-0.32334128,-2.0440974,-0.43722498,0.11497157,-0.09178885,-1.0150248,1.0110257,0.7510652,-0.94790995,0.5106062,0.7899488,-1.3950015,-1.5603966,-0.36608568,-1.0164206,-0.12412751,0.18142526,0.70815206,-0.8584373,-1.2476509,-0.6234785,0.2788465,-0.87584245,0.56984335,-1.1735312,0.36632025,1.7318434,0.953534,1.6248541,0.12734225,-0.33151916,-0.45080364,-1.4638971,2.001391,-0.8632967,0.335153,0.63161004,0.10536333,-0.25223675,0.46745697,-0.03744048,0.43322557,0.40879822,0.6247275,1.0214615,-0.4010154,-0.65218776,-2.9706225,2.1140237,0.18171485,-1.3036846,-0.051767945,-0.07586595,-0.4877737,-0.4208262,-0.79425496,0.14751337,-0.028271718,0.6167195,0.7852705,0.36763835,1.5534362,2.7795029
MMRF_1352,-1.5907221,1.3075789,-0.53399867,-1.2409472,-0.46980464,0.050298825,1.048673,1.5278231,1.8928434,-0.108053304,-0.94323486,2.1508253,-0.24086405,0.29573455,0.19056661,0.11591031,0.35177612,-1.425494,0.012736841,1.0174872,0.69944954,1.390232,1.2283204,1.501162,0.6503262,1.5559243,-2.4519253,-0.84947795,0.46470952,-0.16537537,-0.44270855,0.7532834,-0.7638244,-0.085666366,1.0667015,-1.7703394,-0.5798356,-1.3827753,0.8499876,0.36022255,-0.44319546,0.08706352,-0.64282906,-0.58807796,-0.38865736,1.3460531,-0.2539779,-0.75810367,-0.52452147,0.83457553,-0.4952915,0.41759947,0.91264486,0.4772993,-1.7729931,-0.8996658,-1.2335756,-0.07923884,1.2547294,-2.3033798,-0.39667252,0.58780754,0.89355296,2.708963,0.15155575,1.4847788,0.65228355,0.5920541,1.7912637,-0.6585614,0.55164397,0.4274358,-0.83612365,1.6467755,0.27744022,1.6661777,-0.51275945,-1.6981136,0.52853775,-0.7779459,-0.6504293,-0.39548025,-0.24817823,0.890394,-0.5955234,-0.26740956,0.18765843,0.82230514,0.16009916,-0.08168388,-0.19044165,-0.41969654,0.766621,-1.2575284,2.3443797,1.2546917,-0.64235395,-1.1530231,0.9957034,-1.0997361,-0.37447917,-0.5826571,-0.41073474,0.5095544,0.056955554,-0.16154483,-2.219412,0.2736334,-0.15054704,-0.78770053,-0.25059116,1.0456787,0.49774832,0.07415524,-0.52363586,-0.20094985,-0.19130222,-1.9413258,0.28526866,-0.77795494,0.9861229,-1.8122828,0.4840821,-1.0513281,-1.0235128,-0.46397913,-0.8542193,-0.2410527
MMRF_1380,-1.081488,0.9109019,-1.9241619,0.11143553,-0.759633,-0.113087565,0.640909,-1.0676012,2.343216,0.008460695,-1.1011792,-0.031448536,-1.4000986,0.14180453,0.655371,0.8368634,-1.2571805,-0.037767984,-1.0284942,-1.3065938,0.24366218,1.4045563,-0.26595303,-0.30326918,0.38175985,0.60788846,-0.5832727,0.39354488,0.5381458,-0.27870107,-0.9523833,1.371923,1.0003526,-1.1194832,1.5881574,0.73327416,-0.8387087,-1.246938,1.0340396,-2.6387746,-1.0066385,-0.5890279,0.40961006,2.6437747,-0.5688951,0.6723086,1.3404049,-1.2778966,1.5662204,0.56705797,0.12273916,0.048820864,-0.10828673,-0.14810187,0.065313004,1.484819,-0.25535113,1.654002,-1.5000442,0.6750571,-1.4601357,0.4731293,-1.4180808,0.6288272,1.552357,-0.76275504,2.0530415,1.4888706,-0.7745084,1.4407771,-1.4387549,0.39223844,0.37765142,-1.5556848,-0.77570224,0.53915083,0.64640194,-0.33475187,0.7029251,-0.274183,-0.6347826,-0.5897813,0.60187024,-1.6527745,-0.2663737,1.1334978,0.19935638,1.8887693,-0.27879295,-0.23764099,0.57865626,-1.0782886,0.17828257,-0.67602843,-1.0048918,-0.93726104,1.767657,1.3379067,0.27382436,-1.0801817,-0.5734883,-0.5754381,-1.5218635,0.21313265,1.0463749,0.38127628,-0.9787097,1.1073511,0.5184322,-1.7177612,0.33956453,0.50966823,0.9633098,0.6155846,-0.014797738,-0.7564222,0.11507636,0.023908658,0.6183414,-0.6288643,-0.662676,0.56314164,-1.6770484,0.1333683,0.7568696,0.5659172,-0.7031993,-0.9605709
MMRF_1389,0.6355885,-1.6267673,-0.5482202,-0.9568268,-0.8768952,0.56948674,1.2910036,0.18085298,-0.24041238,0.20731995,-1.0887376,1.6711286,0.18961479,1.210358,-0.41103834,-1.5994301,0.1340299,-1.0583472,1.2136325,-0.2739538,0.3979183,-0.4907447,-0.15974073,1.9471279,0.78023624,-0.24072766,-2.3656242,-0.2798238,0.0016893675,-1.0047729,-0.6496876,-1.6594762,-1.0242854,-0.48612416,-1.2171208,-0.5582514,0.011673236,-0.27939025,2.7729044,-1.4604808,-0.7898825,-0.4458651,0.84339404,-0.13487163,1.3752079,0.00040522683,-0.30179715,-0.6119527,-0.5429651,0.0894646,0.622943,-1.8159286,-1.1907363,-0.14532015,0.7814821,1.0314019,1.3187346,-0.7535932,1.1167886,-1.4277726,-0.42305183,-0.37381223,0.52829236,0.29673576,-0.06828663,-1.431005,-0.16005892,0.81451803,-0.1552169,-1.1166137,0.9712508,-0.7707863,-0.21891664,-0.81961304,0.047208972,-0.23860168,-0.09620217,3.229768,0.61911213,-1.5730368,0.96882415,0.5196069,-0.88251036,0.5127849,-0.5607343,1.4756277,-0.69347084,0.9390305,-0.46170095,1.8260531,-0.55119926,0.03229111,0.4984504,0.25547177,0.16419302,0.72721934,-0.4604167,0.39854768,-1.5622356,-0.8283093,-1.0127676,0.20308484,0.27061012,0.231105,-1.0648197,-0.360398,2.3060074,-0.22128981,0.14042036,0.5959703,-0.26590896,0.640741,1.0340412,1.5511268,0.06376291,-1.3192487,0.7742447,1.1641587,0.9859456,1.8460045,0.68479955,1.4318179,-0.9146128,1.5493273,-0.24358207,-1.5031006,-1.6837547,0.044862643
MMRF_1388,0.788853,-0.037320778,0.85524094,0.52298844,-0.28271097,-1.321087,-0.28728905,-0.5130042,-0.54170924,1.4116399,0.5073497,-0.83506334,-0.48539478,-1.4589834,-0.9661329,-1.5687594,1.930887,1.5625778,-0.9152163,-0.88614666,1.6155498,-0.08113894,-0.011736229,-0.4539051,-0.54960626,-0.15732133,0.97863936,-1.9286402,-0.5787486,1.6646014,1.4473649,-1.511662,1.6211506,-0.3664231,0.46596867,-0.57019734,0.2587044,-0.84994423,-1.9366305,1.2004195,-0.41344312,-1.1693671,-0.09964117,0.85481054,-0.25919628,1.5707324,0.23094428,-0.4756761,0.7312014,-0.64107186,-0.83439225,0.7123656,0.05218312,1.2538899,-0.15149713,0.13807696,0.59054923,1.0822065,-2.2416158,-0.88893944,-0.7866843,-0.6271488,-1.1544621,-1.1927202,-0.27379203,1.5649287,2.545584,-0.02834385,0.29626012,0.19471288,1.6712724,-0.9323106,-0.40516174,-0.38510823,-1.8289773,0.2160846,-0.13990767,2.1937995,-0.56232315,-0.37598306,0.6784518,1.0009644,0.32416284,0.23069915,0.93606853,-0.5290411,-0.9133771,-0.45797834,-0.3965857,1.2051219,0.18009304,-0.9896357,-1.8810073,-0.9445386,-0.6383725,-1.1775312,2.0132747,0.7149971,0.3573914,2.3053083,0.113290966,-0.21950956,-0.4722121,-1.100007,-0.17339708,-0.28927436,-0.8320131,0.062412757,0.20716096,-0.4289445,0.15207432,0.120736614,1.1937968,-1.6139696,-0.7005331,0.14728875,0.5011481,1.285563,0.11517423,1.0984638,-1.500048,-0.1794177,-0.58553225,0.2809368,0.7349923,1.9029514,0.95652,-0.49835494
MMRF_1395,-1.1469563,1.2614026,-0.68415636,0.2785,0.9400397,-0.17341863,0.039290763,0.98985183,1.895489,-0.5788156,1.262324,0.48126876,-0.2932065,-0.21954815,1.1920302,0.5855021,0.3303224,-0.40129682,-1.2694494,-0.1560273,-0.3617435,0.15066388,-0.90039724,-2.0205894,-0.27880126,0.8211375,0.51664805,0.5767259,0.16808082,0.024834555,-0.26165092,2.5594468,0.2692903,0.637718,0.70055693,-0.3880273,-1.0471424,-0.17062339,-2.5336928,-0.7789419,0.91430914,0.49270388,0.59733623,0.14171873,-0.22090656,-2.5705137,0.3742712,1.0939548,0.3872385,-0.108974844,1.0629003,0.48524755,0.66273165,0.07959123,-0.7968413,-0.24910846,0.10322175,-1.5828501,0.44949856,0.24655937,0.11594099,1.4073071,0.4005835,1.8911219,-1.6779708,0.8561026,-1.835906,-0.52871794,-0.108998604,0.39881313,-0.51740265,1.6476759,-0.049650062,0.018611265,0.8101068,-1.0862873,-0.7666177,-3.1507752,-1.4672816,-0.5762951,-1.154491,0.1875328,0.43026018,0.2948915,-0.32946038,-0.22142431,1.708714,-0.7374318,-0.121281855,-0.9752219,0.45186076,0.5788252,-0.30802304,0.537129,0.56951445,-0.99049634,-1.4345162,-2.477022,1.9535365,-0.8733728,0.9802242,0.8399894,0.28482717,1.4148649,1.3176111,0.66050947,-0.73468727,0.8333714,-0.5781713,0.94257146,-0.111193344,-0.63597465,-2.5609689,-0.13284051,0.72424906,0.3865331,-1.9330989,-0.92490166,-0.66873914,-0.1964988,0.77759176,-0.4895663,0.83790344,0.33386382,0.14549132,0.20601138,0.48150182,1.200733
MMRF_1391,0.36382836,-2.1175303,-0.68299156,0.7749245,0.975884,-0.7943414,-1.1751382,0.42324653,-0.27188385,-0.94216496,0.4838766,0.03246125,-0.10204284,0.34765112,0.38610074,-0.9885235,-0.02865886,0.08764551,0.49539185,-0.015817076,0.4191024,-1.1943837,0.44855556,-0.36152104,-0.15128553,0.5032152,-0.033623353,0.12301145,-0.652162,1.3225949,1.4271188,-2.19791,-2.098393,-0.00090541504,-1.3502192,0.07991197,0.7374149,-2.252709,-0.27005896,-1.4162502,-0.841846,-0.5319397,0.7102895,0.80806196,0.30994537,1.0638397,-2.152242,0.95903534,0.047977127,-0.7093021,0.6076324,-0.66316086,1.2251863,-0.1427096,0.64188355,1.2328885,-0.052249316,1.768435,-0.7459979,0.78336084,-1.3286419,-0.7721406,-0.17335027,1.0419954,2.083522,-1.6965532,-0.57304746,0.0075459527,-2.5056899,0.4587618,0.25508577,-0.021722993,-0.04705692,0.3053212,2.5248823,1.1400654,1.1905336,0.93926466,1.386315,0.046356287,0.1392623,-1.1239192,0.5298915,-0.3165703,-0.2709731,-0.8210339,-0.25211847,1.5716693,-1.2197425,0.12177656,-0.08644762,0.61478204,0.37560028,0.59359646,-0.33762673,1.5587262,0.09549233,1.5680562,0.17035252,-1.3928812,-2.456301,-0.98777366,-1.0334394,0.9062481,0.9524537,-2.1483548,0.7336067,-0.22111627,-1.0609387,1.2829988,1.1905035,1.4361233,-0.033231463,0.44042748,-0.38228086,-0.28573367,-0.27989382,-0.925581,-0.5500337,0.6508194,0.45445746,-0.17862365,0.5157732,0.4774246,0.6731075,0.555907,1.42628,-1.5105201
MMRF_1359,0.5735665,0.00828425,-1.1514093,0.8949484,-0.6342599,0.25785705,-0.17654811,-1.4407902,-0.7157628,0.12097117,-2.2922206,-2.2416928,0.83266264,0.03200233,-0.26790428,0.8358771,0.29170084,1.3332304,0.5664384,-1.2301233,0.4486515,-0.8970028,0.6493997,-0.64153,0.3191175,-0.59488887,0.37894818,-0.28431547,1.4202814,0.75686324,0.22089441,0.4109086,0.28800756,0.84881943,1.258534,-1.8891535,0.8719565,0.800276,0.52287954,-0.30148,0.2739311,-0.28762454,0.07690546,-0.38886142,-0.5345026,0.4035622,-1.0986035,0.52113813,2.3375843,-1.1301236,-3.1414528,2.154781,1.1279308,0.26696825,-1.173174,-0.092324354,-0.14377671,0.12339157,0.8021031,0.32342213,-1.0026397,-0.7843424,-0.20618717,0.7957586,2.6718485,0.3129145,1.0756758,0.09344111,-0.20610896,-0.1586941,0.8925084,0.23481391,0.77577674,-0.37144578,0.39642173,-1.3676068,1.4504756,0.024211343,1.759411,-1.7212443,-0.82382864,0.90151,-1.2769177,2.5985477,-2.0908,1.1558499,-0.49255106,0.9094352,0.43062976,0.58701354,0.6595125,-0.10912566,0.3899313,-0.47296554,0.13203622,0.39879778,0.44360626,1.0445303,-1.7692751,-1.2543269,-0.42197284,0.70098084,1.4287825,0.14068122,-0.9524828,-0.5543146,-1.3364334,-0.031524006,-1.4407533,0.31503734,-2.0668027,0.613161,1.4004878,-0.5160585,0.4154056,0.33986208,-0.54328734,-0.9258817,0.9273588,-0.4077788,-0.09553352,-1.223859,-0.25742272,-1.0685686,-0.5073009,-0.6161902,-0.43238717,0.39406246
MMRF_1267,-0.034862336,0.23900001,-1.140438,-0.48298824,-0.7582573,0.95999753,0.8777553,-0.5628014,1.8535197,0.13602516,-0.6324102,1.512393,-0.5783527,1.5814954,0.069901526,-0.88727784,-1.8091626,-0.2641018,0.32815614,-0.28085795,0.0058104154,0.0441777,1.4037355,0.38898,1.6101493,-0.81864434,-1.3162475,-1.0637623,1.4249599,-1.1313992,-1.1850532,-0.122907296,-0.1301948,-1.1661607,1.2389101,0.086240314,0.17259128,-1.1078414,2.3642697,-2.527178,-2.3163352,-0.6044359,0.6073238,-0.008128043,0.91111934,0.29571784,0.45488474,-0.9156829,0.4296517,-0.024302952,-1.7676283,-0.59769166,-0.24351388,0.3321325,0.24742067,2.2822692,0.57511276,-0.16018474,-0.46585625,-1.7304153,-0.9992439,-0.08349128,-0.76677626,0.79397625,0.6292003,-1.6019509,1.1291689,2.0896018,0.5224735,0.11059497,0.67594904,-0.31005412,0.51776093,-0.64367,-1.9371338,0.5969673,0.74719876,1.9782796,-0.4489104,-0.9113376,0.6154822,-0.23367755,-0.7122861,0.014054723,-0.43742096,0.48807,0.27004665,1.2482189,-0.9027467,0.34590027,0.06930718,-1.3240633,1.1634636,-0.16621299,-0.19317265,-1.387358,0.27175376,-0.48969528,-1.3302346,-1.3838499,-0.32087952,0.12203188,-0.8119454,1.6864723,0.5327771,-0.08581507,0.47577432,0.7897792,1.6253535,-1.4338826,0.7024578,-0.041889478,2.0227847,0.55204844,0.06297748,0.34182408,-0.5898483,1.3895042,0.7118036,1.2204881,0.97227544,-0.3274902,-1.5145425,0.4644519,-0.55609596,0.6368991,-1.5657984,-0.6475401
MMRF_1274,-1.4039034,-0.51232517,0.41990048,1.1585921,-2.2251034,0.6634089,1.454107,-0.92355716,0.26481795,1.5337154,-0.73034203,0.6353497,-0.057375528,0.16013828,-0.04986398,1.0704918,0.8572404,0.8479553,0.8045235,-1.0151515,-0.029642649,0.11021334,-0.86890584,-0.23360384,0.8412933,-0.122861154,-0.38603666,-1.5955822,1.3821781,-0.2173951,-0.1257862,-0.12877136,-0.32431483,-0.1964011,-0.13235813,0.4817488,0.5127662,1.9430044,1.0434417,0.6452941,0.3655051,0.6306891,-1.211234,0.10366458,-0.17635095,-1.7145332,0.5174682,0.8727009,1.0564249,0.47715238,0.5376874,-0.8670964,-1.5424168,-0.41661763,0.33794963,1.5123663,0.6247551,-2.5170076,-1.0120431,-0.89804333,-0.7333657,-0.6190511,-0.63196224,-1.0175467,-1.4630675,0.32190293,0.5735761,0.8696754,1.2263175,-0.92247605,1.6193317,-0.98765594,0.40675613,-0.093338504,-0.8904461,-3.037525,1.0185279,0.29055578,-1.4118102,-1.0094557,-0.24488388,1.671777,-0.8318994,1.0765964,-0.75289494,1.2199501,1.3995811,-1.4359595,0.21610339,0.5784535,-1.179626,-0.028502084,0.30547988,-0.511078,-0.3533848,-1.4303887,0.55781347,-0.29139245,-1.8505177,1.1910775,1.8304878,0.19586262,-0.29682046,-0.32986474,1.8436468,0.44228777,1.1319609,0.21374428,1.6577847,0.6347902,-0.65834695,-0.45708188,0.50165766,-2.2799244,4.4297427e-05,0.89103013,-0.3625942,1.4328209,-0.07732157,0.44450578,-0.19984667,0.95933217,0.30770543,-0.051189587,-1.7196747,-0.8429525,-1.1055855,0.70371825
MMRF_1037,-1.8671361,3.4182026,-1.0896652,0.76382643,-0.19653133,-1.5811021,0.61284244,0.49129093,1.1665467,-1.0153722,0.23813751,1.075516,-0.49160594,0.31817093,-0.14736395,-0.032705035,0.5985239,-0.32564333,-0.10408824,-0.012599609,0.7798953,0.51314163,-0.4380482,0.84506375,-0.43554705,0.9261302,-0.7030909,-1.5553225,-0.2905352,-1.0346045,-0.20047684,-0.13701884,0.82598674,1.3505853,1.8570211,-1.0519825,-0.30497128,-1.384137,-1.3848441,-0.1222063,-0.912045,0.5153848,-0.8252389,0.33179924,-0.5718041,-1.3524796,0.17185384,-0.64090663,0.028603904,0.5331688,0.9211661,1.1757479,0.56848127,0.85588676,-0.68190706,-0.07458398,-1.6987181,-1.3471779,1.2685239,-0.15288441,-0.087300286,1.3729314,-0.7070913,3.118295,0.10522749,2.0261154,0.27978453,-0.2873457,0.2657337,-1.1893972,0.20919462,0.017223625,0.43851587,0.40425083,-0.93952304,0.7608512,-1.3673661,-2.2974494,-0.677191,-1.9113528,-1.0585777,0.040356524,1.0482563,1.0949795,-0.013699502,0.31529164,-0.16953753,0.11855017,0.30729768,-1.2340395,0.7567027,-0.6269152,-0.70931065,-0.1569347,1.7235812,-1.0003347,0.17821878,-1.5893503,2.2812753,-0.10286927,0.7788749,1.0870733,0.5036215,0.31741828,1.4944476,1.1270558,-1.2174952,0.3979869,0.19930743,0.102915846,-1.0201586,-0.14049844,-2.084763,-0.46171054,0.293049,0.42903164,-1.540204,-1.3684318,0.44614783,0.37839904,-0.6404124,-0.28839245,0.17734706,0.00888381,0.83056945,-1.3737008e-07,-0.08649744,1.5530165
MMRF_1033,0.546151,-1.5422492,0.011088478,-1.1119919,1.6012477,1.0795941,-0.39731076,-0.701796,-1.440923,-0.95702577,0.8149792,0.84354055,-0.15631698,0.32907492,0.9271714,0.58028835,-0.37233198,-0.023505189,1.0063065,0.6376696,-0.1357514,0.01619673,0.6099065,1.4175557,-0.34617665,-0.59099877,-1.0081439,-0.22508664,-1.8964982,-0.19393045,0.045252237,0.2583858,-0.02658472,0.028206691,-0.15548745,0.18981792,1.2780079,-0.5695253,0.37971854,-1.7281871,-0.026904268,-0.8044089,0.43537796,-1.521019,0.6132748,1.3445905,-0.051954083,-0.67161083,-1.5866703,-0.8387992,-0.526888,-0.6910468,-0.077341326,1.1083207,-0.0016874969,-0.74109805,0.74266046,2.6449282,0.43141797,0.21756122,2.4466574,-0.021052245,-0.45242134,-1.5911313,2.6180623,-2.2275887,0.27847916,-1.1454847,-1.0913975,-0.523378,-1.7682756,-0.46035865,0.26507774,-0.4219843,-0.20914857,1.9682041,-0.46122488,2.2271826,0.82349044,-0.2587463,0.5660286,-0.47455823,1.5077903,-1.808194,0.9656474,-2.24186,-0.7211323,0.9116647,-0.33610898,0.394546,-0.52873284,0.5316739,0.10647289,1.1661391,1.1262261,0.50491154,1.2904415,-0.92941713,0.9897797,-1.8273087,-0.88789433,0.78794897,-0.8566577,0.7034065,-1.9305253,-0.23496723,-0.0021616193,0.97300154,-0.22383486,-0.09643146,-0.34322006,0.5427806,-0.88760626,1.5035473,0.21337368,-0.714762,1.2269983,0.436583,0.18213008,0.91229033,-1.6233214,-0.92665464,0.77517986,-0.9889048,-0.23158279,1.0067154,0.5424887,0.013350571
MMRF_1031,0.8694809,0.8273747,1.7941676,1.5785962,-0.5601805,-1.4613485,-0.78654015,-0.08679589,-0.3225321,-0.035043135,0.98178,-2.44434,0.44642884,-0.16229649,-0.91206884,0.000552997,0.724523,0.6302764,-0.041427217,0.1903616,-0.18633552,0.46003008,-1.9057618,-0.056562163,-1.6901237,-0.8536052,1.845041,0.8573352,0.5697883,-0.5667763,-0.8596779,0.048098832,0.012842954,1.6289514,-1.6142803,0.9057978,-0.3159839,1.9673055,-0.8748974,1.2386272,1.0635345,-0.5066407,-1.2038544,-1.3024095,0.61320335,-2.7243638,0.7959095,1.020922,-0.21041663,-0.492454,2.0030062,1.0439323,0.4588124,0.77040744,1.119726,-0.98937356,1.143213,-0.6250962,0.057070125,0.76078737,1.6171649,0.28942597,0.08873512,-1.8993676,-0.26385978,-0.29141006,0.031352244,0.51732457,-0.39009625,0.015967153,1.0582008,-0.03831996,-0.49315685,-1.5047389,-0.8295224,-2.065606,-1.0202379,0.34667873,0.45258698,0.00198384,1.0682551,0.032861106,-1.2189925,-9.769574e-06,-0.17373285,-0.45595124,-1.2080442,-2.9781582,-0.2351834,-1.4519601,0.6321413,1.1959038,-0.26159123,-0.006132194,-1.7015823,-1.3090727,0.63074964,0.24157667,-1.3525102,0.34102213,0.69596136,-0.3657724,0.9873188,-0.068725154,-0.7407365,1.5132604,0.53395826,-0.9156546,0.69980043,0.6406786,0.44481817,-0.68338,0.23296423,-0.52970934,0.54087883,0.22631091,0.17561756,1.1715231,-1.6717509,0.09622232,-0.25676227,1.0386236,0.034696132,1.5721368,0.35401115,0.14033633,1.317256,0.6449396
MMRF_1068,-0.5747394,-0.9224205,-0.81034964,1.0283694,0.4357685,-1.7340518,-0.16611165,-1.1664029,0.48829487,-1.6567125,0.46930325,-1.1623998,-0.8767631,-0.38027588,0.7817004,0.36904025,0.06382658,0.9312845,-0.12874365,-1.4857572,1.3314661,-0.8084536,-0.8867601,-1.1022104,-1.6711684,0.9159782,0.88617724,0.6525,0.025476342,-0.7969119,1.4556525,0.925014,1.0489094,0.08786395,0.024216333,0.8358429,-0.5762562,0.12762111,-2.2231028,-1.0963643,-0.0367209,-0.38505498,0.7462802,2.6698346,-1.5638915,-1.3323494,0.08071702,0.648302,0.9909573,-1.0862166,0.23963463,1.3119111,1.3830798,0.64763355,0.40011132,0.37524334,0.6846461,2.0396068,0.03318914,2.675206,-0.7083121,-0.93307805,-1.3909415,0.6367663,0.6908227,0.39411297,0.124770105,-1.5224613,-2.563476,1.0722584,-1.8199408,1.3298619,-0.6463998,-0.91007674,-0.7906028,-0.9365003,-0.3447947,-1.4947664,1.1408854,0.73860425,-1.0887532,-0.2539184,0.592646,0.31450504,0.56459016,0.52235407,0.32939166,0.8409162,0.3241747,-0.9152172,1.0983175,-0.04769949,-0.6804725,-0.091797955,-1.6961888,-0.7058517,0.08367099,-0.2536083,1.4210974,-0.43943366,-0.34495997,-0.6833069,1.1728836,-0.8908998,1.3479052,0.6065001,-0.3836849,0.114612274,-0.16114983,-0.38735318,0.41280934,-1.3201572,-0.81118256,-0.7246989,1.7696837,1.5646105,0.38623935,-0.5195834,-0.6182664,0.12485168,0.23555563,1.3163303,0.08279274,0.50112265,1.0791893,1.0759625,1.049073,-1.1483703
MMRF_1078,-0.30934504,-1.5910027,-0.16175555,0.950651,-0.48159972,-0.8421817,0.8048881,-1.9974765,-2.2126522,0.798851,0.86014247,-0.21487528,-1.0021346,0.08967592,0.2612588,0.89731675,1.119269,2.594076,2.0830925,-0.9388159,-0.19686699,-1.4143636,0.0048254137,-0.5957178,-0.7131903,-0.042502515,0.52150714,0.20719644,-0.6860208,0.56716967,1.8371904,-0.9289918,-0.22682442,-1.3246498,-0.41696262,-0.022718012,1.6921793,-0.03843021,-0.871976,0.18603845,1.1305356,-0.57855374,-0.27224645,2.052334,-1.7608232,1.3680556,-0.49502602,0.6899583,0.95828724,1.4511462,-0.78862345,-0.6815605,0.40201226,-0.9522303,0.2534573,0.2851528,-0.8225073,-0.15904942,-1.0853958,1.1485832,-0.113940015,-0.10104969,0.17636193,-0.8158898,2.3285377,-0.57100594,1.1714545,-0.75705385,-0.62869674,-0.172016,0.98871195,0.1625377,-0.99461156,-0.6630211,1.6464084,-2.3052328,1.3752832,-0.5340624,0.059570245,-0.85831606,-0.85342306,0.25021258,-0.43792182,1.8859822,-0.9115821,0.726691,0.49111354,1.1058251,0.10158467,-0.41630322,0.9600689,-0.69741035,0.252869,0.5449034,-0.69249773,1.1056312,-0.48720187,3.0601666,-0.87183386,0.19626464,-0.69717515,0.11811368,0.12102864,-1.6444266,1.2500608,-0.72679263,-0.2895586,0.8204361,-1.6711009,-0.36047447,0.3647814,-0.037492137,1.558392,-1.7793407,0.26346186,-0.5337128,-0.908778,-0.57947564,-0.51647747,0.39400384,-0.05488247,-0.36129168,0.46233058,1.4992671,-0.1506395,-0.69899565,-0.24220723,-0.7174306
MMRF_1086,-1.1670182,1.2051548,-2.2176633,0.15663092,0.64017314,-1.3490926,-0.18166576,0.13458312,1.8223791,-0.5992565,0.61877185,-0.37621754,-2.149405,-0.82293355,1.0795958,0.19108787,-1.0039966,-0.29336756,-0.74581987,-1.0021199,1.3596227,-0.7504889,-0.003048494,-0.15841918,-0.9008498,1.7950716,0.2811462,-0.5087063,-0.65580636,-0.32488033,1.220973,0.33806026,1.2625455,0.15231681,1.1687262,0.56654495,0.007854551,-1.9800884,-1.2937481,-2.0088387,-0.6710736,-0.30991018,0.15768069,2.6929302,-1.2064095,-0.72109365,0.024982035,-0.19500253,0.37788102,0.8589488,0.5332414,0.6373169,1.2032197,-0.03821395,0.4339917,1.685582,-0.6076132,1.7590792,0.013195667,1.5825201,-2.3737576,-0.66880965,-1.5953898,1.4642311,1.0629131,-0.13277179,0.5038655,-1.3713143,-1.7510579,-0.22673324,-1.2039975,0.25133452,1.1054169,0.49228036,-0.59174854,0.55507976,-0.5811173,-1.3468139,0.64762545,-0.7001674,-0.23832808,-1.0409609,1.8285633,0.38999826,0.40977556,0.4112804,-0.52367705,1.7600797,-0.30832568,-0.5322124,1.0050141,-1.1713767,-0.6521954,0.3760861,-0.5000436,-0.8075479,0.8857609,-0.99441016,1.2334394,-0.60915095,-0.47973108,-0.31876993,0.23573616,0.42247072,0.57478803,0.96824056,-0.5928206,0.28303033,-0.3182276,-0.6549473,-1.0434134,-0.90658885,-1.5557191,0.0064111375,1.407759,1.3452603,1.4403119,-0.31232357,1.5176765,-0.59703743,-0.16572277,0.7922923,0.58259887,-0.8312282,1.357781,0.80141014,0.6723048,-0.74588335
MMRF_1082,1.728772,-2.0541325,0.5001375,-0.15389206,1.3552996,0.29501584,-0.8259443,0.32680178,-2.9881177,0.23341732,0.6229108,-0.10235897,0.32009858,0.6934648,0.7092654,-0.90590036,-0.2091674,0.36802393,0.72258824,0.23774749,-0.15283822,-0.59778446,1.241299,1.3449669,-0.7690077,-0.7842431,-0.46715027,0.5313767,-0.69495934,0.06603176,-0.028715212,-1.1578181,-0.6858084,-1.5285875,-2.529904,0.054877173,1.1405785,0.814925,0.02951428,-0.49029046,0.15893276,-0.8803863,1.1858708,-0.007633084,0.25116292,1.3448782,-1.0233994,-1.1236894,-1.0031652,-0.54610217,-0.23637798,-1.4045881,0.55703115,0.03016726,0.89079535,-0.82047975,0.4785589,0.99708664,0.14104016,-0.51849365,2.1061685,0.2159301,-0.35137925,-2.798584,1.9117283,-1.6705661,0.13853945,0.26085684,-1.2852528,0.7075497,-0.8191981,-1.7447057,0.8702433,-0.89759266,0.39597848,0.62749803,0.5152305,2.492147,0.44314957,0.07055278,0.3572786,-0.19026333,0.56934536,-0.7008495,0.87074506,-2.1127641,-1.5793567,0.12655485,-0.055466726,0.928225,-0.965873,1.0511214,0.158432,0.2525051,0.5376885,0.6235841,0.55392635,0.8632829,0.08905717,0.3195678,-1.4452194,-0.4345889,-0.4835766,-0.6272785,-1.1238705,-1.6085997,0.08598337,0.38628823,-0.52761424,1.6624675,1.1071644,1.0451679,0.2961696,1.2993715,-0.048144512,-1.7929546,0.07033449,1.9853977,0.016680954,1.3186572,-1.1368679,-0.0942437,0.15113653,1.235662,-0.20107916,1.0989671,-0.12577733,0.36634052
MMRF_1092,-1.6075867,3.1909835,-0.7154977,0.41310632,-0.41650608,-1.77433,-0.31334257,0.30251336,1.2136391,-1.5227902,-0.017102743,0.4073931,-1.1570119,0.0955717,0.5435989,0.36590743,-0.16618755,-0.28662744,-0.50836277,0.19618098,0.22674161,1.4770799,-0.17973936,-0.7973479,-0.39641386,1.7330772,0.5881374,-0.38462728,-0.59139985,-0.6702794,-0.6480004,1.2763344,0.19624308,1.1293105,2.066989,0.33242294,-0.8947713,-1.0815628,-0.88155746,-0.97976834,-0.067735545,0.09999196,-0.8967164,1.4836311,-0.5761802,-2.2187898,0.22293437,-0.08797344,0.5881186,-0.100220256,1.6037474,0.8644306,0.69920987,0.13970882,-0.932025,-0.02936037,-1.2783229,-0.4509243,0.09862162,0.28085577,0.5756953,1.826016,0.12153041,1.4956177,-0.20645522,1.1410948,0.013702448,-0.21779045,0.17404164,-0.47745544,-0.79203194,1.7880297,0.44687867,0.09864646,-0.0496836,-0.19707341,-0.7589878,-3.3085868,-0.50521165,-0.09776564,-1.3936253,-1.1628104,0.6364955,0.39452335,-0.1161343,0.099471934,0.22823685,0.094453156,-0.107038364,-1.9602642,1.0479505,-0.8681757,0.80512655,0.2467102,1.1859229,-1.7849572,0.19839664,-1.7930999,2.6861851,-0.54535776,0.8055538,0.36795247,0.03943667,0.73944336,1.381307,1.309482,-1.2906926,0.5617434,0.6581406,-0.5688591,-1.1680912,-1.052007,-1.711261,-0.3290204,0.98037344,0.3523653,-0.92449695,-0.8844121,-0.68173325,0.31389108,-0.4192428,-0.31753096,-0.110516824,0.0018695835,1.4555794,0.81116617,-0.12980756,1.6357406
MMRF_1325,-0.19444546,-1.2727778,0.34715995,-1.3952613,0.1073165,2.106478,1.1779473,0.07539339,-1.1126788,0.52535814,-1.2192966,1.5936868,1.611263,0.9494919,0.90924394,-0.7472929,-0.6992834,-1.3178248,0.97751284,1.3206317,-0.11174643,-0.47972494,-0.7111573,2.1726382,1.3196532,0.18845485,-2.7154052,0.78713846,0.22591478,-0.4178313,-1.4152654,-0.68166614,-2.5725875,-1.0281781,-0.21103589,-1.4891303,0.9376099,-0.25671583,1.4761562,-0.3940522,-0.015240559,-0.71084666,1.039097,-1.5985215,0.3375975,1.4215417,-0.72462976,-0.25785583,-0.9810429,-0.16606423,-1.1981324,-1.0694067,-0.3545171,0.7956142,-0.974029,-0.51293516,0.83158123,-0.78575313,0.8308985,-2.0502582,0.86206263,-0.38124934,1.2459688,-0.65647006,1.1282035,-1.0744656,0.41605687,-0.30598983,0.40773997,-0.567366,0.7315446,-0.6335112,-0.60904,0.81933224,0.56556296,1.7584502,0.52981216,1.9266609,1.0726553,-0.8345066,0.8579721,0.621016,0.912756,0.6634304,-0.63102126,-0.23792054,-0.898948,-0.9555449,-0.60179013,1.6954424,-0.6161917,1.5731498,1.4540491,0.16137467,0.990463,1.0909902,-0.63387924,-0.16689365,-0.46169358,-0.276487,-0.12943956,-1.1486819,0.017369423,0.42529976,-1.21188,-0.7967864,-0.4979432,-0.6982899,-0.58587325,0.9346503,-0.13293271,0.3924398,1.6535604,0.8227384,-0.9324979,-0.7612631,1.2657557,0.276355,0.9755783,0.49347964,0.7300004,-0.9504866,0.6913657,-0.3828227,-0.6261972,-1.6218452,-0.057338625,-1.2847632
MMRF_1364,-1.1634824,1.7541244,-0.61694247,0.3213565,-0.29850957,-1.3788345,-0.7433368,0.56845087,1.5931438,-0.92892224,0.95679814,0.08492975,-0.94386786,0.29359645,0.40732163,-0.11871074,0.32460478,-0.3081796,-0.67256737,-0.36409366,0.08263429,1.1804376,-1.3731011,-0.12078746,-1.2274299,0.9952851,1.0812752,-0.8051336,0.23063181,-0.99145085,-0.37339124,1.4708736,0.45312184,0.85414666,1.3168188,0.0040799417,-0.67876786,-0.7171317,-2.1270432,-0.6513836,0.9486227,0.23274359,-0.9180354,0.87676674,-0.011230816,-2.6481206,0.5004316,0.9673485,0.26039317,0.3753079,1.6817253,0.7187482,0.60618424,0.33947438,-1.1915164,-0.014230254,0.08178426,-0.63297915,0.7024599,-0.009258175,0.6396898,0.16041677,-1.0646975,1.3473172,-1.2276375,1.6928738,-0.79770374,-0.23345149,0.17329775,0.021461718,-0.010199738,1.2655474,0.10357802,0.26504582,-0.20464148,-0.61886334,-0.5254521,-3.4104133,-1.1476678,0.30777773,-1.296258,-0.6028902,1.007984,0.94584465,-0.6648939,0.24245153,0.758738,-0.93013704,-0.53935033,-0.83055496,1.2027653,-0.4150703,0.87035835,0.18653722,1.2608043,-1.9890786,-0.6457956,-1.5847985,2.591349,0.17920378,1.0042444,0.16469133,-0.010811402,1.174953,1.678416,0.4297683,-0.8542107,0.31121036,0.8622482,0.5219898,-0.83450985,-1.5503241,-2.0301743,-1.7048557,1.4051354,0.64862823,-1.0315087,-0.4746954,-1.4918813,0.6733605,0.46276638,-0.70362747,0.8337676,0.44900003,1.5781662,0.9975766,-0.016823683,0.7118484
MMRF_1383,0.5599827,-0.93159664,-1.9847641,1.7131543,1.2872034,0.5874811,-1.4060118,-0.16562378,1.4501323,-0.7099764,1.5890638,-0.60297847,-1.5949895,-0.4914078,-0.41547334,0.52658963,-0.8943354,1.2377499,-1.4411844,-1.8870416,0.44239601,0.19371879,-0.59841853,-0.14295417,-2.4092622,-1.3674366,0.94131047,-0.4007322,0.16972846,-0.36212,0.83052915,0.17060743,1.7852187,0.38005218,-0.2388128,-0.5629657,-0.0011243895,0.40619093,-0.90419143,0.17764296,-1.1347781,0.053207405,-0.47329083,1.2156698,-0.5172931,-0.8637498,1.1848437,0.58060116,-0.13902418,-0.097389676,-0.18966246,1.8309976,0.8044626,-0.42040136,-0.13982026,0.7231999,0.6513975,0.67127156,0.21162403,0.63794035,-0.6000028,-1.7184029,-2.3931248,-1.1558301,0.7499654,-0.9016281,0.20330794,-0.15076987,0.02501188,-0.18589446,-0.56496227,-1.0447506,1.5179381,-0.015099919,-0.518849,1.5415416,-1.2460856,0.34352115,0.50306773,1.2567099,-0.048299946,-0.24494445,1.0246534,-1.8370146,0.08240424,0.24687204,-0.45833164,0.5367183,-1.0839844,0.6623509,-0.015383454,-1.607712,-1.7217953,2.3804913,-0.27241093,-2.1577904,1.0385718,-0.93313175,0.3435925,-0.7466579,0.34056467,0.6235819,0.14088218,0.49704924,0.47551367,-0.90345836,-0.3689091,0.122742854,1.0757626,0.15038821,0.71195555,-0.32507443,-0.9330352,-0.4433193,1.3350209,1.9723775,0.36746615,2.3234167,0.2138073,0.6952553,-0.30802342,0.53260046,0.29992342,-1.2132756,0.7218335,1.9513179,0.9160258,-1.3076453
MMRF_1377,0.0016935728,0.40517208,-0.35313466,0.34039336,0.79293084,-0.789682,-0.62375635,0.16831493,0.766545,-1.9021014,0.9284392,-0.7163253,-1.6713712,-1.1044021,-0.36823475,-0.19767204,-0.60986865,-0.7280126,-0.61818105,-0.070551686,0.45863384,0.368074,0.98211116,-0.46103755,0.15366209,1.2868727,1.4647068,-0.67845654,-0.68250006,0.43913347,0.9898969,0.6208236,1.9248332,0.6288407,1.1927524,0.58357036,0.10349714,-2.628276,0.13447319,-1.6295947,-0.73953205,-1.2096698,1.1723653,1.0538396,0.26190922,0.11378719,-0.26376793,-1.1907713,0.26046404,-0.91676533,-0.018134438,1.3165377,0.52810043,0.89065725,-0.33567908,1.3627663,-0.29449794,2.4351137,-1.252,0.7946512,-1.1817385,-1.65488,-1.7499521,0.7584478,0.20981443,-0.6594221,2.6098723,0.13116266,-1.3842652,0.39872068,0.0534999,0.2488073,0.7874609,0.71602774,-1.3412292,0.8891251,-0.008230265,-1.0905075,-0.2590586,0.25928286,-0.075240254,-1.8107487,1.0751865,-0.7594637,1.7240415,-0.41191724,-1.2002121,0.8059891,-0.546723,-0.4733304,1.3426148,-1.2971321,-0.43279126,-0.89599735,-0.009471606,-1.2194315,1.1532758,0.5318336,1.2403495,0.7478892,-1.2243595,-0.08260447,-0.59817344,1.0763638,-0.5892835,0.02080303,-0.614383,1.8760164,0.24241987,-1.1031653,-0.6341067,-0.5530193,-0.41209424,-0.51075757,-0.033721335,1.1129061,0.7489398,-0.09956873,0.36825767,1.3104749,-1.3234705,-0.6815141,-0.7775438,-1.0899308,1.8212713,2.198601,1.0249382,-1.4279232
MMRF_1360,-1.3055959,3.4217377,0.5514295,0.36941323,-0.8799898,-1.4596088,0.50444806,-0.7008282,0.2647193,-0.37517256,0.022787113,0.7043319,-1.6503069,0.18241468,0.51925355,0.13992219,-0.54088944,-0.20561123,-0.8089483,0.54283756,-0.49358633,1.3778254,-0.5649792,-0.518616,-0.6220704,1.3978398,0.85884786,0.39466402,0.06580753,-1.2667705,-0.760866,1.1822948,-0.8714539,0.15066418,0.9850991,0.73319745,-0.30783492,-0.14643677,-0.9489953,0.595101,0.79398286,0.96452284,-1.1524345,1.3336897,0.009256881,-0.8496947,1.1224701,-0.54856217,1.2484775,0.8760531,1.7756023,0.05907129,-0.4458507,-0.0675071,-0.083544485,-0.116065994,-0.4865481,-1.1067736,-0.5524834,0.2930302,0.9952794,1.4159865,-0.36018622,0.82087475,-0.8610889,1.9976981,-0.33347133,0.17260395,1.5961847,-0.3157246,-0.26136306,0.9511575,0.10759375,-0.49894637,0.35068625,-1.496509,1.638665,-2.6735404,-1.1084636,0.91859293,-1.9551282,-1.3451526,0.7049074,-0.14275873,-0.8067381,0.52772087,0.63012224,-0.8163344,0.38358247,-0.6668454,0.9932156,-1.0813537,1.3121789,-0.22850055,1.0208331,-0.9204008,0.36700734,-1.3929262,1.3632425,0.33603758,1.4633839,0.021908041,0.029881947,0.33953214,1.4188892,0.2462957,-0.6043738,-0.42447567,0.2936024,1.2180455,-2.0423133,-1.1707146,-1.476762,-1.0554123,0.5830081,-0.3528331,-1.8850375,-1.5475857,-0.8839249,1.3556495,-0.52334785,0.16134161,-1.7249619,0.2377389,1.1483194,0.35044163,-1.3595226,1.221252
MMRF_1371,0.49409178,-0.40603226,0.40743765,0.041968863,2.3522072,-0.88682956,-0.6312172,-0.50575894,-0.08630567,1.0082214,2.0424395,-0.82005954,1.102954,-0.15270075,-0.3955529,-1.3075372,-0.7632935,0.79341024,0.34733006,0.45224813,-1.4830294,0.6803199,-0.3225605,-1.4827151,-0.7664384,-0.8931234,0.7178848,1.2753962,-0.111375466,-0.17052561,0.4510099,-0.22788319,-0.11208249,0.46396598,-0.28966755,-0.49251074,-1.6050104,1.1599435,-3.2546945,1.1398264,1.0829198,0.7076744,-0.6537233,-0.36772317,0.41606063,0.29376352,0.23459727,0.9378796,-0.30122256,0.13951679,0.8567261,-0.30111277,-0.5698605,-0.11554113,-0.08624216,-0.8166008,-0.13172662,-0.6651192,0.585119,1.1237676,0.09175613,0.86361206,0.46736693,0.74366885,-1.699708,1.8651018,-3.250072,-0.81297046,-0.11515715,1.5775455,0.17106964,0.9320182,-1.6526917,1.3822199,2.0561848,0.5039598,-0.21080033,0.056668878,-1.12502,1.2524428,0.13502488,-0.22136557,-0.6416886,0.06023471,-0.3449369,0.2523237,1.7352712,-0.76321024,1.0538523,-0.24781199,-0.08056849,0.5587235,-0.15273266,0.8591385,-0.59239775,1.4683405,-0.8221185,-0.53932106,0.64814764,1.1128601,-0.7294668,-0.88297904,-0.1264403,-1.7762802,0.080933236,-0.41296774,0.88018626,-1.9824367,-0.11156945,1.2207451,1.6126527,0.13665494,-1.1932111,1.1625426,-0.6119095,0.52144545,-1.9402914,-1.83987,-1.590899,0.2665619,0.8811854,-0.58555734,-0.70454985,0.9851714,-0.045418374,-1.1719772,0.12368449,1.0456346
MMRF_1089,-0.5535842,1.1922873,-0.42554867,0.51272964,0.7051634,-0.2649067,-0.42508695,0.30316785,0.31845307,1.1342702,0.7042729,0.23655006,1.6308815,1.22203,0.73508143,0.4433446,0.31712198,-0.4529747,-0.58805865,-0.24658492,0.11889425,0.18487313,-1.6110456,0.24735655,0.059630506,-0.23915406,-1.1288404,0.3478303,0.3243177,-1.1581339,-0.20447227,0.48398867,-0.24321724,0.9324995,0.10130689,-1.6806968,-0.5151813,0.17353745,-1.308101,0.08915077,0.38486314,0.04017964,-0.7938251,-0.7193221,1.093985,-0.9553159,0.17825794,0.8058057,-0.26218927,0.40482536,1.4090855,-0.34416428,-1.0217973,0.5300424,-0.29606092,-1.0627195,-0.16022003,-2.498617,1.3711538,-0.36130926,1.1033583,1.247046,1.078532,2.113,-1.4528841,1.3414482,-2.6787043,0.7271201,0.6440003,-0.48670685,-0.34541956,-0.4112356,-0.19148862,1.0710847,0.8682016,0.6143289,-0.6802109,-0.3919252,-0.848942,-1.9409412,-0.55808747,1.7406268,-0.20640858,-0.2223722,-1.247474,-0.42053014,0.5318012,-0.91300774,0.77204376,-1.0275754,-0.7917232,1.0931209,-0.7164654,1.5491885,1.3061264,0.39742893,-0.5648251,-1.8488324,0.81906456,-0.36660168,0.8486694,0.7270779,0.63972884,-0.8679168,0.8604501,-0.27655452,0.2711396,-0.073896885,0.55813783,3.0771158,-0.34537596,0.19002324,-3.2198467,1.2220724,-0.57284236,-1.6912286,-1.367239,-1.2327794,-0.26950294,0.20419008,0.6278189,-0.30830404,-0.66256416,1.1289579,-1.028992,-0.66061294,-0.13056964,2.3185315
MMRF_1365,-1.5945239,0.8190348,-1.2190207,-1.2192066,-0.58359396,-0.4212318,1.0117962,1.888004,2.3506222,-0.32577008,-0.9713467,2.2157357,-0.582752,0.16163994,-0.42217734,-0.05112613,0.38533285,-0.93080395,-0.19877635,0.7201834,1.317914,1.1240678,1.2601302,1.4224374,0.31539685,1.6164197,-2.3050797,-1.4801475,0.4638856,0.17994103,-0.107934654,0.5077821,-0.7681164,-0.20498446,0.95136106,-1.3407456,-0.45081896,-1.394227,0.61489695,-0.18025926,-0.42343065,-0.107140556,-0.37736994,0.06518884,-0.6377566,1.7347487,0.17969573,-0.7193458,-0.35775763,0.90819806,-1.2660393,0.84659564,1.1212533,0.18177201,-1.7250894,-0.60542154,-1.2503548,0.886088,1.2015432,-2.1038816,-0.7209992,0.4572212,0.047069367,2.7537632,1.0869671,0.9074916,0.57534564,0.4675768,0.9578505,-0.3703251,0.44006395,0.48394296,-0.08607455,1.5335367,0.10526792,1.9213681,-0.34649482,-1.2195781,0.6098463,-0.63827217,-0.7329134,-0.6641993,0.25309348,0.8917203,-0.5481284,0.0722226,0.1922626,1.519933,-0.52385753,-0.070265345,-0.42419046,-0.596909,0.53976697,-1.0449839,1.9334171,1.0583477,-0.54338294,-0.74945486,1.4901365,-1.5747479,-0.72115064,-0.6078203,-0.5210559,0.73028076,0.15922204,-0.35077396,-2.09053,0.24921927,-0.669249,-0.9616138,0.015519039,0.86504674,0.548668,-0.5661761,-0.21343768,0.15101282,-0.13920374,-1.6271727,0.6277729,-1.3978368,0.8660584,-1.818305,0.9467836,-0.99600995,-0.85433507,-0.120537624,-0.7513412,-0.2265677
MMRF_1356,2.7945025,-1.1851746,2.110866,0.8322516,-0.7360721,0.7659156,-1.0310104,-1.1831765,-1.7779679,1.6956449,0.8284573,-1.4787713,1.409181,0.37501362,-0.55567837,-1.5491953,0.32941929,1.0259631,-0.059450943,-0.57368356,0.012623657,-1.1378586,0.111887656,-0.7030104,-0.49134427,-0.9499613,1.2135466,-0.9757605,-0.91475135,0.770267,0.5639237,-0.8528421,0.5031643,-0.99895555,0.32159925,-0.021007277,0.16569014,-0.43758053,-0.38189694,0.5750184,-0.78151697,-0.9224348,-0.037065912,-0.6651543,-0.4975831,0.75627905,0.3692015,0.5857465,-0.5538683,-0.5043187,-1.6727324,-0.38062456,-1.0481414,-0.61824244,0.8290705,-0.17583376,1.5744808,-0.16121764,-0.65407795,-1.0849241,-0.80982786,-0.86769915,-0.8144764,-1.9634621,-0.746872,0.33967108,1.4778974,0.26324517,0.08138796,-0.2275403,1.3803463,-0.8004782,-0.6955759,-0.03247876,-1.6879053,-0.16356704,1.1906313,3.281335,-0.46741363,-1.9093083,1.2430682,1.4571693,-0.32946512,0.7242415,-0.8988558,-0.7459183,-0.36646807,-0.5870599,0.7019801,1.8929992,0.21584854,-0.5061915,-1.1573125,-0.21842064,-1.3318111,-1.4924357,0.32679096,2.186703,-0.9192594,1.3873705,0.46155527,0.3073733,0.4471168,-0.63977844,0.08648446,-0.22844504,0.5505823,0.8087632,0.86426836,0.35748234,0.53656167,-0.28851163,1.047936,-0.5151045,-0.5355049,-0.83374554,0.6283502,2.6182463,-0.120470844,1.7223169,0.84683883,-0.2061298,0.5356737,0.36040258,-0.6445278,0.2496927,0.5345978,-0.17670494
MMRF_1270,0.41953915,0.06317885,-0.928949,0.39984807,-0.53322554,-1.8658409,-0.090587504,0.117555924,0.7214894,-0.84424406,0.73258734,0.5727146,0.030749971,-0.97094977,-2.0189393,-2.080933,0.88487047,-0.013795695,0.3627038,-0.851012,0.99166405,-0.26623634,-0.1310757,-0.6263144,-1.3126467,0.53724545,0.9579091,-2.2712002,-1.2575352,0.03514115,1.6075817,-0.9505528,1.706753,0.043381073,0.873508,0.5245738,-0.5224875,-1.101436,-0.31765163,-0.35517076,-1.323916,-0.6367585,0.4808744,1.1895018,-0.67778283,0.47127825,0.73481363,-0.60291046,0.36485872,-0.052746855,-0.9169396,0.52273816,-0.3885146,0.8041389,-0.6488691,1.01695,0.777054,1.8634225,-1.0577013,0.10030943,-0.47702205,-1.7287868,-2.923473,1.8359839,-0.5959523,0.7105091,0.76184136,0.84978074,-0.5714933,-0.40168655,0.70746595,-0.7168751,0.14581709,0.2769953,-1.3008176,0.6840236,-0.53248346,1.9255457,-0.7483323,-0.25216904,-0.46560466,-0.79457754,0.9420429,-0.3389573,1.2190171,1.4222925,-0.86561173,1.1868432,-0.30715832,1.4347291,0.9332407,-0.9437671,-1.7203876,-0.52431446,0.04071024,-0.5894902,1.5068705,2.4199328,0.99793005,2.057985,0.39247727,-0.32782137,-1.0335699,0.33294994,-0.76341987,0.4867252,-0.2791739,0.5624232,0.59563005,-0.19686583,-0.5512067,-0.29517788,-0.04817709,-2.2979536,-0.59363437,0.71454865,0.23233747,0.69674367,-0.17283398,1.3341323,-0.5338253,-0.20162477,0.34062162,-0.14647804,0.83111393,0.9643485,2.1089318,-1.6113749
MMRF_1323,1.1682489,-1.2639283,1.6136576,-0.13293257,0.5100465,0.9907679,-1.0648541,-0.60166496,-0.7624646,1.6618353,1.7114383,-1.3419878,0.8663263,-0.63165826,-1.555946,0.3510177,0.774466,1.134248,1.7068295,-0.07252257,-1.3880452,0.567679,0.9515353,-0.6552602,-0.5704387,-0.63657707,0.93502486,-0.32074964,0.0047361376,1.0857384,1.0594573,-0.053277187,1.0150673,-1.6689627,-0.56611466,0.42024362,-0.19664831,2.6961033,0.7022128,1.0364281,0.3320153,-0.21023689,-2.0088935,-0.7604246,0.46814582,0.6593515,-0.4749932,0.17389724,0.08670712,0.009262567,0.46412638,0.40997848,0.24675354,-1.0212326,1.3107207,-0.10077196,-1.7580975,-0.2482796,-1.3081888,0.110390715,-1.5652251,-0.56975883,0.43402115,-2.212172,-1.5495332,0.687661,0.97052,0.46787447,-0.049304016,1.0021888,1.428805,-1.3869003,-0.15219826,-0.008603131,-0.055167273,-2.3104784,1.4146245,0.289216,-1.098453,1.2198353,0.17837425,1.7907152,-1.0187154,-0.36264393,-0.18107043,0.7449826,0.060052246,-0.7347737,0.42780825,0.9951379,-1.2567855,1.5012001,-1.3423533,-0.78868103,-0.05730499,1.2721906,0.20235404,1.1646513,-1.9903209,1.7255886,-0.30115622,-0.46278608,-1.3072184,-1.282108,-0.74586606,-0.5065148,0.6372993,-1.2251241,0.82837254,-0.3013113,1.8521893,0.15093994,0.4891739,-0.17627683,0.60631716,0.6889641,0.2781004,-0.7020487,-1.4137039,0.1733549,0.23491897,0.34464452,-0.41948664,-1.3236524,-1.3581188,-0.5658595,0.37029734,0.22718652
MMRF_1180,0.78755647,-0.95306087,1.6231887,0.4680659,-1.6482505,-0.60576123,-0.938197,0.5354539,0.37478358,1.8259236,0.48851836,-0.32827815,0.9431422,-0.7004024,-2.399071,0.58242166,0.9356922,0.5843903,1.84336,-0.6807688,0.31708157,1.7802585,-0.6522592,-0.08167939,1.4365191,-0.9816133,-0.09313823,-1.9011939,0.19198449,1.478409,1.1111913,-0.37277898,1.1648587,-2.0281165,-0.9528869,-0.13147688,-1.1612859,1.6887834,1.4920529,0.4905323,1.181592,-0.077801004,-0.17743164,0.20914578,-0.5964662,0.62952876,-0.19189945,0.40813005,-0.056082748,0.27230182,-0.7952823,0.27764574,-0.55863893,-1.2193371,0.66954744,-0.532889,-1.4258568,0.35839105,-1.6274601,-1.3706156,-1.7331578,-0.10220051,0.46022794,-0.8571423,-1.7113621,2.2118928,0.93357927,0.94523215,0.33573097,-0.15327705,1.7382087,0.85456145,-0.40589517,2.1545804,-0.3505217,-1.6607077,0.46397036,1.1805055,-1.1001737,0.5242228,-0.21441126,0.24433379,-1.2442323,-0.02272118,0.011316498,1.9426389,0.9663109,-0.50962585,-0.67383873,0.21760331,-1.0529375,-0.0041612587,-0.90962636,-1.0215394,-1.0705886,0.5733774,-0.6264408,1.5094421,-0.53614855,1.9404553,-0.22065742,-0.88758546,-0.041865353,-1.7253939,0.44604298,-0.7956301,0.63819134,-1.0379742,-0.0001068234,0.6903777,0.04657069,1.1721698,0.5968094,-1.425262,-0.654177,0.66539466,0.5192134,1.0496004,-1.4871927,0.21533406,0.16059911,-0.13008532,0.20290957,-0.7702009,-0.7441674,-0.77315676,-0.4851632,0.5903748
MMRF_1188,-1.321189,0.22161812,-1.5008384,1.0241517,-0.451044,-0.7252042,-1.5934812,-0.7974525,1.7860591,-0.98598266,1.0708085,-0.60738605,-1.746625,-0.7570109,0.19541308,-0.66188735,-1.632517,-0.0013265712,-1.0811104,-1.7479479,0.872615,1.118806,-0.30276087,-0.100739695,-0.47738528,0.109282464,0.26766735,-0.072814986,-0.21016327,-0.26755118,0.5031307,0.7395438,1.8092475,0.74239624,0.47709766,0.32946953,-1.1327757,-0.24062939,-0.75956607,-0.33982086,-0.7503269,0.25811943,-0.025952987,2.7536786,-1.178674,-0.5447353,0.79396737,0.69806874,1.0461876,0.67184544,0.397964,1.0193081,0.31149992,0.66062695,0.024653556,1.9288317,-0.8485406,1.2390218,-0.28931114,1.3108659,-0.5251715,-0.26346868,-3.1335154,0.63490576,0.63770854,0.91490746,1.0782638,-0.5607478,-0.49874282,-0.013853272,0.07862867,-0.074465975,-0.01922792,-0.023394763,-0.5473939,1.5021766,-1.8173591,-1.0474371,0.6604119,1.4552753,-1.0309883,-0.5979767,1.0822068,-1.2705497,0.30783546,0.7255208,-0.090204895,0.71472543,0.5834166,-0.08722178,0.5807675,-1.4999135,-0.96240175,0.86673856,-2.0541975,-0.6614564,2.1480656,-0.38366058,0.8793827,0.8616947,-0.8558327,-0.7867974,-0.5331638,-0.7021518,0.35654747,0.89397234,-0.32196862,0.2453267,1.3241203,-0.6845471,-0.63554955,-0.78400356,-1.0690407,-0.069040224,0.12330371,2.1823795,1.3158541,0.058185864,1.0114565,-1.3910303,-1.6318685,0.9491252,-0.79749113,-1.0146989,1.0595198,1.3502239,1.049028,-0.29310882
MMRF_1300,-0.07250327,-0.6606374,0.96802866,1.7644691,-0.8075751,0.12579161,0.4028737,-1.7041212,-1.087918,0.6086892,1.2867396,-0.7653174,1.1707096,-1.1570188,-1.1418524,0.5954558,0.55766237,1.7148502,2.0114524,-1.4346914,-0.5595193,0.07004245,0.3427921,-1.968686,-0.42545033,-1.981686,1.3404034,-0.4536123,0.72990227,0.5682904,1.173513,1.0470978,0.6792434,0.8031959,0.18935153,-0.21960767,-0.706909,2.7541273,-1.1463928,2.1451774,0.14456627,1.3128893,-0.6375581,0.8421042,-0.7210829,-0.12074864,-0.5937291,1.7823267,0.5692278,0.99414915,-0.4699339,0.7422589,-0.97380626,-1.5440228,0.33382976,-0.37993637,-0.6518682,-0.49199566,0.13232976,1.8387228,-1.0700217,-0.20026527,-0.199732,-1.1879826,-0.07969232,1.2628217,-0.5667596,-0.10160101,-0.426345,-0.11915245,0.6034488,-0.3520085,-0.5512474,-0.15841828,0.6613437,-2.7771842,1.1461276,-0.42554745,-0.98317426,0.027981967,-0.8479409,1.0165222,-1.3001047,-0.36210644,-0.43653053,2.3025734,0.9259856,-1.0316229,0.10067567,0.090777665,0.34072846,0.37596232,-1.3811504,-0.027624682,-0.95416784,1.0238969,-1.4340519,1.3900557,-0.83097863,0.31048346,-0.04194703,-0.59187347,0.9980673,-2.2286382,0.68875915,-0.44635695,0.7796347,-0.22111945,0.055965472,-0.1666089,1.2762977,0.5770532,0.541045,-1.4280847,-0.21642531,1.1684319,-1.2773226,-0.4007303,-1.3909761,-0.47234225,0.757032,0.27996725,-0.07915603,-0.026107501,-0.29605144,-1.4610909,-0.026414208,0.88377076
MMRF_1331,-0.051864877,1.3863322,-0.43585315,0.012132574,-0.09660128,-0.7637912,0.21806216,-0.60690075,0.5583123,-0.107760526,0.11043282,0.663707,-0.58715963,-0.38858962,1.3625678,0.22990072,-0.3255563,-1.2300673,-0.61661446,-0.05368704,0.14098011,0.23084769,-0.6139239,-0.39529803,-0.16663158,0.6637251,0.35537216,0.74613345,-0.5378637,-1.6460621,-1.160756,-0.42655346,0.47010723,0.014147811,-0.07923859,2.2871768,-0.8835314,1.7288352,-0.5583213,-0.4863599,0.22888309,0.58532697,0.028099824,0.17913844,0.38841406,-2.7295887,0.26417014,-0.867292,-0.021030815,1.2921168,3.6606,-1.4749266,-0.87424964,-0.44870806,0.7350712,0.98984843,0.976215,-0.73140144,-0.80543786,2.1804936,0.5745623,0.3661225,0.45734686,-0.17336816,-1.981026,0.18921572,-1.7508138,0.1834416,-0.7728921,-0.13409856,-0.7761381,0.58721995,0.8341986,-1.6718632,-0.25534457,-1.166792,-1.488375,-0.010711327,-1.155674,-0.33532488,-1.4182309,0.72540635,0.6035302,-1.3779744,0.4016323,-0.44768807,1.3578585,-0.61768335,1.2851855,-0.44055453,0.33876026,0.59011346,0.4913181,0.6241004,-0.7323775,-1.4310672,0.45759404,-1.1670344,0.36604887,1.1886561,0.95831245,-0.41837034,-0.018409641,-1.3775923,0.6946073,1.7257687,0.7950378,1.0354868,0.45408878,0.13358605,-0.21103783,-0.8824095,-2.7459366,1.431353,-0.5453158,-0.7847998,0.16276889,-0.0072086286,0.4902594,0.27628946,0.17450587,1.5941643,-1.5581287,2.2566848,-0.8168326,-0.23019959,0.8356971,1.6567152
MMRF_1185,-0.35038102,-1.9647568,-0.7090019,-1.4340777,0.33793178,0.933741,0.8096174,0.6370259,0.2535509,0.16684686,-0.31626588,1.9816463,0.026992094,0.51765996,-0.7262145,-0.8854981,-0.570153,-0.93110526,0.4903097,0.6569875,0.68106353,0.13509205,1.0262452,1.5266979,0.33534142,-0.48053768,-1.7716216,0.27330804,-0.6270497,-0.34522527,-1.4502932,-0.5317303,-1.1346571,-0.5531912,-0.75261027,-0.88386035,-0.21480471,-1.4334658,1.9218181,-1.6112512,-1.3065302,0.35177863,1.7739431,-0.26010934,0.85884416,1.8470899,-0.37862197,-1.4073762,-1.1278216,0.15293589,-0.88965565,-0.578757,-0.59855604,0.40685883,-1.0687191,1.6693348,0.9379047,1.509061,0.4809624,-0.84106714,-0.041075215,-0.9594708,0.16055988,-0.09993554,1.4701788,-1.8969513,0.37526786,1.2477758,-0.30642712,-0.68818134,0.65428877,-1.2227554,0.8055016,-0.33532393,-0.071791895,1.7702056,0.6676925,3.50938,-0.85291976,-0.54113084,0.6154842,0.4829279,0.88893384,-1.2237298,0.2506178,-0.13690111,-1.0710692,1.3904369,-1.081067,2.495554,-0.26825503,0.30306506,0.0367769,-0.0704571,1.0166845,0.35523295,0.04909628,0.034234025,-0.91166866,-0.69548947,-1.1672715,-0.22836047,-0.5015286,0.33180398,-1.1813568,-0.77098304,-0.0524723,1.3030802,-0.053966403,0.751491,0.14625719,1.186386,1.4408423,0.4408108,0.06463816,-1.0903908,0.30759984,0.9171939,2.0667925,0.7623322,0.7057235,-1.2692462,-1.4524877,-0.6383605,-0.89371365,-0.22424705,-0.40026206,-1.0899787
MMRF_1348,0.43015152,-0.5429678,0.86884135,-1.0909703,0.5860452,-0.884172,-0.71823716,-0.0006119795,-2.0290196,-0.9269472,0.54550177,-0.549931,-0.9590515,-0.57973814,-0.029591046,0.2938863,-0.39960998,-0.7375536,0.6077791,1.3394916,0.3986131,-1.2305712,0.9119321,0.58337504,0.13532585,-0.04968699,1.1314477,2.2266197,-0.9786441,0.17871709,-0.018779391,-0.88982594,0.14214931,-0.60641456,-2.2628698,2.0361636,1.5918142,-0.084526435,1.7988044,-0.5305213,-0.10017834,-0.054359518,1.0078433,0.041049752,0.86734587,1.3044186,-0.9797906,-0.9463867,0.566306,0.1054486,0.17383598,-1.1974707,-0.5326001,0.054662455,1.0036664,-0.41905478,-0.919915,1.5816224,-1.2729123,1.4465015,0.42017376,-0.7035409,0.15494767,-1.9536616,1.8570673,-2.3092947,0.18998174,-0.6406636,-1.0765102,0.47067738,-0.6718878,-2.1096385,0.6900715,-2.3259382,0.6292753,-0.08835249,1.465084,1.2328913,1.6877152,0.96175295,0.7360479,-0.3350613,0.57531893,-0.17998637,1.1611426,-0.1287759,-0.967484,0.27072087,0.6078968,-0.6788715,-0.08247306,0.2807397,1.3374376,-0.1635919,-0.7886689,1.3296741,0.028512377,0.8331236,-0.7787624,1.3853987,-1.2876341,0.7227852,-0.932041,-0.79721475,-2.133532,-0.6884759,0.8908866,0.046058506,-0.58550274,-0.6867517,0.24174564,0.49720582,1.2004325,1.1674869,0.49205476,-1.5697833,1.1612302,0.023754004,0.771014,-1.093997,-1.9832935,0.8812125,-0.82293737,0.9574431,-0.5328474,-0.12205896,0.888049,-0.40559757
MMRF_1284,-0.335984,0.26111612,1.6325887,-0.3737702,1.5120585,-1.5425943,-1.0193033,-0.86524385,-0.66881615,-0.42599568,0.28392643,0.58134604,0.1638563,-0.36609724,1.5203875,-1.2926694,-0.37614062,-0.88985413,-0.8729879,0.523262,-1.1876022,-0.1899083,-0.9203859,0.54282516,-0.22629052,0.7016246,0.0784712,2.4163625,-2.0065465,-1.0874673,-1.9334241,-0.09324169,-1.7533711,0.8221912,-1.3304561,0.52644914,0.15252422,1.1724021,-0.3240256,0.38764575,0.3617482,1.5316269,-0.014311776,-1.2508928,1.1809173,-0.49489838,0.07005347,-0.46559033,0.15114506,-0.09148649,2.4032824,-1.9303309,-0.015875343,0.946459,0.56506175,-0.19009292,0.93077886,-0.3428851,0.3495868,1.2868469,1.3315492,0.15437594,0.67679983,-1.025106,0.2093645,-0.9255995,-2.7756274,-0.30335402,-0.63008386,-0.8530497,0.011474115,-0.4908137,1.2164038,-2.049816,0.1815203,0.08161479,0.2785029,0.98069865,-0.33113328,0.52587205,-0.13729312,0.73900944,0.9807105,-1.3138783,-0.56886196,-1.29538,-0.1572143,-1.373488,1.0167941,0.12895046,-0.2969647,2.5112557,0.4316599,0.9659661,-0.9394051,0.74542147,0.754469,-1.2206249,-0.47359505,-0.27637368,-0.052902684,-1.0029212,1.6775016,-0.6941245,-0.76011366,1.2071588,1.037903,-0.35576153,0.6464712,2.0794845,-0.08831118,0.28211832,-0.24559337,2.2129574,-0.15450895,-1.2406389,0.23652619,0.03387113,0.1873314,-0.39244813,0.119599804,0.6216145,-1.1668066,0.40041763,-0.72340745,-1.0354729,1.9273181,0.57478577
MMRF_1202,0.29507282,-1.6642196,0.4389804,0.53059727,0.5116038,1.4224789,-0.7218386,0.057079934,-0.16557893,-0.73598814,-0.019535907,-0.82381505,-0.8607697,0.8807198,-0.87063277,0.8355483,-1.2926191,0.5132647,0.374131,0.25356415,0.16760902,-0.04002976,1.4839069,0.014365995,0.68275326,-0.69277656,0.62527716,0.96270615,0.773985,1.0917387,0.3392052,-0.08737031,0.27878085,-1.0757736,-0.7253503,1.4599935,1.1900976,-1.075382,3.3254583,-1.6101097,0.47153234,0.69143444,-0.62727404,-0.21277909,0.6106783,1.4124186,-1.5170199,-1.509991,0.45481095,-0.39087743,-0.7998466,0.90103394,0.23521373,-1.0400375,0.46174273,1.6548827,-1.1293406,0.56329733,-1.8814727,0.30106962,-0.1789606,-2.40043,0.7071015,-1.1378717,1.4140115,-3.2108319,1.0194917,0.16012204,-0.620832,0.9263563,-0.16778016,0.3551558,1.3742139,0.18456651,1.563698,0.16265975,0.85500634,0.57906675,0.5408136,1.1692001,1.3879442,-1.2551639,0.33783564,0.59302175,0.14706354,0.3578515,-0.74884486,0.44837236,0.10338446,-0.5397609,-0.11569937,0.46212882,1.1983517,-1.4210825,-0.7334125,-0.30995658,-0.30150378,1.1732683,-2.091541,-0.8348603,-1.1806023,0.55322963,-1.2093238,0.019470405,0.47371128,-1.7651031,0.8356388,-1.1026943,-0.10368201,-1.8356746,1.0279521,0.22605622,1.8058144,-0.5547335,0.4193924,0.09490033,0.9765664,0.6206085,0.27994907,-1.6361966,-1.2134551,0.45855302,0.0729789,-0.83140206,-0.8545749,-0.30014142,-0.77825004,-0.26657262
MMRF_1466,-0.021949356,0.24561794,1.5048568,-0.56202275,1.5092894,-1.2181689,-0.21696718,-0.057317976,-0.61050624,0.05190073,0.40652525,-0.010276938,0.0021055192,0.7563931,0.74972934,-0.79213244,-1.3901532,-1.4322014,-1.085354,1.042086,-0.087087974,0.24598235,-1.2899908,-0.85873157,0.44409788,0.4900381,0.87066925,2.508362,0.38652548,-0.40049717,-0.1685037,-0.8669627,-1.2766163,2.9301214,-2.1226275,1.2612928,-0.36095434,0.08928163,-2.299985,0.58726615,2.1606445,0.602204,0.05401098,-0.77040863,1.4182317,-0.49569726,0.99827206,0.47174156,-0.69517446,0.2853493,0.69593316,-0.71577275,-0.6342419,-0.20164432,0.36612144,-0.8708997,0.24363586,-1.4249718,0.8375501,1.3919417,0.6952889,0.9757811,0.24321912,-0.061767735,-1.5975817,0.7865367,-3.4613695,-1.4350733,0.2856411,0.26332653,0.12205222,0.56297326,-0.79662097,0.7610898,0.96943676,0.20975521,-0.7045343,-0.37570027,0.48622072,0.3181339,0.33367297,-0.73419154,-0.74568,0.53541964,-0.8911356,-0.6274047,0.16874668,-2.4335196,1.3118973,-1.1547475,0.50730115,0.59218127,0.62501365,1.07853,-0.9987879,-0.041787602,-0.2685434,-1.2905935,-0.56593287,0.38024226,-0.12716901,-0.15505743,1.8127391,-1.153483,1.405325,0.26648015,0.47443086,-1.9320629,-0.17422812,1.2861032,0.22234973,-0.1847955,-0.3503286,1.4798783,-1.2261536,-0.36195162,-0.3289151,0.20383093,0.63587487,-0.5907598,-0.49453446,-0.5135488,0.16219838,0.83109295,0.30477464,-1.114246,1.3715945,1.4913108
MMRF_1446,-0.41809812,-1.2789044,-0.19811313,-1.81365,-0.26276067,0.52083474,0.5748973,0.3195726,-0.63364446,0.9886395,-0.4523729,2.0591774,0.3208723,0.08926284,-0.4354223,1.011616,2.0434136,1.349404,0.5927615,1.1737713,-0.11582317,0.9440927,0.5113809,0.8666998,2.3932838,0.002581535,-1.5632699,-1.0504861,0.5181638,1.2772037,1.4020811,-0.44671345,-1.6175021,-1.9218364,0.14302006,0.38961396,1.4703168,-0.238079,1.4500477,0.5287966,0.9382149,-0.83177525,0.047980927,0.3573768,-1.5732356,1.5208863,-0.42658728,-0.14928968,0.05180446,0.68068874,-1.3329561,-0.11472513,0.48573783,-1.1163868,-1.2337705,-0.30389312,-1.5773523,0.21194863,-0.15508884,-1.5466055,-0.41834316,0.59606117,0.29427204,0.40680522,0.7194325,0.15035994,-0.20324299,-0.89312476,1.6341721,0.15139656,-0.2283981,0.7924771,0.6855202,0.45275095,1.3120184,-0.3696764,0.94168746,-1.1354849,0.58097774,-0.3416382,-1.452382,0.357932,0.24216698,0.73062015,0.021379257,0.76008904,1.7944914,0.36758414,-1.3513062,0.18252371,-1.4986782,0.4418962,0.8771906,-0.5990588,1.9880128,1.700972,-1.7132311,-0.7260248,-0.48913646,-1.7042298,0.7104224,-0.027782876,-1.3696815,-0.1686697,0.09754317,-1.1283919,-0.6168919,-0.15204611,-1.2887464,-0.3566485,0.70823395,0.2687564,1.7257112,-1.3786145,0.24484459,-0.13411824,0.2880045,-1.8458081,-0.8552928,-0.45223647,0.9500786,-0.9849742,1.5635175,-1.4844401,-1.5594032,-1.2417189,-1.0810726,0.04359202
MMRF_1447,0.13893493,-0.67388666,-1.42143,0.82473093,0.9399069,-0.38790727,-1.5192372,-0.9681512,2.156307,-1.2409353,0.47610673,-0.9614592,-1.2346821,-1.5117154,0.042746577,-0.5817223,-1.5325866,0.16976772,-1.4234833,-1.4866837,0.2285268,0.79566264,-0.045970272,-0.3964838,-1.013461,0.20177315,-0.07720387,1.0457801,-0.020322751,-0.88104504,0.85232496,0.40599838,1.9347438,0.48953456,0.153822,-0.2690449,-0.41750357,0.040322646,0.034346584,-0.91192776,-0.27882126,-0.4274091,-0.14983237,2.535326,-1.1686616,-0.68964505,1.4240696,0.42449024,1.4094884,-0.4799946,1.3927804,0.47728536,0.5897854,0.5800508,-0.100332655,1.8470926,0.58123183,1.8070375,-1.1527921,1.6667068,-0.83613956,-2.3994708,-2.1825645,0.54425496,0.6577992,-0.23704593,1.3994544,0.59568983,-0.95841837,0.5388267,-0.7064754,-1.3623807,0.6489127,-0.3103267,-0.4298655,0.53290385,-0.94995683,0.857921,-0.08853199,1.085025,-0.58001363,-0.7318912,0.7631856,-1.8393147,0.43573165,0.60564685,-0.4793407,0.936121,0.21772228,0.139162,0.99722075,-1.7396113,-0.7003067,0.85754365,-1.3555704,-1.2388712,2.6624994,-0.4568961,0.30486134,0.51125145,-1.3519293,-0.5977455,-0.5463881,-0.16695921,-0.36623207,0.64129174,0.5473828,0.38730508,1.8569698,-0.04322222,-0.577539,0.0037073705,-0.67786616,0.23522262,0.15017462,1.4691169,0.5471299,0.8351669,0.598041,0.038955003,-0.25416118,0.6100234,-1.4226007,-1.0295312,1.2129381,1.012219,0.8090631,-1.7184379
MMRF_1445,0.91852796,-0.9842938,0.46874282,0.8170871,-0.19941004,0.98344094,0.33961922,-0.058871437,-0.31961972,-0.98603415,0.44820467,-1.3374902,-1.1279316,-1.1948228,-1.0619138,-1.2079918,-0.53737414,0.29062587,-0.832196,0.22262755,-0.2633096,-0.47525784,0.7771775,-1.4314312,-0.17315921,0.1964711,1.3531446,1.8670969,0.27064028,0.080336444,0.2797258,0.5765768,2.0907829,0.43370172,-1.1082833,0.5438172,1.1894616,-0.28466192,1.9812282,-1.1469841,0.43501282,-0.34671667,0.9588071,0.14578299,0.18566453,0.35953546,0.99609995,-1.4110472,2.4415126,-0.16283199,-0.27384266,-0.18944752,-0.5196821,0.37781838,0.5159267,0.35638547,0.76082414,0.7548547,-1.6631203,-0.17250247,-0.26289263,-1.9184844,-1.5679606,-0.90913016,-0.18558277,-1.9084669,2.1245508,0.6833303,-0.055202283,1.7331976,-0.79096776,-1.6693345,1.517312,-1.9837255,-1.3394102,0.023122964,0.9326749,1.5005833,-0.66138065,0.6346205,0.941982,-0.99129516,0.14392613,0.023299895,1.7610103,0.4854806,-0.1695183,0.40615058,0.33256978,0.22934218,0.9843703,-0.87186134,0.4520141,-1.4276006,-0.74598056,-1.8948724,1.6066843,1.3027449,-1.5114514,1.6122339,-0.11953108,-0.056578275,-0.65868366,-0.21571872,-0.60979784,-0.77261275,-0.97994214,0.8629551,0.94382066,-1.0655625,-1.4626089,-0.13805416,1.2412484,0.03306169,0.31999227,-0.61179554,0.83510846,1.3647304,0.2884582,-0.29799777,-1.5523043,0.48183098,-0.9202175,0.3055215,1.171693,0.5200468,-0.4823082,-1.8995454
MMRF_1433,0.9424059,-1.1766293,1.7543591,0.7586155,-1.7623379,0.7580157,0.16157226,-0.7858081,-1.8836023,0.92394036,-1.0415251,-1.0622014,1.5988387,0.83684874,-1.498508,0.047103688,1.4066564,1.443489,1.6717583,-1.4495335,-0.07208784,-0.6051669,0.20903115,0.4148423,1.9014791,-2.8224406,-0.099447474,-1.7592736,0.48100927,1.480495,-0.24695948,-0.51849127,0.71183217,-1.3297006,0.21707717,0.17617513,-0.49043933,1.1295719,2.192189,0.1710105,0.161322,-0.18246669,0.098059595,0.38543454,-1.0463629,1.0308887,-0.36658192,0.21501425,0.2225237,1.2454687,-2.225505,0.6217897,-0.24027064,-1.6290916,0.04061805,-0.7052715,0.15393753,-0.71428806,-0.6891614,-1.6149375,-0.28585798,-0.22026074,0.5162704,-1.1651984,0.16689672,-0.26123857,0.79362494,0.73957527,0.32166606,0.22042811,1.3546395,-0.20246442,-0.04489935,0.8676849,0.12192839,-1.4387249,0.5474668,1.2011739,0.80187964,-0.6703443,-0.6780034,0.86558646,-1.4392971,1.1851048,-0.89506185,1.6737608,-0.5578959,0.19378953,-0.27271178,-0.010850407,-0.55009097,-0.11592435,0.29863536,-0.94500715,-0.4638902,-0.21267627,-1.0376642,3.2740855,-1.385704,0.27295503,-0.4144334,0.0692517,0.49400747,-1.301586,0.08014919,-1.9017963,0.733659,0.736826,-0.2894197,-0.5402101,-0.4635645,1.2216252,1.6991812,-2.1731634,0.14943351,-0.050440915,0.41182232,0.9113571,-0.052100472,0.1621392,0.6464256,0.3297388,0.6831487,-0.35466155,-0.06407236,-0.25040162,-0.81368774,0.09595549
MMRF_1434,-1.1137339,-0.18002306,-0.7329227,-1.8500938,-1.2573986,0.7701582,0.9790812,0.68307143,0.70248425,0.9584485,-0.77986753,2.1365879,0.7537724,0.9372395,0.8179617,-0.92950684,-0.48371118,-1.6957325,0.67673516,0.56185836,0.29955116,1.1822779,0.5800669,2.4264,1.5422744,1.1381398,-3.04382,-0.93911594,0.5680928,-0.23566692,-0.8186872,-0.80100465,-1.5964679,-0.4522105,-0.11848238,-1.9223087,0.12074425,-1.6800365,1.7305564,-0.9293607,-0.4531235,0.54123163,0.0056448393,0.11737238,0.14114848,2.2039895,-0.8549126,0.24748388,-0.17597209,0.8263826,-0.60513544,-0.8190452,-0.19259974,0.6706591,-0.6296252,-0.28169715,0.06879222,0.077162005,1.2039869,-2.7037628,-0.04697602,0.44233322,0.7374683,1.800328,1.307002,-0.39897907,0.19449861,0.4333515,1.6307983,-0.90882105,1.015985,0.23704903,-0.27039447,0.36503428,0.47461298,1.0502543,0.18999831,0.8178004,1.1186589,-2.046258,0.33701426,-0.2001617,0.041751713,-0.0878894,-1.5946947,0.07536348,-0.4291128,-0.033966783,-1.0193224,1.057218,-1.2028499,-0.5044608,1.1446651,0.4389909,1.3950586,1.1980379,-0.92623144,-0.54270345,-0.16998458,-2.0210161,-1.0929159,-0.22442524,-0.3125962,-0.2859583,0.041000884,-0.9769149,0.016693981,-0.001954611,-0.0532898,0.16195068,-0.17093532,2.0887122,0.5683878,1.3082348,-0.42372215,-1.0096809,0.5052183,-0.5224129,1.0915878,0.08805771,0.23431204,-1.12567,-0.018455444,-0.18977171,-0.17482309,-1.32585,-1.0325534,0.40710118
MMRF_1436,-1.2581611,0.34485894,0.3641511,-0.68138766,1.2047598,-0.2831632,-0.17699318,-0.43632767,-0.4712631,-0.7011939,-0.64041805,2.2160223,0.37784928,1.3929031,1.5463411,0.22140151,-1.1986676,-1.4722807,-0.7748126,0.1571166,0.20435907,0.4515111,-1.195225,0.26600838,0.33920842,0.79748833,-0.6343518,1.2636076,-1.098007,-1.5472038,-0.53350955,-0.5180851,-2.2049677,0.75445396,-0.5396554,-0.0735546,0.30763888,0.006672336,-0.6086036,-0.23517936,-0.9300254,1.1614667,0.5864281,0.3045679,0.73641586,-0.16949731,-0.63984925,0.17693242,-0.6153112,0.43145967,1.1099489,-2.1567488,-0.77519375,0.94314027,-0.4741325,0.21715438,-0.0035628006,-0.5396324,0.95386016,1.5254506,1.6362975,1.3185215,1.4001626,-0.04774323,0.39225832,-0.058522798,-2.567867,-0.92718405,-0.53861856,-1.632284,-1.1814997,0.096926,0.9610114,0.073717415,-0.18935159,0.34823516,-0.45414358,0.51891637,0.23041762,-0.22042435,-1.1887907,0.4345196,0.45280257,-2.274386,-0.90620387,-1.6858284,-0.51008564,-1.3345993,0.42367378,0.38558304,-0.94795007,1.5301247,0.64237094,2.28734,0.42423114,0.3650047,0.33450633,-2.4603734,1.7245976,-1.1403272,0.20475543,-0.6089501,1.8189275,0.08863326,0.07963265,1.2914271,0.6594871,0.024410505,1.1733419,1.9297317,-1.0772362,0.39597324,-1.5297838,1.9925767,0.00028337538,-1.2914919,0.1563543,0.20013265,0.9760015,0.27986413,-0.3980087,-0.2693444,-1.0790229,0.389409,-0.14097178,-0.25282475,1.0968499,1.3705324
MMRF_1424,-0.17352945,1.2986965,-1.6725483,-1.2298231,1.1292489,-0.51206785,0.39025766,1.7670016,1.6681799,0.052756526,0.62960774,1.4341054,-1.9568946,0.48958856,0.38144165,-0.28139383,-0.22179438,0.031577177,-1.3360637,-0.6860817,0.89364505,0.60826975,1.6615477,-0.76499724,-0.152713,0.49494487,-1.139779,-2.423223,-0.8867046,1.4297022,0.23596792,0.44503623,1.4825855,-1.3576921,0.41085374,1.1428556,-0.74859387,-1.4989697,-0.8918259,-0.41828108,-1.5552919,0.3866732,-0.49220854,0.456068,-0.6868074,0.4679377,0.44614342,-2.0610023,-0.84907943,0.5617583,-0.5400395,0.68123066,0.99855536,-0.3102955,0.58993864,0.8511667,-0.6913916,1.839064,-0.434775,-0.6672928,-1.6902553,-0.5907675,-2.4960954,0.85819346,0.3444837,-0.08505608,0.38572338,-0.0448125,0.6228596,0.7322097,-0.8253517,0.112326555,1.039319,1.1915542,-0.6937929,1.5095963,-0.5792324,-0.9398058,-0.41732472,-0.0776088,0.42158625,-0.47916734,2.0568664,-0.96027076,1.0459114,0.9037602,-1.3008591,1.1074065,0.2827959,0.08988545,-0.081453234,-0.99594593,-1.8050257,-0.29566398,0.7932215,0.25371575,1.1599098,0.24590637,1.2533418,-0.20762534,-0.6398435,0.5876709,-1.4094884,0.057534732,-0.026154846,0.22213209,-0.92821515,0.025361842,0.7913024,-0.780994,0.8660441,-1.0249641,-1.0064614,-1.0728332,-0.23862468,2.712606,-0.0016230764,0.75174904,1.1554132,0.17623647,-0.37792253,-1.3143401,0.37896034,-1.7643579,-0.04497896,1.0033301,1.5276917,-0.09869819
MMRF_1425,-0.65152246,1.1800523,-1.4958055,1.0264152,0.5413941,-1.3685248,0.100092374,-0.1963583,-0.040081248,0.3606543,-0.97930664,-0.7882857,0.45303464,0.3687953,0.75610775,-0.19544043,1.1444092,-0.11685819,-0.795393,0.112999514,0.085422754,-0.3001584,-2.0094287,1.6175115,-0.5851198,0.49317172,-0.75104487,1.3374392,0.6575788,-0.5513388,-1.9428103,-0.0678262,-0.7576705,1.2425557,-0.734466,-1.3912114,-0.36275566,0.13628127,-1.7025485,0.18921153,0.7689482,-0.7346005,-0.41178316,-0.9040908,1.104264,-2.7256067,0.8665088,0.51992273,0.1657446,-0.7470064,1.359834,-0.07280222,-0.18433797,2.5813076,-0.12231286,-1.2088702,0.7668707,-2.4881177,1.9014598,0.42687595,1.0404388,0.6665136,0.22866993,2.142715,0.60410446,-0.047830127,-2.1336718,0.2937015,-0.08134981,-0.81049645,1.2632104,-0.22454146,0.7960075,-0.4793547,0.16355136,0.9896858,-2.223455,-0.038964767,1.6741244,-1.9011455,0.9452975,-0.2426556,-0.100365415,1.1071746,-1.0321182,-0.86231256,0.50678706,-1.1618949,-0.42319658,-1.4566555,-0.17805602,0.5026098,-0.15268978,1.1247021,0.33532646,-0.22230652,0.9300835,-1.1101539,-0.16574505,-0.2886323,0.51920825,1.2395462,0.28909114,0.41625744,0.44173205,1.3569405,-0.33337262,-0.97535056,-0.47940734,2.1779885,-0.807434,0.1824985,-0.3791344,1.1315666,-0.45707646,-1.2763054,-1.1243975,0.18114907,0.6710644,-0.41963097,-0.927279,0.6354617,0.067879714,1.1000134,-0.26303312,-0.5984591,1.281524,1.4096745
MMRF_1439,-0.8046838,0.32906744,0.9406252,-1.1044955,-0.31334913,-0.025482824,1.4217588,-1.0546024,-1.6713641,0.63050103,-2.663322,0.78504115,1.2677999,-0.9814019,0.13215719,-0.56083125,1.1175742,0.5337427,0.019887049,1.2809205,0.8839468,-1.4438871,-0.07041112,0.64387584,1.6532396,1.3775305,-1.085506,1.534277,0.8073887,0.5771116,-1.2711499,-0.24486846,-1.049309,0.29866594,0.70476514,-1.0918589,0.098318,0.0508203,0.2004342,0.8500798,-0.12876649,-0.41851088,-0.22243199,-1.7758945,-0.98766184,0.8265727,0.718877,1.5825576,0.5590918,-0.5629046,-0.34477493,-0.26194757,0.07389256,1.8701353,-1.3277823,-2.0251245,0.9831548,-2.2542787,0.63415086,-0.98726594,-0.5789578,1.3128725,0.51738125,0.29687127,1.0001955,0.30924174,-1.735834,-1.5444216,1.8606732,-0.09997146,0.9769149,-1.5331593,-0.46181208,-0.21543896,0.7572016,-0.059333242,-0.25601545,1.4417334,1.2952175,-1.9505097,0.7280311,1.2856059,-1.0610111,2.4132423,-0.8720857,-0.5109668,0.81944954,-0.372273,0.75706524,0.070243075,0.3760268,0.30578446,0.23008333,0.89935553,0.277485,1.5113347,0.664666,-0.24379677,-0.88272357,-1.0053542,0.063787356,-0.49262258,-0.81228447,-0.19927795,-0.82233477,0.77911913,-0.42041007,-1.2668183,-0.31020215,-0.43870893,-0.968676,-0.03344725,2.0871115,0.85916615,0.42282164,-1.0785246,0.19963494,-1.9737828,0.27035588,-0.4194628,0.814325,-0.11354018,-0.09392986,0.22310452,-0.5104726,-1.7870392,0.038430035,0.55344164
MMRF_1450,0.12086721,-0.5503012,1.5653913,1.9558228,-1.8076851,1.2801121,-0.71089286,-1.5820827,-1.7169745,-0.3940893,-1.7900146,-0.84376246,1.1126457,1.4321876,0.7752577,1.5743756,0.3311648,1.1216191,1.4304835,-0.18475035,-1.229571,-1.2684386,-1.2905151,0.6012327,0.12197878,-0.4553274,-0.11790812,-0.59939724,1.1835251,-0.5620637,-0.42875144,-0.36550963,-1.1320189,-0.19563848,-0.6871898,-0.26213372,1.0742006,2.6735983,1.833449,0.12301636,0.27103347,-0.4273449,-0.19196281,-0.6429882,-0.24424094,-2.303518,0.036234174,1.320915,-0.14797463,-1.4094615,-0.036846634,-0.3464683,0.78203034,0.24765648,0.51168394,0.042385824,1.167308,-2.6158438,0.52100676,-0.92485726,0.8707103,-0.085716486,1.2295178,-1.6221172,-0.09216189,-0.40434614,0.37076348,-0.313156,-0.13652658,-1.1849892,0.56172025,0.028661907,-0.010773576,-0.048515067,-0.355573,-2.2214658,0.1818531,-0.307177,0.39456576,-0.35172242,-0.6673596,0.268118,-2.1485958,1.5876517,-0.9921678,-0.5097837,0.038539898,-1.4008777,0.6131411,-0.5129847,-0.12199197,2.0485022,1.3093371,0.1537878,-0.5545938,-0.7057838,-0.31624418,0.53236324,-1.5243345,-0.48243326,1.1618083,0.029028358,1.1717579,0.767402,0.76875967,0.33589423,1.0108855,-1.0253854,0.2663857,1.0471089,-1.6990734,-0.6287705,0.3284593,-0.8588223,1.1371201,0.17102642,0.42639473,1.5172181,-0.286359,0.8111315,0.39684898,1.0663549,1.3484709,0.8818151,0.15376817,-0.27408233,-1.228884,0.15905273
MMRF_1451,0.6937853,-0.3161867,0.47900382,0.61691797,-1.8090734,0.90830064,-0.14096874,-0.67959464,1.1758003,-0.449168,0.72452193,0.8965521,0.38746578,0.15563159,-0.6812011,-1.0223569,-0.03427561,0.68532574,-0.36749735,-0.0949544,-2.0155199,1.3890215,-0.19682159,-0.88836783,1.500913,-0.62552863,-0.31904605,-1.3186834,1.0542433,-0.35106802,1.0808293,1.7406411,1.6013628,-0.5778637,0.37054706,0.5475587,0.15035193,-0.6736311,1.9361285,-0.87024283,-1.4084809,-1.2110916,0.9197037,0.31895867,-1.0427954,-0.11442469,1.447207,-0.65300083,1.4614447,-0.15839478,-0.92856324,-0.29316825,0.14094025,0.30301395,-0.04631073,1.3843645,-0.4348539,-0.09738826,-1.0478898,-1.1493568,-0.3161027,0.8731202,-1.7813914,0.811309,-1.5638028,1.0773259,2.392202,1.9773881,1.0685416,0.00033056922,0.73956037,-0.44060463,-0.12789793,-0.3769552,-2.5387666,-1.1182301,0.9721958,-0.4735033,-2.4300363,-0.85954404,-1.6491705,1.3413391,-0.52818197,-1.3260959,0.26597828,1.1783193,1.5269132,0.39093754,-0.38349542,0.74548256,0.4797432,-0.9211767,-0.52872014,0.13102362,-0.5379312,-1.7506032,0.7075474,-0.25625733,-0.89215726,0.6071451,0.55340827,-0.1771063,0.14704615,1.160328,-0.0476588,1.225484,-0.62293684,2.0078192,1.1065532,-1.1270976,-1.3369975,-0.10994515,0.5591039,-0.43010888,-0.04890638,0.85343695,-0.21698472,0.6215052,-1.6103569,1.8356812,0.8749256,-0.1469516,-0.2902137,-1.087479,-0.6134877,-0.1613754,-0.964777,-0.52588
MMRF_1454,1.5916674,0.008812252,-0.7388135,-0.7981389,0.6513328,-1.8729267,-0.7194864,0.47392434,-0.1301849,-1.8015349,0.123111874,0.71047413,-1.730315,-0.5069545,-0.7741981,-1.0925038,0.17490804,-0.73188883,-0.26177606,0.6083963,0.887534,-0.029265571,0.88801074,-0.6512486,-0.2800838,1.2103992,-0.24416354,0.41374514,-1.297989,0.55643314,1.0907296,-0.61410284,0.6000751,-0.10130832,-0.29082513,0.7434229,-0.50030243,-0.66732067,1.2079175,-0.7473539,0.30681902,-1.4090886,1.4395294,1.8466431,-0.065004975,1.3608975,0.20805538,-0.92073596,0.72275585,-0.22830161,0.24973679,-0.4318767,0.4720453,0.27775073,-0.21844018,-0.3743883,-0.23080008,4.3220954,-1.0865791,1.1905023,-0.12426841,-1.3497223,-2.004981,1.566828,1.1373228,-0.9657895,0.7634893,0.5915003,-1.4871471,0.91224766,-0.3154454,-0.65147763,0.883978,-1.398061,-0.3318254,0.8153812,0.19981824,1.3122007,1.241263,1.0081569,-0.41667783,-0.8957627,0.74000496,-0.8313197,0.5348601,1.1557043,-0.78953147,2.2539957,-0.19669881,-0.22648153,-0.60615003,-1.4431545,0.3907247,0.031104162,0.07558759,0.40923434,1.5920825,1.4812865,0.5542896,0.4148542,-1.2460335,0.43081918,-1.3365831,-0.01646098,-1.7776376,-0.13194793,-0.28717753,-0.07923753,-1.8445768,-1.0862527,-1.0030148,0.7330547,1.436504,1.0455825,-0.34382007,-0.049300395,0.5452446,-0.6148985,-0.48299038,0.17189598,-1.8730239,-0.13293874,-0.18723051,0.7868376,0.10955227,-0.25426468,0.6683633,-1.8204392
MMRF_1460,0.17605796,3.5376604,0.16905169,0.19987704,-0.69238067,-0.5123641,1.2786105,0.92530805,-0.32519573,-2.9114404,-1.6341435,0.474365,-0.86992395,0.44226477,0.9140755,0.14046548,0.09360737,-1.4279457,-1.6056737,0.8884493,-0.32189575,0.69309515,0.42699593,-0.82108647,0.88716066,2.0348217,0.19913934,0.03696245,-0.06336776,-1.0765612,-0.15093529,-0.40847668,-0.13147381,0.5956402,1.170333,1.3780171,-0.6209851,-0.69473416,1.793183,-0.85545695,-0.7971981,0.77027816,-0.20027721,0.47629914,1.095518,-2.3543,0.5846442,-1.3363428,0.060764678,-0.45913163,1.8889326,-0.23501098,0.06141115,-1.197102,0.29670027,0.09239726,0.31718257,-1.2995421,-0.3631603,0.8548178,0.5610891,0.0014789589,0.5738431,1.4824407,-1.5787417,-0.48994827,-0.7875783,0.7179963,0.7584587,-0.3576324,-1.480265,0.26588207,1.4261149,0.44580284,-0.18637976,-1.7789981,-1.3001784,-1.981396,0.34777302,0.024370648,-0.73353404,-1.0923694,-0.418867,0.68098015,0.6058818,-0.2897927,-1.0519608,-0.6245404,0.12860607,-0.5262475,0.39164552,-0.14495386,0.57032293,-0.6729917,2.0060992,-1.1821567,0.853448,-1.3317732,1.0813732,-1.2596095,0.91786087,0.7811737,0.24785583,1.6932315,0.17212376,1.3055041,0.23569871,-0.29467174,0.79672927,-1.3281782,-1.6997756,-0.92620933,-0.538701,1.0694593,-0.27390885,-0.3145523,-0.32455218,0.42743248,-0.5701531,1.7508688,-0.09470515,0.68906826,-0.58293116,1.3208092,1.0427761,-0.27085167,-0.70538884,0.19815415
MMRF_1461,0.46077082,-1.5639905,0.9124519,0.03497972,-1.6178974,0.1247685,0.37420136,-0.26287493,-0.97829676,2.7816558,-0.8013209,-0.6567016,1.7498119,0.2935946,-1.5758253,-0.48351198,1.7370794,1.6500984,1.191741,-1.0688939,0.46912384,-0.00018059963,0.14511007,0.17861657,1.7897654,-2.0368714,0.39444134,-2.285148,0.029436795,1.3451136,-0.10532916,-0.4299424,-0.5414766,-1.897683,1.2908838,-1.4105604,0.09196555,-0.056415632,0.7691289,-0.08655785,-0.7697899,0.08649565,0.4624341,-0.56759256,-1.3091637,0.81255144,-0.7178779,0.52895397,-0.1729205,0.016266251,-2.0704515,0.9144093,0.10904542,-0.6814086,-0.32395014,0.6443669,0.49530905,0.7931699,-1.2675825,-1.7371238,-1.5686631,-0.6973651,0.3221175,-0.7635352,0.97411484,0.5637105,1.2699769,0.5660371,-0.40201738,-0.1031218,1.5512565,0.25138402,-0.2845348,1.140809,-0.5514938,-1.2491679,1.395777,1.72736,-0.6050159,-1.6262782,0.1400992,2.0751517,0.032500293,1.1706779,0.54539186,0.9931642,0.5750882,0.54387575,-1.0926172,2.1089303,-0.16288522,-0.5870067,-0.89278024,-0.9535036,-0.6584686,0.360405,-0.16837025,1.7122786,-1.1705811,0.16268241,0.8094635,-0.49891245,0.35973942,-0.5767629,-0.068834364,-1.2640475,-0.32700822,0.65559095,0.06735319,0.5136985,-0.17911191,1.0436866,1.4944929,-2.0105257,0.1929326,0.5731594,-0.16552067,0.29813528,-1.2356521,0.33242542,0.45848897,-0.2259709,0.091555156,-0.72560906,-0.9325046,0.87324053,-1.5399188,0.002139723
MMRF_1324,0.02826406,0.038305603,-0.80864197,0.49895346,-0.7624703,-1.4833237,0.9983303,-1.5032463,0.4367912,0.6749936,0.09277865,1.0706038,-0.079628095,-0.43343836,-0.6094154,-1.0804896,0.740919,1.7956946,-0.16540498,-1.4359999,-0.19754459,1.4038844,0.5603354,-0.8591731,-0.6130213,0.3107045,0.7684298,-2.1654897,-0.6410597,0.6503677,0.76313156,-0.6180023,1.036292,-1.2245831,2.3953083,-0.115980655,-1.281482,-1.4898949,-1.1466858,-0.46758178,-1.99707,-0.4368431,0.3753968,1.7100607,-2.2479734,1.113639,0.52322996,-0.6325213,1.6191609,0.13399589,-1.0715325,1.0274847,0.42838654,-0.5971782,-0.58116907,1.2702935,-0.2029083,0.8528455,-1.050981,-0.30013993,-1.710523,-0.08974099,-1.3407761,1.050188,0.53354543,1.6994351,1.6028632,0.4008459,-0.13449548,-0.22240521,1.416742,0.17318799,-0.03035899,0.2795595,-0.8558415,-0.21541706,1.0859122,0.61476064,-1.097835,-0.90925246,-0.9449089,0.9570322,0.5774896,0.5303469,-0.19181716,1.65597,0.9552579,1.1339196,0.45008618,1.6686399,1.130635,-1.9418185,-1.5614809,-0.5479307,0.16760054,-0.8025538,1.6377302,1.3283195,0.7994146,0.69251347,0.21362159,-0.9004855,-1.0553477,-0.43441048,0.7945209,0.10142778,-1.473549,0.47722602,0.40315408,-0.038478132,-0.12418829,-0.28045848,0.83838415,-1.8966806,-0.58629614,0.47143215,-1.3535166,0.20475191,-0.62452435,2.06058,0.36230838,-0.9133827,-1.0305933,-0.4223625,0.5351427,1.0353237,-0.5172321,-0.7299094
MMRF_1392,0.4973844,0.9767562,1.3616767,-0.18618244,-0.1918576,-0.5967443,-0.96175605,-0.4640788,-0.7082344,-1.5262789,-0.7098504,-1.4815694,-0.8510066,-0.37928334,0.20692666,0.24143492,-1.8596447,-1.1611118,0.25752136,1.8443843,-1.0484692,0.9699659,0.3411028,-0.7083622,0.83631164,1.7789947,1.6531513,3.0678322,-0.13855962,0.24783936,-0.6885145,1.418944,-1.0153667,0.42225546,-1.2801983,3.2461257,0.54409957,0.53002024,1.166872,-0.3149906,1.5448089,0.63099575,0.4533749,0.79233205,-0.20140898,-1.3485506,0.4504695,-0.0143792275,1.1710086,-0.7996839,1.3908758,-0.24822436,-0.40506697,0.47764248,0.46502715,-0.00076598115,0.5831143,0.5256336,-1.1858512,1.6462511,0.6367156,0.31717786,0.013161685,-0.9693829,0.424892,-1.1723752,-0.35282788,0.4330193,-0.4020989,0.5037557,-1.6875172,1.749753,-0.10283476,-0.9474861,0.5603698,-1.1176245,0.026847985,-0.84318066,0.7203081,1.4270806,-0.19618605,-2.5603993,-1.7032619,0.6013232,-0.062199153,-1.9771916,0.034628086,-0.5132213,0.6437836,-2.0149307,0.71933013,-0.04924571,2.227541,-0.41195697,-1.1861484,-0.29014054,0.46710503,-1.2847518,-0.41860223,0.23894,-0.8259211,-0.4629667,0.17797384,0.12539682,0.5777025,1.0153241,0.09885348,-0.79020566,-0.06462857,-0.64545506,-1.6891756,-0.69215107,0.67160344,1.0181507,0.06617884,-1.149797,0.34512007,0.6975439,-0.43861848,-0.79456276,-1.0411036,0.5635214,-0.33800215,0.6438429,4.4964254e-05,-0.13041063,0.9913065,-0.6279041
MMRF_1413,-1.2221313,0.6280943,-1.3925381,0.7307966,-0.09735574,-1.0559685,-0.050802536,-0.6042419,1.2218798,-1.4380643,0.35938963,-1.1432596,-1.8743873,-1.1520728,0.49858537,0.54158175,-0.42616534,0.021005295,-0.027441304,-1.3943441,0.71535456,-0.2625188,0.09171265,-0.23474243,-0.40874702,1.0955528,0.942542,-0.60053545,-0.5939205,-0.38892496,1.1563668,0.603294,1.7755194,-0.03280399,1.5300425,0.22929023,-0.26250726,-1.6329572,-0.48779127,-1.846081,-0.6961886,-0.34746498,0.43019664,2.4738874,-1.0956054,-0.6388292,0.12164181,-0.32581395,0.98155314,-0.39843646,0.16151978,1.2197101,1.1745667,0.42860347,-0.2653188,1.3053117,-0.8953001,2.2016647,-0.40152854,1.7538152,-1.8124241,-0.91771466,-1.8979964,1.6383044,0.9287887,0.5083727,1.4775168,-1.483181,-1.9735332,-0.038817406,-1.0437622,0.16083202,0.12639283,0.48935777,-1.0727212,0.1346692,-0.035347566,-1.5978746,0.93639386,0.2305609,-0.94113433,-1.3313797,1.0818152,0.28669316,0.74166584,0.87784904,0.03355903,1.714122,-0.20571338,0.27184042,1.3450122,-1.1286073,-0.9084595,-0.4761356,-0.98795897,-0.56695825,1.4911828,0.5717386,1.3429703,0.28755817,-0.77776694,-0.08834997,-0.17417145,0.46368834,-0.2767058,0.67337763,-1.0146464,0.77083516,-0.023192216,-1.1614542,-0.94413286,-0.64101124,-0.6182235,-0.5523261,1.4824145,1.7973418,0.8158732,-0.99043226,0.9666018,0.3369677,-0.6921515,0.6856891,-0.424685,-1.4223238,1.8902092,1.5923378,0.4402811,-0.97212464
MMRF_1393,-1.2871094,2.4859107,1.0088878,-1.3824308,-0.344197,-0.22114722,0.99460703,-1.1604688,0.14601584,0.21857113,-2.4339643,1.0214411,0.07066171,1.2498595,1.3076237,-0.6127249,-0.21087039,-1.0575696,-0.5729653,1.1563454,0.027571592,-0.5535057,-1.2442838,0.186661,1.2574512,1.2285862,-0.43768778,1.1148701,1.2650605,-1.5258813,-1.6416893,0.43367562,-1.5541676,1.443998,0.80154973,-0.527113,-0.7212344,0.41352624,-0.67466486,0.5796757,-0.60837287,1.5796107,0.4053565,-0.77331924,0.070693396,-2.0366087,0.40458223,-0.011439067,-0.16244765,0.30968177,0.7883977,-1.0587299,-1.2523906,1.5174038,-1.5488847,-0.012251468,0.61519057,-2.639089,0.9377018,-0.41502732,0.6196717,0.91721547,1.0512817,0.99191624,-0.7898035,0.99078906,-2.2351735,0.115517974,1.5974224,-0.9699061,0.11595902,-0.04743799,0.88795084,0.987938,-0.42699927,0.25251442,-0.90641767,-1.3213025,-0.16366087,-1.1730603,-0.18129247,0.23522562,-0.6291592,1.3549032,-0.80563027,-0.77768487,0.051552482,-1.4266223,1.5073712,0.43125078,0.2271355,0.61306155,0.32442203,-0.2348092,-0.38200593,1.257088,0.5176205,-1.4342163,-0.1362686,-1.4125221,1.4413604,0.25298828,2.7351084,0.7112922,0.8754797,1.4568167,-0.22743621,0.2808799,0.6180507,0.7299578,-1.9388332,-0.45729682,-0.26595476,0.3037418,0.067754485,-0.9415046,-0.4182297,-0.34973216,0.6745736,-0.10506048,-0.3007609,-0.103032395,-0.11631291,0.5870955,-1.0488945,-0.79712653,-0.2781231,0.5640657
MMRF_1148,-0.7641012,1.177854,-0.49568087,1.953909,-1.4848852,-1.0468314,-0.5039201,-0.9042921,0.025161179,-0.9472793,0.23141412,-0.9411455,-0.59004414,-0.42585254,-0.616927,1.1841344,0.40642354,1.6141832,1.2060759,-1.0081095,-1.5715129,1.0248095,-1.4338173,-0.19005415,-0.3092987,-0.04024718,1.0506611,-0.71043587,-0.3338879,-0.42282665,0.43752035,0.5208913,0.66882986,-1.226368,0.8081499,1.141431,0.39604893,0.5655443,0.46610948,-0.14815578,0.7119652,0.3977128,-0.34972185,1.4235364,-0.6619124,-0.8539753,0.62737954,1.0189381,1.7828194,0.51325446,0.29729193,0.8658335,0.19305941,-1.135394,-0.12292366,0.59458727,-1.3925488,-0.73655,-0.16364641,-0.15437648,0.63365614,0.45397657,-1.0421859,-0.33416444,0.17985436,1.2560612,1.1691543,-0.4601888,0.43781948,-0.20776464,0.9754651,0.59396166,0.4703719,0.8966656,-0.23419692,-2.8968003,1.3256916,-2.8855445,-0.4789593,1.1393168,-2.1369636,-0.26406604,-0.26688805,2.2472453,-1.1609757,1.6148572,1.0065862,-0.9340363,0.48198953,-1.152563,1.4538717,-0.27261245,0.32737827,-0.912872,1.437786,-0.99320555,-0.13621397,0.5823123,-0.70739746,0.8533998,0.8557756,-0.4741601,0.3680219,-0.6795624,1.0205259,0.4258032,-0.36118397,-0.027999068,0.48102987,-0.10026369,-1.9578515,-1.5729468,0.38569522,-3.0922132,1.212645,0.29611188,-0.12348898,-0.060348336,-1.4446212,0.9346209,-0.30300108,0.39097923,0.14385396,0.09695408,1.5961137,-0.21782647,-1.7484521,0.2381035
