patient_id,0,1,2,3,4,5,6,7,8,9,10,11,12,13,14,15,16,17,18,19,20,21,22,23,24,25,26,27,28,29,30,31,32,33,34,35,36,37,38,39,40,41,42,43,44,45,46,47,48,49,50,51,52,53,54,55,56,57,58,59,60,61,62,63,64,65,66,67,68,69,70,71,72,73,74,75,76,77,78,79,80,81,82,83,84,85,86,87,88,89,90,91,92,93,94,95,96,97,98,99,100,101,102,103,104,105,106,107,108,109,110,111,112,113,114,115,116,117,118,119,120,121,122,123,124,125,126,127
MMRF_1231,-0.523949,-1.862606,1.4977717,-0.63943136,-0.983333,-0.04104083,0.16655637,0.89827967,-1.2730893,0.96867514,0.57667273,0.6875827,-0.23199955,1.3982298,-0.17991273,0.3028569,-0.10030433,-0.35140213,1.3077513,0.2923798,-0.561628,0.40709162,-0.6040902,1.5994062,-1.3949544,0.88896894,-1.050404,0.26677522,0.6552826,1.1391332,-0.24433431,-0.9553938,0.19868982,0.19474055,-1.6900707,1.1117947,-1.5844996,1.4104177,0.27221015,-0.1811368,-1.4718015,0.24811257,0.18584223,2.047238,0.7113114,1.2512153,-1.6314031,0.5357995,0.3590165,-1.5731592,-0.7923074,-0.86954623,0.35461715,0.36587265,0.07409432,0.8600066,-0.038490772,-0.48024338,-0.66582096,0.30379122,-0.9411273,1.1506763,1.4163904,-0.27066547,1.4015458,0.18884766,-1.3711998,-0.9123499,-1.0466691,-0.42491823,-0.12567542,0.5323545,1.8192071,-1.2338206,-1.3725969,-1.5906274,-0.66507643,0.29135305,-0.5150748,1.5542611,-0.2522165,1.0327588,-0.8928545,1.5818783,-1.602117,-0.8652873,1.4610009,0.7322,0.8389595,-0.059443504,-2.1728942,-1.0628278,-0.47623858,-0.348045,-0.5476157,0.7002385,0.9372636,-0.73621243,0.58997506,0.24961859,0.32187495,1.6236333,1.4111313,-0.17410353,-0.83221686,-0.2723733,2.3584285,-1.7674934,0.9346142,-0.8852381,-0.647765,-0.27960384,-1.401589,-0.060610805,-0.13869368,1.9801078,-0.38760656,-1.4813132,1.5113584,0.42304417,-0.2691179,-0.46846682,-1.3482987,0.18990977,-0.5246981,-0.28521907,2.112733,-0.11412699
MMRF_1032,1.0362282,-0.9745802,1.1380656,0.43604562,-0.23489802,0.36877704,-0.01354735,0.9344614,0.20615417,0.09370975,0.9768316,0.7266545,1.8519082,0.74759835,0.02818973,-0.03382843,0.024546977,-0.26770324,-0.9405442,2.1295817,-1.2954926,0.58850473,-0.7895772,-0.41868806,0.42575753,-1.5636121,-1.4299049,1.1197222,-0.06824186,-0.7813772,-0.0910632,0.8307279,0.44091523,1.0584806,-0.6675082,-0.46153086,0.5126406,-0.76946586,-0.32754707,0.30530205,1.3460207,0.67689764,0.67664015,-0.29159445,-1.1495012,0.84110296,-0.4672498,-1.9793267,1.0095804,-0.036416963,-0.6300162,0.93905,-1.9741408,0.331802,0.15765595,1.0632108,-1.1992944,0.9336913,-1.3224465,-0.5528419,1.5466478,-1.487617,0.84265625,1.523719,-2.0931237,-0.046866473,-1.3156239,-0.5443296,1.1199641,-1.4906784,-0.29126406,0.7383098,2.408625,-0.25145966,-0.5774296,-0.7905938,-1.2874051,-0.38708833,0.9010292,1.2980863,2.1974027,-0.5823364,-0.19907634,0.6071211,0.73907566,-0.5256478,-1.1236743,-1.1215243,1.2550551,1.8600736,-0.3545229,1.194951,-0.62849605,-0.10397492,-0.062019303,-2.2988765,-1.896976,1.8102616,1.503853,-0.0493864,-0.07014247,-0.39641485,-1.2043447,0.0477503,0.17271191,1.206993,-0.037033647,0.653617,-0.5017531,-1.9814774,-0.7112239,-0.45540974,-0.8778408,-0.16520725,1.007395,0.45235753,-1.704104,0.06820517,-0.53856933,0.675495,-1.0682864,0.874632,1.0842699,-1.0611691,-0.21449964,-0.28006315,-0.7111982,0.56529707
MMRF_1327,0.43804285,0.59376705,1.003453,0.046786163,0.010771581,-0.7035594,-0.37855008,-0.012072789,-0.34199914,1.2634119,1.2969997,0.27749845,-0.04800568,2.410845,1.470236,1.3569809,-0.058927223,1.0878476,-0.08312292,0.87972057,-1.3055931,1.1719849,-0.29443607,1.1485382,1.210356,-0.06427569,-1.3374352,1.189103,-0.5427783,0.6501429,-0.91556555,-1.1822294,1.7100009,-0.5515654,0.82487327,0.27253804,2.267139,-1.4767516,2.166158,0.9006402,-1.8270023,0.63881254,0.016845241,-0.77009684,1.7575213,0.9075236,-0.18797618,-2.111663,-1.3130578,-0.5193313,-0.3790701,0.65896577,-0.5026478,0.47022033,-0.41019744,0.6346771,-0.49334612,-0.7384596,-0.06476019,-2.4804611,0.18188065,-1.0436913,-0.16385101,0.9025431,-0.32259855,1.61457,0.18299973,0.06532204,1.2256589,-0.9336814,-0.67278135,0.25757825,1.2383438,-0.7047602,0.15338042,0.21868819,-0.59374803,0.68227416,-0.8592249,0.23411757,-1.9711162,0.23781027,0.4379024,-0.5297914,1.2264504,-0.018768782,0.74200153,-0.282151,1.5471789,1.3103191,0.23691972,0.9836875,-0.7084303,-0.004696247,-0.5541609,-0.59839946,-0.73605186,0.68853086,0.78458875,-0.746626,0.2367366,-0.9193384,-1.4278096,-2.9822817,-0.7995285,0.9152382,-0.30771202,0.5274945,0.67449313,-1.1681116,0.9135366,0.20102583,0.42006743,0.49526253,0.79792064,-0.587296,-2.5594687,-0.5703956,-1.1333045,0.19940358,-0.75890845,-0.40316442,-0.89727074,-1.7868074,-0.99690354,-0.9919446,-0.19287884,-0.22826539
MMRF_1210,-0.11286058,-0.43756267,0.8583985,2.0473883,0.60875887,-0.21543953,0.8119698,1.6451818,-1.4293985,-0.33405623,1.1311448,0.66786516,1.5019274,0.2138794,-1.8089774,-0.45721394,-0.39422613,-0.7407898,-0.63029283,1.3108248,-0.65851116,-0.7126318,-0.21807307,-1.6777282,0.10904771,-1.4722815,0.15125082,1.3568285,0.5410337,0.117188826,-0.9951465,1.1404712,0.52639806,0.29619533,1.5342063,1.444855,1.7693135,-0.38075122,-0.8417915,-1.4567881,1.0065087,-1.6431041,0.63423216,-0.2803002,-0.7633735,0.6610382,-0.62248564,-0.77281225,1.1486226,0.17388362,0.15701199,0.5370085,-0.23215768,0.0799321,-0.33996525,-1.023159,-0.56905293,-0.26425967,-0.012982808,1.4475343,0.98448163,-0.46098834,-0.95909756,-0.8948608,-1.6949811,0.33882755,-1.4304755,0.05651404,1.3444278,-1.0763558,-0.82675415,0.3619714,0.0075966073,-0.9989749,0.0601461,1.4062979,-0.43686214,-0.7390009,1.99424,-0.085216306,-0.36178714,1.2298688,1.0611339,1.7830999,0.76308477,0.30750573,0.82412964,-0.6492002,1.32707,1.0255659,0.042609584,1.2939475,-2.1469924,-0.08414407,-1.6281894,-1.3830812,-0.6162029,0.9119477,-0.3384573,-1.8015057,-0.8691382,0.18483566,-1.9041945,0.059209567,1.1611543,1.4603049,-1.3225819,0.6969567,0.816335,-1.6256765,-1.2219447,0.110050134,-1.2624985,-1.1715456,1.3737073,0.7327225,0.8533922,-0.7974408,0.12609312,0.47720104,-0.17341849,-1.1319737,1.5158349,-0.13653405,-0.6824909,0.47264528,0.88365036,-1.1764373
MMRF_1269,-0.9394065,-1.5029966,2.0183537,-0.17317261,-0.2213894,0.2070483,1.1279017,0.089339405,0.45613894,-1.038946,1.9233032,1.3493956,-0.2866579,0.73106873,-0.7390194,0.72134554,0.28857073,-1.0904262,-0.030751614,1.6417812,-0.63591886,0.86273456,0.07826043,1.208048,-1.8856952,1.0426362,-0.80925715,-0.59177727,0.0688483,-0.15339245,1.3976632,-1.8783495,0.45923263,-0.2952875,-1.8543469,1.143508,-2.4347749,0.75350803,-0.16027473,-0.61423695,-1.4336665,0.17939666,0.01606005,2.0333405,1.4621766,0.2759121,-0.39909175,1.6874003,-1.1826361,-2.1243722,-1.0831729,-0.32146838,1.2931074,0.054618254,-0.9471527,-0.08765026,0.14422569,-0.80508584,-0.5946962,-0.44835836,0.14609788,0.38821423,0.71482384,0.041970838,0.6703837,0.47231483,-0.6701174,-0.6259458,-0.74414754,-1.2118448,-0.101184085,-0.04395038,1.2309836,-1.2804713,-0.097607985,-0.5850934,-0.67746216,0.37062794,-0.08994323,1.0661438,0.34913126,0.5446339,-1.6054318,1.6099272,-0.9010423,0.08290524,0.37841493,-0.31937456,-0.08755599,0.3756658,-0.9861608,-1.3906175,-0.8743066,-0.16288179,0.7385949,0.188474,0.7446384,-0.68568236,0.18916945,-1.1612691,0.79142034,1.138389,2.0934265,0.3368927,-1.8923792,0.34452572,1.6319937,-1.6752487,1.857172,-1.5919956,0.025462141,0.6666492,-1.49725,0.27428323,-0.43158022,1.7164673,0.08820422,-1.3602123,0.3594993,0.8711925,0.6285507,1.0739672,-1.3653805,-0.41037387,-0.21551952,0.8389609,1.2891434,0.5652139
MMRF_1251,-0.16459855,0.8065703,-0.1795741,-1.2604215,-0.40680927,1.242259,-1.030046,-1.8515335,-1.5271786,-1.6520475,0.49976933,0.35480937,-0.7095563,1.334712,-0.5004461,-0.45201543,-0.40396747,-0.75999886,-2.1244628,1.023512,-0.5500255,0.33336493,-0.456655,0.33132714,-0.15864573,1.7201505,-1.7595248,-0.8738888,-1.9850425,-1.4423442,1.0280887,-1.5520055,-0.8796031,-0.116355576,-0.09567639,-1.7666106,-0.68882453,1.1056354,0.97645295,1.3927263,-0.5877172,0.25278693,0.73614955,0.7699385,1.2741796,0.41029367,-0.6887659,1.3869567,-2.144321,-0.26753533,-0.5952489,-0.14754692,-0.016749755,1.7240647,-0.36569947,-0.6112631,2.1740544,-0.18044399,1.0396707,-1.9587327,0.86333436,1.9904368,0.041346353,0.7812848,0.7122965,-0.19419695,1.3430701,0.499591,-0.38822865,0.60519665,0.0011359977,0.43156955,0.020158444,-0.26956758,1.0106769,-0.04499554,1.489783,-0.4185011,-1.7486116,-0.3012219,-1.6598077,-0.37459207,0.958177,0.5409473,0.90386426,0.377873,0.42644316,-0.20617115,-0.7443754,0.8440486,0.9055783,-0.3768059,-0.91592175,2.1804142,0.76709557,1.1534295,0.0960822,0.032905426,-1.2027458,0.9393444,0.06304311,0.27201107,1.2062641,-0.14065802,-0.7761088,-0.33851996,0.4962682,-1.3402528,-0.7485516,1.3626486,0.20836082,-0.37555137,-0.62388045,1.7513714,-1.4587226,-0.443589,0.41108397,-0.8454683,-0.82488275,-1.846868,1.6561581,-0.043980733,0.50596446,0.7871549,-0.18515489,-0.16090368,0.7356768,0.62999594
MMRF_1328,-0.33237654,-0.6445019,-1.2578497,1.1031247,-1.9297636,1.9311503,0.88706344,0.64498097,0.06282848,0.64980006,-0.40626177,0.100479595,0.9214737,-1.9759055,-1.5601131,2.0618265,-1.8882214,-0.98704785,0.55603653,-1.2745727,-1.714565,-0.4404596,-1.2215332,1.3117619,-1.906379,0.32454374,1.5718303,-0.17585172,0.6060877,-1.405388,0.48049906,-0.3433083,-0.2780806,-1.6034272,0.7555312,2.1437962,0.9497596,1.5179036,1.7301269,0.49088785,0.026778854,0.16673712,-1.0737095,1.0013589,-0.86739594,0.18873687,0.6497252,0.060593303,0.4639747,0.004507249,1.3570257,-2.36403,-0.28068036,0.24518815,-0.3964294,-0.35520884,1.2888538,-1.3719559,0.046412267,0.69841176,-0.31156585,1.135986,-1.6409968,-1.0361744,1.0968846,0.37840113,-1.440499,0.12728834,-0.40992087,0.71874857,0.27411804,-0.25674614,-0.68993235,0.6261302,-0.10671142,-0.33778027,1.0473143,0.8502022,1.0268244,-0.75377834,0.32627818,-0.55491585,0.7740902,1.0464476,-0.48865682,0.67510754,0.36034784,-0.5961369,0.8971141,-0.5870403,1.4991819,0.23357153,0.4688721,1.0505505,-0.937558,0.9166958,0.942603,-2.0006387,-1.611056,0.68902457,0.5270623,0.35709402,1.3265681,0.57168347,-0.6375927,0.116718814,-2.4370337,0.7592438,0.22369552,-0.68631244,-0.63229215,0.5432805,-1.337265,-0.17332631,1.0646142,-0.3368053,0.22680412,-0.9453101,0.023504801,-0.6996967,0.33968133,0.6955926,0.86432827,-0.19821027,-1.6387379,-0.52480495,-0.8899817,1.1708322
MMRF_1171,-0.97205275,1.372088,-0.70270205,0.17546807,-0.34867084,0.7508711,-1.4282427,-0.27060005,0.08760537,-0.5772313,-2.2895641,-1.4462432,-0.20305936,0.26738942,0.1307962,-2.1351464,0.092462316,-0.8284451,-0.26250342,0.30831486,0.7617234,-1.2822149,-1.7397451,-0.67181176,0.49766403,-0.10492668,1.0866358,0.12941521,-0.18932545,0.21307243,-0.89642173,0.48884335,-0.14432155,0.8789597,0.38815925,-3.2821083,0.06560031,-0.4042177,-0.08418418,-0.47520483,1.1830939,-0.28741357,1.213566,-0.057444245,0.077781,0.55170995,0.31047216,0.9939267,1.5971365,1.1725811,0.27317587,2.0037801,-0.3727028,0.5983681,1.3235793,0.5585551,-0.23197992,2.1375864,-0.29054487,1.1915619,-0.5349123,1.1725938,0.15831503,-1.5941012,-1.815694,0.9655054,0.12675053,-0.14598757,-0.058811538,1.4827061,0.9841934,2.1502655,-0.9624451,-0.80962646,0.57209426,0.33910894,0.24968575,0.84607065,-0.79804844,-0.09010826,-1.7930481,0.47470352,1.6490092,0.43137738,0.14230274,0.33774048,-1.4216213,0.9574639,0.25300258,0.4455585,0.3280625,-1.0394945,0.7075149,0.08320638,0.018596366,0.0064147618,-0.67712134,-1.3982042,-0.69115406,-0.16883405,-2.0166407,0.6389112,-0.6500091,0.11264514,0.9538542,0.68675244,-0.47421846,-1.657955,-1.7344283,1.3605728,0.5111433,-1.8271341,0.34528726,-0.53024054,-1.1924253,0.60275984,-0.45014808,-0.50748414,0.3821028,-0.24661759,0.31783786,-0.3730287,1.9525442,1.8164765,1.0966208,-0.2568357,0.9016956,-1.5158336
MMRF_1354,0.270885,1.1611383,-1.3336424,-0.8408125,0.8390053,-1.906582,0.61151433,-0.32449505,-0.20024729,-0.4803218,-1.0524778,1.707218,-2.702153,-0.8120524,1.7868451,-1.8499486,0.9994097,0.30712888,-0.025204716,-1.1130387,0.96538055,-1.0815289,1.3115221,-0.7271572,-0.6758075,0.22708838,-0.2880967,0.7646992,0.52646446,0.08813582,-0.48153067,2.1983507,-0.41062474,0.90646416,1.5441175,0.46377084,-0.36063913,-0.9877833,-0.023722129,-0.49699283,-0.18937796,-2.1930678,-0.5327277,-0.20232677,-0.29979426,-1.0150007,0.659663,1.8771414,0.7737527,0.2548625,1.1132236,0.44989622,0.018223342,0.43309757,-0.34698793,-0.2274161,0.34721324,0.81404686,0.3458526,1.5200293,0.2484969,-0.7658785,-1.6320375,-0.8163512,0.5738199,-1.559903,1.8551365,-0.43706053,-0.58544075,-0.31175205,-0.7622143,0.04747497,-1.5996714,0.5713314,1.6122166,1.3362073,0.42984125,-0.9416168,1.5066935,-0.1860379,-0.16743115,-0.10375692,-0.71758145,-0.70358753,-0.6625211,-0.24984248,0.7867777,-0.9345406,-0.6103542,-0.67562336,-1.3571628,0.6479474,0.6995846,-1.0951353,0.37999913,0.71039754,-0.60541046,1.8175937,-0.059424818,-1.0347928,-1.983642,-0.91367406,-0.34836555,2.0424936,0.09958062,-0.21267723,0.12935764,0.40912777,0.22903666,1.1946527,-0.02532769,0.3971742,1.9880028,1.1132284,-0.4434604,-1.4189609,1.2937089,-0.46806768,1.2476647,0.3576419,-1.2201301,-0.9860507,0.6161088,0.631974,1.7279133,-0.7357047,-1.3231902,-0.04537425
MMRF_1344,0.8299885,0.82517093,0.74179405,0.08629537,1.4736574,-1.4030303,1.1191357,2.1029682,0.5636752,-0.36530867,1.0692079,1.6085991,-0.1503226,0.31524602,0.23096663,-1.0373222,-0.10442649,-0.8060467,0.4617537,1.4283535,0.4775283,-1.0641481,-0.72086906,-1.509858,0.09826477,0.36042953,-0.44609523,0.21650828,0.45796856,-0.8983124,-0.75126094,1.2063481,0.118739724,0.7943676,1.9353818,1.8736628,1.1165301,-0.7608638,0.4551011,-1.6931591,-0.8895573,-1.2713463,0.28070682,-1.647017,-0.2906252,0.10853608,-0.46361738,0.78564376,1.4480922,1.0575869,0.25678876,0.3685336,0.0020200042,0.99147946,-0.97849333,-0.22689822,-1.9612628,-0.4242997,0.3686446,1.8868928,1.2207476,0.766978,-0.45993415,-1.2016814,-0.1691706,-0.23611856,0.6623621,-0.6660176,0.31417477,-1.6255362,-1.348843,-0.6566919,-0.21223748,-0.55205756,0.12667173,0.34768683,-1.3503594,-1.086994,2.820124,-0.5302453,0.082922965,1.0327762,-0.5705546,0.63235754,0.41127676,-1.2293049,1.4083623,-0.27394846,0.844141,-1.1696012,-0.96831757,0.959851,-2.0233207,-0.09303938,-1.5168658,-0.43197173,0.19516373,1.07036,0.012171166,-2.4848504,-0.378021,0.544883,-1.3127755,1.4730247,0.88177574,0.17898795,-0.42640698,-0.082259625,1.7642032,0.085501455,-0.05856793,1.1401229,0.22210418,-1.500948,-0.28049237,0.088980414,2.1240718,-0.89998317,-0.27718264,0.21885279,-0.36347124,-1.8332487,-0.036911372,-0.7260146,-0.7256963,0.053676657,-0.42083132,-1.0327326
MMRF_1403,-0.16080165,1.5662956,-1.1690085,-1.4432502,0.21661615,-0.24375045,0.67142665,-0.90747195,-0.3466044,0.8313162,-2.152562,-1.7258964,-0.15831994,0.6688772,1.660326,1.5543994,-0.110494845,-0.16006443,0.7386056,-1.7301744,-0.17761935,-1.5514824,0.5610007,0.19154163,1.6300731,-0.095340915,2.9081757,0.8329831,-0.71854657,1.0510284,0.7531825,0.3247678,-1.0021273,0.7828489,-0.9403508,-0.8822672,1.3217018,-2.4667752,-1.1463645,0.47352841,-0.4780999,-0.4773739,-0.33559054,-0.21454237,1.6545547,-0.9442877,-0.34711218,0.5372176,-1.3272767,0.96030176,1.2042878,-0.012190591,1.6861557,1.5035353,-0.21861897,-0.04425072,-0.19132979,-0.26657563,-0.39418048,0.895674,-0.11388648,-0.65490496,-0.37423998,-0.73284733,-0.18426754,0.28426525,1.3666313,0.25668904,-0.44537213,0.5825336,0.947444,-0.52563316,-0.31748062,-0.40499783,2.1457565,1.5130715,0.4983279,1.458077,-0.21228956,0.27022165,0.40729523,-0.7659185,1.1891656,-1.6225145,-1.3120244,-0.93496686,-0.28261057,1.1978282,-1.3564126,-1.3451039,0.26214314,0.52423924,-0.4204696,0.8457717,0.41793734,-0.61134696,-2.1218326,-1.1920629,-0.45749915,1.2168418,0.5261136,-1.4522172,-1.2499566,0.8097391,-0.15681109,0.11952336,-0.83857936,0.02380029,-0.8661842,1.7893362,0.97334355,-0.10190301,0.07403957,1.0537932,-0.86659116,-0.7563447,-0.25529027,-0.6491103,0.11448142,-1.9884429,0.12461394,-0.23610969,0.40003264,0.8276562,1.1807061,-1.2536739,0.41106847,0.5867312
MMRF_1408,0.63881534,0.47984895,-0.3620761,0.32319036,-0.37542236,0.3549121,-0.7519789,-1.0641652,-1.4818754,-1.3553421,-0.424561,-0.72700185,-0.25066376,-0.6721497,-0.12555195,-1.1456292,-0.51676834,-0.061111923,-1.6135099,-2.701962,1.9385897,0.43905997,0.08727554,0.36816078,-0.501237,1.3011141,0.26411688,-0.78303874,-1.3662789,1.3487016,0.51494247,-0.33506155,-0.6231375,0.13247055,-0.3610868,-2.5167856,-0.39710185,0.7793776,0.0017229278,1.7970939,0.42247513,1.014388,1.5180926,0.5092331,-0.63543046,-0.91571504,0.7286256,-0.22586846,-0.9754462,1.5035884,0.89316976,-0.8411071,-0.5903229,-1.1935992,0.6106337,-1.4866625,1.6064276,0.35099736,-0.16558717,-0.7112463,0.516477,1.0611049,1.6477885,-0.1870351,-0.24512944,0.07573469,0.74333215,-1.0131733,-0.072788335,0.81281626,-0.16596207,-0.86166555,-1.2208496,1.6044482,1.2559322,-1.3689078,1.9364727,-0.720288,-1.2971945,0.31190684,0.8684439,-0.25162408,0.07092118,-0.682644,-0.22508726,-0.32094982,-0.10516714,-0.8241726,-0.11857071,0.31704336,1.1567062,-0.52099437,-0.1503389,0.7637722,0.8913142,-0.6918704,0.85444164,0.16899866,-1.0451615,2.1409843,0.9809317,-1.2647076,1.057851,0.018178016,0.5666536,-2.0979815,-1.8579621,0.14147446,-0.0013496075,2.4521625,0.17546506,-0.4688884,-0.14953277,-0.67039746,0.07974342,-0.95191175,0.78561234,0.50703144,-0.7863687,-2.1459374,2.2505956,0.1058692,-0.0825433,0.6101163,0.7192917,1.107095,1.5556467,0.610374
MMRF_1338,-0.4396544,0.46368712,0.9756002,-1.8903716,-1.0891038,-1.4660941,0.12591743,1.1015384,0.3281193,0.13011022,0.18265718,0.36801505,-0.09485765,2.0024967,1.0500538,1.0051101,-1.2074858,0.35977674,1.1818742,2.0685115,-1.5546173,0.0112393,0.9876969,0.63213,0.33522856,1.0786691,-0.48659828,0.7493742,0.27410087,-0.41591498,-0.02072149,-1.693565,1.6133734,-0.52346677,-1.9418508,0.9520017,-0.42247903,-0.46100006,1.0495163,-0.7613656,-2.3288755,1.0354402,0.08233981,0.16606495,1.9457358,2.4232628,-0.8435511,-1.1108552,-1.338381,-1.0213313,-0.80118454,0.15351933,0.31838155,1.5635799,-0.8157527,0.84991664,-1.0589069,0.9638139,-0.5417512,-0.9885916,-1.1272165,-0.68744516,1.603783,1.2269145,0.62359643,-0.08318563,-1.1235228,0.65675867,-1.3022865,-0.81280994,0.91257143,-0.09747792,1.578783,-2.8021207,-0.11782768,0.84174967,-1.5406756,1.0395646,0.4557569,1.7202823,-0.23231752,-0.7647562,-0.053312454,-0.48238227,-0.54342246,-1.4141495,0.14414173,1.2272236,1.0452335,-0.17782372,-1.2851713,-0.38002324,-1.0081758,0.32224274,0.121015295,-0.42986178,0.050119188,0.092939444,0.98647064,0.21715127,0.92982787,0.71327484,-0.22742793,-0.65820986,-0.5804705,-0.032460503,1.9188962,-1.152157,0.9552114,0.22017078,1.1052151,-0.67711574,-1.1182334,0.7682698,-0.27383137,0.5268646,-1.0881894,-1.7991965,0.1354365,0.44065258,-1.0991595,-0.2793851,-0.14943483,0.28006667,-0.06728534,-0.78364366,0.6236922,-0.18531664
MMRF_1342,-1.1772267,0.14382437,-0.67284393,1.6349639,1.0046678,0.66316724,-0.053196218,-1.1551626,-1.2716017,0.07269538,-1.6335033,-1.8812983,0.37406588,-1.9651008,-0.76432914,-2.048269,1.559369,0.6667233,-1.0847895,-1.1674283,0.06577163,0.1855115,0.10735928,-0.9866002,1.1731915,-1.4652839,0.61751485,-0.014216943,0.8106613,-0.5353047,-1.0073907,1.2230033,-1.3739687,1.4924358,0.055555843,-1.7405545,-0.28628284,0.20953946,-1.8958658,-0.5141792,3.6616452,-0.32031348,1.3254789,1.0270611,0.10237521,-1.2350998,1.000265,-0.28867412,-0.07993865,1.7750063,-0.04335992,1.4482422,-1.4892083,-0.95611006,1.5307626,0.79011554,-0.6982423,1.0087337,-0.3055742,0.05629461,-0.3131749,-0.16602167,0.58078617,-0.13920897,-1.4519262,-0.46981493,-0.22864667,-0.05896901,0.60753757,-0.14058271,0.35534668,1.0760992,-0.44631824,0.41889286,0.32672828,-0.1478866,0.49804848,0.35524037,-0.3774405,0.7136553,0.12536521,0.31978023,-0.49937198,1.1888028,-0.65986145,0.06595852,-1.6553807,-0.10736233,-1.7108061,2.8407414,1.194782,0.8370386,0.7477016,0.31782404,0.6665744,-0.68210876,-0.32204214,-0.31497684,-0.40285212,1.0584172,0.17466657,-0.50225085,-0.96543545,0.910528,0.97160393,-0.22235414,-0.4724528,-0.58432704,-1.6790686,0.19972003,0.07376084,-1.7012937,1.2172456,0.015491229,-0.4572173,0.00953868,-1.0334374,1.0778768,0.28485096,-0.85699373,-0.30303708,1.157185,0.30670583,1.2434918,1.1395283,0.8374395,0.26012146,-0.71940506
MMRF_1352,-0.7304621,-0.9883075,1.9659026,0.027120017,-0.10006821,-0.28312,0.18683267,0.63645786,0.4067161,0.46382,1.565042,0.15614685,1.835366,2.2119913,-0.4494669,0.38909203,-0.7908637,0.3165829,-0.47550207,2.4034195,-1.724706,1.0550404,-0.22625811,0.65334713,-0.009900346,0.013759129,-0.88821965,0.9576785,0.46886244,0.38326985,-0.9272206,-1.0613445,1.7640175,0.3610543,-1.4212719,1.8802729,-0.36297312,-0.42547157,-0.48054355,-1.0378877,-0.58982694,0.75823796,0.35507122,0.44969293,0.97586507,1.7251948,-0.3877769,-1.8779271,-0.29991928,-0.93182266,-0.28356847,0.29901507,-0.53661966,-0.092949,-0.09095919,0.5295473,-1.4332268,0.5768938,-0.807786,-1.3629838,0.054204702,-0.4907073,1.5296254,1.4079342,-1.0598098,0.26093653,-1.501824,0.03938572,0.5081529,-2.3351245,-0.23591629,0.9016404,2.29489,-1.7159581,-0.3552085,-0.71910745,-0.4573027,-0.4643668,-0.14839904,2.0167675,0.44555002,-0.29328442,-0.4656168,0.2624973,1.2416859,-1.1909515,-0.09896696,0.45848587,0.49105322,1.9455581,-0.6017809,0.39119658,-1.9485778,0.3457046,-0.46108958,-1.735172,0.13837905,0.26645225,0.34641945,-0.89363927,0.70198053,0.8115911,-0.587677,-0.40808365,-0.71302146,0.5794239,0.572415,-0.7009924,1.3453269,-2.681772,-1.0177499,0.05531334,-1.2810153,0.27891126,0.8798577,1.9951543,-1.8305774,-1.3033322,-0.33996248,0.66809916,-0.28646657,0.3999083,-0.26683566,-0.2869286,-0.028207134,0.22506253,0.26302835,0.17557444
MMRF_1380,0.66696817,-1.3926917,0.37235332,1.8149065,0.067510344,0.5397369,-0.9142932,-2.4966724,0.22434063,-0.450783,-0.088234454,-1.874019,1.058851,-0.2809798,0.6667223,1.114633,-0.7775965,-0.371088,-2.2473762,-0.79388016,0.49413168,0.6227011,0.93362373,0.75796837,-0.94785357,1.7890135,0.47057924,-0.49006677,-0.51088685,0.35853246,-1.3825265,-0.3996716,1.0608687,-0.42531013,-1.1988472,-0.22463593,0.43414438,0.6604481,0.058748674,1.0471283,0.6894274,0.79483426,0.3505826,0.8969661,1.0092813,-1.076835,-0.36456272,-0.9718431,-1.0946802,2.141745,0.9337402,0.32632354,-1.0918967,-2.061017,0.6231522,-0.057964567,1.3948532,-1.139898,0.31919223,-0.608382,-1.1909003,0.7962795,1.1320845,1.5305831,-0.22815885,1.4701155,0.24632078,-1.1570715,0.86476773,0.5163327,-0.8086304,-0.152688,1.8592124,-0.12423295,-0.24558656,-0.86443764,2.0317898,-0.044884894,-2.2821655,0.6052597,-0.8628525,1.5948979,1.5288509,0.15528907,0.603638,1.0664535,0.5232588,-0.15882917,-0.7725075,-0.25594798,-0.23485678,0.4156307,-0.18646623,1.3723749,-0.24023017,-0.42819834,0.7949052,-2.5960147,-1.2384034,0.43704703,0.44279823,-0.85454595,-0.9012971,-1.3358086,1.2623805,-0.3947201,-0.42658654,-0.037254762,0.1141949,0.082608625,-0.4011331,0.8797115,-1.1795578,-0.7526962,0.16282988,1.4160478,-1.8303785,-0.8575282,-0.20524383,0.83358806,0.8715919,-0.7011416,-0.9342851,0.5144194,0.50994474,-1.2580941,1.4011712,-0.8266824
MMRF_1389,0.50230783,-0.45384312,-0.96303695,0.28259465,-0.26054254,-1.0505534,-1.3751072,-0.7045901,-0.50375783,0.82972294,-1.7467389,-1.2369558,0.0033480301,0.07379507,1.7666248,0.31244642,1.2885878,0.08965744,-0.015267283,-2.3817718,0.22950354,-0.46839863,-0.16279739,1.5545642,0.15252917,2.0013258,0.6707953,-0.39065042,-1.5128682,1.1159272,-1.2903734,-0.45638224,1.4996309,0.39982602,-0.13683432,-1.8030263,1.2018427,-0.34112093,0.3960409,1.618377,0.8193729,-0.04190968,-0.14086643,1.3552681,2.2973,-0.98047096,0.6265662,-0.35179737,-1.7365175,-0.037476066,1.3422245,-0.83553106,0.2878039,-1.0158153,-0.9253848,0.55186445,1.1170267,0.29725105,-0.88194513,-0.8602927,-1.3357849,0.63942057,0.3838494,-0.6708861,-0.13679413,1.57685,0.9658954,-0.013508659,0.7468247,1.0155969,0.11315403,0.9173845,-1.7956378,0.21444903,-0.550024,0.5622537,1.067723,0.19369702,-1.6107819,0.9203932,-1.1382277,0.95902807,0.33200118,-0.33001304,-0.13997598,0.20042929,1.215287,0.33221778,0.7990907,-0.8087349,1.9669199,-0.3461696,1.3310096,0.03616269,-0.16568725,0.37633812,0.91136223,-0.68617046,-0.34855473,0.5968034,1.1723226,-1.6245322,0.70778656,-0.6141672,-1.0065063,-0.5930855,-0.8233568,-0.21667826,-0.95131624,1.5626637,-0.19646432,-1.2530146,2.2671163,1.2399377,-0.8892518,-0.058271497,-0.9173232,-1.3587484,-0.41219234,-2.310246,0.8619774,-1.1331213,-1.2155976,0.41827822,-0.4158301,-0.4670705,1.1545365,-0.8380517
MMRF_1388,0.49556565,1.8501517,-0.060042135,-0.28293833,-0.40820467,-1.468493,0.56467694,-0.5741818,0.06744806,-0.019442355,1.1702533,0.6882484,-0.548113,0.37655663,-0.21970364,0.54062474,-0.9617954,0.5841135,-0.5618143,0.2667117,-0.43591976,0.026878769,1.0848188,1.4373183,0.22102404,0.4659349,-0.1772697,-0.5641702,0.19547763,-0.18774158,-1.4389552,-2.0877485,0.9927534,-1.2413477,1.431441,0.5400043,0.24863662,-2.6767523,2.4859567,0.027005417,-2.0046577,0.7328562,-0.90714365,-1.027438,0.67818797,-0.97037715,0.050143275,-0.8334597,-1.990688,0.16861807,-0.91255623,0.65056086,0.7515057,0.9439495,-1.3169205,-2.273002,1.5603555,-0.85919446,-0.042422634,-1.2120413,0.21967536,-1.1314894,0.681425,0.088605806,1.1210058,0.7074177,0.2227022,-0.25446832,-0.5940611,-0.35456985,0.9288513,0.22528689,-1.0240325,-0.67540544,0.83847827,2.446311,0.16271687,0.9344807,1.0252881,-0.5204225,-1.7115005,-0.7300625,1.2630885,-1.161826,1.4593374,0.8081712,0.6437523,0.2101591,-0.9709964,-1.3332943,0.8421538,0.89112747,0.19844374,0.15333167,0.49170822,-0.11172008,0.55617857,0.18902585,1.3290985,-0.91080964,0.6524984,-0.81687105,0.4341678,-2.7415185,-0.3537867,-0.04572179,0.353914,0.64830494,1.5452611,0.5694874,1.7088217,1.1231707,0.32374954,-0.0031981245,0.15981103,-1.9850552,0.23884487,-1.0446092,1.2074351,-0.72384095,1.4486079,-0.17715304,-0.2875247,-0.12385323,-0.5489144,-1.5591714,-0.39052537,0.23428024
MMRF_1395,-0.8472272,-0.40891618,0.8506008,1.4171926,1.7523566,-0.38804957,-0.42257574,0.26192808,0.21529223,0.13222024,1.5377059,-0.12831143,1.3413253,0.7828544,-0.6509001,-1.7628862,-0.0758965,1.0299696,-1.547318,2.0628433,1.1084704,-0.2323174,1.4517866,-1.6798406,0.905372,-0.9484068,-0.5868836,0.23143564,0.276651,2.0416436,-1.237538,1.7970269,-1.4261929,1.6412746,0.33197,-0.07442542,0.4539936,-0.09310927,-1.7324437,-1.5463896,2.0027566,-0.4108235,0.7708923,-1.0936275,-1.6135678,0.0025639664,-0.2777671,-1.7518244,1.7586747,1.0288229,0.5009012,0.3957102,-0.8370178,-0.04857188,0.6608937,-0.2123723,-0.60739523,-0.16500226,1.24029,0.04338923,0.6036546,-1.1384524,-0.24374363,1.078444,-2.3305745,-0.84881634,-1.1061875,0.07686348,1.1435989,-0.8512864,-0.44553792,-0.09540606,0.82592446,-1.8402911,0.5383247,0.2765889,0.2732587,-0.2004473,-0.14578824,0.8700528,0.14320844,0.08775263,0.7869755,0.17168902,1.5223619,0.09080562,0.08861706,-0.94079125,-0.33265018,1.7925574,-1.1187961,1.279301,-0.72419333,-1.4938474,-0.039861478,-0.7386497,-0.51974255,0.7120384,-0.56443584,-1.3605859,-1.5033988,0.88723856,-1.8662646,0.7054279,1.3714625,0.5947107,-0.8059718,1.0144246,-0.060473733,-2.1440697,-1.0468574,-0.6105169,0.13674611,-0.8682175,0.61451155,0.7988693,-0.6765108,0.5532921,-0.42495385,0.9254876,-0.762231,-0.4116015,-0.09749464,-0.014801996,0.34590444,1.1232729,0.53711927,-0.7215606
MMRF_1391,-0.62912947,1.011407,-0.6164027,-1.1039444,0.1766665,-1.6234455,-1.3385068,0.20390302,-1.266788,0.97439635,-1.1891392,-0.24968645,-1.2277346,1.5503689,1.4931738,-1.7404866,1.5231348,1.2503487,-0.98897886,-0.53611916,-0.0044099493,1.4032261,0.6839102,-0.791981,1.8035071,1.8107419,-0.25778857,-0.46599218,-0.13944173,0.39589044,0.8045292,-0.33859247,-0.4050102,0.8712641,-2.274745,-1.6112629,-0.013717051,-0.018931026,0.79032487,1.3165553,1.1228582,1.2278427,0.960575,0.39645207,1.4592367,-0.046491157,1.4078851,-0.9791581,-1.4268241,0.9226986,-0.62740225,2.0302997,-1.3302997,-0.5374145,-0.005971091,1.3437009,-1.080372,0.36576828,-0.1666035,-2.5738182,-1.7487968,-0.2573389,1.6163932,0.3007853,-0.15737395,-0.66744083,0.16398254,0.2938582,1.187211,-0.44878978,0.13447857,1.2101126,1.5732559,-0.15018596,0.25399324,-0.5028519,0.9122572,-0.86380464,0.035334997,1.168115,-0.05235898,-0.4509311,-0.45811635,-0.41659087,0.3352631,-1.3082838,-1.1439377,-0.09287752,-0.5447086,2.0519216,1.0057846,0.32305396,-0.07172288,-0.5043581,-0.23474786,-0.94332737,0.5726643,-0.3928139,-1.3834004,1.9146352,1.2247394,-0.10077128,-1.1113244,0.32360178,-1.319994,-0.4155428,0.50201595,0.35675237,-0.4385704,1.2052501,1.355662,-0.8759677,0.6632508,0.57770294,0.20873378,-0.12755127,-2.0525599,0.4291987,0.62476444,-1.033867,-0.3738357,-0.18416806,-1.5036902,0.16742244,0.04478354,-0.99380046,-0.47444466,-0.55204946
MMRF_1359,-0.2320388,0.37616482,0.41458756,1.7188901,-0.74113923,0.079593025,-0.77826816,-0.690553,-0.101270065,-0.5575728,-0.17405182,-1.2409816,-0.86931056,1.4961061,0.47988495,1.0795653,0.9865354,-0.7688238,-1.3148916,-0.6864468,0.09125292,0.95017916,-0.055030905,0.14569725,-0.59508634,0.82744265,2.0040185,-0.48581827,-1.6333399,1.1164371,0.25515336,-0.869578,1.2745544,-0.7042501,-0.7823373,0.79451746,0.22031806,0.41819003,0.71544987,0.38621688,-1.3333774,1.0903937,0.31582338,0.7648164,2.3115344,0.11775711,1.0067781,-1.4002733,-1.3126847,1.9397719,1.1371171,0.37644902,-0.4445608,-2.3888054,1.1314846,0.19990084,0.31857708,-0.51133025,-0.45151216,-0.95593625,-0.846786,0.1376809,0.7286801,0.3120563,-1.4476731,0.929615,-1.1569915,0.65136266,2.604343,0.27446747,-0.9302246,0.33639428,0.3072865,-0.0074805897,0.7758888,0.22747779,2.2966917,1.034772,-1.8939573,0.65561545,-1.4255222,0.7365555,0.58804655,-1.1276228,0.22300088,-0.6547184,-0.94172084,1.1251947,-0.46698743,1.8046752,1.2741734,0.010391009,-1.2261643,0.4643641,0.26792696,-0.7226808,0.35226837,-2.2044792,-1.6924968,0.48965284,1.3459795,-0.7618973,-0.9112305,-0.78179556,-0.0661595,-0.3719282,-0.9097039,-0.5943159,-0.11513605,-1.2659674,-0.41812268,0.38217407,-0.8779719,0.8043417,-0.06565487,1.1237142,-1.6128209,-1.1802487,0.0002090009,-0.8537114,1.4726163,0.11325432,-1.3339443,0.57228786,-0.6002719,-0.4157381,1.8253943,-0.76662046
MMRF_1267,0.042161297,-1.227552,1.2228059,0.8730095,0.6679349,0.72496915,-1.0009384,-0.35155252,-0.6040651,1.4250484,0.3335295,1.2510238,-0.2078638,1.5411693,0.5451727,1.0453299,0.26347193,0.9245816,0.33514968,0.12736608,-1.4106792,2.13681,-1.0597248,1.4661103,-0.4380601,1.0724052,-0.9601536,0.6446081,-1.4189875,-0.3778903,-0.13571729,-0.59401643,2.1945374,-0.18876061,-0.7520358,0.6127967,0.62152004,0.473388,0.20409216,1.2600971,-1.9142541,0.8282831,1.2507721,0.8733952,1.7203858,-0.25996917,-0.75082606,-0.5007846,-0.09542266,-0.39523926,0.21972819,0.4669946,-0.9727848,-1.2502942,0.37067,0.9124548,-0.122741565,-1.0957177,-0.7470887,-1.2161192,-0.8961461,-0.17317916,0.22155467,0.0585378,-0.35788518,1.7859656,0.50991213,-0.94720006,1.9412398,0.23500502,-1.1694707,1.1303889,1.7397517,0.48413268,-0.6276849,-1.8706465,1.4875454,-1.4170852,-1.3763674,-0.009612456,-1.7249719,1.4402391,-1.2295147,0.6069094,0.6665475,-0.93632233,0.48189533,-0.62548083,1.067065,1.7997875,1.0196538,-0.42568657,0.06196422,0.36514235,-1.0335008,-0.31394503,1.044205,-0.66679126,-1.684162,-0.18301867,0.6112825,-1.7309711,-1.5650178,-0.67962766,-0.26918915,0.8582895,0.3130139,-1.0455726,0.7631376,-0.66862124,-1.3645387,1.820043,-0.8024171,0.9998157,0.50281453,0.7593188,-1.312273,-0.820314,-0.8516976,1.1333141,-0.33035538,-0.8267027,-1.5279936,-0.7622369,-0.9696755,-0.55907524,0.2979129,-1.0274789
MMRF_1274,0.24542552,0.54398584,-0.14442483,-0.07296749,-0.83579427,0.43094364,0.30135342,-0.7181737,0.92796266,-0.892149,-0.6134802,0.52637035,-0.08596717,-1.96121,0.68458456,0.49238044,-0.54764813,0.4330993,-0.23204224,-1.6778245,0.17548324,-0.4707517,0.5059261,-0.2531524,-1.5617188,-0.19641615,1.8283635,-0.5727889,0.36638725,-0.24613772,-0.026934767,-0.47277692,0.8623502,-1.8550712,0.95442075,-0.08943948,-0.17758022,-1.0819366,1.5786704,-1.2219285,-0.60783124,1.0195582,-0.030213472,-0.55061346,-0.8938679,-1.6341174,0.9793199,-1.2550178,-0.80980635,-0.27694017,-0.040436357,-0.89089465,1.3341188,0.7290894,-0.2333029,-2.8985443,1.166283,0.5359638,0.37275273,1.0490897,1.6726178,0.75606173,0.26778612,-0.2142136,0.07657917,-0.17164981,0.80261004,-0.53328294,0.9961447,0.7230587,0.76000977,-1.741745,-1.8086636,2.1121733,-0.50923455,0.015437681,0.026098367,-0.4448909,0.4129995,-1.636867,1.008886,-1.3253065,0.8816839,-0.5770494,0.89845806,1.4165075,-0.7794573,-1.0508522,0.5513056,-2.087387,1.5059136,-0.27395016,-0.40257025,0.9045518,0.46636248,0.49894163,0.42758057,0.72925377,1.0471983,0.89064795,-0.34772554,-0.8262388,0.38043323,-1.897005,0.75888354,-0.79532063,-2.185528,1.5113828,0.26776716,1.1727637,0.67459184,1.802808,0.43420446,-0.8637946,0.64725554,-1.2574459,1.9554332,0.46453843,-0.3287957,-0.9863112,1.2148533,-0.31208408,0.99628335,-1.7030647,0.7067676,-0.4005573,-0.9053087,1.6460054
MMRF_1037,0.48742482,-0.29905048,1.2225757,1.8682798,1.5939233,-0.49203414,0.3906126,1.1818177,-0.04362186,0.005888364,1.4530195,0.6813251,2.0184362,1.0352229,-1.0278544,-0.37741145,-0.28807876,-0.5869955,-1.0612715,1.5082664,-0.5891989,-0.14067854,-0.0023421124,-0.5486119,0.20031744,-0.7719405,-0.38861686,1.0861528,-0.1297259,-0.27468428,-1.6304133,2.1136537,-0.2469357,1.3309287,0.6170321,1.1744602,1.2571304,-0.88826036,-1.0289832,-1.2750772,1.4740856,-0.5614169,0.98054063,-0.7588408,-0.60847926,0.69891036,-0.14712782,-1.2982837,0.7962441,1.4054173,0.8411145,0.9612695,-2.064839,-0.25302017,-0.37465933,0.15475872,-1.3844417,0.0379976,-0.5570667,0.3381006,0.805821,-0.431236,-0.26712847,0.22690068,-1.8968402,-0.4787675,-0.671546,-0.16061312,0.84393644,-1.6030548,-1.7556729,0.22206883,0.97428596,-1.2959735,0.7129532,-0.2671672,-0.31165627,-0.71836394,1.5353771,0.63444626,0.17115645,-0.22794305,0.7934659,1.1128241,1.5507755,0.1790732,0.3029355,-0.6560768,1.5356135,1.2039421,-1.1392213,2.0242414,-2.0535853,-0.15408316,-0.7437107,-2.094203,-0.27747723,1.7116177,0.45319453,-1.3356594,-0.61570036,-0.19976085,-2.0760958,0.8102025,0.77380145,0.7025557,-1.3292197,0.4795385,1.1226048,-2.257067,-1.209921,-0.2775917,-0.89548475,-0.7107597,0.49311173,0.36374852,-0.8536945,-1.2003728,-0.68068117,0.38273212,-0.31631216,-0.21940823,1.0575328,-0.018074404,-0.46894884,-0.2892119,0.60183746,-0.30852216
MMRF_1033,-0.76496255,-1.0398939,0.2261505,0.72941047,-1.0532367,-0.4823321,-0.17574586,0.68969196,-0.27611825,1.0582328,-1.5886425,-1.6206093,1.8977311,-1.3849874,-2.5344603,-0.3698883,-0.56783664,-1.0126005,0.060553707,-1.3858035,0.20271932,-0.6481588,0.24239153,-1.642305,-0.98435265,-0.9996474,0.043018144,0.6895573,0.3054371,0.5571478,-0.8847378,-0.5139285,-0.3871249,0.41206437,-1.5629299,0.03638547,-0.32919303,0.90920556,-1.8943651,-1.092937,2.5451605,0.36465243,0.74083954,1.9467791,-1.2617719,0.10364513,0.008480574,-0.2935487,1.5010618,2.077906,1.0280521,0.0022707041,-1.2510514,-0.7494033,1.7212386,-0.43810987,-0.3882116,1.234689,-0.47747415,1.7535353,0.6848956,-0.16204315,1.4410528,-1.3667746,-0.21692292,-0.95983887,-0.2329177,-0.38933688,1.3077657,-0.43588307,-0.13864757,0.3344434,-0.46853125,1.181465,-0.3580038,-0.28977606,0.43023583,-0.57606715,0.9440274,0.57313675,0.684926,0.018384552,0.15758243,1.3106524,-0.072075926,-0.63451195,-1.5519445,0.5654638,-0.20726779,0.29485586,0.36965442,1.3116634,0.1441644,0.66962326,-0.7338482,-2.0794866,-0.045557644,0.1599521,-0.24803425,-0.50269747,0.11451428,0.50663155,-0.5944012,1.616094,1.0200267,-0.6537836,-0.8418618,-0.9226204,-0.18802948,-1.0664997,-1.1517639,0.27305913,-0.41537,-1.752433,0.37960792,2.1188533,1.6860158,-0.7358846,1.407697,-0.08285867,0.102433816,-0.22144565,0.8497881,0.0030764937,2.3934584,0.8386127,1.6211979,-0.20616628
MMRF_1031,0.44140399,1.334416,-1.7468976,-0.01985806,-0.22036684,0.9224665,0.67211634,0.6333283,-0.018657316,-0.445322,-1.2338387,-0.2746614,-0.90868294,-1.4832253,0.48129824,0.90048736,0.9693415,-0.80522645,-0.37956065,-1.5752684,-0.8327183,-0.8594244,1.626086,0.0638669,0.2644422,-1.4971507,2.2724135,-0.36468622,-1.2232641,-1.6904528,2.4338048,0.9930898,0.044122837,-0.057960235,1.055632,0.51245743,-0.32575926,-0.44979623,-0.13117322,-0.9341363,0.040791288,-0.69967896,-1.7355403,-1.4751028,0.00039695273,-1.3467679,0.9343297,1.03723,0.085534275,-0.21874945,0.8960139,-0.94351774,1.6046165,-0.19960225,0.6140458,-0.478226,0.2970114,0.104672685,0.4222102,1.2492933,0.9858689,-0.3709037,-2.4313395,-0.15972474,1.0792425,-1.4286166,0.37222403,0.22333927,-0.23921974,0.53635615,0.13565506,-0.99667245,-1.3433683,0.5849333,0.30650258,2.4712286,-1.3632116,0.5439203,0.96852106,0.02220131,1.7655637,-0.54257995,0.16654098,-1.9200217,0.013673662,0.91411996,0.99896723,-0.006418299,-0.4414563,-2.14752,-0.042105876,0.8698753,0.77660006,-0.26495513,0.18598294,-0.15957624,-2.3533301,1.309313,-0.12960081,-0.23190847,-0.66341585,-1.2039555,0.23652294,1.1738938,0.9853467,-0.2045222,-0.3311764,0.50067425,0.29492712,-0.6631682,0.40704045,-0.35022494,1.4685725,0.64395136,-0.59977573,-1.3392481,1.8128009,0.5439864,-0.46278092,0.43825465,-0.0012844205,-0.5862874,1.1396068,0.69111085,1.1334059,0.26358262,-2.4071276,0.16748002
MMRF_1068,-0.3756904,0.9713303,0.13696499,2.8317719,0.70494103,0.89282966,0.62245864,-1.1130323,-2.1636193,-0.22059077,-0.9530704,-1.4140396,0.7735714,-1.4086499,-2.6308434,-1.2884461,0.16094337,-0.50376403,-1.1169846,-1.261978,-0.87739706,-0.58176416,0.74194574,0.24089502,-0.60762554,-1.4755802,0.6495111,-0.3102585,-0.74872845,0.6298852,-0.36849692,0.7973549,-0.822565,0.7614853,0.90796626,-0.56422514,-1.1921687,-0.3435451,-1.8477528,-0.2943622,2.5173833,-0.2571568,-0.1556451,0.15403593,-0.92243874,-0.6467386,-0.5073183,1.7112439,0.7973792,1.3565546,1.0467538,-0.07190269,-1.1473459,-0.81841105,1.307999,0.75465643,0.058597222,-0.3059254,0.09749244,0.71503437,0.31477407,0.18239908,-0.7021331,-0.41064864,0.013217457,0.006691074,-1.5153666,-1.4383547,-0.5817759,0.6569102,0.1967928,0.15568553,-0.3723523,0.4950355,1.4672855,1.05828,0.6592232,0.54051614,-1.961813,-0.052141313,0.936206,-0.37968445,-0.4525231,1.3919377,-1.301959,0.6449127,-1.1264702,-0.023736678,-0.5883141,0.6186155,0.9803647,0.938827,1.5923808,-0.86426044,1.0708234,0.17219988,-0.73703134,-0.115043834,-1.1147647,1.2914828,-0.71286845,-0.523349,1.2938175,1.9617057,1.9857314,0.58171546,-2.0478268,-0.29172954,-0.4525742,-0.28679326,-0.7107896,-1.465506,-0.37306798,-0.5787205,-0.81928444,0.44008616,0.24988793,-0.48472646,0.14932847,0.2766158,0.33718935,1.2964698,0.751608,2.3945875,0.67072934,0.46769977,1.0045748,0.2771204
MMRF_1078,1.470049,0.7131891,0.066414624,0.043349106,-0.7951948,0.007846535,-0.5608366,-1.3004769,0.7365783,-2.041783,1.4783844,1.0014616,-1.2401373,-0.86639196,-0.68693584,-0.22197837,-1.2800246,1.0167845,-1.3625772,0.22975822,0.06282792,0.91631323,2.583567,-0.8365089,-0.5778929,0.6948221,0.10152454,-0.36772907,1.0566019,-0.645752,0.09594014,-0.7436134,0.32043806,-0.699912,1.4117402,-1.3323416,-0.27827358,0.07608069,0.70424855,-0.1943931,-0.80808675,0.6281591,0.09085116,-0.57226056,-1.2719245,-1.8292093,-0.68544114,-0.71279824,-1.4957373,0.34522077,-0.1462386,-0.4888859,0.47842228,-0.6906614,-0.5169114,-2.9351833,2.7273388,-0.821672,0.44042936,-0.6984556,1.1742812,0.23691702,-0.47394636,1.3948036,0.37347668,-0.8058277,0.7227585,-0.40867606,-0.5024604,0.0082345335,0.6649566,-0.37050837,-0.94519013,0.6857103,1.9088441,0.61831117,1.2327206,-0.666026,0.40390974,-0.86593974,0.27519315,-0.93196696,0.083136566,-1.5989473,1.3495497,1.6052086,-0.8409235,-1.3810459,-0.867141,-1.0884075,-0.6315137,-0.5087569,0.08266218,-0.7509717,1.9710019,-0.0021066517,-0.19105466,1.2400267,1.250028,0.16798556,0.3459569,-1.0099726,1.534918,-0.6227493,-0.6612025,-1.001479,0.3268827,0.734256,0.5316775,0.79609615,1.7620937,1.3041881,-0.06903773,0.05084496,0.21762347,-2.5732532,1.4318944,-0.0060639437,0.19887024,-0.9848162,1.5037205,0.765986,-0.9744792,0.84787476,0.56147677,0.46896052,0.22731137,0.942769
MMRF_1086,0.69207364,1.2029395,-0.11788213,0.92181,0.23824136,0.11833919,-0.99244124,-1.0461029,-1.2116034,-1.0359632,-0.6017762,-1.1637651,0.3304055,1.0099962,0.57597697,-0.6890849,0.848215,-0.56217605,-1.7512871,-0.599722,1.6727991,-0.4134643,-0.380161,-0.5317427,0.91308224,0.4060667,0.92197484,0.3307919,-1.0565435,1.2448925,-0.7495232,0.7207022,-0.87409776,0.37030435,-0.99598914,-2.1476293,1.2426755,0.32785913,-0.47653636,0.9540187,0.8491217,1.1861365,1.2937378,-0.6335478,0.90021837,-0.77619773,0.4935376,-0.5153212,0.4241014,3.5027416,0.5287357,1.2579058,-2.204887,-1.3930157,0.9974023,1.0157088,-0.03883043,-0.77389944,-0.5731208,-1.7132949,0.042299807,0.119177006,0.73248196,1.144542,-1.7910572,-0.13431616,0.18193448,-0.31831014,0.73686206,1.6406426,-1.4613779,-0.40371892,0.4923443,1.2662152,1.8616347,-1.1022298,1.6891398,1.0610145,-1.5999305,0.9890393,-0.38887963,-0.5036278,1.131812,-0.8119163,0.88772875,-0.6507843,-1.3308777,-0.124287575,0.74225885,1.171853,-0.7016583,0.51434004,-0.08486689,0.06113396,0.033098966,-0.8812163,-0.47736862,-0.3798267,-1.0037167,0.8340973,0.38213864,-1.7080153,-0.9636811,-0.06814199,1.4469119,-0.9699565,-1.8244635,0.044966727,-1.0566525,0.5726645,0.38533336,-1.1572336,0.90023935,-0.7152504,0.6264046,-0.34989432,-1.449288,0.32154226,0.10098799,-0.8973887,0.10195257,0.44297737,-0.8905596,0.7203546,1.3072126,-0.71759266,1.5010096,-0.6924272
MMRF_1082,-0.66010183,-0.92915374,-0.83712924,-0.3308725,-0.2974847,1.7077267,-0.6019165,0.35771218,-0.45483893,-0.3150967,0.16466239,-0.75163317,0.20166184,0.55675584,-2.6622705,0.03638824,-1.8179612,-1.294792,-1.3908731,-0.5073309,-0.4910003,-0.28475997,-0.9962412,1.0508629,-0.5986692,1.7575707,-0.23060612,-0.94690037,-1.6605488,-1.4949917,1.5226492,-0.28325713,-1.2708573,0.1095827,-1.9836376,-1.2457196,-0.37813354,2.2038589,-0.5654777,1.3768452,0.8714914,1.0035254,-0.18330994,2.0700042,-1.1756011,0.9514981,-0.08879708,1.5505772,-0.20000014,-0.21158057,0.8307618,-1.9191678,0.18783306,-0.7013138,-0.9823236,-0.32745454,1.8498791,-1.2683358,-0.14283784,-0.27527732,-0.0071680564,0.6752328,-0.8657817,-1.4560148,0.80640864,-0.5634941,-0.293117,0.36223492,-0.86928636,1.3541882,-0.20384453,0.370075,0.16931617,1.2469678,-0.42540145,0.2989172,2.2959146,-0.6607796,0.7013813,-0.6921166,-0.46803293,0.44123873,0.46617287,0.85263675,-0.6543111,-0.7628888,-0.056861155,-0.7133531,0.5579198,0.075031675,1.8454059,-0.1994495,1.0527167,0.18572357,0.60465294,0.5388342,1.5500177,-0.0811981,-2.1442115,0.87010235,1.7813367,-0.81075734,1.0044065,1.6451327,-0.6822013,0.104720294,-0.3251275,0.10448471,0.7361508,0.54453963,-0.7300055,-0.59931946,-1.3113517,0.35966727,-1.1733266,-0.22902326,0.4001422,-0.26519367,0.10394387,-1.17731,1.6452665,0.5395123,0.22228889,1.082871,-0.30387568,0.5121941,1.3077966,1.6874409
MMRF_1092,0.19714317,-1.066409,1.3567128,1.1372747,1.4316332,0.5236529,-0.049096417,0.21112485,0.099718824,0.13624386,1.4383328,-0.3062042,1.226141,0.658399,-0.77605635,-0.70235354,0.35561165,0.7153169,-1.8001999,1.7739618,0.11977117,0.13938123,0.9752939,-0.98430777,0.55783737,-1.872979,-0.7940275,0.6195855,-0.009028653,1.072597,-0.6846899,1.8029991,-1.2208799,1.3717381,0.00076327357,0.22155833,0.68743294,-0.4148541,-1.4491608,-1.124814,2.271549,0.121261515,0.6447256,-0.77952856,-1.646083,0.5400584,-0.4873495,-1.8453572,1.4968084,0.37457666,0.2724726,0.8103358,-1.2179734,0.0031917691,0.70210433,0.0499933,-0.7802857,0.08970973,0.6663336,-0.03250213,1.2534992,-1.3333343,-0.549983,1.0046716,-2.6383927,-0.9830851,-1.2047007,-0.37246615,1.4228343,-1.1807303,-0.34784934,-0.42707974,1.3065727,-1.0837268,0.12571368,-0.25641447,-0.7151868,-0.016877979,-0.1106457,1.2825994,1.1822253,-0.043800563,0.51826566,0.5397741,1.2579068,0.47234064,-0.51061106,-1.3024188,-0.04886224,1.8772719,-1.3866762,1.6722479,-0.697488,-1.2721902,0.4310483,-1.2752558,-1.3793867,1.1873019,0.17250639,-0.48943338,-1.2328298,0.38564706,-2.039322,0.18295626,1.4133903,1.059939,-0.6341479,0.99637824,-0.1390765,-2.5411656,-0.6924461,-0.5626106,-0.21417789,-0.66276443,0.40113407,0.70089394,-1.3687551,0.738218,-1.1054343,1.2666348,-1.0099661,0.68758476,0.7166699,-0.40803206,0.121510096,0.6666612,0.29407823,0.16184194
MMRF_1325,-1.0370927,-1.0217252,-0.2813463,-1.32789,-1.4736061,0.565214,0.34597233,0.69247615,0.26504576,-0.24744536,-0.33873117,0.05012681,-0.6120051,-1.0327619,0.16903204,1.7403085,0.25272933,0.22234096,1.0255011,-1.3217657,-1.0905566,-0.08208391,0.1668229,1.0816013,-1.3101795,1.3580946,-0.04919852,-0.5261931,0.97858447,-0.38117388,0.902225,-1.8133723,-0.07405819,-0.13580735,-1.5191053,0.54296225,-0.9381917,2.3573873,0.30067068,-0.12730718,-0.92370164,-1.21723,-0.15579075,2.592943,0.45728564,-0.0012295805,-0.15821561,1.4002562,-2.014363,-1.8687332,0.5292915,-1.9536647,0.730249,1.5175213,-1.2018306,1.1424611,1.1147841,-0.12441851,-0.7648931,0.6051074,-1.5685568,0.39728343,1.475443,0.878424,1.5580211,-1.0223293,0.057129458,0.73743707,-1.7524596,0.6928743,-0.12597074,-0.042488743,0.17419791,-1.1674308,-0.9526449,0.08047383,0.5065428,0.5387888,-0.70467955,0.74823505,-0.3397848,0.50540113,-0.39995846,1.2631512,-2.9318564,0.35688356,1.188116,0.65307987,0.17511088,-1.1323199,0.16991223,-0.9537106,-0.034876145,0.2695952,0.14828844,1.9442611,1.8932638,-1.3492014,-0.5759242,0.7991552,1.1133051,1.0084246,1.5466247,-0.1548974,-1.6382295,-0.6231374,1.0160718,-0.9789068,0.016206287,0.6297158,-0.8486534,0.16878457,-0.67749476,-0.0909037,-0.86993366,0.84349257,0.7921907,-1.1489861,0.81252694,-0.24185513,0.731616,-0.38973975,-0.7909975,-0.053314857,-0.4860226,1.307408,0.9154496,-0.043013006
MMRF_1364,-0.13742669,0.40353867,0.48026899,0.4910244,1.321886,0.7011899,-0.03377625,-0.05012176,-0.22579168,0.12286608,1.1063306,-0.47959974,1.1587031,1.3481814,-0.028879058,-0.9687994,0.20599267,1.4570606,-1.3139747,1.1494237,-0.014720729,-0.5661516,1.4338397,-1.6012253,1.7285198,-1.7538909,0.12743577,0.65110767,0.15251967,1.791782,0.36080444,2.2287855,-1.825205,2.0758994,0.20890181,-0.0920079,0.64293736,-1.1386329,-1.7641476,-0.8448877,1.9094393,0.01676492,0.594456,-2.01728,-1.0634686,0.004789103,-0.8935382,-1.4556432,0.78355104,0.29417655,0.8510385,0.77568835,-0.3469734,0.3460745,0.7142944,-0.11894853,-1.207895,0.03366479,0.85105866,-0.3970961,1.226969,-1.1354862,-1.226392,1.1878307,-2.1880553,-0.9730446,-1.0064416,-0.3383012,0.06464393,-0.8345688,-0.6098268,-0.1610695,1.686043,-1.2997086,0.7145977,0.60014564,-0.60558206,0.9475413,-0.5851648,1.0413548,1.2993392,-0.19299255,0.532481,-0.94881284,0.7346446,0.50407493,0.37072614,-0.91890895,-0.87595457,0.9268797,-1.5189787,1.809469,-0.9273161,-2.1182017,0.3308251,-0.71068096,-1.917783,1.4021684,0.25984132,0.20368187,-1.0562532,0.1211987,-2.1710281,0.20146276,1.3082857,0.93478537,-0.8900292,0.9286745,-0.51172376,-1.4862764,-0.028765246,-1.0275259,0.2739731,-0.40179247,-0.00022954494,0.06135904,-1.0437665,0.8210575,-0.99884516,0.61993665,-0.3984353,0.4529102,0.28113192,0.3892514,-0.05648695,0.8167164,0.406726,-0.41681826
MMRF_1383,0.28896347,1.5104678,-1.4032028,0.66039705,-0.5781109,-0.6325823,-0.79305303,0.09693118,-1.1919055,0.66802174,-1.8988438,-1.3093936,-0.010345811,0.6789144,1.7574407,-0.84016323,0.896807,-0.19110486,0.4700376,-0.5783042,0.906992,0.20605373,-0.40688708,-0.60225904,1.4693094,0.01393725,1.9947827,-0.24821272,0.044751555,1.8830864,0.12516697,0.09824982,-0.49311122,0.34139523,-0.88258976,-2.194984,0.76067936,-0.7559937,-0.015518559,0.9312636,0.08774573,0.46062842,-0.48541078,-1.2253587,1.7200676,-0.22332817,0.6838528,-0.6880045,0.67058516,2.9164536,0.53375393,0.9169271,-1.5399649,-1.0492777,1.6168823,2.6965573,-1.5426124,0.44307613,-0.6575173,-1.1676053,-1.2715405,-0.20887157,1.2649124,-0.1495408,-0.7989399,1.1463212,0.39726558,-0.5728452,0.0990297,1.2013102,-0.4437158,1.1237558,-0.21405129,0.21062297,1.420084,0.010053358,0.31237617,1.3329673,-1.914306,0.6455622,0.2368216,0.47330722,0.6535521,-1.113325,-0.6421243,-0.801618,-1.0550008,0.83576274,-0.11842477,0.24242337,0.048814673,-0.76767147,1.1776607,-0.8895307,-0.42108077,-0.62904423,-0.9411532,-0.9492243,-0.3117903,0.462251,0.855994,-0.36159825,-0.16895479,-0.37784863,0.69346297,-0.57283497,-1.3263333,-0.5738847,-1.6301543,1.6621035,1.3554959,-1.1149269,1.5510868,-0.84529763,-0.3741725,-0.160867,-1.0591301,1.3393123,0.5814182,-0.94489074,-0.8357867,0.10626112,-1.7752268,1.0382367,0.13745889,-1.1864479,1.1504974,-1.1472782
MMRF_1377,0.44800282,0.34361038,0.7751386,0.54253614,-0.79980177,0.5140286,-0.30746087,-0.97861105,-1.5154523,0.7895291,0.9998516,-0.6094161,-0.19627887,3.0573525,1.2181396,0.2705973,-0.5226401,0.33362582,-1.5058157,1.0035322,-0.43341595,0.78888446,0.32359737,-0.36937323,0.9576555,1.177986,-0.091662504,0.5618783,-1.0076274,1.6327066,0.13358845,0.26761153,-0.739403,0.7478992,-1.0455619,-1.4165406,1.7338674,-2.14515,0.7470592,0.96975327,-0.36279634,1.6753144,0.3046254,-0.4123016,1.9543457,-0.054289747,-0.41779885,-1.5409664,-2.047529,1.2206204,0.32675707,0.25599873,-1.4013005,-0.5310882,0.56705254,1.1084529,-0.12469776,-0.70997286,-0.12377669,-3.137814,0.058175176,-0.20104176,0.8203548,1.1121372,-1.4938362,1.6536305,0.2324175,-0.31111535,1.5170158,0.5532298,-0.92112285,0.7394674,1.2172848,-0.50489366,1.4100248,-0.38968354,0.9303917,1.1492041,-1.2824697,0.91304505,-0.28848752,-0.26543716,1.2125622,-1.1671385,0.6638096,-0.5419897,-0.30444604,-0.12939145,1.4524534,1.3178103,-0.4725215,1.0261031,-1.1287442,-0.17651087,0.084987976,-1.2638108,-0.36850944,0.29652596,-0.33330983,0.38436756,0.37116915,-0.6237203,-0.94862765,-1.3227379,-0.02544979,0.5189938,-1.0146526,0.14103092,-0.021707647,-0.6025769,0.3781964,-1.081015,-0.011506179,0.31999502,0.50990504,-0.7638015,-3.097844,-0.48862937,-1.1529467,-0.45991302,0.5555072,0.22259445,-1.6060147,-0.16643709,-0.4770753,-1.0428863,0.8746949,0.6322368
MMRF_1360,0.72352225,-0.9924745,0.80669814,0.9261654,1.223204,-0.5007331,-0.11603059,-0.17477322,-1.272907,-0.47088996,-0.112557076,1.0523409,0.46949315,-1.6945628,0.76298416,-0.47584718,0.916062,0.24926433,-1.8931578,0.42396545,-0.47511044,-0.97318745,1.7623836,-2.2216916,-0.8822336,-2.191626,-0.5722474,1.5716631,0.5421054,-0.6450944,0.21807687,0.794412,-1.3210547,0.90223926,1.2055213,-1.2030392,-1.004043,0.2540483,-1.2195704,0.6587437,2.5847154,-0.9796363,0.47146478,0.030508988,-1.0713409,-0.62583464,-0.29974517,0.5699399,0.517593,-0.59486127,0.044057857,-0.27683708,-0.99393207,-0.79038006,0.4318426,-0.5753909,-0.5495379,-0.048169307,1.2261636,1.2529911,2.4096386,-0.7831814,-0.5509297,0.35413864,-0.17952074,-0.93335307,-0.7120674,-0.17275509,1.0189323,0.09313162,0.42142546,0.3115405,-0.056368086,0.6835804,-0.40010688,-0.31852075,-0.36201245,0.044362642,-0.24073635,-0.19384801,1.7977242,-0.037109267,-0.4540875,1.7658807,-0.5554587,1.0649247,0.1111543,-1.5641242,-1.5244303,1.6970909,-1.2621478,0.8868578,1.2604839,-0.87743074,0.32952666,-0.64049286,-2.2538364,0.6827547,0.18066712,0.33084467,-1.0486593,-0.32945168,-0.46297964,1.5712711,1.8451425,1.0430883,-1.1450155,0.2451251,-1.0021529,-0.56882864,-1.5411273,-0.5616215,-0.32398915,-1.3806951,1.5023282,0.9276201,1.0893792,0.6340584,-0.18746641,0.4238514,-2.2478244,0.8647912,1.2507541,0.5413606,1.4389639,0.0073314616,0.045071516,0.663997
MMRF_1371,0.28221086,0.7201767,-1.6434206,1.8007213,1.8544298,0.7712418,0.35421556,-1.3558041,-0.8924832,0.79671663,-1.2107829,-1.4740878,0.81749564,-0.6005035,-0.5281489,0.121289566,0.5195999,-0.5887865,-0.7186812,-1.0939645,0.67610353,-0.6639955,1.72733,-0.4110388,1.2758466,-1.7033674,1.130049,0.058974296,-1.0452193,1.4890722,1.3759513,2.478469,-1.8840578,0.49873054,1.188817,0.3580098,-0.029016837,-0.096730076,-2.2457445,0.029173767,2.1150954,-0.99405503,-0.336047,-1.9814502,-0.88362724,-0.5374931,-0.7831228,1.088169,1.4446832,0.98207045,0.9436891,0.25028014,0.16573802,-0.50373995,0.69527054,-0.17322189,-0.84541786,-0.18186824,0.93296415,1.3807096,-0.12088632,0.46359354,-2.2449195,-0.71197546,-0.2963342,-0.4850042,0.10856623,0.3355399,-0.39047986,0.38772905,-0.3078562,-1.3833494,-0.99613386,0.43498102,1.3299942,1.2293504,-0.6154426,0.06660033,-1.1662818,-0.23086427,0.8678271,0.011768261,1.4374036,-0.453228,-0.88194287,0.5803071,-0.11023977,0.5637316,-1.8390964,-0.5746945,-0.64017576,-0.019419346,1.0648186,-1.9026074,0.15053356,-0.47782946,-1.5752066,0.6336786,-0.311675,0.319605,-0.9474047,-0.7383535,-0.34004518,1.2374513,1.2247111,0.43102634,-0.6539206,0.61803365,-0.96058553,0.036440372,0.5236956,-0.44518027,0.09171622,-1.4382074,-1.7391862,-0.604535,1.0555295,1.1100163,-0.6128882,1.6651686,-0.39328787,0.4585036,1.2162074,1.7019757,0.28628018,0.21496335,0.19935462,-0.27401456
MMRF_1089,-0.6852238,-0.7276813,1.1528453,2.2509687,-0.25394803,0.3611695,1.1367995,0.25744817,0.38894668,0.58887005,0.18095577,-1.4781975,1.5017519,-0.015371202,-2.8203866,0.759108,-2.1316879,-0.68567014,-0.30219328,-0.7252104,-0.03270085,-0.5034234,-0.5370228,-1.4540414,-0.16898039,-1.485678,0.55442977,0.23026614,1.2073617,-0.11863327,-1.5643679,1.2023046,1.0243502,-0.9834332,1.477648,2.7677104,0.9700923,-0.23562713,0.28140914,-1.5244508,1.0344208,-0.8455802,-0.1521217,-1.1338589,0.23278801,0.45304617,-0.108796164,-1.3005751,0.8488567,-0.6646972,0.260246,0.37823674,0.9278987,0.15099716,-0.17557992,-0.8290372,-0.424343,0.4016643,-0.09762435,0.3655778,0.98839,0.115894146,-0.3734517,0.15383649,-1.5238793,0.4296516,-0.8347857,0.57302433,-0.43766832,-0.8485043,-0.19724649,0.0049350546,-0.6452447,-0.73320735,0.11819685,2.2833467,0.43215683,-1.1836773,1.5061425,-0.45382097,-1.1486622,0.7862018,1.5161512,1.6955934,1.6447444,0.7201461,0.526683,0.45890927,-1.0879827,-0.19956325,0.59134394,0.52500105,-1.1753573,1.186058,-1.8171088,-0.58848697,0.09360348,-0.124836944,-0.107484475,-1.4664681,-0.9472224,0.85252064,-1.7729685,-0.648306,0.8792754,0.93549633,-1.0979369,1.0056572,0.27364028,-1.5932662,0.11488739,0.8954445,-0.72302943,-0.49311677,0.23358019,1.0827571,0.65174717,-1.9269686,0.10368864,-0.16026378,1.8656173,-0.54291815,2.0662384,0.48488408,-0.5352525,-0.1530736,-0.007895135,-1.3387874
MMRF_1365,-0.421302,-0.7316035,2.6026514,-0.59412485,-0.038379744,0.22211137,-0.18239494,0.5563454,-0.33219638,0.43174124,1.6807086,0.3322541,0.011843823,2.2683277,0.35836253,0.9561515,0.54836136,0.8257235,-0.729914,2.1522295,-1.5071384,1.4158223,-0.3932051,1.3651372,0.3716775,0.77734953,-0.9275727,0.73257226,-0.24376267,0.23939769,-0.20600332,-0.86046535,1.3566985,-0.34062737,-1.9683152,1.6476005,-0.11986785,-0.10715718,0.117003515,-0.48861423,-1.0361487,1.6066637,0.16153586,0.36390722,1.0697191,1.8464675,-1.1497512,-1.5091424,-0.9931988,-0.91558504,-0.97479975,0.27786598,-0.5601274,-0.095725216,0.15502684,0.72983515,-0.942329,-0.27376568,-0.51696604,-1.6001033,-0.63028663,-0.36580792,1.4090841,1.2724994,-0.25591534,0.19601388,-1.5375317,-0.044958252,1.0230491,-1.847232,-0.4304294,0.44907373,2.6357517,-1.6170684,-0.7277959,-1.2444117,-0.37074563,0.007851251,-1.3053493,2.0638394,0.16557662,0.10256198,-0.7484573,-0.1596552,1.0546196,-1.5488366,0.069551356,0.35319382,0.38642475,1.6068149,-0.8018087,-0.07055077,-1.3702347,-0.35910252,0.048908737,-1.0496085,0.29070142,-0.21433601,-0.38608402,-0.17170553,1.2571906,0.3163783,-0.4368337,-0.68427753,-0.5302105,0.7176928,1.5331588,-0.6457841,1.4537745,-1.6657995,-0.35271725,0.16487142,-1.3399078,0.82800347,0.16554882,1.6671166,-2.6434002,-0.80985737,-0.40088272,0.9788079,-0.38134384,0.60775274,-0.89375263,-0.51890653,-0.48244175,-0.675538,0.3278893,0.22568017
MMRF_1356,-0.87352407,0.6804309,0.19186774,-0.36977643,-0.5407245,0.46183035,0.55124235,-0.66972095,1.4826614,-0.13004689,0.22868946,0.4664208,0.71927476,-0.70096725,-1.3705966,0.46045306,-2.6504357,0.22810268,0.7350119,0.23080413,-0.36644006,-0.54185796,-0.95273244,0.7284427,0.06384355,-0.12424666,0.1722619,-1.0629494,0.07780897,-1.7990655,-0.8450042,-1.0302465,0.7515323,-1.1621107,2.0260613,1.7860523,0.0009672884,-1.0010225,1.8790439,-0.3723639,-1.7799168,0.049022265,-0.7937116,-0.59424865,0.71969044,0.82070243,0.76553035,-0.21835448,-0.50551206,-1.3860378,-1.0617535,0.034808412,1.9211551,0.6587399,-1.3928641,-1.947653,0.5233437,0.21760748,0.31478915,0.18322214,0.7643819,0.051997907,-1.3381442,-0.72267234,1.3640829,1.1141464,0.953812,0.36511457,-1.5368801,-0.1748021,2.3722765,-0.13156681,-0.6209342,-0.101388335,-0.61905694,1.6959531,-0.21964589,0.09583596,1.3667051,-1.8028896,-2.3704154,-0.2089625,0.6722066,1.082892,0.8837174,0.09914423,-0.22717375,0.17176521,-0.0025139414,-0.56327945,1.4793917,-0.18454075,-0.35085,2.4868145,-1.632494,1.0032501,1.4549483,-0.70497787,0.83289486,-0.5074747,-1.0811547,1.0599909,0.07444963,-2.0023613,-0.27930483,0.42889342,-0.18604738,0.26666728,0.5724518,-0.20783319,1.6948714,1.2648097,-0.71549207,1.0111519,0.18783392,-0.76239276,0.6390981,-1.2957505,-0.45814958,-0.5346545,0.60613936,0.39128888,1.8748934,-0.67393786,-0.49803796,-0.15676133,-1.3872681,0.0011966289
MMRF_1270,0.9735199,2.1864903,-0.7887965,-1.4854187,-1.3791142,-0.1597228,-0.9755293,-0.35605967,0.1048064,-0.11835731,-0.9929033,-0.6038063,-0.46963438,0.50462866,2.0836565,0.7545054,-0.54069644,-0.53333676,0.7777579,-0.7130164,1.8642155,-2.2092998,-0.24511446,0.14468418,0.3733993,1.8227643,0.83539516,0.6600663,-1.3732997,1.1008556,0.80265045,0.6666463,-0.9479426,-0.29385614,-0.72130644,-2.9559143,0.9249166,-0.461711,1.4391434,0.7153434,-0.8874676,-0.06315781,0.3248251,-0.9451113,-0.40096664,-0.35312963,-0.49809197,0.4831093,-0.17826393,1.3259488,0.9096015,-0.6371966,-0.44184145,1.7064303,0.26829976,0.4302584,0.12501459,0.74679834,-1.0544038,0.30289304,0.37913215,0.7628396,-0.3108093,0.16446991,-0.93750536,0.77763206,0.9385379,0.055635806,-0.7513224,1.4689296,-1.2259386,0.28896195,-0.51604265,0.51156104,1.3321135,0.59309196,-0.3281242,1.1459634,0.68273133,-0.3012147,-0.29446986,-1.0964551,2.2838097,-1.7202545,-0.4072211,-0.7588094,-0.031075522,0.3755782,1.3898802,-2.0664325,-0.60991776,-0.678603,0.67752576,1.1239603,0.49233457,-0.38305506,-0.519536,-0.48080942,1.1152143,0.26371595,0.42767423,-0.796782,0.8035494,-0.056244146,-1.1940861,-1.1716895,-1.1574653,0.5840434,-2.0093284,2.4795954,1.8293637,-0.5262176,0.5746931,-0.024170712,-0.8911146,-1.2947134,-0.3384643,-0.09945617,0.36095574,-1.6938713,-0.5321681,-0.62961537,0.67071897,-0.652071,0.4286408,-1.8314976,0.6292642,1.1613556
MMRF_1323,-0.027386196,-0.36546594,-1.6900133,-1.7284682,-2.2408273,0.7012616,0.16462976,1.579671,0.27833644,-0.30285093,-0.92762375,0.44451874,0.3702992,-1.0658926,-0.5805519,-0.70694757,-0.6910842,0.0658662,1.2320751,-1.3262043,0.34687403,-1.652455,-0.96205926,0.049127296,-1.8268132,-0.4364325,-0.080745675,0.25566033,-0.071304865,-1.6861454,-0.15093964,0.42094994,-0.8759153,-1.0289084,0.2495599,0.81129616,-0.16701262,-0.22680865,2.3880014,0.78337383,1.0503409,-1.1832554,-0.22685054,-0.3841285,-0.21178792,1.337788,0.27174485,1.0382273,0.14607888,-0.6064216,0.37298998,0.10687504,0.9675863,1.9527028,-0.16017789,-0.6782913,0.7239768,0.63521415,-0.4109199,1.1279919,0.598189,0.14378053,-2.4688098,-0.5346573,0.33949217,-0.25636756,0.36509553,-0.18722363,-1.2520639,0.33964148,0.5201101,0.8952612,-1.0517712,0.9859555,0.45516837,0.6091606,-0.74801403,-0.8545073,1.6540413,-1.9410424,-0.6634515,0.554662,-0.08903673,1.6031674,-0.08964096,-0.5399595,-0.17632003,-0.5502325,0.7638165,-0.5861543,1.6489315,0.675098,0.7739844,2.4280372,-1.6572584,0.40536073,0.6751342,0.8790047,0.74594414,0.40484855,-1.1445804,1.978024,-0.22671601,0.33084962,-0.0021747584,0.30319092,-1.2363051,1.054985,-1.1728606,0.7421567,0.43850824,0.09732172,1.3601892,0.8721754,0.4109349,-0.8838061,0.5348021,-0.2133194,0.74294597,-0.73489255,-1.0805982,-0.579195,2.5771701,-0.65427893,-0.64708513,-1.1160446,-2.7498112,1.0015292
MMRF_1180,-0.26212478,0.85540086,-0.5893969,0.6421776,-0.15966146,0.588024,1.1664032,-0.7313457,0.41157493,-1.2688692,-0.24710417,0.22929965,-0.18476604,-1.6856964,-0.13982065,1.3112376,-0.45199442,-0.27181587,-0.1435759,-0.08886572,-0.9955485,0.380712,-0.5961453,0.7393074,0.6356787,-0.6259843,-0.04484655,-1.0857805,-0.31247446,-2.2821875,0.05736486,-1.263695,1.7557322,-1.5859445,1.4190414,0.8532728,0.15398985,0.017819583,2.2404797,0.50891715,-1.9707392,0.74211127,0.08350375,0.20889457,0.7124621,-0.43223426,1.3451908,-0.31291634,-1.579668,-2.359543,-1.6623751,-0.8019331,1.5125247,-0.36772937,-1.2707272,-2.1322718,1.7777528,-0.1805694,0.33840287,-1.259853,0.54806983,0.3739243,-0.47443846,-0.14644417,-0.16393742,1.0055152,0.7682898,0.80414665,0.86834925,0.9764414,1.2314688,0.10272535,-1.1180739,0.41549313,-1.0905001,1.1559882,0.49784803,-0.11761601,0.20044371,-1.0729452,-1.6905323,0.35288993,0.24708278,-0.07195762,1.0297043,1.8188038,-0.099107675,-0.3444328,0.7805381,-0.37491077,3.015813,-0.91810465,-0.18918611,2.0021145,-0.6686268,1.5914528,-0.43459177,0.042039737,-0.0398771,0.2661694,0.13159443,-1.0478421,0.61367285,-2.3309631,-1.342678,0.09136457,0.8047412,-0.7991,0.017393526,-0.016676616,0.013589931,1.5715066,-0.3311128,0.33492628,0.2910131,-0.93236804,1.5003194,-0.4855508,-1.2998645,-1.1635392,1.1415924,0.48746276,-0.3377908,-0.31708962,-0.8608337,1.2365153,-0.26315132,0.8921485
MMRF_1188,0.8193213,-0.038991474,-0.5039156,1.3210565,-1.2091962,-0.33177713,-1.5695356,-0.62606853,-1.22144,-0.12841219,-0.9969047,-2.0399263,0.72834307,0.23681673,0.08624683,-0.13511133,-1.1223772,-0.4720874,-1.4513202,-1.4097018,1.0358968,-0.21291326,0.8219739,-0.7377443,1.0198797,-0.09832486,0.5462223,0.06468817,-1.3236706,2.1933396,0.001603133,0.506796,-0.23960102,1.758829,-0.36521193,-2.4838908,0.68451005,-1.1161466,-1.441753,2.2870858,0.5229029,0.73604673,1.404341,-0.7428289,0.09706401,-1.3115121,1.2591769,-1.1485598,0.116411895,2.2587478,0.81567246,-0.49794677,-2.0115802,-1.9161102,1.6957908,0.7007991,0.46345603,-0.4017601,-0.14339285,-0.467582,0.43868065,-0.87258565,1.5293201,-0.0011456944,-0.47184962,-0.34564131,0.4196122,-0.3514293,1.2213304,1.5182027,-0.07668227,0.7945268,0.513585,0.9577138,0.5626526,0.03833124,1.9333304,1.2323503,-0.7498604,0.18176575,0.06854482,-0.18211411,1.2421931,-1.3847728,0.3798651,-0.3932934,-0.78350514,0.2415636,0.95874935,1.4476527,0.4589286,1.9014912,0.04696305,0.34135994,-0.090074055,-1.3174125,-0.85881567,0.122055925,-1.2811023,1.3105829,-0.3961308,-1.3474596,0.39595675,0.61604035,0.52288187,-0.53889894,-1.180345,0.20332053,-0.8996819,0.7824991,-0.8829746,-1.8171448,-0.42278188,-0.030491143,0.32683647,0.2692909,-1.3355894,0.020060595,-0.65810347,-1.6453295,0.6691652,-0.3021856,-0.73254985,0.6141606,1.1622162,0.9331943,0.83591944,-0.12602992
MMRF_1300,0.22676696,-0.057725504,-0.1680307,1.6213813,0.9456194,0.3003662,1.6805344,1.1254755,-1.6956775,-0.0934001,-0.21696761,2.095467,-1.1044149,0.39862356,-0.22132924,0.22862835,0.86093104,-1.1352928,-0.26035646,0.022190262,-0.25706556,-0.1213395,-0.46609753,-0.11685965,-0.55973107,-0.0025172774,0.045870237,0.49579802,0.070156135,-2.0003994,-0.5824853,-0.17554298,0.6259416,-0.76889694,1.9137425,0.9322819,0.2478124,-0.6499401,0.86425817,-0.59669393,-1.2959175,-1.1398563,0.2692525,-0.82793385,1.1476684,-0.59019,0.5923142,1.240928,-0.6490075,-0.042303048,-0.5778066,0.4707814,0.03187222,-1.6914042,-0.28675103,-1.4862025,-0.14017418,-0.93772703,0.026747752,1.7187234,0.23593138,0.093502596,-0.5471011,-1.4269276,0.6648923,-0.21301219,-0.054954093,-0.59759724,1.259776,0.43206954,-1.0004622,-0.55568063,-2.0353563,1.488705,0.2526703,0.19768739,0.79187566,-0.37275484,1.9018663,-1.1412146,-0.56533563,0.5251569,0.4107902,0.29855967,1.4434066,1.087132,2.4151897,-1.3050759,-0.8651769,-0.7173144,-0.37091488,-0.031216167,-0.5572105,0.3250266,0.25771534,-0.026801892,0.16946146,0.53251356,-1.7313448,-2.177617,-0.07890237,-1.2100292,-1.1415373,0.84216994,2.190505,0.7960835,0.6719686,-0.14980753,2.6605191,0.09325722,-1.6798183,1.3392769,-0.6519908,-1.2546113,1.1055343,-1.0593207,1.5675836,0.115844436,0.46742815,1.1178753,-0.45182505,-1.2789973,0.7172965,1.1190476,-0.8839707,-2.2541277,-0.45664975,0.0716792
MMRF_1331,-0.5129859,-1.3404057,-0.13757612,1.5539407,1.6280491,0.14454553,-0.099573135,0.9979817,-0.89127403,0.44378552,-0.5318314,-0.74482775,0.8203125,-1.8099847,-1.3924408,-0.8048262,1.3648407,0.62415665,-1.3622271,0.08590884,1.2625989,-1.0325907,1.0577227,-0.55037594,0.70889574,-1.4774852,-0.37283474,-0.46921417,-0.84063107,1.0975047,-1.0167505,0.71164095,-1.3892977,0.48629272,1.6912376,-1.3327932,0.14697397,1.37161,-2.1895223,0.07616357,3.3413615,-0.022809507,-0.32563722,0.12673633,-2.6513143,0.13650139,0.08066589,-0.20879965,1.227721,0.5774141,-0.28902107,-0.18581894,0.4049022,-0.6639394,0.9394764,-1.5826415,0.95431143,0.58289766,0.82089895,1.8898208,0.1876755,0.90607846,-1.2411495,-0.6976694,-0.5363283,-1.7477211,-0.7280583,0.0700971,1.8826586,-0.75045216,0.16323219,-0.4830571,-1.4976159,0.5482454,-1.63454,-0.8025468,-0.77602917,-0.10387525,0.9817695,-0.3074083,0.42726737,-0.26459,0.44672802,1.1640834,1.1232113,1.0134127,-0.26258975,0.28423557,-1.4139326,0.120917775,0.675635,0.56910294,0.5406641,-0.3269288,0.23220001,-0.13508543,0.7175357,0.15032277,-0.61105883,-1.0502952,-1.457172,0.4958612,-0.7160632,0.9562837,1.4601305,0.4422274,-0.6001388,1.130531,0.03658607,-0.64688164,-2.0119011,-0.40518683,0.46752006,-1.983442,0.67266667,0.40146682,1.1360643,1.5619836,-0.14401197,0.64108384,-1.029154,-0.68386793,0.91561174,-0.27613372,0.69546556,1.1828823,-0.022588985,-0.10044189
MMRF_1185,-0.88961786,-0.4463886,0.96238893,-0.44151703,-0.19327919,-0.863669,-1.4598215,0.51995915,-1.1098528,0.4193369,-0.618621,0.77928704,-0.8023212,1.0302268,1.557859,1.2814219,1.4266746,0.37996092,-1.012465,0.68365836,-1.7970058,1.0666023,1.0804348,0.4742806,1.1725513,0.9630121,-0.16518198,-0.52448916,-0.8160973,-1.3285923,2.117108,-2.4379172,1.4031165,0.19236551,-1.9420621,-0.34567925,-0.27433175,0.7069095,-0.37677905,1.2541867,-1.2491019,1.0898292,-0.28685814,0.941646,2.8236153,-0.66885966,0.13483489,0.7834349,-1.7358315,-1.0638793,-0.92358375,-0.010432592,0.49047524,-0.86188215,-0.015909139,0.6156083,-0.61009467,-0.6065332,0.59410256,-0.52147996,-0.8396362,-0.533324,1.8113638,1.4824255,2.0527236,-0.7710067,-0.51154476,-0.0954699,1.72319,0.42819175,-0.049967285,0.25603217,0.74622834,-0.23639163,-0.8197592,-0.07090428,0.9517547,-0.25486094,-1.0184344,1.446614,-1.4938082,0.23584844,-0.41166106,0.19590706,-0.21732251,-0.18111135,-0.42985892,0.7956212,-0.3947272,1.9029346,0.15174711,-0.7508128,-0.37388125,0.29426992,0.49116293,-0.18758577,0.36510724,-0.89140135,-2.414221,0.23087269,1.4036249,-1.532905,0.45414868,-0.22465445,0.182031,0.13718489,1.4688028,-1.7320179,1.333528,-1.0928571,-1.43921,1.0022826,0.013313197,0.4721857,-0.91810805,0.5028312,-0.09462535,-0.5097526,-0.17908855,-0.16891155,-0.74225014,-0.86636996,-2.2354457,1.0678511,0.3425816,0.63468266,-0.062945575,-0.34581032
MMRF_1348,0.3889478,0.2522163,-1.5277885,-0.119749546,-0.67342865,0.66993815,-0.84308463,0.3128287,-1.1943781,0.3047035,-2.199094,-0.19428688,0.16992238,-1.5634787,0.98423713,-0.46459922,1.0840384,-0.12582694,0.86385894,-2.5429118,1.2067679,-1.0120199,-0.63432866,-0.14672305,-0.88077706,0.39925346,0.46957114,-0.22970542,-0.051753044,-0.26656392,-0.4215349,1.0434246,-0.29008898,0.44244337,-0.99566376,-1.9406476,-0.12282315,1.5605628,1.529952,0.6304959,1.7471721,0.6442945,0.46479145,1.1037225,-0.4729399,-0.19367011,0.021171512,-0.04897516,-0.13683337,0.86399907,1.0376347,-1.2041959,-0.6432009,0.6120774,-0.557708,0.1731795,0.93303734,1.7040241,-1.2833195,-0.3806009,0.46269685,2.0512936,-0.031375617,-0.5755846,-0.86419886,0.83845145,0.8366337,-1.0658636,-0.71432304,1.2554638,-0.0856279,-0.3649796,-1.3166788,1.0387077,0.21355908,-1.893635,-0.84502816,-0.13232346,-1.1896796,-0.62836194,1.120317,0.23040324,0.06408989,0.6816899,-1.131699,1.2660978,-0.6687852,-0.050468244,2.0284522,-1.2571628,1.2432911,-0.4675043,1.3742869,0.69610447,-0.7701452,-0.10872596,0.3909464,0.8208207,0.76802653,1.7358737,1.0267938,0.4944509,1.3442377,0.35188207,-0.19779438,-1.3923103,-2.1007478,-0.59542686,-2.317284,2.1229208,0.8409663,-1.3053633,1.0681292,0.372937,-0.7174669,-1.3969641,1.3267295,-0.98363775,-0.24008723,-2.0839992,0.02882199,-0.26951173,0.20648935,-0.6123767,-0.05804597,0.10531836,0.9900832,0.8269576
MMRF_1284,0.53070116,-2.215379,-0.6529885,0.510365,-0.46506152,-1.4187045,-0.5769256,1.051405,0.34483665,0.5883011,-1.3763745,-0.24859624,1.4530022,-2.068508,-0.6624817,0.13718267,0.44452128,-0.63232,1.36839,-1.4582002,0.9185535,-0.54639906,0.38802665,-0.782098,-1.3211898,-1.5464096,-1.1723915,0.88668156,0.5346074,-0.031597186,-1.2494907,0.38975638,-0.7979516,0.29005402,-0.20912327,-1.126296,-0.93164617,1.209278,-1.8276585,1.3375931,1.5826343,-2.138802,0.31130868,2.6744819,-1.3552277,-0.11487311,-0.2453674,1.4382695,1.9203639,0.019294156,0.43606484,-1.1427178,-0.16151373,0.26300907,0.8104013,1.1511906,0.36209223,-0.3750517,-0.5414478,2.3825395,-0.6207409,-0.2606885,0.45953938,-0.9761676,1.1019863,-0.75580317,-0.31494984,0.067856066,-0.78831476,-0.00014343299,0.5835046,0.4464457,-0.8576897,0.78241587,-1.4954224,-1.9267175,-0.49289617,-0.40461668,0.9265288,-0.0772087,0.7687092,-0.024656706,-0.93432426,2.0482044,-1.8119901,-0.06818773,-0.013327438,0.6475844,-0.52617127,0.5754463,-0.6702341,0.031356715,1.5442462,0.30118445,0.11110506,0.33030063,-0.23211598,-0.062202282,1.0544605,-0.27595812,0.22686984,1.3305014,1.8268377,2.1064296,-0.75117034,-0.7052234,0.9456544,-0.362494,-0.7776326,0.49165788,-1.7003213,-1.340826,-0.15639196,0.098748386,-0.26347116,1.6556685,0.42264214,0.06265324,1.8695003,-0.27355716,-0.72555476,-0.41513082,0.2938087,0.73775876,0.57584244,-0.11104286,0.40200055,0.04941469
MMRF_1202,-0.10494026,-1.2100517,0.9948161,-1.0913523,0.44885406,0.41069874,-0.5989286,-0.32538205,0.8751272,-0.31597853,0.48044133,0.09778908,-0.41056368,0.36886042,1.399892,1.0780615,-0.10234218,-0.14161612,0.08927571,0.11548572,-0.19853564,-0.289493,-1.6832901,2.5915802,-0.51766115,0.7952295,-1.1374136,0.24398062,-0.718117,-0.6402072,-1.1179798,-1.7692862,1.6842964,-1.1790235,0.7471275,-0.3842718,-0.7334423,0.95366746,2.4081883,0.58201385,-2.2651625,0.8161691,0.05252846,1.0342119,1.2399803,1.5426939,0.60081065,0.18788023,-0.75363964,-1.8918604,-1.514272,-1.0265796,1.4145259,0.9241767,-1.521036,-1.2277766,1.6382122,0.3750393,0.46850592,-1.6591078,-0.034628443,2.3088245,-0.44330958,0.12714197,0.38354766,0.8836883,0.41798753,0.5707711,0.50741076,-0.1962932,1.0242823,0.5526781,-0.1543811,-1.0366124,-1.3613218,-0.4246051,-0.16338205,-0.7297673,0.021483261,-0.34698367,-2.8484576,1.1626656,-0.16195656,0.5580566,1.1951903,0.7118846,0.20684424,0.4428401,1.5317571,0.6864808,0.58889925,-2.5253396,0.44699514,1.4429733,0.19948342,1.117956,1.1887962,-0.9176716,-0.04034041,-0.6917756,-0.46551114,-0.49176028,0.82137656,-2.0825632,-1.1439096,0.21742345,1.3706447,-1.4452387,0.20234044,0.81195784,0.4672524,0.48272815,0.12658957,-0.12461041,-0.70378566,-0.25054377,-0.26081383,-1.6543689,-0.33050847,-0.77939665,0.52341384,0.5368511,-0.6555332,-0.99406594,-0.45684424,0.26100922,-0.091225505,-0.17252664
MMRF_1466,-0.076621115,-0.79985297,0.018050058,0.3064051,1.6755522,-0.9100232,0.7024133,1.2616676,-1.057305,0.44428134,0.45556793,0.92646164,0.55548424,-0.39169902,-0.07092569,-0.4403415,0.013372596,0.6145241,0.25843945,0.17779173,0.57082385,-0.48671746,1.2673585,-2.4625921,0.53991187,-0.460615,0.06381477,2.0658317,1.654775,0.47699088,-0.34068087,2.2515538,-0.87844586,-0.43191475,1.3432711,1.9227095,0.5305526,-0.19678201,-1.3775083,-0.3337531,-0.39051807,-2.0868635,-0.51348335,-1.4019313,0.22522126,0.6806549,-1.7307591,1.1550571,1.57607,-0.20229831,1.4110172,-0.34111458,0.57614726,1.1704117,-0.6373793,-0.3910179,-0.47487408,-0.97033113,-0.170787,1.475278,0.048724882,-0.86041355,-2.645578,-0.8840751,-0.50701517,-0.7904826,0.5254046,0.21452999,-0.4310498,-1.1136249,-1.1129011,-0.61810285,0.00357386,0.8088133,0.36034158,0.40362602,-0.67270595,-1.4142705,1.0834483,0.037870552,1.1663331,1.7314799,0.09572305,0.62414783,-0.85527545,-0.9418187,2.277591,-1.7381762,-0.2614462,0.32807443,-0.93459374,0.4815459,-0.95467854,-0.70550257,-1.56086,0.055626538,0.0752821,0.83935875,-0.49287912,-1.4922369,-0.61881304,0.6156378,-1.5347186,1.0229181,0.9056588,0.39972475,-1.1065979,1.4049087,0.03979802,0.120895356,0.3310113,0.24633107,1.1468084,-0.7294992,0.7814819,-0.19772248,0.9292867,0.8908087,0.27934372,0.23086366,-1.8256828,-2.4152133,1.3172547,0.2432387,-0.063252605,0.3307634,-1.4364058,0.28371266
MMRF_1446,0.034865275,-0.7449173,0.51433545,-0.6244487,0.5041214,-1.1230135,0.08726625,-0.21945068,0.15897796,0.09947531,0.10439275,1.2323303,-0.23701738,0.54885453,1.4941492,0.1476901,1.0735948,1.0616122,0.9391925,0.17788714,-0.055301353,1.6685802,0.089475505,0.8493386,-0.63558114,1.2447687,-1.0923774,-0.124248184,1.005351,-1.0547953,0.66568595,-1.6435723,0.82331187,-0.256559,-1.0878754,0.46061572,-1.4827889,0.8178463,0.6482009,1.4344819,-2.224097,-1.2299266,-0.38215876,0.16664772,1.9499211,0.082832664,-0.7110348,1.155689,-1.4589807,-1.6847756,-1.2270194,1.1267885,0.14834319,0.42054313,-0.5431744,0.5698532,-0.41796896,-1.263485,-1.0283165,0.8343918,-1.8228321,-0.6529837,1.0997771,0.072077036,2.2206304,-0.40703478,0.3527072,-0.14669545,-0.67648184,0.4842594,-0.07588539,0.18771905,1.2946161,0.015386103,-2.3134677,-1.5516614,-0.028431691,-0.8606255,-0.3955869,0.42073414,-1.551932,1.379746,-2.0466452,1.6344991,-0.72348887,1.6095577,0.84463817,0.57037187,-1.6363324,0.79327285,0.3076117,-1.8462809,-0.1524073,0.3642105,0.105855204,0.7135035,1.5342216,-1.592984,-1.190329,0.7156786,0.35466987,0.12939781,0.30469263,-0.48863977,0.024789087,0.30206177,2.0560782,-1.1125968,0.68465143,1.6134055,-1.201243,2.1652682,-1.3067832,0.3475323,-0.4289001,0.63636243,-0.18851985,0.21527228,0.6419358,0.9341739,-0.57389545,-0.50290745,-1.0065485,-0.22341678,-1.3271321,-0.04441355,-0.16762319,-0.6325699
MMRF_1447,0.7178018,1.0472844,-1.0219878,2.0236633,-0.1622494,-0.2607315,-0.7628214,-1.1252826,-0.76372206,-0.7355656,-1.4189546,-1.5381049,0.5273719,0.19900328,1.16136,-0.86926484,0.045936428,-0.83476603,-1.5230408,-1.5687109,1.2613518,-0.83656424,0.48286137,-0.50663227,0.15484741,0.77608097,1.7751017,0.2303624,-0.7234908,1.9874303,1.0110677,0.8318198,-0.39101484,0.7419025,-0.8824611,-1.8600208,-0.07743185,-0.28215066,-1.0286361,1.8077453,0.86303884,0.4373054,1.5348549,-1.3436399,0.53232497,-1.3661788,0.59981364,-0.22702429,-0.068558745,2.8961763,0.87702227,0.1834463,-1.28206,-2.0841286,0.7939769,1.2708697,-0.4442337,-0.3262167,-0.22086334,-0.15775505,-0.33858174,0.12910044,0.9834211,-0.3379215,-0.68764246,0.73260665,-0.024819996,-0.083644554,0.3256604,1.1854304,-0.9599667,0.09190898,-0.38099927,1.3515606,2.1197014,-0.13712464,1.9059336,0.8904091,-1.5192922,0.26810825,0.70408976,-0.11176383,0.80019534,-0.9874209,-0.62394786,-0.18096644,-1.0413215,0.15481387,-0.36135828,0.68590784,-0.045970462,0.3665658,-0.03807005,-0.7271133,0.563995,-1.2754978,-0.770026,-0.6705649,-1.318274,1.8302429,0.50839055,-1.9223732,0.17239478,0.9154644,0.6214107,-1.001058,-2.217918,0.26771224,-0.9311142,2.133789,0.3080511,-1.0433311,-0.66933525,-0.529601,-0.32081813,-0.14147915,-0.70821726,0.33283058,-0.34391212,-0.8496378,0.29764628,0.71974826,-1.1535189,1.4481063,0.7922471,0.083184004,1.3272324,-0.6014743
MMRF_1445,1.5177624,0.25697437,0.6956843,-0.08850437,-1.0990947,-0.35451716,-1.0841831,-1.228028,0.52892536,-1.4360809,0.7863323,-0.5381281,-1.1248338,-1.2332423,0.5734582,1.0114094,-1.7334819,0.2783729,-0.68909436,-0.54036903,1.2632583,0.5412803,0.99131966,0.4625091,-0.32750237,2.1644003,0.048500672,-0.8867005,-0.74978685,-0.3006816,0.3169232,-1.6856587,0.721898,-1.1220936,1.1277363,-2.3217647,0.26320493,0.021688353,1.800286,1.2985462,-0.90758455,1.4884745,0.6698651,-0.39676946,-1.4587904,-2.2454221,0.19172864,-0.68524563,-1.2764739,0.47651193,0.22285527,-0.8910002,-0.46952093,-0.7356471,-0.20989358,-2.3120604,2.2281954,-0.730332,0.3531835,-0.8106226,0.8146658,1.1712857,1.2488635,0.38067606,0.40249643,0.79644376,1.5905309,-0.34351704,0.27476078,0.54954875,0.40018815,-0.9943712,-0.8250044,1.1137902,0.2606656,0.5716754,1.4205724,-0.20461157,0.11778121,-1.3607332,-0.91997975,-0.03892338,1.0758005,-0.69187224,0.3772167,0.7957036,-0.82190216,-0.8603584,0.55086255,-1.6216274,0.07473135,-0.70015264,0.834044,0.25980973,0.8911917,-0.47417557,1.4894722,-0.8769523,0.5722962,0.38552853,0.55982816,-0.92612886,1.190949,-1.8570961,-0.54533035,-0.51705396,-0.4119376,1.2685093,1.135046,1.9078724,1.775593,1.5420414,-0.23690765,-1.159555,0.07100807,-1.5018483,0.9473452,0.6299831,-0.6192746,-1.2250271,1.2154684,-0.08577963,-0.9034683,-1.0356174,-0.055159695,-0.24095827,0.3723389,0.40053877
MMRF_1433,-0.21593444,0.022912955,0.5797696,-0.4459633,-0.8903743,0.74471796,1.4643012,-0.7628066,0.68936634,-0.4810248,0.6817771,1.5505515,-0.5279921,-0.0071068364,-0.17836997,0.9955072,-1.3566383,0.6760172,0.14128214,-0.21392156,-0.51125824,-1.1920718,-0.038453087,1.7531737,-0.9195387,0.6080699,0.42950895,-1.409767,0.33847913,-0.5504405,-0.4123419,-1.2944044,1.5652003,-1.2170864,1.8407867,0.11599755,-0.2580714,0.16387239,1.9370265,-0.8263644,-2.028277,0.96129644,-1.2015606,-0.29321435,1.4761612,-1.0452424,0.5380318,-0.48379347,-1.3434589,-1.1703883,-1.2391827,-0.6498537,2.8802059,-0.24034417,-1.2979603,-2.1391382,0.7221275,-0.60439795,0.77261454,-0.499985,0.81517875,1.7126206,-0.91700387,-0.44852528,1.3772047,0.32635602,0.35085922,-0.6065983,-0.5815954,0.4569316,1.3439186,-0.97878647,-1.3145771,-0.59702325,-0.014048375,0.76327556,-0.8303742,0.97951335,0.8957525,-1.048261,-1.8972024,-0.8727664,1.1512098,0.10283776,1.6147453,1.0386734,1.3820467,0.09247728,0.3880518,-2.082524,0.2804767,-1.651376,0.43737742,1.4137402,-0.44909212,0.7300364,-0.0004534265,-0.38675612,0.51905906,-1.2425768,-0.2385004,0.121017784,0.7850276,-1.5747645,-0.57987064,0.551619,0.6008223,-0.83502,1.4194942,0.06350932,1.5604056,1.0773243,-0.4705513,0.49043733,1.1520346,-1.1211568,0.9326743,-1.697726,-0.10507819,-0.18137424,0.38039166,0.40398145,-1.2725681,-0.283808,1.5762618,-0.7357869,-0.02620048,0.09644228
MMRF_1434,-1.4750845,0.46445444,0.095652156,-0.43478608,-0.64705724,-0.24166092,-1.3032912,0.39640838,-1.3544,0.9084345,-1.153882,-0.63503534,-1.111526,2.3009543,0.7278774,-1.7819927,1.4558918,0.273891,-0.64565396,0.016062018,-0.5790711,1.1789285,-1.3751068,-0.08654108,1.0903406,1.5918711,0.32731882,-0.69188774,-0.74342686,-0.27241054,0.44966993,0.36441746,0.85282284,0.82625276,-2.4991038,-1.236962,-0.014571157,-0.64246047,0.6634748,0.6733334,0.2904491,1.73453,1.1705754,0.7554066,1.9832661,1.2264283,1.1030653,-1.1782458,-0.83508295,1.0412749,-0.57804006,1.9670265,-1.3852218,-0.7414066,0.66224384,1.6395848,-0.932523,1.0704223,-0.8575661,-2.084479,-1.3348991,0.03086574,1.0094643,-0.31897342,-1.5091909,0.7028583,-0.70582455,-0.1856823,1.2159964,0.08182579,0.17426835,1.974408,1.9280108,-0.5018273,0.004977947,-0.63637316,0.46341154,0.5582693,-0.8996669,1.2940991,-0.42998064,0.15783086,0.54404515,0.19462632,0.14441948,-1.0919634,-1.223353,0.19293338,1.0683326,2.0039504,0.9312141,-0.42850778,-0.07716932,-0.58898634,-0.27862272,-0.47956365,0.5246513,-0.25020713,-0.87680995,1.2314677,1.1294914,-0.44137153,-0.95384187,-0.020459127,-0.8640933,0.01294031,0.70448387,-1.3884549,-0.3465477,0.6876155,1.3186938,-1.558521,0.42338997,1.0469927,-0.29644686,0.16478933,-2.7377596,-0.35192606,-0.52242273,-0.51445657,0.033463217,0.24683134,-0.54810274,0.447617,-0.7079747,-0.7387198,0.53773856,-1.0906183
MMRF_1436,-0.5441902,-1.3742703,0.4880476,0.5336176,0.6116455,-0.30261305,-1.6746178,0.8456428,0.44081604,0.3836047,0.023932569,-0.29751,2.2454412,-1.6645608,-1.4477212,0.28192562,0.085504755,-1.3787543,-1.4370672,-0.05561701,0.2207508,0.5397537,1.4152883,-0.19503921,0.38210705,-1.6786412,-1.593354,0.40748444,0.37080336,-0.84573317,0.43673885,-0.3213651,-1.8096209,1.4078617,-0.28277054,-0.9079087,-1.4859821,0.86124635,-2.4402285,0.749305,1.9086698,-0.08940075,0.7118565,1.1565074,-0.40844637,-0.6587712,0.9635118,0.64166796,0.4838784,0.076014824,0.96659845,-0.4825403,-0.7305281,-0.45190743,1.0271734,0.9074796,-0.53586763,-0.41212362,0.49536407,1.2257221,-0.1648603,-1.1753895,1.3827627,1.5852846,0.4919167,-1.7280433,-0.8010282,-0.27742866,0.07025549,-0.8466942,0.4286084,0.5270273,1.0104507,-0.39565578,-0.8237249,-0.14100668,-0.5075095,-0.6102932,1.3893768,0.06854602,1.3625236,-0.5348961,-0.730023,1.5651603,-0.5781745,0.41611406,-1.4452853,-0.34512496,-1.1009943,2.3836334,-0.6977756,1.9460814,1.2823063,0.29667276,0.5523247,-1.7612469,-1.620564,-0.16189563,0.005730071,-0.6236406,0.075493015,-0.26865733,0.8454906,2.1345537,-0.16094157,0.00025356002,1.171075,-0.1971767,-0.09889904,-2.2906885,-1.425875,-0.8030384,-1.2512646,-1.3374146,0.09447813,1.3982773,-0.039750677,0.34262598,0.68461037,1.0125796,-0.933677,0.740532,0.64977276,1.2119519,0.7079287,0.1279374,0.06303866,0.14427768
MMRF_1424,0.30572227,-0.15694578,0.83687514,-0.74829495,0.5003778,-1.2082036,-2.241582,-0.13210984,-0.07521185,-0.1356131,0.29413357,0.6044626,-1.0073195,1.8639302,1.9870431,0.2527298,1.157275,0.60633194,0.31496018,1.4564605,0.88544196,1.0064459,0.4209195,0.33068493,1.3328117,1.1642816,-0.38772124,0.55989814,-0.07244919,-0.25762677,-0.91491693,-2.2304983,0.6039535,-0.61059487,-0.77876794,-1.8169166,2.2120564,-0.062125463,0.15398727,1.4683676,-2.1084285,0.23614134,1.2673085,-0.4775129,2.422725,-0.5726642,0.69070995,-0.37188694,-0.04269333,1.2702464,-0.34667084,1.5513066,-0.90445524,-0.108769484,0.51354146,1.6372302,-0.5389004,-1.8719953,0.49892277,-0.59549,-0.8468576,-0.75103474,0.32190916,1.2392967,0.4924434,0.48768878,0.84717065,-0.38797432,1.6265874,0.7735091,-1.0875388,-0.06999564,0.6755182,-0.5746602,0.49854353,-1.286302,1.2832501,0.8856311,-0.77123076,0.22971705,-2.9935825,0.83079845,0.1659004,-0.9236874,1.378553,-0.15095754,0.08210496,0.24233828,1.0967888,0.47892988,-1.3389566,0.30204055,0.11480088,0.03630386,0.14214167,-0.5666966,-0.39957082,-0.6670679,-0.62901306,-0.71765655,0.2447601,-1.0046555,-1.2835678,-1.7810668,0.21123984,-0.10859178,1.2567183,-0.61139905,0.19013241,0.37722605,-0.6228366,0.4282962,0.6651404,-0.37206405,0.8462047,-0.7016629,-1.9112154,0.72216046,0.20367597,0.8045224,-1.3244756,-1.2687647,-1.8096511,-0.22677554,-0.25706202,-1.3151213,0.2426668,-1.3223557
MMRF_1425,-0.93907684,-1.5534983,0.96506965,1.4943624,1.771403,-1.4169924,0.49226797,-0.24614199,0.2955155,0.28945562,1.3466148,-0.06106047,1.0149119,-0.42815155,-1.3280092,-2.2312367,-0.5711424,-0.6558271,-0.64521945,0.08206053,1.8967735,0.10196637,1.2923511,-1.8051068,-1.6177114,1.0546364,-0.03636041,0.46269578,2.1684742,2.6543725,-1.4113142,1.2010579,-0.9809019,0.5858803,-0.052739024,0.95262927,-0.81900716,0.5845693,-1.9227661,-1.8613619,1.7416736,-0.19800124,0.46173018,-0.007284755,-0.7639972,-0.9608235,-0.95038784,-0.79512906,1.0940667,0.69739765,0.46997824,0.34912676,-0.049619734,-0.7332136,-0.55683684,-0.846096,-0.8444991,-0.45319846,0.16299725,0.28820613,0.38744003,0.5260061,-0.33491132,-0.60821706,-0.06528653,-1.0823373,0.42865965,0.0028980626,-0.5586684,-1.9405189,-0.5916259,-1.0071508,-0.6704944,0.076897636,0.7037135,-0.064718165,-0.41091377,-0.6225123,0.701386,0.41022566,1.3976078,1.3273263,-0.429013,1.4315588,0.26793793,-1.0933093,0.63102275,-0.44511557,-0.41405532,-0.63306993,-1.318637,0.6504461,-0.42314845,-1.3160499,-0.3521029,-0.49152976,1.1649448,0.4125369,0.1427711,-1.6455472,0.69148666,0.80923843,0.17713675,2.580866,-0.05925124,-0.8570059,-0.05477829,0.3942739,1.0885102,-1.7834864,-0.17703642,0.4911275,1.1646652,-2.187687,0.47575903,0.41448808,1.816162,-0.9188846,0.41229865,0.12313476,0.4619494,-0.71352303,0.050630227,0.68382,1.1617252,0.68216664,1.3467059,-0.49419743
MMRF_1439,-0.903052,0.7400155,0.1192939,-0.21130037,0.3632499,0.7092901,-1.3043276,-0.5943732,0.6899372,0.66289234,-0.32383204,-0.64536107,-0.71596867,-0.16944432,-0.012481105,-0.9617339,0.8810018,0.26986545,0.011741169,-0.81764543,1.5789163,2.0982258,-0.11798672,-0.30310807,0.9775442,1.0290312,1.4296218,-1.2878373,-1.080034,1.2340758,1.9898317,-0.61502236,-1.3156974,0.45188662,-2.160937,-1.6291795,-0.9486251,-0.05516398,-0.8249163,0.8297768,0.6815874,2.6709356,0.93918616,0.06276692,-0.0048732455,-1.3023957,2.3616216,-0.44618547,0.05672518,2.4740562,0.214766,0.7027946,-1.0831147,-0.65305364,-0.09433277,0.38807222,0.11464734,0.6503923,-0.35562178,-0.8050072,-2.6249335,0.45676023,1.955987,-0.80280405,0.15418859,-0.77981365,0.32422867,0.25652164,0.0037498341,-0.37351218,0.62710565,-0.8244085,0.708139,0.8515239,-0.3364054,-0.3057729,0.46722814,-0.020692192,0.26808554,0.11507332,0.6739709,-0.047293875,-0.90260416,-0.9101441,0.11380831,-0.97650725,-3.3669386,1.0003281,-0.343835,1.234138,1.1172655,-0.12250381,0.13443305,-0.7674504,-0.38471535,-0.7936283,0.94990927,-2.7566,-1.2401763,0.67407227,0.4008203,-0.10884638,-0.74937916,0.4584333,-0.80197906,0.049888,0.45240468,0.42095056,0.56608075,1.4355785,0.9019903,-0.25887305,-0.06760828,-0.28516948,-0.76827884,-1.2785777,-0.56522465,0.55933756,0.24550264,-0.15106668,2.055834,1.3268523,-1.2893679,-0.55260795,0.0412031,0.010837981,-0.25681725,-0.7201476
MMRF_1450,0.54359895,0.2899372,1.5627381,-0.22397688,0.14733128,0.63330454,0.6300018,0.1826827,0.3996897,-0.7612175,0.93498677,0.49580795,-0.7807692,-1.8665718,0.8701832,0.33418432,-0.9222837,0.6843316,-0.16466083,-0.77116346,0.43927628,-0.2897495,1.2015233,-1.2446843,-1.1862423,-0.2611107,1.3615208,-0.1661183,-0.4619548,-0.29188576,1.2645711,1.2122767,0.9457481,-1.0817885,1.8468497,0.32043803,-0.56997555,-0.98719823,1.2598605,-1.6636646,-0.5859734,-0.17652221,-0.053360537,-2.229585,-1.7874978,-1.2558044,-0.095191374,-0.5830145,0.14891088,-1.0766605,0.79939306,-1.6292807,1.7174958,0.35767373,-0.039623816,-2.9020708,0.6402347,1.0752434,0.69096464,1.1683356,1.998473,0.66724163,-1.6522864,0.86193514,-0.5571742,-0.9785765,0.18746233,-0.32842395,0.37293264,0.39526898,0.95443004,-1.5749942,-1.3171663,1.887825,-0.54690975,0.5085918,-1.43653,-1.4207302,1.1129683,-0.9031548,1.2077706,-1.1800358,0.61648697,-0.77680445,-2.9152492e-05,0.79352957,-0.32492784,-0.61682326,0.55505455,-1.6163386,-0.27101752,-1.2508147,0.15472044,-0.5350859,0.44984898,0.23938969,-0.100919574,1.1674036,1.4199579,0.16760342,-0.879617,-0.9555652,0.4014577,-0.3945653,0.44331092,-0.16557361,-1.4758595,2.1653328,1.1275063,0.93823594,1.3268611,0.855344,0.8650201,-0.6728861,-0.04966589,-1.6498902,1.1843753,-0.057614557,-0.66312736,-0.19099018,0.53255546,0.105848745,1.1386971,-1.0929466,0.62584835,0.55304307,-1.4125283,1.0922031
MMRF_1451,-0.22955327,-1.0976167,1.0753037,2.3781989,0.53070194,1.9099665,0.32449326,-1.6552286,0.33458072,0.44087654,0.6812056,-1.4630909,0.8264129,-0.34871504,-1.1714634,0.56783754,-1.1603228,1.0577416,-0.23525527,0.9948663,-1.1076657,1.9348814,1.491375,0.10854308,0.6152977,0.6222871,-0.00711207,-0.18958695,1.111613,0.51558805,-1.2420756,-1.0963172,-0.8588927,-0.17775343,0.10789316,-1.5948122,1.6229116,-0.11452083,-0.1268862,-0.04290759,-0.49243617,0.6925964,-0.73335725,0.6413915,0.40798852,-2.772731,-1.3684337,-0.45570195,0.15242544,0.5923511,-0.059987616,-0.17815125,-0.45356137,-0.106933504,0.70440614,0.6696825,0.5424125,-2.5191355,1.1027303,-1.4418321,-1.1015167,0.4749216,1.1975585,0.41442809,0.5514965,2.1166875,0.102402575,-0.66333216,-0.2045947,1.2182924,0.004181969,0.13678887,-0.0955188,-1.5283934,0.402472,-0.2258979,1.3401202,0.97261,0.084791005,-1.062646,-0.35306567,0.3525477,0.23145631,0.2915413,1.0006477,0.9882153,1.1343395,0.13996208,-1.0589774,-0.66486394,-0.10575235,-0.81480443,1.372166,-0.006333857,0.43382886,-0.3758853,-0.6514799,-2.5986757,-2.3477821,-1.0422118,0.09132787,-0.43849137,-0.29202348,-0.5115935,1.0186769,1.10477,0.5036208,-0.18958852,0.8956845,-0.4572768,-0.277588,1.592092,-0.31285322,-1.6580111,0.21532007,-0.121164575,0.065391764,0.6369614,0.45305485,0.11323681,1.3403776,-0.4906388,-2.5527833,0.24289222,-0.13839205,-1.9220214,1.2613363,-0.46113694
MMRF_1454,0.5681719,0.8539902,0.4811899,-1.4615986,-1.3722771,0.8218659,-0.7670897,-0.4341676,-1.1834935,-1.1347713,0.26290336,0.14491673,-1.7908905,2.668993,1.005851,0.6912116,0.5495185,0.111592695,-1.0056392,0.96869737,-0.80532926,0.4216116,-1.2533771,0.19501749,0.51930094,1.0426122,-0.9020217,0.6210836,-1.0164075,-1.3591311,-0.11286203,-0.58253646,0.5874808,-0.39799446,0.18285467,-1.9086144,1.5903251,-0.6038675,1.8481512,0.54089844,-1.1740057,1.4802808,0.8933532,0.20206892,2.0557888,0.984834,0.08552267,-0.688493,-2.360836,0.84196466,-0.86960953,0.94074327,-0.42039633,0.40908116,-0.071145,-0.4139173,1.4383624,-0.3515508,-0.057501134,-2.9592092,0.99130684,0.9303565,-0.03925708,0.8778235,-1.0090107,0.92448753,0.06987424,0.56232053,0.87150425,0.35990867,-0.54623824,0.5892085,0.61475855,-0.2573842,1.7500883,-0.68721986,0.6654842,1.1623888,-0.9008085,0.3149127,-1.8361969,-0.41040066,1.0283821,-1.062577,1.6619127,0.33255136,0.19446625,-0.7891096,0.5507806,0.7904627,0.52906597,-0.17909117,-0.9144868,0.94613546,0.70221514,-0.2827002,-1.2456198,0.107399754,-0.4021775,0.70690775,1.4101263,-0.9505536,-0.9492437,-0.85396206,-0.3632916,0.09713714,0.37889045,-1.0996313,-0.23920703,1.0673795,0.87441576,-1.4032066,-0.3059852,1.8119758,-0.10194432,-1.2702199,-2.1897085,-0.936212,-1.1480197,-1.5209652,1.1907887,0.7434753,0.04359506,0.6952943,-0.23673376,-0.97527134,0.21559194,-0.19952992
MMRF_1460,0.31333297,-1.8974946,1.2085499,1.4172543,-0.9613118,0.48811722,-0.9776376,1.2744194,-1.0705101,0.1858047,-1.0426394,-0.22874233,0.68684244,-1.1696837,-0.9110261,-0.31815684,0.87580395,-1.3281676,-0.80693716,-0.038795605,0.07085217,0.53556275,-1.4628682,0.15156779,-0.41831326,-1.0889441,-1.2347966,0.56157076,-0.73244876,-1.1629575,0.7322083,0.04835528,0.43026954,0.7829052,-0.7586933,-0.82548225,-1.2430005,0.18240586,-0.5892091,1.8620126,0.840831,1.0273302,0.6701396,0.7420184,-1.737815,0.9686441,-1.116273,0.069364496,2.3717742,-0.0590228,-0.6070515,-0.49036857,-0.6221609,-1.4206308,0.13166231,0.99511665,-0.12465853,1.1462483,-1.4412484,0.9171968,1.8114276,-0.57152456,0.8937143,0.016977426,-1.1784585,1.006365,-2.3486927,-1.4371998,1.330028,0.0790918,0.7747485,1.5332465,-0.06400664,1.535842,-2.111445,-0.77890927,-0.6660969,-0.6929183,0.10801226,0.046317093,1.9240364,1.0852306,-0.46371412,2.2250643,-1.2799006,0.059582844,-2.215076,-1.0061891,0.9328141,1.2735507,0.24705406,-0.05162629,1.3061986,-0.60900325,0.47100723,-1.1059717,-0.94064564,0.8769022,0.599056,0.9278976,0.46326867,-0.7159506,0.3859763,0.7288729,1.0491005,0.8694414,0.7954066,0.07002029,-0.61332405,-0.34428927,-1.1380974,-0.278769,-1.6578338,-0.7804841,-0.13350801,0.77520734,-0.14063218,-0.18775812,0.34782377,0.44194975,-0.9880445,1.1936936,1.8922772,-0.21166225,-0.2662202,0.30998006,0.953432,-0.106803566
MMRF_1461,-0.00010283291,-0.50930935,1.0903422,0.6020166,0.0544106,0.4416305,1.0299711,-0.741788,-0.22315414,1.2208602,0.96290594,-0.17583624,-0.98944604,0.30947566,0.2106388,0.6916859,-0.8272174,-0.3270202,0.21138372,-0.7477374,-0.64294523,0.082779124,-1.3927274,1.5567203,-1.1772403,0.41040328,-0.37336996,-0.86436033,0.2359784,-0.45618835,-0.57414967,-0.52554536,1.585299,-0.23356831,1.3116899,0.49609336,0.33034456,0.74352723,2.6037543,0.5098593,-1.4559944,0.41537735,-0.17648742,1.7597996,0.3574819,0.18370299,0.6842003,-0.60580915,-1.5718713,-1.9473337,-0.5496476,-1.646179,1.4033346,-0.13070875,-1.1820294,-1.4706057,1.8071045,-0.56476814,-0.3506959,-1.4890213,-0.28379098,1.5606278,-0.6954464,-1.1874464,-0.031657737,1.986267,0.46034822,0.6239586,1.1339337,0.41240448,0.7168448,0.54871386,-1.253831,0.17603359,-1.9241886,-0.4391844,1.0488813,-1.5798246,0.04510354,-0.03965066,-2.455124,1.2081783,-0.5659746,1.1248076,0.079545595,0.07100679,2.111642,-0.13944875,0.97716224,-0.17596272,2.1820924,-1.5556132,0.11554859,0.61367935,-1.2771409,1.5957911,0.8655154,-0.98437285,-0.8086713,-0.10412386,1.2126925,-1.3427868,-0.111955844,-1.3585894,-1.623306,0.686128,0.6963741,-0.95865685,0.3276525,0.27808255,-0.952725,1.8085488,0.25661412,0.5633422,0.21800518,-0.32698905,0.5903397,-1.0877092,-0.25908628,-1.6206747,1.2724206,-0.35486415,-1.0237005,-0.76070184,-0.6268111,0.54764557,0.48061192,-0.05605824
MMRF_1324,0.26629984,0.30300063,0.5042929,-0.19381145,0.80805486,-2.0957284,-0.613806,-0.13364679,0.5780509,0.69348794,0.89603114,0.24209692,-0.23322974,2.3820677,0.8571894,0.3873825,0.16809022,1.5200019,0.207949,1.4770576,-1.4877231,1.2089565,0.57451826,1.0019807,0.9926381,0.7687365,-1.4356815,1.1061584,0.8821211,0.5624971,-1.4136275,-1.9018763,1.5492405,-0.72966635,0.76292765,-0.15589148,2.0230021,-0.6439222,1.3598269,0.33355576,-1.7078617,-0.33641338,-0.054938734,-1.0969921,1.0698129,-0.03608403,0.49176034,-1.952119,-0.17582834,-0.5736442,-0.9386814,2.1040342,-0.81857324,0.26129067,-0.27402848,1.2952441,-1.3671056,-0.82782596,-0.20017149,-1.4127566,-1.7442336,-1.392187,0.3055619,0.45827815,0.8232799,0.7994378,0.385925,0.67362463,0.21010995,-0.93035305,-0.38828722,0.50240105,1.2189233,-1.8021075,0.25475848,0.3416663,0.23693635,0.11016036,0.32478482,0.2723928,-2.166535,-0.03600795,-0.0034379186,-0.9539326,1.8026094,-0.29545033,1.5839614,-0.051310193,0.52294976,1.1372467,0.14806902,0.042666644,0.17592719,-0.23813784,-0.411066,0.21099785,0.10749237,-0.1751269,-0.30275795,-1.4250405,0.15182403,-0.20808695,-1.4445695,-1.5903616,-0.9079546,1.3207558,1.0823708,0.46555018,1.0673358,-0.7004067,0.65260744,0.71485996,0.24136487,0.041551262,1.1422063,-0.3103103,-2.2336664,0.3596195,-0.14088732,1.4106277,-0.09776361,-1.502998,-0.8290679,-0.2790984,-0.63530755,-1.8296436,-1.6387035,-1.4065846
MMRF_1392,0.12476714,-0.7791001,-0.3536831,-0.49763227,0.48467898,1.4815717,-0.63528293,0.26505384,-0.45671415,-0.37397572,-0.39622787,-0.2374384,1.312515,-1.2092005,-1.3139958,0.15149924,-1.1440499,0.6519306,-1.954323,-0.5930681,-0.2575502,-1.3245466,1.1137296,-0.3954857,-0.12088047,-1.9971676,0.21157321,0.7724094,0.6713351,0.010485895,0.91158193,2.0106442,-2.361983,1.0853376,1.5687943,-1.3480972,-0.9097974,-0.70433515,-1.3676757,0.3790951,2.769813,-0.16562551,-0.26759982,-1.9415716,-1.7061466,-0.18904717,-0.6378389,0.48148397,1.1293875,-0.29006103,0.84736454,-0.8783259,0.5102749,0.025439788,0.6333347,0.4438214,-0.039033473,1.3664358,0.95434684,0.26565838,1.8233978,0.8130972,-0.34570938,0.26232544,-1.1965011,-1.6474715,-0.19149566,-0.74775964,-1.1770867,-0.3143476,0.75480944,0.26138926,0.15863882,-0.2098738,-0.6199497,0.8209184,-1.0969378,0.31148174,0.72312635,-0.8402185,1.6791568,-0.3515442,1.3629607,-0.05556377,0.40701848,0.40365925,-0.7816656,-1.2220736,-0.4130711,0.67913634,-0.88978183,0.68982816,0.7948101,-0.010495084,0.45275018,-0.6848138,-2.3776753,1.3236264,-0.10411216,0.7603816,-0.580446,0.63375807,-0.25021982,2.4053516,1.1670123,0.9814198,-0.6513974,0.6413762,-1.4060136,0.58659464,0.6138364,-1.6434815,-0.835046,-0.9233247,-0.4665611,-1.1811068,-0.27440548,0.7658055,-0.48165205,0.5171433,-1.2286688,1.3638898,1.4279184,0.87533283,1.9345884,0.46680743,-0.05692657,0.7100547
MMRF_1413,0.7896474,1.9079762,-1.2530646,-0.60948104,-1.8167435,-0.34212518,-0.9274632,0.0065195654,-1.7625976,-0.92691636,-1.0081742,-0.45454136,-0.94852006,0.60981184,2.2223327,0.11561815,-0.17985535,-0.83692104,-0.72720444,-0.9059719,0.978039,-1.1491053,-0.79169554,-0.040853865,1.0071975,0.9803063,0.79262364,-0.21817032,-0.7148962,0.9815935,0.9800846,1.0709454,-0.49322924,0.29149708,0.07054179,-3.0115519,0.28508076,-0.92360365,1.7924348,1.617895,-0.25279456,1.0708046,0.85919666,-0.6543425,0.48933694,-0.38066453,0.73833543,-0.46914503,-0.7252631,2.1764529,0.69231284,-0.26330957,-1.3190435,-0.070417225,0.67866427,1.1174132,1.2018232,-0.18427257,-0.79983467,-1.6730769,0.85276914,0.30649063,0.5478007,0.5043109,-1.9186496,0.65716237,0.43162584,-0.7607694,0.75745004,1.8918765,-0.16872536,1.1839257,0.68986803,0.67800385,1.3658102,-0.21278526,0.47764018,1.6168728,-1.3207546,0.24948132,-0.35984173,0.084164254,2.324663,-0.9329641,-0.5690577,-0.8854327,-0.3924735,-1.3148118,1.6803272,0.51046956,0.60168123,0.59244823,0.42859522,-0.027739245,0.29262775,0.068231426,-1.0420027,0.50716573,-0.12589636,1.2908717,0.6341785,-0.85506886,0.051772617,-1.2634282,-0.37417927,-0.5828551,-1.4512444,0.57543087,-1.9075434,1.5905802,0.6808442,-1.7177079,0.38861382,0.16560467,0.22237451,-0.90404326,-1.7037433,-0.23427318,0.14456834,-2.1707318,-0.1956303,-0.29593092,-0.27872917,-0.03736075,-0.023794033,-0.3512574,0.71419346,-0.0655094
MMRF_1393,-1.0501949,-1.3814005,1.1396983,1.1936928,-0.7227729,-0.48449597,-0.39422962,0.51732725,1.7220477,0.19146252,0.36046115,-0.91076833,2.6513176,0.48562336,-1.7327937,-0.09259571,-1.6583358,-0.2669699,0.67540944,0.17574088,-1.010919,0.25009367,0.08676925,-1.8096324,-1.2681701,-0.9365383,1.3338467,1.1849278,1.7791896,-0.28217036,-1.4625745,-0.4465383,1.1120495,-0.7756283,0.03098812,2.6640272,-0.08185903,-0.1807857,-0.913238,-2.072858,0.6545475,-0.2437802,1.0605216,-0.22973204,0.63211656,1.7740955,-0.31836945,-1.6841092,1.0291141,-0.14837682,-0.15231696,-0.040375978,0.37700674,0.6697106,0.8897376,-0.13740547,-2.2001512,0.37578866,0.09420128,1.0102218,0.44966412,0.3222699,0.80329096,-0.65760595,-1.3910385,0.3255325,-0.82271147,1.4576463,-0.013699932,-1.7201955,-0.084482476,-0.5478763,0.5844603,-1.1114633,-0.76161087,0.7934058,-0.32459337,-0.59906733,-0.121458605,0.46538812,0.36323658,0.52785975,-0.03350427,1.3240218,1.7732908,-0.7688846,0.6030784,0.5947679,0.80648917,0.2859428,0.6269093,0.6721694,-1.493185,1.1671847,-1.3321724,-0.67641526,-0.3046195,-0.5982363,0.08816205,-0.9121702,-0.3974263,2.3681903,-1.0024376,-0.4193569,0.54082894,0.47663435,-1.1860222,-0.62067014,-0.21927531,-1.7557213,-0.7417186,-0.26149732,0.346803,-0.60239714,1.2580369,2.8484485,0.6196689,-1.2041692,-0.20080288,0.5110608,-0.23148796,-0.9313649,0.95862246,0.24263255,-0.34318358,0.13016012,0.49534866,-1.4078078
MMRF_1148,0.7964016,1.1878331,-0.28938767,-0.7106622,-0.5295067,0.051632695,0.80608743,0.39157903,0.50790185,0.62947434,1.1769701,0.88032037,-0.13401532,1.3665782,0.67250735,1.2197895,-2.6135676,0.3336297,-0.116856895,1.4793016,-0.7735588,-0.9853382,1.002625,-0.06729923,0.8196945,-0.8093446,1.3302503,0.25160217,-0.82533604,0.34797364,0.9417696,1.5771785,-0.68987125,0.0668668,1.1464134,0.30164889,0.8060788,-3.3407993,0.95335054,-1.5138963,-0.55935603,0.895605,-1.1390687,-2.1274445,-0.366123,0.08928217,0.1473312,-1.3566437,-0.14772967,0.12674092,-0.08490682,-0.4071417,0.8853744,1.0041745,0.6381266,-0.52778804,-0.44838986,-0.04354738,0.40858138,-0.77268684,1.6891117,-0.7347869,-1.3740153,0.08914465,-1.0811689,-0.12379217,-0.2553517,0.3061614,-0.42558572,-0.061082255,0.53498363,0.10020033,0.16110171,-0.9028787,0.48726726,2.5195928,-0.6769938,1.416784,1.7129806,-0.49808332,0.8154544,-1.8693621,1.798849,-2.4579134,1.0563892,-0.31272745,-0.42266122,0.29845166,0.78606194,-0.35610688,-0.70647407,1.3716267,-0.3724451,-0.70095766,0.58316135,-0.6690855,-1.9496721,1.6339339,1.6957169,-0.28877974,-0.55022,0.04606341,-0.96081007,-1.1153718,0.40503234,0.8840017,-1.2331212,1.2651167,0.04885766,-0.8707814,1.135946,-0.24508238,-0.64177525,0.198737,-0.28794184,-1.6908258,-0.8416288,-0.8118286,-0.4366486,-0.13254355,-0.4026434,1.3940327,0.950845,-0.3464331,-0.7059914,-0.36065605,-1.6665409,0.34558752
