patient_id,0,1,2,3,4,5,6,7,8,9,10,11,12,13,14,15,16,17,18,19,20,21,22,23,24,25,26,27,28,29,30,31,32,33,34,35,36,37,38,39,40,41,42,43,44,45,46,47,48,49,50,51,52,53,54,55,56,57,58,59,60,61,62,63,64,65,66,67,68,69,70,71,72,73,74,75,76,77,78,79,80,81,82,83,84,85,86,87,88,89,90,91,92,93,94,95,96,97,98,99,100,101,102,103,104,105,106,107,108,109,110,111,112,113,114,115,116,117,118,119,120,121,122,123,124,125,126,127
MMRF_1231,-0.21608596,-1.6901115,1.5086339,-0.65022373,-0.69271076,-0.30003986,0.41983485,0.64942867,-0.8154958,0.7769357,0.7265389,0.3455454,-0.11609715,1.67188,-0.14422415,0.48556525,-0.13356277,-0.29428926,1.2916148,0.33378452,-0.538345,0.5043057,-0.72026575,1.8453127,-1.1078192,0.947201,-1.1657405,0.3739416,0.49944353,1.2245529,-0.588968,-1.0126398,0.46121565,0.039830543,-1.8000282,1.3175864,-1.3797281,1.4036392,0.53786725,-0.197614,-1.7350404,0.20156778,0.17908125,1.5949285,0.5002201,1.5140005,-1.9314594,0.38729876,0.059683442,-1.6774919,-0.9985839,-0.9277497,0.36192426,0.4524542,-0.13051806,0.83948016,-0.16580361,-0.48030782,-0.721013,0.1829346,-0.8007089,0.814497,1.4294603,-0.20405762,1.4095225,0.24677911,-0.9416186,-0.6220231,-1.1646276,-0.6161332,-0.39023212,0.19355728,2.1429148,-1.2178915,-1.1398414,-1.598181,-0.81893533,0.1876679,-0.7791314,1.8939763,-0.13926274,1.2046293,-0.9077755,1.3030016,-1.6108856,-0.9915745,1.6989062,0.6031813,0.71284056,-0.27073896,-2.0220308,-1.0641071,-0.7783757,-0.2234235,-0.40387377,0.7219903,1.0640578,-0.39151275,0.5847474,0.14976765,0.52741927,1.7197875,1.3661194,-0.31693602,-1.1543067,-0.3947118,2.294241,-1.6894803,0.92369354,-0.61784554,-0.7225049,-0.05952203,-1.2394578,-0.02018308,-0.19234705,1.9408013,-0.37859198,-1.647655,1.3481379,-0.012291771,-0.013135154,-0.51219153,-1.2516463,-0.047570296,-0.5125572,-0.16439065,2.05694,0.2915008
MMRF_1032,1.2011682,-1.1152096,1.3723036,0.3817705,-0.17223825,0.5542614,0.09463194,0.5001628,0.27880362,0.068561085,0.9222306,0.6245109,1.6434156,0.6828551,0.08030029,0.307602,0.2670903,-0.2130489,-1.053526,1.9569799,-1.3503963,0.58460575,-0.74059594,-0.53672725,0.61275864,-1.8736801,-1.3840243,1.1213396,0.027886543,-1.0559654,-0.015324814,0.70105785,0.117136165,1.179076,-0.57440025,-0.15318483,0.54574096,-0.7612451,-0.47817618,0.29877022,1.3312701,0.75808966,0.68905246,-0.10953002,-0.7716545,0.7248653,-0.49171627,-1.8003639,0.63339204,-0.041706417,-0.70330685,0.8130256,-1.8410665,0.22895515,0.27713335,0.8980331,-1.2554631,0.7654104,-1.1994586,-0.8134717,1.7003403,-1.3932621,0.69756293,1.4352957,-1.8472921,-0.24545851,-1.3656557,-0.63420385,1.1762284,-1.4824,-0.37958345,0.50413424,2.5339577,-0.05776626,-0.51531804,-0.8013579,-1.3138641,-0.10009318,0.9671415,1.2910519,2.3876395,-0.70292336,-0.5281546,0.6586007,0.78008527,-0.53987193,-1.0123519,-1.1579665,0.70526135,1.9532537,-0.59436965,1.3838781,-0.64741826,0.050276406,-0.04788379,-2.2173789,-2.027105,1.4318786,1.6376154,0.18748686,-0.00199186,-0.4656669,-1.3174293,0.05972357,0.1844782,1.1890286,0.043194875,0.6270597,-0.6022424,-2.1474433,-0.5321248,-0.45273757,-0.97817004,-0.041899554,1.2307438,0.61776483,-1.7194803,0.22516133,-0.6708854,0.529886,-0.8947414,1.0713476,1.0569334,-1.1235673,-0.14864148,-0.3757067,-0.69759446,0.82836264
MMRF_1327,0.71286815,0.4154871,1.2443583,0.25264436,0.10577681,-0.7055305,-0.45662835,-0.3437754,-0.2669735,1.1216211,1.188973,0.087914295,-0.08260419,2.2228546,1.6849928,1.4721663,-0.04382473,1.0970159,-0.20417318,0.9283811,-1.2788178,1.3721923,0.10109113,1.2252439,1.2320983,-0.0446882,-1.3322072,1.3504274,-0.4062578,0.8523855,-1.1993982,-1.264007,1.5727456,-0.18142627,1.0763528,0.20577413,2.3875742,-1.57636,1.9669132,0.84698015,-1.7879062,0.79388845,0.10404195,-0.9275769,1.7496223,0.6593219,-0.18667985,-2.2604702,-1.1056633,-0.41756848,-0.5362437,0.67264915,-0.6519466,0.4414792,-0.09800298,0.70971024,-0.6962645,-0.8208383,-0.11579898,-2.382681,0.20141046,-0.8456084,-0.21032788,0.9367707,-0.21150291,1.512092,0.35203674,0.11014225,1.1341039,-0.72754955,-0.7273982,0.0937752,1.1398382,-0.7506912,0.27950516,0.0859494,-0.6005002,0.6580092,-0.90989447,0.047034446,-2.1933038,0.20940965,0.27650923,-0.757219,1.3911978,0.28716114,0.68335503,-0.012941689,1.3276482,1.1097049,-0.17463379,0.8825349,-0.5750578,-0.13405679,-0.5043391,-0.62070364,-0.8160392,0.49170026,0.7642562,-0.6390253,-0.02865017,-0.98303825,-1.3747281,-3.0866935,-0.672469,1.1220651,-0.23218292,0.666688,0.6269949,-1.00717,0.91248536,0.27002788,0.24518734,0.41128233,0.58993053,-0.50702626,-2.5130825,-0.6692834,-0.9915807,0.24810742,-0.5087099,-0.2781667,-0.9186007,-1.7643248,-0.8832585,-1.1715716,-0.18558167,-0.3316918
MMRF_1210,0.17132059,-0.5098816,0.69182974,1.9154063,0.68770313,0.044783935,1.0638764,1.4221047,-1.3631203,-0.3712594,1.164022,0.5137152,1.4094064,0.4694008,-2.0248494,-0.09972001,-0.165408,-0.9209575,-0.50368947,0.94738495,-0.48695186,-0.76333535,-0.26176062,-1.7918487,0.2132951,-1.546062,0.13266024,1.3054705,0.39984348,-0.18660428,-0.7039607,1.4154583,0.15707515,0.19257422,1.6891084,1.9639347,1.7991418,-0.20813836,-0.73165274,-1.3836501,0.9434445,-1.7142864,0.6170497,-0.6154047,-0.6160274,0.7860199,-0.62381047,-0.3554788,0.7859697,0.21928662,0.061284803,0.60275745,0.042724457,-0.27514014,-0.40272716,-1.2963885,-0.47796282,-0.21891412,-0.235006,1.1557968,1.1011372,-0.23382261,-1.4573513,-0.91049385,-1.556799,0.11219073,-1.0819654,0.07220177,1.1508473,-1.1157718,-1.0327029,-0.14104526,-0.10144885,-0.5350301,0.14073206,1.0995275,-0.37597027,-0.911982,2.2274797,-0.33954635,-0.10716279,1.14649,0.94032127,1.5768896,0.95600194,0.4727401,1.0869035,-0.7128783,0.66303056,0.7516563,-0.28770503,1.3400393,-2.4136078,0.17663234,-1.9455537,-1.3596596,-0.60276926,1.0126462,-0.33611605,-1.7037647,-0.7989601,0.29947385,-2.236587,0.08574152,1.3607832,1.4900465,-0.9749783,0.84263015,0.81466585,-1.6694393,-1.0411592,0.349369,-1.2495217,-1.0500252,1.3189999,0.5784183,1.3029583,-0.5153857,-0.07250099,0.46219304,0.19327183,-1.1141666,1.4875615,0.07788527,-0.6192246,0.3598689,0.59419984,-1.1026753
MMRF_1269,-0.84832513,-1.5906243,1.989823,-0.12798098,-0.20697296,0.25652006,1.0469272,0.026223183,0.49807265,-0.79937464,1.9116206,1.3357539,-0.116444185,0.6544066,-0.67204446,0.867645,0.08805278,-1.0266763,0.098548315,1.2984682,-0.74553865,0.8680655,0.019101169,1.5403888,-1.8804034,0.9422864,-0.7503227,-0.5151468,0.048713323,0.21002029,1.406465,-1.6478287,0.5173023,-0.33289224,-1.8989578,1.1390897,-2.237786,0.90437526,-0.09207841,-0.49447617,-1.3878531,0.15680307,0.12516955,1.9837863,1.3226329,0.46499595,-0.4907077,1.3898661,-1.2695371,-2.3441505,-1.0814532,-0.52104163,1.3057863,-0.10128328,-1.0315295,0.2620253,0.116356194,-0.8790426,-0.5063639,-0.5991811,0.10113019,0.09808348,0.8096076,-0.012096167,0.69066477,0.58628047,-0.8051186,-0.66735595,-0.769401,-1.3397604,-0.181721,-0.14149852,1.3760216,-1.4731501,0.06302613,-0.5654369,-0.59709096,0.2675557,-0.24305102,1.2217699,0.40733242,0.76538634,-1.6423246,1.5936947,-0.93826103,-0.0849012,0.506777,-0.46911722,0.06838077,0.28479344,-0.8229159,-1.4370127,-0.6477147,-0.2891339,0.61186254,0.21570209,0.54821754,-0.6305242,-0.025857188,-1.1347619,0.8630415,1.0089506,2.0292735,0.43649432,-1.8859872,0.33662042,1.5735292,-1.4291244,1.8294663,-1.6917119,-0.34224075,0.81035346,-1.5624788,0.29214746,-0.429158,1.7313504,0.048650563,-1.5211308,0.3150441,0.8769352,0.6960133,1.1599089,-1.4555318,-0.25144786,-0.1683822,0.94646955,1.4514278,0.538183
MMRF_1251,-0.30291542,0.98420674,0.15694687,-1.9669751,-0.115750484,1.0317394,-1.0543994,-1.8882548,-1.6869286,-1.7016518,0.5480571,0.43450242,-0.70162225,1.5727043,-0.37726733,-0.6306153,-0.0141972415,-0.5534805,-1.7469103,1.0570968,-0.38126644,-0.14485607,-0.6523765,0.4211281,-0.15987237,1.966466,-1.8493958,-0.4433522,-1.8742676,-1.2028185,0.5409648,-1.2232143,-0.78378654,0.1427689,-0.4263502,-1.9067612,-1.0932168,0.7945274,0.75299484,1.1257689,-0.86794174,0.251425,1.0207101,0.8608715,1.2341261,0.67981327,-1.0260816,1.6358899,-1.8889426,-0.20721531,-0.75045615,0.21039203,-0.16433305,2.1123383,-0.40551147,-0.26566,1.7195832,-0.096618846,0.69810045,-1.8617835,0.8894012,1.767196,0.40009984,0.84597415,0.54147756,-0.050079554,1.4610587,0.31704667,-0.52771264,0.60477567,-0.12545219,0.6945609,0.4337894,-0.4906495,0.95111,-0.2996156,1.1810418,-0.48911607,-1.6919578,-0.07887855,-1.7193936,-0.25270966,0.9201005,0.52209884,0.686495,-0.057076756,0.4063401,-0.18294345,-0.5123166,0.9423471,0.8018013,-0.44887474,-0.7092707,2.4411223,0.778256,1.0722554,0.08849322,-0.0004596673,-1.0432104,0.8645233,0.21367913,0.124764346,0.9525126,-0.24869877,-0.63636464,-0.4531522,0.6609978,-1.8281639,-1.0178484,1.732122,0.06868669,-0.32714865,-0.7261755,1.8445956,-1.4295543,-0.40220597,0.14593993,-1.079316,-0.42067632,-1.6752208,1.3583094,0.17127934,0.47580397,0.790787,0.33400896,-0.3189119,0.96573514,0.23988433
MMRF_1328,-0.30264708,-0.5862125,-1.1331927,1.2100534,-1.908957,1.8240774,1.1516453,0.600602,0.019500133,0.35249153,-0.18449222,-0.017917208,0.87356585,-1.8756707,-1.7498088,1.9628617,-1.8113558,-0.97660804,0.5294682,-1.3260053,-1.6308881,-0.31799436,-1.0879554,1.2205604,-1.7784379,0.4716048,1.7708534,-0.5484094,0.6990136,-1.1661873,0.6199742,-0.7329867,-0.32016897,-1.9234481,0.61279804,1.9678181,0.7954083,1.3914804,1.7539225,0.53666866,-0.10840779,0.2676512,-1.2028862,0.74489623,-0.89534646,-0.07535014,0.3412818,0.09090766,0.0063527413,-0.016678415,1.0461236,-2.135076,0.2800997,-0.23488231,-0.6898595,-0.8892124,1.8067203,-1.4521393,0.032751493,0.43078998,-0.7069917,0.9171821,-1.6783103,-0.87301785,1.1360466,0.63193846,-1.752629,0.033096116,-0.54758024,0.6326246,0.633308,-0.32346827,-0.9487752,0.493274,-0.10153979,-0.028448872,1.0724342,0.909219,0.86956143,-0.6795068,0.49439994,-0.4849729,0.9778906,0.94631445,-0.5161193,0.87563044,0.41428787,-0.49017346,0.7894239,-1.1662886,1.571624,-0.1812194,0.4943993,0.72552735,-0.60168064,1.1948199,1.0658842,-2.0898664,-1.5027217,0.6427798,0.83205247,0.43437132,1.3977143,0.42197707,-0.4161653,0.113271154,-2.0428357,0.8631488,0.6223151,-0.6275459,-0.58103335,0.8541354,-1.2322701,-0.2567216,1.0615059,-0.629764,0.18110982,-0.6759171,0.077001974,-0.8048346,0.8269882,0.5775258,0.65439737,0.32364708,-1.622743,-0.41141722,-0.46434048,1.3216169
MMRF_1171,-1.169078,0.88831663,-0.4876474,0.20401499,-0.25834626,0.74172914,-1.6060444,-0.1800361,0.012420338,-0.6618762,-2.0441601,-1.018397,-0.3055945,0.34576243,-0.10013175,-2.15754,0.08352226,-0.8330929,-0.033254266,-0.006882215,0.8186314,-1.395575,-2.030214,-0.45960215,0.010434385,-0.044498283,1.0687883,0.2112114,-0.07830171,-0.021806149,-1.2290376,0.7709766,0.14681242,0.52800095,0.44574946,-3.0047905,-0.01322537,-0.38499692,-0.009972582,-0.45994204,1.0429572,-0.33087617,1.2960203,0.28527263,0.23494239,0.65303016,0.6318846,0.8603451,1.6342957,1.2135824,0.24677539,2.3084626,-0.54557467,0.48271757,1.2833204,0.37616023,-0.045975525,2.0981455,-0.4487627,0.88473177,-0.4468691,1.2954729,0.10094696,-1.4383118,-2.0906062,0.93568814,-0.07718107,-0.2725633,0.029359333,1.3622617,0.849034,2.0969543,-0.97977835,-0.6985859,0.5355965,0.059790842,0.6490392,0.6012754,-0.57739383,-0.3195765,-2.1685479,0.4988055,1.7539245,0.8414864,0.20436881,0.5486581,-1.5655931,0.78446597,0.53996265,0.8964813,0.32792944,-1.1247661,0.6922516,0.32370046,-0.11071269,-0.04645715,-0.18403096,-1.3869123,-0.6479942,-0.23874523,-1.9075693,0.6071214,-1.0446907,0.020793935,1.246072,0.67763096,-0.49631995,-1.6902269,-1.6090783,1.1299202,0.40353087,-1.555832,0.10812114,-0.18806726,-0.86645633,0.48745027,-0.6411647,-0.52454215,0.56513315,-0.048160415,0.15535206,-0.37945107,1.9408307,1.8148491,1.2663791,-0.351533,0.68148345,-1.8123461
MMRF_1354,0.37558994,1.158466,-1.4364183,-1.0960312,0.8004122,-1.6488261,0.43877393,-0.31521806,-0.4477323,-0.20921409,-1.0196435,1.7837826,-2.8130403,-0.9541561,1.9323205,-1.6641182,1.1450557,0.6915529,0.27452934,-0.8464052,1.0108856,-1.1571815,1.33375,-0.79206336,-0.47446814,0.2869317,-0.15706551,0.60045,0.5487777,-0.060894445,-0.5607512,2.064368,-0.2784981,0.4120006,1.4557139,0.39166078,-0.0460667,-0.6827952,0.5250467,-0.6401603,-0.24964838,-1.9533424,-0.9455771,-0.3309423,-0.41727948,-0.74324334,0.27459165,1.8643465,0.8255554,0.20321989,0.8261568,0.3035431,0.1490494,0.49249858,-0.6128284,-0.2736961,0.45067993,0.7011298,0.5039284,1.4048554,0.003548693,-0.40111646,-1.7873844,-0.669952,0.7714635,-1.2839881,1.7198054,-0.44202557,-0.44675678,-0.122439794,-0.623231,-0.14084812,-1.8502591,0.7387393,1.5056247,0.9477291,0.14651777,-0.990606,1.6213912,-0.60939527,-0.13629688,-0.23766579,-0.6181892,-0.7454553,-0.22065218,-0.100467026,0.61279833,-0.46474725,-0.59039956,-1.1921679,-1.2443588,0.21030575,0.9479476,-0.9495716,0.1461243,0.884654,-0.34605697,1.5814799,0.101262,-1.0006706,-1.7572458,-0.54307234,-0.29769304,1.9084318,0.13114996,-0.42411256,0.18840516,0.5900987,0.1260275,1.3177501,0.18075386,0.5584559,2.1855333,1.1211007,-0.39614132,-1.8723131,1.5843168,-0.39054045,1.5068928,0.5669497,-1.5102628,-1.2416633,0.35042992,0.28944492,1.7113812,-1.10819,-1.7711129,-0.054112524
MMRF_1344,0.74368423,0.88373387,0.43242764,-0.29392856,1.366436,-1.4317217,1.3543962,1.5593628,0.31014332,-0.28576255,1.0398178,1.5373411,-0.56083024,0.3440255,0.4249515,-0.8779011,-0.20254004,-0.45506468,0.7510571,1.2302439,0.30360585,-1.1324877,-0.30835235,-1.8154044,0.16139135,0.42073512,-0.22702134,0.42356068,0.57692707,-0.9794058,-0.5823063,1.3771973,0.06584343,0.47709945,2.149812,2.1613374,1.1947974,-0.79339725,0.89939463,-2.0300198,-0.75821096,-1.4925163,-0.17039996,-1.883772,-0.26503623,0.1921985,-0.4688776,0.9567247,1.1767243,0.50095844,0.08270112,0.44969374,0.29164672,0.6469934,-1.1964482,-0.64500654,-2.0103672,0.020554071,0.30812332,1.638783,0.9855167,0.92865515,-1.2344674,-0.8702541,0.15192561,-0.39807191,0.8591203,-0.47212544,-0.08404511,-1.5333918,-1.1308159,-0.7893196,-0.678905,-0.1899074,0.3583911,0.5587989,-1.404242,-0.9979764,2.787038,-1.0006762,0.25201052,0.75135845,-0.47753704,0.05475714,0.85111874,-0.84122163,1.5084319,-0.2622672,0.5037068,-1.5619414,-1.2120142,0.5683322,-1.8160789,-0.025533404,-1.675394,-0.08039609,0.27416146,1.1111547,0.39248955,-2.2059803,-0.6927082,0.8984033,-1.2195222,1.1392355,0.9622936,0.26969495,-0.052040294,0.45883113,1.6565828,-0.09368311,0.2658814,1.187649,0.31737766,-0.9771962,-0.052166376,-0.6158245,2.3884306,-0.765389,-0.18423605,0.4256509,-0.18844503,-1.6892322,0.42495576,-0.55951464,-0.4398382,-0.2897744,-1.1099384,-0.90875995
MMRF_1403,-0.070072666,1.6936157,-1.1672387,-1.3657223,0.19495283,-0.18078549,0.6417622,-0.8765587,-0.3441328,0.8248903,-1.8616551,-1.4499118,-0.0462968,0.5229342,1.9957498,1.8441256,-0.8245235,-0.23482747,0.81784564,-1.1237546,-0.18278913,-1.2537532,0.71813095,0.34272423,1.8098232,-0.16524601,2.8512053,0.86076057,-0.6197382,0.83427745,0.9800156,0.22101584,-0.98233855,0.5475977,-0.75489455,-1.0517203,1.393551,-2.5636857,-1.0993519,0.36977446,-1.086018,-0.20935741,-0.50914913,-0.3026283,1.4166679,-0.69770825,-0.40626982,0.22349468,-0.98948026,0.86035085,1.1330487,-0.36184096,1.6798495,1.3598058,-0.37199518,0.10235525,-0.0801372,-0.53195673,-0.57137024,0.63591284,-0.14416963,-0.6199202,-0.30139667,-0.59936494,0.006951183,0.66023135,1.1951312,0.34524855,-0.8662716,0.82072544,1.4041923,-0.21583828,-0.45592707,-0.5228827,2.2052014,1.386427,0.24704485,1.6224781,-0.18585865,0.06770702,0.46452168,-1.1200943,1.3291907,-1.8450199,-1.583343,-0.9030276,-0.599158,1.2470378,-0.9045539,-1.4015857,0.04649613,0.24789125,-0.4984182,0.66868,0.5755942,-0.5957706,-1.9737496,-1.2279447,0.032466218,1.2153845,0.71926385,-1.3340156,-0.9957314,0.6893099,-0.20602259,-0.08060466,-0.9979802,0.22109418,-0.7399799,1.6502708,1.2898563,-0.3139938,-0.30354866,1.117887,-0.7895447,-0.9766844,-0.19750096,-0.6271328,0.1701092,-2.1896267,-0.03828305,0.17898192,0.5470519,0.7252587,1.0314239,-1.1133019,0.2018715,0.5775982
MMRF_1408,0.8051736,0.4187005,-0.20793596,0.5991115,-0.32276624,0.18808788,-0.7079515,-1.3106672,-1.321173,-1.559612,-0.16240005,-0.30030584,-0.12284141,-0.69134355,-0.29827178,-1.0860271,-1.0967888,-0.20539095,-1.675937,-2.3739758,2.0350447,0.45265517,0.27229005,0.63420063,-0.9292146,1.3617394,0.031968705,-0.8245588,-1.5836017,1.6380626,0.5386456,-0.4023535,-0.52765423,0.08603509,-0.10878224,-2.748524,-0.8077465,0.87112546,-0.10528823,1.8355477,0.19605571,1.1851913,1.4805768,0.5371268,-1.055298,-0.747728,0.6691924,-0.2548653,-0.52471155,1.255892,0.6678956,-0.95036954,-0.6947183,-1.1473606,0.41748747,-1.380819,1.9334003,0.420808,-0.18431722,-0.67352176,0.48807704,0.95294434,1.5226057,-0.028222056,-0.25218272,0.30859464,0.5686822,-1.1348014,-0.17292307,1.0116135,-0.04894206,-0.5409085,-1.3628626,1.2735462,0.9860945,-1.279918,1.8845235,-0.767823,-1.3868188,0.08854267,0.8299263,-0.5909367,0.28905717,-0.42298377,-0.43615803,-0.3567049,-0.37718362,-0.85784864,0.39042073,0.1900039,0.9595128,-0.51461357,0.040047854,0.4740402,1.3805846,-0.29530483,0.94757015,0.12379471,-0.970819,2.0848708,0.60154617,-1.4089613,1.2245986,-0.26681232,0.45503172,-1.9143845,-1.8374089,0.24502203,0.04107717,2.3307533,0.062401764,-0.1372211,-0.40645984,-0.62333846,0.19539686,-0.9680236,0.95084304,0.48708063,-0.63589185,-1.8348054,1.975196,0.1495894,-0.15195501,0.60959274,0.80316895,1.0787524,1.9256874,0.63430053
MMRF_1338,-0.32456198,0.91934144,1.0100477,-2.1081743,-1.0336013,-1.3665719,0.1960567,1.0034028,0.6812787,-0.08096585,0.014674263,0.43281674,-0.18720542,2.1710098,0.90933186,1.0578195,-1.2102239,0.4580038,1.2862855,1.7947034,-1.8160008,-0.13355292,0.8201411,0.6927705,0.4810632,1.2738944,-0.4330812,0.9129602,0.3707425,-0.4484544,-0.22944015,-1.2908581,1.1813523,-0.31876287,-2.00279,1.0007808,-0.41468582,-0.51411074,1.2385997,-0.86505586,-2.5651,0.829746,-0.0013094544,-0.025133606,1.525731,2.4727447,-1.1313413,-1.0028248,-1.190826,-1.2656411,-0.6248304,-0.0787655,0.030972552,1.7634518,-1.0643502,0.9878304,-1.1640664,0.9227098,-0.66760176,-0.6616171,-0.9590374,-0.877933,1.5835019,1.2797283,0.6109515,-0.11304468,-0.74000126,0.8332769,-1.3595865,-0.66515076,0.32310793,0.06963385,1.9716957,-2.633712,0.23579209,0.7217047,-1.4540796,0.9696044,0.60123146,1.4985056,-0.08921031,-0.81016827,0.112758934,-0.91425115,-0.52856594,-1.308343,0.3885925,0.851632,1.2518096,-0.57747877,-1.3767018,-0.36225596,-1.0376385,0.56938493,0.19025217,-0.17205824,0.20124666,0.4581064,1.314595,0.44552255,0.6119181,0.47233474,-0.08473732,-0.6028797,-0.9288507,-0.3222555,1.7009403,-0.87810874,0.60533893,0.3264261,0.9361714,-0.5014151,-1.2662648,0.95616233,-0.30578414,0.42742974,-1.3005482,-1.8114846,0.10392839,0.41035864,-1.0136446,-0.11993528,0.14318465,0.1047418,-0.0044925427,-0.7887569,0.48782438,-0.004818773
MMRF_1342,-0.84407634,0.36675528,-0.54671085,1.3954314,0.9151,0.5975976,-0.3521709,-0.9933211,-1.4390363,0.15335748,-1.498566,-1.4577247,0.4941336,-1.7438442,-0.7066025,-1.6934135,1.5765673,0.6844872,-1.1491644,-1.0738902,-0.22077028,0.44182256,0.24661346,-1.0113539,1.4603328,-1.5068961,0.5241357,0.09313368,0.6289023,-0.66384566,-0.65735877,0.7794736,-1.5017436,1.7641883,-0.060460337,-1.787736,-0.09708975,0.21119072,-1.6946214,-0.110265344,3.3265476,-0.16693528,1.2542486,0.95752203,0.119684204,-1.2657565,0.90697205,-0.29963562,-0.17803988,2.0703695,-0.08746907,1.5255071,-1.7415946,-0.8143852,1.8093058,0.4423256,-0.7388186,0.9172655,-0.48130745,-0.088955745,-0.3038105,-0.29332075,1.0798813,0.09068923,-1.2028396,-0.66063976,-0.4103626,-0.020352015,0.9367436,-0.0036486099,0.29627693,1.0570899,-0.03203001,0.24549298,0.12728433,-0.32062966,0.61788005,0.23008254,-0.15036717,0.7585366,0.1377126,0.075020395,-0.56023467,0.8752827,-0.71499574,-0.27884683,-1.7186882,-0.23027742,-1.8430848,3.472438,1.1573325,0.949922,0.4055182,0.31356028,0.65003884,-0.9222354,-0.32599834,-0.56705767,-0.76675916,1.1240976,0.2403361,-0.5616186,-1.1283636,0.90533215,1.0540498,-0.010534378,-0.38146228,-0.62355137,-1.8317912,0.24005896,-0.038482264,-1.5866821,0.67484576,0.09987564,-0.0159223,0.09872222,-1.0887057,1.3867307,0.28891006,-1.1093637,-0.65461415,1.1080778,0.17608087,1.0540894,1.0283574,0.86962605,0.09215243,-0.47978276
MMRF_1352,-0.38142204,-1.2049919,2.064805,0.14644392,0.0329059,-0.30544356,0.3306142,0.41446644,0.7203674,0.5056734,1.5363504,0.03513776,1.9096687,2.3233902,-0.56666595,0.7502466,-0.57535577,0.18872583,-0.26447043,2.3223999,-1.5808024,1.1014546,-0.25385958,0.74785,0.063517824,-0.23286322,-1.0669395,1.0929781,0.4286546,0.36256534,-1.0030683,-1.124312,1.528724,0.47362754,-1.1856266,2.047537,-0.40273738,-0.24170369,-0.44659984,-0.94469374,-0.743379,0.76982653,0.4143509,0.30328435,1.0777615,1.9227834,-0.51039916,-1.8948598,-0.36328548,-0.89177334,-0.5579028,0.18326192,-0.32994297,-0.08353264,-0.09197698,0.48284027,-1.3412262,0.42413393,-0.7849725,-1.4018176,0.23379473,-0.5361376,1.4183557,1.2582493,-0.9748432,0.22332406,-1.4408373,0.03302972,0.48681304,-2.2547212,-0.35996327,0.50633645,2.296051,-1.6991016,-0.22096486,-0.9834417,-0.61979645,-0.57243645,-0.24292675,2.1396058,0.47533646,-0.15251282,-0.7686707,0.25122663,1.2052419,-1.1158699,0.18703802,0.25152206,0.13465695,1.7503585,-0.9165709,0.23487198,-1.9800372,0.4314086,-0.43064564,-1.8066041,0.015503676,0.25096792,0.16669422,-1.0508211,0.58452326,0.777964,-0.6127953,-0.3127326,-0.67704135,0.56114775,0.67077804,-0.6304554,1.3440332,-2.638649,-1.0016575,0.19070971,-1.1777713,0.25576442,0.8545179,2.2228,-1.6964445,-1.1226571,-0.39072946,0.58837664,-0.04612431,0.26248115,-0.33168176,-0.34282622,-0.05360718,0.16326678,0.48366076,0.43387485
MMRF_1380,1.2217908,-0.7872296,0.091755465,1.9608816,-0.12811884,0.36758605,-1.2634827,-2.2321749,0.01067449,-1.0291421,0.20730664,-1.6041682,0.9733384,0.09868267,0.6909774,0.87744164,-0.9941946,-0.53976804,-2.7089143,-0.68767315,0.87536657,0.5132151,1.3348517,1.2812116,-0.8084153,1.8654372,0.24572271,-0.3774372,-0.9004916,0.80739015,-0.84903675,-0.3909766,0.62898695,0.108734295,-0.79226416,-0.8870082,0.5695554,0.4931206,0.03376093,1.7290286,0.48096338,0.949718,0.34052563,0.36455983,0.72308606,-1.1084003,-0.119359,-1.2605349,-0.6619917,2.2519748,0.7669299,0.34034985,-1.5900558,-2.1849473,0.61026573,-0.24264203,1.7214091,-1.2204633,0.6196576,-0.8600553,-0.84455633,0.44551647,1.0804284,1.4890335,-0.15800741,1.1339347,0.5164711,-1.0268385,0.60579616,0.81569606,-0.8611565,-0.4855139,1.7200047,-0.000305783,0.20769674,-0.7241717,1.9673874,0.14316916,-2.293356,0.4757895,-0.71912265,1.3399838,1.6841677,-0.51742435,0.74824715,1.1577268,0.36919793,-0.47579977,-0.49708906,-0.2674864,-0.61703026,0.7241223,-0.05302781,0.77264196,-0.14099292,-0.6896539,0.32786548,-1.9490776,-1.1259323,0.7214615,0.16722518,-1.3033063,-0.60257083,-1.3732018,1.169272,-0.29838994,-0.5589206,0.42032477,-0.029724376,0.3099697,-0.20531294,0.7775424,-1.3629905,-1.0062793,0.18323031,0.7624529,-1.7711371,-0.91883886,-0.20436634,0.5893997,0.9444255,-0.33603144,-1.1110327,0.5800985,0.44486758,-1.160384,1.6875951,-0.67435884
MMRF_1389,0.36404487,-0.32615423,-0.92871,0.5272107,0.39061424,-0.7736629,-1.5189793,-0.6852802,-0.68245673,0.98119485,-1.6906822,-1.1201595,-0.21164899,0.075810015,1.552616,0.40459472,1.3542995,0.14398505,-0.060147107,-2.431742,0.34698588,-0.14711484,-0.49806803,1.7404583,0.15135244,1.8549584,0.46669754,-0.42951494,-1.7288643,1.176384,-1.0940278,-0.27138275,1.4280999,0.06525779,-0.17063262,-1.5331467,1.3927561,-0.1060496,0.3667249,1.6270556,0.40915596,-0.09934827,0.2145304,1.3288668,2.14829,-1.0757362,0.28104848,-0.037806522,-1.5368924,-0.19484636,1.2387494,-0.5139207,0.14586745,-0.69766253,-0.81058276,0.6346145,1.0539105,0.02267422,-0.7760782,-1.032877,-1.4327958,0.6409958,0.46777502,-0.60147285,-0.37557772,1.5287445,0.92623323,0.055369053,0.8108612,1.4192734,-0.16793445,0.6502681,-1.4388624,0.25717053,-0.5369372,0.4508107,1.4612957,-0.19540232,-1.7962654,0.89274657,-1.732722,0.9363793,0.7505288,-0.15779905,-0.35449234,-0.011578456,0.93233705,0.2465652,0.7788247,-0.2650225,2.2977571,-0.36600116,1.1409967,0.12097875,-0.13247052,0.83098847,1.0152404,-0.8764162,-0.7338577,0.8651038,1.0851845,-1.8658131,0.3743841,-0.98098373,-0.981267,-0.4756396,-0.8107778,-0.34845906,-1.2065359,1.7911044,-0.18286937,-0.93588996,1.7120692,1.0766823,-0.8986842,-0.20212762,-1.139165,-1.2193713,-0.38855496,-2.403909,1.1402378,-1.0576541,-1.0929759,0.6558445,-0.70427537,-0.23513629,1.131964,-0.8448721
MMRF_1388,0.3321955,1.7585186,0.15438342,-0.09753676,-0.17428234,-1.221641,0.36231706,-0.9681198,0.3553521,0.16483828,1.2874746,0.4853402,-0.32840914,0.45162752,-0.3146844,-0.038107615,-0.95980686,0.82072115,-0.4178856,0.26374182,-0.20320557,0.061647538,1.0250727,1.3778194,0.043280605,0.5403949,-0.21758637,-0.4153221,0.5180081,0.40743217,-1.8972894,-1.7803512,0.7626874,-1.1796868,1.7375487,0.39411086,0.50721633,-2.467766,2.3077438,-0.21730252,-1.8124487,0.4118145,-0.86788905,-1.3189602,0.24231865,-1.0282352,-0.2238613,-0.92687875,-1.4452975,0.06973603,-1.128749,0.8459558,0.6774769,1.1048825,-0.9650636,-2.1752913,1.178364,-0.89929193,-0.055698078,-0.84728354,0.029640585,-0.8945517,0.17672463,0.08898075,1.3427619,0.79022586,0.36512738,-0.12089385,-0.9697,-0.27203292,0.9489633,0.20368041,-1.0037531,-0.74550503,0.82199043,2.4345016,0.07005787,0.8450501,0.74375546,-0.761093,-2.1383345,-0.89160097,1.3967836,-1.1281793,1.6944294,0.8701846,0.89963007,0.3642178,-0.9331287,-1.5364151,0.47014043,0.5479789,0.65231025,-0.20006463,0.4310123,0.38457608,0.62498766,-0.068710886,1.3346952,-1.1577677,0.13098145,-0.6416121,0.6281999,-3.0671675,-0.47667542,0.028869407,0.49081331,0.8740629,1.2338592,0.7432065,1.8546469,1.3845268,0.43713838,0.063909374,0.058870807,-1.9337212,0.027851671,-0.6671772,1.308506,-0.39526173,1.4256983,-0.019946564,-0.33995086,-0.288343,-0.24699193,-1.8701627,-0.40097213,-0.0901811
MMRF_1395,-0.41191706,-0.6416034,0.9508438,1.3487126,1.9115725,-0.17481917,-0.33286333,0.044708822,0.29153597,0.27992812,1.5235723,-0.05868502,1.3263549,0.77278066,-0.6347698,-1.3525715,0.19558562,1.148735,-1.6644068,1.6312674,0.9082812,-0.124155566,1.7218393,-1.6061076,0.84749544,-1.080054,-0.73930585,0.31064397,0.20049468,1.7255912,-0.8639385,2.024017,-1.5129067,1.8089521,0.33389062,0.2305874,0.50657964,0.0018644317,-1.7984602,-1.3236107,2.1025543,-0.35611877,0.7861216,-1.0841594,-1.5147923,0.08500704,-0.03023676,-1.6468445,1.5840082,1.0228711,0.5013746,0.43103147,-1.0637869,-0.32713413,0.7597579,-0.4605802,-0.67054737,-0.098824285,1.12602,-0.07999088,0.7144526,-1.1124234,-0.39066827,1.0430164,-2.2848175,-1.0438694,-0.8410807,-0.10485153,1.2432503,-0.8813311,-0.5818512,-0.5251562,1.0008247,-1.4273908,0.3800038,-0.22155581,0.23833983,-0.4896967,-0.07932982,0.9853092,0.431286,0.17702526,0.49491146,-0.022532022,1.5301689,0.29350975,0.17364827,-1.2038594,-0.68332386,1.7944204,-1.4588071,1.3554938,-0.8691894,-1.4873254,-0.17373404,-0.99532455,-0.7379551,0.86511815,-0.6351241,-1.0511576,-1.3689836,0.52261996,-2.224448,0.60151744,1.4898239,0.556233,-0.5930253,1.0030557,-0.14889418,-2.1653404,-0.88319254,-0.26215866,0.03637741,-0.7954679,0.68070346,0.7581881,-0.67025685,0.81493783,-0.7286388,1.1791167,-0.8808359,-0.12296202,-0.1928747,-0.046099216,0.53009844,0.9769494,0.3314735,-0.48764122
MMRF_1391,-0.57813466,0.79028356,-0.51446617,-1.0211109,0.2701128,-1.626492,-1.3759149,0.036810946,-1.215901,1.0084648,-1.2112211,-0.014169814,-1.2081994,1.659614,1.8441943,-1.4792119,1.593232,1.1226385,-0.8881045,-0.2759368,-0.28090614,1.4652816,0.52607703,-0.24589223,1.6275599,1.7772338,-0.47814417,-0.07937913,-0.023600865,0.3196318,0.42978966,-0.32375222,-0.020180615,0.7441495,-2.103029,-1.7397734,0.1975485,-0.15610927,0.74961257,1.4691454,0.6202876,1.1542524,0.9847999,0.3823805,1.7234315,0.09530668,1.2223632,-0.9890255,-0.98542434,0.8434815,-0.77072734,2.1621072,-1.5891078,-0.28672272,0.057812676,1.9449443,-1.2688688,0.5308712,-0.39449805,-2.5323453,-1.832889,-0.2727306,1.4812487,0.295327,-0.25524095,-0.29046625,0.17756507,0.1836496,1.0633605,-0.17643984,0.009416047,1.332154,1.7560264,-0.33865443,0.3139559,-0.7551886,0.6859023,-0.78802806,-0.18255705,1.242643,-0.39961022,-0.40474778,-0.23009352,-0.21766561,0.16848868,-1.1068703,-0.8135924,-0.053712964,-0.2643406,2.2746375,0.84944487,0.015672943,0.075958185,-0.36930546,-0.4016742,-0.7829556,0.3647667,-0.6168766,-1.2218235,1.8583559,1.1412259,-0.3055655,-1.3674586,0.054505534,-1.2207731,-0.13605367,0.6122905,0.091736734,-0.84724474,1.1634383,1.4818499,-0.9528116,0.4634645,0.63960385,0.25133824,-0.14318976,-2.3307023,0.25512046,0.6524224,-0.77124304,-0.53166646,-0.26788932,-1.2502017,0.23180504,-0.003837754,-1.3984823,-0.62667245,-0.8189934
MMRF_1359,0.43631288,0.52048665,0.31439084,1.8907298,-0.80346364,-0.31303808,-0.7836776,-0.8387879,-0.22643393,-0.959265,-0.08179094,-1.1582065,-0.74307495,1.5835975,0.6318805,1.426536,0.5124363,-1.060585,-1.2835974,-0.26976585,0.60911334,0.7809339,0.0787192,0.73177534,-0.42621976,0.8738953,1.8309693,-0.09425819,-1.8084677,1.4549751,0.106143676,-1.1945561,0.9887612,-0.33423644,-0.18253182,0.39311904,0.6615479,0.1768172,0.5195377,0.81851494,-1.522834,1.0753207,0.23541895,0.024253257,2.488767,0.13713005,0.79720944,-1.3925608,-1.0918134,2.0645716,0.8986481,0.417512,-0.6528855,-2.2818055,0.9105595,0.27477813,0.7206269,-0.50365764,-0.38424453,-1.1734153,-0.64973253,-0.008653102,0.44175613,0.42965025,-1.3996717,1.1950188,-1.0344089,0.5350897,2.3823783,0.80272585,-0.94932044,0.18593639,-0.25561014,-0.31923088,1.104376,-0.06967125,2.3786328,1.2317032,-1.9513597,0.80349135,-1.6605157,0.6192963,0.8658363,-1.5644525,0.3566497,-0.4864715,-1.0812858,0.9709835,-0.26201478,1.3929105,0.7005869,0.2227188,-1.0121909,0.3090553,0.32877916,-0.5525486,0.091093004,-2.0104198,-1.6031034,0.48566663,0.7923234,-1.0798032,-0.6848713,-1.0075881,0.13315229,-0.048212204,-0.9516656,-0.35220918,-0.2659943,-0.86022806,-0.6685393,0.2532056,-1.0985425,0.78910065,-0.29484868,0.78495115,-1.8401501,-1.3361899,-0.02323749,-0.8074,1.5840901,0.0922673,-1.125747,1.0486302,-0.43950754,-0.3013546,1.7573626,-0.7907414
MMRF_1267,0.12130873,-1.4553833,1.181567,1.1208541,0.66532546,0.5167574,-1.3437513,-1.129465,-0.3871843,1.5315802,0.4627839,1.0892268,0.16466974,1.5198644,0.33117223,1.1081433,-0.1001699,0.81382996,0.30896467,-0.2042913,-1.3630601,2.3812625,-0.4199345,1.5191709,-0.5201685,0.84371305,-1.1256983,0.76647764,-1.2693818,0.4758642,-0.13075049,-1.0087093,1.5795064,0.30579337,-0.093378834,0.06070113,0.47722632,0.051669557,-0.21819612,1.5298065,-1.9168837,0.48896384,1.1782687,0.6399361,2.139901,-0.5783217,-0.5835457,-0.40613973,-0.10311828,-0.43558097,-0.22854118,0.280118,-0.8124207,-1.1920006,0.669519,1.2685523,-0.18716271,-1.3826935,-0.43094513,-1.2084228,-0.7268358,-0.118006326,0.6748879,-0.08592153,0.0831354,1.8264917,0.78022313,-0.8188328,1.6631663,0.5914714,-1.0170859,0.95710593,1.4355623,0.3284049,-0.5982622,-1.845352,1.819943,-1.430495,-1.7292995,-0.2338339,-1.9485953,1.5968465,-1.2281827,0.68080145,0.5310754,-0.5496616,0.512496,-0.33487073,0.2171123,1.7415574,0.6501359,-0.44390637,0.11001701,0.27886626,-1.0564976,-0.18410876,0.55148226,-0.8936197,-1.8687279,-0.23845221,0.103876434,-1.3855081,-1.340418,-0.8694765,-0.124056295,1.2201461,0.6516816,-0.8807395,0.49769476,-0.580068,-1.5984735,1.9439096,-1.1045737,0.7424456,0.025028989,1.1788123,-1.1274455,-0.6334098,-0.5311275,1.278826,0.12034696,-0.84072125,-1.7824109,-0.34219006,-0.5237733,-0.23403518,0.5212933,-1.4010506
MMRF_1274,0.16395755,0.86429447,-0.32811782,0.050261777,-0.7765282,0.45177022,0.46867728,-0.7171213,0.7142643,-0.8386963,-0.22848113,0.46140563,-0.20694447,-2.1010203,0.38646895,0.4975056,-0.9409219,0.7587223,-0.06356176,-1.378653,0.23734324,-0.37432024,0.6076293,-0.23260003,-1.3597636,0.17320086,1.6809447,-0.7059408,0.33517078,0.1355526,0.0026580198,-0.42421365,0.86104953,-1.9329076,1.2835448,-0.5241918,-0.10274533,-0.7733408,1.6779842,-1.4152645,-0.65397036,1.1932726,-0.25600713,-0.7418538,-1.1912018,-1.5949732,0.6388493,-1.2915779,-0.80606,-0.4743048,-0.31409118,-0.9086338,1.3687427,0.5204192,-0.16270576,-2.908252,1.4335698,0.53345656,0.23033008,0.58364683,1.2769682,0.7954306,-0.05582602,0.06259762,-0.112082854,0.19783002,0.6473982,-0.5438669,0.84043086,0.8917015,0.94607496,-1.3405255,-1.9072155,1.6322193,-0.33107015,0.06862334,-0.095889,-0.2960681,0.36545244,-1.6784595,0.9114215,-1.614272,1.108723,-0.7087925,0.87294006,1.2345873,-1.0551457,-0.89982045,0.7633329,-2.2655404,1.5636332,-0.6162664,-0.09715511,0.7217902,0.703555,0.89373344,0.6980413,0.3668399,0.90209204,0.7880107,-0.096220024,-0.6380021,0.75573355,-2.0949738,0.45045117,-0.7300838,-1.9392155,1.5847094,0.23883803,1.1425536,1.0995765,1.8401288,0.45377418,-0.9167834,0.49093756,-1.7471881,1.9456075,0.58311504,-0.22354138,-0.89290726,1.3250095,-0.3895161,0.720632,-1.5627345,0.7057351,-0.16442893,-0.7186066,1.5657401
MMRF_1037,0.97836894,-0.2853487,1.1774123,1.740025,1.4902781,-0.4960546,0.37007147,0.80290174,-0.2709505,-0.04654044,1.3339401,0.6496588,1.8107697,1.2357751,-1.141327,0.021318488,-0.04717403,-0.8698443,-1.0468916,1.103735,-0.454858,-0.36048406,0.2542891,-0.82855827,0.5345746,-0.9987635,-0.3205374,1.0527825,-0.20731099,-0.38597736,-1.3629321,2.1139882,-0.73948663,1.55141,0.99318033,1.445602,1.530092,-0.8708791,-0.9239342,-0.96990895,1.5685145,-0.6958299,1.0436662,-0.87784165,-0.27331635,0.7210671,-0.0071481173,-0.98890597,0.53068477,1.4372339,0.68406236,1.1830658,-2.131131,-0.48593393,-0.15228723,-0.22061725,-1.4048717,-0.033030283,-0.6385365,0.08861469,1.0166494,-0.27986765,-0.6758448,0.01170386,-1.8124671,-0.85938334,-0.42963773,-0.1545805,0.7771894,-1.3068739,-1.9662066,-0.19962622,0.92661536,-0.8341206,0.73782814,-0.23764138,-0.18359253,-0.52998954,1.621579,0.43414125,0.20165153,-0.24364543,0.7115444,0.8337917,1.683204,0.29459813,0.53867584,-0.7570402,0.9951083,1.1435517,-1.6686493,2.2422483,-2.299605,-0.16561978,-1.0316714,-1.9990662,-0.50341856,1.7017368,0.65043944,-1.0339833,-0.7061884,-0.16297552,-2.2813761,0.60177046,0.9297072,0.84211636,-1.1320646,0.64383006,0.7433534,-2.2001815,-0.9799113,-0.25596476,-0.896954,-0.6895655,0.5717833,0.46214396,-0.47524208,-0.8005788,-0.7542155,0.2515964,-0.20396145,-0.2636836,1.0947478,0.066421404,-0.44940117,-0.45204043,0.5958102,-0.23565169
MMRF_1033,-0.64457965,-0.9014544,0.37469754,0.70265573,-0.6954292,-0.6578405,-0.39746913,0.749454,-0.4198436,0.94322246,-1.3767482,-1.5666558,1.6698936,-1.414463,-2.8258185,-0.45450845,-0.39452785,-0.8347316,-0.02256521,-1.8536564,0.13046037,-0.39686757,0.20780034,-1.720894,-0.9432866,-0.9064131,0.10332798,0.6355093,0.07727815,0.45739862,-0.778338,-0.5891794,-0.28884476,0.7318112,-1.468555,-0.2016692,-0.5149262,1.0410917,-1.9838623,-0.9003246,2.3615444,0.07881597,0.8058949,1.8769608,-1.484481,0.14921655,0.047449525,-0.12983644,1.4510543,2.142343,1.0820508,-0.07130107,-1.3770181,-0.7932967,1.6120473,-0.9251707,-0.076465614,1.3582306,-0.57590955,1.7520407,0.5168226,-0.29573122,1.6441579,-1.3137815,-0.09965957,-1.2351913,-0.20543171,-0.44204465,1.2777505,-0.40790108,-0.075116366,0.29769737,-0.24791682,1.1474254,-0.55085087,-0.5280457,0.47339943,-0.94642526,0.9970369,0.6459255,0.81619626,-0.09266557,0.13466647,1.3797582,-0.23491564,-0.50153196,-1.5390916,0.542884,-0.3348136,0.44557065,0.37097228,1.1514795,0.16629991,0.81736475,-0.6809005,-1.8479745,0.18422264,0.066884056,-0.38207862,-0.34664756,0.06210123,0.4659986,-0.45350417,1.6993849,0.9162667,-0.6526236,-0.64738905,-0.90913814,-0.06577887,-0.72788155,-1.1205202,0.15020037,-0.36284846,-1.6189134,0.35865188,1.9864858,1.5007199,-0.5151074,1.4472303,-0.24541023,0.34372577,-0.446701,0.8861506,0.2874339,2.465344,1.0695102,1.6178545,-0.18435512
MMRF_1031,0.18986018,1.3023226,-2.0311518,-0.14426926,-0.38099205,1.3545754,0.60623604,0.40309703,-0.21888483,-0.29431087,-1.1166277,-0.3998669,-0.75852865,-1.5901443,0.23547615,1.030616,0.8458715,-0.8855872,-0.28482732,-1.5318764,-0.73839235,-0.74383426,1.5735005,-0.008279107,0.49764246,-1.417269,2.417758,-0.5331118,-1.2520971,-1.7350826,2.6783712,0.87471974,-0.21469818,-0.27242523,1.0620551,0.6214393,-0.24319077,-0.486117,0.048054826,-0.76018906,0.46191645,-0.48162365,-1.6370478,-1.4899474,-0.274925,-1.219523,0.71563727,1.0956196,-0.3071738,-0.31446153,0.493386,-0.9347563,2.0959697,-0.35897392,0.30392703,-0.897847,0.9045772,0.004566095,0.577992,0.9409446,0.7081286,0.05869914,-2.673627,-0.033904057,0.94718015,-0.9054462,0.19972357,0.17040946,-0.31575966,0.46010983,0.6112937,-0.7151298,-1.5353359,0.43468428,0.6220438,2.5618846,-1.1943915,0.5342124,0.84334075,-0.49784222,1.618714,-0.6035309,0.37294623,-1.8062576,0.15953423,0.96079737,0.39236304,0.32854658,-0.77849185,-2.174665,0.3776932,0.6914183,0.7677495,-0.16890019,0.23160535,0.09130242,-2.0409122,0.6686162,0.1209922,0.11037308,-0.4967462,-1.0678387,0.37785563,0.7616049,0.91774404,-0.0971813,-0.49238753,0.5427473,0.1825739,-0.6878957,0.6102315,-0.22859217,1.3000897,0.71179223,-0.8304985,-1.7057945,1.8194236,0.7517635,-0.46458364,0.53769,0.13878113,-0.40585685,1.2035427,0.72920334,0.9149576,0.21808174,-2.487235,0.28036004
MMRF_1068,0.01868254,0.7814085,0.16470966,2.739658,0.67335445,0.94963115,0.47417167,-1.1094315,-1.8510896,-0.3898536,-0.7025749,-1.3853041,1.1068413,-1.3860871,-2.871375,-1.2070893,-0.17328501,-0.33839962,-1.4160306,-1.4026102,-0.95692116,-0.6823858,0.8197701,0.5794056,-0.73329836,-1.4676284,0.47841948,-0.40399083,-0.9502245,0.66209674,0.0013450943,0.6650863,-0.8340312,0.87988,0.88105786,-0.3962578,-1.249281,-0.1784978,-1.998438,0.14900929,2.4704053,-0.09461357,-0.19121967,-0.07475978,-1.255305,-0.51456213,-0.4545951,1.5874788,0.74960816,1.3751906,0.9174897,-0.2065411,-1.1745228,-1.0792782,1.1738096,0.42092642,0.28372172,-0.5071258,0.2125031,0.76790905,0.1928862,0.11172533,-0.5852347,-0.43031922,0.21230322,-0.08951895,-1.5660154,-1.4947534,-0.630868,0.64275557,0.29655516,0.31073046,-0.17635795,0.46455744,1.3190793,0.8700667,0.5483514,0.24982724,-1.812835,-0.3195907,1.0501938,-0.35596892,-0.39495417,1.3297284,-1.0757173,0.44553897,-1.1155711,-0.07643245,-0.5179234,0.61170346,1.0438297,1.0101156,1.4420167,-0.9269475,0.968871,0.12774011,-0.59717476,-0.14298117,-1.3050625,1.5722394,-0.6012747,-0.6223554,1.4162557,2.0273733,1.9595543,0.5878167,-2.0605736,-0.31730983,-0.3824504,-0.17845,-0.78276414,-1.1597674,-0.613243,-0.6637182,-0.5558795,0.5719704,0.26949328,-0.20036419,-0.059569173,0.26567587,0.25237158,1.4971565,0.64577425,2.4377136,0.69901764,0.6537892,1.0319898,0.36402866
MMRF_1078,1.3675795,0.9092892,0.13626835,-0.07820361,-0.6403801,0.10943192,-0.48260614,-1.3352085,0.6643621,-2.0354662,1.6060323,0.9698898,-1.2627203,-0.7207779,-0.54215366,-0.33275202,-1.1726855,1.2574348,-1.2942576,0.28330517,-0.00348133,0.92291456,2.4507189,-0.8545286,-0.61080354,0.8196567,0.23061457,-0.40646034,1.1998628,-0.3861409,-0.07872311,-0.79009235,0.22332768,-0.93130505,1.491327,-1.3239381,-0.19388291,-0.01548555,0.84990203,-0.24246818,-0.9161774,0.67288345,-0.00878047,-0.78560925,-1.335462,-1.8436284,-0.7272835,-0.72589695,-1.3562931,0.3663716,-0.18130483,-0.41375065,0.6238665,-0.5598056,-0.59171784,-2.7979178,2.565425,-0.9304827,0.5112552,-0.7249737,0.8294424,0.3299144,-0.5132077,1.3494369,0.41148123,-0.5413461,0.67285347,-0.42045125,-0.5589017,-0.056347635,0.64691854,-0.26550257,-1.020245,0.3832277,1.9295797,0.65094805,1.2073325,-0.46056396,0.20975639,-1.046106,0.07707563,-0.9884884,0.17555322,-1.7072756,1.432801,1.631199,-0.7389619,-1.2625041,-0.8568239,-1.2614425,-0.77842796,-0.7570205,0.28885886,-0.8003997,1.9121457,0.34268993,-0.23617624,0.8921856,1.1763842,0.108457476,0.27880144,-0.91712826,1.5062621,-0.9086139,-0.6782737,-0.84832144,0.34084618,0.7921178,0.6043043,0.97256213,1.8101895,1.4150087,0.048637137,0.15786037,0.20348951,-2.6891975,1.2407237,0.26868203,0.3882865,-0.7638683,1.5569246,0.88440514,-1.1705747,0.8850323,0.69923943,-0.06106409,0.22649045,0.81019336
MMRF_1086,1.1894982,1.1096034,0.019057848,1.1253995,0.1898103,0.05696798,-1.275053,-1.2624545,-1.0505664,-1.3694326,-0.51208955,-0.8463894,0.13553618,1.1533561,0.4857551,-0.47063068,0.39652002,-0.7556673,-1.7592071,-0.6015945,1.9243978,-0.4199918,-0.1507347,-0.29787925,0.65047544,0.41730398,0.7439088,0.31432173,-1.3819824,1.4046116,-0.528326,0.6454271,-0.72809124,0.57419467,-0.5917173,-2.1018183,1.2044228,0.13774571,-0.5317619,1.2366506,0.8513311,1.1454171,1.2924808,-0.82774204,0.64962316,-0.67695,0.84515744,-0.4572318,0.5442304,3.4140594,0.5831455,1.1914661,-2.4300606,-1.5644062,1.0300235,0.9127922,0.29820335,-0.6192888,-0.55693316,-1.4631022,-0.013993117,0.10720575,0.841573,1.0180883,-1.7102935,-0.1459512,0.25798896,-0.21582258,0.68138283,1.9409657,-1.3426282,-0.5519731,0.29425645,1.0976423,1.7291672,-1.1767286,1.8573624,0.8904383,-1.5491306,0.61775124,-0.600791,-0.65814763,1.3392243,-1.0020831,0.74630725,-0.5142151,-1.4699215,-0.11751376,0.7092728,1.3999636,-0.972605,0.416215,-0.09987487,-0.10947808,0.20536754,-0.98087007,-0.41021258,-0.5031766,-1.2023084,0.9049742,0.03518125,-1.4917679,-1.0260842,-0.2247045,1.369731,-0.63521194,-1.6903454,0.18154205,-1.067139,0.88066137,0.1069455,-1.0832281,0.2893429,-0.52045596,0.6497863,-0.3022898,-1.3012996,0.30018222,0.023341332,-0.67168754,0.15616003,0.55877256,-0.8035276,0.86400574,1.2731392,-0.81074995,1.2645649,-0.62676275
MMRF_1082,-0.62440604,-0.79169965,-0.7301504,-0.33303577,-0.08911375,1.5529678,-0.5954423,0.11672068,-0.5602359,-0.6743336,-0.042936213,-0.74219215,-0.1356813,0.74067837,-2.188184,0.20273957,-1.5632501,-1.2647351,-1.3595817,-0.29885387,-0.54024893,-0.24982959,-0.9054395,0.9968957,-0.50078183,1.8298571,0.06476726,-1.0766877,-1.5480717,-1.508411,1.5946598,-0.4845669,-1.0289984,0.19611855,-2.1412978,-1.3981004,-0.681695,1.8782507,-0.4963084,1.6035262,0.56130064,0.8387602,-0.11030818,2.0501597,-1.0304464,0.8174453,-0.4691833,1.5653169,-0.36571717,-0.36141413,0.5767301,-1.9247135,0.56546265,-0.54604244,-1.3571602,-0.17253433,2.2945487,-1.533092,0.11879957,-0.45330873,-0.20662542,0.1592924,-0.789533,-1.4122319,0.6802448,-0.361566,-0.3426262,0.35733035,-0.8180626,1.6138643,0.08679994,0.3783208,0.34433478,0.79541194,-0.5144178,0.51567495,2.418151,-0.3854379,0.06801149,-0.41954497,-0.62873906,0.645608,0.5465416,0.8040332,-1.0605599,-0.7643483,0.14464992,-0.67628396,0.59312874,0.12816645,1.9728512,-0.20931047,1.0118897,0.1578834,0.8546881,0.9069306,1.3888575,-0.15932159,-2.2345886,0.95890635,1.8197219,-0.89685583,0.82829803,1.6501685,-0.56768787,0.2505488,-0.27699813,0.04503633,0.7618215,0.9277834,-0.8039056,-0.6995606,-1.0288967,0.5907972,-1.3015574,-0.17683178,0.14279495,-0.34919652,0.135976,-1.2161627,1.698348,0.114527725,0.051319353,1.2552885,-0.2233368,0.5906234,1.2444649,1.5306591
MMRF_1092,0.6421977,-1.1030147,1.3796542,0.980829,1.3897692,0.6014681,-0.14427228,0.12719256,0.059358418,0.016572464,1.2695757,-0.34573883,1.0892164,0.5879146,-0.660478,-0.31191307,0.74694604,0.6193527,-1.8370559,1.3965771,0.17042874,-0.034092717,1.0567808,-1.1382203,0.5910668,-2.065741,-0.8892769,0.64792734,-0.21887016,0.680532,-0.24217883,1.7984703,-1.4412057,1.6399548,0.046037707,0.3613635,0.59752667,-0.34552443,-1.5271387,-0.6225254,2.4600372,0.012592714,0.72531664,-0.7256539,-1.5016329,0.4219775,-0.32467043,-1.3922598,1.1153286,0.3852041,0.3366637,0.690432,-1.2074349,-0.23103014,0.7861921,-0.25311682,-0.5713917,0.03519088,0.768835,0.00025401823,1.490975,-1.2705488,-0.75894195,0.89857864,-2.4174614,-1.2301846,-1.0973663,-0.40223822,1.621315,-1.0634547,-0.44468433,-0.7440893,1.3159183,-0.65181625,-0.23676784,-0.5934139,-0.6654577,-0.03540529,0.060595714,1.2322078,1.3806553,0.06332978,0.21282402,0.44432995,1.252801,0.51472586,-0.40420607,-1.4063935,-0.5728456,2.000815,-1.7324455,1.6746799,-0.6590971,-1.1370649,0.2626713,-1.3552691,-1.6565138,1.2943732,0.19553769,-0.21622461,-1.1033477,0.21353592,-2.1663888,0.31594586,1.4403058,1.0337166,-0.27303052,0.9782109,-0.3644446,-2.4153762,-0.8467491,-0.4614804,-0.3090481,-0.6251807,0.412705,0.7960614,-1.1639884,1.0375295,-1.3056748,1.2685616,-1.0121164,0.76550573,0.7065692,-0.4306112,0.14988162,0.6017842,0.14636157,0.45428935
MMRF_1325,-1.1263233,-0.91459876,-0.36256516,-1.391273,-1.2659473,0.67621744,0.4644533,0.54182506,0.40596437,-0.0020682216,-0.5153016,0.06476386,-0.4929366,-0.6782009,0.18752706,1.6110548,0.16523717,0.05011034,1.3334558,-1.1678025,-0.95226675,-0.3909158,-0.052961968,1.3288386,-0.96087885,1.2440974,-0.24977773,-0.44342318,0.85157377,-0.2433361,0.69741875,-1.4104121,-0.15877578,-0.048107415,-1.7020233,0.45380285,-0.91495925,2.230377,0.23441336,-0.08985116,-1.1275603,-1.298701,-0.09210547,2.4943132,0.14114115,0.2961837,-0.6812877,1.6507704,-1.6526068,-1.9047046,0.4062982,-2.1932223,1.1177453,1.6901019,-1.07805,1.3769795,1.1638982,-0.18518695,-0.6761541,0.8269647,-1.3118644,0.2765687,1.158768,0.46549675,1.7008605,-0.67259896,0.27418387,0.80248654,-1.9702585,0.7189904,-0.23465674,-0.28028145,0.50288916,-1.1389283,-0.79740894,-0.06669994,0.26756242,0.50348175,-0.59885514,0.7253762,-0.4518734,0.49185142,-0.26416847,1.2157439,-2.9467545,0.3451246,1.4188066,0.5486603,0.29211143,-1.2836568,-0.013557247,-1.026377,0.00061712414,0.3059298,0.08619417,2.1397507,1.5770676,-1.0857552,-0.3975388,0.68665206,0.78454936,0.9093279,1.6125824,0.10343684,-1.9159143,-0.65171444,0.9765544,-1.100158,-0.19455174,0.8983156,-1.0058558,0.02911425,-0.6069538,0.07987879,-1.0231459,0.99394643,0.6514005,-1.525169,0.9000593,-0.48445418,0.5136261,-0.35931367,-0.8811158,-0.18485035,-0.31610307,1.2662573,1.1792336,0.10385532
MMRF_1364,0.3887239,0.3956373,0.514459,0.3944112,1.1527486,0.9025067,0.0760923,-0.13396972,-0.27785033,0.17806393,0.93262374,-0.32492906,0.92968595,1.2909832,0.2330745,-0.3846427,0.4335177,1.4044839,-1.346834,0.80224895,-0.1922935,-0.6338615,1.2791233,-1.6295509,1.6222882,-1.9737977,0.23151588,0.81685174,0.030976698,1.1172025,0.62714154,2.2228048,-1.9006354,2.345544,0.27104115,0.16410047,0.97426534,-1.2602849,-1.7677845,-0.5820229,1.8887783,0.027194513,0.44705647,-1.9385384,-0.7000499,-0.007614419,-0.7509571,-1.2139912,0.5225412,0.46550933,0.8550335,0.57756776,-0.6209137,0.13329747,0.9032355,-0.33167374,-1.4043634,0.01612997,0.67661285,-0.37385425,1.5327826,-0.9150513,-1.3185521,0.8695456,-1.9958841,-0.9469439,-0.95438325,-0.4428758,0.28135207,-0.68004334,-0.8317891,-0.39341512,1.6760191,-0.77574754,0.42030796,0.2469231,-0.68682307,1.1853104,-0.32020986,1.0947064,1.6445845,-0.27422875,0.33157375,-1.1919914,0.7936455,0.63137287,0.39114717,-0.96797657,-1.0987414,0.84727544,-1.6799036,1.96301,-0.8758947,-1.9105388,0.25562313,-0.8339396,-2.26087,1.2784655,0.5412909,0.56888324,-0.7604828,-0.16031648,-2.3039541,0.1629432,1.3386323,0.92447644,-0.81746465,0.5813162,-0.7921853,-1.3153874,0.19768053,-0.9691544,-0.14543673,-0.17142884,0.14400971,-0.0467912,-1.0965273,0.9854849,-1.4384627,0.5944308,-0.69187367,1.0308714,0.3616917,0.28267562,-0.10841787,0.70219696,0.007967342,-0.109396584
MMRF_1383,0.43434966,1.2547392,-0.98480576,0.8192218,-0.4100153,-0.66194504,-1.1893753,-0.30501118,-1.1117073,0.2873502,-1.7324585,-0.70882124,-0.19904597,0.73616225,1.8276792,-0.9782541,0.6108292,-0.30218557,0.16279772,-0.54469365,1.4451711,0.17042637,-0.52725285,-0.3817498,1.23066,0.23284248,1.6226127,-0.28435153,-0.25913978,1.7784834,0.09162918,0.33314538,-0.31324178,0.31681144,-0.8373378,-2.741032,0.73984575,-0.76182085,-0.12232539,1.1551225,0.03765837,0.5280779,0.03068717,-1.0804831,1.2736605,-0.23965454,0.95101845,-0.45798397,1.0757891,3.0635772,0.48064107,1.1060456,-2.0062833,-0.97024035,1.5418628,2.6462207,-1.3149314,0.55542433,-1.105521,-1.084142,-1.160872,-0.036626756,1.3464488,-0.13655691,-1.0089277,1.1286159,0.4350981,-0.59017056,0.017790712,1.5919721,-0.6074947,1.1831777,-0.4148429,0.50393504,1.2830608,-0.15435521,0.7598316,1.250067,-1.6779268,0.35473284,-0.16915968,0.15459281,0.9962069,-0.94595045,-0.6446077,-0.62585163,-1.3209413,0.8981492,0.3945757,0.63003147,-0.196457,-1.1109456,1.1135044,-1.007402,-0.17132331,-0.6326799,-0.72054535,-0.9761644,-0.34352282,0.47738642,0.48340422,-0.53199774,-0.28580788,-0.6710753,0.660806,-0.50134015,-1.2586037,-0.33512855,-1.6841998,1.979043,1.2447885,-1.0475929,1.0027521,-0.81871915,-0.14992663,-0.44509223,-0.94804,1.1642939,0.7158075,-0.8767544,-0.7930264,0.3592296,-1.2223175,0.9410425,0.1472312,-1.4406615,0.94815695,-1.3848284
MMRF_1377,0.97857213,0.16002621,1.0979655,0.9277924,-0.8512051,0.42665648,-0.42357945,-1.2246199,-1.1238341,0.11618044,1.2462996,-0.52834654,-0.5091723,2.897544,0.952898,0.3685943,-1.1320175,0.121639185,-1.8160007,1.1589767,-0.035197653,1.0905837,0.73252463,-0.22104761,0.5912532,1.1682532,-0.32901114,0.45748582,-0.9905207,1.6293201,0.009243392,-0.017058996,-0.77003706,0.90482944,-0.6010512,-1.4715443,1.6299545,-2.1215696,0.42603624,1.0599539,-0.55049926,2.0708904,0.45338923,-0.4838359,1.6350805,-0.2580153,-0.3677239,-1.5913236,-1.6384772,1.1972768,0.28847548,0.12559995,-1.7698483,-0.72954375,0.9173221,1.0390302,0.21497618,-0.83787,-0.110090196,-3.0310767,0.4191418,-0.35618702,1.0022275,1.0559292,-1.487326,1.4989209,0.5601039,-0.4694488,1.3577831,0.79173666,-0.8127418,0.22448856,1.168853,-0.21449824,1.4458928,-0.65161085,1.0265719,1.1671933,-1.3884113,0.60505533,-0.19010147,-0.55705833,1.0731347,-1.1923573,0.60600096,-0.36298588,-0.5858424,-0.2994476,1.328694,1.2048292,-0.88591397,1.1722467,-1.188558,-0.1286029,0.43528304,-1.2490594,-0.3318394,0.12650472,-0.31024873,0.6846362,0.086916804,-0.47463694,-0.8507177,-1.5316142,0.15553139,0.6207915,-0.97483367,0.30581906,0.07075715,-0.49421173,0.40643233,-0.92718434,-0.52644634,0.27804205,0.5143001,-0.74421215,-2.6538336,-0.5299833,-1.0977938,-0.5769102,0.77145445,0.48574635,-1.4792149,-0.27104113,-0.23866256,-0.8695898,1.0164249,0.723799
MMRF_1360,0.6746545,-0.89542603,1.1879457,0.66946805,1.2027808,-0.22960396,-0.38890082,-0.35692945,-1.3908341,-0.3182266,0.52120376,1.0942115,0.42095438,-1.2080889,0.4714848,-0.44270343,0.7052934,0.5343728,-1.9772686,0.3623054,-0.49206161,-0.89689595,1.9758599,-2.6600602,-0.61975193,-1.9886352,-0.3991907,1.616896,0.42874545,-0.49955633,0.27016667,1.1690409,-1.6276658,1.0698848,1.0087217,-0.8891302,-0.64204216,0.11757654,-1.2307671,0.6173178,2.632393,-0.72767586,0.8837557,-0.24086455,-1.1374366,-0.42528525,-0.49040493,0.28690138,0.4334422,-0.2477096,0.15580095,-0.3872674,-1.0262555,-0.6923926,0.42890218,-0.79423857,-0.5981148,-0.37571204,1.197157,0.9282151,2.4405591,-0.71710026,-0.385363,0.4632949,-0.38404435,-1.0946584,-0.9114844,-0.3300983,1.1737825,-0.109190516,0.3795121,-0.08339642,0.24702674,0.566379,-0.31828585,-0.55943495,0.10211086,-0.19425118,0.044196483,-0.023777716,1.8505129,-0.21691091,-0.32499588,1.432865,-0.13432968,0.78779286,-0.07925777,-1.6371019,-1.5534103,1.9253659,-1.6727852,1.1043228,0.7814593,-0.84100366,0.10401991,-1.0178849,-2.2656715,0.60517865,0.035459924,0.50417733,-0.89374286,-0.05119177,-0.97479963,1.4955438,1.9115725,1.1318761,-1.0915316,0.4924673,-0.9928883,-0.60284793,-1.2381119,-0.5842199,-0.53842455,-1.0253779,1.5899717,0.78506255,0.900014,0.8840452,-0.27057308,0.53107274,-2.0613658,0.9456831,0.98046,0.49823052,1.5986388,-0.1115983,-0.17211302,0.4530079
MMRF_1371,0.2857309,1.0333563,-1.7287868,1.566794,1.8542504,0.7363917,0.4850875,-1.218302,-1.0361239,0.979919,-1.2746217,-1.2559851,0.72522193,-0.67033356,-0.29097217,0.30954918,0.79010683,-0.47196716,-0.5364142,-1.3079016,0.62493265,-0.796603,1.6536732,-0.61474466,1.419804,-1.5695155,1.1777089,-0.014960039,-1.0565308,1.0059782,1.8963326,2.4538634,-2.017575,0.48771828,1.1170646,0.53124994,-0.044731144,0.052091643,-2.012994,0.09355974,1.8058046,-1.3184625,-0.5318428,-1.9831682,-1.0351623,-0.37103066,-0.6747624,1.41862,1.4107932,1.0103642,0.9385285,-0.10346974,-0.017326813,-0.6165212,0.5955597,-0.61415607,-0.7962698,-0.009936792,0.83970207,1.6306099,-0.26225984,0.5425423,-2.3985538,-0.7279492,0.25744277,-0.47924998,0.24932864,0.37516412,-0.31316885,0.23916239,-0.41707617,-1.3935894,-1.0324504,0.7081291,1.0892305,0.9854114,-0.7057196,0.24546233,-0.69424856,-0.2611506,1.2640222,-0.17406136,1.2579472,-0.8662475,-0.9837005,0.5095436,0.12932992,0.6419645,-1.8084135,-0.7807565,-0.80972564,-0.049805414,0.7770174,-1.6518348,-0.11377174,-0.42913705,-1.5658989,0.6040684,-0.100219145,0.32556,-0.79754186,-0.76913023,-0.10441409,1.249931,0.8725395,0.074990906,-0.59798723,0.5010182,-0.8782443,0.2837039,0.6564628,-0.24196453,-0.046293426,-1.0534595,-1.5172112,-0.9112106,1.1227738,1.5764918,-0.9780248,1.7112474,-0.7154384,0.60961646,1.0792348,1.520515,0.23825566,0.26341668,-0.16787952,-0.03210722
MMRF_1089,-0.38580504,-0.8385206,0.62465394,1.9403626,-0.36766866,0.19169813,1.2054954,0.648144,0.073782384,0.72066903,0.13149989,-1.4133449,1.7296352,0.16126719,-3.1162314,1.0060459,-1.8158908,-0.7258628,-0.016115917,-0.9975162,-0.37151995,-0.56054515,-0.36026657,-1.4443014,0.035604533,-1.3966392,0.85943186,0.37352714,1.2564425,-0.039490677,-1.3021451,0.9047962,0.677751,-0.8312346,1.5628723,2.872952,1.0787088,-0.21488202,0.3588915,-1.5053747,1.3347011,-1.0768765,-0.3912466,-1.224912,0.28204295,0.7360648,-0.15901823,-1.0406326,0.52819,-0.6396051,0.22079964,0.33200747,1.0763923,-0.053261466,-0.248064,-1.0717673,-0.3003725,0.3134812,-0.38884586,0.41744438,0.6101507,0.1285531,-0.7992651,-0.0069889184,-1.3092142,0.34152037,-0.9182943,0.6200286,-0.25758094,-0.9326912,-0.17904565,0.074156635,-0.8035611,-0.6318367,0.018292673,2.1712787,0.24388604,-1.270508,1.7035985,-0.62292665,-0.95286155,0.9182093,1.5270773,1.5524597,1.4160564,0.3902714,0.9543104,0.52011037,-1.101378,-0.4344383,0.5403224,0.7231765,-1.3413055,1.0620077,-1.9754621,-0.5892968,0.34660977,0.051887732,-0.21583045,-1.3903104,-0.7511997,1.0292742,-1.8334094,-0.6556605,0.91429454,1.0364277,-1.0153228,1.4923776,0.28380418,-1.6622763,0.066480085,0.8098357,-0.4130038,-0.5245032,0.51010674,0.84981555,0.7623429,-1.4613819,0.37857458,-0.0055782315,1.639383,-0.9465689,1.8935304,0.6526367,-0.6527481,-0.29202652,-0.2151357,-1.3947527
MMRF_1365,-0.21521558,-0.9289352,2.6936107,-0.47060752,-0.09193992,0.20614871,-0.057404093,0.41023543,-0.17576124,0.4474833,1.6813754,0.26620033,0.093224205,2.3131244,0.23795964,1.0852128,0.4904073,0.69153893,-0.6144894,2.1104126,-1.5497425,1.5089991,-0.4238398,1.5358621,0.41793448,0.6245922,-1.0967323,0.8855441,-0.20426622,0.2768731,-0.31957266,-0.9704563,1.2894433,-0.19404574,-1.7803798,1.7307444,-0.15442768,-0.20928039,0.1813209,-0.31235144,-1.196406,1.6324905,0.17734037,0.23861724,1.098106,2.030336,-1.3185563,-1.4614806,-1.0430707,-1.009695,-1.2109737,0.15351199,-0.37974626,-0.083087206,0.12834202,0.6907323,-0.8700716,-0.41790316,-0.43002945,-1.6579293,-0.38190055,-0.4674818,1.3479658,1.0683146,-0.08473126,0.35531333,-1.6150128,-0.059131484,0.9618844,-1.8503013,-0.45064414,0.26157588,2.657688,-1.5277526,-0.5941927,-1.3100367,-0.55897546,-0.03723885,-1.2411348,2.0250943,0.17689258,0.29916418,-0.8809521,-0.0062653534,0.8795302,-1.3087531,0.1668426,0.3068509,0.24035831,1.4646165,-0.93807864,-0.34187254,-1.3690561,-0.32714972,0.026587531,-1.1749008,0.17539325,-0.21805184,-0.36618644,-0.1716233,1.1578846,0.29720104,-0.3867983,-0.6385703,-0.5058974,0.7291775,1.4728891,-0.48770702,1.4999007,-1.7010162,-0.35658392,0.23888879,-1.3921818,0.6480047,0.17492251,1.7320794,-2.5614893,-0.90903234,-0.32121304,0.87116385,-0.121690676,0.6832106,-0.7103095,-0.6208177,-0.49704304,-0.66108626,0.45818153,0.41079137
MMRF_1356,-1.1141834,0.7621351,0.23474997,-0.5917754,-0.45274085,0.44097838,0.68794125,-0.67808586,1.3902369,-0.1295264,0.33895165,0.46085873,0.5898371,-0.60253984,-1.5288783,0.3056066,-2.5335174,0.33601496,0.79774374,0.13964862,-0.4975158,-0.6461083,-0.96269965,0.5488273,0.12495196,0.019775199,0.37357214,-0.8833242,0.2925529,-1.5407071,-0.8471974,-1.0767877,0.59981537,-1.3031445,2.0602965,1.6749283,-0.006839684,-1.0527648,1.6957915,-0.4664811,-1.685976,0.07952074,-0.8798278,-0.79746866,0.68804485,0.67278636,0.5659205,-0.16443557,-0.5608972,-1.4037796,-1.2379187,0.16076267,2.160704,0.8215857,-1.2814236,-2.0292554,0.5959787,0.06622882,0.41626802,0.12331365,0.5180197,0.07021814,-1.5052947,-0.69268125,1.360039,1.1136065,0.8206538,0.36620036,-1.6835831,-0.2549296,2.398044,-0.036114484,-0.6675051,-0.26206487,-0.6677963,1.7149822,-0.17467818,0.072094224,1.2291292,-1.8535612,-2.3959677,-0.27103698,0.7276089,0.93736,0.99137044,0.034209196,-0.26326883,0.30317125,-0.050237067,-0.8131252,1.6128019,-0.3101529,-0.1714694,2.2550192,-1.393184,1.4266671,1.3945029,-0.77382284,0.6951477,-0.5171788,-0.98940456,1.08863,0.0446106,-2.1202452,-0.15914464,0.57723397,-0.10118511,0.48370305,0.6306699,0.053487495,1.5755994,1.4554064,-0.6236842,1.040188,0.24641949,-0.8573552,0.46718383,-1.0668077,-0.2656219,-0.49645007,0.76928496,0.31964254,1.7359891,-0.4690737,-0.23841426,-0.1472757,-1.4183965,-0.13283522
MMRF_1270,0.98472965,2.1259964,-0.59486234,-1.5141515,-1.0404527,-0.14714153,-1.0632272,-0.46738386,0.07462591,-0.34800434,-0.91224116,-0.48771408,-0.60972285,0.71117496,2.1643918,0.62527347,-0.8833318,-0.53677106,0.5586701,-0.650275,1.9482332,-2.1317108,-0.33041155,0.116666235,0.3786083,1.8702259,0.78983414,0.6682469,-1.2045271,0.9844673,0.6000525,1.0141115,-0.6216574,-0.39570454,-0.59499305,-2.8513649,0.9174838,-0.51695883,1.4126008,0.8474864,-1.1493905,0.099215224,0.45292398,-0.99256593,-0.41659278,-0.0986069,-0.33024177,0.27719697,0.0027797893,1.0477874,1.1263547,-0.616519,-0.65999323,1.7718389,0.1980751,0.5924062,0.20776244,0.644811,-1.0742159,0.07344748,0.20706528,0.7750144,-0.27397013,0.09865229,-1.2453132,0.7254393,0.9711974,0.055450354,-0.8831175,1.5121666,-1.0025994,0.24964723,-0.30846998,0.42000338,1.2609353,0.49352896,-0.16753045,1.1225957,0.44200367,-0.28271168,-0.403282,-1.2021943,2.4242132,-1.685136,-0.48699865,-0.6971635,-0.13632141,0.1984583,1.6967473,-1.7455804,-0.5247266,-0.7523891,0.7120802,1.1100314,0.57656366,-0.1256416,-0.44022867,-0.5753648,1.0105524,0.50930905,0.37363186,-0.81719714,0.589358,-0.24357146,-1.1035086,-1.0276195,-1.2058169,0.617346,-2.1227899,2.5631206,2.0770452,-0.71142435,0.4597131,0.18917158,-0.7692785,-1.4297483,-0.50115037,-0.21333307,0.2771469,-1.7698381,-0.723077,-0.48085335,0.69404584,-0.48317042,0.4306988,-1.8524208,0.50385135,1.0064667
MMRF_1323,-0.28747082,-0.21789195,-1.9788728,-2.06188,-2.0664153,0.81023633,-0.14189757,1.5903382,0.23027559,-0.24614257,-1.0381291,0.29607978,0.10295665,-0.84534115,-0.60036916,-0.749474,-0.50530016,-0.032945298,1.1867747,-1.4361923,0.4267342,-1.7716466,-0.9132174,-0.10795873,-1.4503894,-0.3083851,0.46169913,0.15358539,0.016820978,-1.6130455,0.15394834,0.27156428,-0.9156016,-0.93952847,0.1881911,0.69890565,-0.13795274,-0.18710396,1.986455,0.626527,0.93923825,-1.3240459,-0.3928222,-0.4330326,-0.087214135,1.419707,0.33209017,1.2115296,-0.09868877,-0.4424256,0.4915194,-0.039493985,1.3638486,1.8565469,-0.3952652,-0.9749636,0.99925226,0.57289994,-0.09658405,1.3454747,-0.00016377866,0.28730178,-2.3798177,-0.75335115,0.5984703,-0.34691975,0.6561705,0.023412017,-1.2345384,0.47266144,0.802531,0.828568,-1.2209018,0.8919126,0.5563034,0.62438715,-0.7179603,-0.8199859,1.4873538,-2.2306526,-0.90426445,0.59532297,0.118134856,1.3135397,-0.03053244,-0.5095555,-0.2419682,-0.13594861,0.6122056,-1.0370975,1.8535488,0.55313766,0.62801015,2.2612233,-1.6494688,0.5471932,0.8752072,0.5751629,0.42413843,0.22975236,-1.0115508,2.1255176,-0.14446242,0.6383095,0.044014014,0.34621382,-1.2439007,0.94851774,-0.97889954,1.0866423,0.41515762,-0.16482973,1.5459172,0.98993385,0.32460454,-0.88117296,0.49659413,-0.07889916,0.8022708,-0.7148516,-0.9088841,-0.9921008,2.4284976,-0.2955138,-0.58544844,-0.98085725,-2.5911467,0.82065904
MMRF_1180,-0.375615,0.54829264,-0.33351317,0.58220667,0.024080247,0.97803664,1.3727822,-1.1850756,0.4364611,-0.9247973,0.13511837,0.20334797,-0.17763954,-2.0440714,-0.45203426,1.2692113,-0.3444155,-0.28740814,0.12836386,-0.6817998,-0.93188804,0.07492284,-0.5002608,0.89565724,0.4613972,-0.27404782,0.07554648,-0.9032707,0.024154544,-1.665824,-0.07514076,-1.2590474,1.2761219,-1.7702804,1.5463771,0.6982559,0.23544416,0.24994609,2.076441,0.25339526,-1.4097761,0.7314127,0.09715238,0.3247191,0.38120943,-1.0819641,0.94659704,-0.036000725,-1.7749768,-2.4438787,-1.7851218,-0.6380133,1.895341,-0.18901463,-1.172939,-2.4785464,1.8146315,-0.16504355,0.35094434,-1.1939402,0.30051014,0.9852867,-0.8273085,-0.09296948,-0.08061265,1.191793,0.80697197,0.57023644,0.43297374,0.60380524,1.1774467,-0.053081453,-1.4820132,0.025436198,-0.7068853,1.0956011,0.5047194,-0.26163062,0.12371225,-1.184686,-1.4563013,0.4320006,0.122027375,0.025452489,0.99751717,1.4733642,0.09292379,-0.40989366,0.72171277,-0.7550114,2.8466465,-1.1839687,0.12830192,1.7117434,-0.3680601,1.902669,-0.09223231,-0.49056676,0.0061123455,0.21222983,0.28993204,-1.233968,0.8657349,-2.303412,-1.1921523,0.16497381,0.76143473,-0.8422036,0.023028545,0.12787263,-0.028147854,2.0374765,-0.027326837,0.027199304,0.18668531,-1.2543184,1.8420194,-0.31749365,-1.2207458,-1.0837072,1.4009173,0.40770498,-0.67051184,-0.21488315,-0.4610203,1.2198498,-0.013869047,0.91141295
MMRF_1188,1.1037948,0.00946821,-0.50110465,1.3745835,-1.0102904,-0.3903679,-1.6044405,-0.9286057,-0.8802954,-0.5454645,-0.65079594,-1.507917,0.3704726,0.4948041,0.28048247,-0.040441085,-1.1350105,-0.51600164,-1.6078308,-1.1340351,1.4183905,0.040212404,0.9722055,-0.582285,0.72986525,0.08854294,0.4963748,-0.109209195,-1.7278428,2.3017805,0.18314943,0.29141682,-0.17904182,1.7967389,-0.019564578,-2.4575343,0.6738876,-1.1211035,-1.3507384,2.3031664,0.43581805,0.97955996,1.5627123,-0.9874961,0.078032814,-1.2720897,1.3980826,-1.1557323,0.20903459,2.1754692,0.57955045,-0.14737196,-2.0110154,-1.9142532,1.6536943,0.3793302,0.59793025,-0.38406372,-0.15803914,-0.5064184,0.35699067,-0.8664017,1.4854591,-0.10559589,-0.61221564,-0.37705407,0.5168449,-0.2752276,1.3296169,1.7653666,-0.0744347,0.37114415,0.33124423,0.87711847,0.46390414,-0.18465404,1.9663746,1.2248303,-1.093719,0.09364554,-0.073646165,-0.44603804,1.2946421,-1.5273975,0.3035681,-0.17615604,-1.1429015,0.05412018,0.98717946,1.4462928,0.36203757,1.8465533,-0.08195057,-0.010720129,0.42357314,-1.1098373,-0.6248793,-0.20723881,-1.3227903,1.4831711,-0.69924086,-1.3504734,0.13314976,0.021736307,0.4757531,-0.35003555,-1.2985008,0.37333795,-0.7977633,1.0205808,-0.8418788,-1.5617487,-0.56554866,0.13758704,0.47918507,0.12919849,-1.3288223,0.121052206,-0.7085625,-1.4372895,0.6188036,-0.0036265189,-0.73124987,0.40324396,1.196559,0.9307693,0.7932239,-0.25144267
MMRF_1300,-0.0743166,0.35211197,-0.49729806,0.8720103,0.68687695,0.2296003,1.6240184,0.6858773,-1.8628788,-0.22123984,-0.09951152,2.0674033,-0.9808446,0.63166875,-0.36156613,0.19587561,0.78812265,-0.74139965,0.2400229,0.09197546,-0.4262168,-0.43211696,-0.33688587,-0.27971202,0.19502285,-0.18548545,0.23647308,0.40292338,0.65629214,-1.981467,-0.70805246,-0.6613575,0.6419721,-1.1109719,1.9541972,0.80500275,0.5154432,-0.56937563,1.3619003,-0.72939086,-1.0480388,-1.1594489,0.01086002,-0.82357264,1.3593702,0.04984184,0.59076476,1.13058,-0.79104936,-0.42573333,-1.1161035,0.91587794,0.5652513,-1.4340944,-0.526373,-1.7969843,0.22941187,-0.89077085,-0.14818066,1.5725274,-0.13894756,0.32691815,-0.74180907,-0.9434515,0.96940494,-0.23725322,0.091656506,-0.3598435,1.0267931,0.46180788,-0.28174788,-0.4900951,-2.4263322,0.8771274,0.6882824,-0.04322157,0.8162051,-0.32757547,1.647369,-1.4651383,-1.3368474,0.26774663,0.5754721,0.2588506,1.9465419,1.1023436,2.3518515,-0.87342155,-1.2405916,-0.8114406,-0.42594936,-0.40263602,-0.6200317,0.57127213,0.025362685,0.32397085,0.24654771,-0.03987387,-1.587331,-1.9169968,-0.29287133,-0.59393686,-1.0070872,0.14243223,2.0533457,1.1644025,0.9095178,-0.095923804,2.1894453,0.20716926,-1.3107822,1.3955784,-0.3695612,-0.79463863,1.2980938,-1.5371505,1.669748,0.34118733,0.89795,1.1648333,-0.49334648,-1.384524,0.6680119,1.2416563,-0.66158956,-2.3809338,-1.0176077,-0.4782946
MMRF_1331,-0.39982346,-1.0866517,-0.24767223,1.3086252,1.7193062,0.065738566,0.05266477,0.8177951,-0.92119753,0.5113414,-0.33624738,-0.732241,0.6291822,-1.7324253,-1.2609261,-0.6396266,1.2764249,0.8047731,-1.3581642,-0.15671048,1.2105656,-1.0303915,1.220108,-0.53400874,0.7515527,-1.3551861,-0.28678212,-0.46290997,-1.0004297,1.0920091,-0.40566257,0.87613064,-1.5570468,0.59848255,1.4950567,-1.4089816,0.094515264,1.3226793,-2.40612,0.34253505,3.291338,-0.16657653,-0.46030384,-0.123062015,-2.8147154,0.015038602,0.18303853,0.060814463,1.1275512,0.7754237,-0.2399519,-0.2171302,0.21434468,-0.74222195,0.8970763,-1.7635733,1.0838956,0.57831407,0.7488907,1.8270873,0.26259032,0.61422426,-1.5274577,-0.6110192,-0.3522153,-1.7840595,-0.6484877,-0.152101,1.9476554,-0.7679083,0.14703014,-0.46359432,-1.419632,0.5005824,-1.540362,-0.9542402,-0.7492442,-0.11192609,1.1413926,-0.19260135,0.8069242,-0.35421336,0.4709251,0.92353946,1.0263498,1.0020388,-0.27678972,0.19689737,-1.7022456,-0.046392776,0.4722577,0.55021757,0.7371149,-0.4685382,0.34058052,-0.19141664,0.5479902,0.19452575,-0.676837,-0.9149986,-1.3637279,0.20631725,-0.8082785,0.8311247,1.4318603,0.41062304,-0.53364974,1.2371199,0.026835226,-0.48003095,-1.8685535,-0.0345343,0.37905645,-1.8152363,0.6886962,0.18228427,1.0216912,1.9255642,-0.3290259,0.9235023,-1.1069493,-0.44462934,0.90161467,-0.33121455,0.96184,1.2205937,-0.24053033,-0.040097646
MMRF_1185,-1.0821606,-0.60347867,0.8630868,-0.3754081,-0.1780983,-0.78184736,-1.4580878,0.3017295,-1.0080155,0.54448044,-0.5245033,0.8392413,-0.57521963,0.8223881,1.7950131,1.4515313,1.1925402,0.58255196,-0.83103234,0.8208809,-1.8545183,1.2598017,1.0788904,0.66840243,1.1655275,0.94513726,-0.24808756,-0.3143446,-0.7012432,-1.1139944,1.9314363,-2.2079508,1.3920442,0.25042513,-1.8099388,-0.38002434,-0.11219623,0.6689687,-0.35260102,1.2039187,-1.5232289,1.0290821,-0.1213306,0.9417661,2.7759953,-0.57988095,-0.12100575,0.68859917,-1.630401,-1.1675158,-1.1064304,-0.24204361,0.54134816,-0.94180244,-0.15050174,0.85546225,-0.612729,-0.6883393,0.6300013,-0.5346696,-0.7796311,-0.6014037,2.019154,1.5095322,2.1416652,-0.28140143,-0.41271198,0.1092433,1.6730746,0.67164016,-0.011275852,0.38129175,0.8302774,-0.36807802,-0.81468344,-0.2911357,1.0103714,-0.33724797,-1.0303258,1.3468155,-1.6505549,0.34622937,-0.47080463,0.231478,-0.4445184,-0.18014534,-0.5297407,0.8714265,-0.30178523,1.8683038,0.2302135,-0.9758862,-0.3697213,0.2777499,0.18443173,-0.14029902,0.2126542,-1.1179953,-2.4579124,0.23387332,1.2474695,-1.5528429,0.40813476,-0.23340762,0.10690833,0.2704865,1.4179549,-1.6513592,1.119346,-0.97847354,-1.5446191,1.060806,-0.270857,0.41586807,-0.90073186,0.64598316,-0.22930957,-0.7447324,-0.19021852,-0.18771966,-0.65369487,-0.69910985,-2.26253,0.93623394,0.3953299,0.7405927,0.037807293,-0.5685447
MMRF_1348,0.44914392,0.44793722,-1.3958552,0.05969227,-0.41157112,0.5769382,-0.8411412,0.03332847,-1.183271,0.25235954,-2.0846505,-0.098462984,0.22525038,-1.5060825,1.0604194,-0.60794234,0.5283283,-0.16774532,0.89465606,-2.385363,1.3378154,-0.9610825,-0.6668847,0.065667376,-0.969166,0.52300227,0.34913003,-0.34195194,-0.40323249,-0.015255874,-0.3255082,1.0759158,-0.22586367,0.51603764,-0.99583215,-2.1088283,-0.3139305,1.4253207,1.1970665,0.64029133,1.3413491,0.71998495,0.5089901,1.3280334,-0.7363824,-0.17849071,-0.03404038,-0.13408807,0.16365176,0.9547434,0.98264915,-1.4281635,-0.68865025,0.7236431,-0.5589298,0.077071846,1.0230927,1.508496,-1.1684438,-0.17926979,0.24001838,1.7811261,-0.06643967,-0.74667346,-0.66034406,1.0520608,0.89895624,-1.13241,-0.74184805,1.2714676,0.1295377,-0.34031087,-1.1566666,1.0358666,0.11379515,-1.7127292,-0.887358,-0.28821692,-1.2254807,-0.5424849,0.9510392,0.06399118,0.31958115,0.8041983,-1.6151526,0.9517606,-0.82392204,0.004874,2.3284538,-1.1018882,1.4653155,-0.47047937,1.4153391,0.7639891,-0.5803476,0.10898492,0.64093757,0.33282286,0.75400716,1.9093302,0.9660601,0.2330542,1.3827674,0.11155243,-0.23171706,-1.3792826,-2.3373494,-0.5700556,-2.1968026,2.2658675,0.9384027,-1.17903,0.90515876,0.36074784,-0.6597619,-1.3281345,1.2933042,-1.0249186,-0.1296239,-2.355669,0.0318723,-0.25638098,0.2603078,-0.5022107,-0.029760506,0.22126566,1.206312,0.8921615
MMRF_1284,0.1624193,-1.8813295,-0.5228073,0.24947597,-0.27535686,-1.3400214,-0.72854275,1.3054043,0.4392333,0.90789175,-1.1288841,-0.107199326,1.2050973,-1.9880247,-0.6679466,-0.21513832,0.73644096,-0.44090787,1.505181,-1.4936348,1.0252341,-0.54484195,0.29072237,-0.71397597,-1.2074075,-1.3556538,-0.9907546,0.5391648,0.38639086,0.06789721,-0.94772315,0.1332549,-0.96714383,0.50041777,-0.46222568,-1.16684,-1.0049363,1.2733783,-1.868152,1.1058465,1.5441705,-2.112267,0.15759586,2.7751648,-1.6174653,-0.04960943,-0.19517916,1.5306622,1.7066631,0.26804486,0.5088911,-1.3964514,-0.03565909,0.49738967,0.7455488,0.73852724,0.661142,-0.46658632,-0.3910356,2.5742726,-0.78339183,-0.31448376,0.4140994,-1.0692612,1.4488037,-0.8677032,-0.44133484,0.07231094,-0.6467897,-0.2335176,0.541266,0.23761411,-0.8327495,0.79430914,-1.6591293,-2.014511,-0.7180996,-0.57748824,0.98252827,-0.06719675,0.64090294,-0.120260604,-1.0738586,2.0468163,-1.8212607,-0.16661994,0.2320078,0.8260979,-0.52218527,0.26646027,-0.4751013,0.061425082,1.4340664,-0.008134722,0.17276864,0.47677106,0.30029756,-0.17476413,0.9010508,-0.4315606,0.2576299,1.4010496,1.8702211,2.1136122,-0.7928541,-0.8381875,0.8226796,-0.11688713,-0.39117894,0.5640977,-1.7088205,-1.294321,0.23548888,0.100963846,-0.26848543,1.5635275,0.48751575,0.2555598,2.004863,-0.25616655,-0.7200756,-0.71871793,0.0052706376,0.3772405,0.43327993,0.16460072,0.31908983,0.067478955
MMRF_1202,-0.41083798,-0.8298292,1.1630687,-1.2896008,0.49181595,0.5023961,-0.64312905,-0.59130967,1.0156906,-0.07369015,0.55523425,0.4472884,-0.79873395,0.47497067,1.3162024,0.786047,-0.234135,-0.16215922,0.5070397,-0.21498041,-0.19127908,-0.4382709,-1.8657867,2.5087626,-0.72488236,1.0188628,-0.71376544,0.122624576,-0.5294109,-0.374631,-1.0901352,-1.7313629,1.6096743,-1.252667,0.6042303,-0.44930878,-0.5110553,0.9125702,2.4211297,0.31714013,-2.4738364,0.63367003,0.20145725,1.13573,1.3432835,1.4393134,0.5716447,0.3875809,-0.7652562,-1.9385269,-1.161704,-0.7797817,1.3613917,1.0618176,-1.4991194,-1.091592,1.4125832,0.49357784,0.11873323,-1.4209362,-0.06898725,2.1191492,-0.5228339,-0.069193155,0.354895,1.2044204,0.5409469,0.38812014,0.3495023,0.08400651,0.8688677,0.3961257,-0.02224918,-1.0735265,-1.0223961,-0.3941515,0.25215128,-0.73915374,-0.08523911,-0.5451866,-3.0831487,1.1635101,-0.0029791996,0.5164064,0.948276,0.66278046,0.2810376,0.12244906,1.7205836,0.47068623,0.5184727,-2.6620758,0.40811288,1.3044575,0.11228347,1.4565306,1.2558583,-1.0437168,-0.047239494,-0.7346168,-0.6999156,-0.45026693,0.5525211,-2.1459908,-0.96985614,0.4659729,1.304871,-1.6240162,-0.057614617,1.061843,0.5006952,0.7939243,0.08956605,-0.06471215,-0.7086551,-0.27485234,0.04741883,-1.7379396,-0.3559753,-0.6001612,0.63130826,0.34046283,-0.7101635,-0.94501704,-0.27513558,0.27042836,-0.045072805,-0.44861814
MMRF_1466,-0.14100328,-0.8590933,-0.17292133,0.28294867,1.8024563,-0.8809506,0.5684069,1.1473987,-1.0233153,0.71466374,0.4006217,0.74730283,0.42583758,-0.22619367,-0.0966752,-0.24859081,0.19821736,0.5178924,0.23236866,0.12495634,0.54094946,-0.6448555,1.253983,-2.8066676,0.68398124,-0.37446982,0.22379032,1.8288641,1.5162207,0.118594095,-0.079303935,2.2854855,-1.0714138,-0.4649081,1.3665334,2.219684,0.706121,-0.08469243,-1.1741916,-0.37885952,-0.007893035,-2.0844908,-0.50940007,-1.4233353,0.15489227,0.7982844,-1.3975531,1.3820988,1.0924139,-0.3136476,1.4130446,-0.34044534,0.3732146,0.5897127,-0.81530136,-0.51009005,-0.5988197,-0.9423663,0.05140514,1.5928044,-0.040545296,-0.65984505,-2.701552,-0.9562121,-0.20132022,-0.769027,0.65602165,0.3862461,-0.16810921,-1.1441503,-1.0848495,-0.67272675,-0.1439557,0.9600735,0.32316503,0.29879713,-0.54601264,-1.3853542,1.3765045,-0.38976824,1.1905289,1.6090735,0.0043989304,0.64935726,-0.44375482,-0.74888223,2.1708574,-1.4026207,-0.48889893,-0.006313568,-1.1431134,0.6289062,-1.0055956,-0.6375768,-1.8383236,-0.07090534,0.31238645,0.7871049,-0.42155388,-1.3404487,-0.71921057,0.7074197,-1.5222355,1.1464999,1.0171386,0.33075038,-0.96965265,1.5662372,0.1627381,-0.0757824,0.14575025,0.199215,1.0770547,-0.6664359,0.9096433,-0.3681381,1.1981797,0.9706598,0.03261962,0.5599598,-1.8580321,-2.3101668,1.1898525,0.21648411,-0.0866244,0.03691855,-1.5777755,0.15804291
MMRF_1446,-0.039840642,-0.79181343,0.49008802,-0.2923048,0.5702653,-0.7385317,0.12011258,-0.593321,0.016115848,-0.037217382,0.32105392,1.2886815,0.09974507,0.11578588,1.481096,0.43989497,0.65031165,1.000187,0.7198245,0.149616,-0.32286665,1.7679491,-0.027643079,1.4303362,-0.5759233,1.2394776,-1.2431476,-0.25547194,0.8351848,-0.9769564,0.6616877,-1.5564424,0.7737252,-0.17840332,-0.7610737,0.15709582,-1.4096403,0.7728404,0.5480517,1.6449866,-2.3127325,-0.95569474,-0.3561108,0.30246383,1.8110163,0.1195612,-0.73799866,1.0073347,-1.5196655,-1.9193494,-1.5524856,0.67647535,0.06964042,0.19221912,-0.5599387,0.72816586,-0.016238114,-1.2924567,-0.74596405,0.44355473,-1.5718123,-0.7064238,1.0557745,0.20947726,2.2913728,-0.13017416,0.36210626,-0.12519561,-0.5493617,0.7611701,0.08759574,0.26468882,1.4778743,-0.056635745,-2.317284,-1.5900028,-0.041918434,-0.92045605,-0.5579743,0.34398016,-1.6244568,1.3930557,-1.8145314,1.647742,-0.6989877,1.6662002,0.95758337,0.5125924,-1.5343657,0.68803185,0.55977273,-2.0192714,0.06290985,0.3281615,0.22414936,0.96466964,1.4930848,-1.6108525,-1.439185,0.8147901,0.3304604,-0.2113881,0.50859857,-0.53301096,-0.07719719,0.45382687,2.0886576,-1.1557425,0.41349304,1.4150025,-1.4811951,2.0717492,-1.6747334,0.27559847,-0.55752647,0.60501635,-0.3883469,-0.052300673,0.5808017,0.9044111,-0.28100762,-0.17138058,-0.9643201,-0.24048941,-1.3292894,0.2444136,0.026069086,-0.48136768
MMRF_1447,1.0211171,1.0048873,-0.91527,2.104897,-0.22818743,-0.14796065,-0.95142025,-1.3256721,-0.6644183,-1.2213581,-1.1499461,-1.2611767,0.36419326,-0.0111416,1.0583128,-0.5874263,-0.26628098,-0.8849721,-1.6618903,-1.5121884,1.3930353,-0.5298186,0.6440425,-0.29512328,-0.13307086,0.7363406,1.5522313,0.29343483,-1.0151416,1.9543281,1.1049865,0.55731726,-0.231038,0.64922327,-0.44633952,-2.0243695,-0.15770137,-0.12594837,-0.9412709,1.8579828,0.62652475,0.6554806,1.4946045,-1.3464785,0.18809846,-1.3394153,0.53770095,-0.28749612,0.11772931,2.8928156,0.83619714,0.08688289,-1.4166247,-2.1426806,0.78780603,0.96105707,0.07091817,-0.23600689,-0.19152936,-0.30189458,-0.27236202,0.20586886,1.0317063,-0.10091522,-0.70323694,0.7645184,0.05226505,-0.11030913,0.27040732,1.3317677,-0.80570465,-0.03471137,-0.52361387,1.342614,2.0602248,-0.22915965,1.8917891,0.8173937,-1.6759267,0.014771479,0.626788,-0.23948452,0.852202,-1.0395749,-0.7914956,-0.03551769,-1.4989194,0.012163118,0.016920457,0.90801865,0.03757643,0.27049702,-0.03384797,-0.7421905,0.84859264,-1.1975716,-0.60328585,-0.8219616,-1.3440175,1.7821555,0.33442116,-1.8596709,0.18713602,0.5822038,0.7058467,-0.89223117,-2.3705122,0.3402197,-0.84642607,2.1292937,0.37743708,-0.89325595,-0.92402685,-0.38929182,-0.08292468,-0.4456599,-0.54449004,0.37757877,-0.38442576,-0.8441553,0.35093412,0.9047428,-1.0600607,1.3573996,0.8790371,0.2926856,1.3245102,-0.5075282
MMRF_1445,1.3153346,0.49192083,0.88266975,-0.08958911,-0.87601155,-0.18780048,-1.0444692,-1.2514913,0.8580975,-1.3930602,0.82616144,-0.2900994,-1.1363442,-1.2138007,0.66188467,0.5986951,-1.9784834,0.38950405,-0.3712917,-0.39227006,1.2143373,0.4905031,0.90592325,0.4628287,-0.5528947,2.1754591,0.040334243,-0.8312083,-0.57180566,-0.1965913,0.2476348,-1.4928851,0.8248683,-1.3059437,1.1237061,-2.4909692,0.14223675,-0.0021688892,1.7251537,1.1121197,-1.1149762,1.5227013,0.6263347,-0.39422777,-1.594558,-2.1055977,0.35608053,-0.7102108,-0.942059,0.32102898,0.2443746,-0.96129155,-0.41958386,-0.28872004,-0.027543453,-2.1882665,2.094925,-0.3301063,0.11730592,-0.77311975,0.6799297,1.1660471,0.95324105,0.3002752,0.28901902,0.9468596,1.566209,-0.46961996,0.015277256,0.54485774,0.421873,-0.9067071,-0.87196094,0.92429626,0.2621996,0.5808073,1.2719669,-0.34241858,-0.010935386,-1.4483653,-1.0001119,-0.37131757,0.96023107,-0.6930559,0.16821913,0.77726746,-0.8847176,-0.9621697,1.0267153,-1.5675848,-0.013865658,-1.0452403,0.8294674,0.15171008,1.1515303,-0.20052665,1.3462011,-0.8483947,0.66660786,0.25108853,0.352493,-1.0319989,1.1641425,-2.038736,-0.5913533,-0.4826574,-0.58059037,1.4303241,1.0562657,2.0756412,1.9780036,1.618982,-0.118199274,-0.92596,0.11911838,-1.5866286,0.92894685,0.815091,-0.74637353,-1.3677236,1.2002304,0.003273339,-0.9285515,-1.105595,0.021997321,-0.19319963,0.4615168,0.6012915
MMRF_1433,-0.38497758,0.09753347,0.83353627,-0.72323996,-0.7012414,0.9506852,1.3212738,-0.7412097,0.6964623,-0.44638148,0.8587182,1.3879168,-0.5302952,0.0054963385,-0.4452131,0.71844834,-1.4140626,0.6149093,0.23466173,-0.16870262,-0.5340018,-1.2549804,-0.2678612,1.6273804,-0.81878394,0.6731223,0.5818285,-1.1844984,0.52800906,-0.20979169,-0.5715614,-1.2730525,1.2430092,-1.3136501,1.8303965,-0.09846742,-0.044514384,0.10289587,1.9434931,-0.9414146,-1.7515821,1.022189,-1.2031429,-0.4427735,1.3058432,-0.8547456,0.5343064,-0.47203657,-1.0905929,-1.1839875,-1.2591336,-0.37527782,2.820356,0.12611014,-1.3523402,-2.0881522,0.71794474,-0.3999301,0.72845966,-0.6045826,0.6860247,1.8351557,-1.1988968,-0.31615457,1.0704367,0.42134237,0.5038472,-0.41464543,-0.73215026,0.23754731,1.3980623,-0.9561348,-1.5602305,-0.7862792,0.105285466,0.709486,-0.7090871,0.87328297,0.7227599,-1.2847282,-2.1617162,-0.84050983,1.2699364,0.22669777,1.8800006,0.99147666,1.0905112,0.03786377,0.51051635,-2.007739,0.1718935,-1.7894185,0.641353,1.3787471,-0.31981868,1.2506291,0.15503131,-0.60094327,0.4343175,-1.2533294,-0.3940958,0.086612284,0.6584279,-1.9193763,-0.46769655,0.7658,0.51683474,-0.61491436,1.2324291,0.22769353,1.504847,1.3188767,-0.20857666,0.56523955,0.7905868,-1.4604778,0.80681753,-1.5792074,-0.10430977,-0.22773385,0.48716825,0.4733389,-1.0493102,-0.20825411,1.7423164,-0.7980931,-0.10744101,-0.065728255
MMRF_1434,-1.3259101,0.3211181,0.1704936,-0.26860875,-0.54640293,-0.24064304,-1.384493,0.15035978,-1.112733,0.7020053,-1.1451575,-0.6780596,-1.1734378,2.1669374,0.79057854,-1.6768284,1.3157002,0.22465709,-0.65468407,-0.082203224,-0.6218891,1.3860106,-1.3512545,0.122300565,1.0081569,1.5449396,0.37401852,-0.4967394,-0.6790654,-0.22150485,0.34673914,0.19394891,0.90435565,0.91129893,-2.335785,-1.1832614,-0.05803378,-0.682329,0.4388161,0.75364465,0.09382876,1.7620609,1.2535012,0.6804194,1.9434779,1.1967204,0.91813326,-1.1607119,-0.61788195,1.1511438,-0.6119831,2.0169454,-1.4933856,-0.79842067,0.77924216,1.7446486,-1.001349,1.0564406,-0.9356132,-2.08324,-1.3225632,-0.042394258,1.0990193,-0.51348597,-1.4930451,0.7835634,-0.5234136,-0.25129792,1.1310488,0.24541752,0.21893251,1.9371891,1.9888511,-0.31583047,0.05242065,-0.8095618,0.46301004,0.48448843,-1.1036093,1.2223825,-0.5809237,0.28374738,0.54921454,0.28125206,-0.19450305,-1.0592384,-1.4241915,0.13188119,1.1604347,2.2100897,0.9833256,-0.5720781,-0.10054081,-0.58014154,-0.14638112,-0.38020927,0.58850974,-0.56440663,-0.9030501,1.3170727,1.0053885,-0.5246831,-1.1547765,-0.18877077,-0.6757989,0.15702063,0.6197741,-1.399088,-0.39465398,0.8293043,1.4343352,-1.6252735,0.22293347,0.9807994,-0.1543922,0.24368583,-2.7176187,-0.41603485,-0.46047825,-0.56703824,0.20309132,0.30141288,-0.36294645,0.4073855,-0.41638592,-0.7123018,0.5723883,-1.1781166
MMRF_1436,-0.6591884,-1.3191514,0.5057416,0.5116574,0.69245934,-0.033599123,-1.5510404,0.74205047,0.26013094,0.6151076,0.0022421442,-0.46410933,2.3243396,-1.7702923,-1.4844097,0.42866868,0.35019368,-1.2833681,-1.2583114,-0.20986186,0.092443265,0.67576885,1.3833209,-0.2811772,0.8746026,-1.8517219,-1.2360396,0.39729276,0.3714975,-1.0179969,0.511108,-0.17263933,-2.0263133,1.3454428,-0.24880558,-0.75936705,-1.3131201,0.8306545,-2.576299,0.6399924,1.9337242,-0.39329478,0.5659193,1.3240416,-0.48406833,-0.59268844,0.7277464,0.92400086,0.29914552,0.36855945,1.0952475,-0.67468464,-0.5360685,-0.37750164,1.2166145,0.59304667,-0.41112804,-0.46099758,0.53732437,1.2596451,-0.2550022,-1.0088694,1.2473893,1.4541891,0.6755377,-1.7111546,-0.73311174,-0.27702913,0.17241803,-0.9617622,0.44080073,0.3536225,1.0934265,-0.31169927,-0.85004103,-0.17504898,-0.51032645,-0.64703315,1.3832678,0.08681495,1.511106,-0.49028555,-0.87520343,1.5901154,-0.56246173,0.31213433,-1.2709903,-0.24066988,-1.4218582,2.3074248,-0.61553156,2.0221403,1.0878426,0.40787485,0.4229726,-1.9058627,-1.562172,-0.5326697,-0.0661307,-0.5141313,-0.008164769,-0.30598807,0.6902044,2.0198152,0.004110283,-0.012405452,1.0198882,-0.117026664,-0.15890771,-2.2324216,-1.4086683,-0.9767502,-1.0898389,-1.3091508,0.15036327,1.5616208,-0.04579846,0.5738452,0.65891546,0.8018707,-1.0993216,0.44816136,0.55327743,1.0304083,0.71079165,0.12657858,0.18850802,0.28502038
MMRF_1424,0.3346089,-0.32194328,0.887937,-0.39411533,0.42134953,-1.2260065,-2.332375,-0.51732206,-0.0139951,-0.12285779,0.51857907,0.63278383,-1.0043126,1.9907734,1.8995634,0.21841227,0.67058134,0.7297464,0.19300483,1.5298588,0.58861953,1.0077883,0.73326916,0.30290163,1.1552943,1.2319769,-0.5214689,0.62793535,-0.16499047,0.21813598,-0.8658149,-1.9755888,0.6498569,-0.1048002,-0.46988022,-2.1413367,2.1313088,-0.2166832,-0.12897193,1.4082724,-1.9398031,0.23025502,1.1401808,-0.42751026,2.1145318,-0.70083976,0.97119683,-0.53997546,0.3146058,1.1317989,-0.6449902,1.5492612,-1.2999768,-0.30292574,0.78674966,1.5884062,-0.6708085,-1.6708404,0.22616668,-0.58339804,-0.92521536,-0.69883597,0.47404376,1.0705414,0.5558282,0.36557493,1.0609434,-0.31048155,1.3779942,1.1262642,-1.0519314,0.26938933,0.73554873,-0.6339441,0.5352278,-1.1451801,1.5818806,0.7880861,-0.93426013,-0.15685293,-3.2756982,0.56172836,0.22340052,-1.0468177,1.3579208,0.19222337,0.10049626,0.38409698,1.1928986,0.6665259,-1.3673056,0.07345845,0.29165107,-0.22736025,0.024037067,-0.5231521,-0.27805176,-0.99377304,-0.7732626,-0.5346181,-0.42297518,-1.0122013,-0.92775226,-1.9778011,0.3304789,0.44253537,1.165219,-0.33298138,0.06989358,0.4833681,-0.47544777,0.26937476,0.17517859,-0.20586085,0.8700886,-0.49009827,-1.8722394,0.57873493,0.29792476,0.9173434,-0.90158004,-1.1296223,-1.879456,-0.13508408,0.025084881,-1.4664711,0.20417522,-1.5735149
MMRF_1425,-0.70276994,-1.5230151,0.54117256,1.5252795,1.7252249,-1.4472454,0.63278186,0.12192294,-0.05348846,0.77091444,1.0954361,-0.33032322,1.013194,-0.23650326,-1.7856492,-2.035335,-0.22116679,-0.70667845,-0.15960507,-0.3077911,1.6135758,0.32401168,1.2762924,-2.0158732,-0.97341985,0.91244394,-0.098479986,0.31655788,2.19295,2.5385337,-1.4546643,1.0830625,-1.2780579,0.66533405,0.0006343697,1.0537899,-0.32546827,0.9367726,-1.715353,-1.7547691,2.0082073,-0.42618638,0.04657863,0.48310345,-0.71023536,-0.44962475,-0.7824724,-0.64621633,1.0698942,0.5656572,0.3914899,0.3912804,-0.37160274,-0.6988013,-0.18477485,-1.0205433,-0.92834806,-0.45189735,-0.27332774,0.037235677,-0.15671645,0.60479015,-0.5932466,-0.97436845,0.16840959,-1.2689312,0.38942838,0.020563107,-0.525604,-1.9431845,-0.8064266,-1.0152197,-0.59501153,0.046680644,0.569046,-0.22788352,-0.5292562,-0.9176391,0.91020936,0.30460328,1.2332534,1.456188,-0.49007463,1.5561352,0.1781138,-1.0633823,1.215226,-0.33379734,-0.39016116,-0.7665111,-1.4158324,0.7339814,-0.6798666,-1.0400528,-0.7474417,-0.5282349,1.3516866,0.5301361,0.21793675,-1.4462855,0.75789654,1.2238046,0.27740315,2.3861556,-0.24698704,-0.82324195,0.13805465,0.513423,0.8062057,-1.9485743,-0.013265267,0.23329641,1.5197809,-2.0523102,0.562317,0.28257713,1.9319102,-0.5410889,0.79198277,-0.17763528,0.3238964,-1.1050771,-0.057186946,0.69895303,0.7990654,0.6149432,1.3033702,-0.32967764
MMRF_1439,-0.7416529,0.33641514,0.10812114,0.1871756,0.29606667,0.37157574,-1.6924982,-1.0923071,0.8407438,0.23700964,-0.14761677,-0.6593748,-0.48397517,0.4078256,0.066323414,-1.1141547,0.21212046,0.0074429903,-0.51322985,-0.49267572,1.5595189,2.2898903,0.11269912,-0.013488383,1.0140986,0.9300159,1.0223258,-0.76120114,-1.3070706,1.615167,1.3259948,-0.16205466,-0.8378488,0.46864057,-1.800339,-1.4512743,-0.71874845,-0.5257287,-0.9342269,0.9473827,-0.034721907,2.8698509,1.3767614,-0.12169656,0.06872384,-0.7110752,2.0962975,-0.91724,0.6176205,2.6765523,-0.011543096,0.84684,-1.577723,-1.0112579,0.14494377,1.0642613,-0.3188959,0.51193637,-0.1973669,-1.1316493,-2.205362,0.009933011,2.3013668,-0.85179013,-0.086228676,-0.08397599,0.3465253,0.20447639,0.096429005,-0.19044928,0.65530276,-0.4305551,1.5595266,0.6048503,0.22702989,-0.12756649,0.6474694,0.24964982,0.06467578,-0.08130487,0.54647493,-0.06444777,-0.22536767,-1.1903814,-0.13885741,-1.3156272,-3.4939337,0.7802606,0.39858207,1.9886469,0.88609385,0.11224157,0.029518882,-0.76775384,0.020676635,-1.1148529,0.34231016,-2.6399689,-1.1147482,0.6549499,0.053771015,-0.3849234,-0.930097,-0.041366838,-0.61214644,-0.10504085,0.34923685,0.16304263,0.43181753,1.1546314,0.9513996,-0.63938373,-0.65856653,-0.11760792,-0.18778034,-0.94300574,-1.172575,0.092250004,0.20939627,-0.118311815,1.7871996,1.590892,-1.1621087,-0.31929207,0.28118956,-0.25322986,0.11827427,-1.1393288
MMRF_1450,0.3483842,0.46504933,1.197167,-0.3343597,-0.07022246,0.6082581,0.8780793,0.09496574,0.6244023,-0.5582312,0.8567395,0.33387876,-0.70019114,-1.8521906,0.80849606,0.4206749,-1.3507637,0.8833138,0.17544681,-0.8732128,0.18051848,-0.41193527,1.4472585,-1.208373,-0.98671347,-0.049392905,1.7968948,-0.2889533,-0.030442083,-0.14875929,1.328988,1.1381704,0.84048927,-1.3304644,1.5642885,0.41534367,-0.3279877,-0.98805696,1.210062,-1.9264673,-0.5203073,0.16369712,-0.24128562,-2.2023873,-1.6689818,-1.3009288,-0.008074607,-0.8051415,-0.17582197,-1.1132176,0.7574808,-1.6168287,1.9706442,0.04785853,-0.15764093,-2.8697886,0.47891876,0.96815217,0.6126164,0.97639745,1.479444,0.81493783,-1.7008419,0.7025103,-0.519121,-0.6833861,0.10029803,-0.21714543,0.15583584,0.38210404,1.2165009,-1.4349546,-1.5487473,1.4497112,-0.056974165,0.60806215,-1.4682484,-1.0607961,1.2419622,-0.98620594,1.3100191,-1.4222937,0.69510984,-1.0237163,0.07753585,0.5864481,-0.5450901,-0.29691258,0.69716024,-2.0086987,-0.37962744,-1.3078306,0.058148034,-0.64262354,0.614531,0.4266616,0.09946877,0.8297316,1.5137049,0.40972793,-0.49014133,-0.8264107,0.551901,-0.5242608,0.2532147,-0.17822258,-1.5437149,1.8563718,1.2404683,0.8591543,1.662572,0.8647164,0.9585392,-0.5961207,-0.039989594,-1.8826774,1.1517848,0.16497889,-0.84036064,-0.097212456,0.44398645,0.1957576,0.809076,-0.8469965,0.8585362,0.43928212,-1.2911848,1.2337061
MMRF_1451,-0.07669591,-1.0925003,1.0898753,2.5520318,0.65630877,1.7785459,0.2982252,-1.7560066,0.4221502,0.49870566,0.821986,-1.3989532,0.80518126,-0.3682089,-1.2727178,0.30738923,-1.0634042,1.1496916,-0.16353849,0.951411,-0.9043734,2.0458043,1.6189755,0.16811453,0.46490094,0.57757646,-0.2135323,-0.32749286,0.9583661,0.9170589,-1.2956913,-1.079314,-0.8345407,-0.2009358,0.20643695,-1.81751,1.512818,-0.23722394,-0.04549808,-0.06067931,-0.5106735,0.683587,-0.6638405,0.5545169,0.08821261,-2.8455946,-1.2794095,-0.48063937,0.086671084,0.7082267,-0.39394712,0.034458496,-0.50905824,-0.080908015,0.82659155,0.4069365,0.4961175,-2.4917803,0.87592536,-1.2706928,-1.1846927,0.4096991,1.1038141,0.24973229,0.680374,1.9654579,0.16105263,-0.7256624,-0.15523595,1.1876546,0.055778574,0.09506564,-0.16815996,-1.3100641,0.40815458,-0.11065598,1.3733463,0.84353906,0.05340241,-1.170116,-0.43749115,0.3419813,0.124429144,0.18263863,1.0113951,1.1017684,1.1874772,0.14876921,-1.0744685,-0.8179906,0.0604536,-0.80541474,1.4610547,-0.18622223,0.5458833,-0.44679022,-0.51183444,-2.4949625,-2.1733644,-1.0780485,-0.0090081,-0.48758402,-0.048478484,-0.6716175,0.9348916,0.9379606,0.46505472,-0.068912484,0.82877773,-0.30208743,-0.2114738,1.8229704,-0.24633792,-1.7233434,0.1904716,-0.23338401,0.066746585,0.86846846,0.6162743,0.04222649,1.5177354,-0.456408,-2.4840357,0.119382545,-0.20052941,-1.8398257,1.2638065,-0.36546257
MMRF_1454,0.55765766,1.167086,0.6801641,-1.5266081,-1.2179875,0.56520593,-0.73611075,-0.43227187,-0.9889256,-1.3427424,0.27041912,0.23833705,-1.982011,2.4548697,1.3696681,0.6048301,0.5789914,-0.043786857,-0.85189456,0.88712513,-0.58587873,0.3273587,-1.3073103,0.51750886,0.52455103,1.0575036,-0.879619,0.80995435,-0.82722014,-1.4125423,-0.41026947,-0.51199096,0.62701255,-0.39834592,0.02036383,-1.7834795,1.5115037,-0.6966408,1.7859542,0.47581625,-1.4358217,1.5069151,1.0208147,0.2512854,1.9978861,1.1775306,0.065901935,-0.76467407,-2.039067,0.91550857,-0.8021121,1.053706,-0.8661717,0.7951113,0.011555003,0.0016273186,1.2192012,-0.17963213,-0.38296744,-2.7177477,0.83142704,0.6215439,0.009443058,0.90626293,-1.1381224,0.7976837,0.042702135,0.42218477,0.6226273,0.52705157,-0.56765145,0.60430104,0.87870157,-0.49210638,1.7631471,-0.8120825,0.4167774,1.1447959,-0.86524093,0.60203815,-1.798568,-0.35372156,0.8930948,-1.083535,1.2982564,0.19214791,0.08750957,-0.9050187,0.7383733,0.76289845,0.3935779,-0.23005667,-0.7593731,0.8886461,0.7218626,-0.1823573,-1.1392282,-0.081686996,-0.16418365,0.88293445,1.3870239,-1.0209183,-1.1483256,-1.1436704,-0.36956468,0.118764214,0.5449513,-1.0619913,-0.5973107,1.3345674,1.079676,-1.3818309,-0.5885586,1.861685,-0.02695736,-1.18205,-2.2660081,-1.0623838,-0.80954605,-1.4573151,1.1390462,0.89825696,0.33417198,0.6310306,-0.2952417,-1.2080132,0.31388563,-0.42300308
MMRF_1460,0.31207275,-1.9077463,1.202814,1.1467128,-1.0392916,0.7128423,-0.9711166,1.1684902,-1.2838281,0.13895112,-1.1966366,-0.5426594,0.5525364,-1.5205206,-0.96214664,-0.038963262,1.1507753,-1.2454541,-0.82637775,-0.5204786,-0.11133806,0.3413284,-1.4574506,0.40843695,-0.3092021,-1.2251569,-1.2491965,0.52174324,-1.0008072,-1.1826398,1.0342927,-0.0499771,0.017796183,0.9554305,-0.6567832,-0.68294525,-0.9315731,0.14460927,-0.6995666,2.0976925,1.1665264,0.8300883,0.5118353,1.2078943,-1.4456931,0.5884824,-1.0383484,0.48738566,1.7131795,-0.25438464,-0.50042856,-0.6207274,-0.34354642,-1.3185077,0.056570753,0.7956311,-0.01791041,1.0308272,-1.0966319,0.638381,1.9503313,-0.47931406,0.6774952,-0.10102393,-0.91946495,0.95803785,-2.376011,-1.5687265,1.4387577,0.018106489,0.72091895,1.6273649,0.00686564,1.3456364,-1.8156621,-0.4286429,-0.7123623,-0.5574916,0.39837968,0.040949184,1.9658147,1.1714671,-0.7745933,2.4253402,-1.4498984,-0.21662419,-2.0126965,-0.9790881,0.5122637,1.5780683,0.56296384,0.2883742,1.4977525,-0.42219102,0.30671763,-1.1720359,-0.9561504,0.52417016,0.2868051,1.2830411,0.5586969,-0.9159927,0.45455873,0.9866176,1.0918969,1.0392362,0.5953239,-0.045270458,-0.8499571,-0.5377371,-1.3145308,-0.38598117,-1.4703164,-0.80056006,-0.17650948,0.92481536,-0.16349423,0.0016881004,0.18764886,0.20001882,-0.904418,1.1237887,1.9382999,-0.30901378,-0.21419095,0.5896922,0.8185299,0.2571751
MMRF_1461,0.0025267093,-0.741341,0.891214,0.35756046,0.27716517,0.46800902,0.9159865,-0.79517174,-0.17096932,1.3449123,0.9153138,-0.15203272,-0.8344432,0.2653157,0.17367418,0.73520595,-0.7154294,-0.1379926,0.49154258,-1.1325669,-0.6900527,0.038862,-1.3551822,1.9557934,-0.9761107,0.58546054,-0.15171927,-0.69376457,0.46560094,0.03945286,-0.71927917,-0.65785176,1.3556609,-0.5813227,1.2376562,0.49749035,0.5469486,0.75300163,2.67334,0.46482566,-1.3978643,0.42231223,-0.28505936,1.5737265,0.5250548,0.3785238,0.18916781,-0.4878631,-1.8233029,-2.0705738,-0.71502143,-1.3361492,1.708769,0.09617415,-1.3939786,-1.3716274,1.5607563,-0.67181325,-0.43946275,-1.4619937,-0.41471377,1.7813752,-0.7311806,-1.1995453,0.13528383,2.0387104,0.42849427,0.61541235,0.64770836,0.23004983,0.64305025,0.15230587,-1.2175028,-0.13576013,-1.4664187,-0.47792852,0.8735485,-1.4867533,-0.1940891,-0.3163273,-2.416499,1.4731077,-0.39473078,1.1417788,0.11346097,0.032944813,2.129652,-0.209619,0.84874195,-0.5136488,2.1346664,-1.8180404,0.19081469,0.38421845,-0.9774603,1.7721953,1.0639149,-0.9345081,-0.7341855,0.075345255,1.2678342,-1.1694727,-0.06278142,-1.38292,-1.3844954,0.69443893,0.6364168,-0.9482144,0.20056899,0.74232364,-0.7908062,1.869597,0.36146277,0.2913417,-0.096566945,-0.5320204,0.6464704,-1.241683,-0.18898085,-1.6897858,1.2530721,-0.41796058,-1.1101453,-0.629329,-0.64328,0.6189541,0.6060986,-0.13170901
MMRF_1324,0.5301707,0.020140108,0.22345549,-0.064100705,0.8849254,-2.3650436,-0.7992934,-0.34979266,0.39786914,0.86574733,0.5646426,0.12777989,-0.15010138,2.2220106,0.98084307,0.42090702,0.37532446,1.4402812,0.1407106,1.0454056,-1.251244,1.2486039,0.8384172,1.0777938,0.87861896,0.88361907,-1.372972,0.9754906,0.89136684,0.8748174,-1.6656556,-1.93757,1.1502805,-0.38691863,0.9086417,-0.11355344,2.020161,-0.7797598,1.1347831,0.77809566,-1.365777,-0.3636067,-0.047070418,-1.2875402,1.4028534,-0.1694677,0.40359336,-1.7663969,-0.031024843,-0.4816236,-1.169737,2.2232983,-1.0528547,0.30661798,-0.21174781,1.5142438,-1.51143,-0.9864879,-0.31428584,-1.1907961,-1.9814988,-1.2610577,0.39450935,0.33263707,1.136799,0.5044062,0.5726928,0.72483546,0.077447936,-0.5285094,-0.43060124,0.30826133,0.9715624,-1.553492,0.19678077,0.28317696,0.27522764,-0.01325539,0.17428623,0.05573811,-2.4146469,0.07343368,0.105386615,-0.81862915,1.945533,-0.05191205,1.7090497,0.34378198,0.07643062,0.7889582,-0.02034086,-0.026679292,0.57821816,-0.34911016,-0.5679878,0.4016887,0.31981075,-0.19568352,-0.1887458,-1.0227085,-0.102643564,-0.18516396,-1.1834784,-1.5378946,-0.9175345,1.319375,1.2304497,0.58563614,0.5703395,-0.24672225,0.61009055,0.6230848,0.33013505,0.056298897,0.7632334,-0.3925277,-2.2780023,0.20869388,0.2983796,1.4137933,0.02253126,-1.351306,-0.8773406,-0.0990001,-0.77948433,-2.0719638,-1.7996842,-1.6227411
MMRF_1392,-0.0065241917,-0.45990804,-0.5463789,-0.8513804,0.5161296,1.7098366,-0.57756966,0.39766416,-0.5041898,-0.19338804,-0.5270276,-0.16354474,0.96784216,-1.1560699,-0.9505629,0.049176086,-1.0882136,0.7354049,-1.7355318,-0.68667585,-0.14595559,-2.0229967,0.49667495,-0.647282,0.061177414,-1.6313092,0.45071054,0.68980646,0.6537527,-0.27888396,1.145499,2.4356592,-2.3165402,0.86004424,1.3326348,-1.3314893,-0.715279,-0.8542856,-1.2382064,0.449807,2.6223202,-0.25018805,-0.5406767,-1.726843,-1.8200841,0.13174441,-0.5985812,0.60043746,1.1569624,-0.036274333,1.0171928,-1.0212253,0.5878471,0.25070205,0.41740677,0.043739635,0.21540049,1.4512181,0.906095,0.45629457,1.3962045,0.914387,-0.62719065,0.20688947,-1.3927071,-1.222214,-0.18091355,-0.84489787,-1.1595806,-0.54085886,0.8068915,0.53480613,-0.020549405,-0.21846505,-0.37740356,0.81498325,-1.086432,0.3983722,0.85196054,-0.7506045,2.00487,-0.32552266,1.433665,-0.1843517,0.0409022,0.22834514,-0.9291478,-1.0008457,-0.3170853,0.3894745,-0.9032053,0.59347165,0.73860866,0.10189321,0.4731928,-0.5630111,-2.094088,1.0794693,0.121824056,0.91560453,-0.36368087,0.61061186,-0.41488805,2.2360358,1.1686708,0.7436428,-0.890334,0.7343554,-1.4139022,1.1139243,0.79389304,-1.4366094,-0.96902806,-0.6638481,-0.46500853,-1.6305448,-0.3850028,1.0108063,-0.5650439,0.5933617,-1.5402886,1.3926218,1.6568768,0.9371784,1.8349863,0.21462534,-0.57968235,0.8499074
MMRF_1413,1.1161971,1.5200181,-0.9964209,-0.2871111,-1.6284447,-0.21337356,-1.144723,-0.36231348,-1.2073438,-1.3195993,-0.75618124,-0.44414207,-1.0151907,0.63001823,2.0898638,0.0601478,-0.65046793,-0.75994986,-1.1295148,-0.6856914,1.3618463,-0.8532619,-0.58174896,0.054631654,0.60991925,1.0926521,0.7197504,-0.31076118,-0.8822133,1.0862931,0.7869694,0.8929629,-0.38886228,0.3473589,0.15776606,-3.1648698,0.37765107,-0.73251355,1.4202664,1.6768538,-0.36178395,1.4269965,1.1262059,-0.68571526,0.098168775,-0.44679454,0.94221586,-0.81883854,-0.35106742,2.1374338,0.60058707,-0.03204178,-1.6323887,-0.31704956,0.78782177,0.952218,1.2006062,-0.08409029,-0.83418894,-1.5492251,0.7625051,0.23130256,0.7784392,0.39060384,-2.0268993,0.53519636,0.6234543,-0.7540717,0.7206373,2.0195284,-0.049750797,0.7866784,0.5905191,0.9525444,1.135255,-0.5426092,0.7501048,1.5514604,-1.4438466,0.1403402,-0.3598008,-0.28257158,2.3857048,-1.0773165,-0.5990462,-0.6961246,-0.9334844,-1.3270574,1.848599,0.6719812,0.35575962,0.5733744,0.32789245,-0.12089155,0.6426385,0.09867074,-0.6886923,0.09034821,-0.16579714,1.5362358,0.44183433,-0.82039315,-0.07613662,-1.5454024,-0.22026044,-0.5657994,-1.5302343,0.78991365,-1.7517685,1.7234955,0.8426621,-1.5479382,0.0065971646,0.15423961,0.36139497,-1.083263,-1.5042274,-0.08048181,-0.030786455,-2.0182557,-0.0077817794,0.03691826,-0.31394243,-0.062238473,0.25627333,-0.31828597,0.7960327,-0.013036873
MMRF_1393,-0.8516782,-1.3715242,0.695363,1.1257448,-0.4691896,-0.7786625,-0.32620156,0.65610826,1.7433186,0.6236686,0.48309037,-1.0521067,2.9464111,0.54870933,-1.8143622,0.2369459,-1.4986987,-0.45042038,0.7961733,-0.07144056,-1.069118,0.32398847,0.111496046,-1.9163618,-0.8757677,-1.0925955,1.308205,1.3323935,1.405966,-0.4154365,-1.3504122,-0.304157,0.8586719,-0.54820913,0.20483656,2.730797,0.06808134,-0.12418817,-1.1600742,-1.9335922,0.7220966,-0.48572612,0.96756715,-0.42990848,0.42054954,1.994893,-0.37607017,-1.515196,1.0412308,0.009109713,0.13554712,-0.10502174,0.24538521,0.31736717,0.87255484,-0.18556629,-1.9913356,0.49275333,-0.42441368,0.98034424,0.53479034,0.061407737,0.69668406,-0.5699584,-1.2902701,0.26319876,-0.5303859,1.5318478,0.1805058,-1.8747779,-0.25297955,-0.5587673,0.8141085,-0.8289445,-0.8129061,0.64355814,-0.44522473,-1.1301821,0.5059174,0.43563715,0.6157504,0.35537615,-0.08328902,1.2488006,1.6392133,-0.84519106,0.60202867,0.59090555,0.6221358,0.0980487,0.5067767,0.7402842,-1.6187494,1.2838084,-1.5973872,-1.0861107,-0.036693998,-0.34997055,0.41816485,-0.9857168,-0.47968227,2.1290786,-1.1525419,-0.056945927,0.3842788,0.36253303,-1.2736005,-0.20948528,-0.27862564,-2.0802572,-0.61620647,-0.24025707,0.5391378,-0.57515657,1.4200245,2.6696427,0.69739807,-0.9323088,-0.20556438,0.49275798,-0.03138163,-1.1917554,0.8611776,0.13592021,-0.44282052,0.17214704,0.3867273,-1.325656
MMRF_1148,0.8482292,1.0354632,0.22560647,-0.83152235,-0.57212794,0.36945915,0.8326752,0.26361364,0.63200194,0.5562435,1.2862697,0.78670025,-0.5623019,1.6689334,0.6691862,1.3480363,-2.4372563,0.37019917,-0.14416097,1.6997147,-0.4949168,-0.8501046,0.64337456,-0.24428561,0.9925435,-0.73735243,1.1091833,0.23979491,-0.43964753,0.120540336,0.93146616,1.544902,-0.81265134,0.008251177,1.1765645,0.31767625,1.0805919,-3.1566398,0.8421704,-1.5206938,-0.7020599,1.3117334,-1.290181,-2.203554,-0.37504706,0.099880114,0.018727405,-1.2310344,-0.17071672,0.10008631,-0.16490209,-0.4138155,0.68287027,0.8349699,0.6544563,-0.39980066,-0.6107454,-0.06867892,0.304045,-0.8766371,1.6394573,-0.4451381,-1.4086475,0.13537209,-1.1227618,0.17530371,-0.359031,0.10591981,-0.42684382,-0.107187994,0.24717538,-0.017085057,0.2987741,-0.8138355,0.61058134,2.1856928,-0.65409964,1.6419045,1.658652,-0.65755403,0.8989759,-1.8214412,1.5857675,-2.5700116,1.1981158,-0.31504503,-0.51720756,0.20602235,0.47395006,-0.45624495,-0.98924446,1.1665274,-0.31317386,-0.61933166,0.79296905,-0.43941867,-1.9228423,1.1452589,1.9275584,-0.09602495,-0.20519668,-0.030333927,-1.1458998,-1.2674308,0.48459348,0.7569714,-1.0493636,1.1016523,0.038579877,-0.84610033,1.3578858,0.009690754,-0.8929799,0.31742203,-0.35621727,-1.8285626,-0.9699659,-0.4631414,-0.5612934,-0.17175406,-0.29389527,1.6878953,0.9750913,-0.2343543,-0.7062338,-0.57252467,-1.838643,0.42629188
