patient_id,0,1,2,3,4,5,6,7,8,9,10,11,12,13,14,15,16,17,18,19,20,21,22,23,24,25,26,27,28,29,30,31,32,33,34,35,36,37,38,39,40,41,42,43,44,45,46,47,48,49,50,51,52,53,54,55,56,57,58,59,60,61,62,63,64,65,66,67,68,69,70,71,72,73,74,75,76,77,78,79,80,81,82,83,84,85,86,87,88,89,90,91,92,93,94,95,96,97,98,99,100,101,102,103,104,105,106,107,108,109,110,111,112,113,114,115,116,117,118,119,120,121,122,123,124,125,126,127
MMRF_1231,0.22673213,-0.22972572,0.5998826,-1.2578679,0.07245259,0.63472736,1.666107,-0.32774147,0.72976696,1.6881807,0.94819856,-0.04740096,-0.09590429,-0.540162,-0.7266686,0.49923727,-1.4882537,-2.1472292,-0.04008826,-0.9742912,-1.1850424,0.3318185,-0.63313097,0.9037192,0.33783862,1.2717453,-1.4525406,0.13240227,-0.32904375,-0.327585,1.6586204,-0.41474527,-0.45437825,0.058699474,-2.2112246,0.6122213,0.76156867,0.0056236433,-0.7119632,1.7166749,0.3633234,0.09100024,0.7831776,-1.4903781,1.0513868,-0.0014939699,0.996208,-0.8748119,0.18347415,-0.68849885,-0.8345204,0.5610114,0.13852128,1.1634393,1.6162878,0.9603818,0.4652164,0.5559677,0.10060933,0.23890899,-0.9722569,-0.22096613,-0.32274747,-0.39869493,-0.43173975,-0.7718893,-0.5683929,0.099104576,-0.24452554,-0.23776613,-2.2043865,1.2376435,-3.2117937,1.4287862,-0.5123959,-1.5313137,-0.1636188,0.5005229,0.13240527,1.942479,1.9517503,-0.22598788,1.9432648,0.070632525,0.49041677,0.0017582364,-0.5488376,1.0539633,-1.5234101,1.8023691,-2.4216726,-0.76385826,-0.5941211,-0.10935348,0.5094707,1.3785348,0.020641532,0.05866834,-0.2939465,0.28522316,-0.79774594,-0.7683615,-0.3822397,1.5607157,-1.484561,-0.16952983,0.75851136,0.02516799,1.084143,-0.81681997,0.50136983,0.4672789,-1.8036991,-0.8300022,-0.87131083,0.28406453,2.3121674,0.64967096,-0.04663893,0.08799296,0.29096532,1.1906068,-1.2412853,-1.1183128,-0.58034843,-0.23192504,-0.41330788,1.043348
MMRF_1032,0.87844557,0.802317,-0.52542883,0.199664,1.6195874,0.66845495,0.3310995,-1.2501084,-0.20171803,-1.2756453,0.45607018,1.3719234,-1.9127139,1.1348995,0.34654495,0.39231876,0.19931906,-0.6344105,1.1051364,0.07899555,-0.8054816,0.3749891,1.0858824,-0.59508824,-1.110452,0.3964968,-0.18226697,0.099442445,1.680928,1.033643,-0.4120094,0.65390784,-0.23323035,-0.15503986,-0.067449465,-0.39234227,0.41761407,-0.4239939,1.1486908,0.0439286,-0.8118102,-0.44180107,-0.9103,-1.2449715,0.9039194,-1.5521251,0.6574227,1.6843432,-0.90163624,0.77096105,-0.91272634,0.33531672,1.2999539,-0.086129636,1.8094116,1.2399781,-1.2142656,0.96338195,-1.2179728,0.40582362,0.0013902597,-0.32611522,0.3819853,0.6358969,0.22802448,-1.1236799,0.24980095,0.54115814,0.056708794,-1.8910383,0.8283841,-1.4423062,0.20122442,-0.2682117,-1.5364039,-0.27566576,-0.71885043,-1.5824374,2.2211633,-1.2378099,1.5340741,-0.41355237,-2.4680805,-0.14599405,0.21805197,-0.30708185,-0.1920861,-0.37529317,1.4347702,-0.23783201,-0.075735286,-0.14591978,0.0084497025,1.409587,-2.1274848,1.488115,-0.11478761,-0.3795032,0.34346846,1.0502547,-0.4930849,1.2841319,0.045242526,1.9452915,-0.4149166,-1.1170032,-0.7869296,-0.3644406,0.60441303,-1.0191597,-0.21216974,0.11048573,-0.121010594,0.8693477,-1.1588304,-2.9698265,0.94618946,-0.43340605,-1.2029938,0.8151733,-1.6755946,1.0866966,0.19777071,1.0329964,-1.683036,1.1389085,-0.8782622,1.7176814
MMRF_1327,-0.65763897,0.63530445,0.2169975,0.9073223,0.50627714,1.1521652,0.8252364,0.18446869,0.022066802,0.30156034,-0.12040085,0.20772551,0.114466324,0.54223245,-0.87012225,0.81421506,-0.52593964,0.30315197,-0.59439087,-1.234934,1.564321,-1.1016811,0.059254788,-1.6309521,1.2392923,0.16660707,1.3613619,-0.014296587,1.3727059,0.622908,2.705234,-1.3804556,-0.11643721,0.9469062,-0.288396,1.8057315,-0.08666588,-0.6394468,-0.047252703,-0.29175007,0.7870705,-2.51566,1.4256883,1.0470076,-0.15389441,-1.7066803,-1.4440084,-2.1583202,-0.13069211,-0.20347872,0.03762666,-0.20336483,-0.7915126,0.5936172,-1.1183618,0.15301087,1.778031,-0.5370811,-0.87367034,-1.8875494,1.6575907,0.6484381,0.43785614,-1.9283524,-2.5820868,0.44908616,-0.09040709,0.4713585,-0.85596025,1.6602147,0.21680033,-1.8310695,-0.45352036,-1.5802428,-0.56096864,0.48351863,-0.5761054,0.7877097,-0.06416952,-0.060477167,-0.103832364,0.48662058,-0.029195251,-0.28813475,-0.34712023,-0.053700395,0.8401392,0.46547335,1.0834733,-0.3215638,0.6657549,-0.37900764,-1.6237117,-0.6563662,2.252345,-0.9975572,0.4761801,-0.69210315,0.036379375,-1.0453744,-0.5675318,-1.4960866,0.7046236,-1.3478925,1.3101621,0.5569119,-0.03150405,0.9605271,0.85982394,-0.15519047,0.09354079,-0.8820746,-0.6939869,0.19727394,1.0484344,0.63114226,0.20823559,0.7387394,1.034317,-0.39202312,1.6085068,0.2651947,0.84903145,-0.12596108,-0.15825655,-1.4257225,1.1064515,-2.1225448
MMRF_1210,0.7412867,-0.6871979,-0.032625604,-0.2581204,0.44424862,0.9300375,-0.70462817,0.7998533,-1.9358643,-0.9449053,0.4338977,1.6320382,-0.20713171,-0.22467394,0.8925198,0.09830329,-1.0776786,-0.4749379,0.87007993,0.23541126,-0.8152474,-0.3144959,0.26288354,-1.0261126,1.0493035,0.8951924,-0.6964719,0.6733476,0.6859013,1.1321758,-0.15303966,1.5240226,-0.67993695,0.55240303,-0.3817602,-0.6405884,0.8525962,-0.4259856,2.663478,0.6858636,-0.053382397,-1.6750652,-0.44186524,-1.732737,1.2436593,-1.2010351,-0.26538035,0.48514432,-2.0109997,1.0139991,-0.85482544,0.4580311,1.6300664,-0.04516375,-0.6350576,0.029398503,-2.1563275,-0.06800723,-1.2891182,-0.27105355,1.5469024,0.5123477,-0.090366036,0.8688995,1.0528129,-0.10338231,0.7982345,-0.11988035,1.0642828,-1.1273968,1.1985871,-0.7339212,0.35918817,-1.2378387,-0.16283579,2.0391903,-1.5829928,0.6620474,0.28843844,-1.5140213,1.2876505,-0.22427863,-2.6126425,-0.8236298,1.0498154,-0.028605117,0.5442774,-1.103678,-0.043877617,-0.46019256,-0.91256857,0.99465734,-0.015820185,0.46937627,-1.0963403,0.116202235,0.3052625,0.73772645,0.5458133,0.4112604,0.38551682,1.1471105,-0.38382226,1.8242737,0.70187753,0.29400918,1.7540642,-1.5626783,0.19662765,-0.57699865,-0.06834651,-0.5683931,-0.23864205,-1.7319019,-1.9807836,-0.5418981,1.7276543,-1.8406602,-0.039728615,0.037326187,-1.1573077,1.4285482,-0.80991626,-1.3115518,-0.14189894,0.8526294,-0.27104652,1.2367902
MMRF_1269,-0.030639935,0.38528422,-1.1632383,-0.5976132,0.4705988,0.3828079,0.42307082,-0.3732362,0.21615627,2.5969775,0.40122822,-1.5154383,0.63905954,1.8029717,0.02724575,-1.12054,-0.22733533,-0.40747178,0.47162,0.39732894,-1.0487455,1.5898002,0.89924604,-0.16333155,-1.2396349,-2.3455403,0.082642764,-0.44678512,0.058639728,1.3461884,0.86651456,0.1722086,0.7493803,0.1480191,-1.4400157,0.51810205,0.1722876,1.2394361,-0.25335118,-0.58757854,-0.72877514,-0.30513027,0.010260849,0.3969413,2.0817385,-0.9185801,-0.6128782,-0.617894,2.4618084,0.25519747,-0.4012261,-0.12681113,-0.28978032,2.1968522,0.39223027,0.27777302,1.2406747,1.5023191,-0.7953758,-1.1084884,-0.14278945,-1.2387047,-0.26708505,-0.7160262,-0.45356467,-1.124729,0.476314,-1.0114231,-0.7977607,0.64274704,-1.8053234,-0.57549846,-0.010257238,-1.1790363,-0.14902475,-1.8113612,0.49443883,-1.3579378,0.6853872,1.981823,-0.28398815,1.4221442,2.4591181,-0.35637394,-1.4098402,0.86880916,0.84806657,1.6632352,-0.80175805,0.0053654267,0.46280864,-1.0242894,0.6452404,-1.1557499,1.9830229,-0.7453311,0.76601017,-0.91917187,-1.1112236,-0.6089648,1.4695835,-0.70599234,-0.49507076,-0.19822997,-0.9811542,-0.26178104,0.58491147,-0.66627383,0.2937802,-1.1168305,-0.5017902,-0.11593799,-1.4456923,-0.5840921,1.736958,0.81069434,-0.20776793,2.0034351,-0.5228061,0.99473804,0.11951542,0.21781881,0.20480019,-1.370301,-0.38148612,-0.47301322,0.40902963,-1.1226717
MMRF_1251,0.19071162,1.4310884,-0.07810692,-0.55926234,1.0263671,-0.23535556,-0.061447263,-1.0928067,-0.16338153,2.7724817,0.5451527,0.9746746,-0.8441567,-0.8586764,-0.54433024,-0.7521628,-0.05796165,-1.3953139,-1.1679577,0.16301306,-0.41062936,-1.0807831,1.7411782,1.2409915,-0.74906904,-0.5619283,0.000229178,1.5074966,-0.34881574,2.0178256,-0.88942415,-0.16548613,-1.3074272,0.64666134,-0.84506464,0.06988677,0.48732176,-1.5787696,0.3155106,-0.30840835,-0.41395628,1.289014,1.3375015,-0.095262125,0.19677714,-0.090210326,0.30433184,-0.80908,1.4337709,-1.2699375,1.1522652,1.1015549,-0.31364533,-0.14343716,-0.2641969,1.2622399,1.2575425,0.4315578,0.66328454,-1.7419801,1.5999529,-2.0602646,-0.7542626,0.15359378,0.119425,-1.0154895,-1.4949957,-1.4455402,-2.3503346,-0.1531601,-0.16690366,-0.8686246,-0.39185044,1.3396288,-0.34654683,-0.033606354,-0.0049683545,0.5661252,-1.1438539,0.57602733,0.122925535,0.11894806,1.111793,1.584797,0.102639936,0.30637175,-0.9497714,2.0819724,-0.92676437,0.26902688,-0.95199305,-1.6678497,2.225139,0.54886276,0.5672354,-1.9301863,-0.29499412,0.08961688,-0.7506241,1.4058765,-0.5219633,0.64217466,1.0730807,0.52021724,-1.5108919,1.5530607,0.43848273,-1.100902,-2.1312747,-0.69805413,-0.18878406,0.091527,0.0687366,0.26250812,0.5010025,0.24290869,0.30342662,-0.32696316,0.26325485,0.5458727,2.0401921,-1.1491252,0.1092382,-0.9224793,-0.778476,0.045748297,1.364369,-0.3700092
MMRF_1328,1.7924197,0.26688096,0.123637825,1.0779499,-1.2470324,1.049075,0.6823665,0.92400926,0.83918756,0.39112362,1.5443376,-1.6343026,0.34624252,0.086119786,0.57521343,-1.6438411,1.3191457,0.13666262,-1.7688893,0.5420075,-0.5834051,-0.48628494,1.1266023,-0.018721573,0.5085326,-1.8018662,-0.21434405,-0.23148414,-0.922453,-0.057839908,-1.9465284,-1.2574824,0.6383003,-1.9592749,-0.7833276,-1.1410556,-0.036632773,-1.6192161,0.244757,0.2055189,2.5387497,-0.5970158,0.13884717,-0.60721153,-1.3939047,-0.19054122,0.71814924,-0.27324173,2.0470326,0.020206267,1.2508612,0.48346618,-1.0905344,-1.6226722,0.68184453,-0.2697598,0.26592624,0.42912427,0.40699014,-1.4000742,-0.5660775,-0.29266044,0.47545406,0.5901365,1.6907884,-0.26336864,-0.8414556,0.6985395,0.18036698,0.9891357,-1.0789422,2.5222886,-0.7549891,-0.50881845,-0.6330912,0.113450974,-0.89611137,-0.6899878,-0.6128781,0.48495898,-0.8110485,0.2990079,1.3703965,0.5381435,-1.0476635,-0.62045723,-0.64911306,0.9396015,-0.5936651,0.5650396,-0.9880405,-0.6670162,0.20926872,0.564997,0.11071095,-1.1989413,-1.4714507,0.25876877,-1.1819304,-0.14554109,1.6795223,1.4077903,-1.450435,-0.00981937,-0.96962386,0.046362624,-0.7475952,0.020928096,-0.28434834,-1.0810727,-0.27098426,-0.029747602,-0.85920346,2.6942647,1.6041461,0.58829886,-1.2318387,1.8263313,-0.15047811,-0.016101636,1.1295942,1.7598039,0.22262062,0.27102935,-0.8067505,0.29381606,0.853389,0.8288902
MMRF_1171,-0.09558505,1.0457064,-1.9411385,2.2963378,-1.7467023,0.840553,0.61394787,-1.8133721,0.5027296,-0.7198811,-0.10943003,-0.3126528,-0.84165967,1.2985345,1.5935788,0.063775785,0.74099344,1.1041178,0.6001267,0.52192354,0.8068438,0.17803048,1.5840142,0.52696645,-0.31949663,-0.80294603,0.5090061,0.96182454,0.12379228,-1.0604997,-0.48923808,-0.18204303,0.7846776,-1.1998357,-0.2731956,-1.3675915,0.10412619,-0.20450217,-1.177538,-2.2644587,0.0481524,0.27948514,-1.6900638,-0.99804366,-0.43145823,0.2518476,1.3313532,2.254871,-0.05744891,0.72669196,1.2428914,-0.64339,1.0940921,-0.2287093,0.33167168,0.5998433,-0.88956994,0.17742017,-0.6882902,1.0469724,-0.36274832,1.3302455,0.5899678,1.0108052,-1.064116,-0.93399346,0.23355517,-0.3429634,-0.0052193105,-1.4776543,-0.13872729,-1.5164412,2.188183,-1.7157248,-0.052280094,0.2760399,-0.09928343,-1.3179673,0.13725756,-1.246019,-0.96187115,-0.8070837,-1.592907,-0.7994789,-1.0373085,-2.7907863,0.91979766,0.33770752,0.1795923,0.5847603,0.6606445,0.122015834,1.0520655,1.0326582,-1.0398296,1.2113355,-0.48730516,0.24783267,0.14771633,-0.5121162,0.5684697,1.4942253,-1.0012026,0.036589954,0.54530454,0.027172158,-0.6696667,0.92971486,-0.4894216,2.2291033,-1.2716626,0.61441576,1.0350237,1.2157332,-0.82918745,-1.254854,-0.5344,0.20199133,-0.06832713,0.76553035,-1.1926255,0.89961475,0.9962009,0.93080366,-0.6521101,-0.499972,-0.90936506,1.1245499
MMRF_1354,-0.3268975,-0.4373307,-0.2273537,-0.68958825,0.2793935,-1.3716063,0.27765936,0.049466502,0.37611791,-2.0951078,1.1997985,-0.57493913,-1.2690319,-0.45544758,-0.98390526,-0.6510636,-1.3167322,1.2867769,-0.67321134,0.38799766,-0.05536636,-0.3336012,-0.22935434,0.21976875,0.0932235,2.1793082,-1.3086065,-0.32400036,-1.4601312,-2.3556209,-1.0909915,0.9989175,0.28734916,-1.3980459,0.82531106,1.0008574,0.5240797,1.3242565,0.22815675,1.6911311,-0.35226893,0.7699382,0.20423526,0.68975174,-0.0038829213,1.914279,-1.6716256,1.2339259,-0.9342671,0.71924084,0.26038092,0.7205272,-0.0038293153,-0.20205426,1.0564194,-0.015876805,-0.8109376,-1.5121089,0.035610866,-0.9365155,-0.75611067,-0.58992535,-0.5316306,1.5061977,1.6792098,-0.49520257,0.032466076,0.13281822,-0.19825654,0.48704505,-0.4936344,0.8199092,0.19602162,0.7219031,0.96934843,0.9038125,0.9123071,1.775515,0.5159588,-1.7259504,0.5227616,-0.6891117,2.064667,0.20978911,0.013636199,0.9430309,0.5463958,-0.7042225,-1.2685872,-1.1505473,0.5171524,0.67841405,0.6280014,0.3607356,-2.2473745,1.1933619,-0.06559344,1.5089613,1.4815798,-0.15319023,1.468219,-0.46266603,-1.2745161,-1.1623544,-0.39090657,-0.2027304,0.022845529,-1.0459092,-1.2627811,0.072704464,-0.97026587,-0.86498886,-0.043964125,-0.26052225,1.0110157,0.36711484,-1.8289366,-1.1086295,1.1076766,0.44358152,-1.0894696,-0.7035918,-1.1736215,0.50046265,2.2013295,1.1258405,-1.280065,1.6636279
MMRF_1344,-0.25116912,1.1299838,0.6186507,-0.40833962,0.07753018,-1.4624616,-0.17091145,0.9235883,0.16462371,-1.1932255,-1.371136,0.2731002,0.18609706,-1.4779229,-1.5487825,-2.2263014,-0.28506306,-0.08998226,1.0939167,-0.09695216,-1.2044706,-1.305311,0.20598559,-0.4165366,0.63375187,0.44432837,0.47893113,0.7580473,0.24616644,-0.5937073,0.19327639,0.7739515,-0.3272605,-0.101721585,0.83913493,0.5079881,-0.083864324,1.1650938,-0.94673145,0.9215487,0.68072706,-0.012954469,1.4406174,0.71379125,0.55796045,1.0347668,-2.0512967,-0.7410875,-0.72814614,0.15725201,1.0866839,-0.6240681,-0.16109206,-0.23926426,-0.27278918,0.40382412,-1.9396855,-2.46947,-1.7216146,-1.4741249,0.29069626,0.32641476,1.3531692,-1.0386574,1.2003471,-0.1207171,0.29221818,0.09734221,-0.17601427,-0.39138594,0.90004575,-0.5723536,0.9338244,-1.3337767,0.64358103,0.014737891,0.52858365,0.7058309,0.91049606,-0.1593647,0.2477626,0.94916517,1.2747378,-0.7633641,0.16240893,0.8002606,1.7718664,2.0053835,0.9280018,-0.9379977,0.80564576,0.568172,-0.55274576,0.48044387,0.5419011,-1.8674321,-0.8192076,1.0516148,0.91064435,-1.7198275,-0.008513439,-1.245974,-0.46285632,-0.3213418,0.11185974,-0.33635503,-0.8846107,0.6117155,0.13276623,1.0482956,0.9466777,-0.6116369,-0.16332789,-0.35076955,2.22798,2.2281017,-3.151802,-0.9524544,0.014752593,-0.5982551,0.3008919,-2.2707877,1.4088614,0.657557,-0.5767478,1.7276976,0.60690445,-0.17696005
MMRF_1403,-1.5147396,0.72184145,-0.93470925,-0.07945748,-0.29569662,1.5787385,0.07155818,0.15806127,0.44735363,-0.3987981,1.3539705,-2.0131967,-2.5599258,1.7541212,0.34216353,-0.0929196,-1.3252602,-0.5137929,-0.1351764,-1.7864934,0.94256544,0.05759827,-0.20895815,0.19130851,0.85730404,0.30948013,0.66979647,-0.04453054,0.7151291,-1.0386635,2.5988512,0.09267077,2.3883777,-1.3131356,0.33167392,1.2141705,-0.11633011,0.041183654,1.6353467,-0.65828377,-0.5622055,-0.48537263,-0.16618975,-0.17827025,1.2528777,-0.9524595,-1.3952498,0.5969365,1.1268213,1.048419,-0.24803619,-0.45428482,0.30623376,-0.7544185,-0.6875572,1.3504424,0.05446858,1.1077783,-0.82360935,-0.7591289,0.73787636,0.4019716,0.72448707,0.28723302,-0.40069428,0.04681801,-1.1226305,-0.23462084,0.2202892,-0.4907135,1.7710619,-2.15688,0.18295023,-1.7316713,-0.33861214,1.6435989,-1.8229598,0.58502364,1.6057987,-1.4900903,-0.89330703,0.1460151,-1.2306411,-0.009824666,-1.8162948,-0.11720478,-0.2249717,-0.01854218,-0.32905808,0.072845384,0.06668851,0.26038173,-1.356859,-0.4923708,-0.84790224,-0.05753068,0.026458308,-1.4128861,-1.1488172,-0.8325955,1.8712319,-0.28050599,-0.89015657,1.2629293,0.47678939,0.20433617,1.474467,-0.14078839,1.7908885,-0.420999,-0.48982304,0.55685025,-1.5776603,1.0366678,-0.04487053,0.38572493,0.64787626,1.3080385,2.2410738,-0.55546266,-0.06805314,0.20560649,-0.05893859,-0.13473274,0.9380185,-0.6869491,0.5009614,-0.6734389
MMRF_1408,0.094178066,-0.2646035,-0.81829274,1.216108,1.457609,0.61498654,-1.3653209,-1.4486827,-0.9788718,1.2397065,0.7351929,-0.4852665,-0.480047,1.8134981,0.47069687,0.67970777,0.74009967,-0.19096562,-1.4115299,-0.24637376,0.6071902,0.4168511,0.7215176,0.32429448,1.4041291,0.059321992,-0.12129952,-0.22812545,0.1578126,2.170022,-0.49955407,0.05551735,-0.48432642,0.5269627,-0.7882191,-1.5894781,0.42360178,-2.604318,0.7120976,-2.0178905,-0.0078352075,1.6584493,-0.386955,-0.5235202,-0.9032631,-0.46919838,0.28782353,0.58024377,-0.39818206,-0.8196276,2.85122,1.2674508,0.2166929,1.0128366,-0.87096316,0.50113887,-0.47753152,1.0431924,0.51814467,1.6911244,0.008360114,0.41537863,-0.43777427,0.40425652,-1.1963788,-0.5111283,0.041129135,-0.3346179,0.79723006,-1.3672882,-0.3402521,-2.1760938,0.31080028,2.186552,-0.77460796,0.46749485,-1.1397495,2.1833527,-2.026307,-0.14779972,-0.7006593,0.31109524,-0.75998205,0.64866734,0.81803334,-0.73516023,-0.5044622,0.45991912,-0.8567833,-0.7923176,-0.7818504,-1.1248714,0.79482085,1.1313293,1.2162981,-1.0416871,-0.25900933,-0.83263856,0.50125045,1.1145325,-0.776364,0.14368464,1.9076833,-0.07264639,0.4559326,1.1881001,0.95708215,-1.7332475,-0.41771775,-0.1698207,1.0534388,-0.14483343,-0.35860285,-0.13318399,-2.2900689,-0.8096283,1.4410733,-0.4047622,1.1701959,-0.8481497,-1.6201141,-0.70281464,-1.1606933,0.09543069,0.2407361,0.14558664,0.15470837,0.19836506
MMRF_1338,-0.6149427,0.5609668,-0.98330116,-0.8289503,-0.90023285,1.3127381,1.1373152,0.42486617,0.6307359,2.0636206,0.029185336,-1.1523849,-0.045393918,0.35478914,0.75754905,0.92413163,-1.9957619,-1.2184408,0.2205658,-0.68397206,-0.36474577,1.5003252,-0.83797306,0.40881893,-0.027847622,0.09809386,-0.18327358,0.9793917,-0.47443956,-0.5912465,1.534959,-0.8089383,-0.6862751,-0.1305582,-1.9802895,1.2472603,-0.256264,0.098429576,-1.1412381,0.97733617,0.21672168,-0.06484123,0.36201185,-1.3335549,2.0856986,-0.40250626,-0.032001887,-0.08788407,1.7628281,0.023065334,-0.67704016,-0.35004562,1.6617982,1.9340796,-0.8303703,0.5325738,0.5132335,0.098085254,1.041432,-0.8203856,1.0008361,0.6106351,-0.07772944,-2.0861866,-1.3751934,-1.3810627,-0.23159426,-1.0313585,-0.37427413,-0.13860238,-1.7195799,-0.9477305,-1.3742146,-0.052611392,-0.5839847,-1.3604633,0.12440429,0.112048455,0.39080027,2.0240028,1.5105289,0.6693319,0.8275048,0.03634591,-0.11604473,-0.01829875,0.9609242,-0.0398789,-0.6612901,1.3365718,-1.7531713,-0.46407482,-0.22818527,-1.6326914,1.5321164,1.3227644,0.5924515,-1.7691212,-1.3888161,-0.096104145,0.46038303,-0.24349631,-0.9883049,0.93243784,-0.9620478,0.68850684,1.2117846,-0.2467261,1.1799171,-1.3440489,1.1140293,0.40964052,-1.1631931,-0.5674833,-0.29746726,0.5028482,2.4456916,1.7669567,-0.35531208,0.32454062,0.9339989,0.30818465,-0.9748981,-1.1506981,0.5367264,-1.6651667,-0.26690462,0.22670534
MMRF_1342,0.5704521,-0.7721454,-0.1053916,2.1378093,-1.510376,0.56243575,-1.8310547,1.0088978,-1.406439,-1.5483985,-0.6336816,-0.94456315,1.0447146,-0.6455424,0.7183879,1.5185574,-0.16088724,0.4018693,1.7524861,1.4044765,1.9934645,0.36007264,-0.47447577,-1.8443519,0.64103377,0.43069994,0.18020666,-1.0533798,0.52575034,-0.15147166,0.5003669,-0.5551527,-0.40797284,0.31409526,-0.72201955,-0.57588434,0.5362331,-2.3867989,-0.099005245,-0.45679286,0.6464177,-2.435928,-0.569407,-0.5197268,-1.4434208,-0.4393032,1.197143,0.75320417,-2.0886333,0.31873497,1.2976452,-0.32936776,0.07960348,0.52908516,-0.847851,-0.4372981,0.374723,0.68936193,-0.6083486,0.8430198,-0.5140332,0.78021437,-0.2939726,1.0592134,-0.6769579,0.73693466,0.12413271,0.26100278,0.96511674,0.44054982,1.1148118,0.5517501,0.24009247,-0.37669787,-0.2053498,1.186341,-1.3294355,0.39199635,0.9962816,-0.6392314,-1.0496677,-1.3260972,-1.0760298,0.045704283,0.25194395,-0.8088205,0.31952184,-0.33319768,1.0037193,0.46722734,0.8848361,1.3968316,-1.477951,1.0793571,-0.28530666,1.6274811,-0.3277808,0.60823774,1.1132365,0.73680544,-0.9994054,-0.7223761,1.9357044,-0.5201205,1.982324,-0.2632924,0.2126715,-0.5247388,1.0940433,1.4802567,-0.23221193,-0.8314612,0.36329228,0.11612009,-1.4470872,-0.34417865,1.2842181,-1.9050754,-0.25236645,-1.347911,-2.2861555,1.7244432,0.4957957,-0.71301955,-0.40670308,-1.1979063,0.1144582,0.017362634
MMRF_1352,1.0301683,0.29023272,0.35222334,-0.0500704,0.13515222,0.112544954,1.1891662,-1.3775681,0.219353,0.9859183,2.027719,0.20335765,-1.3806446,1.2917866,-0.34590706,0.41127825,-0.8478853,-1.5911802,0.0133392755,-1.5120312,0.29791042,0.24985155,0.75453055,0.9458507,-0.3566543,0.4530402,-1.0078019,-0.34987384,0.5538186,0.3905287,0.80633545,-0.014761103,-1.3297739,0.4141635,-0.9703895,-0.20196992,-0.5009264,-1.2261875,-0.6567766,0.7180664,-0.43950245,1.6084782,0.21779768,-1.1726328,0.40849173,0.19836782,2.153908,1.3242352,-0.1433138,-1.512449,-0.45176917,0.6431707,0.15294874,0.48591274,1.4388154,1.5298046,0.49527073,-0.14712027,-0.58902365,1.613783,-1.0311594,0.1746399,0.6643049,0.6594618,0.23082176,-1.0494273,-0.21341608,-0.5819515,-0.97929037,0.04362013,-1.3750081,-0.3380197,-1.5007955,3.2096753,-0.31644148,-2.498612,-0.29995054,0.20131448,-0.5188224,0.7442694,0.98155546,0.07964315,0.659052,0.6380837,0.36680782,1.0493107,-0.37952688,0.7235484,-0.048503004,0.8086426,-0.35907707,-1.2297397,-0.16306077,0.6528346,-0.4719995,1.767769,-0.84929425,0.2930423,-1.4405857,1.0781916,-1.4787343,0.33356056,0.5762449,0.7489219,-1.2088909,-0.19450967,-0.22594309,-0.36109346,0.77525187,-1.3215709,-0.34405345,1.1273388,-1.4293139,-0.32022423,-0.2732132,-3.4385374,1.9669756,0.36747217,-1.3833241,-0.1807721,-0.78833044,0.9572391,-0.47114342,-0.054065928,-1.2586119,-1.5829653,0.22622123,1.7808409
MMRF_1380,-0.68639433,-0.075887844,-1.7228913,0.8070822,0.8742238,1.7740884,0.20899966,-2.2280428,-1.032801,1.7840893,2.030723,-1.1472253,-1.1762378,2.0928786,0.12634784,-0.33180875,-0.08981826,0.8793545,-1.7398013,0.38536036,0.21399324,-0.83286804,1.05378,0.21352035,1.2008598,-0.45624235,0.83156234,0.46603572,0.035660446,0.91653323,-0.6134035,0.7518441,1.3050156,-1.1820052,-0.43127093,0.12882444,0.37756968,-1.927146,2.0797718,-1.2048217,0.31755129,0.4012395,-0.045910385,-1.0164088,0.35142908,-0.55360097,-2.184827,-0.6570491,0.92127454,0.6223884,1.5512019,1.2202417,0.25263464,0.34798333,-1.4697449,1.0448401,-0.64323455,1.1023914,0.20122293,-1.2953919,0.9803565,-0.8706916,-0.76699317,-0.16792032,0.3210218,-0.4327292,-0.73664933,-0.8676752,-0.3017458,-0.54012334,0.21957679,-2.5964854,0.5725565,0.1739477,-1.3961852,1.1715041,-0.5124385,1.5881627,-0.20807648,-0.4577768,-1.1220287,0.7320555,-0.779841,0.8177435,-1.6140814,-0.6302376,-0.17962024,1.3389225,0.08587996,-1.5824237,-0.011818358,-1.0587595,1.6272258,0.7425694,1.2469474,-2.2935493,-0.0752225,-0.67317814,-0.13777317,0.5016239,1.5558051,0.45928514,0.2038372,0.02616219,-0.051189147,0.3106228,0.30925992,-1.7640668,-0.07487969,-0.11957115,-1.2237419,-0.8155146,-0.5606045,0.11951871,-0.011539971,1.037328,0.33331925,0.3139333,2.0024867,0.5898504,0.77873313,-0.009526775,-0.269288,0.57751507,1.0116941,-0.530744,0.39342573,-0.90294695
MMRF_1389,0.42525324,0.16781114,-0.07044199,2.4684963,-0.9396693,-0.043729044,-1.151599,0.6664789,0.6829424,0.9060004,0.2845706,-1.0682234,-1.1803652,0.7424616,1.0206767,1.5439632,1.8168473,0.24011196,-1.2389264,-2.2525856,0.3201895,1.0612934,1.7305542,0.9853542,1.3486043,-0.12367407,-0.6680317,-0.74602365,0.7767671,1.0221846,-1.1297165,-0.9947465,1.6066823,0.7630139,0.54726744,0.007864051,-0.26954526,-2.7581685,-0.50166744,-0.20535214,0.11428422,2.0351477,-0.3405833,1.5815269,-0.21064907,-1.2151828,1.1243812,0.07278768,0.697941,-0.0835371,-0.90482944,0.020944368,-0.60901827,-1.3917385,0.70802397,1.8719538,1.7943009,0.0832328,0.5428334,-0.1748765,-0.43687278,-0.32863125,0.4697164,0.6710655,-0.38029858,-1.6838284,-0.08574948,-0.6377432,-0.29847673,-0.6737431,-0.099559814,0.50332785,0.9888667,1.670113,-0.14276181,-1.7013942,-1.0056345,-0.10850878,-1.2339319,0.60991657,0.46899468,-0.5953929,-1.5539844,-0.0013830434,0.51396286,0.06648545,-1.6397834,-0.99489266,-0.25182262,0.8284984,-1.2783127,0.7299668,-0.33780265,0.35906884,-1.2227298,-0.18485473,-0.45644918,-0.8911435,-0.5786007,0.9977113,-0.48758382,0.74883604,0.40941134,0.888185,-0.32216892,1.3351998,-0.47403127,-0.17571667,0.7320857,-1.1315628,0.4947212,0.0016631465,-0.40938511,1.2440972,-1.4036847,-1.646805,0.9334049,0.75248474,-0.67700803,-2.1622329,-0.5488022,-0.7136735,-1.4553992,0.54346853,-0.27758104,-1.1830479,1.7084725,1.5240318
MMRF_1388,0.24139988,-0.3886158,1.1228232,-0.20563582,2.5878477,-1.7516978,-0.09215918,0.49456936,-0.019759675,-0.88131106,-0.39980763,0.03704989,2.2020483,-0.6220179,-1.00262,0.6941451,1.5981585,0.56180733,0.81712264,-0.3304072,-0.12702142,0.20733361,0.8571719,-1.1283673,-1.5206265,-0.20106557,0.3195059,-0.5985921,0.15971646,1.0901315,0.80838424,-0.86875993,-0.5769731,0.593679,-0.20382106,0.3356062,-0.8230319,-0.2968551,-1.4300648,-0.13896053,0.035460662,-1.1689218,0.6664315,2.0004327,0.043786723,-1.2072308,-0.010917058,-1.5864633,0.013785263,0.009827997,-1.400004,-0.86687225,-1.4744179,-0.024948394,0.6411098,-0.4414097,0.72110456,0.13238147,-0.71312964,-0.90758926,0.16147591,0.46419317,0.96787614,-2.2965117,-1.3657179,1.0992401,0.4081759,0.9289307,-1.238206,1.642316,1.128131,-0.32153714,-0.8084822,-1.5937845,0.2681904,-1.3620651,1.1066718,-0.3682661,-0.27680522,2.1814837,-0.49108526,0.113571994,1.5783566,-2.1947336,0.18369584,1.162315,0.97082317,-0.021392519,1.9875298,-0.21974127,0.7273873,-0.27147523,-0.44854793,-0.8391427,1.2224088,-0.49831688,-0.13420309,-0.4341574,0.50538146,-1.479966,-1.1720421,-0.81758225,0.968374,-1.3998201,0.79988813,-0.24888493,-0.012752383,1.6341574,1.6885889,0.6481134,1.5798651,-1.3708929,-1.0165784,-0.9259417,1.5350206,0.84627825,-1.4579059,0.8392652,-0.43197626,0.20859513,1.3765813,-0.8845532,0.4988025,0.40077946,-1.1065001,0.9643141,-0.27796733,-0.6526303
MMRF_1395,-0.15756732,-2.068485,0.7308915,-2.148917,1.6333258,-1.0513682,-0.3055359,-0.11305878,-1.073133,-0.981418,0.5243483,1.7237417,1.2773583,-2.0001044,-0.9028902,0.36064106,0.23896202,-0.3466348,2.4492865,1.3107483,-0.671842,-1.0568516,-0.64496064,0.039263785,-1.7637829,1.5307157,-0.5306569,-0.054120157,0.0027942955,0.19252045,-0.22528513,1.2303706,-1.5090655,1.0310534,0.15125675,-0.8951568,0.2680714,0.8008956,1.0828632,0.83494085,-0.6154501,-2.1429822,-0.2406388,-0.9034217,-0.7408741,-0.53714526,-0.84664065,0.25968248,-1.140095,-0.24148336,0.024161905,0.500875,0.35423046,-0.08502564,1.2470638,-1.1891199,-2.6963425,-0.12400283,-0.20863047,0.081242874,1.321112,0.8144138,0.23836894,1.189926,1.2371392,1.2533845,-0.23102914,-0.22129753,0.59589636,0.69004613,1.179577,-0.36266193,-0.5439467,-0.017408546,0.12054552,1.327774,0.69541204,-0.38921607,-0.21773599,-0.4112513,-0.06653735,-0.6012784,0.98413825,-0.34681812,2.52824,1.598133,0.44907784,0.07426717,1.2875491,1.1371967,0.045014404,-0.49041793,-0.07829298,-0.042556174,-0.58126116,1.3331501,-1.2089987,0.7376345,0.9478355,-0.4079002,-0.9729191,-0.04938927,0.56551623,0.8002486,0.22861332,-0.5325252,0.84775656,-1.1996415,-1.2923033,-0.075009234,1.5181426,0.31923983,0.16957201,-1.2289563,-0.07979907,-1.2327431,0.92274016,-1.4828154,-2.0091856,1.1722853,-0.5542172,0.5290414,-0.43923178,-0.48913,-1.178083,1.5370791,-1.7655811,0.58798677
MMRF_1391,-1.1019552,-0.52400416,-2.064913,0.8792261,-0.89554334,1.2626178,1.4822687,-0.7134944,0.50938255,-0.5583827,0.59643537,-0.6647755,0.53776604,1.6287991,1.777042,-0.27658004,0.79598343,1.4578897,-0.41911602,0.1897985,-0.05657879,-1.8993461,0.22877738,-0.2995578,1.1492194,0.47395054,-0.027349144,0.60743165,0.11322839,0.11023017,-1.1920696,0.6692203,-0.71813375,-1.4278289,-1.3963512,-0.6666187,0.29235065,-1.1058644,0.53490627,-0.471898,-0.27428347,0.91134036,-1.0258104,0.18363078,-0.928602,-0.5948717,-0.57786506,0.24713027,-0.77473944,0.7674623,2.8741148,0.819496,1.1335409,-1.3408498,1.167371,0.40063697,-1.0389318,0.54779273,1.8109815,-0.503419,0.5460564,-0.65082335,-0.62661195,0.9833528,-1.426209,0.5715076,-1.1531265,-0.48563692,0.060800772,0.21543509,-0.47411,-1.235321,1.4563804,-0.47909144,-1.1769459,2.0513632,-0.26694036,-0.25996402,0.31710082,0.15200667,0.09859724,-1.1398625,0.026259007,1.4261209,-1.2047075,-1.3697633,-1.755883,0.29603848,-1.4361662,0.13866603,0.71533114,-0.7846554,2.1852517,-0.22959977,-1.321335,0.515317,-0.9067675,0.6258299,0.18327634,1.7920525,1.0333728,1.0141854,-2.006015,0.4645318,0.6988626,-0.0016469285,-1.0819232,0.027973361,-0.2694965,0.36647865,0.04478441,-0.94988126,1.7976764,0.2726248,-1.6141641,-0.6342614,-0.0063142236,-2.182743,1.5543052,0.97697765,0.34998134,0.41152442,0.030208256,1.8233315,0.33053023,-0.48917353,-0.5863074,-0.07625597
MMRF_1359,-1.277921,0.29678318,0.44166812,0.5445634,0.8307536,0.46119714,1.3282175,-0.767377,0.033281527,0.99711555,0.534721,-0.42002946,0.24255745,0.74556,-0.29152912,0.6247886,-0.5624723,0.093059525,-0.5046884,-2.414156,0.12631431,0.48455432,-0.18104541,0.40154347,1.4620283,-0.19566679,0.54161483,1.117657,-0.034390777,0.48448682,-2.1852489,-0.8226629,2.3003328,-0.69891137,0.34606954,1.1745176,0.4555837,-1.6225609,-0.89143336,-0.29179564,1.6711074,1.5463775,0.8943651,0.21609634,1.0418965,0.098703794,-0.53390676,-0.53816646,0.7490678,-1.2530357,2.3548503,-1.4100598,0.050332487,0.5200661,0.33118883,-0.36414495,2.2392073,0.2749281,-0.20188662,-1.2198738,-0.97180253,-0.4969816,-0.5873246,-1.9064693,0.37872407,1.0144625,-1.2599725,0.9569312,0.2400195,-0.26921564,-1.5769616,1.5247799,-1.647658,2.2810616,-2.0233989,-0.5257778,-0.27224556,-1.1343814,-1.0464425,-0.32329518,-0.69234604,-1.2058973,-0.30173957,1.4663635,1.4387119,-0.805193,-0.36426604,-0.003515027,-0.7687271,0.18353042,-1.3299015,-0.06899924,-0.6008791,-0.47198075,0.7175946,-1.3053482,-0.32340392,-0.8140395,-0.6278942,0.7411316,1.098995,0.35263366,-0.7458171,-0.02691805,-0.3002474,0.67100966,-2.434133,-0.05696399,0.53023463,-0.9156785,-0.23936571,-1.115846,-1.3732179,1.3692306,-0.6089493,-0.120679505,1.6280512,0.59879404,0.97097015,0.14375296,0.915641,-1.1553303,0.7972014,1.2385064,1.4687486,-0.14546362,0.7641938,0.11415316
MMRF_1267,1.5051944,-0.08644183,-0.705425,0.7902874,1.8961353,0.8786636,0.85076284,-2.5803032,-0.07556958,1.9318578,1.9727072,0.14043924,-0.92367023,1.4074408,-0.572517,0.20069797,1.2470706,-0.38063338,-0.74947846,0.7083861,-0.7822833,0.12949021,2.296783,0.49891478,-1.3109618,-1.3656194,0.9060013,-0.41215968,0.7504942,1.9806106,-1.3969139,-0.69166434,0.6952496,0.19534293,-1.0492772,-1.0450466,-0.16728312,-1.6652682,0.3219331,-0.2465336,-1.015361,-0.032574467,0.82028735,0.1321361,-0.15905792,-0.9691205,-0.89254653,-0.04095979,1.1399171,-0.12830523,-0.09105626,0.00079627335,0.63405263,-0.13524501,0.9888,1.3288918,1.4168881,0.9507273,-0.74703735,-1.3596725,0.32105118,-2.9931436,0.30547366,0.08890754,-0.12696126,-0.76693416,-1.5748928,-0.25798973,-0.9710077,0.6100285,-1.2652959,-0.7313158,-0.05179834,1.2909744,-0.5599129,0.80317706,0.44077745,-0.8044944,-0.51293725,1.1310422,-0.3445435,0.63522255,0.57870144,0.7193403,-0.7197219,0.95671856,0.03870682,1.3964852,0.9751998,-0.6107076,-0.016687408,-2.134234,0.829665,1.9077867,0.4157107,-0.49248123,0.15584628,-0.5550688,-1.6260183,1.2208494,0.116046205,-0.69149536,1.2432337,-0.46242416,-0.8756254,-0.037229277,-0.9176611,-1.4127941,0.26609576,-0.46495977,-1.608469,-0.13581496,-1.5799227,-0.6748274,1.4983636,-1.6260768,0.25697476,1.2022653,-0.09475294,0.7887679,-0.30892345,0.67131096,0.37620223,1.0472901,-1.1165909,0.23192611,0.12416986,-0.5407168
MMRF_1274,-0.33010724,1.4183277,1.3182539,0.18421368,-1.5017557,0.68519306,-0.4986446,-1.068843,-0.38682312,-0.83301395,-2.5032866,0.97368616,1.0337834,1.580195,-0.7004785,0.12562361,0.19711092,1.2472953,-0.80453646,-0.31124187,-0.8404706,-0.71424776,0.4011626,-1.4090512,0.7618635,-1.2833184,0.14785095,1.0320712,0.73415446,-0.29998797,1.2539337,-2.5526013,0.8007559,-0.121152624,0.4688366,1.7252216,0.05784361,0.5095417,-0.58626235,-0.28054795,1.6794589,-0.626399,1.3177514,1.4226713,-1.9341457,1.176106,0.23010871,-0.8962106,-0.18683045,-0.6645578,0.021880332,-0.35901558,-1.1965735,-1.1168603,-1.7406468,-0.70811397,0.5518364,-0.8942503,0.8597701,1.7659665,-0.12452376,-0.045514543,-0.06243764,-0.032840617,-1.2268187,0.27429682,1.2864994,-0.6523694,0.91960967,-0.59178025,0.5240229,1.2012333,0.49795967,-0.88941497,1.3629661,-1.4327327,-1.0210451,-0.5962533,-0.7914717,-0.30841902,-1.2373081,-0.007811688,-1.4148027,1.2627066,0.13993609,-0.89542013,0.72806543,-1.885677,0.6578305,0.034901783,0.77250415,0.7547305,0.3337677,-0.9000274,-0.009000341,-1.1434706,0.21209347,-0.8558647,0.99296784,-1.5502352,0.25774872,0.5697061,-0.28474015,-1.0206879,0.74551713,-0.1053566,-0.73545426,2.618809,0.7030934,1.365023,0.049466856,-1.4003537,0.30013365,1.7433164,1.0203657,1.6258799,-1.1653932,1.5287309,0.272271,-0.15699714,0.39158016,0.11686329,0.005974208,0.12052724,1.1560724,-0.689074,-0.27157402,-1.5062498
MMRF_1037,0.23127761,-1.0269501,-0.021348283,-0.07611671,0.70895517,1.0423589,0.67500234,-0.12701394,-1.7250971,-0.90391904,-0.6214275,1.3344699,-0.8809064,-0.8953845,0.61465275,1.0282319,-0.3992481,-0.21659184,0.88692176,0.6384609,-1.4072503,-0.58338547,0.79467934,-0.3567326,0.6122397,1.1219503,-1.2361772,0.31382865,0.6105581,1.378193,-0.9236233,1.4583133,-0.3146254,0.40307432,0.23228821,-0.6843094,1.3079861,0.13936028,2.1547487,1.8076723,-1.1142942,-0.580662,-0.13224247,-1.5008162,0.9276514,-0.4236271,-0.5419804,-0.0037332652,-2.303453,1.1691061,-1.1159662,0.16513978,1.7231333,-0.15957375,0.58496255,-0.109936014,-2.103942,-0.38732275,-0.7537914,-0.29768804,1.273645,-0.23576875,-0.020451453,0.5152347,1.3216442,0.5112326,0.81453574,0.22771347,1.078045,-0.8791979,1.2726831,-0.40834683,-0.60859585,-0.3036493,-0.16370761,1.0386789,-0.9863565,0.53491205,-0.11330187,-0.756812,1.4878523,0.037308905,-2.4518156,-0.5666739,1.3223149,0.11375957,0.80179185,-1.778647,0.04730387,-0.93763983,-1.9223794,1.0391561,-0.10343321,0.37353194,-1.4680989,0.9027926,1.8381323,0.7446334,-0.083427325,0.77131706,-0.68993646,0.72728336,-0.054645773,1.5419253,-0.017926555,0.021563727,0.77654874,-1.0749357,0.6024559,-0.7042947,-0.06917542,-0.46218166,0.051376496,-1.9751055,-1.7809671,-1.1124994,1.1440712,-1.8395023,-1.1860615,-0.23242295,-0.66235566,1.7654617,-1.1434262,-0.4995104,0.093873404,0.8803735,-0.83878946,2.083761
MMRF_1033,0.18383744,0.40594605,-0.8361288,1.0446411,-1.8470966,0.08979885,-1.2597674,0.34905648,-0.38253397,-1.4290541,0.62509793,-0.25643224,-1.3892366,-0.28898394,0.6961708,0.5709822,-0.87046266,-0.37952787,2.1262195,-0.12855852,0.019107372,0.72740656,-0.018431097,-0.9782235,1.2912134,1.2278506,-1.405364,0.9875441,0.3946351,-0.4226842,-0.110230096,-0.19665591,-0.7754471,-0.7073175,-0.96790934,-0.64594734,0.27611145,-0.6982195,-0.7664425,0.088797994,1.3752285,-0.022643616,-0.037129235,-2.5467844,0.71377,0.74167657,1.43219,1.1327116,-1.100241,0.016527439,0.38881227,0.3419229,2.2650962,0.70756954,0.22295655,0.5797663,0.3660807,-0.7879933,-1.1550945,0.5888221,-1.1473665,0.7832259,1.2348225,0.98344994,-0.5570901,-1.2958618,0.28755414,-0.5395428,0.12342309,-2.1571913,0.8907356,-0.46399048,0.39782113,0.1573876,0.63611156,-0.36708656,-0.8384573,-0.90418607,0.48283106,-0.14767736,2.8082907,-1.4869229,-1.9331987,-1.2126687,0.7461034,-0.45351055,1.4317112,-0.6449813,0.25980264,1.6999233,-0.96845305,0.21706207,-0.7172714,0.45484126,-0.18240383,1.9562063,-0.5929425,1.2916977,0.6898706,0.2030834,-0.5564782,-0.053513307,1.0548152,-0.5471092,-0.49413332,0.29906088,0.6200402,-0.328304,-0.6150526,-0.5811286,-0.42422295,0.73675984,0.27534196,-1.4962077,-1.1002624,-0.9101261,1.8275583,-0.63505495,-1.3168048,-0.33440974,-1.6782736,1.9201939,0.7252008,-0.47252128,-0.4296719,0.5002391,0.06976311,3.0645463
MMRF_1031,0.9468753,0.896336,1.0435114,0.7797235,-1.6423507,0.44568247,0.8730226,-0.15469934,0.3069692,-1.698081,-1.3848773,0.3935573,-1.451744,0.6960068,0.077659436,-0.296214,0.207246,0.55609936,-1.1676602,-1.148584,-1.0146613,-1.5534494,-0.11868619,0.7738681,0.92698306,0.44011903,0.48038757,-0.4623408,-0.39054427,-2.2034652,-0.029596716,-0.08955273,2.234032,0.3631219,2.4924488,-0.50906956,-0.39880115,0.37885505,0.7115995,0.076938495,-0.06561616,-0.16609488,-0.48364347,0.28429183,0.45801622,0.19819863,0.83873945,-0.30455422,-0.3857851,1.7311059,-0.1648015,-1.3668426,-1.4215748,-2.405777,-1.0881542,1.1636175,0.063681126,-0.81539464,-0.9041236,0.7293564,-0.411448,-0.03554256,0.10303687,1.996074,1.1773591,0.24176988,0.36629626,-0.17203067,0.49266338,-0.95472974,-0.10871864,2.4715889,0.67743886,-1.26658,0.66777766,-0.25306585,-1.1548705,0.4206067,1.0021309,-1.16539,-1.0421532,-0.7296788,-1.0932053,1.2499912,-0.88662726,-1.5852478,-1.0350096,-0.7532803,-0.35138416,0.51741487,0.64744836,1.0911809,-0.7705133,0.90654635,-1.2539902,-0.5649143,-0.34741285,0.58453566,0.7374747,0.67032564,0.14385825,0.88445234,-1.3831663,1.1978155,0.062220935,0.62188023,-1.1083821,1.6538776,0.016730666,1.4435395,-1.7626156,-0.4883532,0.5758617,3.441246,-0.09918792,0.47208273,-1.2601471,0.104377404,-0.13042077,-0.35791817,0.122701555,-1.1736448,0.307231,0.99044055,0.9464938,-0.18420854,-0.53137445,-1.0037085
MMRF_1068,0.24183092,-0.13099055,-0.48811865,0.23458739,0.014136627,0.19528438,-0.9091411,1.0673108,-0.8906102,-0.9905378,0.4305623,0.346442,0.7702838,0.074798726,-0.23996203,0.92811453,-0.6635277,0.105736576,0.68797743,0.9211533,0.4053641,0.41923195,-0.14651501,-1.1202891,-1.41599,-0.17967442,-0.06884879,0.09664118,0.8072971,0.71219146,-1.7708856,1.1037871,-2.9142606,0.60699433,-0.6869236,-0.06603468,1.2822288,0.36535624,0.42359892,0.30222273,-1.8980131,-0.34803486,0.31622458,0.003370095,0.1327289,-0.5056417,0.17744559,1.163141,-1.360218,0.5360743,-0.6648498,0.5534634,0.43049273,0.9313172,1.3917645,0.15820712,-1.4237514,0.3720272,1.0905651,1.3910252,0.95401543,-0.79702586,-2.7472355,-0.2697212,0.33025277,-0.8356606,1.2749877,0.575227,-0.46164837,0.41570482,0.4719727,-0.6146645,0.2964648,1.5671781,-0.32919046,0.36085173,0.51771057,0.22336747,1.8550203,-0.90492517,1.2203166,-2.1670687,-0.6644746,0.63386893,0.9601522,0.0049907845,0.55497193,-1.7388164,0.8800655,-1.1825703,0.47496665,0.525475,0.046171833,0.76326436,-1.5128051,1.2981997,-2.00517,0.26494625,1.1848443,2.1632504,0.13581724,0.4437509,-0.3910885,0.66888285,-0.46322268,0.4920824,0.41695344,-1.2896545,-1.8333154,-0.4807521,0.8952958,0.15826453,0.7231526,-1.3017904,-0.90160054,-2.7596633,1.5894867,-2.3334517,-0.27178457,0.57404923,-1.9580456,-0.32168552,0.018859608,0.3739029,0.6563269,1.3504976,-1.0481433,0.7030917
MMRF_1078,-1.2457975,0.17941532,-0.24043076,0.2582508,-0.8412688,0.17217691,1.0945584,0.41364902,0.8487762,0.36127785,1.2049252,-2.050871,0.6010134,-0.76489586,-0.8101662,0.05981592,0.1379744,0.9464065,-1.9654739,1.327263,-0.15513967,-1.5511575,1.1241707,-1.0579194,-0.086703174,0.69217914,-1.9053253,0.5184083,-1.3306851,-0.4791403,-1.3034028,-0.73864084,0.5420159,-2.1824777,0.9451592,0.4544094,-0.056884002,1.2325758,-0.21773952,0.32437474,1.7525935,0.73346645,-0.74341625,-0.2726272,-0.8287239,0.9592486,-0.19346093,-0.3935918,-0.56832355,-0.72544366,1.3925279,0.115200944,0.27130985,-2.325908,0.4253574,0.26344764,0.96324664,0.923899,0.25086242,-1.6354927,0.15878852,0.41589525,-1.9884708,0.45208195,0.050699018,-0.45187423,-0.34522408,-0.4694765,-1.1471134,0.5677309,1.3300134,1.146829,0.14748524,-1.0577576,-1.3861337,0.87613916,1.0612355,1.099586,1.5810274,0.7628084,-1.563306,-1.8791281,0.4458145,-0.73703486,-0.8801358,-0.58913946,-0.014646674,0.33961043,-0.69910276,-1.0584034,-0.57469964,-0.37639925,-0.24555686,0.6541246,0.007816697,0.32431045,0.062178686,0.8844381,1.1356385,0.99554527,2.764299,0.25086036,-1.0769829,-0.7725227,0.48818123,0.72091466,-0.3063999,-0.21975754,-1.3711922,-1.808373,0.37024572,-0.50134945,-0.6002035,-0.65703833,1.6726779,1.9607533,-0.67380476,0.6477374,1.583377,1.1530821,1.5147555,0.5735658,-0.87803185,1.3089242,1.0224797,0.58949614,-0.5262931,-1.0399266
MMRF_1086,0.05291774,-0.25851443,-0.96215373,0.9638744,0.83072335,0.21345149,-0.31812602,-1.5637349,-0.16880691,-0.09196283,1.0901668,-0.30761075,-0.759085,-0.6352658,-0.028058382,0.7679185,0.832203,-0.68652874,-1.1107689,-0.12654892,-0.28207386,-0.33411312,2.0842445,-0.51940316,1.4232256,1.543364,-0.82090104,0.8295069,-0.883139,0.26333272,-0.7509995,1.716284,0.03247319,-0.16785684,-0.23451722,0.40795058,1.4399753,-0.82901484,1.958629,1.1646307,-1.39783,0.6820146,1.4634343,-0.7109424,0.76571536,-0.61929077,-2.3840246,-0.30657116,-0.5881844,-0.067327715,0.5427175,1.7788657,0.10983496,0.064898714,-0.30442366,0.08216098,-0.187312,-0.58098435,0.72502625,-1.1597807,0.84447634,-1.7879542,-0.56445545,-0.36058176,0.7209622,-0.068339586,0.3507437,0.050399862,0.09553568,-0.6068993,0.36323047,-1.247988,-0.7619353,0.92244214,-2.1192918,2.4390266,-0.44147575,1.3536179,0.27442,1.0928915,0.30773866,-0.60542524,-1.756673,0.42183843,0.28497267,0.78003925,0.10618766,-0.26918793,-0.2916008,-2.9142838,-0.94597596,0.12962607,0.24898668,1.1391066,-0.054728232,-0.8719634,1.5354844,-0.4253414,0.2911761,1.5629855,0.8932456,0.6136262,0.8457271,0.084034964,0.20168018,0.6184751,0.32159838,-2.3677394,0.0666576,-2.3674133,-0.20579101,-0.2726241,-1.3112434,-1.0550382,-0.4254967,-1.0642469,0.94372666,-1.3054787,1.9133244,-0.054161392,0.7082103,0.21525088,-1.3159151,0.6420181,1.9456124,0.33547205,-1.3457452,-0.3690086
MMRF_1082,0.53918254,1.0216513,1.1847383,-0.3147772,-0.87009823,0.37146497,-2.0525916,1.3871778,0.1966089,2.2787676,0.16570792,0.16197008,-0.17110737,-1.1154021,-0.058939084,-0.064391375,-0.113254614,-0.7953403,-1.3608632,-0.67493314,0.32841495,1.180015,-1.4144123,0.1866821,0.9540007,0.7656763,0.55955166,-0.18692674,-0.98471946,-0.27117497,1.3237648,-0.8171361,0.44760436,0.4340347,-1.008127,0.6928569,0.11705225,-0.9980111,0.13937956,-0.66757405,0.6947952,-1.1300727,0.102378935,1.0374888,0.56809616,-1.2121166,0.2624339,-2.289771,1.8825251,-0.69454926,-1.411373,0.44820517,-1.6181092,1.2175975,-0.33244154,0.71609634,2.0264208,0.7785751,0.20549436,-0.61108726,0.32810903,-0.8360614,-1.2894263,-0.030726325,-0.062178135,0.34016395,-0.46745133,0.45542607,-0.97495186,1.0280752,-1.45501,1.5051693,-0.8828877,0.66152215,0.64320475,-0.03359229,-0.7507377,0.9349536,0.33625582,-1.0328486,2.0657294,1.0489248,1.1740654,0.95412433,-0.0682092,-0.34911,-1.295582,-0.5151127,-1.883873,1.5837897,0.1998889,-0.7296289,-0.41285363,-0.83783746,0.6255786,-1.462962,0.37145242,0.54638743,0.13498382,0.09781802,0.020195818,-0.9636015,1.1602471,1.2039139,-1.1792412,0.2763136,1.387337,-0.67176235,-1.6765922,0.9154099,-0.8324507,0.27863836,-0.31638494,0.9824946,0.1682667,1.2073603,2.4185405,0.09766063,-0.040768616,-0.8359711,0.44487816,-0.77868575,-1.2652212,-3.3047543,-0.06129668,-0.12783742,1.3337675,-0.7087904
MMRF_1092,0.37849206,-1.7028686,0.19661792,0.25156707,-0.18779735,-0.26183224,-0.21360353,2.0011733,0.093708955,-0.73097456,-1.0874217,1.7555338,0.76742405,-1.5024529,-0.2112362,0.640487,-1.0096132,0.007829575,1.4541097,2.2894695,0.9430145,-0.05872742,-1.096649,-1.0956217,0.36050832,-0.20108949,-1.5616137,0.8903042,0.18044542,0.05545488,0.20858297,-0.570757,-1.4775096,-0.022754882,1.4454579,-1.4639757,-1.2689409,0.03787286,0.29140186,-0.3661413,2.049751,-2.1224108,0.21544503,-0.5124642,-1.4877084,1.3208013,0.67508614,0.7603894,-1.8748703,-0.45544207,-0.08966149,-1.3274429,0.9085997,0.6568265,-0.09841788,-2.0427263,-0.886211,-2.4254632,-0.10508029,0.12781613,-0.25803798,1.0450813,1.3819149,-0.5760645,-0.4577658,1.6122754,0.6314159,-1.1041895,1.7559379,0.08458592,1.3276737,0.6500011,0.61762005,-1.1935838,0.666578,1.7817612,-0.07651924,-0.40716866,-0.68378824,-0.19961956,-0.8927751,-0.09610402,-0.7222122,-0.9509653,1.0184292,0.9043496,1.5143433,-1.3047498,1.9781313,0.20090385,0.1995887,0.43425316,-0.8310556,0.23341352,1.0291439,1.4435273,0.6241227,-0.16104074,0.96512705,-0.62318045,-1.7887847,-0.029805321,0.6506981,-0.8378903,1.1858546,-0.006418476,0.44852525,0.73095614,-0.11465259,0.2094199,1.2150488,-0.46702352,0.18701121,-1.1652039,0.04792846,-0.08826441,-0.092413455,-0.9498372,-2.0817327,-0.056188703,-0.99266016,1.4545249,-0.31677747,-0.2797205,0.13565211,0.16294152,-1.1746508,0.8800802
MMRF_1325,-1.1948969,0.81474155,-1.4441726,0.019629765,-1.3654735,0.8195653,0.96612895,-0.118434064,1.4003459,1.1205394,0.4565597,-2.4358728,-0.3627105,-0.09404034,0.69455713,1.2938417,-0.9967846,0.043490335,0.27877373,-0.81745154,-1.2048049,1.2061723,0.17364174,1.0038462,-0.59792095,0.085847735,-1.163303,0.9320618,-0.24023865,0.1922507,0.5154182,-0.32709095,-0.37388122,-1.5159942,-1.4027573,1.1216024,0.1039997,0.7420543,-0.27665108,1.1430913,-0.35679486,1.336592,-0.28561425,-1.4319692,2.3617723,0.06151011,0.4386552,-0.115949966,1.9121282,-0.1801932,-0.03939977,-0.74273145,0.8218012,1.4008785,0.39639235,0.9938445,0.45885366,1.0647134,1.082589,-1.0039316,0.07960302,0.10427824,-0.15176679,-0.8085629,-0.39908436,-2.1163223,-0.78924614,-1.3688473,-0.19912611,-0.30180448,-1.2282913,0.06990889,-0.7621003,0.036179442,-1.2338604,-1.2122316,0.37936348,-0.14617169,1.1904329,2.8093424,1.0987846,-0.8391871,1.4621476,-0.16861384,-0.87360257,-0.14355767,1.1598701,0.2013787,-0.9105884,0.20243958,-1.7344677,-0.22079861,-0.9575202,-1.336938,0.6809558,0.9472296,-0.3154979,-0.4202852,-1.4146771,0.260013,0.9425686,-0.15138386,-0.7447172,1.3675002,-1.6228366,0.2919358,1.0118622,0.05433235,0.7604452,-3.0074732,1.2065142,-0.35015026,-1.6335586,-0.972469,0.33640137,-0.011722952,1.4529948,1.2985423,0.78141534,0.59438497,0.52659655,0.65286845,-0.8576206,-0.2890414,0.57402354,-1.0495733,-0.3743321,1.2456737
MMRF_1364,-0.49758518,-0.5108312,0.16425635,-0.650135,0.3933621,-1.0186362,-1.9289824,0.8413114,-0.23638847,-2.5124817,-0.79325986,0.23409803,1.5595653,-0.3307482,-0.24373315,-0.5816235,-0.075341456,1.4211687,2.9035964,1.5268406,0.2625677,0.44640926,-0.81680757,-1.2807927,-1.4759558,0.7450225,0.31828463,-0.75720793,0.31333455,-0.48609772,0.02310902,1.3118532,-0.7375663,0.7642273,1.1461922,-1.2249975,-1.2918756,0.89863914,0.14895895,0.45289016,-0.45258576,-1.544705,-0.10088134,-0.2790173,-0.21555391,0.3572021,-1.3173914,0.6695366,-0.83208996,0.95812047,-0.11463416,-0.83500934,0.05972041,-0.699744,-0.6177743,0.22354451,-1.9732834,-0.10469437,-1.2474239,-1.4075321,0.35779953,0.9370642,1.0480325,0.2036508,0.401757,0.52756286,-0.25024784,-0.31484634,0.60863656,0.10477278,1.3687949,-0.8889925,0.9506033,-1.5973034,1.3128376,0.15947568,0.9071513,0.9003472,1.4481456,-0.043063622,-0.5726705,-0.3510731,1.1990781,-1.0463736,-0.025074523,0.6150998,1.5537574,0.7165288,1.5801877,0.27965322,0.87819093,1.9378672,-0.9817264,0.12945953,1.337691,0.111327715,-1.0346256,0.4806796,0.7514526,-0.7520955,-0.68443114,-1.3079665,1.296862,-0.757499,1.5723729,-0.50101215,0.9217312,-2.0641568,0.22069243,0.85088265,1.1062051,-0.24605414,0.9919295,-2.7430859,0.43785408,1.3762789,-1.081823,-1.4775586,0.07568665,-0.19147429,-1.823213,-1.001568,0.50200903,0.009963278,-0.04220359,1.3842658,-0.37506887,-0.4965893
MMRF_1383,-0.12756824,-0.5270424,0.35965848,1.4163393,0.56112206,0.54456323,1.0859802,-0.28676626,0.70071775,-0.088120036,-0.42775992,-1.1244465,-1.1188774,0.2877638,0.078621194,2.5985029,0.0246501,1.0375239,-0.45618197,-2.4363647,1.7334162,0.59636,-0.6294379,-0.1889438,2.4117186,0.39215848,0.2624376,1.2734873,0.50147563,0.8521606,0.27226627,-0.19309168,1.0458592,0.09850842,0.09919835,0.735506,1.5685337,-1.7747849,-0.1968697,0.4957869,-0.5669031,0.14833416,1.3692908,1.0303675,0.56483763,0.18056439,0.4518346,0.31597048,-1.2958268,0.23027635,0.1985581,-1.303437,-0.043640822,-0.10781182,0.7871348,-0.76536375,-0.035171308,-0.65450174,-0.09536494,0.13618916,-0.5382882,0.02427338,-0.18741706,-0.9619527,-0.4145369,1.4320557,0.22418077,0.3247013,0.6640888,-0.031123698,0.53833085,-0.8037352,0.6354221,0.67027193,-0.319598,0.1176869,-1.4204572,-0.45030546,-1.0310049,-0.696373,-0.6341528,-1.7825806,-2.7644339,0.7819764,1.1763648,-0.22177635,-0.86355203,-2.2981126,0.52176344,0.48361793,-0.6849424,0.61812234,-1.8928465,0.4919227,-1.5164077,-0.60875803,0.16757222,-0.6713486,0.6700071,1.3584185,0.3495669,-0.8608741,-0.9146681,0.3087592,0.8175811,0.40517005,-0.044732995,0.8597069,1.4339776,-0.039245244,0.63551885,-0.30206925,-0.12861218,-0.2332628,-2.4122493,-2.558514,1.3341234,-1.4756846,1.1085397,-2.2792118,-0.5068146,-1.188595,0.39562416,1.605038,1.8499914,-0.7347407,-0.53815764,0.7677461
MMRF_1377,-1.2085536,0.6238374,-0.6853335,1.3233957,0.2659325,1.4953585,0.7330088,-0.3881287,0.28492686,0.6643613,1.3538047,-1.7399102,-1.2514704,1.8257923,1.3101145,0.7802419,-0.05671604,0.8567732,-1.4271635,-2.0117414,2.619653,-1.255503,-0.2006925,-0.23532563,2.343083,0.27322102,1.5358747,-0.11916745,0.7407238,-0.22373067,2.1174386,0.04443979,-0.3240731,-0.31453198,-0.8233317,0.6534629,1.0016875,-1.795267,1.1426411,-1.2087884,-0.028622795,-0.37740913,-0.12772487,0.53255683,0.03274548,-0.9797164,-1.7828012,-1.2219169,-0.6157755,-0.36344588,1.4720447,0.71071833,-1.040133,0.6334643,-0.7285983,0.5543403,-0.22339153,0.821164,-0.39673904,-1.0917739,0.16049974,0.054383017,0.113041036,-0.6998875,-1.6903173,0.67026806,-0.92773753,-0.3584141,-0.020222986,0.3911398,0.8748659,-2.552573,0.47089142,-0.24795237,-1.7625797,1.1061544,-1.4450405,0.98102623,-0.08985796,-0.41175777,-0.28925475,0.36805478,-0.6404795,0.9297351,-0.9819417,-0.3282141,-0.44187024,0.4512749,-0.5979091,-1.1892892,-0.09800335,-0.45145673,0.050738357,-0.4013058,0.52207386,-1.8969442,-1.2974259,0.07572203,0.49537897,0.7540872,1.1725084,-1.971748,0.118518345,-0.5677349,1.9519128,0.6251053,-0.054124154,-0.1567603,1.137539,0.8540678,-0.4100102,0.5164291,0.630127,-0.12518758,-0.50304717,0.2726197,1.2200326,-0.9504958,2.660979,-0.77947754,0.047745153,-0.21204884,0.27397677,0.460523,0.6048829,-0.9254588,0.7618301,-1.0051594
MMRF_1360,-0.044895545,-1.3544255,0.19072033,1.2681445,-0.7471953,-0.05146172,0.57262796,-0.2873198,2.6246972,-1.7741034,0.7798501,0.50823474,0.7470018,0.1427675,-0.6953833,1.3475952,0.046734378,1.6321486,0.8789095,0.33891034,0.5346887,0.39854667,-1.4773664,0.37364122,-0.47489378,0.67090744,-1.1051519,-0.44653997,-0.20134157,-1.7257456,-1.0694746,-0.82523227,1.2930044,-0.8758271,1.7163681,-0.55086404,-1.1204348,0.8334005,-0.74606335,0.466653,1.0993977,-0.49558568,-0.70273983,0.7598892,-1.0708206,1.2046161,1.063647,1.7174052,-1.6450202,-0.34924027,-0.09423466,-2.0701685,-0.010126881,-0.018654825,1.4915092,-0.61821467,0.14279053,-1.552829,-0.42119533,-0.30619922,-2.9462805,-0.04817274,0.8993457,-1.0970604,-0.074867174,1.2205347,-0.43029755,-0.24086082,0.70625716,0.093658894,0.3867708,2.3319843,-0.047633443,-1.3118598,0.23418157,-0.7474912,0.6661097,-1.3777907,1.0958297,-0.34953764,-1.8260965,-1.6949371,1.0719967,0.11203596,-0.77675974,-0.7176323,0.67937523,-0.56680995,1.8383381,1.2861176,0.10558332,1.1133426,-0.4871873,0.7714346,-0.6620776,0.023438118,-0.5770582,0.26485127,1.4580463,-0.03169705,0.19510135,-1.3789536,-0.94593537,-0.6607643,1.2310524,-0.7965007,-0.9970235,0.39261693,0.49492973,0.78485876,0.5205153,-0.20090626,0.3930727,0.36122566,0.54501045,-0.3459143,-1.0963465,-0.30371544,-0.085396305,-0.44633916,-1.2821146,-0.34489164,1.3649919,1.6059741,1.1412895,0.39596024,-1.8237901,0.9798033
MMRF_1371,0.06280495,-1.8542982,0.3189689,-1.6615936,1.2845386,0.8166312,1.0044739,-0.78621334,0.20748855,-1.0144986,0.91162276,1.292026,-1.011771,-0.09232727,-0.2284316,-1.0215611,-0.4861755,0.93791264,1.5519857,1.1165056,-0.74945647,-0.7409469,-0.33593798,0.014794163,-0.04977086,0.559377,-0.18851322,-0.22154593,-1.4458139,0.22482686,-0.28593016,2.5953727,2.3576593,0.2098144,1.2859612,-0.620834,-0.35597825,0.35893422,0.80855864,0.3142995,0.45184618,-2.4252992,-1.0224079,-0.68929386,0.51428413,0.14848422,-2.2396703,0.69438934,-1.4056003,1.2684112,-1.102875,-0.84897006,-0.24185315,-1.7847697,0.0017215535,-2.2489922,-2.3681161,0.2404184,-0.2647441,-1.8150747,1.2045252,0.58260477,0.40744472,0.1318613,1.9056455,1.5201249,-0.46116546,-0.6261006,0.88187456,0.19857506,1.6566921,0.1367494,1.147057,-0.99148685,0.06529747,2.2243197,0.1167547,0.27573198,0.26095313,-2.9858806,-1.0035236,0.36563185,0.19554913,-0.67244256,-0.2524119,0.38625133,0.68594694,-0.8461455,0.36615002,0.37687874,0.09485044,0.07793194,-0.09840456,-0.124110565,0.17627385,-0.6117601,0.7432133,1.2521077,-0.92315924,-0.4624561,0.32129577,-0.18471573,-1.0255345,1.0139534,1.7697375,-0.6312067,0.10254228,0.0070598777,-0.48399088,-0.05456199,-0.3714085,-0.36171278,-0.6206136,-0.45590237,1.3785638,0.4251542,-0.62287253,0.32402825,-0.6275633,0.74547356,-0.15237251,-0.119221464,-0.28478947,0.5676084,0.94635,1.3795635,-1.3292042,0.9600302
MMRF_1089,-0.05142829,-0.49370646,0.96803993,-1.6919519,0.004812904,-0.10410431,-0.75541824,1.2017025,-1.7051764,-1.094824,0.41550562,1.4176174,1.6842469,-1.5013335,-0.021285107,-0.523038,-1.463241,0.23159721,1.6084511,0.9250297,-0.5655694,-1.4250292,-1.4480889,-1.34572,-0.21590059,1.0433699,-0.9631281,0.4034401,-0.26312864,0.70794,-0.57137704,1.6905991,-0.57899773,0.44423848,1.2897197,-0.3515805,0.41798812,0.24889441,2.3150413,1.3437927,0.78269637,-2.1639514,-0.18350527,-1.5104606,0.12753257,-0.124319606,-0.79493093,-0.766726,-2.410459,0.18504633,0.024666414,0.16242859,0.6324262,-1.0684459,-0.9906087,-0.68418103,-2.8889806,0.39470315,-0.075871125,-0.5278694,1.6515285,0.7605598,0.063013725,1.026401,1.9806763,1.072598,-0.04780874,0.06606352,0.9410938,0.38932076,1.3928385,0.30681786,0.5447788,-0.6203554,0.004260787,2.086231,-0.880722,1.0500511,0.23822977,-1.6323838,0.52264595,-0.7368017,-0.99230325,-0.28695622,1.0603542,0.5885765,0.22007282,-0.8509057,0.021284997,1.1236395,-1.5224025,0.85053706,-0.48908892,0.21567658,0.10170768,-0.24110629,-0.121683195,1.1874068,0.29285893,0.18494312,0.50781196,0.15268403,-0.63955003,1.2035213,0.7460897,-0.26677948,1.2310047,-1.6033534,-0.71431774,-0.08910463,1.2109634,-0.817694,0.49589118,-1.7734702,-0.77448696,1.3173528,0.88735366,-1.7804434,-0.49990922,-0.28997937,0.07452868,0.56840926,-0.96635604,-1.0051831,0.52809775,0.8829352,-0.4075322,0.8137414
MMRF_1365,0.3554017,0.4451017,-0.24957836,1.246611,0.855144,0.82330716,1.0837872,-0.23976164,1.0278972,0.7621878,1.9818693,-1.6421685,0.59042543,0.100574106,0.07327101,0.7052916,0.010221537,-0.66111296,0.73203206,-0.05138754,-0.20759691,0.25449255,1.4195337,0.058644153,-1.2526181,0.3769093,-1.1514369,-0.2952574,-0.14678332,0.9017792,0.5142144,0.14690466,-1.589769,-0.585554,-2.0980952,0.11876232,0.77652586,-1.8708528,-0.63241106,1.8439472,-0.7200237,0.19109415,-0.6225501,-0.5323977,0.6456001,-1.4161167,0.45119458,-0.8015952,1.2186862,-0.14446288,-0.63830984,1.047285,0.11801118,0.8504523,1.630788,1.3304521,1.0275697,2.294425,0.6545257,-0.44091418,-0.23420267,-0.17671533,0.036177546,-1.7075814,-1.5488268,-0.8454119,-1.3958317,0.28410357,-0.95030355,0.24685816,-0.96037066,-0.44421738,-1.667389,1.1414144,-1.7580119,-1.4480065,0.28543368,0.7853274,1.4530755,2.692343,1.0354906,-1.14626,-0.23408285,-0.64555085,0.19323358,-0.6726434,-0.6215222,0.8457828,-0.37861001,-0.9871528,-1.3744073,0.044799514,0.45705283,1.1119142,0.7481902,1.9870417,-0.88915664,-0.6482247,-0.84866023,1.674269,-1.018682,0.24758984,-0.5252254,1.186282,-0.8619043,-0.25516874,-0.5900706,-0.062940255,0.9640892,-1.2327001,0.21845359,-0.05967514,-1.880593,-0.9723976,0.06690604,-1.708918,2.3388665,0.081509516,-0.5472227,0.17752957,0.29897106,1.5570389,-0.75212646,-0.12435234,-0.91324097,-0.31926087,-0.3147434,0.81851846
MMRF_1356,0.6439268,-0.07092036,0.79640245,-1.2997019,2.2010164,-2.2014432,-0.20513988,0.94129753,1.1110628,0.10976555,-0.86666965,-0.016921861,1.790366,-1.4761616,-0.5581507,0.39707088,1.7197068,0.5826236,-0.33031312,-0.5969129,-0.90627176,1.3548416,0.46676317,0.89716655,-2.3509412,-0.48278072,0.48242941,-1.0237497,-0.68479204,0.5518038,0.18497828,-0.3119291,0.35113823,0.18994135,0.5297072,1.1735984,-0.7086194,1.263498,-0.19146055,0.3368786,-0.7333027,0.44947553,0.24950437,2.3245585,0.7876144,0.14569391,-0.7673638,-0.8508806,-0.49013638,-0.29041958,-2.2695713,-0.7254981,-1.6563485,-0.25319576,0.8012069,-0.8980709,0.5016071,0.2728203,0.7190935,-0.97313404,-0.48257354,0.20265019,0.34370455,-0.69403267,-0.026519487,-0.34802634,-0.077410355,1.2590591,0.02351249,1.1890314,0.6654311,0.82983553,-0.46923658,-0.82158095,0.07515767,-0.88340384,1.4102358,-0.5875816,-0.14634936,1.6439593,-0.8933478,0.1262173,0.8818779,-1.4042424,-0.076923944,1.3771888,0.41231748,-0.21749079,0.9898675,0.1248992,-0.12506878,-0.09563294,-0.28013703,-1.5502045,-0.22999698,-1.2062246,-0.2654402,-0.8286098,-0.33494067,-2.1254494,-0.7967955,-1.584467,0.64311993,-0.98896486,-0.5157184,-0.88821477,0.40774518,1.3046117,1.2638866,-0.63781536,1.2906599,-0.49481523,-1.4181648,-0.7488835,1.8755467,1.5164765,-1.6782202,2.6242292,0.44923398,1.0789558,1.6082355,-1.6235248,0.086756885,0.8404599,-0.82073027,0.7301209,-0.113674365,-0.9586419
MMRF_1270,0.28994185,-0.114670545,-0.79636943,0.62146175,0.590932,0.33371553,-1.6100439,-0.16517894,0.6627021,1.0280457,1.4416047,-2.2984664,-0.9421071,0.7205962,0.7322261,0.63825995,0.39332008,0.52284616,-0.34255034,-1.924744,1.6251281,1.2378923,-0.07568228,-0.23969454,-0.00027931575,-0.07125297,0.60378647,0.7525148,0.088442184,0.33206844,0.63965625,0.696825,0.945481,0.40920374,1.0021855,1.2223129,0.32998675,0.23026103,0.73837453,-0.38711724,-2.8385081,-0.3444396,0.5125823,0.15433851,1.7174472,-1.6409537,-2.0853193,0.055730127,0.8506299,0.2812783,-1.1385325,0.6237806,-1.0167167,0.9078611,-0.31300202,0.5344021,-0.5617741,0.644185,-0.3595155,-1.0894428,0.14981766,-1.4075027,0.10230784,-0.158709,-0.2823516,-1.6726846,0.8532796,0.17304668,-0.31965795,0.52844304,0.52151793,-2.6482713,0.4269483,0.64078444,-0.5714062,0.6560937,-1.9710718,0.30682197,0.56151736,-0.91041684,0.33708435,-0.30597922,-0.30871367,-0.24497184,-0.9891198,1.2730442,0.69181424,-1.4362708,1.2255481,-2.0954926,0.75519955,0.83219016,-1.6464676,0.5110215,0.79173213,-1.2525861,0.08916554,-0.83864194,-0.6364407,0.12073751,0.7728565,-1.0325732,0.9824517,0.41299808,-0.20577654,1.1877642,0.729309,-1.0272772,0.887385,-1.9884027,1.6650417,0.6753366,-1.6591501,0.11755214,0.25280082,-1.5470175,0.77504754,1.4166691,1.8807176,-0.9538915,0.5637925,-1.6462058,-0.80053747,1.6783019,0.8876522,-0.072593,-0.2560672,-0.42761075
MMRF_1323,-0.77500576,0.72132313,-0.104152046,0.69969815,-0.93592584,-0.14779028,-0.48733595,0.3438391,0.28049275,0.5220591,0.30860212,-2.8896625,-0.29527253,0.22647107,0.24304725,-2.1484723,0.2380088,1.0323598,-2.215889,-0.42427537,-0.17610766,-0.8777713,2.0987804,0.3013105,-0.019371448,-1.0906761,-1.0527917,0.44955483,0.034191713,-0.1842476,0.888207,0.20923321,1.1882039,-0.2124634,0.33216718,0.5205551,0.41342962,0.6061091,-0.6957827,-1.8693233,-0.6491678,1.1056017,-0.6530977,2.0565476,0.8373578,-0.045392826,0.06902572,0.033673145,1.7058345,-0.14558597,0.30058944,0.95294213,-0.97973627,-0.4822078,-0.43632,0.46126488,1.5073152,0.82291764,-0.089977905,-0.29116184,0.43635455,-0.21307534,-1.2869456,1.473519,0.51427835,-1.9162498,0.55582124,-1.0816708,-1.4421742,-0.82776856,0.4566579,-0.86236024,2.2727752,-1.108142,1.3973432,-0.780157,-0.94027025,0.061928444,0.8600534,-0.3437083,-0.50700265,0.12888773,1.4726375,-1.8869867,-2.3522203,0.4381366,-0.25060454,0.5553024,-1.9190226,-1.3829261,1.443735,0.31332332,0.61135757,-0.45625955,0.47968835,-0.51013446,-0.0037795198,1.3378588,-0.30503532,-0.84304845,2.2654467,1.2739009,-0.8545821,-0.48902178,0.28948757,0.4315606,0.21328868,0.28565955,-1.089443,-0.4057505,-0.95047253,0.13886088,-0.6067007,-0.055481173,1.3951609,1.2755005,-2.783394,1.574945,0.60194796,0.5596011,0.8920585,0.0708546,0.3697937,0.06142105,-0.012127249,0.27808982,0.9286632,-0.45741802
MMRF_1180,1.0352176,0.14972252,2.2488725,-1.1948491,0.7103389,0.45231757,1.3532954,-0.18795931,-0.057782862,1.842127,0.862688,0.38778588,1.3488518,-0.6639544,-0.30393347,-1.4385124,0.3840977,-0.5460321,-0.69759184,0.2173117,-0.8321855,-0.8349366,0.6607165,0.69132096,-1.5204425,-1.3264666,-0.18137662,0.95836216,-0.70542705,1.611743,0.1714734,-1.0036818,0.04369996,0.6355609,-0.5523031,-0.08094334,0.70731866,-0.1853004,-1.1093456,-0.78021896,0.51638454,-1.4860687,0.39479712,1.4489863,-0.8115515,0.7115077,-0.27233618,-2.3318052,1.2028062,-1.5338289,-0.5576235,0.58476317,-2.0333977,-0.41294625,0.0423323,-0.37116435,0.94720066,1.7489492,0.19496176,-0.6636701,-0.2350098,0.041002072,-0.64566183,-0.54364794,0.44236958,0.85070133,-0.9677007,0.08756294,-0.5102582,1.5123942,-0.03944571,0.6785318,-0.43899363,-0.22927755,0.18420038,-1.2248814,-0.15806969,-0.91317064,-0.7170778,0.057434533,-0.8895511,1.6863792,2.5127118,-0.48670056,-0.33171672,0.9830243,-0.777452,1.9409196,-1.2474401,0.38753152,1.0830036,-0.15876703,1.1856881,-0.2946973,0.5898054,-0.706898,-0.08137907,0.74377924,-1.1668143,-1.7164412,-0.3559745,-0.28763437,-0.09699928,0.519908,-0.7719287,-0.937676,-0.04084543,0.59273857,-0.9288528,1.6422585,-1.018289,-0.06881775,-0.44309378,1.1044585,1.8923122,1.6233315,-1.6210464,2.5125272,-1.0596662,0.47723487,1.6410084,0.62280816,-0.68514776,-1.2796218,-2.090522,-0.29101887,-0.1338137,-0.5886243
MMRF_1188,-0.14392442,0.3044255,-0.83310735,1.5322477,0.7212397,0.6042882,-0.49313822,-0.39213952,-0.7979933,0.2631361,1.8441755,-0.6193686,-1.1162431,1.7568225,1.6008221,1.3653325,0.569059,-0.30118483,-1.2858803,-1.6928878,1.2159582,-0.4773112,0.85029066,-0.0007430408,1.8846693,-0.15843108,0.0639795,0.4066809,1.0935153,1.466624,-0.13300566,-0.2223742,0.8470736,0.16679728,0.8329736,-0.916808,0.3364208,-1.4562802,1.182272,-1.1486838,-0.7029954,0.6796581,0.11631498,0.24896994,0.11130892,-0.406117,-0.28157508,0.07087811,-0.7589569,0.111324824,0.82998824,-0.08172582,0.23875557,-0.86799264,0.06654519,1.2101929,-0.7393307,0.58811086,-0.41365433,0.6817887,-0.40503865,-0.49244002,-0.90348536,1.6608013,-1.1688086,0.70356965,0.64313185,-0.089843325,-0.82901335,0.027678348,2.0372736,-2.6418743,1.3255311,0.9372397,-0.5381346,0.34609395,-1.1931779,0.8044887,-1.5359107,-1.513106,-1.0588535,-0.9589917,-2.595229,1.4672211,0.40409106,-0.42868477,-0.96940035,-1.1645507,-0.4163568,-0.6750686,-0.35905212,0.32876703,0.5119027,1.884529,-0.9947866,-0.6731174,-0.14324465,-0.22958864,1.0366268,1.6155728,0.16672231,0.1526855,0.30235896,-0.18344334,1.2942699,1.3486792,0.8368983,-1.2725213,-0.13279974,0.40755978,-0.35176134,0.19822083,-0.06094246,-1.0544108,-2.5545886,-1.0400382,1.7145528,-2.2053034,1.7600063,-1.4999738,-0.7881324,0.23172583,-1.3797851,0.212516,0.5329585,-0.44165468,0.020481084,0.365054
MMRF_1300,-0.6083639,-0.9859338,0.123476654,-0.78662884,0.9769867,-0.642365,-0.7504836,1.5133533,-1.0304766,-0.523679,-1.8163857,0.8056205,1.449698,-1.9384266,-0.77953106,-1.6163248,1.0068407,0.54862463,-0.6041142,1.2914851,-0.88927996,1.1317263,-1.001827,0.9397965,0.003703874,-0.55977213,-1.047563,0.36452243,-0.15109333,0.33246624,-1.9952768,0.54271984,-0.9374526,0.45151135,1.0703118,0.16687658,-0.2813335,2.4194803,0.053210527,0.61771613,0.2764395,0.15415707,-0.018331874,1.9006894,-0.96608275,1.0123374,0.35136387,-1.1832161,-0.6768752,-1.2283369,-2.2032752,-1.4843024,-0.8404923,-0.27685574,1.1828834,-1.3284935,-0.825494,-2.0226755,0.1930536,0.33680272,-0.48703158,0.50390726,0.22096257,-0.3388252,1.4463933,0.1904497,2.2253785,0.7427808,0.85529673,0.11753445,1.4687754,0.9051636,0.21926217,-0.35397393,1.6204269,-0.18739049,1.3458449,-0.6585004,-1.9117489,-0.10102637,0.62982625,-0.025127783,0.66036445,-0.23149842,1.3363305,0.8286212,0.19033621,-0.6150669,-0.19248319,-1.1783545,0.3382849,0.6220469,0.40130225,-0.80306584,-1.0911993,-1.1454179,1.0008521,0.99053264,1.00003,-1.0475603,0.14825487,-0.22380625,-0.11534613,-0.41976932,-0.21320364,-0.3744243,-0.56948555,0.7884755,-0.24214476,1.1695961,0.7833755,0.6748648,2.123051,-1.6037352,1.0823328,1.710844,-2.4787712,-0.52413934,-1.1402135,0.11225461,0.6651122,-1.3430333,0.0723207,0.31346592,-0.5452374,0.9804157,0.6492275,-0.36342868
MMRF_1331,-0.50133437,-2.4294152,-0.32691392,-1.3167769,-0.05786147,-1.2794341,-0.24556449,-0.3107556,0.0032301461,-1.8832796,-0.4818726,1.4789112,1.0564028,-1.6671866,-0.32091123,-1.0416746,1.1981912,0.9417957,1.5927466,1.75685,-0.2074773,-0.77500534,-0.40614203,0.08828875,-0.66289324,0.5587005,-0.16875455,-0.36276132,-0.7155797,-0.735281,-2.161253,1.6035153,0.39640173,0.45927104,0.53187263,-0.6990923,-0.1604905,1.5838916,-1.0166417,-0.6761935,0.3490183,-0.7176079,-1.0054128,0.036193702,-2.0036898,0.45107612,-0.34073818,1.1750857,-1.0416437,-0.31780463,0.84109217,-0.23585033,0.24782534,-1.3440328,1.2958815,-2.1431696,-1.5012728,-0.98595786,0.4165543,-0.16401918,0.36283737,0.2515457,0.4011728,1.4165655,1.4154099,1.3980179,-0.31723654,0.5249019,1.491505,-0.07536865,0.06987997,1.5008726,1.185755,-0.4262402,0.5101597,1.403442,1.9895788,-1.4822721,-0.20959784,-1.0344368,-1.2476841,-1.7996408,0.71197516,-0.40095654,1.8407857,-0.042770408,0.6667639,-0.24298438,-0.443958,1.2126442,0.6320471,0.1896449,0.8672551,-0.45571524,-0.6028404,1.237866,-0.6803527,1.2016153,1.3250935,0.14721845,0.6775616,0.88060606,-0.51550907,-0.712644,0.8680205,-0.1804827,-0.42323714,-0.83031964,-1.3121532,0.65004605,0.43947312,0.8671897,1.7307234,-0.39698198,1.0041268,-0.47644335,-1.4787006,-1.680508,-0.6570275,0.91083264,-1.4784474,-0.09982136,0.1841494,0.30632967,0.25043276,1.539679,-0.77938366,0.4417471
MMRF_1185,0.48877683,-0.77507377,-0.51045734,-0.19921038,-0.39950258,-0.1874078,1.0795403,-1.651737,0.16757248,2.38178,0.49194595,-0.23030631,-1.1515344,0.88569117,-0.4692163,0.6593727,-1.4044977,-0.9880725,0.75471824,-1.0313714,-1.5386605,0.65006727,0.11363666,0.98574275,-1.2675261,-1.1223353,-0.38878742,0.9862772,1.3417006,1.520311,0.8628896,-0.12579513,0.017276619,-0.17489006,-0.9907503,0.31118453,0.28073806,0.39633685,-0.71602285,0.35332268,-0.27540615,2.3604221,1.2267326,-0.9755626,0.55514705,1.0619348,2.0489442,-0.357316,-0.3962354,-1.513189,-0.83657676,-0.73244953,0.12460991,1.0996424,1.2072647,1.4823664,0.64248335,-0.23432568,0.38437435,0.6189326,-0.8094928,-1.5713934,-0.60595775,0.72126895,0.16524756,-1.8299881,0.23082002,-1.9564468,-0.75670564,-0.32803014,-0.4419994,-0.448452,0.024219364,2.8493803,0.7311134,-2.7205536,0.7380986,-0.6623409,-1.1941586,1.6312683,1.1373718,-0.6828641,0.582932,1.1750379,-0.057347555,0.94739854,-0.7940998,0.7420544,-0.22859661,1.4332628,-1.3697394,-1.7972735,0.25122306,0.5754293,-0.5204707,0.3462094,0.6831377,-0.8961116,-1.3060743,0.7464997,-0.6010523,-0.25610903,0.8707398,0.766884,-1.5760344,-0.18750578,-0.49225906,0.5746838,0.69984084,-1.6293317,0.907303,1.473628,-0.9281884,-2.0054932,-0.09061846,-1.2644318,0.67504704,0.59491515,-0.48892805,0.06410143,-0.32001758,0.5601305,0.43267804,0.45657852,-0.4697889,-0.80263066,0.59508044,0.73238295
MMRF_1348,-0.41294155,-0.34010875,0.11094544,0.53935957,0.06321008,0.5883782,-2.7223737,-0.14423655,-0.9543401,0.6281596,-0.88985264,-1.9671807,0.13400097,0.4706558,1.9788553,-0.91915935,1.5417919,1.4540178,-0.78043854,0.57615215,1.8733953,2.6755981,-0.70591015,0.21355927,0.108308814,-0.72109056,0.8883995,0.19909687,0.3471211,0.5419024,-1.019088,-0.010209388,0.33681554,0.10865231,-1.4604784,0.54280025,0.5831516,1.2227004,-0.8061102,-2.1706963,-1.5147289,0.10880841,-1.016709,1.2707763,-1.2950845,-0.21286823,0.5313456,-0.37050956,1.6037366,-1.133218,0.22993715,0.69707716,-2.4796798,1.8979456,-0.18171327,-1.4810096,0.42532313,1.2681109,0.38042825,1.4079577,-0.46730512,-1.4068688,-1.3811126,-0.23450685,-0.27974495,0.9296199,0.8334279,0.336369,0.15333986,-0.37924153,0.1029813,-1.5326936,0.9930727,-0.596199,1.4260755,-0.8926719,0.018289117,-0.70512915,1.0461711,-0.982288,0.101480305,1.4356136,0.4927371,0.0625688,-1.3819633,-0.6436004,0.3502478,-1.1976019,0.64584917,-1.3796158,1.5643945,-0.16942477,1.0324069,-1.0242394,-0.10655106,-1.385818,-1.3730774,-0.61928844,0.5078042,-0.026956294,1.6839207,-0.592217,0.43932864,-0.3648509,-0.3064728,-0.6442852,-0.43725824,-0.0004863888,0.2657484,0.9030035,1.4043806,0.88565344,0.84271836,1.0796419,0.061207928,0.23118614,-0.5577778,0.3289828,0.8230184,-0.2797009,0.095663525,-1.9876589,0.9689573,0.32016322,0.3043102,-0.51626635,0.8134496,-1.5048988
MMRF_1284,-0.2724851,-0.20734857,0.08966569,0.25038403,-0.72774535,-1.7199382,-1.2769334,0.90597564,0.56737876,-0.114561945,-2.7270129,0.36072096,1.4432572,-0.91528183,0.9768283,-0.17118421,1.7637355,-0.13748443,1.3624439,1.7385261,-0.22026576,1.9868273,-0.5969273,0.94610906,-1.9241776,-0.9912364,0.40728986,-1.1321194,-0.07869815,-1.4220235,-0.510396,-0.396333,-0.5750464,0.38889906,0.31557396,0.020786008,-0.9223792,1.9260845,-1.4007654,-0.16880785,-0.31241092,0.44908035,-0.9196444,0.95490885,-1.1393297,0.048026126,1.9971684,0.36651048,0.012595747,-0.9377404,-2.3437657,0.009681555,-1.152499,0.594051,0.52166206,-0.40192252,0.9693349,-0.023248203,0.8347721,1.965491,-1.1709938,-0.48301795,0.8528844,-0.4743613,-0.3703558,0.6912329,0.84538513,-0.11485381,-0.24119271,0.22954863,-0.04135033,1.7931597,-0.00031765178,-1.4213265,1.6336595,-1.4254045,1.1306101,-1.6922884,1.2314243,1.5088596,-0.18099985,-0.09902441,-0.5745769,-0.98019224,0.11764018,0.037887126,1.1225733,-1.0030345,0.64261144,1.1122667,1.3065836,0.78678554,0.6524932,-1.3047855,-0.70183563,-0.24507912,-0.42804983,-0.8108362,0.76004153,-1.0288148,-1.5276268,-0.6219986,0.6155485,-0.781239,-1.2641743,-0.97375464,-0.25385633,1.813095,0.67162246,1.526591,1.1336895,0.5660584,1.4462436,0.9017468,0.0025337432,0.35336322,-0.31144983,0.710419,-1.6097962,-0.003091421,0.34301615,-0.78919107,0.9619286,-1.3345859,-0.39716,-0.5960858,0.12233543,-0.76603985
MMRF_1202,0.067813754,0.7506253,0.78525835,-0.103978485,0.12162413,-0.15394609,0.73711544,-0.1619093,-0.8890613,2.4122243,-2.3104568,1.0401617,0.41276982,-0.19393839,-0.423084,-1.4772366,0.37523204,-0.2534676,-0.50022805,1.0392566,-0.29562947,-0.5152807,-0.11385851,-0.83156234,0.12637086,-2.5510118,-0.017404921,1.0195482,-0.38296628,1.1355509,0.010912623,-1.524868,0.6500625,0.9983064,-1.2339066,0.20703137,0.6270369,-0.07960257,-1.9287379,0.3291536,1.6959927,-0.4780718,1.0589719,0.24783753,-1.0328968,1.4606113,0.9774507,-1.1232473,0.36470166,-0.72335464,0.1841431,0.6159544,-2.0397418,0.049617812,-0.7470971,-0.97017616,1.3570197,-0.22357482,1.0147625,0.6600909,-0.25421152,-1.2975438,0.64949137,-0.25057623,0.49481198,0.012058489,1.0637738,-0.17522974,-1.0739313,0.39369726,-0.63774335,1.1913686,0.43902513,0.55600965,0.48252562,-1.7713633,-0.41812915,-1.3235375,-1.2679361,1.3616334,-0.1262611,1.2759801,0.80758446,1.2894557,-0.40108794,-0.3266792,-1.1807172,1.2107781,-0.6963483,0.18914112,0.4668736,-0.6131612,1.2777369,0.04802723,0.21462503,-2.626115,1.1476558,0.19843942,-0.19257756,-0.8194786,0.67066646,-0.07664989,-1.3863599,-1.1953682,-0.71943575,0.32933235,-0.6151257,2.0535026,-0.40791062,1.408539,-0.5098131,-0.1305804,0.93263954,1.2898474,1.1398318,1.3056625,-2.256096,0.8817748,-0.8831958,-0.41011527,1.9700217,-0.91685385,1.5463179,-0.9704171,-1.3640859,-0.6808305,0.92358196,-0.53622437
MMRF_1466,1.2435167,-1.8541329,0.877967,-1.0138843,0.6071817,-0.48644358,-1.4440385,0.9273929,-1.7447586,-1.6593927,0.07407593,2.3198059,1.5214179,-0.27698153,-0.70017403,0.11139761,0.10202301,-0.18973015,1.0172677,0.39612097,-0.4498078,-0.04590615,-1.465297,-0.23317482,0.115145266,-0.076111324,-0.515881,-0.23983169,-0.25932002,0.1225728,1.0180049,-0.11885275,0.087860316,1.0487511,1.6852258,-1.0254467,-1.5884172,-0.33815563,0.91221046,-0.10473386,1.2298731,-1.4866222,-0.83748305,0.15951319,-0.19064553,-0.97359604,0.70433676,-0.516494,-1.8253663,0.65633506,-0.7270219,-0.37338498,0.7604374,-0.5406877,-0.95157343,-0.21827994,-0.9194411,-0.0306281,0.16842617,1.414471,-0.18339755,2.6238494,0.4587716,1.3504184,-1.0843385,1.5259539,1.2120799,-0.109899975,0.89117557,0.393951,1.1883434,0.5409752,0.69645256,-0.44262955,0.8687043,0.5531095,-1.0121762,0.804068,-1.6252643,-1.8020207,-0.67410433,0.27041683,-0.8882155,-0.7546609,1.3312848,-0.3172921,-0.5498856,-0.94524026,-0.009084945,0.96409655,0.30298632,1.0892769,-1.4987476,0.70894104,0.81960815,0.8187484,0.7442445,0.5314511,1.1899602,-1.7121153,-2.1209397,0.68824506,0.7655708,0.46174586,0.7350698,0.038374145,1.4493718,0.8612809,-1.4138376,2.491965,0.3894548,-0.4857539,1.3737513,-0.70417094,-1.8673266,0.35276625,0.6223065,-0.34113067,-0.93311816,-0.6396906,-0.95639247,0.79895353,-1.7591604,-1.201239,-0.64223504,-0.024723306,0.20371206,-0.43091336
MMRF_1446,-0.42723858,0.42107445,-0.23918132,0.026271526,-0.20222096,0.89820486,0.40725648,-0.4516437,0.22307289,1.9621102,0.39974323,-1.2973133,0.71411645,-0.05952654,0.038405135,0.46692798,-1.366573,-1.4435331,0.15758339,-0.39492294,-0.45725843,1.7439545,-0.21247144,0.52648044,-0.97593945,-0.5315293,0.4505618,1.1852036,0.36208338,-0.13258232,2.3841953,-0.84971935,-1.053875,0.397402,-2.2420442,0.5781353,-0.810081,1.6417768,-1.1509855,0.28447688,-1.0762856,-0.059976343,0.269929,-0.5386084,2.2034993,-0.82981616,0.41764164,-0.9177759,2.062824,-0.19883843,-0.13232364,-0.85576385,1.5632577,2.561773,-0.07537033,0.280185,0.43137446,1.3897797,0.5404104,0.2622735,0.554721,-0.14290467,-1.2736422,-1.1074871,-1.2843329,-0.14878604,0.42922467,1.0261672,-0.23499696,0.45636207,-1.9323946,-0.67366654,-1.1553979,0.2540871,-0.20585865,-1.4408711,0.15214136,0.8494762,-0.60943276,1.681425,0.6794423,0.074179694,1.8253396,0.3807843,-0.9261094,0.5889267,0.38395903,-0.22461095,-0.84329206,0.50032264,-1.1600096,-1.5533551,-1.1921992,-0.79558414,2.043122,1.5806686,0.80066985,-1.078293,-0.68209755,0.22664364,-0.32819033,-0.9596768,-0.04981507,0.51483124,-1.4755763,-0.2736348,1.1055974,0.19029048,1.062944,-0.8418987,0.7517555,1.1695608,-1.2400717,-1.3204559,-0.55769324,-0.13410409,2.4878087,0.7381975,0.39182657,-0.080931716,-0.065821916,0.17459159,-0.37185827,-1.9084356,-0.26084447,-1.727119,0.22215076,-1.350805
MMRF_1447,-0.86988574,-0.7239427,-1.0401019,1.1062413,0.55656374,1.5026563,0.24500573,-1.6219224,-0.54200476,5.7938974e-05,0.4518471,-0.6384371,-1.7536178,0.803208,0.61937803,1.6488626,0.19348806,1.6728483,-1.3557148,-1.2490127,1.1051763,0.91794884,-0.20753787,0.8576816,2.2691221,0.752275,-0.3894941,1.3757534,-1.3090428,0.6334394,-1.2925453,1.050706,0.92760855,-1.3416314,-0.6431061,0.38782337,1.9327902,-1.6135292,0.32794318,0.27967992,-0.45507172,0.87380314,0.93232566,-0.31147215,0.19198136,1.2233845,-1.394944,0.24016306,-1.095501,0.10925618,1.0721533,-0.063011356,-0.3144123,0.6133095,-0.02402022,-0.90981025,-1.732489,-0.44904616,1.8056486,0.2752561,-0.64779335,-1.021891,-0.8423182,-0.74979854,0.2299015,0.32677948,-0.20043045,0.21413691,1.4290944,-0.75223225,-0.26420048,-1.4227777,0.68722904,1.4648204,-1.0132658,1.537632,-0.8176361,1.0863917,-0.26611015,-0.74857885,0.29135293,-0.6014872,-1.9175538,0.47569546,0.6507327,0.42526922,-0.06553704,-0.63736254,0.22360593,-0.6143434,-1.2453545,0.083372325,-0.2251022,0.4755341,-1.0856775,-1.2212548,0.681218,0.08281557,0.55244124,1.1003261,0.49536568,-0.41046846,-1.0653334,0.45355988,-0.023855034,-0.1085174,0.37259397,-0.46249828,0.053580705,-0.7504957,0.6252447,0.5813959,-0.3607715,0.0232599,-1.807684,-1.8879769,0.7273714,-0.6703921,2.3827271,-1.2068024,-1.0182087,-1.1932985,-0.5186609,2.2001536,2.2065506,-0.44687092,-1.3510216,1.7034482
MMRF_1445,-0.14891231,0.49329728,0.01819183,1.6883631,-0.355304,1.5123758,-0.6636875,-0.39176714,0.023183603,0.015392605,1.5727937,-1.0227143,0.80537045,0.3714881,0.32484406,-1.0648937,0.07792894,0.9822418,-1.5971316,-0.9919473,1.5868737,-1.6918877,1.4732889,-0.8191066,0.90723413,-0.9489017,0.62137634,0.5246344,1.3098357,1.1623032,1.2798998,-0.35019094,1.6914084,-0.2612077,-0.057277568,1.307854,-0.24462098,-2.27798,0.4105447,-1.4603735,1.0503701,-1.3501767,0.4590111,1.5552727,-1.3483634,-0.3968246,-1.7019182,-1.0178213,0.89804035,-0.013830859,0.63016105,0.59679544,-1.1787219,-0.8366185,-1.2812337,-0.30658272,0.24691568,0.54368234,0.01472348,-0.7233289,0.15467456,0.6142897,0.26205295,0.56957823,-0.25727934,0.9923688,-1.7806954,-0.7834415,1.110294,1.6082346,0.72833705,-0.93098956,1.1118269,-0.42956588,0.7657118,0.7353811,-1.4242667,0.29240006,-1.6037439,-1.2577304,-1.7462327,0.7964961,0.15227823,-0.43412614,-0.9900242,0.020950938,0.57511103,-0.2357085,-0.7039244,-0.3949566,0.71781975,0.50247794,0.7535875,-0.9699353,1.2683023,-0.5921345,-1.3281976,0.5923552,-0.90190375,-1.3175774,-0.9238505,0.15183836,0.65897423,-1.6834679,0.8032771,0.2617422,0.3929578,0.23225053,0.33948612,0.8661421,-1.3125733,-1.4387814,-0.29407614,0.8504387,1.5159714,1.4259969,-1.2137005,2.036896,1.339603,-1.1826454,0.5617845,1.4851605,-0.6990721,-0.70480824,0.23814969,-1.6967579,0.9253459,-0.9763738
MMRF_1433,1.741792,-0.43720216,1.2413888,-0.25839192,1.2752881,-0.8822662,1.4251533,-0.3221257,0.29913267,1.0138627,-0.18150511,0.6302009,0.9644727,0.5108393,-0.5194986,-1.0096474,1.1969827,-0.9824855,-1.2022263,-1.4097492,-0.3512557,-1.6081066,1.9002988,0.18158449,-0.4062744,-1.473765,-0.023421839,-0.036480673,0.2707733,2.4343643,0.121918134,-1.0660881,-0.14902149,1.3319671,-0.136017,0.27763885,0.6255354,-1.4943323,-0.84149855,-0.9953435,0.57306963,0.13462692,1.3571373,2.5045905,-1.1166888,-0.29444584,-0.58152014,-1.0288045,0.9210143,-1.2298436,0.2685199,0.449423,-1.5053298,-0.9589781,0.7318604,-0.6473922,2.0375018,-0.570223,-0.19945672,-1.2454667,0.66443115,-0.37127882,0.35417455,-0.6150775,-0.379507,0.47696462,-0.8902188,-0.3596751,-0.113427974,1.2173051,-0.33324453,-0.59787834,0.07366876,0.6123521,0.37743187,-1.0324253,-0.13886207,-0.66128016,-2.3280346,0.92948395,-1.0444591,1.5857687,1.6326462,-0.22487238,-0.0622937,0.9056111,0.28770387,1.3242259,-0.6492712,0.3151272,0.6355444,-1.373498,1.1650467,-0.3251127,1.0772772,-0.036955774,0.28514317,-0.26218793,-1.6904619,-1.5472344,-0.9327364,0.06352202,1.3280536,-1.469889,-0.21129909,-0.3741615,-0.21679421,0.510765,-0.024427952,-0.018853297,-0.4805765,-1.0933203,-0.81604165,0.13242215,2.046747,0.115814514,-1.4566933,2.448881,-0.041187838,0.07613361,2.3834393,0.5465484,-0.20078827,0.32566476,-1.7084477,-0.91229826,0.6641933,-0.888017
MMRF_1434,-1.3556951,0.5955256,-0.8468506,-0.16876441,-0.778957,1.2193254,0.034497816,-1.1158087,0.31364152,1.6383077,0.25435317,-0.81436557,-0.7375614,-0.4928152,1.4027704,1.8955653,-0.13784578,-0.68846315,0.021945903,-1.0106832,0.48763242,1.0109776,-0.031810015,0.37027928,0.15047647,1.3590927,0.1377022,2.022847,-0.52298754,-0.05350043,0.49786788,0.4559013,-1.7605383,-1.1196498,-3.2532434,1.3109137,1.0505242,-0.83133876,-0.49348694,1.2072418,-1.1664946,0.579837,-0.10919826,-1.0703458,0.9341824,-0.5081593,1.1630446,0.63473386,-0.6751312,-0.7407681,0.55550295,1.0610685,0.01982745,0.7648503,0.764629,0.70079976,-0.39161903,1.8062377,1.5597157,0.35846943,-0.09196188,-0.6615309,-1.5674949,-0.06744103,-1.151788,-0.54396665,-1.227973,0.12028552,-0.053043917,-0.37230197,-1.1117021,-0.43138131,-1.211659,1.4652871,-1.2489612,0.6489467,-0.98283064,-0.046978604,1.3134094,0.5695014,1.1940231,-0.52460706,0.1822277,1.4467438,-0.20602456,-0.21876806,-0.62871516,-0.12898147,-0.65067446,1.150202,-1.2074409,-0.6711679,-0.21617535,-0.35327047,-1.3446316,0.60743976,-1.1520121,0.5930001,-0.5441429,1.8143424,-0.7872175,-0.055751372,-0.06905044,2.0143607,-0.3311974,0.6036775,0.8284085,-1.1046064,-0.021691065,-0.4861338,1.0114652,0.9540348,0.16675314,0.53848237,-1.8878495,-2.4510653,2.518979,-0.9633673,1.4226385,0.18004358,-0.33530256,-0.24293508,-1.1659768,0.046271794,0.24533257,-1.7371707,-0.24694037,1.2609322
MMRF_1436,0.2761311,-1.5978204,-0.9487322,-1.0135347,-1.9508251,-0.82897264,-0.6983928,0.92124194,-0.25265354,0.23827098,1.0283023,1.2617842,-0.25274467,-1.0777509,-0.6157024,-0.21122093,-1.2794502,-1.3653635,2.6167512,1.6825125,-0.38546714,-0.2906354,0.6295901,-0.92855746,-1.2964602,0.806941,-2.2372892,-0.094290756,0.20800614,-1.0807549,0.46054497,0.45931223,-1.503969,0.032498684,-0.0654074,-0.65123874,-0.07628545,0.37027875,0.1123546,0.69346917,1.1856565,-1.0700269,-0.10872921,-1.9621629,-0.0909913,0.4041576,0.43589047,0.9888139,-0.7002479,-0.38262236,-0.46081463,1.2230049,1.3280678,0.17593807,0.4352734,0.994943,0.5512865,-1.2266117,-0.0115574,0.99349916,-0.40313673,-0.19639777,0.9961617,1.850306,-0.1866064,0.08249967,-0.3680237,-1.3340873,0.5932064,0.16750562,0.8131231,1.1853002,-0.84265083,-0.5844168,0.25317666,0.7958364,0.20140494,-1.1963545,1.539596,0.86080873,1.0324545,-1.159837,-0.14271109,-0.33620077,0.91601765,0.7031781,0.89529294,0.608517,0.19835378,1.4369129,0.09268675,-0.131548,0.41050187,-0.16995582,0.029743552,2.9551373,0.71487546,1.0433247,0.48162386,1.1541548,-1.7205297,0.66289514,0.6566591,0.35972407,-0.2634538,0.06246031,0.23882478,-0.34299266,-0.6231072,-0.42660698,-1.6575013,0.6694091,-0.17812826,-2.0767317,-0.14277092,-1.6123978,0.7212511,-1.6368995,-2.29021,1.164817,-1.4616928,2.2112298,-0.26750192,-0.86870766,-1.2111981,-0.09536191,-0.063582584,1.2905957
MMRF_1424,0.26683974,0.64167935,-0.48655334,-0.5757463,0.79109573,0.026524551,-0.5201261,0.37900454,-0.13666993,1.9150608,0.18757616,0.28095302,0.06805428,-1.2239447,0.968537,1.6385978,0.40372565,-0.67611396,-0.050077014,0.40297508,-1.051468,-1.2219105,0.6920032,0.36238086,0.1564068,0.3673853,0.6538823,0.66054296,-0.051461123,1.7732877,1.042755,0.39562213,-1.2340497,0.3624731,-0.95707333,0.56314325,0.538841,-1.0949625,2.0738704,0.23905015,-1.189269,0.0986565,0.69642144,0.43456933,0.61333674,-1.0077649,-1.6502389,-1.3687184,-0.3064956,0.6867859,-0.36968002,0.92855006,-0.4246725,-0.9003028,-0.8652255,0.488799,-0.50723946,1.2331243,1.6166351,-1.6207021,1.2501757,-0.66302776,-0.7984874,0.58321035,-0.7988793,-0.74055326,-0.29748592,-0.029820895,-1.534733,0.6980991,1.0324155,-1.8883053,0.19670199,0.89679754,-1.6188413,1.9362787,-0.68559587,1.7931161,-1.4044623,0.54130393,-0.70171577,0.0069485772,-1.6573613,1.3681473,-0.065375276,-0.39877957,-1.6684729,-0.38422215,-1.0071758,-1.5878048,-0.9653851,-0.71457654,0.6361902,0.18110453,1.169518,-2.0674279,1.3227854,-0.8652979,-0.028370664,0.8593565,0.27365282,0.33509415,1.3865305,1.266072,-0.62664163,1.5196024,1.1007527,-2.3498764,-0.11537246,-0.66574347,0.53291035,-0.2132161,-0.5527458,-1.208764,-0.7757807,1.286121,2.206839,-0.22214311,1.609821,0.09947645,1.5642102,-0.2435195,-1.7916485,-1.2575849,0.34493405,-0.12417951,0.085478224,-0.68056613
MMRF_1425,0.31280375,-1.5375005,0.47706,-0.34482816,-0.05576593,0.27030912,0.06966693,0.48739284,-1.2801471,-0.6698566,1.185242,0.79276776,0.9725738,-0.7186618,0.24417178,0.8582012,-1.1043059,-0.2819819,1.0216539,0.9244765,0.008757854,-1.162771,-0.61059284,-0.9824438,-0.35482088,1.1501453,-1.2013856,1.21579,0.4543393,0.5849178,-1.1299944,1.3812805,-1.5776454,0.20892729,0.43821308,-0.180494,1.146211,0.6199419,0.5103851,1.2865222,-0.45214057,-1.5433682,0.28641486,-1.3511579,-0.7110769,0.2756257,-0.29907206,0.5755632,-2.775256,0.068236515,-0.66512674,0.20675643,0.49899358,-0.34287986,0.86826384,-0.33172667,-2.638408,-0.94833666,0.86473364,0.51006776,1.6421294,1.3399806,-0.89116895,0.49402282,1.3658124,1.0621547,0.8235087,0.13204272,1.3711381,1.198896,1.2709575,-0.22592135,-0.092379116,0.079438776,-0.19718288,1.3129239,0.3520993,0.61715275,-0.89332885,-0.97364694,1.0726498,-1.2209526,-0.95613164,-0.75220466,1.4155345,0.5432913,1.6206248,-1.9264103,0.008919885,-0.20795456,-0.33181065,0.42529204,-0.029895093,0.11474339,-0.70992976,1.415688,-0.069634974,1.3856524,0.14049086,0.78972054,-0.7243163,0.29714957,-0.055885386,0.99027056,-0.16383979,0.14995791,1.4200727,-1.6083989,-0.4458966,-0.4338472,1.0057625,0.07166296,0.46928978,-2.7990086,-0.77326363,-1.982817,1.0494204,-2.648982,-1.4040675,-0.46193725,-0.4165511,1.4478141,-1.6248193,-0.53943163,0.02920391,-0.094516486,-0.55478203,1.499036
MMRF_1439,0.97836846,-0.91228324,0.81845,0.6102137,-0.31200853,0.42167267,-0.9590071,0.5845657,0.13927428,1.8553749,1.5508772,-1.7645108,0.6284073,0.029115854,0.6599954,0.42742866,0.5051871,-1.5771542,-0.117406175,-0.7103473,-0.004516584,0.9662774,0.006962955,-0.50967926,0.15010044,1.2054424,-1.3694696,-0.2826925,-0.66698813,0.12932372,0.71377695,1.1867895,1.0625501,-0.63625985,-0.67175317,0.55970216,0.33121338,-0.8837898,0.6148941,2.2169445,-0.40197647,-0.10144662,0.047517456,-1.5608244,1.6128939,-1.2594376,-0.11590872,-0.8673996,-0.55268043,-1.2087569,-1.8333449,2.2030878,-0.5889485,-0.080774866,0.39204928,0.93965584,1.0932444,2.23467,0.77780324,-0.6298235,-0.1799518,-1.8773378,-0.055989772,-0.37171167,0.08694053,-1.1826794,-1.0571936,-0.59237134,-0.74940914,0.65380365,-0.7962848,0.616765,-1.3845721,2.233778,-1.2713553,-0.27513766,-1.1169006,0.7260887,0.97285646,2.1021967,1.1589478,-0.6500755,-0.21473674,0.058620106,0.1586017,2.5440214,-0.8784628,-0.29000017,-1.0996042,-0.90495515,-0.41153646,0.7207924,-0.03203258,0.5236944,-0.65736187,-0.0047977865,-0.20826834,-0.4854918,-1.1812906,0.49830517,-0.39111444,-1.3026009,0.7409757,1.5803981,-1.1089758,0.26977947,0.33609098,-0.17619269,1.7801139,-2.3260548,0.5982019,-0.62367886,-0.79803866,0.6773974,-0.6510995,-0.19926932,1.5672715,1.126854,-0.93393433,-0.6037007,1.0891552,-0.021408264,-1.5438893,-0.5661732,0.9996045,-0.6177163,-1.3294587,0.21900219
MMRF_1450,-1.4988934,0.77368027,0.78197885,0.42137274,-1.0275615,0.45252603,-0.45859793,0.6033537,-0.1621879,-0.65963423,-0.4835358,-0.92977226,0.86335045,0.8041966,-0.65964806,-0.6236959,-1.2848493,0.08988829,1.099419,-0.5047009,0.6516886,-0.9860509,-0.28417838,-1.5958034,1.4078761,-0.4905661,1.368157,-0.07590523,1.2503107,-1.4393469,2.9935017,-0.48642656,0.32171848,0.3222745,0.7938454,0.8267245,-0.161398,1.0359026,0.81273454,-0.7131411,-0.2309463,-1.0547647,0.39983764,1.0330912,-0.16105582,-1.1008708,-0.8887968,-0.54087174,-1.2557799,0.0008646175,1.584009,0.031928316,-0.82800186,-0.42386237,-2.2667,-0.46910566,-0.24854189,0.027220353,-1.4832586,0.22555384,0.4496134,0.0013496373,1.0577164,-0.17601229,0.3144345,0.44799224,0.61304635,-0.7428894,0.5107965,-0.38686484,1.2298511,-0.40415987,0.9424049,-2.6688013,1.6222062,-0.058654264,-2.2072098,0.48260733,2.1204295,-0.5380119,-1.2819734,0.35514045,-0.92474455,-0.3139519,-1.6215281,-0.47981232,1.001225,0.12614073,1.2816036,-0.54306996,0.9226818,0.81470287,-1.0695033,-0.39822888,1.710095,-0.9494178,-0.5135619,-0.16813892,0.64140767,-1.7604344,0.9359107,-0.87639725,-0.402912,-0.34934217,2.4955647,-0.18753833,-0.33509287,0.49213737,0.993599,1.7171822,0.12592687,-0.821875,-0.6287428,1.2389311,0.29175675,1.814546,-0.54908735,0.17904976,1.0728613,-0.5080711,0.5267529,0.30251634,1.5515256,-1.1739049,-0.22867604,-0.78258896,-0.028677717,-1.8775339
MMRF_1451,-0.02106111,1.4532692,0.0030735508,0.58828646,-1.1597419,2.0207686,1.6309017,-1.4957688,0.56836015,0.014200266,1.1567917,-0.79082245,0.4515606,0.33818585,0.5870099,0.4517029,-1.1367126,0.37598273,-1.616101,-0.16898742,1.2274948,-2.2422955,-0.13450292,-1.2679342,0.8544738,-0.0012134789,0.020113561,0.9887238,1.2044635,0.20530103,1.3497112,-0.86563915,0.57174957,-1.8075312,-0.18126737,0.84935296,-0.6745109,-1.2561557,-0.5279067,0.16042359,0.7285573,-0.82043856,0.99587834,0.86323744,-1.5927403,1.1005694,-0.6506527,-0.3932575,0.6749405,0.35342485,0.7271091,-1.6052043,0.16622122,-0.7823452,-0.9587404,-0.5088607,0.92126185,0.21445549,0.040199045,0.50817823,-0.20048599,1.2493879,0.61720896,-1.3397435,-1.6791557,1.4951125,-2.1244328,-0.5764461,0.32422498,1.6494716,0.5809454,-1.2852399,-1.4955645,-0.091966376,-0.07824361,0.8711207,-0.35702857,-0.1484158,-1.4003278,0.10882586,-1.915738,0.9738065,0.4513845,0.8991342,-0.13046856,-0.09640408,1.1111736,-1.0208594,0.09760341,-0.33194697,0.9056869,-0.15234753,-0.07245018,-0.5356907,0.7656889,0.41100648,-0.38155463,-0.37336388,-1.1431699,-0.13146953,-0.3273563,-0.32449073,0.07242967,-2.0724237,0.63389224,-0.62399876,0.050544757,0.3185385,2.0970984,-0.4595785,-0.30774546,-1.2433362,-1.2965304,-0.5730979,2.04947,1.9332632,-0.3367857,1.1463832,1.9111861,-0.33691382,1.7386241,1.0931425,0.11975649,0.7424411,0.43469295,-2.3188963,-0.814114,-0.56953585
MMRF_1454,-0.63535094,1.5509267,-1.175758,2.0361693,-1.2107058,1.5200512,1.2948732,-2.0310423,-0.03415699,0.5501233,1.0109318,-1.2210784,-1.0691296,0.83158404,0.17312516,1.7341614,0.14512765,2.0576928,-1.2580268,-0.9803887,0.13599916,-0.88809,0.5879592,0.33085406,0.029182985,-0.18505906,0.46201572,1.1726221,0.012970725,0.96369517,0.2906902,-2.5281103,-0.4036206,-0.8678952,-2.9079976,0.6281615,0.47741047,-2.2488706,-1.0533137,-0.16910194,-0.29041,-0.03884148,-0.08179478,0.3981745,-0.15107009,0.11859861,0.92630756,-0.6849379,1.1261036,0.06286211,1.6901945,-0.7258218,0.017940694,1.1170719,0.15431085,1.0721462,1.7933878,1.2231879,0.3394686,-0.072704546,0.19236332,-0.4534429,-1.0636548,-0.64211637,-2.7446787,-0.65844643,-1.004836,0.0033781407,-1.4787829,0.1644714,-1.4023254,-0.5080904,-0.40698126,-0.16808869,-0.119561136,-1.4093397,-0.10362072,0.5310034,0.0035615005,1.3308504,0.7302138,-0.19306386,1.8232785,1.3853416,-0.88462377,-1.5946739,-0.9126098,1.8999636,0.40756604,0.741989,-0.07962644,-1.2073529,0.33157927,0.4138774,-0.39606982,0.53241855,-0.98452216,0.66065985,-0.23742615,1.9586343,0.17638023,0.1519488,-0.18163987,-0.57950497,0.21154702,-0.12165307,0.31205967,0.18486027,-0.24355201,0.40810877,-0.40825412,-0.7715966,0.015266547,0.637776,0.57611126,-0.8660364,-0.412799,-0.203838,2.247501,-0.4252003,-0.5520205,0.45962825,1.0375046,0.7747156,-0.60054004,-1.859371,0.038043823,0.291039
MMRF_1460,-0.50505954,-0.7294708,-0.2567439,1.3780003,0.38785613,1.137334,1.0729436,-1.6608595,0.8656421,-0.5547305,1.2521918,-0.49579418,-1.6155763,0.51829314,0.64533275,2.6447241,1.2742324,0.24831285,0.36764392,-0.75003624,0.73483795,0.8501857,0.12634186,-0.3159072,0.11331253,-0.2913339,1.4374762,0.10271376,1.4151121,0.1827196,-0.8523541,0.12171833,1.8523327,-0.938435,0.26108682,-0.14691508,0.46560216,-0.41959134,0.16704538,-1.083836,-0.53979015,-1.0841955,-0.8643797,0.42031607,0.039559387,-0.82140535,0.7425562,1.600111,-0.98137033,0.61233044,-0.045413736,-1.5822468,0.8537697,0.10270355,1.9065305,-0.032667138,-0.4516155,1.7501323,-0.84157515,-1.0653654,-1.1048195,0.17753983,0.50618094,-0.7892849,-0.109565645,1.6257669,-0.0065590385,0.49954563,0.5215858,-0.4218082,0.09002006,-1.1329805,1.0057001,-1.2720988,-1.1860698,0.47833928,-0.17742597,-2.6873605,0.9661124,-1.2101226,-0.7973452,-0.96753657,-1.6729767,0.06737805,0.02153343,-0.85698134,0.6378601,-0.37645608,2.1616426,1.1063325,0.84606713,-0.59937847,-1.6351084,-0.3008007,-1.349176,1.3792589,-0.6400407,-1.1181842,1.1102746,1.1465403,0.11101253,-0.8660009,-0.6754178,0.54488987,1.006518,-1.6537018,-0.9125895,-0.62237954,0.48952633,0.08615197,-0.20627221,0.61203045,0.6701463,0.973545,-0.74169445,-2.7642462,0.6640543,-0.9476921,0.3993714,0.107276455,-1.8726676,1.2771363,0.7725748,1.5542532,-0.31465486,-0.43887955,-0.9544333,0.8919436
MMRF_1461,0.62734646,0.26291436,1.506601,0.003145542,0.9263493,-0.70136344,0.17572562,0.9574837,-0.105434895,1.6780661,0.96866167,-0.33654386,1.2135041,-0.5481312,-0.8727211,-0.075743124,0.66323143,0.07232912,-1.5848763,0.1880992,-0.48397687,-0.78449875,1.1691786,0.075879164,-0.78101224,-0.9887887,-0.6560746,-0.36656857,-0.9331351,1.6569542,0.46095133,-1.2630117,0.7496903,0.47169846,0.4495238,0.6041803,0.7139395,-1.0643595,0.07123378,-1.0925375,0.69414276,0.38770056,0.71415603,2.0020516,-0.58424187,0.33541957,-1.2128198,-1.7764336,1.5555642,-0.6808971,-0.25621992,0.21670362,-1.9219851,-1.268412,-0.8562423,-0.04040904,2.1764746,1.0165858,0.34334257,-2.412913,0.5250433,-0.59285975,-0.48110878,-1.3449162,0.63471466,-0.34637386,-0.3871955,-0.70463383,-0.88657075,1.7378881,0.73282295,0.73173714,-0.17390136,0.49346843,-0.92052066,-0.31375393,-0.18523937,0.5240322,-1.0331028,1.4206991,-1.0224538,0.2762546,1.7015394,-0.3753582,-0.17476824,0.37574157,-0.29534626,0.28244236,-1.3534718,-1.011476,0.15312468,0.3633856,0.9882585,-0.4079468,2.4753141,-1.2018816,1.2394909,0.7541266,-1.1028286,-0.8414082,0.7521802,-0.9572339,0.7871276,-0.8723791,-0.12245617,0.0780393,0.011920374,-1.2556148,-0.4120153,-0.21765491,-1.5114974,-0.99531025,-0.9483623,-0.53235203,2.224876,2.3210282,-0.13481468,1.5941347,0.5815071,-0.12737891,2.6545303,0.3310412,-1.1690414,-1.2736323,-0.6761993,-0.99163514,0.24820413,-1.080357
MMRF_1324,0.7533239,-0.71010375,0.24464728,-0.25801352,0.56267804,0.3076278,1.3738515,0.12530224,0.01034228,1.4958802,1.2253858,0.20569512,0.667844,-1.036096,-0.22251941,-0.24073333,-0.4801577,-0.093959585,-0.33567658,1.223175,-0.21457432,-2.803155,1.255018,0.40990752,-0.39214626,-0.11103013,0.23319112,-0.040247194,-0.7279402,1.4476085,0.5593151,0.6579897,-1.3560045,-0.46390584,-0.1963158,0.5629559,0.5191114,-0.71317166,1.713618,-0.3095364,-0.31944817,-0.58271855,0.6217375,-0.40317422,-1.3407732,-0.44281635,-2.4279099,-1.2307705,0.4130395,0.116428934,0.7867236,1.4591267,-0.23383838,-0.9844395,-1.0888027,0.20079899,-0.04844168,0.88073,1.086407,-2.232701,1.5532844,-0.12424685,-0.27759856,-0.202734,-0.19623151,0.40028462,-0.99594104,-0.20796058,0.7172019,1.8316727,-0.019415919,-0.64743024,0.56389606,-0.4902325,-1.2780846,2.1741273,-0.13495067,1.8654468,-1.0271249,1.0939918,-1.6922145,0.55489624,0.36153772,-0.4188374,0.03451857,0.27175698,-1.4461396,1.2135196,-0.15565827,-2.0869267,-0.10157993,-0.5749952,0.9374494,-1.3458723,2.7597113,0.69040936,0.8640723,-0.07524609,-0.97075355,-0.05473977,-0.38001952,0.032196157,0.6255019,-0.5646763,0.07846975,-0.43149325,0.11223388,-1.5173644,0.31065696,0.26929456,-1.4808421,-0.48231506,-0.8754585,-1.3114215,1.1002163,1.39824,-0.45916992,0.14139615,0.55530566,0.8862018,2.1118286,2.4194343,-1.0441684,-0.43085057,-0.11253872,-1.2087092,-0.20354086,-2.0483277
MMRF_1392,-0.48302382,-0.22484963,-1.1063969,0.3310067,-0.6007118,-0.47949526,-1.8857955,1.3006841,-1.2068571,-1.6139903,0.053795647,-0.39320847,0.6235478,-0.06535067,0.5850422,-1.0293424,-0.23514551,0.79603845,2.314604,2.0805368,0.14837033,0.17541909,-0.009875204,-1.3685384,-0.7945194,-0.11336236,0.90692365,0.012753632,0.3547474,0.096578896,-1.3401326,2.026777,-0.5361465,-0.31111214,-0.32662246,-1.0610293,0.011680553,1.4132661,0.24433303,-1.1666372,-0.20165686,-0.48903334,-0.6550331,-0.97784793,-0.04082421,-0.5498556,-0.7953345,0.97386086,-0.86763793,0.7968309,0.7867663,-0.3420853,1.1162937,-0.023421941,-0.8253936,-0.27329317,-2.4252896,-0.051663406,-0.06758239,0.27686718,1.4797883,0.2485662,-0.13656792,1.7079678,0.67806184,-0.2706315,1.1745241,-0.30032313,0.09156796,-1.1781942,0.65695274,-0.64144105,2.5986998,-0.9439247,0.3942638,1.0706177,0.40736824,-1.4109536,1.0440444,-0.9006237,-0.5610123,-0.32258198,-0.8980609,-1.6051801,0.7754853,0.13077474,1.3642646,0.17609833,-0.4598794,-0.76513165,0.27569017,0.5601094,0.8348542,-0.3669341,-0.5737712,1.1048628,-1.3941382,0.9241574,1.6542565,-0.2987069,1.1456455,1.2435515,-0.01963586,-0.19564188,1.333472,-0.24555023,0.5453195,-1.9194398,-1.094595,0.45545614,0.24506037,1.0039605,1.4650514,-1.1514992,-0.42629877,0.19189906,-0.83213145,-2.1386776,-0.72534794,1.70408,-3.149056,1.033304,-0.23847967,-0.5114306,0.1856912,1.4224412,0.4301751,1.2360642
MMRF_1413,-0.6560091,0.6622421,-1.2132889,1.274184,1.6366948,0.9380212,-1.8368053,-1.0062042,-1.1549125,-0.23724318,2.1684008,-1.816317,0.10752234,0.6690367,0.96674037,-0.6413692,0.40171936,0.25634468,-0.02135574,0.60340065,1.0319092,0.27094784,2.2124712,-0.37497717,0.47869524,-0.6078479,0.59123105,0.53589857,-0.55545473,0.97786224,0.38317078,0.4560336,0.38901433,-0.28088933,-0.29149574,-0.5773449,0.54002345,-0.691072,2.0256937,-0.8480047,-1.6261187,-0.420378,0.12505311,0.08076815,0.28427893,-1.2568678,-2.0636396,0.23380426,-0.26374906,0.9418832,1.0802603,1.726105,-0.4400989,0.035299547,-1.5689915,0.66798866,-1.6079292,2.243017,0.15377918,-1.2162937,0.59975773,-0.5559193,-0.34218454,1.8304454,-0.39013264,-0.5736902,0.6647179,-0.06671977,-1.1353278,-0.38400826,0.61028945,-2.5627897,1.4054488,-0.48664644,-0.1517099,1.1718241,-1.7343942,1.9054571,-0.9151569,-0.33241066,-1.1847359,1.0830371,-1.2874631,-0.35123459,-0.5273183,-0.030628065,0.2897361,0.7375843,-0.3157812,-2.4352767,-0.35336992,-0.27081016,0.21432938,0.09322167,1.375893,-0.648486,0.43078786,-0.8768881,0.40289256,-0.27844435,0.7794039,0.9107409,0.6771987,0.035458498,1.2939019,0.43087468,1.0530385,-2.5119174,-0.8697773,-0.7063986,-0.06795244,0.23732853,-0.56585175,-1.3249943,-0.6662004,0.5189836,0.67441684,-0.688055,1.5607074,0.44022283,-0.5389635,1.1360973,-1.1455176,-0.9247851,0.5351295,0.45876813,0.60319644,-0.0001865197
MMRF_1393,1.5244845,-0.44831043,-0.71806574,-1.1036355,-0.84195846,0.037546445,-2.075345,1.1431903,-2.2827482,-0.23596379,0.20723857,1.6523184,1.0724033,0.12931608,0.70552576,-0.69619703,-0.8680961,-0.26696825,0.83723843,2.1508853,0.4226491,1.0105982,-1.3337363,-1.7938442,-0.4540537,0.16774303,-0.22397949,-0.33622757,-0.15005593,-0.22221287,-0.47056347,0.5783751,-0.64661837,0.70093757,-0.61772215,-0.68784136,0.0026386566,-0.31233922,0.41892508,-0.110261776,2.0714836,-2.4375632,-0.26752618,-3.424668,-1.2360281,0.06455283,-0.020541703,0.9262035,-0.74570507,-0.22161123,0.007623424,0.3563914,0.49867043,0.22405902,-1.1446084,-0.25160843,-1.7511127,-0.5728413,0.42482722,1.075989,1.1592973,0.5438057,-0.43480211,1.9878016,0.94500077,-0.7872758,0.12473868,-0.6529236,2.2251341,-0.23331483,-0.1961048,0.15614584,0.98584676,-0.9056692,0.13741222,1.9980631,-0.18675494,-0.31360015,-0.04373365,-1.1726372,0.28169167,-0.108537115,-0.46127254,-1.0456017,1.6190436,0.4942238,0.59759414,0.2669945,-0.10770727,1.2319181,0.26124042,1.0385975,0.4688257,0.82168907,-0.40473583,0.55517894,-0.7227197,1.3656394,1.3602563,-0.34762502,0.44873318,1.117204,0.7173723,0.062997654,0.01428638,0.8835943,2.039154,-1.3312145,-0.83915955,0.8479931,-0.63126177,0.111955985,0.29787067,-0.2199806,-0.7127256,0.89235055,-0.3612838,-0.20993155,-1.2732303,0.87311023,-2.1262672,0.989684,-1.942299,-1.467851,-0.7156499,0.5788058,-0.10108584,-0.05858095
MMRF_1148,-1.7756041,0.62077755,-0.54917455,1.1269671,1.6478779,0.39919996,0.31280857,0.43257076,0.4591914,-1.0898218,-0.65192384,-0.7104983,-0.67180574,0.7316562,-0.37084985,-0.6202209,-0.059886664,0.21623191,-0.17910667,-0.29865554,0.1815178,-0.118011296,-0.34645057,0.075226754,1.7745371,-0.19906402,0.91100395,-0.81659496,-1.0010798,-1.0186038,-0.9883086,-0.055053264,1.8107718,0.5666111,1.7178617,0.08890023,-0.4655312,0.9439301,0.42466283,-0.6006942,0.20657627,-0.19341502,-1.1322255,-0.9481296,0.9330667,-0.31669095,-2.0662646,0.20865154,-0.27332446,0.93484443,1.3591926,-0.9310634,0.36857724,-0.28018925,-1.8511212,-0.4872721,-1.6474265,-0.6582228,-2.0052454,-0.38814005,-0.6275427,0.81159794,1.3107252,-2.061814,0.66017526,0.24786234,0.7106657,0.497685,0.118758254,-0.47465193,0.2759076,-0.69725883,-0.11248407,-1.0245479,0.020220635,0.8043495,-0.112400755,0.9740821,0.3855299,-0.29703292,-1.2626169,1.3229854,-0.42846978,-1.2546456,-0.18497813,-1.3633245,2.523673,-0.5525464,0.6546884,-1.7869025,-0.027183875,1.0734146,-0.97448236,0.7533093,0.67128116,-2.1787128,-0.39153937,-0.27875945,0.12285069,-1.3815802,1.4473442,-1.6005396,-0.8105631,-1.1867371,2.246428,1.0440788,-0.46730176,0.93494457,0.8556887,-0.38141483,1.3537664,-0.12768218,-0.3051461,0.93531716,0.97241473,1.8431177,-1.6395556,0.35422,1.2805984,0.35630316,0.29241315,-1.2537507,0.36034492,1.5972154,1.6768593,1.6773189,0.39438528,-1.0702263
