patient_id,0,1,2,3,4,5,6,7,8,9,10,11,12,13,14,15,16,17,18,19,20,21,22,23,24,25,26,27,28,29,30,31,32,33,34,35,36,37,38,39,40,41,42,43,44,45,46,47,48,49,50,51,52,53,54,55,56,57,58,59,60,61,62,63,64,65,66,67,68,69,70,71,72,73,74,75,76,77,78,79,80,81,82,83,84,85,86,87,88,89,90,91,92,93,94,95,96,97,98,99,100,101,102,103,104,105,106,107,108,109,110,111,112,113,114,115,116,117,118,119,120,121,122,123,124,125,126,127
MMRF_1231,-1.0459712,-1.4238518,-0.5000346,1.0975918,1.5106012,0.12659808,-0.27936006,-0.16060194,1.1992888,-1.6218942,-1.0069692,-2.0330844,0.3144214,-1.1695664,1.52017,-0.6905963,0.7575359,1.6004698,-0.5465413,0.47614625,-0.99257714,0.08957292,-0.098285615,0.5318873,0.20580594,0.3863205,-0.8757414,-0.39908418,1.6323918,1.4145865,-0.37473273,-1.4987868,-2.0111709,1.8012016,0.93179965,2.2808046,-0.12418796,-0.7789436,0.3984522,2.2978885,-2.409169,1.089796,0.5729328,0.7468265,-1.0819567,-0.31259942,0.835599,-0.9788426,-0.35994145,0.32209197,2.8957553,0.20164716,-0.39385754,0.8703472,-1.9614893,-0.554506,-1.2104734,-0.09841199,-1.8590245,-0.9895754,-0.4540237,-1.1787112,-0.5931005,-1.3247569,-0.3736787,-1.3770427,-0.46189776,0.35024682,-1.0717347,0.081934005,-0.35552883,0.9670824,0.81696653,0.80997765,-0.37387457,0.20931853,2.0898125,0.08325906,0.53822166,-0.8024564,-0.357815,-0.022797447,1.392648,0.3245947,-0.6220264,0.52982986,-0.037777543,0.7808946,1.4091816,0.23476243,-0.55364144,0.041388296,0.040442556,-1.1008092,-0.18423887,-0.7502162,-0.39310703,-0.21214634,1.0860453,1.5142666,0.25546053,-0.6163416,0.598964,1.6721159,0.916462,0.2562551,-0.22292076,0.49426267,-0.009165821,-0.22174065,0.86317545,0.45869172,-1.7250812,1.0766373,0.12498449,-1.2314355,-0.91109675,0.021573551,0.57895267,-0.5403628,0.18901438,-0.5338588,-0.73432416,-0.19463892,-1.3248429,1.6042297,0.23496208,-0.125298
MMRF_1032,-0.061788935,-1.1723484,1.6634357,-1.9310492,-0.26634148,-0.78458077,0.5937067,2.2254622,-1.0143447,0.059699032,-0.6163075,1.4733231,-0.6823503,-1.2400182,-0.5037781,2.4160433,1.0693564,-1.0002582,0.12533197,0.767604,0.5756068,0.2119271,1.5146776,-0.7121124,-0.7944954,0.7139228,-0.6212318,1.0661393,0.51076365,0.41576585,2.0614617,-0.38992304,-0.28504023,0.8870667,1.7959881,-0.22114642,1.5099853,0.3307346,0.003514206,-0.2849982,-0.5807587,0.112930536,-0.52653056,-1.0255238,-1.0650039,-1.3595101,-1.0904685,-0.33452344,0.5860343,0.956356,-0.4337213,-1.1045139,-0.22060476,0.8647356,0.4943931,1.6161854,0.6758163,-0.70454615,-2.4710848,-0.058097716,-1.2591257,-0.10310565,-0.22441278,-1.4977955,-0.61612034,-0.94810784,-2.0620735,-1.0451983,0.31744814,-1.5580562,1.4987891,-0.91760564,0.41807508,0.44317913,-0.31117648,-0.55852824,0.4062827,-0.9317042,-1.0538315,0.72698116,-0.56868607,0.6873051,-0.7758142,1.9550241,1.0462438,0.9296269,-0.44023922,1.9715781,0.051121328,2.163367,0.49499622,-0.27154484,0.47725257,-0.3663815,0.87134254,-1.8795459,0.09638292,-0.1513373,-0.6358892,1.9000925,-0.20245594,-0.20081502,0.5006031,0.75483155,-0.87281257,1.4357814,0.044707544,0.6451914,-1.9766216,-1.264631,0.35775197,-0.13545756,-0.11942604,-0.34396872,0.44454578,0.57063794,-0.92625225,1.6938369,-0.025495095,-0.25698963,0.4950876,-1.0714959,-0.45812848,-0.91503286,-0.56643116,1.0268296,-0.6728388,-0.076281294
MMRF_1327,0.8698655,0.9722765,-0.39296576,1.2359073,-1.1201254,-1.6938773,-0.5007024,1.246345,0.61374366,0.50300884,0.3310389,-0.603805,-1.2901027,-0.46985143,1.189628,0.608231,-0.32880908,-0.6753744,-2.3598857,-0.6334354,0.19972558,-0.3979176,-0.5734305,0.3087861,-0.40099537,-1.7997047,-0.9520526,-1.4816641,0.39673138,-0.18886378,-0.3446019,0.098181255,-1.2376993,0.8353645,-0.8790581,-0.3383819,-1.7056966,-1.2250255,1.005477,-0.07695803,0.85050094,0.732373,1.2655756,0.54332465,-0.9875693,1.136679,0.4016905,-0.6294393,0.6258896,1.3077769,0.23450342,-1.1385126,0.685558,-0.8077049,0.57752883,-0.47052217,-0.2524634,0.5494713,1.1082008,-0.3613102,-0.76614004,1.0489423,-0.2206197,1.0635947,0.60732746,0.25366405,-0.16017188,-1.7400542,1.408947,-0.017466247,1.0039611,-0.57059336,1.1443336,-0.56392837,0.9978072,0.77121514,-1.6024778,2.331355,-0.9130149,0.35925493,-2.298395,1.2021294,-0.22865693,-0.7871498,0.738184,1.0266685,-0.23388325,1.5538518,-2.1791935,0.8532937,1.097466,-2.0528831,-1.3124038,-0.3066399,0.1944459,1.5735278,-1.1799068,-0.7756038,0.7925644,1.5530199,-1.4678068,0.80460757,-2.2527,0.30076033,-0.090415075,1.3611495,-0.53241605,0.32593316,-0.4860803,0.56211185,-0.12907906,1.0612032,0.4435431,0.13600147,-0.8830054,0.2036176,0.94708306,-1.7058457,0.27593827,-0.67527795,-1.3571216,1.0191377,0.9872122,0.4208935,0.32667673,0.33335805,0.69320494,1.6124076
MMRF_1210,-0.18921971,0.96301985,2.0451176,-3.4272056,0.66466784,0.3884538,-0.22621223,1.3552673,-1.2170941,-0.5439139,-0.3665826,1.3780862,-0.8666384,-0.059036322,-1.4049166,1.01236,0.549109,-0.52340287,2.106207,0.29235038,1.2869049,-0.1246255,1.346266,0.45801228,-0.37859097,1.5427636,-0.12341787,1.5406265,-0.21275765,0.62461525,1.7395922,-0.38694447,0.8578774,0.48570284,0.8289312,-0.16268308,2.0085175,0.6020036,-0.706481,-1.1673824,-0.24039613,-0.48830366,-0.5315958,-0.2126229,-0.51800233,-1.0112429,-0.39584208,1.2927548,-0.17608106,-0.10036448,-0.90671384,-0.6527669,0.4100218,0.54546183,1.1812413,1.1614219,1.1008459,-0.31117865,-1.3715587,-0.056741964,0.121846095,0.45101297,0.32321325,-2.016743,-0.548286,-1.117443,-1.0636199,0.81302136,0.7303578,-0.39283612,1.0556045,-0.36593336,-0.19927686,-0.69768775,-1.4146208,-0.6607768,0.6153389,-2.0435112,-1.0730916,0.228187,0.8631922,-0.79858446,-1.2433308,1.8185428,-0.0347877,-0.7621709,1.7735378,-0.15772995,1.1843691,0.75813913,-0.20698419,-0.123839,0.9291147,-0.19155946,0.75411594,-1.9717786,0.993693,-0.060904503,-0.61003274,-0.720711,-0.8374149,-0.5217072,2.1021507,0.32605112,-0.37354717,0.95387655,0.122278444,0.91678846,-1.6422575,-1.8078184,0.034669727,-1.2967392,-0.7004448,-0.76520336,0.20901418,1.1088083,-0.30831897,1.0861351,0.12926382,0.5862929,0.37810615,-1.0983577,-0.113213085,-0.83350015,0.18716882,-0.74292314,-2.1704082,-0.64077234
MMRF_1269,0.5291566,0.31075907,-1.7907981,0.74725276,2.133768,-1.6896054,-0.07853058,-1.9439394,-0.33548942,-0.95388055,-1.2758994,-0.9987428,1.4802675,0.32577783,1.4860373,-0.8810282,0.4140121,2.5798666,0.5918749,0.26150724,-0.9748469,-0.65504235,-1.7802006,1.1099577,-0.06782438,0.022411004,-1.192178,-0.99278295,2.136806,0.015656099,0.5767835,-2.0211327,-1.7967514,0.652913,0.75820976,1.3964417,0.031960964,0.55702895,0.48776758,1.6706072,-0.48314998,-1.3833275,0.37972638,0.7900934,0.29275632,-0.17495921,-0.11783677,-0.07493653,0.026703455,0.42272365,1.3707917,0.36237842,0.32347387,-0.36703384,-1.6751367,-0.42713177,0.10936468,0.5171974,-0.77625704,-0.47821775,0.16942962,-0.8418168,-1.7731661,-0.2791033,-0.008974159,-0.6799209,0.0802528,-1.0884652,0.41310403,2.0342724,-1.1144181,1.233055,1.9654751,-0.75609416,-0.96572953,0.8502605,1.2673352,1.8660744,-0.3712372,0.66718453,0.24786472,-1.514373,0.8994502,0.4458868,-0.33699203,-0.8535246,-1.4837285,1.100574,0.9354501,-0.5978141,0.36161187,-0.90474313,0.11132754,-0.5013875,-0.79691756,-0.83696085,-0.06689811,-0.72949725,-0.6467944,-2.0371826,-0.53585494,-0.13811694,-0.22958428,0.43299848,1.520261,-0.040028125,0.0901785,1.1564918,0.62496054,0.46088478,0.20378453,-0.8725702,-0.6672585,0.8416896,0.7584628,-1.1187096,0.23348087,-0.5554645,0.41555908,2.0821333,1.5436548,-0.5187643,-0.32298282,-0.42909926,-0.26211423,1.2797834,-0.28869882,-0.67278486
MMRF_1251,0.26775873,0.08003576,0.428163,0.08076368,1.5483936,-0.2114204,0.011742998,-0.26824075,1.2326133,-0.3870866,2.2777667,-0.8476435,0.56126344,0.023087002,1.358101,-1.6096325,0.5453363,0.82508504,-2.2635005,-0.711126,-0.5466439,0.22642548,-0.14692383,0.20016849,0.44291687,-1.762622,0.31650454,0.7529113,-0.72514546,0.08527888,0.56261545,-1.0714158,-0.70252544,-1.2088567,0.29109055,0.27783287,-1.4064039,-0.8115983,-1.7577182,-0.01376584,-0.33095366,2.0740304,0.52420944,0.92171603,1.1400551,0.4695671,0.729232,-0.78414935,-0.23736492,-0.18050331,1.0672354,-0.56751645,0.89732075,-0.94157153,-0.4496701,-2.6040125,-0.016695809,-0.06662011,0.5982294,0.26679674,-0.20747782,-0.8514088,-1.5358841,0.25660658,0.3276385,0.91173345,1.6256539,-1.0958775,-0.022668116,1.5401824,0.17495999,-0.34673882,0.5238267,0.7007412,0.158192,0.03398762,-0.34381947,1.0238295,-0.5882726,-0.64139175,-0.30566037,0.475994,-1.350063,-2.1049037,-1.2968011,0.14686449,-0.5438074,0.79661244,-1.5775839,-0.9289742,0.14809585,-0.14113754,1.1569577,-0.7360154,-1.8739438,2.5606165,-0.5188658,-0.85788476,0.47350928,0.5989732,0.6576182,0.33882058,-2.7535455,1.7517575,-0.00034325896,0.6873515,-0.5029039,0.4707343,1.7499682,-0.5670413,0.26010853,-0.7311551,0.92726076,0.35149404,0.4902588,-0.35230026,0.49635834,-2.1121824,0.5006398,-1.6939988,-0.5560056,0.20931321,0.50461274,1.2097882,0.9481404,0.24227642,1.4666873,1.768008
MMRF_1328,1.247903,0.8968756,-1.4616975,-0.09865375,-2.151564,-0.16604303,-0.31577182,-2.493496,-2.4187317,1.246714,0.83073646,0.65887976,1.8705115,1.0957013,2.0686095,0.12792256,0.26555863,1.546552,0.24500485,-0.0109001845,-1.3815424,0.043176584,-2.6671455,0.5277386,0.42386633,-0.71231174,-1.2490575,-1.1172818,-0.7956983,-1.7626644,-0.650287,0.1920916,-0.45585236,0.7651151,-1.5057154,-0.79652315,0.3776524,0.6267304,1.6360989,-0.51164275,-0.0843891,-1.3895524,1.1464155,-0.8818842,0.0812096,0.12252009,0.8185217,0.055286624,0.313223,-0.7954128,-0.11623874,-0.05749744,0.06851648,1.1382601,-1.0149815,0.5434208,-0.42955685,-0.06363088,1.9727151,-0.01650402,-0.21133803,-1.0512358,0.36073318,1.9936916,0.13920245,1.1637013,-0.15093195,-0.06814249,1.060833,0.2511516,1.249284,1.5369126,0.9051913,-0.7855267,0.26156786,-0.29159573,-0.99829847,1.0560064,-0.65561473,-0.28385848,-0.63525903,-0.53271896,-3.2525487,0.8556389,1.2505425,0.13301492,-0.28318757,0.21601942,-0.74889046,-0.46768975,0.6699505,-0.27314258,-0.27396506,-0.85756665,0.031995784,0.8420658,0.34812024,-1.251192,-1.3248372,1.1961899,-1.6362809,1.9699746,1.5709757,0.45395637,0.15168257,0.44698566,0.3517706,-0.24435726,0.04455527,0.23495601,0.2217101,0.10465916,0.08139999,-1.1205921,-1.3423761,1.5310338,-0.48693192,-0.37213576,0.22473443,-0.42793575,-0.21096066,0.43421245,0.84290844,-0.2844029,0.05825492,-0.34775892,0.19613321,1.0997173
MMRF_1171,-0.3214894,-1.5082508,1.8573472,-0.507153,1.7782588,0.34615964,0.030821739,1.5504159,-1.3060278,0.16517784,0.4943787,0.63036543,0.39718622,-0.5720888,-0.32799557,0.8701705,1.3172718,-1.7158754,-0.2477211,1.9219317,0.32082877,-0.2292087,2.0530827,0.08952443,0.9039235,0.6679848,-1.2771482,0.98945564,0.40580457,0.27329576,-0.06356538,-0.3652704,2.12314,0.63650054,1.2777191,0.12606134,1.2603135,-0.36258972,-1.3197066,-1.7714334,-0.58873945,-0.43683267,-0.08386477,-1.5432022,0.115666345,-1.176497,-0.5004881,-0.004652554,0.48398733,-0.034292124,-0.6016581,-1.4132053,-0.75595886,0.98340064,1.0764855,0.031120248,-0.41199976,-0.35217404,-0.7741669,-0.30678347,1.2842675,-0.6197423,1.1607643,-1.3278002,-0.9627549,0.19012254,1.3501937,-0.27779275,-1.0123394,-0.025118325,0.31851777,-0.7148683,-1.0604819,-0.56432885,0.4893267,-1.1303751,-0.19183841,-0.21638046,0.41875452,0.32760048,0.14709379,-0.15038905,-2.222233,1.064647,0.35374543,1.100437,1.9693896,-0.35513672,-0.4210102,1.2796413,-0.59356385,2.740379,1.2496287,0.91840386,1.2963748,-1.3340069,-0.23427483,1.435543,-0.3019268,1.7451882,-0.05171259,-2.706883,0.47234815,-0.8930312,-0.92340064,-0.78501666,-0.20267156,-0.1465995,-0.26671192,0.040887866,0.05838556,0.27640915,-1.2418717,-0.29683802,0.777683,0.3960082,-0.653936,-0.665939,-0.3927436,-1.4297496,-1.0463955,0.6062697,0.06570999,0.020936131,-1.0510459,-2.6073806,0.9539716,0.2077669
MMRF_1354,-0.36904147,2.1761425,-0.4280688,0.40565112,-0.38732553,1.2175277,-0.40502468,-1.0400513,0.08441732,0.47480053,0.5238533,0.71069914,1.5359424,1.1694912,-1.710483,-1.3878902,-0.84917957,-0.5311499,0.803642,0.49005386,-0.12340877,-0.19152647,-0.8530576,-0.4477642,1.1232487,-0.5138475,0.51645344,-0.5653079,-1.3239026,-0.031557277,-1.080326,1.7206713,2.00008,-1.0805316,-1.1477809,-1.0989484,0.7906442,0.4613326,0.3478959,-1.6992824,1.2704706,-1.0171697,-0.88453114,0.17687097,1.3137512,0.014294836,0.0554182,1.7888842,-0.7100746,-1.6776029,-0.49808103,2.4148636,-0.60601777,0.14525868,1.4902879,0.42285788,-0.2506187,-0.19059052,1.1248753,1.0347142,0.36316666,0.5802631,0.7041883,0.5681868,-0.3690021,-0.7064575,2.2553937,0.15786141,0.5068184,-0.3933382,-0.2173275,-0.93202895,-2.0324345,-0.29446846,-0.13060358,-1.415604,-0.27203998,-0.4928602,-0.2208312,1.1124284,1.0861577,-0.14232223,0.92009413,-0.075258635,-1.32804,-1.3775815,0.30249575,-2.7221189,0.27203813,-1.6068999,-0.52796245,1.4325843,0.46155262,1.1762713,0.82820094,0.8342527,0.037374128,1.3176324,-0.80146384,-1.3152667,1.0868187,-0.44303554,0.46478465,-2.3941085,-0.09456613,-0.2657088,0.44453317,-0.33549008,0.7892975,0.33368465,0.22747423,-1.346253,-1.2404336,0.12596992,-1.0264037,0.70000863,1.6271,0.6438827,-1.197747,0.38186887,-0.017980415,1.6363827,-0.72232777,-0.26882225,0.29988134,-1.0709089,0.25221804,-0.76816934
MMRF_1344,-0.3772201,1.8252474,0.40258655,-1.4019871,-1.0744845,0.23650077,-0.7715461,0.94835943,-2.7989516,-0.31777385,0.84937006,2.6659143,-0.28376564,0.27542216,-0.27230608,0.91838515,-0.66112435,-0.6916909,0.10710267,0.7548499,0.41777518,-0.62273264,0.37215436,0.0011784509,0.51603395,-0.39917067,0.056969002,-0.21695039,-0.91440946,-0.007840834,1.8741325,-0.34583786,1.8325375,0.28693113,0.085381195,-1.2596061,1.8297101,-0.013795928,-0.43499988,-3.2954178,1.7248629,-0.3923513,-0.27356935,-0.79016846,-0.768173,-0.30798748,0.16703941,-0.39171216,1.5361667,0.05523368,-2.3081675,-0.02427612,0.79615945,0.28053632,1.1027148,2.0885367,1.5753279,0.11066802,0.6931438,-1.2486479,-0.33372268,0.6877338,1.27647,1.1135966,-0.6339242,0.59811103,-0.069788165,-0.8477649,1.9038442,-0.25766423,0.42373163,-0.82271713,-0.124977686,-1.3355659,-1.3592166,-0.51577497,-1.0800198,-0.46209332,-0.97327507,1.2606146,0.10354584,0.50776213,-0.3426123,0.7113536,-0.402825,-1.2744582,-0.18496732,0.051745623,0.6475867,0.5590709,0.80035317,-0.37357235,-0.8117532,0.37799332,1.0813123,0.5863768,-0.46842268,-0.24468315,-0.5511485,-0.6567016,-0.5194943,-0.11311343,-0.5043409,-0.86399657,-0.2707658,1.3455213,-0.73432285,-0.045135293,-2.5017023,-0.042125866,0.11046443,-1.0566417,1.0287662,0.05746771,0.014074958,0.6425984,0.92440873,2.081141,0.9477234,1.0131459,0.71483016,-1.3186221,0.5583537,-0.87679845,0.14107418,-1.5104399,0.17883986,-1.67017
MMRF_1403,1.0657028,0.67461133,-2.0071738,0.8184669,-0.5229727,-0.12910898,-0.20137112,-2.0716069,2.653635,6.4737396e-05,-1.3672678,-0.9256096,0.34408337,1.8854609,-1.5010269,-1.768977,-1.1312565,0.025903337,0.14825043,-0.7947974,-0.86118793,0.3134132,-0.9412879,-0.110012114,0.16301619,0.3159824,-0.13566472,-1.9938792,-0.008891513,-1.615399,-1.2136612,1.2545767,-0.298055,-0.018270604,-2.5483618,-1.247271,-0.2751328,-1.1776645,1.4573016,1.332704,0.11825466,-0.46495765,-0.51977843,2.3785172,-0.27328786,0.53938276,0.83133024,0.08959383,0.14485422,-0.18880785,-0.4263438,1.856494,-0.347549,0.47727233,0.69815147,-0.47339052,-0.37295598,1.4218104,1.8098058,-0.10348041,-0.083490804,0.23172612,0.54087865,0.49608964,1.3068421,1.3161358,1.3705274,1.2578756,1.075558,-0.43361557,-0.018551063,0.9117822,-0.7966591,0.9393428,-0.24948367,0.28002542,0.341917,-0.7514992,-1.0954273,1.3138427,0.46159473,-0.032044344,-0.30937183,1.0518421,0.09140558,-0.4563405,0.5653237,-1.0712113,-0.25356603,-1.8256898,0.69637156,-0.6665523,-0.29545462,-0.25123757,0.2250644,0.38706726,-0.055773463,-0.12943809,-0.39927888,-0.8304717,-1.2869408,2.0428376,-0.17640927,-0.5361488,0.7080234,0.538471,1.8334805,-1.5413728,0.9422961,1.2512463,-0.6833371,-1.2482618,-0.5213649,-0.5525099,-2.2937963,0.82116365,1.50014,-0.9611419,-0.057627,-0.93981797,-0.22143334,0.34414056,0.019417355,0.8661026,0.47019562,-0.19304629,-0.4904771,0.83186823
MMRF_1408,1.778967,-1.4118531,-0.4156849,-0.13675861,-0.35920042,-1.409519,0.014129128,1.2557001,0.47479472,0.018469045,1.4710283,0.6945207,-0.73562586,0.2249843,0.7432651,0.5071645,-0.69592106,-0.71437234,-3.087416,0.7986072,0.65079117,-2.0272498,0.37276018,-0.022668822,0.598881,-1.1438019,0.7932671,0.49031058,0.47376662,-1.111844,-0.39523974,0.9186209,0.261686,-0.9588818,0.121055186,0.25250402,-0.84692794,-1.0363691,-0.3983235,-0.8132687,2.7524567,0.25749686,-0.24383141,0.3370303,-0.27612713,-0.5758055,-0.5020287,-2.2086291,0.677919,1.5458852,0.17570558,-1.6006148,-0.58340573,-0.19854374,0.69788545,-1.1819805,0.61259353,1.3602284,-0.2446657,-0.8547846,0.88327163,0.9359345,0.98746467,0.6117174,-0.34059453,1.9454035,1.8088355,-0.10135211,1.5608641,1.4451276,-1.9887855,-1.1266499,-0.7651702,-0.38931522,0.9218386,0.5150724,-1.0777466,-0.4346694,-0.3886776,0.44888785,1.2776276,0.49920356,-0.8479772,-0.10731698,0.6767387,0.31314367,0.5590666,-0.64643735,-1.1357144,1.0463094,0.6583452,0.5726505,1.9785912,0.5269825,0.25313377,0.9610906,-1.7419229,-0.12450627,0.91074204,-1.2866749,-0.74294907,0.17957269,-2.3013468,0.27355736,0.53341293,0.054798733,-0.9562714,-1.4015058,1.8041618,-0.2683155,-0.096387066,0.9088923,-0.15005422,0.2796314,0.23825084,-0.18350612,0.29452005,-1.6874044,-0.5604098,-1.0871195,-1.8264991,-0.5259088,-0.23197725,1.5880586,-0.15022324,0.02012983,0.58177567,0.5356933
MMRF_1338,-1.2915603,-0.03897763,0.5365492,0.5832945,0.40770343,0.24734482,-0.74408567,-0.18633333,1.1799908,-0.6923893,-0.59139836,-1.8086013,-0.41695166,-1.3080696,0.5709779,-0.12432536,0.48248962,1.5705323,-0.046574123,0.4156947,-0.168469,0.96707636,-0.12724024,0.09257747,-0.1706977,-0.5440755,-1.9851471,-0.22595218,1.4439565,1.8173457,0.46184534,-2.086684,-2.0344055,1.9217956,0.1324611,1.588144,-1.0181428,-0.0810166,-0.3057608,0.98196155,-2.1833446,0.52377445,1.1449975,0.80048424,-1.4394733,-0.19351673,1.6651652,-1.0867624,-0.37789488,0.39668587,2.504379,0.09329162,-0.03885251,1.7584808,-1.3855431,-0.16368891,0.10087132,0.35840684,-0.63973475,-1.4362179,-0.17831665,-0.121591985,-0.8123727,-1.3278525,-0.16974492,-2.0212133,-0.5573167,-0.0634429,-1.7473891,-0.04783797,-0.018375546,0.85121423,0.8063564,0.930232,-0.5023064,0.2816831,2.2560391,0.43830815,-1.0132387,-2.0156074,-0.65824723,0.52096915,1.7749925,0.002329722,-1.2933378,0.13011965,-1.1548948,0.041456353,1.2486311,-0.19341867,-1.2171297,-0.39888942,0.31446058,-0.64812624,0.32243982,-0.51033956,-1.7642975,0.06218319,0.9345898,2.295257,-0.0794743,0.22926405,-0.24450184,1.6836658,1.5929425,0.6338837,0.4162318,0.23005018,-0.5572452,0.88809437,1.4112743,-0.3357514,-1.1079174,0.3642514,0.21852759,-0.68195426,-0.19132605,0.65906996,-0.4394921,0.40987375,-0.19519983,-0.3113002,-0.6087391,-0.7680257,0.100729965,1.7226622,0.29915452,0.028510904
MMRF_1342,0.6632415,-0.7154582,1.2100697,-1.1469061,0.6800919,-1.5471106,1.0038941,1.7301149,-1.2256354,-0.121339105,0.03576355,0.9667704,-0.9455857,1.1218553,-0.2052603,1.2651291,0.1971072,-0.6332702,0.09167668,0.5896854,-0.6709294,-0.9766425,0.7818898,-0.96716094,-0.12872905,1.3124359,1.8762159,1.2404239,1.1994002,0.1690868,1.8302939,0.3183918,0.16796172,-1.3616366,1.1511624,-0.055228867,1.7209117,0.005329923,-0.09705706,-2.0443285,-1.1523794,0.26050588,-2.038617,-1.0588548,-0.43626085,-0.79774404,-2.2241676,-1.1914195,-0.2511891,1.9500291,-1.6380178,-0.18877982,-1.53783,1.106762,0.0508203,0.9882871,0.2486604,0.8981334,-1.1824285,0.8192678,0.54490703,0.6545317,1.3554565,-0.85370505,-0.24022472,-0.056671638,-0.33592975,0.7589887,0.17763567,-0.24983391,0.66273797,-1.6449013,-0.8582506,0.12537555,-0.60951346,-0.18073566,1.2516559,-1.2922931,0.9655674,0.0013396516,0.8362265,-0.9582192,-1.7191694,1.2559744,2.1871834,-0.7523801,0.8493989,-0.08070933,1.0786496,1.5336516,-0.4422585,0.43107444,1.5063381,2.3658695,0.106091194,-0.9103721,0.8406523,-0.1430236,-0.17977238,-0.62842196,0.34993747,0.69628096,0.066643335,-0.49767172,-0.5495554,0.67811817,-1.9643997,0.30405906,-0.95593524,-1.2478755,0.19482446,-0.39188933,0.30581915,0.08429755,0.3651457,-0.60677576,-0.4672865,0.5039675,0.23672867,0.2178437,-0.2471883,-1.4417391,-0.06596269,-1.00084,-0.20563523,0.48619,-1.7512032,-1.5737939
MMRF_1352,-1.4466326,-1.260687,0.78103584,0.3975896,0.55193216,-0.19030482,0.07782138,1.5839069,0.85154104,-0.4552324,-0.5738906,-0.5367889,-0.85799634,-1.7004759,1.0712361,1.0967029,1.2510086,0.84137905,-0.5287234,0.6327897,-0.17347044,0.24535511,1.3478465,-0.18947585,0.09436842,0.004835741,-1.1304638,0.29226905,1.4361452,1.4690046,-0.15368697,-1.3858953,-1.0983708,1.0051963,0.82170206,1.0610453,0.16965811,-0.038140137,0.5694277,1.6545001,-3.0559535,1.2184315,0.5350951,-0.672514,-2.3480768,-0.6462054,0.293986,-0.37193707,-0.29499003,1.1170626,2.2145767,-0.9174979,-0.19130303,0.7139018,-1.0809599,-0.053570908,-1.4025115,-1.3016723,-1.8441617,-0.6593634,-0.8855115,0.23080991,-0.022392616,-2.3451347,0.9225325,-1.6808155,-1.0880339,0.29373556,-1.6535454,-1.3499223,1.3657268,0.5071044,0.18373394,1.3406868,0.52451944,0.40200242,1.5550562,0.45603186,0.4439375,-0.8600409,-1.7011018,1.0952207,0.6287523,0.70058817,-0.55228746,0.8602658,-0.038840726,1.1747826,0.3587831,1.2006046,-0.25763977,-0.25026762,-0.6870463,-0.44165713,0.32716507,-0.76986474,-0.52462834,-0.51908106,1.3709242,3.2609594,-0.050448526,-0.5059855,0.44369692,1.066058,-0.36191583,0.8073597,-0.008787725,0.91022724,-1.1475335,-0.33252847,0.45981473,0.4798839,-1.1108855,-0.010544546,-0.061582662,0.2588828,-1.4852216,-0.1736047,0.20441094,-1.0048205,-0.7894998,-0.4268788,-0.5318304,-0.81603646,-0.28732407,0.78443474,0.54692465,0.60802287
MMRF_1380,0.7057144,-0.78282267,-0.2579345,0.61921334,-0.7914982,-2.9639547,-1.2443193,0.77697057,-1.0176606,-0.46078095,0.11254683,0.89969075,-0.28794646,0.87961125,1.7442816,0.36720124,-0.85241747,-0.3853088,-1.8730063,1.1444461,-0.4716492,-1.5514313,-0.2621812,-0.23769097,-0.118701875,-1.0074075,-0.1007435,-0.18913317,-0.80015635,-0.628998,0.27700648,0.14215447,-0.26448125,0.65909433,0.13061881,0.69581413,-1.0227649,-0.48720586,0.314656,-2.0593374,2.3367105,-0.307572,-0.60667795,0.98251,0.13652751,0.35358128,-1.424747,-1.95944,1.4122987,1.8346708,0.19942117,-1.1942656,0.5208713,-0.31383318,-0.8619955,0.34788197,-0.19214226,0.39859408,0.22142054,-1.3554689,-0.0030656653,0.48634207,0.4740112,1.8869374,-0.4223107,2.25109,0.7567454,-0.8260395,1.8415579,1.5802361,-0.21665987,-1.1629015,0.8343772,-0.9391317,0.34686667,1.4035755,-0.69277483,0.50268614,0.30001354,0.19111434,-0.023800792,-0.5964129,-0.9789671,-0.6131376,0.47625607,-0.24449356,0.58052766,-0.07120233,-1.0855192,0.31763926,2.192933,-0.2590213,-0.37800923,-0.56951827,-0.44422498,2.0830245,-1.0221049,0.59871733,0.88006943,-1.067082,0.16011629,1.1957517,-2.615054,0.6704824,-0.6114949,0.35350782,-1.7684529,-1.1368984,0.34763744,0.027041554,1.1144998,0.75976664,0.35055935,0.5863161,0.8264203,0.120664924,0.47545666,-1.3966568,0.41510046,0.29445863,-0.41158757,-0.47628698,1.0183971,1.1783805,-0.9740892,-1.1647944,2.0733998,0.41450465
MMRF_1389,0.7303525,1.1415842,-0.4017447,0.8154811,-0.09788333,0.27398977,-0.6543869,-2.4546964,0.6255066,0.49273762,0.78506947,-1.4026512,1.718895,0.0075829476,0.65238583,-1.7847623,0.072723985,1.4586296,0.037378784,-0.11368941,-1.1809832,0.29939693,-1.3946227,-0.37731618,0.62474024,-0.7975752,-0.40143946,-1.3371929,-1.4008547,-0.44765875,-0.1416862,-0.8702012,-0.47584304,-0.022826385,-1.5303103,0.18769155,-1.3640584,0.878706,-1.0109494,0.95032126,-1.2017145,-0.5946572,-0.0074857436,0.3753164,-0.5017517,-0.65844846,1.9078896,0.32825595,-1.0086064,-2.0566187,2.675471,-0.24839215,-0.70270497,-0.08821737,-1.0021178,-0.80471385,-0.27614415,-0.22108717,2.2134635,0.15033428,0.7136188,-0.65540284,-1.275685,0.84005296,-0.18312736,0.03519815,2.4292347,-0.0018395334,1.332942,0.23365049,0.061087124,0.23986964,1.7965237,-0.8456898,0.38656652,-0.75639886,2.2125697,0.12368531,-0.3363098,0.338166,-0.28073704,-0.5927404,-0.33347768,0.5303922,-0.13293977,-0.74348533,-0.8212058,-0.12622596,0.57501704,-2.6823735,-0.78991723,-0.20495208,1.2356509,-0.5344063,0.0127925845,0.059967145,-0.6365134,-0.89321315,-0.44513887,-1.8686639,-0.71121407,2.630788,0.34133035,0.15090448,1.6266159,0.94576913,0.57909197,-0.588562,1.8257936,0.61588806,0.8208676,-0.7914339,-0.71735466,-0.22097597,-0.7661875,0.34313437,1.051356,-0.52561146,0.040251374,0.5353436,-0.11467627,1.8075031,0.560498,0.14292207,0.30368286,0.15199633,-0.012321573,1.625705
MMRF_1388,-0.9086657,-0.0072266553,-1.0455137,0.62640613,-0.81494635,-1.8371273,-0.042632077,-1.2105819,-0.484574,0.04188323,-1.9131474,-0.6485359,0.30209702,1.6863639,0.8151549,-0.586229,-0.4871121,0.41649437,-0.06509355,0.3488996,-1.1410879,0.15083088,-2.122075,-0.124126196,-1.2086478,0.3867883,0.22406982,-1.3444014,-0.19090855,-0.6185161,-0.72853994,0.22186919,-1.245261,1.5205315,-1.505957,-0.102186,-0.032951895,0.10643081,2.2490404,0.36842808,-0.30940753,-0.017781405,-0.166277,1.5091562,1.3967085,1.4000229,0.27789348,-0.17004444,1.6343023,0.38889995,-1.3379524,0.9787198,0.6580972,0.83816016,-0.24040556,-0.19237633,-0.72017616,-0.1911501,2.4532056,0.6410534,-1.1797416,0.32778615,0.08656363,2.1636412,0.67287445,1.1999103,-1.5255427,-0.56241673,0.6867885,0.34284368,0.39679798,0.9788372,1.4055731,-0.65345454,0.3156752,1.1230131,-0.6238946,1.7519469,-0.6552231,-0.5650147,-1.6342088,-0.3728594,-1.4860898,-0.28142512,0.6264718,-0.25038987,-0.26176092,0.7023515,-1.2001373,-0.6476784,1.663781,-1.6155784,-3.2807405,-1.0137906,-0.20954642,1.881106,-0.6536575,-0.21861115,-0.124675356,0.8117201,0.09457701,1.8912734,-1.0553714,1.1247522,-0.5856249,1.3389548,-0.06950458,-1.3998755,-0.7800355,0.64973336,0.2791401,0.77746373,0.74363035,-0.64103955,0.22115909,-0.02005049,-0.39705455,-1.305632,0.267523,0.3745506,-0.045383815,0.715263,1.0661361,-0.5762179,0.06597578,0.11073428,-0.16480473,1.3541801
MMRF_1395,-1.0328602,1.1163827,1.9152567,-1.2984761,-0.37249383,1.5756217,0.14403243,1.7204447,-1.2703755,0.15677746,-0.3044779,2.1083438,0.66559243,-0.20969696,-1.3326714,1.7547761,-0.5177176,-1.4587054,1.2010491,0.41019598,0.43108946,0.092151605,1.4960709,-0.23390742,-1.1610701,0.12006236,-0.23252885,2.231437,0.18804976,1.4325945,0.9138377,1.2571633,0.95987326,-0.14404626,0.8798071,-0.28341728,0.76961166,0.9595723,0.0061126817,-0.94683427,0.45841628,-0.7728502,-1.4851124,-0.8104046,-1.1080129,0.14636295,0.29503238,-0.46999565,-0.19664511,0.079891495,-1.701913,1.0569682,0.022877336,1.1181167,0.63617665,1.8350071,0.5966289,-1.5211576,-1.5863938,-0.069461994,0.36667815,0.40025282,-0.078080066,-1.7583039,-0.8307711,-1.4382458,-1.7078475,-1.0121428,-0.5601001,-1.4213219,0.8213806,-0.8921887,-0.8488041,0.55870754,-0.20128638,-0.54378563,0.20529455,-0.19755615,0.8808805,1.1070552,-0.68776894,0.23009321,0.36801267,0.41275868,-0.64076334,-0.796293,0.55996174,-0.2784512,-1.3452184,0.26826122,-1.4909681,0.8797877,0.13861944,0.90955245,0.6842532,-0.24277739,-0.26471376,0.6718003,-0.37823302,1.5716856,-0.33201906,-1.8377753,1.0372924,-0.4545502,-0.23334613,-0.040317275,-0.9779732,1.3476655,-2.3620565,-1.5128543,-0.10027371,-1.1415414,0.8654273,1.0078778,0.80601996,0.8985772,0.38268507,2.630158,-0.7454424,0.07658172,0.6972795,-0.49234277,-1.4739809,-0.60821694,0.43179297,-0.55738723,0.41819933,-1.385376
MMRF_1391,-0.17267045,0.48204228,0.46326238,-0.15381253,0.08062747,-1.0663218,-0.18779722,-0.7169297,0.9345775,0.7191427,2.233538,-0.71805763,-0.13072085,0.0668191,1.0544885,-0.19772565,0.32685885,1.1332912,-0.9578431,-0.052352764,-0.010926021,-0.24953748,-0.25577042,0.31129593,0.2567943,-1.2636044,0.194132,0.7588038,-2.2146523,-0.19321752,1.4335921,-0.35972854,0.007676167,-0.7379702,1.098827,-0.40918106,-1.1952807,-1.0285239,-1.1883231,-0.28670666,-0.6306974,2.305327,0.3151443,0.5333259,-0.10925192,0.5773774,1.1239369,-0.8837082,1.1217636,-0.320827,0.1869033,-0.0998439,0.8923241,-1.6769477,-1.1261861,-2.5369582,-0.37069607,0.094904505,1.5861578,-1.0422642,0.09157102,0.07554113,-0.72591406,0.0950861,-0.07268703,0.5953881,0.6082749,-1.2946306,-1.0820992,0.91397995,0.73070997,-1.1365098,0.8761858,1.2228922,0.85825205,-0.47853756,0.07730125,0.08930328,-0.2464383,-2.1547701,-0.649144,1.119776,-1.6413299,-1.6443225,-0.8207929,-1.6797106,-0.62358296,0.19181366,-1.5265974,-0.56179667,-0.5538236,0.5010599,1.5374763,-0.46168348,-1.2391634,2.3715832,-0.013669735,-0.7215488,-0.20927213,1.0658278,0.37212333,0.625585,-1.5115774,1.7176245,-0.12386091,0.11176482,-0.105233446,-0.3819887,1.496724,-0.5726138,-0.77876717,0.8237102,1.5716445,-0.3059323,-0.20022853,-0.0007013958,-0.07082198,-1.601515,1.1310649,-0.82234013,-0.9523626,-0.16295333,2.0141442,0.7825164,2.3839602,0.40331048,0.55032605,2.3837793
MMRF_1359,-0.8582825,0.55297905,-0.41620708,-0.5953701,-0.5215575,-0.56798637,-0.84286964,-0.5529891,-0.2854468,0.29227835,2.3340237,0.066385366,1.28609,-0.2564765,1.3146819,-0.19105697,-0.17502417,1.5942744,0.28378552,-0.3038293,0.37241834,-0.041626,-0.63381654,0.5283526,0.50816303,-0.71025056,-0.6537598,0.4128781,-1.9916424,-0.40285382,1.0646566,-0.6125396,0.10135196,0.43402663,1.1478738,-0.61499715,-0.019348,-0.112414576,-0.4980613,-0.5470094,-0.14485827,1.1058325,1.579714,0.3318572,0.5219541,0.46173227,1.2290559,-0.36712515,1.613774,-0.053640336,-0.5502125,-1.1534071,0.36903453,-1.590794,-0.97723794,-1.5059828,0.38412625,-0.7977395,2.0588825,-2.0335593,-0.058488987,0.03956544,-0.20447832,0.47147855,0.24955374,1.0781661,-0.27242675,-1.5861945,-0.9583647,1.014342,1.350534,-0.018152798,0.8205272,0.7962029,0.39604503,-0.40802363,-0.23793547,0.94676864,0.10187076,-1.9879711,-0.81847304,0.47262156,-1.9045247,-1.0251024,-1.8970577,-1.7534671,0.112104826,0.32504082,-0.82378644,-1.4484891,1.047946,0.33338153,-0.17724186,-1.7219715,-1.213361,2.5087595,0.38786408,-1.5530117,-0.12209711,0.69857186,0.4675099,1.4048363,-1.4563398,1.270803,-0.09477559,0.51774335,0.5385422,-0.28112113,0.70639914,-0.8480886,0.05747436,-0.33111623,1.2932148,-0.5716146,-0.40571856,0.2068641,-0.70669544,-1.1769673,1.8413486,0.23576787,-0.053561796,-0.82246435,1.2104809,-0.4677551,2.7139082,-1.0142666,-0.1217669,2.5797246
MMRF_1267,-1.4516757,0.41211015,0.57117283,0.4769407,0.09773567,0.6960009,-0.47553727,-0.42426607,0.510488,-0.15303198,1.1559393,-0.9624591,0.46344405,-0.4722546,1.0221311,-0.5356478,1.1023724,1.4719898,-1.2939883,-1.2723473,0.122472696,-0.9521982,-1.1206812,0.9061144,0.14920025,-1.8639293,-0.98394614,1.3921816,-0.75807434,-0.070599176,0.019533165,-0.99233276,0.874439,-0.9404995,0.32335848,1.520657,-0.7212199,0.35033438,-0.6921775,0.74491775,-0.6131808,1.9125011,1.1971973,1.1741441,-0.13099161,-0.98756856,1.781236,-0.42270392,-0.26069126,-0.19793022,0.9259093,-1.4388628,1.5422344,-1.2711732,-0.17575087,-1.3005692,-1.3657775,-1.6950924,-0.31252658,0.3043199,-0.36393452,-0.04884724,-0.6903417,-0.68747205,0.25739676,-1.1293087,0.6380533,0.102166414,-0.24644807,0.7573757,1.5507399,-0.23846363,1.0751013,-0.117000334,0.29627714,0.2652591,-0.50965744,1.4175096,1.8825774,-1.7316025,-0.33614504,0.39257577,-1.0124935,-1.1616697,-2.4318047,-1.004541,0.6939506,1.0270493,-1.1899492,-1.2847859,-0.0378753,-0.31196803,0.007946523,-0.48934087,-1.3280793,1.2891854,-0.48366162,-0.6311016,0.44350192,1.8784728,0.16416994,-0.8913354,-0.6451864,2.461698,0.82237464,0.5603228,-1.0621454,1.3700175,-0.49635193,-1.5460958,0.5356847,0.5546911,-0.4673126,0.2022817,1.002313,1.1336254,0.3744961,-2.282007,0.44495818,-0.9424512,0.26062748,-0.19457746,0.46746844,1.3948357,0.6965706,-0.6206675,0.772834,2.4050965
MMRF_1274,0.6012267,2.2232113,-1.2726734,-1.7831204,-0.649178,1.0290463,-1.0884789,-1.1816224,-1.509436,-0.45283857,-0.2569743,1.2513374,0.010431219,1.339607,-0.71865624,-0.5356208,-0.71542317,-0.37594718,0.3346096,1.1106447,0.8431274,-0.5784526,-0.5363675,0.77336454,0.013385438,-1.7311709,-1.0284715,-0.6585294,-0.5127499,-0.80971193,0.10470789,0.6944224,0.9060216,1.1039838,-1.2940149,-0.66705227,0.6593906,1.3413315,0.5927367,-2.1057427,2.7072182,-2.5363038,-0.14204176,-0.7101693,0.23778823,-0.3007253,1.0378965,0.23498537,-0.21602263,-0.74474776,-0.2054826,0.100028165,0.28909355,-0.5264266,-1.1182005,0.7206929,0.7423942,0.4896251,-0.06827015,-0.88543314,1.0282936,0.067534305,0.6274202,0.685165,-1.215447,0.868435,1.5344803,1.0653868,0.63779217,0.109826855,-0.64821583,1.4212229,0.69793284,-1.6579689,-0.73738766,1.3906741,-0.1191641,-0.763843,-0.63597566,0.46486622,0.9617835,-0.53201765,1.0069522,2.3882957,0.08611817,-0.5204076,1.4632232,-2.656596,0.052296806,-0.76999474,1.0824684,0.28102493,-0.31751522,-0.76355886,-0.7306092,-1.0517435,-0.6481723,-0.5888386,0.50838953,-1.2125872,0.23094536,0.3522197,0.52580506,-1.6318486,0.49864438,0.74654686,0.10614501,0.07176325,0.351035,-0.39388373,1.8273511,-1.343815,-1.411827,0.3129519,-1.3565413,0.45814234,1.0165515,0.31703427,1.9032251,1.7242284,-0.1522054,1.0465306,0.42450574,-0.5774549,-0.23415355,-0.88135874,-0.6154931,0.29050052
MMRF_1037,-0.15494968,-0.5424001,2.5536706,-2.5804327,0.14257474,-1.2029417,-0.1617355,2.3611832,-1.0325403,-0.1564702,-0.4897144,1.7650553,-1.3022548,-0.69370127,-1.4584718,2.043139,0.4452674,-0.60426104,1.4905915,0.81918746,1.1137061,0.32724506,1.7018887,0.39547214,-0.67946666,1.363921,0.3762185,1.503456,0.55824476,0.7933056,1.7524637,-0.68268394,0.35454577,0.8863902,1.0808817,-0.08085952,1.825613,0.110824585,-0.7096931,-0.97566897,-1.1811975,0.6385372,-0.09020717,-0.26059592,-1.2346141,-1.271935,-0.785243,0.74106646,-0.031510353,0.77004623,-0.87529916,-0.8521714,0.04906878,0.73248416,0.50504386,0.789029,0.94329995,-0.096289575,-1.4232373,-0.16490401,0.21850559,0.30438346,0.67385423,-1.8759711,-0.6042463,-0.9106307,-1.2664602,-0.11842206,0.45846203,-1.0924808,0.6220687,-0.46738303,0.068469524,-0.48048672,-0.11336934,-0.87444323,0.6869938,-1.7205513,-0.7091928,0.23983064,-0.18673933,-0.60819775,-1.1704257,1.8869352,0.75577664,0.28160843,0.82479596,0.79516125,0.7870479,2.017771,0.14812395,0.09222928,0.36780342,-0.5213188,0.7098104,-2.1981962,0.7963755,-0.31275922,-0.2715742,0.10631616,-0.371474,-0.1201702,1.0960077,0.11056236,-0.98794746,1.4487807,0.21170786,0.43597916,-1.7334373,-1.7527878,-0.10692357,-0.7825599,-0.06801942,-1.1545423,0.67989236,0.36081192,-0.35269198,0.9460007,0.85473585,-0.29994613,0.10305545,-1.7604938,0.19363482,-1.16322,0.23723798,0.103948474,-2.368293,-0.32508603
MMRF_1033,-0.61078733,-2.9673338,-0.6426907,0.7242759,1.3708096,-1.0420976,0.48454726,1.8910208,0.12624112,0.18996567,-0.5939211,0.13507098,-0.11926965,-0.28577563,0.06974638,0.5032997,0.15010412,-1.3497802,-0.9888879,1.947684,0.04127234,-0.4330655,1.1055626,0.084088355,1.1852379,0.09247748,-0.4857955,-0.1577347,1.6533967,0.1842932,-0.6875599,0.4939301,0.6766258,0.405224,0.3303618,-0.6412848,0.7142427,-0.050640818,0.47786367,-0.9180456,-1.6367483,0.1084641,0.33396775,-1.4627594,-1.1035955,-1.694076,-0.3322416,0.20056371,-1.0574756,1.131368,1.0839062,-1.4435805,-1.040688,2.453237,-0.66637224,0.17017706,-0.8758489,-0.08948044,-1.9192542,-0.031459782,1.1052386,-0.09918679,1.018766,-1.1412466,-0.593888,0.45988998,1.0096686,0.8100504,-0.93056524,-1.3895211,0.014196465,-0.14987187,-0.99080414,-0.32113448,1.0010144,-0.31377274,1.0766237,-2.0416243,1.1000892,0.20949516,0.11292097,0.01870805,-1.0898286,1.8815264,1.3059357,1.3413602,1.6380206,-0.81686515,1.306846,1.8349644,0.52125,1.1012448,-0.24933581,0.65343815,-0.1449096,-1.5557567,-0.80872124,1.1972332,0.8684565,2.528761,0.43612513,-0.7861772,-0.014852302,0.24767308,-1.345405,-0.17934239,-0.30397004,-0.29370445,-0.5369494,0.47667825,1.0980844,1.5644166,-1.5980496,-1.0515862,0.4956215,-1.3114452,-0.5135458,-1.0934639,0.58393455,-0.04316544,-1.2027165,-0.0008531655,0.4377209,0.06470626,-1.8760867,-0.0772084,-0.24165526,0.34908664
MMRF_1031,0.21518849,1.4844309,0.11737863,0.045910984,-0.20296383,1.2215974,1.002423,-1.2868865,-0.23388858,0.7255313,-0.72511077,0.36126778,2.0018327,1.3275958,-1.3541254,0.20893753,-0.63315374,-1.2442317,2.2527168,-0.37922737,-0.80796665,1.0503814,-0.9723656,-1.3324251,-0.47755042,0.68096685,0.72789395,-0.1250136,-0.99014485,-0.27484554,-0.12557553,1.7470577,1.1731366,0.79838616,-0.9817253,-1.3810917,0.96763355,0.46247163,0.26940757,-0.27187958,0.2920622,-1.8177913,-1.0723206,0.2121789,1.1028272,0.31828165,0.24274515,0.74835414,-0.52718526,-1.046033,-2.4878304,1.938577,-1.527037,1.6926603,2.152105,1.2621646,1.5710157,0.61454916,1.421366,-0.015779063,0.6621644,-1.0917208,-0.20314385,-0.32643813,-0.38371488,0.17517403,-0.50954825,-0.29801494,0.36998126,-0.9601929,0.09095644,-0.6916962,-1.4669304,1.1394433,-0.47917446,-0.9883526,-0.08149358,0.05406747,-0.7380397,0.7331607,1.0727472,-0.17128326,0.042864226,1.0549239,-0.74078023,-0.022564383,-1.25839,-1.5990294,0.26048473,-1.3497223,-0.92756385,1.2685745,0.10344541,0.82954973,1.7554443,0.7303642,-0.17389156,0.62514406,-1.7564669,0.33180952,1.1744615,-0.30893123,1.5103283,-0.73350483,0.4065162,0.05651099,0.5976703,-2.1001403,-0.3958924,-0.044420436,-0.35555947,-1.5589346,-1.0425221,-0.60464054,-0.4476671,-0.35873833,0.9375533,2.2345128,-0.98174924,0.35834637,0.060274594,0.70295906,-0.2998057,-1.4819188,-0.31694242,-1.2473446,-1.042589,0.15683731
MMRF_1068,0.74185294,1.033723,-0.93263096,0.27704033,-0.19750477,0.15386397,0.2700388,-0.40520957,-0.17002963,0.59375,-0.034313567,0.6718172,0.3159093,1.4700586,-1.8286483,-0.90070975,0.23338489,-1.3732709,1.0627836,-0.12417154,0.21664257,-0.3500935,0.49757275,0.2887091,0.31517443,-1.6672883,1.1121502,-0.6311698,-0.22610709,-1.9594221,-1.169397,1.8563211,0.75707877,-1.9732008,-1.1789945,-0.596489,-0.3588952,-0.07050709,1.1353011,-0.37792352,1.6560844,-0.7157079,-0.9650826,-0.4365587,0.81451744,-0.8064378,0.089836195,0.52823627,-1.0461727,-1.6763554,-1.2023703,1.0090753,-0.21537052,0.9704321,1.6495624,0.39721572,-0.60588765,1.0386362,0.19269337,0.94649494,1.5216267,-0.70913565,1.2958273,0.5458581,-0.0028557149,0.07362428,0.675718,1.2646303,-0.1308639,-0.5325953,0.5589104,0.0769684,-1.8732412,0.49052766,-0.43340304,-0.50802666,-2.3211887,-0.25762716,1.4271603,1.3779562,1.3513609,-0.2050552,-0.0806644,0.55320597,-0.37941593,0.31925598,1.4664328,-2.3829975,0.22716059,-1.2887603,0.26385882,2.5648746,1.4807961,0.8378847,0.16571376,0.2681343,1.0998117,0.90015,0.23612115,-1.5773246,-0.66381687,-2.5961766,0.05762145,-1.1066582,-0.02934252,0.061726872,0.86177677,-0.36656067,0.6271312,0.5073437,0.9595095,-0.90085614,-1.7394618,0.32588017,-0.94004655,0.5271838,1.2770044,0.73749787,-1.868718,-1.1582562,-0.22793095,1.3618568,-0.39533353,0.40577078,-1.093716,-0.957702,0.16823201,-0.28670347
MMRF_1078,0.64707744,0.6624127,-0.8835869,0.17862849,-0.7740601,-1.1762195,-0.1791018,-0.644831,-0.31586164,0.047513317,0.4651121,0.20485152,1.0884889,0.48000273,0.16556816,-1.011054,0.29854137,1.0584233,0.83343214,0.5257266,0.6474734,0.45114875,-0.6512851,-0.63329583,0.029336214,-0.11181507,0.17462438,-2.5594745,-0.8016032,-0.9365561,-0.29681903,-0.18224625,-0.5500231,0.50632244,-0.30156204,0.11732102,-0.91640556,-0.40307453,0.67902684,-0.7542702,1.8726903,-1.1483864,1.0040101,0.87652785,1.3655292,-0.22602576,0.6022396,-0.5810564,0.81847906,-1.4070671,-0.022923686,0.5634653,0.0858288,-0.26889655,-2.3093908,0.0075893234,-0.27568346,0.45754445,0.9409809,-1.5719042,-1.16751,-0.88041145,0.84117895,1.8741367,0.040358458,2.8774397,-0.050983742,-0.66514367,1.5098082,1.828777,-0.39376777,0.14837706,0.83750606,-0.255684,-1.5538887,1.548773,-0.82730293,0.65274346,-1.3422037,0.18409413,-0.35474718,0.36322558,-1.292346,-0.27592024,0.09578435,0.008849511,-0.8693575,-1.2041258,-0.06427909,-1.7166679,1.8662294,0.117838115,-0.06560718,-1.2775003,0.70917284,1.1366926,0.41978803,0.46968588,0.3161877,-1.5409067,0.11234022,0.44315594,-3.0850089,-0.45235375,-1.2659123,0.284252,1.1698253,-1.8700006,1.4506477,-0.6540019,1.7692041,-0.98486096,0.42853716,1.1234694,-0.9493659,0.33617494,1.839214,1.2883191,1.0809886,0.19096036,0.48773924,0.91317654,-0.8456457,-1.7645544,0.5181945,-0.68359786,1.0218344,0.15223551
MMRF_1086,1.5564466,0.16750859,0.4569493,0.14124493,-1.2290394,-1.150415,0.67904896,2.0790865,1.2077653,0.34733766,1.1618624,1.518527,-1.307805,0.98428595,-1.3118762,0.88451505,-0.60922295,-0.32778448,-2.7979794,0.7732095,0.8893204,-1.1661742,0.52664965,0.35675693,0.12469792,-1.6830044,1.5714139,-0.91964704,-0.33279246,-0.99029636,-0.33617646,1.2613817,0.6707088,-0.50607646,-0.8032698,-0.48650414,-1.096105,-1.3820415,0.39210615,-0.38658905,2.4506557,0.45184803,0.7013942,0.23062913,-0.1792138,-0.7342404,-0.12503627,-1.6602349,-0.62389445,0.8359244,0.25021842,-0.4590576,-0.11921923,-1.0525844,0.7517558,-1.4842535,0.15270929,0.77117103,-0.12844136,-1.2181349,1.0157841,1.198,0.7953474,0.56302494,-0.541694,1.4939013,1.6547204,-0.6334107,1.0669237,-0.46590757,-1.3156732,-2.175354,-0.30697927,-0.51461303,1.6074339,-0.09318042,-1.3371671,-0.31910717,-0.32820305,1.2284583,-0.11129361,1.3772467,0.41026136,-0.4395522,0.20282425,0.94513476,0.06897662,-1.1172763,-1.7806094,1.5059493,0.5734185,0.32811868,1.4141986,-0.36553705,-0.34120044,0.49216944,-1.3377125,0.2318973,1.2842525,-0.34307584,-0.27096543,0.0862382,-2.680908,-1.0120684,-0.6765259,0.40677935,-0.35403284,-0.473198,1.1803044,-0.6633913,0.216172,0.7338568,-0.13241859,0.42709544,-0.16652538,0.23118564,1.7544837,-2.035026,0.6540007,-1.4187014,-1.2704036,0.533055,0.28760248,0.70099634,0.41238952,-0.108780526,0.39489987,-0.022562504
MMRF_1082,0.27367103,0.1418563,0.3473076,0.19001131,1.2276983,-1.4602547,-1.1051264,-0.4409097,-1.2761687,-0.6093177,-1.6209794,-0.54335153,-0.14961965,1.0814565,0.0669731,0.83886933,0.37306705,1.3844885,0.89261645,1.4067084,-0.40370432,-0.8780363,-1.6112834,2.6561546,-0.4899259,0.5311332,-1.3455703,-1.2457958,0.4293549,0.8061082,0.34021285,-1.5554338,-1.8308349,-0.26451007,1.8087163,0.5365137,1.1185002,-0.34485614,-0.40688226,-0.629729,-0.8034456,-1.3748589,0.38992763,-0.9029095,0.60906684,0.3272313,-0.23511598,-0.018577991,1.8071789,-0.4213834,2.1157532,-0.4968231,0.77845305,-0.84056145,0.91454,-0.69428277,-0.06183581,1.238942,-0.5471151,-0.42984453,0.93171304,-0.57823175,-1.4391713,1.1458288,0.7047916,-1.0934746,0.054237083,0.9133954,0.016062599,0.37442622,0.8321464,2.9754355,1.3090479,-0.31912506,-0.6332765,0.21852854,1.2049955,0.51055557,-0.6437145,-0.9821913,1.9091277,-2.1702485,-0.8122907,-0.15736094,0.74109244,-0.2984262,-0.76042473,-0.17957029,1.1585946,1.0519658,-1.1503357,1.3949009,0.1376308,-0.6069485,-1.5072609,0.20002612,0.12224382,-0.043374218,-0.6757155,-1.1391047,-0.4343531,0.10431077,-0.17811279,1.2922261,1.1103421,-0.5471531,-0.04154238,-1.2375646,-0.35543817,0.9362053,0.45783263,0.45227864,-1.9474205,0.67070574,1.2478218,-1.1797501,-1.2356452,-0.51804626,-0.88209635,1.8077586,-0.6803824,-0.30811223,-0.6873002,1.3536437,-0.4274048,0.0873077,-1.3036646,0.09051767
MMRF_1092,-1.1711793,-0.06395355,1.2195253,-0.027495038,-0.8158656,1.390935,-0.06430187,2.322209,-0.56342137,0.4320485,-0.12492246,1.6286975,0.11922784,-0.81566143,-1.4723227,1.5205208,-0.118548974,-1.774431,0.11261503,0.81873906,0.033401657,0.3102349,-0.054391943,-0.21865763,0.19737658,-0.10180736,0.13058552,0.5513021,0.018283721,1.4093624,0.508753,1.1855416,0.49319404,0.12818646,0.60889834,-1.3647108,1.5408452,0.16524084,-0.4437726,-0.2170112,-0.48340142,-0.70516956,-0.40672913,-0.808818,-1.4031947,0.9682308,0.84642524,0.53319925,-0.20217168,0.73624265,-0.6017225,1.3331312,-0.11346052,0.97400963,0.63238513,1.3929161,1.0255439,-1.155111,-1.6161292,0.16400327,-0.48090667,0.23863168,0.8779762,-2.6375158,-0.23002848,-2.534371,-0.594062,-0.92764556,-1.0732225,-2.2224116,0.41339546,-1.3190589,-0.0077215624,0.28374323,1.652709,-0.45323852,0.83962667,-0.62135094,1.5461171,-0.066935465,-1.1308029,0.38856995,0.26992512,0.7906592,0.56866115,1.440715,0.6542015,-0.6428714,-0.98250604,0.73987156,-1.8485864,1.3344153,-0.86114377,1.8873264,0.57077765,-0.858229,-0.23319033,1.5969373,-0.68238056,2.8595579,0.75948477,-1.317194,1.265734,-0.97342366,-1.43471,-0.17430177,-1.0033861,0.6464354,-2.0529635,-0.857982,-0.40097365,-0.70450145,0.5422058,0.43987742,0.6586972,-0.10800803,0.66876465,0.81553805,-0.85725623,-0.5724656,-0.6458546,0.6047045,-0.3084683,-0.80369973,-0.03332846,-0.9335292,0.60556024,-0.90122414
MMRF_1325,-0.9103383,-0.78264946,-0.6093691,1.4192532,1.6946083,-0.5216806,-0.49192792,-2.053524,1.4721503,-1.9772495,-1.654589,-2.1535335,0.53074074,-0.6060017,0.9448647,-0.79036784,0.07024377,1.2540537,0.3124922,0.46363777,-0.05129003,-0.17403577,-1.2388865,0.24905556,0.33686978,0.66021425,-1.4498451,0.035272337,1.023145,1.3211842,-0.39512935,-0.11022579,-1.0922182,0.73378986,0.69663614,2.0668547,0.31430033,0.49624404,0.063630745,1.7934235,-2.7997012,1.0383608,-0.7991975,0.8365582,-0.65889317,-0.19208421,0.16342068,0.18393454,-0.5949131,-0.2774033,2.1822014,0.4787352,-0.37440532,0.79856205,-1.1776782,-0.988819,-1.771833,0.03789764,-0.7996664,-0.16638377,-0.020540904,-0.86695975,-0.23522429,-1.6060635,-0.030918363,-1.7228757,0.28344125,0.22824973,-1.5764352,0.96441287,0.6892424,0.790626,0.44709557,1.4030695,-0.7804028,0.37594303,2.4991016,-0.4189513,1.074582,-1.6677688,-0.39184603,-0.3244306,1.6220752,1.328256,-1.005479,-1.1603316,0.48346287,-0.44400126,1.9541725,-0.033081375,-0.6412928,-0.26342,0.66183305,-0.6868266,-0.024759594,-0.9745685,-0.15490769,0.16035587,0.73062265,0.61259735,0.44326407,-0.73915577,1.3387104,1.3238696,1.3256354,-0.34561375,0.3059993,0.4260464,0.42781234,-0.07419255,-0.117880516,0.8407118,-2.4263136,0.5618013,-0.18433805,-0.52850443,-0.87803423,-0.16964269,0.25086865,0.64103526,0.70758903,-0.55667114,-0.8445888,-0.17596245,-0.42944914,1.5883639,-0.5403475,0.45357773
MMRF_1364,-0.27118817,0.7887091,2.0297248,0.08885483,-1.4410874,1.1456141,0.6443846,2.1829038,-0.4134725,0.88889056,-0.33274207,1.6195037,-0.059535567,-0.20185763,-1.728088,1.1664222,0.4047463,-1.862171,0.51224667,0.0034378637,-0.12681274,0.27948654,-0.66046715,0.034026623,-0.74711293,0.07697798,1.8204906,0.32496652,-0.09216478,0.2198082,0.3388762,1.1812088,0.36123863,-0.110277735,-0.32375914,-1.6973045,1.2604774,-0.1388497,-0.5832306,0.11141815,-0.19719948,-0.29538566,-0.995345,-0.59402025,-1.2446581,1.6944487,0.061709307,0.17539021,0.032666236,0.09318804,-2.2696328,2.1825192,0.035341807,1.5154783,1.4708707,0.9955322,2.1080823,0.13117187,-0.22717372,-0.31570157,0.13204232,0.24682471,1.2299819,-2.152882,0.05169071,-1.5241914,-1.8810226,-0.84236795,-0.2431504,-2.3040154,0.19661447,-1.512285,-0.47727415,0.4012575,1.0224215,-0.44134414,-0.27767798,-0.22188854,0.37528133,0.78914523,-0.7820983,0.29215813,0.3768128,-0.458855,0.3723884,1.0709741,-0.4095774,-0.98537105,-0.8947832,-0.33738104,-1.9135138,0.6709859,0.14366518,1.3294737,1.1698549,-0.22551127,0.78640306,0.90863615,-0.7974155,1.4958278,0.16083287,-0.60107493,0.6006816,-0.8421408,-0.9697615,0.31201914,-0.8446205,-0.124263585,-1.8756096,-0.7044936,-0.97728604,-1.433142,1.9226958,0.7190981,-0.017435528,-0.2298509,1.7736175,2.1355646,-0.63946164,-0.6399597,-0.75965846,0.3014017,0.018779613,-1.0724978,-0.39434555,-0.20755042,0.24517679,-1.2448177
MMRF_1383,1.2885321,-0.31221756,-1.1609551,0.16651048,-1.1490725,-0.2895254,1.0760927,0.6415547,1.3153069,0.8534444,2.0753803,0.49980962,-0.3141778,0.8457037,-0.8461338,-0.0923566,0.061002433,-0.30310273,-2.6794162,0.3807265,0.16702795,-0.84784263,-0.3948704,0.12644203,0.12407486,-1.404241,2.428411,-0.8904896,-0.25536045,-1.1815408,-0.5387907,1.5186056,0.16882458,-1.2974135,-1.1120477,-0.9802928,-1.7894436,-1.9412206,-0.12899198,0.2531292,1.9071863,-0.011540214,0.8193423,1.2186188,0.38722882,-0.02772569,0.70729846,-0.65244627,-0.6068621,0.55128455,0.086422965,0.11064305,-0.47752187,-0.14553314,0.7029795,-1.5303633,-0.49964094,0.892486,0.8981818,0.2689701,0.8570476,0.61119825,0.67576754,0.42737806,-0.24912676,0.98329824,1.6785387,-0.36383316,1.9211823,0.28298497,-1.8287036,-1.6028309,-1.1060442,-0.12839805,1.7282175,-0.866926,-1.2998703,-0.40258986,-0.938602,1.0615048,0.025851738,1.2470611,0.31432343,-1.0254,0.3297121,0.15786563,0.2315134,-1.4273096,-1.6206827,0.63813627,0.1578415,0.775697,1.5483336,0.5813151,0.5760571,1.8757603,-1.7334815,0.8215961,0.11890538,-0.152001,-0.0020763585,0.79842776,-1.5890387,-0.67486316,-0.8142664,-0.21628346,0.39523146,-1.917357,1.9212078,-0.015492319,-0.2979385,0.6074655,-0.23487885,-0.76378363,0.15690975,-0.62255114,0.7562848,-1.2727948,0.09984995,-2.510354,-0.9413062,0.9638041,0.1894209,1.1068745,0.41512337,0.089101896,0.66014457,0.25129998
MMRF_1377,0.90011686,0.7635773,-0.21913658,0.56612414,-1.1298443,-0.44704056,-0.38710412,1.3798249,0.18843895,0.057487644,0.46649253,-0.2508977,-0.40990415,0.048308533,-0.08327909,0.69979006,-0.59848803,-0.30488634,-2.2002037,-0.84033304,0.051020022,-1.2496789,-0.26662287,0.868399,-0.49006063,-2.3077002,0.26006094,-1.1566583,-0.19797504,-0.31444407,-0.44376537,1.4837222,-1.1141688,-0.16307713,-0.94589514,-0.68278563,-2.3020635,-0.6129668,0.82389855,0.23908725,2.8329153,0.7170345,1.0994197,0.9722507,-0.8225324,1.0099838,-0.01934635,-1.3220668,-0.8128856,0.13764584,0.61591756,0.01197983,1.5295991,-0.60336876,0.84624726,-0.77138233,-0.29702127,0.33592355,0.33784857,-0.13424958,0.81309503,0.6722001,-0.22940195,1.2793095,-0.31685007,-0.12088608,0.90860975,-0.6355988,1.055529,-0.32433838,-0.11666053,-1.439735,-0.20058878,-0.5798334,1.1176251,-0.24519263,-2.2165303,1.2157317,0.24721366,1.8073249,-0.8710167,1.5410576,0.37850866,-1.6270717,0.4598955,0.8872902,0.45199233,0.80999595,-3.1908133,0.74106425,0.4338773,-1.1381984,0.6279524,-0.39954793,-0.11999686,1.7123997,-1.2666337,-0.086399786,1.147821,0.5757157,-1.6193575,-0.3332466,-2.1751318,-0.55860186,0.41744423,-0.024050213,-0.8293921,0.9570789,-0.43774062,-0.5685824,0.41939843,0.71744984,0.6351524,1.1481165,-0.4834499,0.509762,1.737719,-1.7806075,0.32095775,-0.87207264,-1.0311067,1.3502407,-0.65538454,1.1423242,-0.2271124,0.81591505,1.9751925,0.4190062
MMRF_1360,-0.77241397,0.28148934,1.7263256,-0.71745133,-1.337149,2.070845,-0.28143123,1.0275018,-0.9342672,1.7869818,-1.0873598,0.6048834,-0.25179464,0.18359423,-2.3712003,0.7853036,-0.7024061,-0.91740996,1.2330728,0.13257714,0.45986658,1.3348056,-0.9738509,0.35466015,0.13325433,-0.4642969,1.4028194,-0.0066101793,-0.6490842,-0.67165184,-1.0352168,2.073823,0.22937584,-0.96902674,-0.14766107,-0.94327784,1.4083805,1.333712,-0.35429755,-1.1124287,0.62537956,-0.5462573,-0.09848886,-0.729939,0.070432454,1.4417944,1.0354396,0.29589477,-0.4615755,-0.1884488,-1.3263216,1.8367422,-1.0013388,0.7835051,0.8182227,0.8375125,1.0843948,0.6245796,-0.3615545,1.080904,-0.039302237,-0.45433673,1.2895412,-1.3847694,-0.090184495,-1.8090696,-0.92649543,0.21637514,-1.0386819,-1.8380452,-0.7875408,-0.29039693,-1.1170194,-0.6166895,1.7670938,-0.6341083,-0.67047924,-0.4815485,1.3662189,-0.7653009,-0.2790496,0.04929304,-0.23859386,0.61172837,0.6685381,1.150423,0.522043,-1.2323732,-0.98582774,-0.7649828,-1.8603237,1.9852808,-0.98391384,2.501926,0.45349073,-0.45828614,0.6614272,1.1103783,-1.7151787,2.2130084,0.6058669,-0.22069257,1.6702977,-1.596484,-0.5863932,0.35085487,-0.607215,-0.5937347,-0.8758835,-0.50941837,-0.3565742,-0.21018547,1.8718587,0.3612382,-0.21854262,0.2989557,0.55682963,0.8170876,-0.51680976,0.23335974,-1.0354716,0.42326513,-0.07263471,-0.76689875,-0.63664126,-0.28056523,-0.31321862,-0.5111575
MMRF_1371,-0.6872973,0.43961212,0.5070227,1.3366978,-0.15410584,0.31411177,1.365918,1.3155767,-0.14375548,1.1467187,-1.003652,0.44786993,-0.420021,1.2126993,-2.4916458,-0.42158848,-0.59393454,-1.9143453,1.288561,-0.54173046,0.1813098,-0.09954154,0.12680553,-0.38276213,-0.09863298,-0.020835541,2.0784547,-0.63889897,0.41631046,-0.6632731,-0.19044074,1.1825224,0.8182321,-0.40616268,-0.31892654,-2.3492215,0.13617118,0.17139693,-0.5360872,-1.0857736,0.37046185,-0.48174983,-1.0264717,-0.026296616,-0.23278555,1.302532,-0.648568,0.29945818,0.8867362,-0.9989384,-2.5709927,2.4308913,0.3771728,1.6952537,1.1728226,0.9100076,1.9067138,0.7826227,1.2474223,-0.20741206,-0.6567867,1.311388,0.19781215,0.2794119,-0.45783663,0.040655427,-0.36951077,-0.33014005,0.34354475,-1.7046078,-0.49846196,-1.7747654,-1.0856265,-0.37063864,0.2693948,-0.19846763,0.08837167,-0.53247845,0.14268598,0.96043,0.57798404,-0.5081696,0.28167376,-0.4616099,0.47726628,-0.12476881,-0.81454134,-1.2033049,0.1565186,-0.84850425,-1.351466,0.6585975,-0.40478277,2.3619099,0.25170922,0.32968128,0.89190257,1.6935971,-0.34351018,-0.4720739,0.7511588,0.31400436,0.080210984,-0.91662997,-0.29923332,0.47340116,-0.4236436,-2.2435365,-2.3869958,0.54893714,-0.9288935,-1.1097243,2.1789546,-0.1347267,0.4974404,-0.27645227,1.4767209,2.0571666,-0.8954831,0.34878403,0.41407335,-0.21132508,1.1082282,-1.2581316,-0.78171015,-0.6895015,0.31689507,-1.2279907
MMRF_1089,-0.104355246,0.38842016,1.6648914,-2.4759758,-0.8448894,0.1974527,-0.19129701,1.4102775,-0.5824247,-1.272919,-0.26776293,1.4054469,-0.39575118,0.5907766,-0.9869746,0.85749054,-0.69574535,-0.4478793,2.2272525,0.6184025,-0.048987687,-0.12398232,0.8340021,0.11917803,-1.2067531,0.81615955,1.3217127,0.79015696,-1.1206439,-0.8019787,1.5952313,0.7130084,0.00787756,0.37500122,0.45436367,-1.1846465,2.1022708,1.1335458,0.1941062,-1.265404,-0.41549924,0.08322592,-1.3103256,-0.21123068,-0.8631565,0.1796773,-0.2844761,0.9520164,-0.755838,0.4001858,-1.7453008,0.61631805,-0.28040957,-0.15213042,2.2506692,0.9128109,1.1656144,0.27136952,-0.31504834,-0.66583365,1.3619317,0.2645603,1.1166857,-1.1301705,-0.30137885,-1.0626228,-0.5632885,1.4145299,1.1902121,-1.0522648,1.1746012,0.23813288,-0.03881322,-0.462767,-1.0720795,-0.43730545,1.0180744,-2.3220298,-0.052166205,1.325457,0.7277383,-1.0198128,0.1319652,2.8653061,0.25215292,-1.2632368,1.0510598,-0.66189694,-0.051969744,-0.035749763,0.68183124,0.040586486,0.69334483,-0.06878552,0.23761292,-0.20896655,0.9009845,-0.5216104,-0.67123824,-1.7953422,-0.5450113,0.39649558,1.2838658,0.2916457,-0.37798327,1.0567843,-0.33739412,0.19149463,-1.1242,-1.6767031,-1.2874906,-1.7468204,-0.21337196,0.001568852,-0.31386057,0.55650973,-0.20078586,0.5727403,1.0130378,1.1172726,-0.5805633,-1.9946337,-0.11187782,-0.06002744,0.67818964,-0.94592094,-2.5182989,-0.6416086
MMRF_1365,-0.8437126,-0.6773013,0.23555183,1.1642293,0.25420344,-0.079330124,-0.29852617,0.5985246,0.9220469,-0.8785205,-1.207091,-1.2003385,-1.0716428,-1.8912838,1.2806599,0.5447091,0.67666537,1.4282699,-1.1090052,-0.18940987,-0.024178656,-0.07727575,-0.18696609,0.6407538,-0.12973733,-1.2177063,-1.5108962,-0.13751167,2.035836,1.8290557,0.04477366,-1.334295,-2.3910558,1.7578468,0.683647,1.3759583,-0.5730181,-0.7795988,0.31389102,1.5683303,-1.7263801,0.93368816,1.0865887,0.14553498,-1.783001,-0.038051173,0.27671364,-1.0240529,-0.31690794,0.8867872,2.6382103,-0.6596572,-0.08775932,0.32361358,-0.5612903,-0.3906388,-0.57628417,-0.62639004,-1.9244622,-0.8009835,-1.0134991,0.31238168,-0.5162475,-0.7463034,0.37288493,-2.5770407,-1.0816816,-0.08426966,-0.85848,-0.0009472768,0.39233452,0.98268527,1.262381,0.91919255,0.82721275,0.5897986,1.2831447,1.4623673,-0.09044036,-0.93896544,-1.8064283,0.8344634,1.5597324,0.06935668,-0.76702607,0.5857409,-0.65498304,1.4635056,-0.51972646,1.000606,-0.6485769,-0.66820234,-0.4713907,-0.7363831,0.07142655,-0.14786686,-0.69728816,-1.158353,1.0615083,2.484332,-0.44889325,0.37886798,-0.24027537,1.3856851,1.3054754,0.8729523,-0.56177884,1.1286886,-0.99312913,0.3154364,0.54792047,0.64934677,-0.7577143,0.71270937,-0.024645474,-0.29397836,-0.2694347,-0.073850095,-0.4963787,-0.4807096,-0.7056379,-0.6402122,-0.8575088,0.119602494,-0.59547955,1.9869572,0.576231,0.70841587
MMRF_1356,-1.1887318,0.06467141,-0.39243513,-0.5815079,0.77407354,-1.0545052,-1.3797592,-0.5187961,-0.7735144,-0.057936314,-1.070195,-0.3212245,1.0478662,0.13246557,0.13033473,-0.10667733,0.21206479,0.7589671,0.3584696,0.7418653,0.22924513,-2.0145428,-1.4060757,2.058671,0.3737247,0.034582995,-1.4090333,0.5247113,-0.28247374,-0.067622796,0.12304982,-2.3597727,0.7847757,0.9380022,-0.022779003,-0.3773577,0.024746465,-0.028331555,-0.3056602,1.1341808,-0.12842955,0.83102643,1.624501,0.94603294,0.85034984,-1.4378514,-0.08732914,1.1993954,0.87205493,1.2823089,0.6763306,-1.4334501,1.0164838,-1.1356577,-0.79884076,-0.08971049,-0.6040886,0.45789692,0.6078538,-0.05401567,-0.80287117,-0.59059936,0.61521274,0.67212605,0.9154386,-0.544812,0.42226583,1.1100703,0.9572223,-0.17271863,0.6256797,1.6702507,1.3877925,-1.2620027,-0.2837149,0.38329402,1.6546489,1.6708316,0.73868585,-0.73107463,-0.9269961,-1.7857953,-1.1314741,1.5207043,-2.2728517,-0.56396997,0.87504756,1.2368762,0.49228632,-1.1442372,0.7976818,-1.0670244,-1.0696527,-0.9588003,-0.92776895,-0.7052943,-0.88155776,-0.9394977,1.0102307,-0.47064173,-0.28849503,0.51255965,0.19382854,2.1035235,-0.47622094,0.85793,0.39840475,-0.21963671,-1.3579842,-0.9997816,0.8210186,-0.64917445,-0.8314438,0.15720417,0.024610817,-0.110314175,-0.70147544,-1.9638739,2.266352,0.7419301,0.8708984,-1.234216,1.6810917,-1.3097686,-0.16345546,-0.7619216,-0.92912585,2.4155827
MMRF_1270,1.5993835,-0.47703847,-0.49162397,0.71831185,-1.8182422,-1.8560152,0.012455339,1.5417298,2.5538564,-0.33029297,0.95809525,1.4856133,-1.1773679,-0.35832098,-0.46809986,-0.1577413,-1.4160254,-1.5162399,-3.1344254,0.26103666,0.67816806,-0.71484953,-0.07365601,-0.6800419,-0.06987026,-1.4906634,-0.3125374,-0.18720493,0.31594694,-0.6546311,-0.44407445,1.3381513,0.009446553,0.6205735,-0.20942485,-0.8793496,-0.47600618,-1.5213565,0.67084026,-0.20933367,1.8440101,0.31678367,-0.07190895,-0.21650614,-1.5855263,1.0484225,-0.3527566,-0.9364053,0.77818906,0.48007047,-0.44536287,-1.6126552,-0.78854287,-0.58572054,1.5180551,0.0824046,0.1497837,1.4491109,0.43072218,-1.5376391,0.20959572,1.3630445,0.11987601,0.35308945,-0.02059511,2.6503448,0.58942413,-0.8191907,1.1051339,0.14968662,-0.8518353,-0.45441782,-0.71053666,-0.024577834,1.235048,0.7396273,-0.3911537,-0.45288485,-1.1351019,1.6652313,-0.9109437,1.4780501,0.6522619,0.76794714,0.63397664,1.0800955,0.21557051,-0.67378867,-1.4954613,1.2597315,0.016968701,-1.0948861,0.14634618,-0.1550182,-0.87450886,0.062613815,-0.975373,-0.013004765,0.5375936,-0.26888338,-0.42741022,1.1694566,-2.114102,0.71090853,-0.22309808,1.3308284,0.0374285,-0.8170275,1.360004,0.18361363,-1.1394582,1.220731,0.43450096,-0.22849976,0.13628851,0.9371297,1.917095,-1.2594358,0.03338901,-1.2639427,-1.5038266,-0.588778,-0.30955958,0.12531088,1.0183791,0.6835501,0.8472082,0.4803638
MMRF_1323,-0.949037,1.6131294,-0.7772253,0.51936054,0.456816,0.41147214,-0.21071976,-0.9265497,-1.4929918,0.2084841,0.21285225,0.7273662,0.9326247,2.2931406,-0.35330814,-0.274465,-1.3589448,-0.4786973,-0.21741869,0.8404041,0.2909264,-1.529374,-0.96807575,0.14532192,1.3420001,-0.35631105,-0.6885768,-0.9525997,-0.8498032,-0.7999462,-1.0090396,-0.09387641,3.1076777,-0.021017943,-1.0331832,-0.9348062,1.2103602,0.31598935,0.545763,-1.8621511,1.1719091,-0.889345,0.93822944,0.8773892,0.164611,-0.41562867,-0.18389173,1.2060962,0.93081534,0.8694768,-1.1742958,0.985396,0.20959172,-2.0758862,0.96634257,-0.6729205,-0.6456204,-0.44864315,1.9528881,0.13146149,0.4697127,1.2244982,0.73366034,2.0078332,0.40629444,0.20737474,2.0698762,1.1814678,1.5234727,-0.5044394,-0.5089668,0.17129682,-0.408928,-2.30613,0.17142373,0.4169106,-0.18933631,0.4616229,0.34719613,-0.9242243,-0.02383384,-1.2675104,-0.72525024,1.4235588,-0.60158753,-0.92700094,1.2071917,-0.9272151,-0.8753823,-0.25541687,0.27503344,-0.6848072,-1.86235,0.33860657,0.010105686,0.049252443,-1.9234997,0.6751065,-0.287271,0.0007482637,-0.4069772,0.6835323,0.50814027,-0.046998896,-1.1537375,-0.1120653,-0.28482538,-0.7687729,-1.4448234,0.24212204,-0.55238646,0.1710895,0.15800546,-1.0142586,0.63156396,0.3118887,0.56903535,-1.6852652,1.3963381,0.752771,0.111406624,0.3710245,1.8897184,-0.16334774,0.8844984,-2.297284,-1.1812181,1.3355284
MMRF_1180,0.32777965,0.4645526,-2.19362,-0.33120108,1.056472,0.36636952,0.1168006,-2.439845,0.56204194,0.2707795,-0.15969658,-1.1538001,1.9717053,0.031039376,0.87838,-1.4919825,1.2684845,2.4992056,-0.23355928,-0.80340815,-1.596082,-0.02775488,-1.6991206,-0.033299517,-0.36074853,-0.0490839,-0.664584,-1.1053027,-0.6021898,-1.7795626,-0.1915321,-2.1055536,0.23434837,-0.8000431,-1.2678646,-0.016732533,-1.3316519,-0.13898303,-0.09599354,2.2096665,-0.4354124,0.67141473,0.7772322,1.1877916,0.85703784,-0.7446806,1.7053313,0.28952935,-0.54818016,-0.74366,0.90624034,0.6938279,1.1890894,-1.1132197,-0.5257615,-1.1420119,-0.17905611,-0.4045876,1.1934377,0.7047617,0.09937571,-1.0422748,-0.066398576,0.4446818,0.80542713,-0.18639135,2.0214372,-0.10093112,1.3450611,1.5456805,1.055483,0.021996863,1.9584334,-0.48557878,-0.5698615,0.25440904,0.30883858,1.1329557,0.135322,1.3154049,-0.22038278,-0.68150556,-0.11449435,-0.15215039,-1.0954083,-1.054104,0.46070555,0.44993344,0.5587911,-2.63821,1.5076643,-1.4167305,-0.38140875,-1.3912641,0.101725094,0.70477515,-0.5551368,-1.0031438,1.1541789,-1.6356735,-0.6452632,0.57496315,-1.5943586,0.032040574,0.8434758,0.5885566,1.3968992,0.38337958,0.97263676,-0.2711498,0.5116743,-0.8005635,-0.5230439,0.56876487,-1.6736662,0.08413985,0.83013177,-1.1324116,0.62011427,0.20091358,0.88762647,0.79318917,0.34430134,-0.028723417,0.16342667,-0.011134448,-0.5267412,0.8578474
MMRF_1188,1.0123152,-0.4026807,-0.29199463,0.13154395,-1.1604786,0.10064264,0.40089318,0.9179513,1.3637142,0.8596891,1.68915,0.83678323,0.31096962,0.5244905,-0.80256826,0.66128767,0.16939062,-0.553115,-1.933144,0.330752,0.06627882,-1.0163372,-0.21846952,0.34833717,0.37490302,-1.829784,2.406211,-0.9115772,-0.6394509,-0.9334937,-0.122358166,2.0250518,0.4507122,-1.404618,-1.1186748,-0.80092037,-1.7783366,-1.6384786,0.24450918,0.59633887,1.9708472,0.4750743,0.6029349,0.32131898,0.085551925,0.08735834,0.7465779,-0.7654982,-1.9453261,0.4650583,0.46856818,0.49224657,0.09180473,-0.35287637,0.76507443,-1.0575134,-0.8131675,-0.019631233,0.4868699,0.35093376,1.5010037,-0.13272318,1.3840843,0.13490804,-0.024579344,-0.19941176,1.7633277,0.5369831,1.2582465,-0.5743102,-1.5195278,-1.99921,-0.62871486,0.17451987,1.1395366,-0.49694264,-1.3488015,-0.27444357,0.021122865,1.4313232,0.25654477,0.5373902,0.1910878,-0.8859523,0.21910635,0.7229262,1.2709602,-1.8560238,-1.747705,-0.3196105,0.42679605,0.93588066,1.7569605,0.1159132,0.6101489,1.6371062,-1.6260294,0.47562093,0.6038267,-0.6329612,-0.29019234,-0.71974343,-1.6876423,-0.85497695,-0.90507776,-0.65428907,-0.13856179,-1.4149673,1.9986947,-0.43318018,-0.29650652,0.57105744,-0.39978963,-0.20697753,-0.3844458,-0.7826873,1.4332151,-1.2185204,-0.20930916,-2.478362,-0.8713878,1.5312443,0.048976194,1.478409,-0.07796579,-0.3231637,0.8846076,0.9222196
MMRF_1300,0.18502124,1.9882437,0.5037067,-0.75006336,-0.2099222,0.85778195,-0.09446595,-0.25750366,-0.17994457,-0.6806335,1.3011142,1.0432359,0.6970699,0.70657456,-1.8731638,-0.9777745,-0.41747394,-0.63755536,0.60119045,0.23904185,0.66808164,-0.32048318,0.5823272,0.3715868,0.6993542,0.1564934,1.191404,-1.4184705,-1.494709,-1.2212315,0.14720318,0.19645227,0.18191293,-1.1758822,-1.4394855,-1.1696445,0.7983895,-0.12504926,-0.31186107,-1.6675179,0.91018,-0.8372608,-0.95410526,0.41660988,0.7680267,0.9084375,0.43788892,0.3700298,0.9428685,-2.880423,-1.2076541,0.9808625,0.7450689,-0.84084606,1.3587152,-0.21492465,-0.26425993,0.3427539,1.7537131,-0.08984036,0.7682927,0.06761201,0.5515685,1.6922787,-1.0948331,1.3277081,1.5686082,-0.2683883,1.879313,0.116056375,-0.3664333,-0.41701972,-0.8368114,-0.7359168,-0.6097526,-0.746084,-1.1392269,-1.3681546,-0.8484047,1.9796529,1.2674985,0.5591767,-0.102112696,1.0000421,0.04820735,-1.2728325,-0.1817304,-1.2305704,0.8396315,-1.1316977,1.3677088,-0.3128255,0.14232112,0.21734819,-0.20004249,-0.1502884,0.3029334,0.5839725,-0.39769274,-3.4383504,-0.54799867,0.46992272,-0.7200293,-1.1210128,-0.22217223,1.6924199,1.0073218,-0.7551397,0.15276162,-0.2620996,-0.55504274,-2.250521,0.4002716,-0.7922907,-1.0811174,0.2740613,1.5162789,1.1335822,0.3604502,1.0916637,0.9324564,0.749382,-0.5414588,0.19644171,1.0572637,-1.5869344,1.4238216,-0.7210003
MMRF_1331,0.47323352,0.60988206,0.8847983,-1.0339298,-1.5023361,0.9817291,0.9697402,0.96739596,-0.19574519,0.34469202,0.50098807,1.7966217,1.6307081,1.3411523,-1.4135419,1.3144752,0.35920072,-2.3898282,0.9748424,1.2340897,0.10300091,0.31352302,-0.09092286,-0.6598809,-0.3905562,-0.42989314,2.6099946,0.9461428,-0.6965333,-0.111878626,0.6950101,1.8088619,0.6333218,-0.4645479,0.768538,-1.1853657,0.9055263,0.60837764,-0.31838703,-1.7327377,1.3660513,-1.3111612,-0.7997744,-0.7186783,-0.18511117,-0.26757646,0.09501077,-1.1013056,-1.0428245,-0.11155388,-1.8914725,1.0124489,-1.5574586,1.6901456,-0.0023158193,1.8760598,0.9392307,-0.42791077,-1.510822,-0.45223904,-0.03837742,0.31773812,0.8028998,-1.1642513,-1.1982228,-0.98914933,-1.0827702,-0.06720688,0.037035566,-0.99484444,0.15960148,-1.3552797,-1.0459791,0.3282926,-0.47370985,-0.3627878,0.8644266,-0.54753995,0.18471834,1.0667561,0.43543032,-0.45616513,-0.37806812,0.8890387,0.546408,0.2871296,0.1798675,-1.5915183,0.093943276,0.45039725,-0.99572253,1.1840798,0.46221092,1.7413659,1.1362269,0.5268637,0.6553108,1.3197286,-1.2744048,0.8755723,1.0338832,-0.2827477,0.8050033,-1.5886961,-0.45621207,0.62664926,-1.5013899,-0.47199038,-1.037377,-1.5131751,0.7866687,-0.99812967,0.1621916,0.50626755,-0.11547486,-0.9025325,0.6268083,2.1504107,-0.7283419,0.735536,0.34973148,0.28388292,-0.39964768,-2.2036994,-0.44448835,-0.8913415,-0.5846372,-1.1825051
MMRF_1185,-0.10230193,-2.2701123,-0.6322409,1.2902753,0.71258044,0.06136162,-0.004407499,-1.455716,1.0772951,-1.2893974,-0.2128343,-0.74515545,-0.37742272,-1.3220068,1.3797467,-0.9503626,0.31181282,0.10459369,-2.3851392,-0.0902319,-0.2728456,-0.89913315,0.16004217,-0.48639846,-0.25820905,-0.44309288,-1.2982059,0.7798474,1.6023266,1.6916108,-0.5928928,0.5039015,-0.7396772,0.850213,0.7621687,2.0537834,-1.4414597,-0.15998207,0.0058848616,1.4798663,-0.44300967,0.8838772,-0.5650022,1.6041421,-0.96570945,-0.47563553,-0.06764167,-1.7030318,0.5081675,0.3925226,2.8732657,-0.35897228,-0.13528669,0.6715067,-2.1617138,0.10613659,-1.660578,-0.8128814,-1.5425835,-0.13277575,-0.29917997,-0.89317477,-0.6324076,-1.2491332,-1.5645102,0.19958103,0.11860247,-1.1103694,0.3138984,1.1364481,-0.58538413,-0.09902687,-0.2682022,0.5564729,0.31489754,0.29041225,1.8976614,0.525911,0.5635502,-0.005080495,-0.41424215,0.47725296,1.5711757,0.33030385,-0.96097845,0.3278301,0.38428143,0.8202166,-0.55145055,-0.19157049,-1.2877038,-0.3291452,0.4216652,-0.10971068,-0.42740414,0.26700538,-1.3528292,1.0177883,0.23881017,1.8424577,0.11813799,-1.0407186,1.0532131,1.67675,1.425723,0.086677104,-1.3517302,0.37572783,0.29535455,-0.9168563,0.9672607,0.53327453,-0.59144,2.0006638,0.8934078,0.09814373,0.06540757,-0.24297535,0.12090583,-0.9490844,0.47587794,-0.8799649,-1.0588005,0.32081458,-1.612816,1.4391301,2.065385,0.89555097
MMRF_1348,1.0764948,-3.2529354,-2.0244467,0.31528547,0.7103181,-2.386805,-0.4401079,-0.4302181,0.8893533,-0.47437093,-0.9629311,0.5447528,0.90244627,0.41364303,1.7263681,0.13671201,0.13955975,-0.532022,-2.3657951,0.7315447,-0.49333856,-1.2606415,-0.39866203,1.0717019,0.7680196,0.76574785,-0.5638936,0.94100136,1.582875,-0.1633927,-1.267771,0.50870204,-0.90370685,-0.6865737,0.9601334,0.9445109,-0.004548965,-0.44166762,0.4879079,0.75484306,-0.1334679,0.28520882,-0.94191307,0.028179972,-0.40920368,0.87820834,-1.007155,-2.0710793,0.17222607,1.5101421,1.5920684,-1.234529,-0.19665213,0.18075435,-1.4013029,0.8942022,-1.947121,0.9972124,-1.559206,-0.397469,0.627297,-1.4149537,0.37723467,-0.8348508,-0.27522036,1.5128986,0.066499345,-0.005508058,-1.2817991,0.74898493,0.03342417,1.2364347,-0.18309505,1.356527,-0.56143117,1.3237293,1.4120153,0.10919502,1.3905342,-0.8771248,0.37215987,-0.86196965,-1.371863,0.8950638,0.6193622,0.40229514,2.3125663,-0.6995285,0.94434965,0.15652932,0.16300476,0.44987434,0.1780498,-0.5406433,-1.0414666,-0.41655555,0.8788745,-0.09281918,-0.2789185,-0.26302344,-0.2162389,-0.6961775,0.7430915,1.6385115,1.1933852,0.21391949,0.42999905,0.3305514,1.1608772,-0.24864547,0.023388894,1.8078499,-1.0465904,0.33476344,-0.23109213,-0.5790591,-1.4173818,-2.3806877,-0.22306137,0.23903483,-0.37012967,-1.0958612,0.11734781,-0.27785993,-0.6414892,0.4004228,0.41068578,1.2085402
MMRF_1284,-0.014702754,-0.83674127,-0.45998576,0.60820895,0.5376387,-0.5171273,0.45440707,0.9575489,0.57774836,-0.41685706,0.2520775,0.09972929,1.1811597,0.67033607,-0.07994629,0.30341372,-0.513219,-0.8004683,1.3883288,1.4667249,0.38371736,-0.44450814,1.1326528,0.17975536,0.60000265,1.6825835,0.14034508,0.5843589,1.113512,-0.03841024,0.029368814,0.75831735,1.5918647,-2.226705,1.3190391,0.33393365,1.9359146,0.40533215,0.26207834,-1.5941178,-0.7877924,-0.6134515,-1.1621833,-0.30545837,-0.32497886,-1.1030166,-2.0403287,1.5341176,-0.1962433,1.3345336,-1.2270511,0.41152367,-1.9848113,0.9312696,1.2426132,-0.55860627,-0.5897909,0.15469953,-1.4823259,0.79931635,1.0378685,0.83786285,1.6697005,-1.4552034,0.3001898,-0.12191849,0.7230832,1.3458723,-0.0046327394,0.22259119,0.51736,0.27237374,-1.8654004,0.12288789,-1.3321668,-0.26295316,1.0657239,-1.6848296,1.6416817,-0.11897176,1.3524129,-1.4554245,-1.4209518,1.4494208,0.0023422,-0.6734136,2.1265948,-1.2218533,1.5225163,0.79954684,-0.72849536,1.2552661,1.2776042,0.9300187,0.54677784,-0.109848686,0.45940575,1.8806041,-0.32505706,-1.5337845,-0.84498894,-0.44157368,0.96186876,0.17549796,-0.4677649,-0.8373591,-0.13747215,-0.6593316,0.22638528,-0.5580382,0.2680282,-0.31914404,-1.8126469,-0.68553126,-0.15388988,-0.50764626,-1.2198516,-0.69016874,-1.0970412,0.13907678,-0.73014003,-0.8157679,-0.6306777,-0.56415665,-0.2873689,-1.1007018,-2.3572614,-0.9709759
MMRF_1202,0.17167471,0.08457082,-0.9439957,0.31433746,0.7227584,-0.8555885,-0.36031172,-1.492926,0.44524512,-0.4326085,1.6725379,-0.8193733,1.6479826,-0.045038696,1.960238,-0.8169632,0.4653261,1.8399991,0.1071758,-0.89691806,0.34721205,-0.26955706,-0.35253307,0.92612576,0.96528745,-0.32988492,-1.1479037,0.11013358,-1.1867411,0.18818106,0.6359684,-1.6360067,0.58595675,-0.31241515,1.5975572,0.45037514,-0.65697,0.14770885,-1.0926608,0.2014718,-0.07171201,0.9712875,0.55149084,0.9775823,1.5970622,-0.29770854,-0.06332979,0.19142273,1.3089437,-0.6112935,0.46336347,-0.9128774,0.7007779,-2.1745174,-0.8601169,-2.2293909,0.01811748,-1.2776374,1.126188,-1.1653706,-0.41174355,-0.24359295,-1.1476691,-0.4390206,0.35918847,0.18429719,1.0267272,-1.5408305,-0.4362195,1.7662694,0.7924047,-0.20623325,1.3168083,0.7649347,-0.17949688,-0.2097682,0.4967105,1.0173546,0.31841215,-1.5328289,-1.2504593,0.043720886,-1.0378885,-1.8457377,-2.722754,-2.140506,-0.08239855,0.84200925,-0.4167824,-1.0813849,0.12593517,0.056030437,0.49984637,-2.0442548,-0.73842824,2.4171417,0.5640815,-1.2072897,-0.13266866,-0.28907186,0.7428863,0.45298684,-1.1324977,0.8794807,0.66076,0.16164978,0.21029435,0.75573677,1.757369,-0.41597256,0.06880092,-0.18844804,0.027523523,0.8862076,-0.013287536,0.30613172,-0.26357734,-2.0384533,1.4070992,0.19860384,0.053965688,-0.8283349,0.82658637,0.8161694,1.9067729,-0.94611263,0.8934902,1.3378671
MMRF_1466,-0.4218924,0.9668906,1.3185618,1.4404379,0.20003037,0.6285924,0.83068156,1.3322331,0.27065176,1.066283,-0.21697776,0.07840927,0.6557902,0.4392586,-1.8620635,0.12336354,0.1891168,-1.4323515,0.55604595,-0.43217608,0.120071396,-0.4879199,-0.48429447,0.3193888,0.21961154,1.2261288,1.8582083,-0.36496222,0.2302441,-0.11339346,-0.5914331,0.5583432,2.1187253,-1.871252,-1.8299125,-0.35325846,1.3893158,0.2575063,-0.04992871,0.75231165,0.3694632,-0.6603919,-1.7823439,-0.17977625,0.14525034,0.055980984,-0.91286945,1.3197945,-0.5950568,-0.28041103,-1.8931375,2.7541323,0.486238,-0.22359818,2.5488243,-1.0578895,0.25482056,-0.30756262,0.17026079,1.2689313,1.318921,0.20249625,1.28566,-1.5192001,0.15815575,-1.2581812,0.011062013,0.5789836,0.33905643,-2.0612888,0.042768124,-1.5229295,-1.0133533,-0.0121453,-0.46660867,0.029577205,-0.638753,-0.24309278,1.5947453,0.7075229,0.5626236,-0.6764474,0.02219203,-0.5159871,-0.36992002,-0.10006154,0.9257006,-2.193719,0.102633454,-1.0999296,-1.2040768,1.363227,0.87556267,2.0182025,0.18284653,-0.26712972,0.5974747,0.5890006,0.026254714,-1.4428033,-0.9591215,-1.2900329,1.1485875,-1.7087724,-0.25502068,0.23382273,0.17204827,-0.064416304,-0.062776856,-0.42968717,0.08406153,-1.3013097,0.17255442,0.4846682,-0.81894016,0.18428649,2.1147423,0.6783435,-1.8872457,-1.0862024,-0.4533695,1.520975,-0.37807015,0.3783373,-0.8950221,-0.8837791,-1.0746596,-0.6770036
MMRF_1446,-1.8582306,-2.3052802,-0.78253514,1.2597663,1.2716382,-0.35739696,0.04220675,0.61510205,0.12870598,-0.4051436,-0.109839655,-0.8233251,0.06291951,-1.2790049,1.6656004,1.0254936,0.9090009,0.7474921,-1.1080652,0.1395364,-0.5908147,-0.5330475,0.63847667,0.7232199,0.620748,0.07331307,-1.5855879,-0.00740196,1.9447377,1.0735617,-0.39202294,-2.0330725,-1.211065,1.1886424,0.67218363,1.7723804,0.50222754,-0.7215289,0.97870296,2.0730777,-1.6558027,0.1739374,0.89534396,-0.30043483,-1.65018,-0.58097553,0.7435119,-0.3941623,-0.3456175,1.2734661,2.6772413,-1.0979831,0.04111957,0.2780842,-1.4030848,-0.16131297,-2.1618598,-1.1129639,-2.6780713,-0.23732577,-0.238822,-0.9802707,-0.72231054,-1.5333606,0.50160635,-1.2435327,-0.32880834,0.41518518,-0.52289087,-0.53875196,0.07032642,1.3875097,0.8854531,0.31215745,-0.3878846,0.79890615,1.4709328,0.49666736,0.6966002,-0.5257336,0.20294239,0.08248779,0.60068375,0.6947443,-0.22023043,1.1649995,0.41383868,0.039685838,1.6920342,0.312838,0.07491277,-0.13253325,-0.030946547,-0.60466355,-0.7551148,-1.0578376,-0.3374432,-0.38635847,1.0896038,1.509707,-0.78532255,-1.1820419,1.1616049,2.3034706,0.23095146,0.5469043,-0.22662967,0.94446325,-1.0771996,0.56551117,0.60167426,0.7098283,-1.7325543,0.6928744,0.704416,-1.0257772,-1.0244794,-0.7875801,0.12777403,-0.3087793,-0.8889867,-0.5514605,0.2104832,0.18447213,-1.2555832,0.7876541,-0.08587396,0.325535
MMRF_1447,1.543712,-0.7961524,-0.74608463,0.011198115,-0.96316046,-1.2385988,0.37760052,1.8441855,1.786905,0.5397882,1.8765935,0.61356926,-0.7294421,0.13504913,-0.025087941,0.35054868,-1.3652122,-1.266075,-2.4803884,0.6471076,1.4062766,-1.0885148,0.5311155,-0.0325867,0.10460029,-1.7943206,1.2316298,-0.19321346,-0.36432713,-0.98767656,-0.9656229,1.8189663,0.2752912,-0.15690295,-0.19557686,-0.50232446,-1.328658,-0.9683507,0.21540558,-1.000771,2.615531,0.029122325,0.18842663,0.6808853,-0.55743706,0.39326832,0.24721919,-1.1415457,0.018190026,1.0631014,-0.19144283,-1.3035918,-1.0252664,-0.74760914,0.03155663,-0.9879203,0.83596796,0.93752486,-0.5421188,-0.8386358,0.29834184,1.2589593,0.30033064,0.6353675,-0.4763311,1.3005182,2.23157,-0.061878353,1.2664838,-0.25697467,-1.2407713,-1.4285213,-0.70234436,-0.78492814,1.990538,0.2003851,-0.24193835,-0.7221281,-0.4930888,0.7960535,-0.023902046,0.7070671,0.14642037,0.7041853,0.86370206,0.47336572,0.9916177,-0.7538889,-2.0824401,0.35710388,0.4976838,0.50300527,1.3046176,0.3303775,-0.36541402,1.3159347,-1.8727677,0.12026376,0.6575306,-0.40500855,-0.23437957,1.0582403,-1.7720206,-0.12111357,-0.60403556,0.2660017,-0.5149395,-1.4816524,2.0064714,-0.7943118,-0.56387085,0.8091967,0.19690822,-0.5316879,0.47546244,-0.070516355,0.761783,-2.1442611,0.42642808,-1.5136722,-1.5492096,-0.21867268,0.6658467,0.9430227,0.11051492,-0.93420756,0.9428715,1.3176373
MMRF_1445,1.9930362,-0.22005583,-1.2752516,0.2836801,-0.674097,-1.5300455,0.5668798,0.9888477,0.28941563,-0.99645764,0.65988314,0.22111328,0.4676464,1.4069974,1.6130533,0.018976089,-0.6034333,-1.7117509,-2.357369,-0.18901816,-0.43322578,-2.2257574,-0.9975797,0.78234345,-0.0036347136,-0.7840765,-0.29088232,0.19626077,1.0449141,-0.986113,0.21250296,0.46191058,-1.3886188,0.9027051,-0.54323256,-0.6716045,-0.075687125,-0.5514312,1.0255575,-0.2636275,1.717546,-1.3181316,-0.9073912,0.18397951,0.2667693,0.20753995,-1.3226262,-2.4562645,0.557434,2.3220062,0.13984622,-1.9829228,0.5845681,0.70772815,0.54314345,-0.23686004,1.0834298,1.1355863,0.050410382,-1.835076,0.86943156,1.0414141,-0.009945585,1.1648364,-0.067377105,1.6605159,0.9182058,0.6978488,0.5028732,2.0989137,0.046940736,-0.5385503,-0.12631603,0.33380815,-0.076811776,1.3493596,-0.4049661,0.34415314,-0.05482575,0.63312596,0.3614969,-0.03838819,-1.0918791,0.7858821,1.0892242,-0.48364535,1.0155762,-0.10040521,-1.9445342,0.62416106,1.9094492,-1.0028785,0.5642952,-0.00791934,0.11701384,0.63688594,-1.7735656,-1.4168427,1.3589597,-0.1607691,0.012634113,1.5915222,-1.0772431,0.38003474,0.98572624,0.15097265,-1.7169545,-0.26155326,0.56602985,-0.905487,0.6217751,0.402105,-0.8674747,-0.32058382,-1.1478863,-0.3318438,-0.1940209,-2.1404488,0.15853906,0.08403795,-1.1086113,0.12772903,-0.4924092,1.0207916,-1.1655587,-0.41677368,0.9832392,0.5079175
MMRF_1433,-1.613892,0.57803375,-0.5872189,-0.09109248,0.6004898,-0.2867516,0.5690055,-1.2330631,0.20631202,0.10955937,1.2958096,-0.40779522,1.3561783,0.078152314,1.7440027,-0.48787016,0.19199422,1.4563729,-0.2550603,-0.39912716,-1.1789964,-0.5568741,-0.8751158,-0.17058615,-0.13640556,0.45370066,-0.5606324,0.09771563,-1.5120832,-0.875005,1.5145462,-2.044713,1.0516926,0.99576795,-0.8905304,0.94915265,-0.18387362,-0.5024875,0.4102814,0.35466167,-0.73757654,1.3265882,0.8333564,0.9715471,1.0826488,-1.2168854,1.1497377,-0.30048153,1.3929905,0.30182728,-0.58142704,-0.7203488,1.2809346,-0.7897612,-0.9745576,-1.3876227,-0.3701229,-0.7553945,1.7142065,-1.0875912,-0.68889385,-0.31342795,-0.40401563,0.5449679,0.5178212,1.1594665,0.35494453,-0.6057174,-0.016038857,0.8930419,1.3995538,-0.24964093,1.9982345,-0.106703945,-0.80606097,0.60002047,0.20703217,0.64048666,0.7937261,-1.2307433,-0.7007493,-0.51871985,-1.8826039,-0.8273831,-1.7702378,-1.8088304,0.063915595,1.2357249,0.095677614,-1.6505717,1.4301398,-0.8563467,-0.25974044,-2.5047562,-1.3066531,1.8514211,-0.71949685,-0.84271437,0.7974545,0.7062376,-0.17998168,1.3988031,-0.90321106,2.524763,0.021161279,0.80439657,0.6081369,-0.13688867,-0.6003713,-0.92753124,0.55743027,-0.26439595,0.5807221,-0.76283336,-0.4744707,0.9684144,-0.4648528,-1.6053905,1.7921011,-0.3256366,0.5919801,-1.110411,1.3506364,0.0028305505,0.5967731,-0.8556003,-0.7520469,1.9990817
MMRF_1434,-0.9514479,-0.5306321,1.4686729,0.33596003,1.1409023,-0.107404575,-1.4458874,-0.2209309,0.7015478,1.121247,-0.53687483,-0.79851997,-0.917384,-0.7716592,-0.5572749,0.46539715,-0.0037797634,1.7949413,-1.1941022,-0.8269912,-0.16966517,0.58697367,0.23516294,-0.026076738,0.5895336,-0.77106017,-1.013204,-0.39066654,1.0363142,1.4259487,0.15390867,-1.9607849,-0.37560812,0.067575,0.0350235,0.099927455,-1.0181941,-0.36834154,-1.957734,0.8139674,-2.1607518,1.7023611,2.303378,0.9922718,-2.07246,-0.9038856,1.379796,-0.52422523,0.35522792,0.91022575,2.3382585,0.5881599,0.6922008,-0.9707452,-0.5839765,-2.612735,-0.19680296,-0.28646013,0.9275396,-0.6170973,0.76440823,0.07250795,-0.7198197,-1.1566553,0.8491956,-1.8556697,0.47083074,-0.113547206,-0.90247285,-0.3608997,-0.26687253,0.35239103,0.41977108,0.023278229,2.3899145,-0.8270954,0.4600428,-0.010541866,-1.0883327,-1.31985,-0.7251663,0.88113827,-0.033085268,-0.38240662,-1.1522098,0.22735873,-0.047328472,0.021017073,0.17757758,0.2829239,-1.0499632,0.77909255,-0.6941359,0.44150394,0.4754015,-0.2403406,-1.7495263,-0.8004193,0.93856394,2.7278159,-0.8466398,0.71735406,-0.8230992,0.9454681,1.0298113,1.065434,0.407042,-0.24082561,-0.32661438,0.556255,0.46150512,0.85565126,0.029666848,-0.12873371,0.6882383,-1.274526,0.5814898,-1.2395775,-0.38576034,-1.0880916,-0.86520386,0.05392093,1.0016509,0.5278261,1.2084767,1.7172763,-0.35820702,2.015293
MMRF_1436,-0.8692025,-1.7046204,0.37234277,0.20917289,0.9086289,0.10132525,0.10296584,1.5920166,0.12021774,0.8329559,-1.5993698,-0.30249104,1.0633478,-0.32699648,-0.9235889,1.0902334,0.67859554,-1.4138461,0.86586386,1.2019274,0.57845443,0.30650425,1.0811671,-0.43890616,0.55832523,1.7195727,-1.3932185,0.35526645,1.6505374,1.182316,-0.79477894,0.56403804,0.66947263,0.030304946,1.7433221,-0.18136792,0.6805635,-0.04851959,0.011626637,0.118073195,-0.9535341,-1.011274,-0.21466562,-1.4977419,-0.23615167,-1.5960798,-0.89617914,1.2101139,-0.51417536,1.1719458,-0.08699878,0.22976573,-1.4655366,2.103473,0.10605367,-0.16165261,-1.1198603,-0.4259454,-1.5387677,0.80790997,-0.20036945,0.34364778,0.99380535,-1.7622836,-0.6423413,-0.6624372,-0.20707083,-0.11561762,-0.9038791,-0.71922094,0.15249592,-0.08639998,-1.038384,-0.15710545,0.21833369,-0.26484087,1.8859195,-0.9016079,0.44315612,-0.4326998,-0.76348037,-0.8575608,-1.1263772,1.2205583,0.09824245,1.0468186,2.7636185,-0.48554417,0.33201343,1.0197009,-0.95372885,2.1827142,-0.21132377,1.1973467,1.0182048,-1.0103124,0.65782976,1.7283905,0.2673737,2.1488705,0.6504978,-2.181209,1.5797521,-1.0337093,-1.4667588,-0.84530514,0.26943696,0.2030585,-0.3582863,0.49031845,1.0363386,-0.017020432,-1.4976902,0.4500909,0.06740361,-0.57547456,-1.0864916,0.11257101,-1.6820087,-0.93718797,-0.913739,1.1282066,-0.1984026,-0.53189653,-0.7546865,-0.65602005,-1.7997329,-0.009023044
MMRF_1424,0.7421129,-1.514117,-0.17522478,1.6487168,1.3422868,-1.8111056,0.25164136,2.0199313,3.0360334,0.007466616,-0.21208088,-0.2372032,-1.1293535,0.12821491,-0.59421444,-1.3376259,-1.3027434,-1.2068033,-2.1306453,0.44589964,0.12536426,-0.49817726,1.8327715,-0.8091495,0.6866485,0.68431985,-1.0247782,-0.2648426,1.526367,0.12304306,0.0031511206,-0.124126494,0.552429,1.0807568,-0.60131013,0.111686364,-0.49869844,-1.7601746,0.31103787,-0.29886174,-0.08381465,0.420869,-0.34415,0.02807557,-1.4598684,-0.47345906,-0.29707944,-0.72398245,0.6236474,1.6453984,0.61845595,-1.9186689,-0.29771549,0.11645663,-0.37791678,-1.1800927,0.29693574,1.5381738,-0.4274482,-1.8461331,0.20573516,1.0212326,-0.37390274,0.024924964,0.30123878,2.7862425,1.5173731,-0.36467242,0.18091908,0.5535475,-1.8892285,-1.4977283,-0.26972687,-0.16946422,1.0382476,1.6453248,0.3550004,-1.644528,-0.5987554,0.6323603,-0.10968641,0.20297007,-0.13809696,0.97990924,0.74236894,1.681309,0.3086164,-0.37000263,-0.5523912,0.80116445,0.25645292,-0.84516686,-0.20881735,0.5645988,-1.0121312,-1.3546094,-0.493748,0.4545397,2.00331,-0.46376202,0.35381442,0.95725673,-2.4002724,0.48590147,-0.086030684,-0.16991204,-0.41128552,-0.6984191,1.1953013,0.464166,-0.6507672,0.5361734,-0.8818794,-0.5147605,-0.48122758,0.36915687,1.7356966,-1.303694,0.020234667,-0.32285145,-1.1202729,-0.032652326,0.41325313,1.6447341,-0.24928455,-0.30572203,0.0991414,0.51419854
MMRF_1425,-0.7209418,0.6140483,1.7497255,-2.1585472,0.15319934,0.38622025,-0.92344755,1.2758154,-1.0676713,-0.34609163,-0.8188754,1.5130279,-0.20305257,-0.23632976,-1.6524029,0.5947335,0.030404674,-0.73498535,2.2565594,0.18621098,0.7378688,0.11041997,1.2745038,0.50155026,-0.66270113,1.6099544,0.1977726,1.1952773,-0.98355925,0.07219557,0.50131834,-0.16547643,0.6244505,1.1394713,0.92108124,-1.3535336,1.7888043,0.22701818,-0.34508672,-1.4469911,-0.6268253,-0.27536485,-0.34138876,-0.6486494,-0.10889708,-0.37516743,0.15605266,2.1821387,-0.26348263,-0.45538047,-1.8718271,-0.17517965,0.10626035,0.42245707,2.0064046,0.8286281,0.4568252,0.2992287,-0.27318066,-0.5087726,1.2969543,-0.102743834,-0.0015534535,-1.7367203,-0.9379408,-0.27888846,0.06161814,1.1621186,1.2340449,-0.7301134,0.36764205,0.91289246,-0.6855348,-0.5865551,-0.9705998,-0.49069744,0.67732656,-1.8464938,-0.3906354,0.9091457,1.1574076,-1.5060662,-1.1060443,2.7376633,0.031187976,-1.0254885,1.9222093,-0.21550813,0.9525668,0.1139818,0.39772555,0.8030656,0.88128996,-0.29327494,-0.3710416,-1.0335445,1.2182695,-0.021986492,-1.3124086,-0.74896395,-0.51995814,-0.42589825,2.0068088,1.177482,-0.9226275,0.48697558,0.9159446,-0.088549405,-1.1123524,-1.3033357,-1.1528107,-1.7287962,-1.0936657,-1.0157245,0.0724289,0.48868567,0.09766918,0.7183487,0.76117855,0.19446734,-0.61688834,-1.6306182,-0.2724405,0.1379586,0.61792636,-0.62128705,-2.4242651,0.41855663
MMRF_1439,-0.4662499,-0.2240689,-0.34320965,0.7745218,0.63178664,-0.3164119,-1.6330287,-1.5297306,0.96998304,0.29025665,-1.4796953,-1.8271042,0.5442387,0.28062645,-0.15545492,-1.2190238,-0.5563012,1.4918948,-0.84037566,0.26233518,0.041650523,-0.42868686,-1.760254,1.0207547,0.9763932,-0.47418466,-0.7117876,-0.6683666,0.82170916,0.50302935,0.346542,-1.1705465,-1.5493748,0.5810018,1.7118123,-0.35361713,-0.36957785,-0.47956672,-2.292496,1.4014493,-1.3286628,0.8971394,0.9122192,1.0198476,-0.76378655,-0.5315685,1.7272487,-0.14476895,0.39711702,-0.2735973,2.5074544,0.51228243,-0.35211977,-1.2820374,0.68050444,-1.9292079,0.23615451,1.2566366,1.212183,-0.5160322,-0.21979867,-0.973703,-1.7940115,-0.43827295,0.37154877,-2.1306217,0.040325187,-0.57548785,-0.7753128,0.5072837,-0.19125924,0.5708042,0.64990133,-0.19634421,2.617659,-1.2788732,1.4737012,-0.27740434,-0.43955722,-1.8903518,0.25252712,0.13767837,0.7634608,0.0012677182,-1.466441,-0.6910804,0.23841843,-0.12507848,1.112701,-0.13255191,-1.3987305,0.42583215,0.068434596,0.7195609,-0.016732652,-0.85391265,-0.26955038,0.10807589,0.22992076,0.60911655,0.89227915,1.5803261,-0.6303304,1.2016269,1.7673049,0.8460338,0.18929766,-0.6958072,0.29448345,0.717962,0.10665495,0.9979085,-0.90039796,0.5072761,-0.13986869,-1.7294788,0.2612434,-1.2472353,-0.77825993,0.6105607,-0.43847138,0.6533958,0.58987087,0.88051,0.8588501,2.7259002,-0.7648928,0.83590114
MMRF_1450,0.30113876,1.2545977,-0.45347065,-0.73968256,-0.8235568,2.284221,0.02920791,-0.14036942,-0.8606024,0.5088387,1.6664582,1.6305913,1.1675301,0.47728658,-0.60766953,-0.4356433,-1.3221099,-2.3721826,0.029683698,0.03830184,0.02522049,-0.5506442,-0.5167663,0.7141243,0.7045649,-0.7778314,-0.3622831,0.07103397,-1.33096,-0.74407285,-0.13606256,2.2822735,2.1721513,0.992756,-0.3941456,-1.4292303,1.2092456,0.8170473,0.39079955,-1.2669187,1.4045426,-1.6993201,-1.1906813,-0.6190299,-0.23097774,1.222166,0.50012827,0.04094801,0.28673267,-0.72886556,-1.4262726,-0.5340262,-0.23665005,0.48550007,0.6656196,0.87737036,0.035756633,-0.8057547,1.8738433,-1.0145885,0.79375255,1.1127739,1.989739,-0.15340583,0.06772222,1.1719333,1.846237,0.46071196,0.15422884,0.12997434,0.7477894,-0.27621073,-1.3860799,-0.8906073,-0.94245833,-0.27018848,-0.49821225,-0.11209333,0.526761,1.8609297,0.08625758,-0.75191957,-0.6133742,1.3638926,-0.47121528,-1.0961455,1.7764806,-1.8388416,-0.351197,-1.655782,-1.2966632,0.18097486,0.22327153,0.4194835,-0.320382,0.96004575,-0.12842776,0.14404374,-1.0295587,-0.5947633,-0.35638508,1.0080869,2.655179,-0.79884523,0.9128939,-0.29604307,-0.5027872,-0.7644213,-0.8440785,-1.4397999,-0.5000228,-1.0849626,0.5432024,-0.35442102,-1.9760506,1.1149359,0.3651628,0.6427256,0.7888958,0.21995091,-0.3350259,-0.3569477,-0.18787856,-0.552659,-0.29085666,-2.0047228,0.26732165,0.47154045
MMRF_1451,1.9021993,1.1153527,0.0100479815,1.068863,-0.99758124,-1.2329308,-1.250413,-0.3064163,-1.1001211,0.08444989,-0.24250883,-0.94501746,0.7337123,0.5093752,1.1644297,-0.43673316,-0.28666526,0.847313,-0.8048555,-0.72963864,0.4452306,-0.538624,-1.8644603,1.113841,0.20555946,-1.2890524,-0.99129,-1.9413513,0.7583624,-0.37645578,-0.9832687,0.24730869,-1.7031777,0.17477095,-0.024056412,-0.40205863,-0.6095477,0.87044394,0.9216039,-0.896166,2.18815,-1.360176,0.49232167,1.159976,1.034108,0.7293819,-0.720567,-0.29876164,0.5304726,0.20617747,-0.1290996,-0.81404376,0.40023533,-0.506649,-0.66979444,-0.54316103,0.39534748,0.26827475,-0.05884222,0.55040556,0.035854194,0.44588202,-0.20912053,2.1131704,0.354839,0.2647851,0.36813447,-0.15941143,2.0689995,1.3485632,-0.21519396,0.8800979,0.9978616,-1.4790562,0.65399504,0.3022329,-0.03067118,3.0937374,-1.2653103,1.1830108,-1.631375,-0.27145502,0.03520838,-0.18642843,0.5831759,-0.4042915,-0.42102864,1.4714332,-2.6815028,-1.311618,1.1529518,-1.3891853,-1.0681838,-0.37098753,0.16174613,1.4858035,-0.9660135,-2.224079,-0.97850883,-0.6258471,-1.122733,1.9107488,-0.9144132,-1.320896,0.6677814,1.5044328,-0.42445135,-0.026867341,1.3124642,-0.25031146,0.9000505,-0.2694336,0.24043325,0.5531236,-0.116611734,-0.39525858,0.704299,-1.0686502,1.0181677,-0.07566702,-0.33732334,1.0253108,-0.4256967,0.8036922,-1.0336853,-0.50339663,0.29027656,1.2018985
MMRF_1454,1.8898728,-0.30152708,-0.12842555,-0.118087076,0.71700984,-0.8274185,-0.21665932,-0.106417075,1.9511241,0.5015298,0.42784724,-0.50671095,-0.2975371,-0.7803284,0.619271,-0.8443534,0.6410932,2.0175107,-1.8753366,-0.25870416,0.2441695,-0.37224203,-0.8883682,-0.16077963,0.17307498,-1.3797215,-0.7719429,-0.57445455,-0.18576023,-0.3108604,0.231596,-1.931663,0.97219676,-0.9839046,0.291843,0.98779786,-2.0957844,-0.7280407,-1.304679,1.3057606,-0.3413764,1.7490958,1.2566143,1.2144308,-0.06028003,-1.0721906,0.5365088,-0.63371724,-0.12663819,0.96480817,2.1200886,-0.8673252,-0.63457924,-1.8578572,0.4151082,-2.0293648,0.47113466,0.07696476,0.82491595,-0.77017736,-1.1252295,0.044087693,0.9119859,-0.27540123,1.27939,-0.19745351,1.0967524,-0.6873103,1.1297522,0.7742803,0.38298407,-0.4916627,0.90975195,-0.18328887,0.43645832,0.2524084,0.009276806,1.8046676,-0.6317414,0.51285267,-1.0027794,1.3028053,-0.6783772,-1.1542201,-1.7089624,0.5806136,-0.18569101,1.1533045,-0.58718604,-0.3207492,0.4196116,-0.5082111,0.4497659,-0.936232,0.057074428,0.81553644,-1.3736967,-0.4837268,0.96502036,-0.014625344,-0.86552274,0.18485604,-3.3772395,0.8849172,0.79109967,1.0631318,0.4527361,-0.71346205,2.2792184,-1.0506986,0.82954764,0.20990704,0.24264283,0.978235,-0.55054265,0.8818262,0.5227651,-2.3710005,-0.043784797,-1.8965322,-0.55621225,-0.10814624,-0.1335713,-0.18990067,0.9232983,0.6099441,0.6038217,1.3425641
MMRF_1460,-0.46397945,-2.2323663,1.9650539,-1.9807405,0.5189516,-0.7349184,1.1423565,1.326744,-1.6576402,-0.7530647,-0.2796506,1.6867023,-0.6463331,-0.88692516,0.06691211,1.9775423,1.132973,-0.432051,-0.84576154,1.0408565,-0.12803471,-1.6085236,1.0974596,-0.5004084,-0.77225286,0.63230884,-0.27119547,1.7100096,0.99274415,0.26657218,1.7724291,-0.60506433,-0.19769566,-0.04781315,1.9378723,0.671194,1.7728794,-0.08747558,-0.05262285,0.34534988,-0.7918263,0.5901206,-1.1921065,-1.1984566,-0.9491957,-0.80504453,-1.2874615,-1.4373622,1.5375342,1.2015183,0.2584356,-1.1845151,-0.754592,0.53822887,0.42144805,1.1817203,0.28837395,-0.47312063,-2.0478094,0.61172336,-0.6300232,-0.4615846,0.7816927,-1.5800426,-0.56518996,-0.6826969,-1.0199468,-0.28426132,0.024175987,-0.55940783,0.79598874,-1.3805872,0.32377276,0.44816276,-0.4878762,0.13450757,0.61930025,-0.64278096,-0.04243013,-0.1146217,0.20294225,0.6454416,-0.34328187,1.750855,1.1311777,0.3534188,0.2147936,1.8427961,0.15370719,1.661608,-0.061898343,0.4523567,1.1098906,0.15955456,0.6474817,-2.1188953,-0.2906527,-0.5295492,-0.77934176,1.0074972,-0.08102848,-0.7808549,0.67677474,1.1896756,-0.040989097,1.2619386,-0.79152185,0.26776698,-1.6302149,-2.1341019,-0.6157872,0.36547747,0.19617859,0.2800491,1.2092341,0.8762185,-1.4788923,0.8265763,-0.21843259,-0.46368885,1.0712565,-1.9090458,-0.37541023,-0.367948,-1.0595231,0.7317342,-0.035191443,-0.3563299
MMRF_1461,-0.65535396,0.69991916,-1.0685095,0.27412358,1.3041543,-0.33785626,0.40091893,-2.0334027,-0.35819054,0.25238767,0.86505675,-0.80317944,2.3609653,-0.14453349,0.68069893,-1.0624957,0.3209478,2.280982,0.6536591,0.13300717,-0.7576398,-0.44654724,-1.0935634,0.9121959,0.2390415,-0.27671486,-0.19099078,-0.90634596,-1.0937378,-1.3918369,0.90312105,-2.4648619,0.7711962,-1.1677085,-0.79951763,0.3755313,-0.5013165,0.41624266,0.19886698,0.7594958,0.13675933,1.2671493,1.3074267,1.0193243,0.9892365,-0.80587083,0.5663955,0.29131123,0.21454519,-1.5358506,0.12670329,0.5596385,1.6315572,-1.970862,-1.7562865,-1.8514823,-0.80493927,-1.0013386,1.4974521,0.043426562,0.3457281,-1.2588558,-0.5190606,0.4227833,0.2543498,0.7025247,1.4423807,0.44143662,-0.33693868,1.5300491,0.61635166,0.10920904,1.0847013,-0.25577152,-0.9107554,1.0400406,-0.0833356,0.12251026,1.1834055,-0.08089946,-0.6533258,-0.15483284,-1.5698456,-0.50456184,-1.6357996,-1.4861628,-0.40742308,1.0956894,0.5603176,-1.5502243,0.8324592,-0.5466774,0.36206955,-2.0166404,-1.3190331,1.3170651,0.17784326,-0.6216605,0.5417009,-1.2039536,-0.29496986,0.599506,-1.3936516,0.87650925,0.028828138,-0.039819993,1.6840343,1.1719708,1.1305721,-1.3774517,-0.24687369,-0.9507359,-0.025366012,0.46538112,-1.0877826,0.8478929,0.92619437,-1.3368684,2.0753706,0.28471592,1.2448068,-0.57223403,0.48577872,-0.73127955,1.3204522,0.047217004,-0.2963253,0.8775656
MMRF_1324,0.15038556,1.319583,0.6598817,0.6312934,-0.99246347,-2.0201147,-0.0019535879,-0.78027636,-0.43380755,0.04727191,0.3884862,-0.43752673,0.46549594,0.5739783,1.3627466,-0.29376444,-0.02998383,2.1823874,0.017173417,-0.46554613,-0.3464142,0.09599681,-0.965689,-0.21576075,-0.8913012,0.34635177,-0.8007223,-0.38444918,-1.6434501,-0.6148195,1.7018584,-0.8725807,0.0899248,0.2584846,-0.004249528,0.811836,-0.6269514,-0.22905757,0.6528871,-1.3522615,-0.18893692,0.9605904,-0.14248343,0.14930083,1.141698,1.0716492,-0.73730016,-0.97862196,2.2312915,-0.6972107,-1.6667442,0.23533729,1.2810861,-0.3790199,0.39894477,-0.31591496,0.60762143,-0.14678769,1.2361455,-0.6880162,-0.55259573,0.60968673,-0.9603679,2.1589038,-0.39139515,1.940003,-1.1339949,-2.1584115,0.7828639,0.9478926,0.63040906,-0.634279,1.2299709,-0.24846965,-0.2681476,0.8698243,-0.55615455,0.81968194,-1.4052225,-0.6958979,-1.0127627,0.8847536,-2.0921288,-1.5551912,-0.77214384,-1.12394,-0.7565777,1.8264347,-1.1220467,-0.34110948,0.9493224,-0.6690119,-0.6558132,-2.403235,-0.62455976,2.4051263,0.21772482,-1.349444,-0.5932026,-0.20041853,0.22121745,0.98632306,-2.5164468,0.8494214,0.27414465,1.344411,0.08377891,-0.40496296,0.62505656,0.1210291,-0.7469063,0.6867446,1.1798168,-0.03041864,1.2501017,1.7614589,0.15476677,-0.06558404,0.72147435,-0.67650265,0.5762134,-0.93680817,1.3172323,-0.32806408,1.138482,-1.1383159,0.33164585,0.50161064
MMRF_1392,-0.8072082,0.850878,0.79476506,-0.84301513,-0.7362714,1.8742872,-0.5930165,0.5313244,-0.7959744,0.36835968,0.13987102,1.5327823,0.7657093,0.5802291,-0.5698505,0.26991364,-1.4683269,-1.607516,0.99518925,0.1890161,-0.07590772,-0.3466558,-0.022493426,-0.31876007,0.82426053,0.20844552,-0.5503722,0.97035956,-1.7025679,-0.42708004,-0.42826855,2.3222318,2.159487,-0.46896353,0.80451745,-1.2226546,1.4749224,0.87669605,0.34628785,-1.87901,1.1932687,-0.93055224,-1.4444857,-0.738688,-0.099406056,1.0911713,0.02950617,1.0903444,0.5070505,-0.07813401,-2.5571115,0.92971903,-0.7982755,0.5557009,1.8839818,1.37111,0.8285534,-0.17641796,-0.5007373,-0.18768387,0.22793941,1.2120042,1.5554602,-0.82393116,0.2134603,-1.0497413,0.47227284,0.3909798,-0.5024505,-0.42740625,0.6012949,-0.2687342,-2.1245925,-0.627713,0.28246823,-0.5350747,-0.3370357,-0.5671245,1.3935171,1.4172438,-0.21428537,-0.39049745,-0.5509557,1.2255437,-0.79853344,-1.0715003,2.3097103,-1.0124379,-1.1221321,-0.91566145,-1.514128,1.5268228,0.19213916,1.2766643,-0.04629688,0.7221803,0.79812884,1.4351474,-1.0704587,0.29301482,-0.61286056,-0.7945781,2.4233918,-0.38810048,-0.0039532864,-0.7582718,-0.21871898,-0.24392568,-1.177913,-0.7954754,-1.6354142,-0.33522946,0.6776746,0.64530253,-0.4170146,1.3200817,-0.17833771,0.86313146,-1.3751615,0.23781225,-0.4369642,-0.93671656,-0.54684085,0.36166456,-0.3027319,-1.96881,-0.18004921,-0.7390758
MMRF_1413,0.9331165,0.08970798,0.14180663,-1.0850278,-1.6278841,-1.207444,-0.032559812,1.5477638,-0.55719066,0.4769021,2.067201,1.8104283,-0.14309843,0.49547088,0.90886486,1.3831893,-0.818295,-1.0504899,-2.261401,0.64857775,0.14940463,-2.31401,-0.22802913,-0.7657396,0.31465885,-2.0533242,0.6090939,-0.01902215,-0.9177137,-1.1928377,0.51633453,0.68595636,0.47545564,0.6993749,0.40934163,-0.6854084,-1.0562637,-0.59450644,-0.011116743,-1.3437768,2.9585602,-0.10664481,0.6134734,-0.60473675,-1.2696865,0.33528325,0.09288465,-2.671142,0.7908341,0.7418368,-0.33227864,-1.1776222,-0.44967318,-1.1108545,-0.7369035,0.08052038,0.7137512,-0.38435438,0.19432609,-1.4690717,0.082119405,0.75960875,0.6990592,1.4864084,-0.56048244,1.1714327,1.3407125,-0.35262975,0.84359646,-0.36337397,-0.20265996,-1.64415,0.44713664,-1.0263608,1.9294546,0.2240244,-0.40919095,-0.19987775,-0.6969522,0.6209841,-0.42858002,1.2674112,-0.60707957,0.49842948,0.56097734,-0.56386614,0.4188683,-0.63700974,-2.3143728,0.8969869,0.16631249,-0.051540546,0.8462969,-0.35447288,0.36176383,0.95717,-2.0578487,-1.1249087,0.7075923,1.1361102,-0.023350285,1.401101,-0.80468255,-0.039420184,-0.23845378,0.7568744,-1.1567757,-0.5882882,0.047781862,-0.6962632,0.024093805,1.2204546,1.4775057,0.36166367,-0.02519999,0.4075319,0.4992574,-1.1157281,1.3872769,-0.61401886,-0.79338974,-0.69788283,1.486737,0.9036848,0.54110926,-0.3303415,1.7908976,0.47148365
MMRF_1393,-0.43060163,-0.694212,0.5669206,-1.4917034,1.0198708,0.043629214,0.21789086,0.74728894,-0.7734103,-0.44916573,-1.500315,0.34662327,-0.0923015,0.639815,-0.6871441,1.1027366,1.7641456,-0.34001637,0.6242931,1.2884699,0.032736856,-0.58368796,0.7055342,-0.14789112,-0.13126379,1.3843175,-1.0588475,0.8152583,0.75225145,0.9568108,0.24241582,-0.31582665,0.4887832,-1.0377908,0.7025074,0.053272955,2.0888932,-0.19871818,-0.30431604,0.06318061,-1.9646279,-0.50797105,-0.7158623,-0.8666317,-1.0216645,-1.9149511,-1.5420971,1.2731751,-0.83066565,1.4995884,-0.15168844,-0.4088087,-0.40017888,1.5465364,1.2175578,0.5578054,-0.7179658,-0.32328287,-1.9709241,1.5174366,0.2637021,0.36888582,1.5243609,-1.207104,0.61170506,-0.88591033,0.023978269,0.99864423,0.23912801,-0.1052043,1.9486166,0.5125712,-1.1600083,0.07059078,-1.2729768,-0.5016611,1.8528249,-1.1191231,-0.1982655,-0.2404603,0.93329924,-0.57798755,-0.76011217,2.6007288,0.07661891,0.98232406,2.3002343,-0.16351599,0.9820707,1.5120474,-0.03028956,1.0155383,0.7247503,0.6731191,1.0103114,-1.1059023,0.007709386,0.74438405,0.22081742,0.87369645,0.16940184,-1.620546,1.4606054,-0.8571852,-1.304192,-0.75752884,-0.023074614,0.0898646,-0.87948906,-0.7711642,1.1738462,-0.5638795,-2.089051,0.34280694,-0.32450387,0.23147148,-1.3068942,-0.0015228633,-0.995596,-0.0024546562,-1.4373393,0.8518133,-0.8306087,-1.2766273,-1.3839833,-0.7097068,-1.9317615,0.1974219
MMRF_1148,-0.30289054,0.13176884,0.3976256,-0.8078129,-2.066865,-0.10718915,0.11180324,0.5817911,-0.090346284,0.5403786,-0.6144775,1.311558,0.7488333,0.76224726,-0.37689793,1.1350867,-1.4756942,-0.9929939,0.6154522,-0.24562216,-0.40501282,0.31423503,-0.8324989,-1.1388427,-1.0398806,-0.31725186,-1.0533127,0.6669294,-1.026025,-0.554879,-0.06420238,2.6132596,0.33405527,1.1641178,-0.18853226,-1.3017888,0.8594222,0.6825764,1.7892002,-0.6022392,0.2378395,0.36503944,-0.5313828,-0.5938193,-1.5552634,2.5541499,0.45449713,-0.029732237,1.2543842,-0.22838587,-2.170507,1.3135478,-0.20013666,1.3355767,1.308706,2.0026736,1.5012132,-0.83025444,0.6572477,-0.61975056,-1.3666862,1.1694857,0.55647886,0.30610034,0.033266295,0.30784702,-2.1274192,-1.9101515,-0.9909432,-1.6200324,0.93951297,-0.4088902,-0.6742903,0.24809001,0.9075168,-0.12181183,-0.2207507,-0.100749806,-0.4899921,0.704983,-1.4686325,1.3984855,-0.65268993,0.73628414,0.034142263,0.38303638,-0.22058547,0.29496607,-2.2621949,-0.12848994,-0.7603532,-0.86838067,-1.4398576,-0.60630596,0.5173652,1.0170648,0.2779871,0.35755423,-0.84218657,1.908622,-0.09232933,0.9516689,0.18915299,0.04369016,-0.0015907085,0.21999288,-0.5851097,-0.1758613,-1.575878,-0.40115523,-1.9449502,0.15759563,2.1575165,-0.13023733,-0.2408108,2.1182704,0.33607224,1.1031897,-0.07405068,0.09196625,-0.3457399,-0.73186105,0.08613702,-1.4335955,1.629461,-0.34609753,0.9023506,-0.01091513
