patient_id,0,1,2,3,4,5,6,7,8,9,10,11,12,13,14,15,16,17,18,19,20,21,22,23,24,25,26,27,28,29,30,31,32,33,34,35,36,37,38,39,40,41,42,43,44,45,46,47,48,49,50,51,52,53,54,55,56,57,58,59,60,61,62,63,64,65,66,67,68,69,70,71,72,73,74,75,76,77,78,79,80,81,82,83,84,85,86,87,88,89,90,91,92,93,94,95,96,97,98,99,100,101,102,103,104,105,106,107,108,109,110,111,112,113,114,115,116,117,118,119,120,121,122,123,124,125,126,127
MMRF_1231,-1.0413443,0.4109139,1.7572628,-1.3921188,-1.9540907,0.08993239,-1.258271,0.45730126,0.9109117,-1.6910335,0.14414987,-0.63318473,1.1763763,1.3024634,-0.56954265,-0.7478485,0.21108294,0.18192531,1.0080364,1.6814518,-0.23524728,-0.9131979,-0.1775046,0.927804,0.4648968,1.150862,0.0820236,0.6308435,0.2101053,-1.7818907,0.30245134,-0.28064305,-0.09740022,0.0367093,1.0310262,-0.17785531,-0.37006405,-0.5229691,0.50409114,2.0772104,0.45057315,0.4883117,1.0361108,-0.18586397,0.95223993,0.927323,-0.8032544,-0.121987484,0.9043723,0.42042285,-1.219164,0.48048487,-0.6811671,0.3221387,0.38508326,0.14966206,0.049767744,-0.4800831,-0.08879632,0.0010927683,-1.0798208,-0.27729303,0.3134267,1.3952714,-1.5157366,-1.5947294,-1.9390969,0.457366,2.1820872,-0.13706832,-1.1714579,1.0788939,-2.1004336,-1.8757321,2.461032,1.4006332,-0.885959,-0.8099151,0.3957119,0.23898605,-0.9499562,-0.71360695,0.9115224,-0.42746598,1.0156591,-0.4099321,1.5544468,-0.87852025,-0.044397198,0.19852486,-0.073998824,0.37789726,-0.035704236,1.38194,-0.0013480317,-1.447404,0.04359345,-0.099561475,-0.02581512,0.43672308,-0.1716583,-0.82430047,0.78804046,1.2788137,-1.2905773,-0.37718675,-0.59026957,-1.5059198,0.20641536,1.4529594,1.6015433,-1.4878415,-0.057943568,1.1874288,-0.034484874,-2.0870147,-1.7578958,0.10793405,0.34445375,-1.0203696,0.86189455,-1.0949606,-0.80056715,-1.8653085,0.33060473,0.50011635,1.6117595,1.5007232
MMRF_1032,-0.16082232,2.0116289,-0.46927568,-0.3354635,2.2018247,-0.9423971,0.7632567,-0.95443296,-0.26885644,-1.4911337,0.730148,-0.20054199,0.5009663,2.637582,-0.6647987,-1.7186179,0.40457395,1.7928334,-0.40079233,-1.1032562,-0.28785267,-0.2561341,-0.067637905,1.2337968,-0.0950257,0.06347994,1.9214476,0.7080642,-0.44825023,-0.36774945,-0.9740364,-0.0008125007,-1.5823127,-0.24018425,-0.11722797,-0.32274556,1.4793215,0.41620222,2.128534,-0.30646035,-0.009094354,0.16688043,1.8382888,-0.52679384,-1.0796475,2.089932,-0.7439542,0.60815746,-0.25243893,-1.2085804,-0.7606889,-0.14050286,-0.48044047,0.38974705,-0.4626097,0.88162684,-0.010928115,-1.2596895,2.224401,-1.7006562,-0.95359284,0.10466857,0.37808332,0.7443858,-1.5083725,-1.3658603,1.684622,-0.5147088,0.54531324,0.08135675,-0.4176554,0.0925337,1.7310855,1.6417925,0.37118927,0.60998905,-0.6876632,-1.8337617,-0.511309,0.1116147,-1.4121369,-0.04696013,-0.82732123,1.0574,0.17109507,-0.78749454,1.0178344,1.0546569,-0.20589374,0.2420333,-1.4284,0.8562499,0.015750807,0.37389514,0.6007284,0.38022524,0.29223678,0.0009573642,-0.4632866,-0.9895967,-0.43422413,2.4175344,-0.494398,0.4369226,-0.99359643,0.5337796,0.33072904,1.0115982,1.203202,1.0836064,-0.7690173,-0.25491843,0.87079036,-0.8347762,-1.1691173,-2.2659082,0.07091433,0.78241843,-1.0806433,-0.5448906,-0.38085938,0.06815857,-1.7962689,-0.5507903,-1.209484,-0.0019932725,-0.42830855,-0.59119296
MMRF_1327,2.3472435,0.10403034,-0.268004,-0.22515638,0.090611994,-0.0062062237,0.3944116,-2.7770388,0.12980925,0.1456826,0.4464303,0.21371362,1.3348073,-0.16610499,-1.5639182,0.7731088,-0.45516613,1.0772471,-0.06740033,-2.1615994,0.47481126,0.8833854,-0.6966043,-0.216284,0.1154812,-0.5473703,-1.2192773,0.9693666,-0.067984395,-0.15386745,-3.4860227,1.2298441,0.5743647,-1.3269795,-0.9546773,0.8866506,0.21893992,0.15231411,0.46409434,-1.4461248,0.18903178,0.07032091,-0.20623995,0.5452043,1.1816392,2.0975184,2.8306646,0.26329842,-1.4995294,0.4851069,0.24520178,1.0883199,-1.4608074,-0.5082148,-0.9492453,0.4821154,0.06920884,0.8455377,1.559765,0.36796895,0.24369653,-0.42737317,-1.5143708,1.0584798,0.6406876,-0.67438984,-0.22301057,-1.4786303,0.28478754,-0.7802132,0.76927066,-0.4717255,1.4200552,1.2947371,-0.07274685,-0.50735027,0.3609303,0.5177223,-0.9145557,-0.39485025,-1.4220444,-0.17242277,-1.488101,-0.9647436,-0.5866649,0.7326087,-0.22684507,-0.48815715,1.2636067,-1.3195021,1.0015128,1.057032,1.7075211,0.87982213,-0.51365834,0.23585947,1.5153791,-0.25279224,0.5249525,-0.52640903,-0.21102223,-0.28150895,0.6020399,1.184784,1.6022757,-0.44575688,-0.5394044,0.40261656,0.19328077,-0.5410165,-1.4495972,0.14209557,-1.1627187,-1.7367927,-0.4900664,1.1314744,-0.14170106,-0.9485862,0.12507564,1.2781044,0.8126286,0.006839483,-0.53151196,-1.8216641,0.3989111,-0.31208608,-1.1699721,0.7435061
MMRF_1210,0.14761356,0.7410188,-0.23044932,-0.049796514,1.3227508,-1.327556,-0.4597808,-1.5701823,-0.5108978,-0.61984575,-0.5079995,-0.8631648,1.3416846,1.3244545,0.04567954,0.91444,0.382946,1.3976797,-1.5670215,-0.8713331,0.63491863,0.26679388,0.09847129,1.45097,0.03623348,1.0338862,-0.6339586,-1.5075873,0.50455934,0.047130894,-2.3047466,-0.17371479,0.34957752,0.59193635,-0.6983145,0.22565454,0.6565841,-0.079648405,0.9226619,-2.3733995,0.15040661,-0.5579215,0.10916192,-0.5913615,-1.6023077,1.8181294,1.1178346,-0.04913819,0.9972226,-2.180096,1.8983562,0.032361794,-0.0011515412,0.90080434,-0.08362755,0.89451355,-0.1457138,-1.0977776,1.1111006,1.1982807,-0.22610393,-0.87916,-1.2318282,1.0462372,-0.30249014,0.6712167,1.2169966,-1.4482597,-1.177041,-0.4227689,0.70765567,-0.7223586,1.7533574,2.571905,-0.3288142,-0.9215545,0.4462463,-0.8699355,-0.5737932,-1.6202054,-0.73018074,0.43649703,-0.8815398,-0.11083376,-0.17936069,0.5505973,0.3953179,0.8866459,-0.79402286,1.8886306,0.44149488,-0.6224743,-0.15709119,-0.8322847,1.1581707,2.6212275,0.49992228,0.12838139,1.1891341,-0.107253335,-0.6503878,-0.028151639,-1.510982,-1.0723802,1.0655103,-0.055375,0.040008295,1.4152782,0.7778056,-0.21291465,-1.8066058,1.1142606,-0.18748072,-1.2460339,-1.8644955,-0.019812495,0.705811,-0.7312662,-0.63439506,-0.3257971,-1.5434046,0.03463309,-0.88308203,1.2988774,-0.2746477,0.2850598,0.73412293,0.00289323
MMRF_1269,-0.021811575,0.064308174,1.7361833,-0.21909273,-2.4571457,1.3399805,-0.024306383,-0.4372127,1.5343167,-0.5243143,-0.67777365,-0.82159704,1.3969419,-0.58783036,-0.15237889,-0.75483024,0.48000568,0.6453288,1.1999167,-0.015426776,-2.1731598,-0.32633084,-2.6067708,-0.5325621,0.912439,0.83810943,-0.85182846,0.10118449,-0.5392875,-0.5709878,-2.8217468,-0.04751362,1.2862699,0.8409042,0.9079604,0.3822571,-0.26079038,0.4704549,-0.71089894,0.4089723,1.0612524,-1.2623719,-0.9936153,1.3649048,-0.29551104,0.57255787,0.42764366,-0.57654935,-0.18444772,1.9851363,0.5236441,0.7965081,0.18269968,-0.9760805,-1.2587115,-0.05144488,-0.7189321,1.1835933,0.16309172,0.5571983,-0.8071731,-0.20858909,1.4514956,0.20104504,1.0982715,0.58994114,-1.5252625,-0.44296366,3.0048153,0.6045712,-1.5288343,0.9423301,-1.8031105,-1.2659507,0.8639383,0.06619176,0.7064262,-1.2310429,-0.9252684,-0.6626831,-1.4775425,0.012314171,-0.41374975,-0.20099114,-1.0607467,0.39842722,-0.52065504,0.60158527,2.1832325,-0.5947835,1.3356841,1.1770583,0.23257804,0.27927247,0.34993908,0.24006842,-0.6883514,-1.4041073,0.59235287,0.9279948,-0.35339743,0.67242116,1.1347511,0.5841252,0.85821,-0.28369966,-1.817846,-0.9474559,0.5942022,0.42078605,-0.44150835,-0.43351898,-1.5411248,0.7381826,-0.6796491,1.3196045,-0.8408552,0.3770126,-0.122273706,0.13529138,0.14799118,0.3840381,-0.28956097,-1.8885078,0.971661,0.72967035,-0.24018201,0.7131357
MMRF_1251,-0.45890903,-2.1264727,0.0036227657,-0.42455626,0.6095538,2.0154452,1.3471441,1.5661333,-0.5036121,-0.45656765,-0.47674835,-0.26243928,-0.6986366,-1.6848876,-1.8510162,0.09488343,0.6754676,-2.6972282,0.7748802,0.08841184,-0.8919242,-0.38073295,-1.3057959,0.5674125,0.26936498,1.3006049,0.42659098,0.055251785,-0.60595715,-0.67555964,-0.36286175,-0.6514688,0.27666798,1.1973134,0.567339,0.5385066,-1.9006803,-0.50159514,1.0710182,1.8550868,-0.25135282,-0.9845255,1.0906532,0.114307396,-1.3644127,-0.002996983,-0.6865615,0.049351845,-1.1392031,0.887637,1.3032225,0.22195318,-1.2714001,-0.4719253,-0.28891352,-0.8792846,-1.4530933,2.2213144,-0.97873855,1.3925967,-1.6184254,0.14282633,1.6869761,0.35803998,1.3143919,0.0046133194,-0.7302949,1.7705771,0.5038619,-1.2313443,-1.1687007,-1.3339745,-1.4799881,-0.7795925,1.8773885,-0.83049405,-0.01540736,-1.1107818,-0.88320243,0.9911262,0.8132202,0.28325534,-0.09713258,-0.933223,0.98440784,-1.0710771,0.032373525,0.10183737,1.8261293,-0.3121232,-0.14156716,1.8398848,0.52876586,0.8515578,-0.39305902,-0.056908034,0.566263,-0.50198287,0.013176583,-0.16802365,0.72357047,-1.4270115,0.15834743,1.9317433,-0.8034176,-0.48131576,-0.8870574,-0.28738648,-0.3821382,0.739726,1.1582167,-1.6681261,-0.67363834,-0.37431416,1.4071873,0.025077857,0.8091471,-0.1969864,1.3414471,0.31270564,0.5423468,1.1855175,-0.18411335,-0.29335198,0.620997,0.71045333,-0.71031,1.135224
MMRF_1328,0.12311176,2.373071,-0.20791833,-0.7852333,0.8070237,0.5721214,-0.062129557,0.39202031,-0.1359791,1.6123257,0.028848752,0.85817146,-0.060319655,-0.009584075,0.011569299,-0.7694526,0.66464263,-1.5460359,-0.9659484,0.49581078,-1.2919251,-1.8959023,0.5509954,-0.9237073,-0.41306677,-0.15930033,-1.0487164,-1.5809096,2.276195,-0.41528505,2.0878584,2.3133497,1.2577739,-0.8400324,0.083404996,1.307522,-0.5165753,-1.1170995,0.09742657,0.50989175,0.7949721,-0.0222117,0.47206673,0.23307872,-0.31620017,0.070084564,-0.07412492,1.7002951,2.011511,0.80632997,-0.45398805,0.8679871,-1.3203526,-0.7462574,-1.9516985,-0.36357567,-0.48507115,1.1032612,-1.0061395,-0.57928747,0.8503877,-1.7199851,0.42353806,0.5141319,-1.0258824,-1.259019,0.6479388,-0.56699854,1.0024697,-0.537335,0.80787605,-0.7260709,-1.7446725,-1.1599095,-1.743495,0.20884383,0.5462497,0.012215011,-1.2937964,0.3195738,-0.0225131,-2.1858926,0.13250746,-1.1193805,0.41941538,-0.82439977,1.2691022,-0.73593724,0.55752146,0.2447927,-0.40277737,0.6323759,1.3688568,0.06470869,-1.5657539,1.198369,0.16941907,-0.6611459,0.9034398,-0.41407546,1.3694946,-0.78076947,-1.8267345,0.65372175,-0.75004476,0.5498314,0.27801588,-0.85503227,0.6349444,-1.8293316,-0.10640633,0.39221165,-0.38987392,0.9764648,1.2866533,-0.20794576,1.3916302,2.0059655,0.8288754,-1.0698712,0.053408828,-0.14979039,1.4836386,-0.31240523,-0.75205,-0.34263748,-0.075030535,0.55310786
MMRF_1171,0.35887277,0.19513984,-1.3216627,0.46633556,1.0726596,1.651802,1.7655226,1.9036708,0.052811638,1.4722689,-0.75887656,0.017783154,1.2633024,-0.009802546,-1.0769491,0.57827246,-0.05046249,-2.4408984,-2.4133615,-0.5064731,0.15463042,-0.16082622,-0.5305691,-1.1340951,-0.18669502,0.67581296,-0.15346833,-0.33882448,-1.4743465,0.54151744,0.9311338,-0.83807844,0.5916107,1.2067558,0.37113294,-1.475194,0.31003395,-0.5406599,0.16822468,-0.15574192,0.63035077,0.2642634,0.21391842,-0.16664961,-0.7867551,-0.3293465,-0.26066282,0.6398796,-0.55438864,-1.2056558,2.8408616,-1.3538005,0.44307584,-0.8004233,-0.20689094,-0.6009831,-1.4600524,1.9443995,-0.13174182,1.5695462,-1.004878,2.1717155,1.3418901,-1.9026917,1.5593978,1.0780668,1.7565001,0.3025207,-0.5829243,-1.6498847,-0.23665227,-0.1492647,-0.17557497,0.5949785,-0.9445771,-0.96563315,-0.15166885,-1.0700412,0.5169234,0.14939664,2.314151,-0.474002,-2.1419063,0.8715206,0.7337006,-0.08449545,-0.21914266,0.6462819,-0.08445063,0.71724194,-0.9199567,-0.47053835,-0.20075046,-1.0374368,0.9184201,0.58046514,0.19958474,0.6618131,-0.5113483,0.46929586,0.37192196,0.81133056,-0.89943403,-0.48987266,-0.45198584,0.7966445,-0.47089952,0.20784426,-0.44109714,-0.53422785,0.36716643,1.8915598,0.99597883,-2.5820057,0.4667762,-0.65952337,0.77892715,-0.9508498,0.046151802,-0.6515414,-0.75103205,-0.38075346,-0.035342313,1.1132188,-0.9705914,-0.6968672,0.47054923,-0.79173654
MMRF_1354,0.40419626,-0.017062947,-0.5576011,0.7782995,1.442354,-0.53056633,-1.0210164,1.5065347,-0.6373584,0.290561,-1.5237625,0.08208652,-0.8085813,1.1286104,1.0799897,1.7313776,0.07127561,-1.7329702,-0.25252104,0.92721736,1.1481497,-0.91533965,2.6275363,0.64144826,0.60059845,-0.618982,-0.8178563,-1.4398087,0.45785865,0.18528675,1.8754398,-0.7622282,-0.48314962,-0.760871,-0.47512853,0.2943286,-1.408117,-1.242103,-0.06337532,-0.49963063,0.48202798,-0.57563424,-0.7549499,-1.1434596,-0.8609831,-0.812365,-1.6289072,-0.2846851,2.1719806,0.17183894,0.5309487,-0.033908196,0.64707834,0.89833426,0.64198536,-0.89148974,-0.42007348,-0.99082386,-1.4308642,0.7138475,-0.105788305,0.8868681,0.12632868,-1.4800831,0.68988603,1.5217208,0.9121906,0.82438594,-2.7249572,-1.1012791,1.5252349,-0.30486503,-0.62024254,-1.1580626,-1.0298338,-0.056830198,0.12384604,0.63671345,0.31109256,-0.3100576,2.4794784,0.22365503,0.39038876,1.3605058,-0.9514697,0.22014098,-0.39628604,-1.1421313,-0.6796181,0.7899489,0.36349073,-2.3870296,-1.5724337,-0.6911191,0.45832193,1.6062281,-0.5053916,0.81545824,0.30682537,0.3781483,0.34372592,-0.11209262,-1.3999544,-1.6285875,0.6284324,-0.25891954,-0.30548686,0.011567878,-1.4751259,-0.14283279,0.68306166,1.2579699,1.1011163,1.0529183,-0.85779333,-0.21346705,0.5201505,0.29957634,0.097660474,-0.04585781,-0.33750454,-0.2850989,0.59007853,2.296523,0.48348638,-0.20288499,1.7246877,-0.63594985
MMRF_1344,-1.3084122,-0.786638,-0.983396,-1.7595055,1.2961121,0.9361248,-0.59918797,-0.9725752,-0.28518018,1.2461002,-0.27356035,0.73155254,-0.5581337,-1.6398982,-0.67948693,1.3223656,-0.58361834,0.47112378,-0.24774292,-0.97068393,0.23429498,0.7969905,-1.0988919,-0.8289429,-0.46753916,0.6900082,-1.6993034,-1.6209817,2.3215363,0.19545634,1.3957549,0.9211266,0.97247124,0.68275595,-0.5236451,-1.2000319,-0.35238284,-0.018183192,0.7185779,0.1675129,-0.21425676,-0.96157396,-0.5491941,-0.39741862,0.064180985,0.60091394,0.9078158,0.4330288,0.47583422,-0.10564058,1.1544443,0.82632124,-0.8636273,-0.73247856,-0.6960875,-0.7341567,1.4988933,1.8427663,-1.0103897,1.1264739,-0.6570663,-1.8335824,-1.1471176,2.0030594,-0.38173804,0.42413223,0.5261204,-0.44989592,-1.2732269,-0.8164297,0.33810407,-2.454408,1.9253076,1.4435451,-1.2422884,0.24257106,-0.06500758,1.0315794,-0.29808825,0.023196267,-1.1063471,0.9781608,0.28995737,-0.8410631,1.4694744,-0.35581627,0.49100873,0.90295446,0.79191047,0.3950541,-0.34828383,-0.40697032,1.3307345,-0.59717226,0.56840235,1.2152102,1.3457295,0.29513413,1.3610947,-1.4247025,0.49234137,-2.6846826,-1.3673929,-0.30053014,-0.098266155,0.1181664,0.11471152,1.2574766,-0.48417574,-0.42608377,0.696961,-0.9839933,-1.0492917,-1.6826833,2.5614827,-0.2068446,-0.40262118,-0.62531495,1.1418284,-0.20153618,0.41104907,-0.75251764,0.03981029,-0.3303575,0.6755529,1.0417277,0.036513608,0.95132107
MMRF_1403,1.4900606,0.2496654,-0.47727332,0.11402328,0.15955552,-0.8200297,-0.7240196,-1.6045308,0.56423223,1.9094688,-0.05630937,1.8539889,0.19309883,0.5578269,0.3551194,0.9155229,1.1722709,-0.18784343,-0.21834585,-2.1630347,0.4677556,0.51328206,-0.4877935,-1.56563,0.9950092,-0.5265247,-1.4968147,-1.1182654,0.9259387,-0.60689163,-0.48001722,2.7072415,1.4021108,-1.3277639,0.85673153,2.2521508,-1.2232838,1.0956007,-1.3401616,0.47159785,0.37046275,0.43177402,-1.7663661,-0.056108207,-0.14916736,0.80343175,0.7138598,1.0817386,-0.3805416,0.90623206,0.6108774,2.4512546,-0.7014813,-0.2092927,-0.34586322,-0.24710907,-1.0410115,0.7184691,-0.6215654,-0.74471843,0.925788,-0.73791784,-0.4137749,1.0393915,-0.5218526,-2.1050851,0.39311022,-0.12108822,1.0589874,-0.09237762,1.6059823,-1.7016734,-0.7908865,0.4926295,-1.1647531,-0.9966667,0.19294244,0.6556443,-0.40690124,-0.19388215,0.21001796,0.13819522,-0.3750684,0.16345274,-1.6196945,0.3954916,-2.4242516,-1.1824933,0.68257976,-0.08590347,0.35555837,0.35447592,2.0716434,-0.13397533,-0.87930095,0.45804676,0.13947327,-0.025381448,-1.0018091,-0.46618187,-0.43457034,-2.1636615,-1.6971269,0.14584875,1.756842,-0.03127322,0.30616438,-0.2447255,0.15866421,-0.13457924,0.58405477,-0.049556095,-0.8159268,0.29741016,-0.36266914,2.3219037,1.2716851,-0.26939392,-0.5681945,0.24865733,0.36911905,-0.03170821,0.26787952,-1.2503885,0.38366827,0.46080053,-1.2445453,0.12073498
MMRF_1408,2.921304,-0.32609123,-2.2908819,0.47886375,1.2358706,0.46265945,1.9092832,-0.14830263,0.17589156,0.34615013,1.7675399,0.43900713,-0.27395174,0.09393142,0.77839863,-2.080585,0.37888923,0.713597,0.58014435,-0.46826372,-0.06467309,-0.4988248,0.07506428,-0.18922454,0.7952799,-1.5337083,0.27585524,0.69249815,-1.0797234,-0.31159568,-1.1900539,1.0082949,0.19966948,-1.2385873,0.071870685,0.20545667,0.8755826,0.15318222,0.5410097,-0.5710452,0.10562168,-2.1151652,0.022444487,0.7799922,1.4387176,1.1887186,1.0625145,0.06562275,-0.049605973,-0.40432692,-0.5292462,0.6140443,-1.3842869,1.3890132,-0.8301823,-0.54198736,-1.1055326,-0.36553103,0.5436325,-1.9752015,-0.7182368,0.57614315,1.3675472,0.6141204,1.5903773,-0.77955776,1.3189056,-0.8146457,-0.18774459,-0.49658075,1.8444043,-0.385969,-0.10476854,0.25654477,-0.95928085,-0.52192307,0.7567724,-0.50159925,-0.260788,1.0437618,-0.39473927,0.7160815,-0.13401695,1.9016231,-0.3526382,-0.53312075,-0.29796633,0.20339043,0.23748052,0.056564756,-0.2446332,-0.777244,0.81809366,-0.50213176,-0.31952927,1.0299667,-0.67266876,-1.3611839,-1.3195174,-1.6626238,-0.36342496,2.9548097,0.31372362,0.45727462,-0.15495415,-0.8328669,-2.341245,0.028201252,0.38356236,0.69332594,-1.2808765,-0.21989071,0.6792303,0.039280362,-0.5392333,0.6713404,-0.12962672,-0.58172005,-2.2748513,1.4117758,1.1310383,1.8420273,-0.97698224,0.072578706,-1.1426827,-0.572182,-1.8823006,-0.2967366
MMRF_1338,0.38820624,1.2640307,0.7174106,-0.2783319,-1.7489275,-0.3890905,-0.51426613,-1.1756343,1.2925979,-0.9701014,0.32670763,-0.71378016,0.81824213,0.36547753,-0.26629335,-0.01978409,-1.2206618,0.7768261,1.2887254,0.664165,0.21914755,-0.39084947,0.14792319,0.14266309,-0.4886431,0.9736112,-1.3127418,0.4827095,0.86458194,-0.42625284,0.8547382,-0.22760767,-0.0172708,-0.82283676,0.6344867,-0.0118203685,-0.26261413,-0.5131905,-0.44465098,0.044440385,0.16726744,-0.8784018,-0.086515844,-0.33944598,2.0680275,0.22503424,0.1450263,-1.3541287,0.81943333,0.4211755,-0.67524296,1.2774317,-0.18308808,-0.92471266,0.1672296,0.47527677,0.42862627,0.44217956,0.22386098,-0.27456388,-0.36663455,-2.4703066,-1.58885,2.0068016,-2.414074,-0.66206646,-2.2764332,-1.6424727,1.2196715,0.7811537,-0.7977092,0.7805585,0.0452145,-0.6578126,0.9465559,2.0435789,-0.23955442,0.8795789,0.17381652,-0.8666263,-2.1129873,-0.78241575,0.8372922,-1.3963066,1.2463474,-0.34716335,1.7620865,-0.03448231,0.115540594,-0.9596348,1.4504714,0.757869,0.3608646,2.1255348,-0.5450632,-0.9702678,-0.10036944,0.04242523,1.0691357,0.55933553,-0.88364756,-1.1217182,0.70894843,0.41193816,-0.07076401,0.47425845,-0.92102146,-0.8441163,1.7015015,-0.30907673,0.3923423,-0.9244092,-1.1817027,0.9551816,-0.010281514,-0.3566919,-1.3582348,-0.2740943,0.4250329,0.08381327,1.3336283,-2.391969,0.77754307,-2.0500422,1.8719418,1.2779062,0.29213944,1.8228446
MMRF_1342,0.1375285,1.0238318,-0.73490477,-0.45172554,-0.20072047,-0.5400679,1.1110026,-0.02771381,-0.84505904,-0.35193402,0.18346673,-0.6674469,0.7696239,0.46656275,0.46469355,-1.8660778,-0.21405083,1.2144544,-0.58380604,0.2276688,0.3139811,0.5303693,-0.23409568,-1.1808879,-0.25938046,0.31246307,1.4097944,0.24817365,-1.0112473,0.3099793,0.8286893,-1.3011724,-0.93615854,1.6953534,-0.24620967,-1.3316176,1.5621346,0.59803843,-0.75458986,0.25988126,-0.029213093,2.0566754,-0.28894082,-0.015953632,0.28328454,-0.62074786,-0.9218969,-0.7666751,-2.7310936,-1.213566,0.70875347,-2.8023238,1.5266743,-0.6004335,1.3990713,0.8971181,0.118160024,-1.3290212,-0.7384094,-0.47313786,0.3363381,2.43716,0.3644479,-2.002735,0.26502484,1.2687532,1.7984879,-0.02452894,0.735177,0.45225504,-0.798583,1.3456175,1.1975533,0.87919897,-0.43120384,-0.48187098,-0.6937237,-0.38498375,0.6738167,0.3265546,1.3948905,-0.18088923,-1.0105132,0.51922303,0.91645044,-0.10924441,-0.58595437,0.6549133,-0.45684156,-0.7051649,-1.4018029,0.7993378,-0.4733899,-0.8829114,0.7008888,-2.217416,-0.8925494,0.7118448,-0.88729835,-0.27443337,-0.18573417,1.5366441,2.3497152,-0.56731033,-1.2524525,1.8872107,1.6282618,0.05570608,-0.78181404,-0.020063154,0.7077421,1.8402199,1.3570704,-1.2089608,-0.25619137,-0.93520516,0.61229026,-0.3517718,-0.24813534,-0.26243338,-1.266113,0.37517643,0.22649674,-0.14151211,-0.6322479,-1.0440135,0.44862762,-1.0366547
MMRF_1352,-0.7794145,1.7461778,1.8099931,-0.29705107,-1.4022404,-0.58113,-1.4035199,-0.76722103,0.35746804,-2.37003,0.40417874,-1.2404557,1.0637015,1.9347439,-0.5055442,-0.7325701,-0.5912169,2.2455714,0.0691466,0.57480097,-0.5735924,-0.21120182,-0.27518445,1.2697593,-0.109881416,1.1109452,0.45654023,0.8516645,0.35061914,-0.6187264,-0.05368577,-1.305585,-1.7700554,-0.09468146,-0.40971327,-0.66374195,0.13229597,-0.25946814,1.4800454,1.0331203,-0.20003828,1.1828444,1.6572607,-0.48165235,0.3478152,1.1275322,-1.2798499,-0.8825701,0.43428588,-0.18967898,-0.8035307,-0.34278032,-0.9618864,0.22295636,0.100589536,0.6632325,1.7183237,-1.0359126,1.5576088,-0.47000852,-0.45422328,-0.27047825,-0.5890312,-0.49882615,-2.432226,-0.7571971,-1.0439525,-0.26417762,1.5461289,-0.20204172,-1.3330041,1.0416445,-0.2058248,0.030493643,2.4495153,1.3902456,-0.7188367,-0.7748484,-0.14965132,-0.124775566,-1.4416264,-0.9184097,0.398004,-1.0691699,0.637691,0.3472509,2.0772038,0.4888548,0.025284769,0.36476535,0.47179356,0.9287572,-0.24045557,1.3282175,0.303649,-1.4557858,-0.15737048,0.52012974,-0.28397292,0.5252617,-0.7638553,0.74153465,0.96197647,0.8882685,-0.4463399,0.6510452,0.79910886,-0.19087942,0.44385377,1.0050261,-0.082237996,-0.92156696,0.17235486,0.11878553,-1.0963064,-2.9033046,-1.0991741,0.8925171,0.8984258,-1.0759416,-0.4745432,-1.6571945,-0.53703636,-1.5270798,0.20137334,0.80355227,1.3271931,1.2134241
MMRF_1380,1.3843647,-0.81819093,-1.2777975,0.93607754,0.85090613,1.0819632,1.7088377,1.022021,0.12391555,1.2264975,0.56026965,0.2804622,0.30593365,-0.95758575,-1.0927714,1.1664264,-0.58292234,-1.340028,-1.0316974,-1.5827626,0.04386875,-0.88919723,0.014214654,-0.95454735,-0.3172915,-1.1125062,0.30463195,0.96369255,-0.86808664,-0.13906139,0.3090502,1.1590263,-0.10584357,-1.3568016,1.2628009,0.2233364,0.06032829,-0.13281298,1.8231574,0.6135162,-0.2606875,-1.290552,-0.014772301,-0.06249082,1.3611805,0.31869918,0.7481214,0.7987132,-1.0099723,-0.16518773,0.26718813,0.36383712,-1.7972744,0.2269861,-1.4884884,0.26097497,-1.6637559,2.470347,0.44882324,-0.09809398,0.49412444,-1.2260635,0.99390453,-0.03584501,0.7212294,-0.8329926,0.89727414,-0.02880267,0.11397861,-0.48300457,0.9962976,-0.6477765,-1.8235548,-0.25865236,-0.28306428,-1.9361284,-0.8626706,1.4750946,-0.6724018,1.4508948,1.3675493,0.79623926,0.009394482,-1.3697131,0.9967893,0.009589276,-1.2040052,0.20750932,1.656004,-0.5667621,-0.98428327,-0.6453375,0.76838875,1.5577208,-0.12521479,0.57880497,1.4040707,0.66864395,0.19051787,-1.4243337,0.2923138,-0.70482874,0.14087261,0.6008231,-1.4058837,-1.2561566,-1.0084224,0.6312778,-0.8257537,0.25573668,-1.108381,-1.462398,0.04333885,-1.4542903,3.3574374,0.87207556,0.63232195,-0.38068786,0.3153879,0.588984,1.7002628,-0.2786506,0.07587123,-0.1779032,-0.45278195,-0.69390255,-1.9475259,-0.6193625
MMRF_1389,1.4854363,0.2154981,0.38396445,-0.5225765,0.21395528,-0.06924747,1.0876535,-0.5526069,0.938349,0.5131143,0.49849412,-0.86713994,-0.1386684,0.400188,-0.24076028,-1.2928349,-0.096788764,0.35087755,1.3033825,0.36972305,-0.11921862,-1.7519321,-0.29276365,-0.58045816,0.62512225,-2.5511253,0.06695894,1.2842396,-0.71906686,-0.40692282,-0.77747244,0.6750686,-0.3440836,-0.21385776,1.1476011,0.084673,1.1321374,-0.40955904,-1.1445358,-0.5391583,0.039129738,-0.77249306,-0.13276352,1.2900106,1.757401,1.4882612,1.5374709,0.29291955,0.46981668,0.7252227,-2.147654,1.5422835,-1.1988387,1.1443796,-0.9197004,0.34668434,0.15831712,0.03418126,0.683272,-0.4932779,-0.5751987,-0.45299459,-1.5949742,3.1632893,1.6287425,-1.0974176,-0.2848386,-0.86189544,1.9333577,1.2547371,0.8045205,1.5843942,-1.0622966,-1.736996,-0.41979772,0.62104017,0.46244594,-0.30334583,-0.1732381,1.1417553,-0.96548647,1.5608755,-0.20946842,0.6665444,0.19564873,-1.1885852,0.33628592,-1.611136,-0.40839854,0.8343547,-0.6618926,-0.4577963,1.4580313,-1.0444763,-0.75988823,0.07929749,0.5120895,-1.3299271,-0.047399126,-1.60127,0.6742592,-0.09539526,0.8175529,1.7323692,-0.43413964,-1.940487,-0.9482075,-0.5036255,-0.8904596,1.3811095,0.033452705,-0.48062956,-0.56255263,0.61415595,-1.075379,0.20452403,-0.28176883,0.63386613,-1.2463436,1.1885427,1.5644014,-0.4319306,-0.22288719,-1.645836,-0.48796603,-0.98144233,-1.4444405,0.35779127
MMRF_1388,-0.484207,-0.9282706,-0.20772405,-1.729543,0.26921442,1.8704069,0.19208491,0.49826387,0.07569663,1.3862679,0.94897074,-0.7620325,1.5274925,-0.93512154,-0.4140237,0.80130595,1.006389,-0.6412224,-0.06757194,-1.8824629,1.3702615,1.6051495,-0.66175985,-2.3590515,0.20777936,-1.1286235,-1.2341374,0.13341598,-0.5333442,-0.5548665,-0.025882937,1.1218212,2.3966672,0.29022667,1.0152469,0.07643021,-0.59153986,0.20616712,-0.79172236,-0.25923803,0.38028708,-0.76596355,-1.2950232,0.060594924,0.327468,0.16306525,0.95022774,0.019690325,-1.5927256,0.030531121,2.343108,0.2906097,0.38810253,-1.7213837,-1.3407196,-0.09274353,-0.97353524,1.1107224,-1.2349126,1.2101728,-1.0268052,-0.40690538,0.34101388,0.9712369,1.416039,-0.06458051,1.2946674,0.8348013,-1.6691644,-0.4042003,0.6462747,-0.3562198,1.046297,0.00304145,-1.5508418,-1.3725227,0.09239298,1.1833862,0.5698835,0.9753792,-0.24867292,1.9401672,-1.7440642,-0.01597181,0.63288283,0.34354645,-1.3179651,-0.20676251,1.2758571,-0.5937163,-0.9827532,-0.37537125,1.006464,-0.72949564,0.6683237,1.1242441,0.7592274,0.5899063,-0.26030213,-0.53802586,1.1297258,-0.17036627,-0.49372727,-0.10014882,0.7811665,1.0744721,-0.91754353,0.58147657,-0.9100652,0.948311,-0.0847031,0.46529374,-0.9760865,-1.7503252,1.1336629,-0.087355554,-1.4977053,0.3393127,1.8991205,1.156515,0.43991587,-0.31651878,-0.8227515,-1.5588027,-1.0163459,0.34066725,-1.1790221,-1.4040768
MMRF_1395,0.016921828,1.1137308,-0.4472812,0.06125258,0.30239233,-1.0333494,-1.513283,-1.2376707,1.2978671,-1.5768876,0.034628257,-0.6508988,0.77809966,1.5902286,0.3175943,0.6711998,-0.037543595,2.5428476,-0.52231187,0.36241725,0.491458,0.7537869,0.81196153,0.34452426,-0.6031911,-0.1173022,-0.54035634,0.558275,0.02562811,-0.013635375,0.20259255,-0.062414624,-1.4178429,-0.7230286,-1.9461052,-1.4152588,1.6799709,-0.7461352,0.82927287,-2.9878836,0.8539465,-0.242387,-0.983056,0.10996164,1.1734567,0.84111786,-0.15347269,0.2059306,0.7284842,0.04652623,-0.5691927,-1.4422665,1.2058704,0.657425,-0.17357129,0.70368975,0.19248946,-2.311821,0.45422912,0.23396085,-0.063287534,-0.5967416,-0.73859274,0.61071575,0.040131148,0.7816911,-0.5009743,0.21095322,-1.7085665,1.5758797,0.59597695,1.5938003,1.6737552,0.9295487,-1.0552838,0.5442913,-0.6135269,0.5458087,0.50480855,-0.43335375,-1.4335136,1.2728196,-0.23000728,1.4872411,0.95760006,0.38969457,1.0596123,-0.6964201,-0.15874691,-0.46203598,0.14465387,-1.1797968,-2.1225572,-0.33136258,1.1209034,-0.62582743,1.1190162,0.6274419,0.7704745,-0.28171915,-0.07710743,1.0722926,1.2151701,-1.0611376,1.5367441,0.45979264,0.40939873,0.60214776,-0.45002592,0.6903812,-2.0559635,2.3555775,0.48654893,-0.70775914,-1.0005294,-1.5363581,-2.1913397,1.2409058,-0.36728227,-0.33291364,-0.96382296,-1.2507023,-0.60408354,0.32798034,-1.1940433,0.12409987,-0.08939522,-0.69266367
MMRF_1391,-2.048054,-2.6669135,-0.00833077,0.04317222,-0.31937623,0.69329023,0.041998398,3.200003,-0.51136833,-0.23120284,0.018936284,-0.83670884,-1.6318241,-0.75501186,-0.9153234,0.45116857,-0.27434158,-1.1482942,1.1506054,0.7983949,0.111323565,0.49591818,0.7654342,2.0818367,1.0166649,-2.2794952,0.6629472,0.9930375,-0.71650904,1.3588562,0.9641198,-1.5872755,-0.62044346,0.06471603,1.4651773,-0.06503395,-1.3424689,-1.1638721,1.0552948,0.80387163,0.058983073,-0.12348369,0.54823565,-0.74343187,-0.63375944,-1.9780805,0.2513,-0.29850814,-0.19212243,0.42912325,-0.8498999,-0.5448457,-1.7616149,0.13903059,0.40527624,-0.87052023,-0.07596208,0.7850022,0.8830285,0.6874938,-0.17185417,1.2729115,-1.1605537,-1.0792794,1.5867743,0.86798626,0.030673984,1.127262,-1.0671486,0.75170475,0.64598036,1.7246394,-1.747458,-1.5579095,1.1331638,-0.11244676,-0.2723783,0.715388,0.022241091,0.80395615,2.426719,0.8914263,-0.046584964,0.16880666,-0.91689223,1.1950421,0.84501654,-0.33821145,0.83148336,0.4634977,0.020184986,-2.0275733,-0.94031066,0.20064184,0.51667136,0.32408094,0.14798552,0.061611928,-0.2094635,-0.5430733,0.07375494,0.6518286,-0.92994404,-0.44293594,-0.059281535,-1.3844768,0.021277852,-0.5601364,-1.2479659,1.1816226,0.14784253,-2.2135553,-0.17159903,-0.37424022,0.98516464,-0.2573205,-0.5946218,0.74894243,1.2432662,0.6545483,0.6283314,-0.6989635,-0.45152462,1.542193,-0.17884158,0.25877345,0.692358,-1.063758
MMRF_1359,-1.5799854,-2.178841,-1.1023797,0.11806471,-0.42552567,1.756964,0.62437123,3.0121922,-0.9944579,-0.29149458,0.38570896,-1.0817152,-1.5228964,-1.5678743,-0.7982676,-0.40348327,0.3765528,-2.371139,-0.057373464,1.6844149,-0.5729437,-1.2838999,-0.46017906,0.8811245,0.5457481,-1.6863502,0.19452053,1.2804809,-0.68825614,1.6415956,1.2030818,-1.4682313,0.47707227,-0.06445941,1.3147787,0.6267319,-1.0240482,-0.854504,0.9330829,1.425909,-0.71464455,-0.4620076,1.693096,-0.23053959,-0.65993255,-2.1909664,0.6382998,-1.0108894,0.20850697,-0.15204832,-0.6437377,0.10573991,-1.5827947,-0.21823147,0.22403024,-0.20854115,0.29310918,1.394312,-0.024197428,0.636592,0.1323162,0.53822,-0.3237938,-0.7698367,0.8769872,0.98014474,-0.1686685,0.7480492,-0.5847482,0.57731676,-0.27355662,0.3774975,-1.4920251,-1.709344,1.1026046,-0.019831782,-0.44200575,0.40011674,-0.266063,0.0055302046,1.9551003,-0.36598784,-0.3132461,-0.6763133,0.24667314,0.4303826,1.4560324,0.93438876,1.4349883,-0.07771258,0.4733011,-1.7129744,0.6142205,0.28000355,0.16496429,-0.50736845,-0.8318765,-0.09728579,0.33316705,0.6193316,0.25753456,0.15606044,-0.67042804,0.053379353,-0.5058812,-0.68156385,-0.04107114,-0.26620388,-1.1253424,-0.00047979876,1.4425446,-2.5121007,-0.47064343,-0.80511194,1.8460419,-1.3337259,-0.22796631,1.3414081,1.2355138,0.47524372,0.52573276,1.0512611,0.74509454,1.8191558,-0.22866651,0.12428371,1.1600001,-0.4536626
MMRF_1267,1.5245063,-1.6252683,-0.953555,1.5163506,-1.2743024,0.83944505,1.0108798,1.2223754,-0.57423425,-0.23774388,1.4796354,-0.26266417,-1.9721838,-1.8534937,-0.88253593,-0.09246431,-0.14417303,-0.5457255,-1.2447982,-0.015526005,-1.8265674,-0.7117809,-0.57545614,1.3915445,0.49912426,-0.309346,0.0034214016,0.79562914,-0.20683417,1.6551993,-0.90526396,-0.6541403,0.61628526,-1.4258184,1.1122011,1.1317103,-0.30105874,-0.4494512,1.1414616,0.6466961,-0.70709693,-0.5624749,1.3095416,0.03650164,0.7611975,-1.6172193,0.5220695,-0.16647916,-0.0975517,0.26849088,-0.64747465,-0.8614711,-1.8576847,-0.21529874,-0.74843526,0.2932857,-0.056926847,0.32824314,0.90891993,0.04011615,0.73466223,0.5115484,0.8384819,-1.6484165,0.7687559,0.46462184,-0.5091314,-1.0608344,-0.2356735,-0.56761956,1.1747398,-0.31893378,-2.1935458,-2.0787547,1.3198979,-0.6308101,0.10428462,0.6035878,-0.8040891,-0.13465166,1.4748465,-0.5511198,0.4571143,-0.92390144,-0.5809831,1.5563234,0.9921049,2.7331266,1.3867824,0.5792315,1.8088373,-0.7109657,1.1727881,1.9893643,-0.43133026,-0.6919061,0.21915239,0.019947872,0.0038682278,-0.5379555,-0.5810708,0.6315903,1.2629968,0.6585483,-0.9958348,-1.9655495,-0.06637265,-0.73047644,-0.7760134,-0.3798641,-1.5549845,-1.9910511,0.28889865,-0.40456605,2.059878,-0.007737519,0.09748798,0.7861945,-0.06861606,1.0920649,0.030527085,0.7245283,0.39530233,1.0847003,-0.26975402,0.11159479,-0.7831477,0.5344602
MMRF_1274,0.7010868,-0.67406887,-0.9755932,-1.0127914,1.3441772,0.67816335,0.5439683,0.1139575,0.07802365,0.77306134,-1.3545702,1.3697644,-0.6965506,-1.6532277,0.86090124,0.19801868,-0.67074996,-0.5869233,-1.2087765,-0.104768634,-0.006542255,-0.9075039,0.05351565,-1.4983853,0.30907142,1.0559633,-2.0193372,-2.393692,0.7209433,-0.004465267,0.7049593,1.2563657,1.7338278,0.31499377,-1.4311084,0.1931246,-0.47828618,-0.14180753,-0.17261235,-0.08192296,1.6341075,-2.0455494,-0.7988705,0.5920494,-1.779867,-0.054399733,-0.05877339,0.73734343,0.9956297,0.9304964,2.0046244,1.6823881,0.58849114,0.836565,-1.2327584,0.252038,-1.6412561,0.8848769,-1.4169269,0.98763466,0.53398144,-0.53219503,-0.45529574,-0.74376965,0.6062281,1.9519463,0.17738429,-0.82538563,-1.9835497,-0.7694607,0.17702286,-1.8736221,0.53954875,0.3695022,-1.7316693,0.2534872,-0.019886065,1.09353,0.38588744,-0.119471736,1.1071348,0.21808708,-0.91795295,-0.3532226,1.3642461,-0.32409915,-0.88067055,-0.36511564,-0.08539329,0.8019022,0.1147943,0.2271034,0.974858,-0.77107316,0.6255057,1.4419928,-1.1076474,1.0838844,0.6952205,-0.471541,0.6289792,-2.878397,-0.31422234,-0.25012085,0.031742245,0.19529898,-0.57454467,0.49222958,-0.7707363,-1.7734095,0.6588743,0.24111013,-1.2349364,-1.3509588,1.6343781,1.0647355,1.4698052,-0.115961626,-0.07873835,0.3597226,0.22034411,1.2076255,0.6905201,0.3701476,0.9872843,0.5155719,-0.8701333,0.87675244
MMRF_1037,0.287925,0.54785407,-0.7871327,0.73598385,2.147096,0.20004188,-0.44912505,-1.434351,0.1237478,-0.7183094,-0.40747395,-0.3296661,1.0212438,1.5565335,-1.7975727,0.49441296,-0.25868428,1.4886569,-1.5025119,-1.1313075,-0.15250468,0.07477924,-0.15301052,1.4907676,-0.18769106,0.42519706,-1.1579492,0.11764622,0.12391582,0.16149129,-2.7002845,0.2974367,0.038452648,-0.40755752,-1.2891663,-0.8597773,1.0116961,0.45433724,1.933143,-1.8616105,-0.21513951,-0.65713614,0.46235734,-0.2883939,-0.6164994,2.040438,1.7539828,0.6302122,1.0576838,-1.1711016,0.75551885,-0.5325441,-0.9137016,0.5101017,-0.8786942,0.48950964,0.5543597,-0.61001,1.4465704,1.3647547,-0.81778693,-0.15438728,-0.66901624,1.3728627,0.67909086,0.3214118,0.75951755,-1.6578959,-1.161308,-0.83590275,0.804973,-0.5039486,1.6880827,2.688627,-0.92000246,-0.6294339,1.2402388,-1.1579818,-0.5855278,-0.74043804,-1.1822133,0.04647211,-1.149652,0.39776063,-0.2217421,0.86472064,0.9895826,0.46280786,-0.0066479333,0.4063876,-0.06135525,-0.83133435,0.39675847,-0.4041611,0.75360525,2.1353498,1.1683364,0.37429756,0.8322916,-0.060419273,-0.68016654,0.50797534,-0.43689403,-0.5901149,1.6513197,-0.37055516,-0.7918961,2.1986203,0.6133214,-0.28387845,-1.565409,0.977155,-0.34553668,-1.2602718,-1.907743,-0.49111173,-0.010002252,-1.4235849,-0.61011815,-0.88070685,-0.86632323,-0.38588527,-0.92359567,0.6371994,-0.8796502,-0.65727055,0.7933777,0.942832
MMRF_1033,1.2322751,2.3852334,-0.10155747,-0.34943494,1.4672216,1.2289234,1.4985257,0.8284329,-0.00057951733,-1.8660152,1.6245965,-0.9209001,1.1558069,1.9379579,0.09219318,-1.5452482,0.13396055,0.31462634,-1.1361771,-1.1634123,0.620794,-1.348176,0.34936592,0.14068264,-0.6638812,0.77507466,1.5835271,0.37816864,-2.819398,0.09653327,1.1745117,0.037660744,-0.7444853,-0.27685842,0.33073193,-1.4745136,0.9734512,0.94242674,1.319305,1.3429527,0.37678894,1.0677186,0.7540701,-0.15688306,-0.87391824,0.58764935,-2.1817732,0.27862084,-1.2832215,-1.1619164,0.27533975,-0.5305449,-0.59764826,0.5643226,-0.094457515,1.0304412,-0.2234588,-0.97913885,0.56943756,-0.7047029,-1.1905446,0.85548186,1.0754535,-0.6813845,-0.1402908,-0.62958807,1.7519203,-0.35823494,0.6397617,-0.98569757,-0.40871307,0.027532887,1.0891281,0.7899684,0.24127398,0.03544513,-0.23675396,-1.2481846,-0.0554808,0.67080504,1.0395908,-0.44532657,-1.0040476,0.49811012,1.2853607,-1.281209,-0.38367277,1.0849863,-0.27656177,-0.48767656,-1.7161881,0.82238626,-0.8237045,0.6156066,0.58480626,-0.33589366,-1.1401619,0.95334226,-1.2031353,-0.73990625,0.07086174,1.5795759,0.28651446,0.025176052,-0.8086696,1.5188344,0.19807146,0.6457514,0.06043292,0.67564726,0.89475846,0.3229717,1.2897255,-1.2646793,-0.37524527,-2.3793864,1.085755,-0.029544653,-0.9620017,0.183306,-0.6351882,-0.62798005,-2.2006016,-0.15949574,-1.881264,-0.8584363,-0.58053505,-0.5454433
MMRF_1031,-0.094753176,-0.23232101,-0.3342495,-0.52765447,0.47526938,-0.50070405,-0.12704419,0.32302386,-0.067397915,1.2145212,-0.642593,0.47331735,-0.46311632,-0.17392246,0.7154747,1.7478441,-0.04160603,-2.056529,-2.2448862,-0.228342,0.85075766,0.33845112,0.46891907,-0.427836,0.17525521,1.8293624,-0.12278353,-1.7711644,0.50084054,-0.6600503,2.6990924,-0.027015215,-0.11729312,-0.5587403,0.1229008,-0.5259333,-0.68663824,-0.4674611,-0.9222605,-0.068101145,0.20707995,0.85444444,-1.3475456,-0.90894186,-1.5187441,-0.9392774,-2.801761,1.0109186,0.7984944,-0.3229034,1.2334312,-1.4973305,2.7048066,0.0956214,1.1891668,-0.59788823,-0.77532804,-0.68312055,-0.967822,0.9313137,-0.27445194,0.9527318,0.4452785,-1.7695355,0.7497758,0.15840346,1.1336442,1.1119254,-1.2532371,-0.67816496,0.78898346,-0.6713312,0.3447632,0.6099041,-1.3258467,1.1084639,-1.2258055,0.28717023,1.179713,-0.24957739,1.8755758,-0.013599912,-0.48073882,0.72208756,-0.92817056,-0.14002055,-1.6148404,0.0327473,-0.31825584,1.7929752,-0.84938055,0.34916478,-1.8591722,-0.2507122,0.15305458,0.9692046,0.5750253,1.1098274,-0.66433233,0.55586433,0.49226716,0.016937498,-0.63837117,-1.6295575,-0.7291942,-0.27554235,1.5941957,-0.10145922,-0.30478105,0.8358734,0.66424716,2.7020996,1.9371785,-0.43191838,-0.3354293,-0.18290281,0.32822922,1.110722,-0.59687316,-1.1726879,-0.60189354,-0.4391368,1.0503844,0.31168723,0.26897308,0.49567342,0.15984538,-1.4349841
MMRF_1068,1.6056596,0.3342452,-0.26716885,0.86661756,-0.32479203,-1.9516777,0.88931406,-0.52447,0.10808489,0.3705,-0.14753594,0.6908119,-1.1038797,-0.60528725,2.0605378,-0.79202104,1.4708788,1.7305496,1.0321816,0.24289815,0.7583597,0.21886083,1.3513696,0.16603523,0.4987962,-1.4988256,-0.7898717,-0.95197546,-0.45859674,1.0372568,-1.5185385,-0.29639414,-0.40533188,0.55569047,-0.5535281,0.94279295,-0.2735415,0.8688898,-1.3998433,-2.1681283,0.052032486,0.058688756,0.15476187,0.63848203,0.73422337,0.21920139,0.26514578,-0.88889366,0.051309176,-0.4308969,-0.090231225,0.39442825,0.13207352,0.48428205,1.6391804,0.7552651,-1.268138,-1.7657131,0.21405405,-0.4841025,0.4853159,0.49902782,0.59293497,-0.91086847,0.8234802,-0.020217728,1.1860797,0.28551513,0.19080748,1.3797852,0.7817695,1.0565346,-0.5504202,-0.42839816,0.048515495,-1.7858264,-0.6696128,-1.0519357,-1.3129901,0.8254323,-0.72869587,-0.01410412,0.99823356,0.55762666,-2.0632346,0.9886447,-1.0827409,1.8449697,-0.72973347,0.040704034,2.5829883,-1.6861346,-0.56539476,-2.217354,0.58694077,0.189369,-0.41620383,-1.3800737,0.8150359,-0.31914562,-0.64886224,0.7843114,0.3672533,-1.0457579,1.0496912,-0.88808894,-0.5544466,0.7148776,0.025703566,-0.89064395,-2.6366675,0.4108262,0.7992054,-0.37967372,0.0943625,0.7186405,0.6321044,-0.17732169,-2.3080592,0.9503742,-0.39838853,1.427801,-0.04796055,2.3018026,-0.851649,0.5908983,-0.62297815,-0.93836474
MMRF_1078,-0.13342844,-1.7549318,-1.3936179,0.6154677,-0.29645935,-0.39642534,-0.91531175,0.8004706,-0.16200411,0.58746827,0.046335667,1.7284112,-2.5634637,0.2742532,-0.39611036,1.071637,0.68563455,-1.441136,-0.37806517,1.1218885,0.28757712,0.3365822,-0.83660704,0.09051969,0.92953557,-1.060677,-0.33112574,-0.8497382,1.5407884,-0.13414074,0.54153824,0.059252758,0.65530264,-1.1473233,-0.28280047,0.49982196,-1.9975995,0.54530066,-1.23146,-0.15264747,-0.91708195,-0.83456165,0.2167617,-0.12651226,-1.3596259,0.29101515,-0.29733214,1.250088,1.9345926,0.4192881,0.59978116,1.9422034,-0.028964575,0.96935666,2.1307123,-1.2236301,0.3186378,-0.094260484,-0.16988704,0.36250317,0.5351014,-1.9894819,-2.0350254,0.883153,0.28044838,-0.19054839,-1.5233036,1.0632063,-0.6881013,-0.052775774,0.16623998,-1.9606917,-0.039447747,0.22167632,0.9870917,0.2957969,-1.2343756,0.39430556,0.5073269,0.0999697,0.84694195,0.7461208,0.75045764,-0.075560406,-0.77644193,0.18367776,-1.1868081,-1.0182803,-0.4211465,0.5387487,-0.33563873,-1.1269693,1.5858508,-0.41970438,-1.118024,0.27363524,0.053860553,1.4635222,-1.2478733,-0.0045786863,-0.7857434,-3.0750299,-1.3856691,0.0069346176,-0.32718143,-1.4311455,0.7765167,1.0012372,0.29986358,-0.6212889,1.4144392,-1.7829368,-0.63511336,1.5763605,0.39750716,0.80810046,1.0382484,-0.24945414,0.2889191,1.0429102,0.265807,0.12370329,1.4196225,0.98576653,0.61786705,1.6740612,0.72865593,1.3967412
MMRF_1086,1.2018031,-0.6286784,-1.155961,1.3698008,1.7182984,-0.7200497,1.3595219,-0.5687821,-0.04541868,-1.0311128,-0.49092588,0.6805677,-0.44863188,0.9854706,-0.92198944,0.47097653,-0.44943523,1.5690953,0.38164476,-1.6785096,-0.062464356,-0.59538054,0.34106103,1.2902218,0.646595,-0.5281374,0.5675496,1.3375422,-0.40631238,0.66020757,-2.2867062,0.16281353,-1.4169488,-0.99586713,-0.3489538,-0.50656027,0.6120722,-0.15407558,1.52252,-1.2725848,-0.48458177,-1.5905719,0.35158676,0.3176724,0.31448907,2.3996012,0.9581038,1.1691792,-0.24253376,0.18816735,-0.4450222,0.7902323,-2.3874805,2.0983396,-0.5792298,0.022235889,-0.7046159,-0.56066716,1.3185246,-0.79668796,-0.9390284,0.8686288,0.971598,1.0222893,1.5683959,-0.54396075,0.79453295,-1.0243267,0.24881744,0.027253777,1.3551029,-0.25729233,-0.21173288,0.24779722,-0.37809262,-0.36050835,0.9684693,-1.3266385,-0.9074275,0.12760623,-1.1106997,0.95050865,-0.097231194,1.3531098,-0.35649768,0.30894887,0.2420456,0.41341063,-0.30315298,0.055180624,0.5754162,-0.3045433,0.25012174,0.027314033,0.41446894,0.656057,0.53076124,-0.7574981,0.042148143,-2.017124,-0.6516449,0.9029978,0.05339258,1.0033447,0.8919896,-2.3134427,-2.4615898,1.1014785,-0.076037,1.0491037,-1.7714516,-1.3337127,0.3560169,-0.13869953,-0.89642096,0.90913665,-0.22902144,-1.4554281,-1.7702345,1.2017158,1.1960207,0.9569537,-1.6576989,1.1037267,-0.5931619,-0.7552518,-1.091153,0.92769104
MMRF_1082,1.5700475,-0.6747826,-0.048125736,-0.016255526,-0.2351122,0.61322856,0.23560855,0.6675335,0.92521536,0.32577586,-0.27965978,0.63926214,-0.4758497,-0.34855506,1.0153866,0.0037598088,0.59336245,-1.0958004,0.38474363,0.21275854,-0.38085967,-1.1579311,-0.20369773,0.0068775136,0.5572351,-0.6539487,-0.34851748,0.44191125,-2.0406728,-0.46739674,-1.0803745,0.012597755,2.0108519,-1.4460396,1.6101809,-0.14046608,0.08361629,1.3382022,-1.941332,1.6547351,-0.17866057,-0.60715216,-2.0992236,1.0456142,0.034178793,-1.6558236,-1.8138559,-0.7928285,0.35181925,0.80268973,-0.25219646,-0.10238722,2.1916122,-0.72578645,1.7007502,0.7381893,-1.499735,-1.0247611,-1.0450805,-0.72657907,-0.0033130404,1.0099269,1.507871,-0.611161,1.7089951,-0.3873415,-0.47382852,-1.7812636,0.6409703,1.0543389,0.85871124,1.4462878,-1.3702984,-0.6486297,0.12871513,-1.4879515,2.1002321,-0.6121652,0.57463664,-0.1755063,-0.014143484,0.37622678,0.9141302,1.3447286,-0.9917942,1.4988,-2.0604193,0.054131806,-0.064408705,-0.71174556,0.10846585,0.079731196,0.6343686,0.14291385,-1.0020305,0.21156836,-1.73208,-1.4237858,-1.4232097,1.6935018,-0.6482241,1.1743027,0.35708973,-1.0751375,-0.28007972,-0.31642303,-0.7709794,-0.15599328,0.60342354,0.066370085,1.260952,0.7069816,-0.9513861,1.1033713,-1.7469702,1.3051786,0.008171713,-0.35794345,-1.9946495,-0.4251956,0.43360755,1.0822201,0.65751195,0.42188907,1.0454196,0.13635851,0.3949571,0.6208424
MMRF_1092,0.3300474,0.8489644,-0.7535627,-0.49363625,0.8686945,-1.3250515,-0.43394086,-1.402661,0.083464466,-1.6597551,-0.17857623,-0.9482777,1.5854534,2.6961966,-0.21863866,-0.70101315,1.383371,1.6723945,-1.7413071,0.13526061,0.9902089,0.18725733,1.2248887,1.1720531,-1.112734,0.32913637,0.7085391,-0.42730507,0.71438175,0.97550315,0.38633952,0.12052503,-0.8758193,-0.75664747,-1.8896055,-1.2090495,0.8865838,0.019508537,1.6537441,-1.3345526,0.37553668,0.5381444,1.1110585,-1.2008041,-0.6858596,1.3922402,-0.3071133,0.066103294,0.17517011,-0.86890674,-0.20223223,0.6320279,-0.22107284,0.91121846,-0.92629564,0.60485494,0.20449907,-2.417194,0.5956653,0.8101033,-0.051405095,-0.9442625,-0.5997825,0.79425305,-1.3856428,-0.14749807,0.52827454,-0.15874675,-2.2031107,-0.47942477,0.8175172,0.1083365,3.121393,1.1844053,-0.3864308,0.4920665,-0.54585534,-0.15796924,-0.09859855,-1.2766869,-0.4346897,-0.28191656,-0.17165145,0.4162944,-0.017066471,-0.81044143,1.0260723,-0.47404835,-0.5800003,0.18110725,0.06116276,-0.42347983,-1.353481,0.44670102,0.866546,0.91022193,0.20727904,0.051014118,1.490813,-0.1817632,0.30282426,0.62408376,-0.77921236,-1.3110845,1.6164556,0.5215624,0.24318472,0.7887194,0.3275771,0.3152142,-1.2332964,0.65576786,1.3270907,-0.9359648,-0.6912744,-3.2332048,0.28499678,1.7070168,-0.5546515,0.46156013,-0.34845674,-0.37971038,-1.7191858,0.20434622,-1.5984825,0.76753503,0.8549319,0.1418303
MMRF_1325,-1.2831469,0.18039948,1.4210349,-0.98130685,-0.9262163,1.162924,-0.9736294,1.6408242,0.10094871,-0.89242893,0.39785427,-1.6287646,-0.49922028,0.3351861,0.16910547,-1.0517625,-1.2091295,-0.50841624,1.1729193,2.1653247,-1.13521,-1.561768,-0.08424775,1.1042669,1.241684,0.5257542,0.072145775,0.48887196,-0.7236349,-0.76236004,1.9461266,-0.67020273,-0.46159703,0.81050634,1.5588169,-0.61691695,-0.91889423,0.06303914,-0.80925304,2.3986645,0.036245264,0.8716507,0.37326837,0.17072645,0.5263163,-0.9642595,-1.4481548,-1.110646,0.5486263,-0.54925776,-0.9719603,-0.62063426,0.20986646,0.8896372,0.7375075,0.41147152,0.9379201,-0.35132855,-0.17931263,0.2260353,-0.7288373,0.8883005,0.074642345,-0.24456432,-0.2404052,-0.064306125,-1.0039961,0.080539726,2.1851728,0.923347,-1.2452928,1.770309,-1.9087771,-2.2893245,1.9665807,1.178192,-0.18064734,-0.44525412,1.1008226,0.09873134,-0.20971231,-0.10876916,0.46108964,-0.78674865,1.0027765,-0.97539103,1.0033108,-0.050169848,-0.50890905,1.0059174,-0.72998434,-0.044773,-0.67119735,0.22322515,0.6450723,-1.2312325,-0.42907348,-0.56768996,-0.26421088,1.0027274,-1.1157398,-0.3816876,1.2682533,0.9798205,-2.2966583,0.6451377,0.20513296,-1.7845662,-0.66091627,1.7193841,2.1091516,-0.12634897,0.059712887,1.0847231,-0.7604307,-1.2633573,-0.43410942,0.27365646,0.6373826,-1.2100493,-0.7378848,-1.3789161,0.9294096,-1.1405902,0.31472254,-0.58728087,1.5051507,0.5904014
MMRF_1364,-1.3274006,-0.14635584,0.10713263,-1.042523,-0.5710843,-1.754748,-1.4193124,-1.6528336,0.69140667,-0.8698711,-0.7508983,-0.592454,1.7336689,0.82977283,-0.46436346,0.9555278,0.9907802,2.0565953,-0.10557771,-0.754138,1.3001564,2.7375076,0.4373969,0.13330153,-0.30122486,0.51534104,0.047621958,0.5466669,1.7638934,-0.32048413,0.18627508,0.27184203,-0.9967099,0.7068053,-2.0584874,-1.2104883,0.23723787,-0.73994744,0.2537658,-2.7001288,0.64432216,1.7984288,-0.7801351,-0.5068617,0.6755607,0.95148623,0.5346129,-0.17477947,-0.90334475,-0.27284214,-0.85714364,-0.8345245,1.0219622,-0.18820536,-0.24181971,-0.2885547,1.1099622,-0.64535743,0.42270616,0.576977,-0.14553571,-0.8242038,-0.923564,0.44150686,-0.49221593,0.41749156,-0.758598,1.2696651,-1.6513057,0.6499527,0.18956235,0.5727144,2.2918546,0.42590865,-1.5034232,0.44569802,-0.86129105,0.4120949,0.2770405,-0.7458694,-1.5946045,0.7318526,0.028165706,0.23484978,-0.010643687,0.17981513,0.57906187,-0.41577977,-0.2551539,0.018023089,0.46148852,-0.14499612,-1.5505109,0.34528068,0.5978157,-0.64887,1.5416446,0.533928,0.8981044,-0.6884333,0.1367954,0.51851445,0.09970914,-1.4461968,2.5421185,-0.061299253,1.2186326,0.9669218,-0.2187501,1.3097495,-1.7774681,2.290726,0.827211,-1.329019,-0.631277,-1.4264234,-1.1472591,1.1035497,1.1104966,-0.08747681,-0.7188623,-1.892439,0.016617185,-0.56482387,-0.1286238,0.88941026,-0.18189597,-0.5123583
MMRF_1383,1.9353026,-0.31374055,-1.096894,0.5171835,-0.837177,-0.4734601,1.8191503,-0.05061166,-0.3108304,-0.075298965,0.2880932,0.47323176,-0.28688604,0.5861052,0.4223162,-1.6369274,1.1509535,2.271891,0.4389928,-1.9879853,0.08090701,0.8680538,-0.57916504,-0.45296618,1.090905,-2.0101106,0.9090507,0.747804,-0.13395222,-0.026128817,-2.451159,1.0921667,-1.062393,-1.1456329,0.46097094,0.4020614,0.05580674,0.73711264,0.8403245,-0.6489793,-0.13090286,-0.754782,0.24363656,-0.22521573,0.96642005,1.6343882,0.5199781,0.7616292,-1.7170153,0.25383916,-0.8125965,-0.38365433,-1.285966,0.16461547,0.12101576,0.3545813,-1.5501096,-0.6485078,0.72270334,-1.6552399,0.366392,0.7844232,1.3114458,-0.36692852,1.3488054,-0.84335285,1.5949559,-0.73697877,-0.2732711,0.56062686,0.6941953,-0.16765633,-0.078392036,0.0038631326,0.09953977,-1.4448799,-0.37147084,-0.08871885,-0.66724837,0.6851044,0.1944467,0.320073,-0.3960573,0.946006,-1.2931861,1.0523027,-0.8538177,1.2164525,1.1755016,-0.6411284,1.3197374,-0.72328985,0.98264676,0.033629626,0.20887274,-0.7354186,-0.2919728,-0.023336556,-0.64326525,-1.4979067,-0.49262652,1.4497508,1.3601918,1.6169533,0.4095826,-0.7719485,-1.4565938,0.0010362864,0.26781598,-0.86353034,-2.89799,-0.9177203,0.23533459,-1.246489,1.0696123,1.573643,0.14248551,-0.41944188,-0.7695724,2.4342482,0.291644,1.4049015,-2.131765,0.17328803,-0.5377285,0.5852785,-1.2915173,-0.26953307
MMRF_1377,1.904013,0.19784419,-0.01239591,0.24695529,0.028120087,-1.149586,0.8971269,-2.101362,-0.10188535,0.115372784,-0.2526984,0.45831868,0.6550564,0.63308084,-0.5559097,0.27962047,0.102142245,2.2371984,0.7071713,-2.7798052,-0.9453473,1.0186782,-0.7335943,0.73596364,0.35530508,-0.5333759,0.12727259,0.99613076,0.33208957,-0.56454074,-4.102125,1.2928424,0.30779126,-1.3782876,-0.17527598,1.2171768,0.15072264,0.6026781,1.0405588,-0.749123,-0.8017779,0.08262458,0.10721402,-0.030024616,0.73964226,1.8947661,1.5538088,1.2289426,-2.0041902,0.33775443,0.02623196,0.57766217,-0.9869673,-0.36873066,-0.9844303,-0.38069248,-0.34971783,0.23930536,1.4341204,-0.25714737,0.10398117,0.4783377,0.8334883,-0.22559667,0.39268732,-1.0398338,1.11474,-0.6292744,-0.017288612,-0.84744924,0.97216386,-0.18805143,1.2496144,0.31767327,-0.26045707,-1.7543905,0.6373406,-0.46146008,-0.9408924,0.0311412,-1.5488183,0.4908489,-1.6207205,0.27959508,-1.5594628,1.1991619,-1.0625118,0.7908923,1.013644,-0.06294327,0.90493137,0.14108646,1.609878,0.3513239,0.64039284,-0.34484977,0.3599531,-0.53005505,0.2875442,-1.3817506,-0.2008419,0.6004105,1.0960692,1.1393013,1.6395193,-1.1915326,-1.0184716,0.20620985,-0.3104674,0.22118652,-2.6698081,0.29395378,-0.38131723,-1.3497434,-0.5001048,1.3209727,-0.18461609,-0.90210646,-0.09635398,1.2851335,0.802139,0.5136572,-1.1351348,-0.7854221,-0.043606788,0.43911487,-1.2155596,0.021091543
MMRF_1360,0.90537286,0.7780955,-0.4938543,0.054148737,0.20473915,-0.14053386,0.5826295,-1.1837133,-1.3466438,-0.084630586,-0.545142,-0.20319901,0.7410508,0.16606224,1.7432575,-0.42074764,0.055782806,0.6076441,-2.2616365,1.3113775,1.6573223,-0.34441978,1.7726777,-0.58445203,-1.034522,1.1256043,0.2255287,-0.8200361,0.20356399,0.8746685,2.0252519,-0.9029861,-0.0789938,0.50559646,-1.1312271,-0.46345854,-0.024321673,0.27464595,-0.022212148,-1.6532211,1.0104122,0.80214334,-0.44494772,-0.37165767,-0.4188345,-1.4375106,-1.3167388,-1.7993125,0.2106416,-1.1110762,0.50428224,-0.86403185,2.1757905,1.2227727,0.13087377,0.69176924,0.0049038306,-1.41287,-1.185075,1.2542329,1.2590588,0.31917542,-0.5614892,-2.5855668,-0.38343412,0.55012727,0.59673154,0.39774722,-1.0416642,-0.018693663,0.3565194,1.1208901,2.0124679,0.4105886,-0.9376572,0.75180554,-1.2070994,1.3021646,0.38651642,-1.4313327,1.1799496,-0.8163898,0.025260169,0.40733838,0.048523143,-0.6710307,-0.77537745,-0.9335294,-1.4534907,-0.02491001,0.39171746,-1.4073172,-2.209814,-0.8323882,0.57653,0.20963676,-1.1825109,0.8769579,0.4939869,1.8807199,0.13211553,0.71315867,-0.28931546,-2.5240128,0.070640944,0.85492045,1.6367841,-0.02840744,-0.4353818,0.16269141,-0.17867306,2.2443452,1.1624819,-0.3282168,-0.3550211,-1.1870444,0.8379434,1.2477369,-0.018499658,-0.407829,-0.62439305,0.13084652,0.42912167,0.8070973,-0.7857131,-0.23815177,0.9899886,-0.7150804
MMRF_1371,-0.8452292,0.24010801,-0.10636035,-0.59680045,0.15080217,-1.4413679,-1.084282,0.49886623,0.45618498,1.3521967,-0.5915821,0.19307417,1.037147,0.32659864,-0.30281502,2.1517503,0.85103565,-1.9619708,-0.7530617,-0.73332936,0.6408284,1.6028477,0.96091783,0.04682368,0.019690562,-0.97967887,-0.8538841,-1.2567079,1.7881429,-0.9241903,2.005085,0.4729122,0.70644355,-0.4146586,-0.09836409,-0.27267882,-1.2506568,-1.7369983,-0.6676059,-1.437752,0.5496192,2.203157,-0.53088284,-0.76330805,0.44625252,-0.6883403,0.053328138,1.0737926,-0.31855765,-0.40349504,0.56035274,-1.0203125,1.4155611,-0.6990541,0.40340838,-1.1939518,0.1810039,0.097222365,0.3155339,0.89480716,0.40249828,0.45799798,-0.3501885,-1.0964446,0.14854923,-0.62453586,-0.27917016,1.786621,-1.7366023,0.58210444,1.5624678,0.056509614,0.32981938,-0.46090257,-1.710795,0.15075907,-0.8790686,0.29224837,1.1185415,-0.45632368,0.80553436,0.08376067,-0.83220696,-0.06350827,-1.2511674,1.1299477,-0.12011065,-0.69401854,-0.16960214,1.1978443,-0.106524155,-0.60824484,-1.2471626,-0.028133508,0.39925632,0.56790876,2.2592106,1.0062279,0.20311727,-0.5089893,-0.10441965,0.6360025,-0.96629316,-1.7490702,0.932789,-0.06385329,1.2730726,0.060370013,-0.29364982,0.5826668,-0.85618985,3.062875,1.9333587,-1.1385722,0.47986925,-0.43624136,-0.8359268,0.7767112,0.8799575,-1.212376,-1.7132334,-1.8528544,1.297404,0.058500484,-0.6314295,0.75093526,0.054976664,-1.9590403
MMRF_1089,-1.1199794,-0.41203466,-0.8042933,-0.36933222,1.1838981,-0.12582162,-0.0505639,-0.34009504,-0.15651801,-0.500957,-1.2303513,-0.85683066,1.4945062,0.5913963,-1.625162,1.5333354,-0.1296351,0.3958615,-2.103292,-0.12865956,0.6075732,0.98616844,-0.06333913,-0.024695165,-0.73900557,-0.16039297,-1.0938672,-0.78549045,0.44892415,-0.7016061,-1.0049316,-1.3640307,0.33286262,1.4560362,-1.0390558,-1.2521197,1.2722288,0.020254942,0.6212635,-1.3590467,0.55827606,1.2891612,-0.20618586,-0.2357206,-0.24215828,-0.00018001348,1.5488653,0.7263474,0.27246144,-0.7499723,2.4847276,-1.265335,0.82414776,-0.31727925,0.21396063,1.4407808,-0.08440698,-0.63699603,-0.44922897,2.5555232,-0.21388464,0.16133302,-0.8500237,-0.12218288,1.417003,1.3422811,2.4379692,0.15590416,-1.7271662,-0.28713527,0.9211133,0.37385768,1.2771592,1.3959539,-1.2456945,-0.3437214,0.19122234,-0.002189124,-0.03625034,-0.83098644,0.7366534,0.35232896,-1.4396622,-0.5922636,0.11509799,1.674193,0.40150946,-0.19611134,0.1787485,0.0017865561,0.037226945,-0.9896175,-0.3269658,-1.1079322,0.52933645,1.3419856,0.65651155,0.5851685,1.4921374,-0.015040298,0.22358315,0.99966156,-0.36250636,-1.2478092,2.0177422,0.8924581,-0.18505093,2.1968052,-0.010104046,-0.7887486,-1.353856,1.6755174,-0.80102134,-2.118828,-0.17678367,-0.92154086,-0.36834237,-0.95815384,0.47615862,-0.27172083,-2.287478,0.3402428,-0.6522759,0.63858914,-1.4635073,-1.2224869,-0.16700782,-0.6754376
MMRF_1365,-0.45170358,0.9138228,1.5155253,-0.26804534,-1.4207894,-0.8017229,-1.7209078,-0.74126744,1.1905043,-2.3956246,0.40931928,-0.74749583,0.78504467,1.2350464,-1.4090734,-0.30559692,-0.85603225,2.042184,0.44041762,0.43615296,-0.6871822,-0.879456,-0.6326209,1.5538664,0.7428158,0.6159383,0.30898297,2.112514,0.08042326,-0.9068926,-1.4605296,-0.94522727,-1.3368895,-0.48471937,-0.049486693,-0.4330766,0.31740892,-0.12629652,0.8792138,1.3732266,0.25655678,1.5596647,1.1963557,-0.023943113,0.8597054,1.1301363,-0.5584083,-0.40594146,0.25226432,0.50758916,-1.5602443,-0.01793482,-0.83571106,-0.020095587,-0.1374815,1.0205274,1.3723844,-0.70012724,1.5906401,-0.07304455,-0.4835335,0.18725438,-0.9092024,0.594125,-1.6398821,-0.9618376,-1.2829051,-0.6370198,2.263061,0.0059382953,-0.81205404,1.8253818,-0.2714016,-0.84567827,2.6370175,1.1213073,-0.41803998,-0.9172623,-0.69380856,0.31250298,-1.9305829,-0.2970724,-0.10433334,-0.19881377,-0.19555938,0.53295344,1.8552257,-0.25809282,0.4883514,0.005641194,0.33719686,0.2872333,0.04190094,1.309441,-0.110445805,-1.1245555,0.2640318,-0.25631586,0.14521654,0.19101016,-1.0563862,1.2631834,1.3653648,1.0203141,-0.32161435,-0.3556529,-0.25617954,0.042608462,0.16255015,1.4354955,-0.13921192,-1.0314288,-0.049611814,0.4364261,-1.2348533,-2.22341,-1.7992756,0.782293,-0.061601,-1.1089776,0.6874558,-1.2180055,-1.1638364,-1.3702412,0.04422999,0.08418738,1.1838496,1.5344565
MMRF_1356,0.0021617548,-0.47921875,-1.4676206,0.05399636,-0.6794316,1.7574189,-0.68360037,1.8885084,0.48684442,1.7127796,0.29050818,0.77338046,-1.5106422,-2.0056696,-2.2182596,0.46447894,-0.9313159,-2.2144141,-0.24297671,0.9937204,-0.8322078,-0.006028397,-1.2013186,-0.3004225,0.34608474,0.40333414,-2.5783176,-2.3229778,1.1431105,-0.24364772,0.89524716,0.90964496,1.1662179,0.06345874,0.82332706,-0.27672756,-0.8447516,-1.2265761,-0.75515354,0.8682621,0.28223908,-0.19983171,0.008507287,-0.034952313,-0.24679817,-0.79841006,0.014208622,-0.0074730995,2.5049045,0.4375359,1.5349616,0.5112236,-0.55444956,-0.7185811,0.12504573,-0.5295961,-0.29039314,2.3958204,-1.076292,2.108225,-0.8248532,-0.022510618,0.2586296,0.079598784,1.1985778,0.00331565,-0.4008294,-0.71113217,-0.43395972,-1.7981812,1.0590886,-1.591872,-1.5516567,-1.6801724,0.20223865,0.12819752,-0.40846547,0.4368956,0.21068232,-0.24631752,1.4829738,-0.9948193,0.061090432,-0.72319764,0.032551005,0.9883863,-0.090837166,0.33024538,0.9525159,1.0634848,-0.16170582,-0.61513084,1.4623847,0.45937452,-0.5411507,1.2519172,0.8495535,0.109858155,0.1088901,0.2833468,0.114668965,-1.6597359,0.40259588,0.80785847,-0.71615916,0.24730998,0.46157986,-0.57447666,0.149843,-1.757913,-0.07040718,-0.4658968,1.1153952,-0.34316498,2.0046637,0.38759875,0.8714385,-0.3310101,1.4867682,-1.0105904,-1.2143689,0.15733925,0.8951782,-0.33278048,-0.20271814,0.1290499,0.30983976,1.4168504
MMRF_1270,2.2551224,-0.83685845,-0.09504939,0.0010339282,0.11900015,0.74630326,0.8278372,-2.1914752,0.33878887,0.9786653,-0.5430468,0.65007013,0.88841355,-0.50300765,-1.3428079,0.6225622,-0.19964807,0.119928166,0.6537622,-2.2700624,0.37841502,0.41965336,-1.4041429,-0.91172487,0.32319695,-0.3057622,-0.69991946,2.127051,-0.516384,0.106672764,-2.8397534,1.3256681,0.95424086,-1.2620491,-0.7036673,0.43533853,0.29747,0.5859264,0.5878162,-1.0116644,-0.20408887,-0.26526183,-0.9976478,0.33030853,0.8186221,1.834265,2.5022252,-0.014799279,-1.8584193,1.3620055,-0.12849027,1.1380111,-1.0492151,-0.5286299,-1.43095,-0.09624143,-0.6590748,1.6689364,0.6197476,0.26216683,-0.49917215,-0.17932291,-0.105520725,1.8525239,1.0522977,-1.1275475,-0.43215474,-0.6767589,0.6290944,-0.13456295,0.75047463,-0.39574772,0.4567938,0.8431041,-0.26721165,-0.954834,0.45724902,0.38998097,-1.5613185,0.026981322,-1.2765795,0.42100275,-0.7596235,0.37567163,-0.71978384,0.10782907,-1.0308611,-0.62330705,1.4874545,-1.790131,0.5796151,1.0397148,0.9364577,0.64960974,-0.3517293,0.3036536,1.4963726,-0.5781374,0.33297774,-0.51752734,0.34824833,-0.58149207,0.39098984,1.1374023,1.8984203,-0.2430831,-1.7299149,0.16962193,-0.3707606,-0.04215453,-0.9175464,0.07101101,-0.9252037,-1.5538657,0.32904735,1.4465401,-0.9832653,-0.5644619,-0.46868563,0.98255765,2.0313761,0.458722,-1.2245096,-1.7608955,0.6708076,-0.23176727,-0.96729976,0.87294525
MMRF_1323,0.23481856,0.57489485,-0.71036327,0.28111863,1.5245311,1.3744354,-0.016178584,0.7381042,0.21953793,2.1478217,-0.16704784,1.995938,0.23862746,-0.340195,-0.04319404,-0.16559957,0.45802182,-2.3833683,-0.4483257,-0.21013746,-0.4789845,-1.1058501,0.30704924,-2.3511565,-0.14569016,0.87038237,-1.3876563,-1.7161155,0.6659592,-0.54809934,2.3986778,2.1295853,1.4051176,-0.40939087,0.43553308,0.72592664,-0.4909015,0.62612754,-1.0175939,2.099276,0.50595874,-0.28355095,-0.24182856,-0.16576019,-0.9223316,-0.33756247,-1.5459841,2.0063977,0.65130085,0.685849,1.05232,1.0028794,-0.42460343,-0.8814891,-2.1148062,-0.2440464,-0.36089867,0.59482974,-2.2867916,0.0040401025,0.04424198,-0.44311327,0.911295,-0.46560457,-0.48235783,-0.17597426,1.3771964,1.3815717,-0.43980613,-2.0463285,0.3468539,-1.2751367,-0.47227076,-1.062209,-1.6626934,-0.8264228,0.6225667,0.50524247,-0.5413253,0.94187653,1.284885,-1.9058515,-0.98580724,-0.38140285,0.093784474,-1.3550223,-0.291224,-1.08558,0.6232333,0.21096325,-0.7619594,0.9621504,0.50197005,-1.1551673,-0.6038127,0.6973951,-0.47517705,0.26167285,0.45794916,0.39556402,1.9485655,-0.41971573,-1.3451598,0.7279122,-0.79314935,1.4644982,-0.15821442,-0.52462953,-0.28026447,-0.48184565,1.0617985,0.88074076,-0.03450303,0.50920576,1.3993009,-0.5272214,0.64317685,0.61882305,0.94028765,-0.67999697,0.37429196,0.17857413,0.98535776,-1.0251436,-0.9006883,-0.62400883,-0.39637756,-0.29337266
MMRF_1180,-0.7434171,-0.07825832,-0.21704043,0.12064223,0.6465304,-0.14193171,0.09719166,-0.019982934,-1.0255699,1.3383238,0.008581403,0.8451882,0.59210247,-0.074187584,-1.5738691,-0.5831128,0.53240246,-0.4437327,0.60284096,0.3135362,0.8503963,-1.1519524,-0.37847272,-0.3738658,-0.37806576,-0.5176918,-2.336913,-1.3915887,1.5269275,0.08017515,-0.8664732,-0.094341755,0.7320713,0.5345976,0.4441953,0.7361578,-2.2325354,-0.6154176,-0.7333472,-0.5483253,0.3020486,0.597137,1.5213913,0.48630184,-0.33449918,0.23176657,2.1158028,0.17967232,0.27051333,0.11582198,0.6978862,2.3371181,-1.4960093,-0.04114875,0.33269748,-0.10976501,-0.38577464,1.9727558,-1.2204643,0.420027,1.0707507,-0.96819323,-1.682368,1.7785412,-0.7489674,-1.1450311,-0.7477307,-0.13927361,1.5580446,0.12205036,-0.60890687,-1.0494876,-0.5226614,-0.44409093,0.61722445,-0.30440354,0.042798147,-0.5959679,-1.032659,0.15914513,0.35760602,-1.5134399,-0.337494,-0.8786199,-0.57654935,0.649126,0.8694967,-1.5514939,-0.5023172,1.0540477,-0.13261324,-0.3979817,2.7179983,-1.3172691,-0.7671375,0.6210993,0.74577564,-0.21831632,0.26324174,-0.09097594,0.63241327,-2.755562,-1.5272697,1.3908411,1.2781689,-0.25110307,-0.3436321,2.1208494,0.8527748,-1.8736199,0.42785636,-2.0328956,-1.2580836,0.4814037,-0.1871516,0.86273414,1.9880186,-0.3208918,0.50424635,0.2146234,0.7839173,0.6456993,1.2145067,-0.085528255,-0.7799884,1.0967754,0.0014692638,1.031003
MMRF_1188,1.5222049,0.32796773,-0.5369144,1.5032512,2.3204238,-1.17369,1.5835606,-0.7430539,-0.43930253,-0.5008128,-1.4845122,1.1156428,-0.5065054,1.626182,0.72803223,-0.33711436,0.99476475,1.2745391,0.78650886,-2.2126124,-0.14361282,-0.7352002,0.69889927,1.0850052,0.22718897,-0.83494925,0.90802276,1.2633741,0.15667617,-0.2289618,-1.3178961,0.75040257,-1.0463855,-1.7557659,0.29362857,0.053830802,0.33711416,0.6312644,1.7124757,-0.6153663,-0.5514027,-1.291731,0.32289347,-0.22941145,-0.8242541,1.9635217,-0.33669135,1.2709026,-0.4266437,0.57500106,-1.0647254,0.9059228,-0.7325018,0.8985104,-0.27269852,0.06381899,-1.7126346,-1.1762751,-0.19943783,-1.2451153,0.20388383,0.8625437,2.2711184,-0.019083343,0.35296327,-1.6464131,1.6335157,-0.8429127,-0.22552764,0.41739848,1.3132867,-0.1393615,0.21280296,-0.25363496,-0.4816479,-0.6674735,-0.0070222197,-1.6337802,-1.7109412,1.0579848,-0.5286884,0.65773886,-0.04843635,1.873292,-1.3047742,0.7465125,-0.74465847,0.43923151,-0.27279243,-0.125518,0.2632122,-0.5734994,0.09100373,0.16106483,0.031003062,0.0974687,-0.5216567,-0.39634937,0.1745269,-1.3549142,-0.00082359463,1.345132,-0.51323175,0.688164,0.7649877,-1.3257289,-2.2950828,0.97245866,0.7687975,0.39777547,-2.333183,-0.52927595,-0.07341416,-0.11433576,-0.5179307,0.36297297,-0.039579235,-0.8492691,-1.3501148,0.9405423,0.97937405,1.8428638,-1.774092,1.3273528,-0.8372839,0.28155187,-0.6571341,-0.1278144
MMRF_1300,0.29335698,-1.7200361,-0.67841953,0.563951,0.15737866,-0.57569706,-0.13600497,0.22810782,0.07917227,1.8098793,-0.47413743,1.4926027,-1.7525374,-1.123324,1.0397853,1.5014971,0.89644045,-0.81021,-1.2660174,-0.00025706273,-0.20444094,-0.543081,0.4059907,-0.6528665,0.74142414,-0.28168258,-1.962836,-2.3910224,0.30859303,0.17954226,0.3245755,-0.050907005,0.228924,-0.31019586,-0.5442232,0.3781482,-1.9172682,1.0632925,-1.3264652,-0.42127025,-0.57073486,-1.5015359,-0.5258923,0.13373235,-0.27118087,-0.07507584,-1.0952312,0.77109426,1.2972022,0.31113768,1.1864079,0.5118864,1.2800385,-0.5214447,1.7615801,0.37313792,-0.7595948,-0.36767,-1.4967796,1.5268538,0.9216498,-1.2002186,0.37047324,-0.060380965,0.2045801,1.2731364,0.42723405,-0.81004393,-0.5638721,0.45718557,-0.44589227,-2.128755,-0.78888834,-0.32227665,-0.19572704,-0.8693615,0.16065727,-0.56414956,0.60435843,0.65534806,1.0731065,1.5019236,1.3487166,-0.5989383,-0.22871003,1.9308435,-1.1416606,2.3083549,0.17274083,0.47528958,1.0228354,-0.301627,0.7681432,-0.677721,-0.37166306,1.4745579,0.5405809,0.013078533,-0.7006611,-0.6732265,-1.0993047,-2.0343938,-0.7506814,-0.7846362,-0.088644564,-0.9048208,-0.08917068,1.4974664,-0.027513545,-1.6770244,-0.092007026,0.14466064,-1.4842944,0.25935882,1.680062,1.3559339,1.2007185,-1.5195929,0.010155512,0.62607455,-0.1112487,-0.17909516,2.2287333,1.5711404,1.3145913,0.7986854,-1.2987986,-0.18380928
MMRF_1331,-1.1930146,0.34925723,-0.470262,-0.4220149,-0.13934791,0.023548592,-1.2426069,0.08212565,0.387911,-0.46019822,-0.7707251,-0.7719799,0.34543607,0.46412116,0.5636022,0.58385247,0.19992161,-0.16902651,-1.102177,0.8800512,1.3574721,0.3292813,0.9029402,-0.20629644,-0.18213028,-0.047158204,0.43052498,0.3157481,0.5715294,0.3404834,3.1094794,0.17362167,-0.37998047,-0.1867572,-0.7445871,-2.2357907,1.4995335,-0.5108737,0.04712321,-1.6081349,0.5529027,1.6946685,-1.4217796,-0.6116061,-0.06810358,-2.4463673,-0.6500534,-0.46780583,-1.1526675,-0.18238685,-0.15750223,-1.7728671,2.3351426,0.24543053,0.1617084,0.17588104,0.74861497,-0.93735063,-0.5732359,1.2280867,0.46830273,0.4333756,-1.0895909,-1.5702637,0.73011714,1.1471806,-0.4168155,0.99314207,-2.1441534,1.1204584,0.19045095,0.8990515,1.51376,-0.026352188,-1.6296088,1.0129871,-0.71376693,1.3631911,0.66416806,-0.59250706,0.6415906,0.73010796,0.3064898,0.7262534,0.34354138,-0.7301576,-0.1945888,-1.8914135,-0.3658995,0.4019463,-0.6419887,-0.6545463,-3.005007,-0.53152674,1.0707326,-0.3477147,0.69116426,1.8867005,0.10794039,0.16187634,0.6132743,0.19879496,0.7588473,-1.9994268,0.11469964,1.0629917,1.5569702,-0.019190047,-0.75265384,0.624921,0.70951855,2.1257362,0.97071534,-0.6870428,-0.07587826,-1.0613701,-1.3225771,1.3137051,-0.12381196,-0.82074726,-1.091769,-1.1152906,-0.49575555,0.35144982,0.44919062,-0.29011375,1.220188,-0.046032615
MMRF_1185,2.1349642,-0.2790991,0.7013644,0.90659153,-0.6739832,0.52174956,0.51578236,1.481213,0.56785905,-0.9871769,1.3937899,-0.16812219,-1.2806206,-0.92393714,-0.32824528,-1.4845345,-2.1627123,-0.71026593,0.40087083,0.6838285,-1.2625885,-2.0239766,0.10107751,1.0396336,0.7886935,-1.3813777,-0.053976733,0.38372615,-1.5180794,1.1407049,-0.49185228,0.35915023,-0.42346767,-0.9508125,1.7597731,0.58977187,0.752159,-0.5382441,-0.06588829,0.7690379,0.6334544,-1.3538218,0.021217674,1.084769,1.2757069,-0.438816,0.0022041872,0.20181617,0.7186124,0.03805133,-1.3683208,0.21501213,-2.345101,2.2315333,-0.6388947,-0.07695177,-0.32135144,0.6699896,1.7852103,-0.53258365,0.07370101,0.48359343,-1.2315085,0.42816728,1.5362824,0.42933995,-0.7722196,-0.807883,1.0809487,0.12369796,1.0959494,1.6324878,-1.8689734,-1.7607225,0.93045217,0.76527596,1.1123798,0.9002098,0.8180814,-0.5311856,-0.17153414,1.0496998,0.9259757,0.66283023,-0.082010314,-0.07964712,0.9005431,-1.4689292,-0.39319655,0.9723405,-0.17870241,-0.77318406,0.122970864,0.23543033,-0.67011553,-0.4249466,0.22655286,-0.95259047,0.6199637,-1.509357,-1.2567996,0.73222715,1.8828998,1.2421044,-1.576672,-2.4839633,-0.41560274,-1.8059264,-0.81897515,0.017898355,0.45214817,-0.68261874,0.09750284,0.5519506,-0.20682344,1.0752527,0.5886626,0.6047545,-0.6391232,0.80409247,0.09825717,-0.7810205,0.019594772,-0.28031075,0.16614097,-2.055426,-0.6799487,0.74160635
MMRF_1348,0.74500173,-0.61325544,0.34535545,-0.3343223,-1.3440105,0.68942213,0.36335754,1.0168935,0.7738465,-0.69352305,0.6628709,-1.0845569,-1.4417355,-0.7043746,1.5152922,-0.18205708,-1.3035383,-0.21505304,2.0942636,0.25429252,-0.38030457,-0.73342395,-0.5674619,0.49569154,0.7573057,-0.72297925,0.50796497,0.17311932,-2.1995142,-0.9057701,-0.32388932,-0.45967656,0.764977,-0.20105329,2.4929621,-0.42210874,-0.4739404,0.85084385,-0.90308774,1.4696447,-0.70758754,-1.3844038,-1.5516715,1.2606539,0.830201,-0.8187687,-1.65468,-0.84766716,-1.171469,0.26300442,0.70022875,-0.6224636,1.0109088,1.016427,1.468248,-0.0041905995,-1.2094702,0.399557,0.029118517,-1.2676752,-1.6756067,0.46057364,0.3010572,0.03341718,0.6973768,-0.22930802,-0.52875954,-0.09294905,1.4450337,1.9495094,-0.6295847,2.4811084,-0.75282043,0.40709403,1.3054993,0.07437248,0.68681806,-0.2341274,1.3708168,0.1427659,-0.9666407,1.5590538,0.046713293,1.816694,-0.21728584,-0.32722908,-1.7876041,-0.7559967,-0.23756918,0.28400436,-1.2346337,0.9136694,-0.26310906,0.3764959,0.7190614,-0.55318403,-1.333704,-0.70608276,-1.5816011,0.057917017,-1.1739433,1.2412919,1.5514853,0.92825204,-1.3609136,0.81443405,-1.6335137,-1.2811855,-0.09854942,1.2503024,1.7006419,0.2147451,-0.526925,0.76071036,-0.9444989,1.7468519,-1.2733263,-0.11685768,-1.4744611,-0.009764727,0.318921,-0.16324845,0.39438906,-0.80306315,1.3457847,-0.6083663,0.12701385,0.54032934
MMRF_1284,-0.42215696,0.3376024,-0.45066723,0.3826906,-1.309692,0.4231791,0.057010505,0.6236279,-0.9667282,0.06232491,0.43782067,-0.42345122,0.004622262,-0.32038638,0.5620764,-1.4543484,-0.17527156,1.0780821,-0.5145685,0.9704708,-0.08172608,0.83807874,-0.8828564,-0.15845042,-0.23885703,1.0164785,1.3787681,-0.29852176,-1.3028777,1.0075272,0.5439075,-0.55587643,-0.2824475,1.4750657,0.32544562,-1.0169911,1.3467458,0.76319325,-0.3414218,0.9594374,0.15045747,1.6743445,-0.797615,0.25758743,0.21102361,-2.0451267,-0.7485197,-1.077532,-2.4618626,-0.7258985,1.2258236,-2.5958273,0.47691867,-0.32534876,1.4179081,-0.40217343,0.35149416,-0.3620019,0.4946364,-0.014186503,0.3069565,2.5481634,-0.013954924,-2.9961486,0.25662813,0.9839148,1.047398,-0.416382,0.62221676,-0.08527575,-0.42086902,0.631668,0.5950272,1.2281871,0.4462247,-0.42784795,0.25745103,0.47242868,1.2329701,-1.118426,1.31366,-1.1855661,-1.0568817,0.31329286,-0.67172354,-0.12490106,-1.6499897,0.14588577,-0.25628054,0.6322781,-0.8799381,0.69656044,-0.93541163,-1.5088961,1.1045426,-1.6815498,-1.0971829,1.4700943,-1.4841154,0.20075704,-0.013891907,0.66100013,2.6968021,-0.4987846,-1.3082675,1.0289067,1.7682426,-0.5310369,-1.1011801,-0.48990652,1.411525,1.2105111,1.7775191,-0.5533698,-0.28792468,-0.013649169,0.59270996,-0.080048986,-0.37542045,-0.8084034,-1.6687896,0.15638207,-0.35574603,-0.50238675,0.7091098,-0.8716436,1.3933985,-0.48737198
MMRF_1202,-1.1303312,-2.636979,-0.11054139,0.2296077,-0.7644007,1.1500036,0.024563488,1.8352536,-0.4060645,0.3956979,-0.34702277,-0.13031639,-1.7548959,-0.75214744,-1.1040053,-0.21316762,1.6277285,-2.536219,0.22469738,0.7742523,-0.57827336,-0.54328096,-1.0703567,-0.5348031,0.9860829,-0.038661443,-0.46023673,-0.42064148,1.1928506,-0.33749592,0.9977731,-0.4460533,0.57577837,0.48284945,1.4631575,1.0085981,-2.6439476,-0.45400715,-0.092273034,1.8713118,-0.6721995,-1.7604787,1.0761366,-0.33615983,-1.2597654,-0.4618099,-1.0581148,0.51761115,1.2002804,0.6376163,0.20313473,0.96364146,-0.6984913,-0.41234353,0.30675906,-0.7336507,0.081377596,0.76644176,-1.3492907,0.91108197,-0.94405395,-1.0998728,0.50892913,1.3446051,-0.051390585,-0.25085914,-0.7006907,1.6906761,-0.06399497,-0.33641303,-0.37320462,-1.2051896,-2.9131107,-1.9044468,1.4421034,-0.10931132,-0.9279217,0.5792939,0.27240247,0.61918366,1.115025,0.30995047,0.9067897,-0.8174303,0.0011330433,0.377791,0.23153558,0.77086055,1.620867,-0.4225387,0.994073,-0.078210086,0.8985236,0.31494,-0.9304257,0.17978235,0.10288794,0.030322034,-0.2320927,0.3358244,0.528903,-1.5865732,-0.2273994,0.9767161,-1.1693094,-1.03155,-0.26937875,-0.69024426,-0.60198224,0.3055183,1.6995544,-2.0814145,-1.2740743,1.0139755,2.0125082,0.00875709,0.34449938,0.67010194,1.3019303,0.49100283,0.2325155,-0.023331117,0.8496686,0.6090693,0.076397896,1.7114435,0.7100442,0.85957927
MMRF_1466,1.4918786,1.3442348,1.0377022,0.83519775,1.3399905,-1.4732429,-0.6665219,-1.0283402,-1.1170659,-0.8845401,-0.71445656,0.4304232,0.09094477,1.0224802,2.6995943,0.944847,-0.39403698,0.006112423,-0.1436539,1.0336729,0.90435493,-0.38614786,2.4639347,0.08137752,-0.40230277,0.2173721,-1.1493685,-1.7251306,-0.501934,0.86844075,-0.013051868,-1.3166094,0.41060305,-0.19486651,-0.8505807,1.5791806,-0.61281246,0.1716761,-1.4146788,-1.5703365,0.64229053,-0.16379556,0.057425182,-0.72897357,-0.20589508,-0.3251902,-1.3772854,-1.3589253,1.1411506,-0.7428211,0.7871753,0.78924865,1.2248985,0.8438042,0.54507595,0.58009076,0.48604062,-2.2592998,-0.74279964,1.107612,1.3604252,-0.4798886,-0.14182352,-2.2399192,-0.89100504,1.2579435,0.4245948,0.44684994,-1.2169645,-0.61663747,0.22072071,-0.0074114082,1.2475566,-0.5030401,0.64406,0.11412796,0.5161126,0.014403418,-0.2445736,-1.7137756,0.43193772,-1.3121018,-0.074613065,-0.18632217,-0.64205545,0.34318924,-1.0369796,0.8078761,-1.2283071,0.63808894,1.399853,-0.9932413,-0.917524,-1.6023391,0.852722,0.38491216,-1.3561385,0.24350943,0.88558996,1.0940359,-0.867689,-0.021174328,-0.8898255,-2.2042696,0.85635775,-0.1495222,0.75108576,0.15110198,-0.49257293,-1.1849536,-0.2788265,2.3355746,0.83777845,1.0531168,-1.2724985,-0.7262301,1.0564485,-0.24152306,-0.5109657,0.68904614,-1.1978453,0.16111805,1.5816952,1.5851372,0.18742791,0.40310642,0.6238001,-0.8384885
MMRF_1446,1.5644553,0.039784793,0.49941564,0.24433771,-2.2969642,0.66125,0.16749956,0.7336596,1.3892175,-1.5182722,1.3498032,-1.295414,-0.26880658,-0.51159304,-0.24108775,-0.005555574,-0.9910036,0.2335395,0.6767267,0.042393215,-1.7261581,-1.6249294,-1.1986262,1.0931755,0.85081124,0.47347796,-0.22480579,0.57660097,-1.2284384,-0.26958293,-1.9056088,-0.58680123,0.7910163,-0.57853734,1.1283449,0.4553682,-0.062312208,-0.7322797,-0.5993335,1.6581285,0.88990283,-1.9190325,-0.22184941,1.1890175,0.99678344,0.2653261,-0.9310309,-0.991417,0.8347765,0.67568856,-0.17736505,0.3900696,-0.92870843,1.1897895,-0.12565795,0.68094975,-1.0890243,0.5901303,2.101077,-1.2637002,-0.72908694,-0.3889896,0.23253924,-0.12603086,0.7362162,0.36804426,-1.6289948,-1.0462937,2.4171014,0.0106609445,0.5534975,1.4386374,-2.441793,-1.0697098,1.7892516,0.41088453,0.80076927,-0.61459,-0.24912037,-0.7523461,-1.32634,0.044277966,0.30612484,0.2787555,-0.38207075,0.16568229,-0.033435583,0.4339412,0.84155697,-0.15372616,0.9760481,0.6391723,0.92023444,2.0199752,-0.8352337,-0.2884268,-1.544343,-1.4691426,0.5657371,0.20175456,-1.8566206,2.0313268,1.1394658,1.1128428,-0.28052828,-0.7486877,-1.3151208,-1.4075611,0.4737252,0.7776262,0.51620805,-0.46283364,-0.53399724,1.0500346,-1.701152,0.66054034,-0.09267725,0.116280094,-0.91560924,0.78443325,-0.32003233,0.10028239,-0.5132185,-0.1546811,0.9634436,-0.7892399,-0.5251018,1.8562896
MMRF_1447,1.586557,0.21272837,-1.7137702,0.34746924,0.6741808,0.304223,2.513955,0.03606224,0.061592184,0.22419706,0.2599149,-0.3497367,0.5596983,1.0989847,0.28675908,-1.7452308,0.8352643,1.6240007,0.13026418,-1.661215,-0.2060952,-0.11464572,-0.56677544,-0.66678464,0.8426361,-1.3969448,1.4604288,0.9393788,-0.6514456,-0.663544,-0.9795664,0.8782799,-0.7908524,-0.3214279,0.3008576,-0.15657112,1.7214535,0.49486193,0.7554416,-0.9310858,0.2616241,-1.9523896,-0.06207294,0.5405192,0.97762287,2.1872745,0.71501243,0.3376171,-1.2310842,-0.4048434,-0.012784066,-0.03700155,-1.1298254,0.61328125,-0.82095885,-0.043380875,-1.8788666,-0.28876573,0.55476224,-1.7848192,-0.6262088,0.75198144,1.7220128,0.7021826,0.9166634,-0.61715114,2.1356595,-0.49176377,-0.1217357,-0.19033812,1.0048897,-0.2966012,0.2990285,0.59099686,-1.2133199,-0.5979836,-0.39237976,-0.64575875,0.114368215,1.2541921,-0.4037856,1.1740891,-0.5077387,2.098044,0.29026142,-0.56621766,-0.4170323,0.80367666,0.22469953,-0.046655685,-0.5384895,0.28263518,0.84388936,-0.75647277,0.6775079,-0.011861095,-0.48523554,-0.5567591,-1.2217579,-2.1104426,0.39100316,2.2875397,0.91985404,0.69867045,0.039048288,-0.27762675,-2.2469428,-0.29048964,0.6009378,0.7547563,-2.2845745,-0.14475475,0.037787046,-1.2928826,0.10541244,0.47398314,-0.45458508,-0.29957777,-0.9614763,1.7411841,0.5661861,1.276256,-1.7155879,-0.39824656,-1.5401888,-0.0033562528,-1.7426926,-1.1776079
MMRF_1445,2.3174508,0.008911958,-1.2022396,0.5661943,-1.3426118,-0.91442627,0.8659561,-1.2708224,0.058128938,1.1842268,0.889193,0.3496539,-0.76462704,-1.038045,0.5764413,-0.01970569,-0.76249176,1.0746621,1.0120643,-0.26745093,0.63497984,0.13388969,-0.8105627,-1.0836115,0.32338732,-2.4365888,-0.8750009,-0.5469582,-0.022242408,0.16041142,-0.75487334,1.3878483,0.042698927,-0.46684012,0.72801787,1.0396813,-1.0723255,0.1327705,-0.64237684,0.24903482,0.29764706,-0.15376769,-1.168136,0.29667255,2.5576963,0.08188201,1.7064577,0.47648227,-1.9519614,-0.32868358,0.7924222,1.115246,-1.3928783,-0.08491551,-0.71737653,0.44609565,-0.39159483,1.1630901,-0.010687029,-0.30208975,0.9444539,-1.0822543,-1.6487117,0.10950048,0.12232878,0.27180076,0.42871052,-1.0971203,0.7235506,-0.23446792,0.41893503,-0.8875419,0.73545897,-0.699868,-0.9476279,-0.64683086,-0.25142178,2.3202875,1.0213872,0.32509762,-0.12278649,1.1272466,-0.5169888,-0.8222288,-0.8243148,0.14658742,-1.6457584,-0.52975434,1.1377302,-0.22386563,0.20056614,-0.2575948,1.7844534,-0.07034181,-0.18864988,-0.71026886,0.31636325,0.28159183,1.338336,-1.6403458,-0.0013195965,-1.8693078,1.6932675,1.8715104,0.02382193,-0.31703556,-0.5354483,-0.07203911,-0.72639513,-1.1689572,-0.80915564,-0.6074627,-1.0747125,-1.0612435,1.5667711,2.8371623,0.9765206,-0.13258238,0.65259385,1.7579792,0.79974055,-0.30454475,0.7846182,-1.5429174,0.58055687,-0.0034099566,-2.1914647,0.16626859
MMRF_1433,-1.6142383,-2.945987,-0.6160228,0.32481176,-0.2574618,0.48681492,-0.69484293,1.1490535,-0.9340317,0.8394222,0.27944362,0.60939395,-1.5402095,-1.1559471,-0.67842746,0.4071975,1.4642358,-2.4953375,-0.08664204,0.58884305,0.0013443418,-0.53394216,-0.39719892,-0.96993536,0.5276439,0.33085856,-1.5933774,-0.62034696,1.2979333,-0.1261342,1.1947734,0.31967115,1.004275,-0.07251714,1.4678739,1.4992701,-2.0320053,-0.05800258,-1.5684115,1.123051,-0.7485464,-0.89416575,0.6118405,-0.24309975,-0.97030866,-1.5565441,-0.14891894,0.3110918,1.1217685,0.4865525,0.1466609,0.98512274,0.40827104,-0.95896524,0.81135136,-0.46448818,0.27563155,-0.2304267,-2.8371472,1.3439174,0.04469876,-0.47862625,-0.60174596,2.0262003,0.034024414,-0.8514942,-0.87081224,0.657548,-0.16727301,-0.10921788,0.02697693,-1.5576802,-1.2182337,-1.7128496,0.61465245,-0.30897585,-0.30725905,1.0697882,0.47832537,0.7352302,1.628276,0.24097,-0.024610573,-1.3612193,-0.4363961,0.88593805,0.20921376,-0.15763374,1.396402,0.36266485,0.20250867,-0.23419967,0.99439204,0.017849833,-1.2607981,0.118725166,1.0976393,-0.66514933,0.0655426,0.31642985,1.3136508,-2.1582289,-0.64233786,0.992117,-1.3168496,0.15759182,-0.16142817,0.37086424,-0.0848004,0.27421972,1.3279757,-2.137072,-0.96468616,1.5047226,1.4657602,1.0828061,0.13667667,0.20458497,0.54946643,0.23222835,1.3054662,0.46798855,1.5018348,0.2754534,-0.00437974,1.3072438,-0.22022474,0.8970455
MMRF_1434,-1.1560578,0.35830882,0.4896967,-0.38995862,-0.4463603,0.60533655,0.19344974,1.5722183,0.36488047,-1.3617514,1.0840039,-2.0622451,-0.042038694,-0.40005141,-1.1096001,-0.9216936,-1.5904757,0.64546436,0.49048826,0.6875478,-0.4632529,-0.25107673,-0.20910278,1.6440917,1.0156692,-0.66459996,0.6573351,1.6523438,-0.86746424,-0.4971972,0.5768825,-0.8707376,-0.66495275,0.41795224,0.94381934,-1.0429747,0.231676,-0.7133241,0.29693508,1.3150234,0.07554242,0.877823,0.28140536,0.30275023,0.85605395,-0.77525175,-0.8251524,-1.3078839,0.11156792,-0.4106333,-1.5473107,-1.8662193,-0.44951174,0.654738,0.42009312,0.37582597,1.558322,-0.21703734,1.9013139,-0.025538307,-0.4393841,1.1990583,-0.5043028,-0.98080254,-0.0048932396,-0.5790972,-0.19945337,-1.0794257,1.7211714,1.491977,-0.5978621,2.652199,-0.63624626,-1.42171,1.0880749,0.8973517,0.023615405,-0.47616,0.5230287,0.80461407,-0.60904706,0.8812691,0.25737625,0.006156441,0.9661125,-0.061095558,1.9735854,1.4455103,0.5515436,1.3688732,-0.18356857,-0.17421961,-0.43696105,1.011479,0.46187553,-1.4889452,0.20601913,-0.49145412,-1.4200413,0.53856474,-1.3906307,1.8630441,1.7075653,0.31476748,-2.4441316,-0.13956466,-0.047031805,-1.0699357,-0.3801262,1.8426656,-0.42959905,-0.653759,0.35408622,-1.0209547,-0.03615625,-2.0490768,-2.2549489,1.3540525,0.931657,-1.1217741,-0.6867269,-1.306982,0.17338352,-0.32050267,-0.82292736,-0.74592054,1.0122522,-0.3613363
MMRF_1436,0.4721572,1.5001228,0.15864798,-0.09038628,0.10552789,-0.24937418,0.3786996,-0.1461219,-1.821025,-0.6326379,-0.025765434,-0.4336382,0.47112793,1.0733148,0.7215253,-1.9521538,-0.036343552,1.066014,-1.3591219,0.41471022,0.946413,-0.33331478,0.7144496,-0.33763328,-0.37636185,0.7669839,1.2915226,-0.30506155,-0.483746,1.0854056,0.8991758,-0.8543502,-0.835657,0.6005279,-0.6850912,-1.0121934,1.7749414,0.70867217,0.07153875,0.8264799,0.48894605,2.1760495,0.47155097,-0.9114946,-0.5528314,-1.2894865,-1.4529542,-1.3015816,-1.9462894,-0.87397975,0.40040797,-1.5932459,0.27492356,0.25264606,0.7588632,0.008304734,1.0010014,-2.337905,-0.07102306,0.4753324,0.8494641,1.770869,-0.37531182,-2.4228976,-0.86832905,0.72497404,1.6787934,-0.64164764,-0.65421814,-1.061301,0.060298584,0.3567355,1.4927182,0.9225642,0.75047493,0.6072883,-0.39134446,0.46092945,0.80924726,-1.0817634,2.280339,-1.7994518,-0.27454737,-0.17497449,-0.9499504,-0.31881484,-0.7443524,-0.8077487,-0.82453305,0.36255983,-1.5138644,0.5200745,-0.6748791,-0.626078,0.48979196,-0.8878907,-0.8982007,1.4706212,-0.8879495,-0.23188163,0.08916238,0.17542757,1.444924,-0.9824739,-0.8337611,1.2817304,1.8021715,0.054363586,-0.9438408,-0.2778575,1.4232513,1.5230669,2.2975223,-0.15803555,-0.7368771,-1.3199362,1.3494161,0.06440947,-0.80786544,-0.37622446,-1.0019904,0.39029524,-0.69140285,-0.23852539,0.21642967,-0.46484885,1.9342802,0.32186872
MMRF_1424,3.2747197,1.9197292,-0.92366123,1.6589128,1.0420524,-0.21114695,0.887281,-0.28285265,-0.028681753,0.005803438,1.1566334,1.2327222,0.0151081495,0.7020174,-0.34195113,-1.0192676,-1.0557139,0.73617154,0.67650247,-1.2043774,-0.7779612,-1.3619652,-0.86208445,-0.054168023,0.41531652,0.34826326,0.778085,-0.5883227,-0.5323168,0.10048561,-0.27753797,1.3726374,-0.7423884,-0.89609045,0.59881204,-0.19457974,0.42306963,0.0543018,-0.3295681,0.14154276,0.11520083,-0.8034905,0.56880754,-0.06463745,0.769229,2.4680328,-0.14591488,0.79461545,-1.565472,-0.45504773,0.042396944,1.916199,-2.5909588,0.9021951,-1.2411128,0.18396828,-0.67489845,1.0239602,1.4474846,-1.4616641,0.88933116,0.3560662,-0.0598537,0.07931403,-0.716952,-0.58925587,0.7409526,-1.3867359,1.2491648,-2.535827,0.681155,-0.8748211,0.25306693,-0.5431345,0.75020987,0.36756667,0.25010246,-0.7311073,-0.12033809,-0.16733867,-0.38697028,0.29088038,-0.6538556,0.9297396,0.9684454,-0.35245654,-0.034400016,0.7752272,-0.15059645,1.356895,-0.67165583,0.49851033,1.3776808,0.24252883,-0.1956529,-1.4560229,-0.4351659,0.33406752,-0.38115713,-2.4141612,-0.103967234,-0.17413042,0.34211192,2.117933,-0.30746484,-1.4746515,-0.89328265,-0.1458425,0.48621756,0.5671545,0.5975596,-0.9747149,0.1167422,-0.42647985,-0.110219374,0.22574048,1.3346374,-1.6654632,-1.8372602,1.6950896,0.33831838,0.26485077,-1.6366788,-0.7791947,-0.18094292,-0.86259913,-2.167523,0.93858325
MMRF_1425,0.80583924,0.38395506,-1.3829876,0.45390198,0.28385603,0.760047,0.31060293,-0.8698024,-0.1535116,-0.939842,0.21172678,-0.72907424,-0.07711787,0.30362782,-0.8759586,0.5126603,-0.98574436,1.0384833,-2.4020493,0.543579,0.7829959,-0.1411681,-0.13152187,-0.18884137,0.5340254,0.2682565,-0.9534458,-0.89234555,-1.1823282,0.7969488,-0.7938377,-0.9929808,0.4065247,0.11770052,-0.28333214,-1.5669733,0.94001174,1.49404,0.009667257,-2.6287618,0.6268015,-0.9914887,-1.4961988,-0.3255431,-0.44550216,-0.9392218,0.37003794,-1.228442,0.41746026,-1.4961118,2.0684755,-1.4447924,1.5236821,0.43184286,0.31273583,1.3998387,0.36699483,-0.16185285,0.1146843,2.4147742,-0.34936994,0.90024793,-1.1696975,-0.18640518,1.6757054,1.7475703,1.5298012,-1.8303376,-1.0942198,-0.034066726,-0.028863396,0.87647426,1.5903267,2.090545,-1.1902027,-0.6089229,0.7861813,-0.10969323,0.27348453,-0.37993124,0.05291831,0.60105133,-0.9019761,0.29166657,0.7301261,0.14944477,-0.10895968,0.25864854,0.115338795,0.5701914,-0.11301942,-1.6675735,-0.633258,-1.3502814,1.4980704,1.6828982,0.2070734,0.36235934,0.43614507,0.70411843,-0.6173932,0.9169871,0.12422013,-2.0278575,0.19131179,1.3427085,0.38436902,1.6735272,-0.29801175,-0.04114682,0.075041935,2.3894506,-0.2474498,-1.992877,-1.399738,0.10987772,0.2640027,-1.1138119,-0.5815988,-1.5261081,-0.91953045,-0.17196111,0.10913898,1.1365238,-0.25761312,-0.34278738,1.0328469,0.071556546
MMRF_1439,-0.14444561,0.01365388,-0.1944581,-0.86073995,-0.12955163,0.2350139,0.7153243,0.67334205,1.1133691,-1.2674395,0.9782886,-0.9469938,-1.1560926,0.45199051,-0.28370726,-0.40192342,-1.083446,0.17254546,1.5123134,1.5074329,-1.4513059,-0.87270117,-0.6147263,1.5666014,1.5328915,-2.0743442,1.1444267,1.627126,-1.6527914,-0.68626916,-0.78674376,-0.21298452,0.40363115,-0.41824076,1.7634113,0.14098129,0.6365103,-0.47518748,0.024805514,1.6831927,0.18936887,0.3503603,0.03710132,0.98415,0.62323385,-1.0345229,-0.15834811,0.2321797,0.5687474,0.3917713,-1.0866077,-0.22481628,0.17055425,0.66161644,-0.16419631,0.703952,0.91767997,-0.55837274,2.1547625,-0.6198844,-0.7842652,0.82493824,-0.59548664,-0.7702833,0.30372503,-0.16732068,-0.47588626,-1.1917353,1.5653479,1.4404055,0.27304357,2.8139105,-0.57380766,-2.1575541,1.3222202,0.53591293,0.17980118,-0.025045201,0.85071594,0.35065898,0.033509716,2.4510643,-0.4786532,0.32402444,0.28373644,0.2813327,0.55357903,0.41825503,0.6032208,0.87235653,-0.12960169,-0.9099375,-0.33371603,0.121648245,-0.015016576,-1.4111764,-0.26129487,-0.07307458,-1.7632923,0.3412898,-1.5156963,1.2340677,1.7821224,0.31876478,-2.2839565,-1.0737674,-0.0075868783,-2.0444884,-0.7639835,2.6488652,0.08400551,-0.8655985,-0.13223913,0.02003832,-0.5516312,-1.1420609,-1.6655968,0.9638601,-0.89036596,-1.2802798,-0.29959625,-0.7357515,-0.15146078,-1.140479,-0.46467608,-0.41674948,0.13772367,-0.71693027
MMRF_1450,-0.644024,-1.433695,-0.9091352,-1.2862068,-0.11120122,-0.15741208,0.2615992,-0.9142579,-0.4265363,1.372022,0.058340948,1.4110963,0.48849759,-1.5864342,0.4811973,-0.4598605,1.0183128,-0.15545875,-0.45584166,-0.5128482,2.2533062,1.3151648,0.2328839,-2.6907678,0.5662902,-0.40916777,-0.17747478,0.2514365,1.8386488,-0.04883975,0.7453738,1.2162662,1.1445765,1.07167,-1.3907874,0.26072195,-0.5544922,0.9050739,-1.05254,-1.8548832,-0.19728896,-0.59598756,-1.4559965,0.85467404,-0.36813554,-0.107670955,0.4989983,0.46010897,-0.31087622,-0.32655445,1.4438437,1.6143159,0.7026193,0.2682327,-0.6944672,-0.30375004,-0.34573355,-0.052769795,-0.36974546,-0.56454176,-0.16171661,-2.1033926,-1.5086482,1.2414188,-0.3072676,-0.048306182,0.17863865,1.7834839,-1.4709885,0.5799279,-0.07613107,-0.72660756,1.0150248,0.81657326,-2.0647485,-0.6088117,-0.30636802,1.0583786,0.562712,0.046384588,-2.170935,1.3347338,0.2643251,-0.43596077,1.1804048,-0.21251927,-0.69005936,-0.72654045,-0.37562272,-1.0519897,0.5103565,-0.12619498,1.193028,-1.7292352,-0.6269554,0.32513914,0.35154366,0.32535672,0.45940992,-0.20169765,1.2469085,-1.7983452,-1.9524977,-0.5134932,0.9937967,0.4336693,-0.035025395,1.3258464,-0.4321441,0.21117672,0.8932321,-0.54382527,-1.6220024,-1.0813285,2.1381156,0.9315773,-0.380122,0.9898733,-0.008804493,2.138053,0.8001701,-0.20097525,0.0034557958,0.0993017,0.20252214,1.7303149,-1.319531,0.31951213
MMRF_1451,2.2515178,0.75034904,-0.32395804,0.099499226,-0.96640396,-0.89371634,1.4102889,-1.3768111,-0.11573869,1.5440971,1.5825726,0.4749384,-0.7610974,-1.475837,0.5416831,0.20834367,-0.7035217,0.9061909,0.23829283,-1.0703409,0.19922654,0.62757343,-0.787845,-0.47078905,-0.29018113,-1.7392701,-0.83631086,-0.68051064,-0.47457397,-0.3475997,-1.2656418,1.1796917,0.44415355,-0.60812396,1.0825768,1.985185,-1.6053842,0.32381144,0.06494127,0.18485923,-0.048317738,0.868841,-0.21618682,0.6001702,2.2199311,-0.6613452,1.4655628,0.69812596,-2.4724317,-0.1890475,0.8329009,0.9120756,-0.59215444,-0.9676107,-0.6575021,0.48737282,-0.241715,1.2510839,0.31532964,-0.27841833,0.81304246,-0.83385,-0.94923764,-0.9343225,-0.6040014,-0.56647915,0.90968865,-0.50456995,1.049501,0.19486916,-0.53779685,-1.1374742,0.7162965,-0.07945319,-0.64683104,-0.85626864,-0.3710928,1.8898621,0.64409065,0.7258968,-0.19174917,0.643817,-1.4546677,-1.3227919,-1.7383733,0.53934026,-1.7656974,0.21663652,0.96057916,-0.33279932,0.50188833,0.18814345,2.043714,0.18565404,-0.33423755,-0.9520829,0.5400907,0.43613368,0.9205986,-0.82877684,0.1963329,-1.7178116,1.2271456,1.2978654,0.21501957,0.059096765,0.47764057,-0.21342592,-0.27072343,-1.269363,-1.3325737,0.1429502,-0.75488806,-0.88812155,1.1976132,2.6073754,0.8553308,0.037480697,0.7231152,0.7511228,0.5640049,-0.6156134,1.3187276,-1.2385672,0.21682547,0.3730835,-2.7787426,-1.0610499
MMRF_1454,0.11194658,-0.54423535,-0.37999827,0.25323892,0.88189393,0.87266046,0.5135336,-1.2219447,0.13217743,0.5565116,-0.27538362,0.7838438,0.5201567,-0.5838262,-2.4929152,0.8959464,0.29807347,-0.78683597,0.39893824,-1.8496039,-0.14567724,0.15118706,-1.829579,-0.38757458,0.57891405,0.7026972,-1.1103684,0.2958444,0.37953377,-1.1153039,-2.4291444,0.6524219,1.508729,0.37637988,-0.6101813,-0.19028026,-0.7600039,0.5119606,0.21770023,-1.200148,-0.9671858,-0.20322211,0.6801928,0.47162348,-1.0355642,1.5278984,2.497186,1.2542968,-0.24045344,0.37710273,0.48472142,0.6506662,-0.6714959,0.42731008,-0.5396912,-0.3758828,-0.23430565,2.486733,-0.44357204,1.2390889,-1.1347973,-0.051384866,-1.0496541,2.3465889,1.556837,-0.66116583,-1.4018584,1.270396,1.6017365,0.023296647,-0.40006045,-0.9423312,-0.08395027,1.0942992,-0.8258179,-0.51098984,0.41607907,-1.2992506,-1.8710488,0.5413558,-1.0677665,0.15932062,-1.0590189,0.036062315,-0.5979266,-0.626519,-0.34390977,-1.6016359,0.54129374,-0.24937251,-0.96805453,1.0642347,1.170584,0.03892936,-0.7283805,1.7047856,1.5136409,0.29886132,-0.61226815,1.0224493,0.13569316,-1.2919987,-1.2971755,1.2386796,1.5526133,0.31561768,-1.1453432,1.933053,0.7987507,0.242513,-0.1458524,-0.27417782,-0.80337876,-0.5949015,-1.5883951,1.6944178,0.24743852,-1.3454785,0.53719586,-1.1368567,0.22713333,0.9099137,0.5483175,-0.68920344,-0.54994154,-0.35220394,-0.01518066,1.3854778
MMRF_1460,0.2855065,0.95640445,-0.5135626,0.44164845,1.95489,-0.93471414,1.6276522,-1.1116189,-0.46154642,-1.2864683,0.62368804,-0.37653053,-0.54080343,2.1957204,-0.637193,-1.4350387,0.26911062,1.2066035,0.12427454,-0.63541156,-0.2191561,-0.55781645,0.1199715,1.5359794,0.3646097,-0.86946607,1.793149,1.5556769,-1.3316919,-0.20402172,-2.600118,-0.26165834,-1.292518,-0.11468598,0.23691124,0.54952765,1.4542205,0.56410253,2.054148,-0.32545727,-0.17821562,-0.44173902,1.6941273,0.4879647,-0.8167603,1.5192093,-0.10011892,0.47860658,-0.0641023,-1.2626742,-0.8059801,0.45191878,-1.0445158,1.5343142,-0.702166,1.0783755,-0.26592126,-1.2363864,2.8816798,-2.654099,-1.1278749,-0.25461295,0.22781885,0.8301457,-0.8462746,-0.8902783,1.8261381,-0.93245184,1.1633389,0.31827754,-0.5925543,0.2723475,0.6502029,1.1644759,0.75131387,0.16176623,-0.2971811,-1.8903073,0.40464255,-0.1213915,-1.0742798,0.2093713,-0.7997667,0.34898376,-0.9796972,-0.8813869,0.51254326,1.0037657,-0.27180296,0.075200625,-1.1021982,1.2434418,0.040908217,0.113034524,0.14096276,0.6565727,0.09634691,-0.7368498,-1.0983319,-0.40181962,-0.96080077,2.4407008,-0.4349898,0.7337965,-0.8583983,0.061368007,0.0001942385,0.47033098,1.2863392,1.001535,-0.30650154,-0.095253214,0.7340672,-0.06025402,-1.5965755,-0.58874893,0.6911087,-0.05216723,-2.1568582,-0.58546835,-0.04935681,0.712904,-1.0058724,-0.113238595,-0.24612406,-0.5108,-0.88894844,-0.34775496
MMRF_1461,-0.6150905,-0.31601724,1.1845131,0.034148194,0.60713935,0.4111638,-0.62853307,0.054282784,0.8509196,0.998923,-1.523627,1.2913058,-0.6036857,-0.7922734,-0.7235166,0.13725471,0.29521957,-1.1410431,1.3742114,0.6986444,-0.7114428,-1.7588238,-1.1207391,0.037786506,-0.6361061,0.7030766,-0.3832639,-0.003642546,0.63743037,-0.20651986,0.44572186,0.58205426,0.43258166,-0.8699843,0.64089113,0.36915624,-2.175203,0.19524883,-0.93401814,1.2695298,-0.13318068,0.09551875,0.13796131,-0.021083562,-0.652987,-0.3557091,0.5614047,1.0111402,-0.10581903,1.9283323,-1.0567081,2.017682,0.21028715,-0.46001613,-1.0563926,-0.37453157,-0.1305537,0.78248507,-1.4678348,1.6114336,0.47288463,-1.4335063,-0.22438277,2.0576332,-0.40644276,-0.71504945,-1.8437002,0.6573682,1.9311358,0.3140598,-1.7689407,-1.0563371,-1.3563522,-2.047545,1.3608878,-0.26188904,0.076556906,-0.4316882,-1.1891434,0.47154605,-0.24827647,-0.48494273,-0.083202995,-0.18624476,-0.49210846,0.1477146,-0.41491282,-0.22720835,0.43632305,-0.9429532,0.07335977,0.20263414,1.1293482,1.7781526,-1.170805,0.40777117,0.84921604,-0.22440878,0.75536156,0.22176656,0.7911609,-2.4726174,-0.91062325,1.4321356,-0.41979873,-1.743247,-1.059021,1.0337313,0.17693964,-1.057722,0.874259,-2.828782,-1.2605177,1.6098137,1.2833097,1.0887792,0.8016343,-0.28896928,-0.09433453,0.4582382,1.8175247,0.14082439,0.4970584,-0.13576752,0.25446883,1.4341016,-0.12033479,1.8823949
MMRF_1324,-0.5084134,-2.20702,-0.046399634,0.901341,-0.64113367,0.8337182,-0.173239,-0.03549567,-0.65886825,0.12092731,1.136462,-0.9102399,-1.3253993,-0.64625823,-1.1510267,1.4385251,0.86734134,-0.7715492,0.17915478,-1.3610871,0.30766296,-0.15813927,0.612011,1.0259302,1.0220562,-1.113668,0.11205227,2.4363596,0.21451747,0.39176407,-1.2452393,0.18395622,0.37199083,-1.7393785,0.46965295,1.7838122,-1.6092588,-0.31967777,1.3788143,-0.61164135,-1.5428602,0.16686562,0.62992454,0.24171868,-0.29757228,-0.9116804,1.6257148,0.02365056,-0.81048614,0.22582576,-2.0459876,0.107731655,-0.21909921,-1.1667167,0.28293675,0.26782894,1.7714087,0.007251434,1.1680796,0.061149012,1.2007451,-0.87300915,-0.1486272,0.45251954,-0.25806504,-0.48534405,-1.0617168,-0.48799217,0.37476575,1.3211085,0.9190721,0.08748374,-2.0900037,-1.1565502,0.5601238,-0.3780256,-0.5997265,1.5000868,-1.229751,1.6860117,0.73512816,0.54605603,0.22432102,-1.5986187,-1.8540101,1.7590246,-0.597654,1.3602256,1.6620389,-1.8570052,1.6973848,-1.1844773,0.07257615,1.9202188,-0.8926883,-0.13206084,1.7341025,0.49920487,-0.24931182,0.23437005,-0.786733,0.19465528,-0.66091114,0.15458298,-0.13865899,-1.7021774,0.10653102,-0.10887593,0.60580283,1.3108069,-0.9270992,-1.5822743,-1.553624,0.18358736,0.5531232,0.73322123,-0.21663505,-0.5222684,0.4150949,0.65558034,1.5679928,-0.37513986,0.023650179,1.0249895,0.2220472,0.20325935,-0.6218933,-0.36438575
MMRF_1392,-0.41422164,-0.6272887,-0.6939671,-0.7504887,0.5883859,-1.3446047,0.052085854,0.3820826,0.36627302,0.5236434,0.14586133,0.2290134,1.2202595,0.11605722,0.49161637,2.0822496,1.2075218,-0.913198,-0.7789423,-1.30897,2.9497325,1.3780557,1.5986826,-0.03694603,0.63052666,-0.57926023,-0.0995478,-0.16528283,0.7722372,0.23208816,1.0121084,-0.06927854,1.1021395,0.15229058,-0.54282767,0.0374902,-0.17463133,-0.21502544,-1.663584,-2.3398755,-0.21749991,0.43266103,-1.2439048,-0.5352356,-0.5248114,0.39895532,-0.33210987,0.009192695,-0.15561295,-2.431911,1.5801175,0.16832519,1.5863835,-0.099250026,0.69000804,-0.42431787,-0.16324311,-1.5554776,-0.15149792,0.51780856,-0.58048296,-1.3175141,-0.49072707,0.7949222,0.86692685,-0.12226747,0.77433544,2.1077778,-2.2418141,-0.31627712,1.050231,-0.5156253,0.81742585,0.9106177,-1.535772,-1.0363933,-0.27779147,-0.45595014,0.37992278,-0.3789009,-1.0606321,1.7129656,0.59859526,0.15450764,-0.46721306,-0.26739034,-0.9466025,0.7294391,-0.8753497,0.85488105,0.569886,-1.096253,-1.0947493,-0.8084441,0.4643843,1.7355498,0.8013395,-0.30766022,-0.036488075,-0.36985815,-0.56139266,0.30412498,-2.5834424,-2.2604635,1.1369438,0.26135236,0.43505716,0.40733,0.19594464,1.6597198,-0.88847303,2.285388,0.7506345,-1.6018754,-0.108884886,-0.20539655,-0.46647865,-0.25325704,-0.35682243,0.7476952,-0.2913664,-0.8598722,0.45001632,2.1923795,-0.76621455,0.50735813,-0.017131293,-0.96412253
MMRF_1413,0.81240314,-0.24594688,-1.4245229,0.41357857,1.272693,1.1070479,2.134883,-0.21004112,0.4380283,0.096823074,0.613941,-0.25220013,0.28356546,0.9335149,-0.36721075,-0.5571799,-0.27573296,0.29565886,0.51471055,-1.8238271,0.63484275,0.22458433,-0.32415333,-0.9867885,0.24262886,-2.0225983,0.6459359,1.9323232,-0.91211605,-0.9100423,-0.6164861,1.2188302,0.32759526,-1.3823359,0.046569224,-1.1289809,1.8541102,0.33708984,0.72520256,-1.3755322,0.056648448,-1.7341739,-0.11461546,0.5678341,0.89447963,1.8099931,1.5059661,1.1717511,-0.3032013,-0.4945703,-1.0637008,0.30616736,-0.9051415,1.4155692,-0.7680486,0.16187829,-0.27427012,-0.16455142,0.83291566,-1.4217718,-1.3020599,-0.9190721,0.35276052,2.3184776,1.5952096,-1.1389213,1.0368606,0.25944674,0.19146189,0.9324541,1.4822679,0.26177278,-0.0063973446,0.71124715,-2.281549,-0.19151779,-0.10383993,0.2228467,-0.32983035,1.8291003,-0.87811255,1.5572693,-0.13063574,1.3113534,0.55828965,-1.2054225,-0.13691436,-0.37024352,0.36290264,-0.70024973,-1.131662,-0.5309456,-0.040786486,-0.6030137,0.4231587,0.50243765,0.5633068,-0.52708346,-0.36709687,-1.6992877,0.1776774,1.5502402,0.1465407,0.4433549,0.34115395,0.07041673,-1.9604231,0.32692796,0.58740693,1.483639,-1.8498687,-0.2419675,0.08083933,-1.2237523,0.2267677,0.50682676,-1.2925717,-0.020365568,-1.2548231,1.3754681,1.3353617,0.28083628,-1.5255663,-0.30073106,-1.8388845,-0.7440243,-1.6617229,-0.75429153
MMRF_1393,1.4526223,2.7818573,0.12161119,0.06405044,1.3336285,0.15936567,0.9026351,-1.0188743,-1.1496229,0.6103028,0.27553025,1.0222806,0.68342006,0.2667528,2.0719569,-1.5964421,0.026239492,-0.87138635,0.2864936,0.037672024,0.2621366,-0.53397644,0.7728165,-0.24423698,-0.5775287,1.0716641,-0.0821793,-2.209206,-0.8194533,-0.14019535,2.0471716,1.1362492,-0.0295652,0.13346197,0.5119543,-0.050897676,0.21945563,1.1647439,-0.7536482,0.3244624,0.65665895,1.2057073,0.5956561,0.25662154,-1.5669696,-1.1174903,-0.5060572,-0.44041502,-0.91664296,-1.4685745,0.4718898,1.1204458,0.082331575,0.06240473,-0.24596186,0.14791445,1.3980861,-0.078296974,-0.8684664,0.83037627,0.9995794,0.3036948,-0.3119072,-2.366348,-1.377911,1.0059649,1.7396685,-0.10753485,-0.39788097,-2.1042075,-0.3307239,-1.1811477,2.4220524,-0.13037743,-0.056291245,0.96568775,-0.8252202,-0.055555813,0.20203774,-0.7074604,1.2912645,-1.7080407,-1.7144355,-0.35512912,-1.1672204,-1.4107723,-0.48607412,-0.096712686,-0.9625737,1.763471,0.07867111,0.497958,-0.7746643,-1.1623912,0.37899715,-0.4906789,-0.8834045,0.3670476,0.599349,0.5773539,1.4820099,0.050287142,-1.2062534,-1.1559092,-0.6280833,1.5922408,0.6509849,-1.4739094,0.81768507,-0.3039925,1.1568167,1.9991683,0.008877743,-0.5640176,-0.38386577,-1.559017,1.2527107,-0.49942303,-0.018211253,-0.6672975,-1.5659856,0.18940963,0.5573752,-0.5399976,0.15334266,0.6648696,-0.27700263,-1.0062473
MMRF_1148,-1.8144474,-0.6334822,0.15434624,-0.77337635,-0.5549403,-0.14334463,-1.2745718,-1.3006328,0.4213319,0.27940995,0.30315316,-0.49822855,0.782502,0.11134422,-0.5307233,1.6108567,-0.13489506,0.5975792,-0.5691267,-1.2183478,1.1196386,2.281344,0.49088475,-0.5678922,-0.27286896,-0.6014222,-0.39098302,0.47551692,2.0096562,-0.7881053,0.8598798,0.8746478,1.3297184,-1.0394973,-1.1640276,-0.22986454,0.12727386,-0.102976486,0.27582046,-1.7775098,-0.65274566,0.4415841,-0.24752687,0.06619609,0.32324624,0.50690746,2.079873,0.5648705,0.32320607,-0.62523466,-0.0048819664,0.94847345,0.7149783,-0.71947813,-0.1429599,-0.30715066,1.3957545,0.040423524,-0.04083328,0.47771975,-0.24742687,-2.6503346,-2.084286,1.7323463,-0.66445637,-0.98707813,-0.9742774,2.1063035,-1.5033245,0.4205804,0.7427432,-0.33741203,1.0897857,1.2369087,-2.2776372,0.8580523,-0.8183123,1.6079614,-0.17012705,0.56274694,-1.5114748,0.5540273,0.65644354,-1.5807878,-0.052176885,-0.36042807,0.0030482141,-0.57619506,0.2802798,-0.7346177,-0.18365087,-0.9449274,-0.263826,0.17198193,-0.48448914,1.0788312,1.8980446,1.3146551,1.3539224,-0.8219653,0.10515715,-1.2537135,-1.5313237,-1.711764,1.8879614,0.89161533,0.51762736,1.2551274,1.0837697,0.6363772,-1.2926226,0.672448,-0.66019756,-0.95012265,0.5871278,0.11382957,-1.0126505,0.5340232,0.89867157,0.7320841,0.21607941,-2.142312,0.87055165,-0.025424052,-0.45001528,0.78298753,-0.13713749,-0.94546205
