patient_id,0,1,2,3,4,5,6,7,8,9,10,11,12,13,14,15,16,17,18,19,20,21,22,23,24,25,26,27,28,29,30,31,32,33,34,35,36,37,38,39,40,41,42,43,44,45,46,47,48,49,50,51,52,53,54,55,56,57,58,59,60,61,62,63,64,65,66,67,68,69,70,71,72,73,74,75,76,77,78,79,80,81,82,83,84,85,86,87,88,89,90,91,92,93,94,95,96,97,98,99,100,101,102,103,104,105,106,107,108,109,110,111,112,113,114,115,116,117,118,119,120,121,122,123,124,125,126,127
MMRF_1231,0.83586764,-1.112869,0.084409036,-0.2858557,-1.0167981,0.5676777,-0.28308004,-0.31936538,-2.060686,-0.4301768,1.4469632,-0.6276232,-2.2743738,-0.29256636,0.70113236,-0.20734698,0.77587956,-0.8885464,-0.2799952,0.39683157,-0.61770296,-0.81360996,-0.5278153,1.2881356,0.5070894,1.3098738,1.0513638,-0.08721388,1.2301824,-0.52722883,0.8369152,-1.9389013,-0.16791095,-0.1286842,-1.5330169,-0.32211795,-1.0216875,-0.6110478,0.30360705,-0.34923148,0.85890305,-0.06538061,-0.46636263,-1.9904104,-1.0224475,-0.6857198,-0.6206577,-1.5515878,1.8051108,-0.51809627,-0.41362056,0.7616054,-0.090027034,0.62377155,-0.062836975,0.8062364,0.8240587,-0.051115528,1.3749768,1.7208436,-0.20642574,1.3863155,1.1234478,1.1051736,0.41394386,-0.7258808,0.67516875,-0.93915784,-0.4492885,-0.49882343,1.0030664,2.2400937,1.7857833,-1.2487408,-1.2709533,-1.628411,0.412725,-1.5128963,-0.04190918,0.8117481,-0.0031857328,-0.3971021,0.43690264,-1.621673,-0.39516413,0.6210968,-0.31453457,-0.94717276,0.052931517,1.6409132,-1.2957028,-0.0022245431,1.1275177,-0.19577272,-1.522827,-0.18558182,-0.4578383,1.175856,0.30101657,-0.9036433,0.47870278,0.41220975,0.05710104,1.3166556,-1.3730301,-1.253206,0.2522226,0.7353105,1.1217463,1.4928173,0.95086527,0.47847015,0.4194287,0.47167534,0.55671734,1.6077642,1.3583927,-2.3231785,1.6878853,-0.7393303,-0.05335687,0.46978697,1.5560682,-1.4606211,0.41391313,0.56301844,-0.8851791,-1.6968062
MMRF_1032,-0.17345068,-1.6402107,-1.078977,1.203052,1.1983999,0.99803025,0.33429548,-1.6213943,1.2467188,0.25895938,0.59167486,1.1493785,-0.28455114,-0.22321987,0.70649356,-1.1111383,0.7539106,0.6649623,1.5046475,-0.46744177,-0.2720428,-1.041897,0.26042765,0.722098,1.7754341,0.6836293,-0.47956014,-0.3105523,0.49178812,-1.8744128,-1.1618507,-0.6671734,-0.5222442,-1.304969,-0.9118041,1.5657859,0.22343859,1.5742102,-0.2673153,2.1983452,-1.6079987,0.9387571,0.30502507,-0.55697364,0.741814,-0.91451263,0.033409588,-1.0368319,-0.6114117,-0.031026788,-0.75381345,0.7770324,-0.025500128,-0.12704955,-0.2491194,-0.29645684,-1.7543131,-1.1826175,-0.370589,2.0647144,0.13304757,1.1337517,0.8995623,-0.17342542,1.4749023,-2.1582053,0.35323048,0.1809929,0.28462115,-1.1063682,0.6663454,2.641163,-0.13878924,-0.16476667,-1.549009,-0.9808534,0.25814316,-1.2658781,0.2509573,0.13015723,0.109122716,-0.9919118,-0.3574154,-0.33828482,0.43154216,0.15328872,1.9490727,-1.0676874,0.28681988,-0.23795578,-1.616331,1.6913478,0.4679111,1.1833876,-1.4918449,0.2854622,0.3532968,-0.5470455,-1.2030691,0.71799684,-1.3188565,0.4672692,0.12354901,1.5734935,0.46472618,1.3226229,-1.6445181,-2.5575426,0.7819172,-0.43836147,0.64335483,-1.330692,1.4402336,0.22943793,0.19524218,0.5050705,0.052814603,-0.5464879,0.40569067,-0.77918804,-0.73053336,0.704429,0.09493075,0.2930379,0.21636607,-0.1704882,-1.7143472,1.1104884
MMRF_1327,-0.28320733,0.07301971,-1.6892698,-1.852435,0.7641503,-0.17121576,0.1467228,-0.14810434,-1.2332094,0.0285034,0.19876975,0.5492272,-1.1041436,-0.029937478,1.0761125,-0.09678458,-0.11473283,-0.04897636,-1.2687281,0.9660872,-0.6712494,-0.25303394,-0.2919932,1.9180628,-0.4124999,1.0728961,1.6912224,0.6755351,1.5519809,-0.14686093,2.1703715,2.1065817,-0.27198747,-0.70636415,-1.080274,-2.7465856,-2.0117877,0.3424336,-0.34202126,0.051797394,-0.53787696,0.5440588,-2.602241,-0.44898042,-0.99535805,-0.6038102,0.92847514,-0.8035264,-1.147168,-1.5775344,-1.1782517,-0.33924043,1.0006398,-0.5109748,0.13024125,0.32436517,-0.3571597,1.1050506,-0.33420917,0.3033762,0.030186966,-0.072345674,0.18517049,0.38247257,2.223274,-0.7734821,0.03841337,0.3259236,-0.42319638,1.0690361,0.08798765,1.4935904,-0.52404654,0.6205428,0.0045329044,-0.571009,0.6835062,0.061580516,-0.93985975,2.5957532,1.3837773,0.8262365,0.4232802,0.36003163,-0.23237635,0.3608524,-2.040276,0.9743499,-0.6786229,-1.2054942,1.3912504,-0.71616817,-1.0972153,0.73576343,-0.16953784,-1.8529004,-1.613436,-1.2453136,0.14317226,-0.078832194,-0.2153205,0.55908287,0.9302544,-0.24326043,-1.3348502,1.0225214,0.08730234,1.5708096,-0.16123328,0.3510092,2.1908503,-0.7895486,0.68571115,-0.17331973,0.7214793,-1.4246343,0.096111014,-0.57675296,0.9518926,1.5134135,-0.08121376,0.5240235,-0.05659744,0.9240589,-0.7851624,0.6793315,0.27505335,-0.67904484
MMRF_1210,-0.070294544,-1.4502429,0.16692439,1.0510619,2.5185122,-0.46726182,0.20891033,-0.91797763,0.47979015,-0.16714956,0.6000853,0.37248328,0.20734064,-0.8742558,0.930427,-0.78754467,2.115403,0.07104944,0.5820795,-0.772619,0.44112635,-0.5994326,-1.3787564,-0.33404276,1.6969374,-2.3696952,-0.318811,-0.11126269,-0.0434109,-0.002195552,-0.86401325,-1.7040389,0.5299862,0.6179215,1.9070816,0.25515977,1.0878952,1.0054283,-0.6726394,0.25265872,2.7764373,0.8876523,0.5045107,0.233287,0.5626057,-0.27259052,-1.5288134,-0.42117086,-0.15926696,0.3725151,-0.7620415,1.4757419,-2.251036,0.7272176,-1.2941097,-0.54859525,-2.149802,0.82585347,-0.45705536,0.31062546,0.5323247,0.43563202,0.011506176,-1.749887,0.23146525,-0.45115438,-1.1646191,0.73026395,0.8361898,-2.1829019,0.48335642,0.41954234,0.017869148,-0.204178,-0.97508013,-1.0035317,2.5201287,0.12382129,1.3178755,0.82395595,-0.21414354,1.0300646,0.5030748,0.4119077,0.6666785,-0.19043422,1.7287177,-1.7493969,1.210852,-0.6947857,-0.24288927,0.0005056318,0.03326335,-0.5387559,0.21262485,1.4362909,1.0305704,-0.8674342,0.21206945,-1.8999691,-0.94148386,0.52084315,0.7269015,-0.67749166,0.25513658,0.13087389,-1.3248384,-1.4556776,0.8861594,-0.2523965,0.13416784,-0.7282357,2.0422769,-0.30664265,-0.97772866,0.30705747,-1.0722657,-1.6978469,-0.48598915,-0.065717496,-0.2322442,0.29951945,0.2400035,-0.11378424,-0.7505708,0.86401194,0.19515851,-0.34670866
MMRF_1269,-0.84083706,1.2923752,-0.4085732,-1.0600761,-1.6103972,-2.1527772,-0.36375672,1.1467248,-3.0744061,-0.61401546,-0.46020502,-1.245394,0.11465108,-0.1974006,0.38746995,0.8879499,-0.7583637,0.5915601,-1.6466447,0.07273862,-0.6726534,-0.56065416,-0.38358316,1.9828107,-0.5394616,0.30067268,0.27727863,0.4415487,1.919362,-1.2325312,2.2361782,1.289816,0.42098498,-0.34660077,-0.27502224,-0.49666354,-0.37497577,0.07070289,-1.1188605,-0.36004755,-0.27766457,0.19513367,-0.1251371,-2.069479,0.61491996,1.0927058,0.13770004,1.419479,1.0911303,-0.41769174,1.3060979,-1.9091456,0.0002083499,-1.1687216,-0.09884176,0.49199945,1.0632458,-0.42249966,1.0768934,1.899691,-1.2682012,-0.5325603,-1.280626,0.48052484,-0.072399385,0.74240136,0.390788,1.610739,-0.79968214,1.7261916,-0.048161115,0.3029332,0.82286656,-0.6040799,-0.92103165,0.15854938,-0.8929826,-0.49124563,1.2023989,1.8849131,0.49558756,1.5178952,0.87411606,-1.2768855,-0.43436858,0.80984575,-1.3301746,1.0493108,-0.2775338,1.0194299,-0.5189145,0.16011217,0.19862926,-1.1223499,-0.5062641,-1.7868617,-1.2685609,0.29180676,-1.0780275,-1.4524361,0.40883547,-0.3877025,0.10090703,0.089404084,-0.26021054,-1.3988866,1.6708102,-0.5193558,1.1602412,0.8738873,0.5182419,-0.62169886,0.4267517,0.68625367,-0.08020964,-0.5565031,1.2005401,0.3628458,0.24545276,0.481874,0.40086088,-0.5521991,0.04663966,-1.7717298,1.5483629,0.86018836,-0.1879328,0.91398466
MMRF_1251,0.28636792,1.6636751,-0.15867025,-1.467894,-0.57812154,-1.2489796,1.4247001,0.39774,0.11664465,0.9370704,-1.1055465,-1.8213247,1.0049487,-0.33438995,-1.0631099,0.7854438,-0.46259537,0.19153267,0.0011913199,0.93865335,-0.15786798,1.2424574,1.9804783,-0.45258114,-1.4086462,-0.018370753,0.31600103,1.4378855,0.3901078,-0.9334057,-0.023185594,2.2443311,-0.85772383,-0.8065264,0.6620644,-0.05508598,-0.6401481,0.11350268,-0.70065695,-0.5376729,-2.7685945,0.5659267,-0.65826803,-0.2111944,-0.24863195,0.63925594,1.4007902,2.0334346,-0.23771094,-0.26860264,1.5989549,-0.74392486,1.7411015,0.15960473,-0.13475281,-0.23370692,0.18147966,0.69888264,0.42858174,0.9322879,-0.7752304,-0.8232072,-1.053999,1.1943865,-0.89241236,0.47934794,0.12631688,0.34912,-0.661477,2.0650222,-1.1073133,-1.1889186,-0.29268685,0.0017994428,1.0236564,-0.28104115,-1.4865808,0.20436001,0.8097619,-0.8676284,1.2125059,-0.02292404,-0.20987856,-0.6442076,0.0035278993,-0.45069882,-1.8483934,3.3552656,1.1973364,-0.07598342,0.10385154,-1.7236414,0.80347276,-0.41474706,0.847005,-0.17069227,-0.48707187,-0.621935,-0.9215139,0.01597149,0.5480161,0.053640187,-1.3455158,-0.52548194,-0.3626378,-0.6592301,1.8015374,-0.33350453,-1.5263467,-0.17090802,-1.1710703,0.5218376,-1.7471628,-0.40424263,-0.5973583,-0.6364371,1.2046754,1.932837,-0.41614187,1.1505864,0.23290348,0.37021968,-0.9382349,-0.94491184,0.56795627,-0.8861764,0.06735136,1.2759292
MMRF_1328,-1.5871612,1.3429977,0.84530956,-1.3408294,1.8632078,-0.3675889,1.055923,0.9700808,-1.2039386,0.44709027,-1.0672201,-0.7759701,-0.1845005,-0.2573761,-0.7215806,1.3589671,-0.5113027,0.5047061,0.02153548,0.98136413,1.050846,0.7656437,-0.12894723,-0.8565711,-0.5794766,-0.18257536,1.4881762,0.33289415,-0.91645783,0.44825238,1.0684814,0.8002319,0.49297577,1.745557,0.15858121,-1.0173011,-0.8528575,-0.0041642133,-1.1361799,-1.0923525,0.15817179,0.052229404,-1.2422323,0.1827495,-0.43960148,-0.06584832,0.72766227,1.0832001,-0.08599448,-0.60652035,-1.410838,-1.7274225,-0.53862166,-1.5294176,0.13538277,0.25532338,0.14230688,0.7828476,-1.5083213,-1.2871743,0.06655034,-0.71149975,-0.745402,-1.6639491,0.75153553,1.2747506,-1.7920226,0.28895935,-0.062364176,0.24542251,-0.9415768,-1.8851653,-0.175038,0.7818939,1.8378222,-0.7316136,2.3874817,0.7892664,0.46189812,0.94835156,0.11885743,0.29807693,-2.0846112,1.6703874,1.2211807,-0.048825845,-0.5775023,1.5991004,-0.17445387,-1.569943,0.5084117,0.21267822,-1.2909904,-1.4656099,0.58167917,0.27380258,-0.3154159,0.075938456,-0.021376517,0.07544948,0.017608479,-0.5001006,1.2592801,0.5582612,-0.48789462,-1.3020228,1.3856775,0.41990814,-1.7171893,0.64478946,-1.5262084,0.09577239,-0.62942386,-1.42398,0.16106896,0.991986,-0.11609279,-0.30267984,1.4151254,1.9955425,0.877263,-1.4193404,-0.2822707,2.0661173,-0.2729241,-0.1440391,1.7210267,0.23768654
MMRF_1171,-0.12399401,0.08757943,-1.1663771,-0.061654694,1.2983848,0.46709895,1.0244952,-0.4093565,0.95948493,0.5392108,-0.8605483,1.5963205,1.2077943,-0.14542699,-0.29809654,-0.32419977,0.75193214,0.124292254,1.3753219,-1.8628695,0.332362,0.43645537,0.32333764,-0.85244364,-0.10594496,0.07468582,-2.0202644,0.1092164,-0.7607374,-1.0429119,-1.8741318,1.4385368,2.1643689,-0.9885956,0.6337545,2.713739,0.941988,1.0599025,0.5524868,2.774746,1.4416412,1.0210283,0.31035975,0.6852262,0.8876458,0.49792212,0.2541326,1.0316437,0.08796984,1.9638109,1.2244296,1.5657,-1.005051,-1.253138,-0.014105739,0.34396762,-1.1571227,0.021117764,0.009808519,0.37863353,0.16361468,-1.5396694,0.7020564,0.1997747,-0.079795435,-1.9113264,-0.07336437,-1.1169146,0.15640406,-0.96390516,-2.3859563,-0.027685741,0.866885,-0.26920018,2.0468106,0.04037253,0.08324395,-1.1758178,1.3801174,-0.43249476,-1.3645617,-0.9670343,-0.8834609,0.89341867,1.075361,-1.2950885,0.9505762,-0.64124864,0.7794627,-0.7648631,-0.9033755,0.014054624,-0.32970324,0.7526153,1.6899973,0.39581013,0.26761532,-0.3611133,-0.44988075,-0.58545893,-0.065669194,-0.81473434,0.5630935,0.3706025,0.3146339,0.023754522,-0.24567726,0.16215266,-0.3920023,-0.97784406,-1.543585,-1.2683256,-1.0463004,-0.9197821,-1.0924236,0.6847547,-1.3984056,0.49431512,0.6974244,-1.268724,-1.4569619,-0.45884937,-0.35746297,-1.1382786,0.13740964,-0.61756605,-1.0050441,0.41118538
MMRF_1354,-0.8123264,-0.3651706,1.0190827,1.6119052,-0.84235066,-1.1060421,-1.2226778,0.09741628,0.34893727,0.17142135,-0.6147518,-0.34059262,0.055262677,0.11023493,0.21174477,0.9717071,0.47750807,0.37307864,1.1073012,-0.17025708,0.9505578,-1.4017844,1.0179064,-0.8674495,0.42628026,0.35329947,-0.9660183,-0.060057335,-1.4171255,0.30691698,-0.81666994,-2.1399133,-0.81226057,-0.45107993,1.7931787,-1.1746188,-0.7510089,-0.04168978,1.7694964,0.31562534,-0.7393311,0.2163223,0.9791065,0.5258208,-0.09635516,-0.5508849,-1.2092574,0.025414139,1.8104286,-0.81966275,-0.98462564,-1.8140037,0.18725738,2.5287607,0.747358,-0.89879614,0.33697337,-0.018907877,0.3149827,-2.1594565,0.21498702,-0.910906,1.7081261,-0.36213738,-1.8218986,0.64220005,-0.7130494,-0.3857107,0.53318155,-1.2452363,0.92974085,-0.76992494,0.1414186,1.3233824,0.92250574,0.7875907,1.0699915,-0.5538925,0.8570735,-2.7843752,3.1220345,-0.35768518,0.09260355,-0.74425346,-0.90368253,0.4614964,-0.2644007,0.27149594,-0.9227294,-0.09020098,-1.0506172,0.560715,0.9738816,0.84046394,-0.6285968,-0.62327194,-0.6417626,0.23413973,1.650369,2.0587296,-1.9020649,0.8401936,-0.41902295,1.3551428,-0.5402318,-0.25768322,-0.38540184,-0.32276693,0.35835814,1.5124295,-1.4328836,-0.02754054,1.1122653,0.560492,-0.8330332,0.25670573,0.110835604,-1.3762698,0.7268817,-0.46324098,0.259644,0.49536607,0.34091964,0.84794044,-0.30207446,-0.7736055,-0.5960688,1.6250206
MMRF_1344,-1.4038042,-0.24769256,-0.06350987,0.914032,2.2827084,-1.8300291,-0.030415809,0.95732915,-1.0798079,-1.5999569,-0.6669081,-0.382016,2.6783867,-0.8241325,-0.9408003,0.934977,0.907337,0.11563485,1.9867405,0.46955246,1.0906413,1.64297,0.5135481,-0.7621198,1.6306261,-2.1862483,0.28225607,0.4098807,-0.14743486,0.20207562,0.012511666,0.7914601,-0.4985156,1.388809,2.304859,-0.43801504,0.6622889,0.6492184,0.23151608,-0.90726525,2.9881215,1.0265677,0.09728554,0.0578546,0.5673451,0.056319214,-0.35960418,-0.16367969,0.1128755,0.75810236,0.74694073,-0.41353524,-0.44846824,-0.67951196,-0.9724767,-0.07608949,-0.93737125,1.4319385,-0.41539901,-1.087459,-0.95645523,-0.4573915,-1.6641589,-0.9763708,-0.5592046,0.25863212,-2.512305,-0.010766642,-0.4221808,0.59489393,-0.9209787,-0.8118987,0.7726679,0.6440074,-0.02128634,0.1834062,2.128714,-0.19577098,1.1869134,-0.016601775,0.662878,0.5938938,-0.93173367,0.30991247,1.6432211,-0.2475158,0.44463173,0.15431364,0.43602842,-1.2512333,-1.3697637,-0.5314355,-1.2996538,-0.69274867,1.4228817,-0.17403488,1.4423056,-0.88909936,-0.31756976,-0.7709723,-1.2900969,-0.87392443,0.09484762,-1.1888725,2.2192385,-0.76492524,0.22700329,-0.5115772,-0.9472053,-0.9510437,-0.41766083,-0.3638299,1.1333804,0.22800626,-1.1159409,0.08213894,-0.31449944,-1.1700876,-1.2702278,-0.02393734,1.0124978,-0.043673795,-0.30288038,0.15395428,-0.07544977,0.2348427,0.40405655,-0.39180595
MMRF_1403,-0.51888776,0.49737114,-0.5338306,-1.2248594,2.352732,-0.4393273,1.1771544,0.058344495,-0.54753417,-0.65802705,-0.15570678,0.297918,-0.9717041,0.5388519,1.6796235,0.42720395,-0.6450391,1.4176809,0.23944283,1.0046697,0.08428435,-0.091448985,-0.52602005,1.0473844,-1.7647978,-0.73806417,1.6720243,-0.035763506,-0.3976401,-0.9865799,1.2504368,1.1946219,1.0067725,0.92881966,0.13230266,-2.4575236,-2.086606,0.025368905,-1.7521825,-0.5571533,0.8739205,1.4311055,-2.0807319,0.6851119,0.37544152,-0.08254011,0.8459598,0.7090435,-0.44561765,-1.4829373,-1.0758592,-0.4444718,-0.22353105,-1.3772646,-0.43494257,-0.37099984,-0.022076499,1.2958413,-0.8768029,-1.0260253,1.1131722,-0.20478205,-0.31137827,-1.0478115,1.7140371,0.4309011,-1.6529335,1.036922,-0.10847335,0.3375488,0.20622504,-0.9935028,-1.0054278,1.1806651,0.5926521,-0.92297554,2.3792953,1.0057279,-0.8020677,2.2114139,0.3878043,0.815683,-1.0092359,0.851808,0.18852518,-0.36929652,0.2888494,0.52633476,0.99145406,-0.8339858,1.2712706,-0.7224872,-1.2130315,-0.8050513,0.52353376,-0.25883827,-1.6129489,0.044269804,0.2433945,-0.8844368,-0.68493897,-0.22397983,2.2487726,-0.9621349,-0.20587906,-0.77801824,0.21538831,0.32915992,0.3072598,-0.7370134,0.35691017,0.5442847,0.8220671,-2.2293537,0.050930254,0.08866516,-0.06504295,-1.8367373,0.6926866,1.6370478,-1.0239189,-0.48839167,0.42583448,0.7864222,-0.63772494,-0.06313755,0.8236351,0.8608998
MMRF_1408,0.78394586,0.19630839,-1.8246075,0.7404399,-1.4319032,1.3125112,0.74032456,-0.47164536,-0.9735463,-0.6028264,-0.15913807,-0.41687205,-0.6737671,-0.39562312,-0.073121145,0.5278356,0.9644751,1.1055262,2.0016418,-1.383581,-1.0930141,-1.323033,1.8479657,1.1191556,0.63389343,1.5416552,-0.07302071,0.48090804,1.3827909,-1.8078895,-1.0236449,1.3381069,-0.632622,-2.5324404,0.51367646,-0.34296975,-1.640397,0.6119504,0.50489396,2.1502752,-1.7993951,-1.6541269,-1.0693264,-0.92593604,-0.8768182,0.7107035,0.6066944,-0.66775125,-0.05031787,-0.20567355,0.22270891,0.47798693,1.666865,-0.08839652,-0.9009996,-0.120230645,-0.08437239,-0.5372848,1.3318406,0.5945855,-1.054239,0.87287974,-0.034631535,2.0579965,1.3928099,-1.4225224,-0.18051837,-0.5183823,-0.36408782,-0.5490235,0.7945532,1.7836039,0.7661191,-0.32571495,0.8269314,0.747356,-0.628354,-1.2617875,-1.4565332,0.5945822,0.7485855,-1.4313127,0.089182064,-0.15773676,0.15476406,-0.08532915,0.085624084,0.27367505,1.7868991,0.19569704,0.8860932,0.86314964,0.9856076,1.1005697,-0.8299688,-1.9291971,-0.9800376,-1.0700119,-1.0728064,1.391023,-1.389693,0.61104727,-0.11847789,0.62308955,-0.081333034,-0.03024388,-1.6076628,0.95300823,0.27166378,0.38960776,1.4168597,-0.47418043,-0.96429,0.3350941,-1.1648023,0.10973955,0.4955001,-0.29352108,0.41894087,-0.30748886,-0.1936718,0.4906548,0.8008405,0.24840768,0.33647454,-0.91487056,-1.9761069,0.70027494
MMRF_1338,-0.47994292,-0.13521421,-0.06100633,-0.83074033,-1.516001,-0.123168856,0.38788626,-0.67512125,-2.327477,-0.8889873,0.8507767,-1.1180549,-1.7868779,0.7075296,0.81648016,0.9783475,0.029516142,0.31815913,-0.15991616,-0.5035542,-0.47287112,-0.3881525,-1.8131236,1.6913245,-0.04410681,1.4082938,0.7301749,-0.080044374,1.3001108,-0.75080293,1.4496274,-1.5816127,0.44004053,0.4501101,-0.9946606,0.18763068,0.03737559,-0.077588834,-0.38578922,-0.26620334,0.9116109,1.5758489,0.16586207,-1.5109191,-0.29208484,-1.0978498,-0.96687925,-1.1375067,1.3657022,-0.3034391,-0.457567,0.3966762,0.31027907,-1.1580532,-0.6311861,0.062588975,0.57286805,-0.6506554,0.9197356,1.2875991,0.07101989,0.709241,0.37280107,1.2105699,0.0626769,-1.814416,0.886233,-1.1528676,-0.9140108,-0.26942757,0.24419063,1.4067106,1.8069298,-0.7361597,-0.8446639,-1.9349126,-0.25423396,-1.6776813,0.9573928,1.6712072,-0.2450608,-0.6099441,0.2669563,-1.5581833,-1.0879858,0.1371333,0.6616908,-0.4779048,0.015127281,2.0742118,-2.0736115,0.21608825,1.0854207,-0.93757534,-0.3855843,-0.38615498,-0.6431926,1.1769422,0.10555235,-1.2390838,0.39573842,-0.29780868,0.38553056,1.847882,-0.6564201,-1.3077164,1.0883045,0.45341456,1.1812742,1.035325,1.0299804,0.3544544,0.090266496,0.57775956,1.3870709,2.3009622,1.0392339,-1.2738698,1.8835611,-0.60822076,-0.3381266,-0.38735402,1.2050463,-1.5403727,1.4723644,-0.14656682,-0.11406101,-0.55568475
MMRF_1342,0.30103037,-0.7386093,-2.03076,1.2310202,0.75224906,0.10981844,-0.39628524,-0.4354284,1.9556514,-0.9324233,-0.26450506,0.49768123,-0.091722324,-0.38409802,-0.2819694,-1.7087737,-0.24584632,-1.3347012,0.20604524,-0.7571845,-1.6242105,2.1914272,0.7533974,-0.85701025,1.6232907,-0.7614432,-0.46093503,-1.2810284,-1.2163979,1.5443918,-0.9572362,1.3602369,-0.74961257,-0.41770855,-0.93783224,2.224668,0.78794837,1.6921462,0.471827,1.0547112,-1.1763022,0.36206704,1.1690382,-0.32023162,1.0142179,-0.7848161,0.494795,-1.1145802,-2.9092004,0.48912176,-0.35464486,1.2973641,-0.31419337,0.2346126,0.17848003,0.20940052,-1.1034249,0.2723143,0.11756286,-0.5623627,0.7672046,1.1412293,0.36307377,0.008229963,-0.33267513,0.1589887,1.2739028,1.0971731,0.37657434,-0.29308885,0.15734324,0.9306551,0.08207164,0.07525927,-0.17141844,1.0806751,-1.4265261,0.36848283,-0.40738657,-0.38701648,0.22201027,0.009413142,0.45048347,0.5679982,0.22972834,-0.28384712,0.37179145,-0.25599805,0.8328833,-0.93841136,-0.58889085,0.5467928,0.2983276,0.9927267,-0.6636278,0.02217656,1.9691204,-1.5194134,0.017171448,1.6867615,0.967631,-1.1052033,-1.4406164,-0.6562047,1.8967521,1.1528264,-1.5867332,-1.8737891,0.09699906,-0.19137858,0.46344537,0.071014434,-0.77925473,0.040089406,-0.04717648,-1.4464854,-1.5956991,0.9766258,-2.3743405,-1.0567255,0.57520443,1.6784643,-0.63157094,1.5917859,-0.65804595,0.9004017,-0.75762004,-0.21250518
MMRF_1352,0.6802321,-0.53276837,-0.19417998,0.23172599,-1.1165057,1.0291729,0.08427154,-0.6274523,-1.1139542,-0.28491163,1.8912487,-0.2823731,-1.33172,-0.011666464,0.8020447,-1.3833736,0.9540041,-0.9197755,0.60932446,-0.21793708,-0.33293954,-0.24857263,0.296299,0.4184296,0.5013421,0.39867517,0.48564315,-1.1913993,0.5088603,-1.2282197,-0.75923455,-2.4300802,0.09358152,-0.071109846,-1.1745822,0.5327845,-0.9385369,-0.35508665,-0.34004566,-0.104177274,0.84609836,-0.33767983,0.4779995,-1.1234814,-0.7418774,-0.26349995,-0.6326327,-0.71746016,0.9808448,0.003254313,-0.7404901,1.4333873,-0.3192049,1.3377976,0.89768934,0.7225983,0.71587133,-0.26321352,3.0316994,1.9581809,0.39750823,1.5125462,1.0994393,0.8671051,0.042324934,-0.43990287,0.7386048,-0.77325445,-0.03220398,-1.0112535,1.3833873,1.2968036,1.5179946,-2.0343056,-0.6037904,-1.0374157,-0.3347794,-1.5759385,-0.042015128,-0.37440747,-0.12613583,-0.80621487,-0.15465648,-1.1952292,-0.054780032,-0.4535874,0.6499307,-1.1953413,1.625204,1.2469063,-2.0658607,0.26953146,1.8918672,-0.31805697,-1.483289,0.31428117,-0.43902302,1.7011329,0.02349505,-0.5161147,0.101371825,0.41592008,-0.0103446245,1.3464228,-0.20455816,-2.0438259,-0.38112473,-0.42253962,1.7599387,1.4278748,0.26201013,-0.3340155,-0.2538786,0.06452714,0.27741182,1.9319266,1.4302754,-1.6009066,0.9904477,-1.1199105,-0.8623236,-0.13100854,1.7168218,-1.2196803,0.6759844,-0.12384187,-1.7516544,-1.0570868
MMRF_1380,0.92177504,-1.6323823,-1.7647334,0.7984772,0.57250905,0.38968843,-0.21276706,-0.9506583,-1.6974051,-0.64542085,1.3787323,-1.2015905,0.6385497,-1.5310941,0.022200536,0.75071794,2.081298,-0.003464194,1.5033616,-0.33721924,0.2356445,1.8965862,-0.60435104,0.24691787,1.1530617,0.61546624,0.47882676,-0.4644295,0.48420474,0.54106075,-1.42572,0.33604273,-1.5739425,0.28863293,0.76603395,0.8293166,-0.91350067,0.761353,0.39404064,-0.8912348,0.1454152,-1.0392892,0.13705532,-0.6823872,-0.080452785,-0.61045635,0.266204,-1.7018766,0.7046213,0.44037032,-0.27269128,0.81805396,1.1795071,1.6338726,-3.1386075,0.4491469,-1.6101346,1.8032984,-0.10326806,-1.7403924,-1.1050656,0.39832342,-1.409591,1.760899,0.5166491,-1.1566191,0.34060112,-0.36104128,0.39621618,-1.6475047,-0.5867662,1.6259168,2.6212258,0.21112375,0.49900237,-0.20896944,0.38415894,-0.40295383,0.814903,0.27262992,-0.46634677,-0.45502198,-1.4559306,0.33046108,-0.101760134,-0.44141942,0.46660444,-1.4112962,1.0529858,-0.45089874,-0.47010604,-0.12941961,-0.09992919,0.5478114,0.08696579,-0.08745624,1.492691,-1.7254157,0.31581,-0.7910376,0.34808332,0.54794735,-0.43219998,0.52489936,2.0975122,0.0059849788,-0.91188455,0.9607091,-0.009801933,-0.2253153,0.5918541,0.2143815,0.28100806,-0.17274396,-0.17233925,-0.01542118,-0.65808254,-0.8748773,0.06812785,0.077116184,0.58477473,1.7834064,0.9550532,-0.33387688,-1.2747922,1.3790141,-1.5206503,-1.8155614
MMRF_1389,1.1586401,0.4332078,-0.46689197,-0.29196995,-1.5951803,-0.54904306,1.5220261,0.4625627,-0.6003103,-0.20753849,0.92599535,-0.96551436,1.1982087,0.6576754,-0.07590557,-0.16277614,-0.53182757,-0.84952587,-1.000156,-1.8039187,-0.7808189,0.96593225,-0.83579904,0.82913536,0.012549011,-1.0717236,-0.0563934,-0.3810097,0.17768003,1.229332,1.1513066,1.2721063,0.23363312,-1.0445786,1.1888001,-0.76104635,-0.024776977,0.7210408,-0.65333354,-1.4120091,1.7129952,-1.0238103,-1.9675148,-2.0030363,-1.2034843,-0.5845759,0.508397,0.2994711,-1.1259125,0.71984893,-1.1473668,0.4150861,-0.18567254,-2.4972115,-0.87981135,-0.09891008,2.1599638,0.5551029,0.8283151,-0.114496574,1.9732258,0.98838747,-1.4172876,-0.019070566,0.7257044,-0.16843987,0.5383962,-0.38081917,0.5628989,1.3406267,-0.9443935,0.40492854,-1.1050282,0.5074302,-0.037412126,-1.4248753,0.0008458216,-0.1799337,-0.72212917,1.2098167,-1.5235368,0.3109415,0.50245047,1.2691121,0.08117889,-0.79751265,-0.5062083,0.138076,1.307555,-0.15453622,0.7197808,-0.42463169,-0.02982666,0.48008445,1.6731322,-0.47920933,-0.29844892,-1.4160876,-0.14756596,-0.77966696,-0.35798663,1.8035963,-0.3240052,-0.6857257,0.3864403,-0.33451337,-0.14441803,1.5285953,0.66145486,-0.6833139,0.6426726,0.44300327,-2.5101392,-1.2281543,1.8593303,0.88559115,0.39577278,-0.53195614,-0.36266857,2.7437217,-0.29839814,0.9281769,-0.048398115,-0.01823454,-1.780654,1.1642675,1.6716455,0.04654116
MMRF_1388,0.4658914,-0.5502468,-0.828436,-0.9334072,1.4287732,-0.50924677,-1.009692,0.45631087,0.43003786,0.18701914,-0.38458306,0.3284188,-0.6781024,0.55979437,1.4315692,-0.587597,-0.6682135,-0.79353327,-1.4895151,0.92802936,-0.27238184,0.57884955,-0.42676917,0.47135273,0.5236353,0.29339853,2.272376,-0.7182723,-0.13811122,1.2562772,0.864333,1.1003839,-1.071712,1.3239499,-0.908147,-3.71393,-0.32753158,-0.058395725,0.12656018,-0.84578425,1.5567548,-0.027524494,-1.4612666,0.4135598,-2.086936,-0.31159675,0.3599851,-1.8331863,-1.6126089,-1.789634,-1.6547439,0.1004166,0.38852817,0.07031508,-0.38199157,-0.404583,-0.6463035,-0.11666959,-0.2842862,-0.74882156,1.233154,-0.039890707,0.14023916,-0.14660399,1.9000846,-0.23210166,-0.044784974,0.20702817,0.1462577,0.44408736,1.5058591,0.20316835,-0.5787985,0.8699231,0.007602225,-0.39272597,0.68416816,1.1908232,-1.8673501,1.7344745,0.45476693,1.5813385,1.1631075,0.917176,-0.28806612,0.5133867,-1.6718862,0.47947294,-0.33894902,-1.1134663,1.5452836,-0.43448076,-0.97960037,-0.48660934,0.04424605,-0.4687282,0.75111485,0.14810805,-0.52844673,0.054735214,-0.8547197,0.73822355,1.4764132,-1.210462,-1.4667155,1.7466906,-0.26560834,0.44250268,0.33998787,-0.4001709,2.5838978,-0.19082318,0.7451861,0.2551198,0.40696025,-0.2900687,-0.6160271,-0.23291413,-0.07311091,0.8385642,0.3410637,-0.34862846,0.010792609,2.3325694,-2.203946,0.6613199,0.32019675,-1.0402822
MMRF_1395,-0.95074964,-1.094086,-0.9135826,-0.762861,1.2063874,0.9942437,-2.2114952,-0.4534637,1.8268936,0.054613944,0.24149804,-0.23075147,-0.48424888,-0.42160645,0.54998296,-0.29188886,1.1510744,0.20089413,0.31452778,-0.9515121,0.17958754,-0.33040258,-0.86456907,0.8125403,1.6077675,-0.798891,-1.6330955,-0.6211403,-1.3165078,-0.2186881,-0.50474966,-1.1450118,-1.2569569,0.2762167,-0.22209537,1.6268293,1.1313367,1.0701963,-0.4423261,0.3878152,-0.39586174,0.30268103,1.887492,0.45859706,0.08459169,-0.6417609,-1.5785222,-1.0167222,-0.5436664,0.6506796,-1.3667938,-0.046326756,-0.40876034,1.5076311,-0.28393236,-0.015196443,-2.3064847,-0.23885244,-1.2828604,-0.65082794,1.8395423,1.344641,0.38434947,-2.2260776,-0.647588,0.008744627,0.079951696,-0.067195706,0.317644,-2.3145864,1.1243278,2.0345504,-0.72490764,0.59951,-2.173583,0.13595335,1.5380844,0.3849849,-0.18505007,-0.95283157,0.56692284,-0.32684234,0.24956858,1.2108876,0.333659,1.2819794,1.2094959,-1.4734203,-1.4936506,0.40626615,-0.50520253,1.2832139,1.003109,0.45735264,-1.2017163,0.15526769,0.77962923,-1.2576276,1.3161756,1.375311,0.4192894,-0.44009477,-0.21579024,0.155218,0.45557126,1.4897419,-0.4207038,-0.28095675,0.89846337,0.12986165,1.191126,-0.57681537,1.6036497,0.9354513,0.02622707,-0.9355853,-0.7202888,0.14886074,-1.8230734,-1.4247751,0.20755842,0.3746718,0.5697392,1.2751284,-0.06541671,1.1363558,-0.67902863,1.0147974
MMRF_1391,1.835888,0.68874717,-0.35058153,1.0181204,-1.8842524,0.321103,-1.4086558,0.3600093,-0.07734491,0.90489745,-1.8552269,-0.34717482,-0.40046176,-0.90376735,0.6719155,1.5003946,0.4960057,-0.82556725,0.7855981,-0.1573272,-0.18388931,-0.6186131,1.1251022,-1.321384,-0.49768686,1.4647678,0.09661971,-0.04935638,-1.138908,0.5052965,-0.19766559,0.7981086,-1.8583982,-0.92652905,-0.5785143,1.2068721,-1.1275501,-0.080942795,3.0022528,0.28684667,-2.762843,-1.5732625,1.3247516,0.121539995,-0.9830916,-0.2766657,0.80242705,-0.054378185,0.8963605,0.27924985,-0.10542259,0.20091626,1.549952,2.51373,0.34210846,-0.8386555,-0.8048428,-0.14397834,0.28548095,-1.997469,0.62913096,-0.55572754,1.0202035,2.1033037,-0.27217352,0.09576454,-0.3559806,-0.18430258,1.1101274,-1.1214347,1.3494412,-1.289102,1.6264538,-0.3052609,1.1682053,0.8146998,-1.6621594,-0.079616845,-0.48890442,-2.3496892,0.23879851,-0.5882009,0.3305159,0.62634265,-0.8820707,0.017311279,0.14600325,0.2895748,0.8776239,1.014209,1.1404393,0.21148461,1.023715,-0.07017931,-0.31439775,0.29431272,0.5440586,-0.13972665,-1.0202066,1.206598,-1.0923687,-0.6454004,-1.6074697,0.61009806,0.19460405,0.290622,0.93008083,-0.47027948,-0.84342456,0.51657736,-0.31042093,0.94473165,-0.6895552,0.042496294,-0.12181495,-0.1625574,-0.4004165,0.82480735,-0.8029583,-0.47879177,0.0632786,1.8126668,-0.6466986,-0.11408861,-0.46414384,-0.5891694,-2.3310695,0.1768943
MMRF_1359,1.3084412,1.0002242,-0.78729177,0.36419144,-2.0024633,-0.1662696,0.31303683,1.2959086,-0.7952414,-1.1799107,-1.4523431,-0.748605,0.9994016,-0.26576924,0.24464059,2.6532423,-0.21047576,1.0889217,0.6077021,-0.06202326,0.78157604,2.1586056,0.7738571,-1.9152181,-2.615718,0.49302262,1.5110774,0.6422404,-0.588683,0.2628157,0.38482744,0.38741586,0.13353859,-0.08816721,1.492712,-0.90563196,1.2488654,-0.08078724,0.18565333,-1.4590616,-0.6804911,-0.54246485,-0.007543626,0.21602842,-0.31192797,0.30319878,-0.68185616,1.0750495,0.079260215,1.057287,1.1941776,-0.24954267,1.1596419,1.6180528,0.2068856,-1.3562839,1.4601506,2.0293274,0.06741718,-1.0081298,-0.58771956,-2.3577793,-0.659201,0.44830748,-0.62738645,0.43350986,-0.5301604,-0.3913452,0.90249443,0.21960178,-0.574963,-1.3139155,1.1994822,-0.025199275,1.2195828,0.783,-1.4050555,0.5707019,-1.0551559,-0.9123316,0.066380315,1.1912377,-4.6260655e-05,-0.8793077,-1.8192621,-0.27488035,-0.5141943,0.19288972,0.75091326,0.8639481,-0.27817526,-1.0955293,-0.14222206,0.016461771,1.330794,0.73428166,-1.1407821,0.24595627,-1.3003998,-0.69513446,-1.2575413,-0.33166656,-1.243202,0.82685214,-0.39343908,-0.289073,0.18913779,-0.41876695,-1.4705905,-0.8852557,-0.76271844,2.4212182,-1.7422227,-0.70958686,0.10308687,-0.24964207,-1.1708645,0.83985484,-0.2425369,1.3805686,0.0049307533,0.22775799,0.6372249,-1.0810087,1.2591141,-0.087734774,0.53225094,0.7014929
MMRF_1267,1.4797872,-0.33523548,0.51837885,0.28407982,-1.5078737,2.3777966,0.86980265,-0.5745454,-0.6979656,1.5404521,0.9657719,-0.6839745,-0.8768698,-1.5994393,-1.0837069,0.09722747,1.9796724,-0.40839884,0.088400744,-0.21649027,0.6840818,0.8997264,-0.13775304,0.04609366,-1.4532659,1.269126,-0.106215104,0.008641211,0.8407664,0.77037674,0.66899174,0.22910047,-1.0705851,-0.76910615,-0.6488914,1.0901645,-0.845135,-1.516847,0.9022214,-1.2870381,-2.6404314,-1.2310375,-1.0809777,0.047338285,-0.7932149,-0.4083601,-0.55921555,-0.25331688,0.071264796,1.2699344,0.0021759868,0.9717055,1.6726958,0.570178,-0.88681036,0.13812207,0.36655903,1.190334,-0.97588265,0.57230544,-0.94864696,0.61248547,-1.3001368,3.1177135,0.045746535,-1.3338537,0.2978196,-0.4613788,-0.69432133,-1.1888279,-0.29894254,1.8940023,0.45949957,-1.164663,0.858486,-0.040616833,-0.8314827,-0.16954635,-0.17648017,-1.1878783,-0.25978798,-2.1242666,-0.54560053,0.94200605,-0.57956165,0.6772277,0.1352087,0.50802815,-0.28075683,0.50728524,2.0966911,-0.9364185,-0.2270949,1.1365025,1.0749925,0.7218017,-0.21079083,-0.31429994,0.5323863,0.32570076,0.009886354,0.8942548,-0.97521466,1.263736,0.091572605,-0.28586072,0.928908,2.2299013,-1.9004539,0.4020977,-0.5551221,0.66840166,-1.7327095,0.6239435,0.01810329,-0.037350453,-0.011867112,0.0009840187,0.63743603,0.6788561,0.6633761,0.69727784,-0.80548215,-1.0269598,-0.34006158,0.16648158,-0.34675923,-2.4856408
MMRF_1274,-0.0009478086,0.5392148,-0.7748627,-0.090247236,2.198585,-0.5909293,-0.18396193,0.6649913,-0.9322538,-0.33378607,-1.3439466,-0.15035489,-0.4113046,0.24410583,-0.022451373,1.683923,-0.12523912,0.22331713,-0.72543085,1.0102605,0.73116183,-1.306213,-1.608361,1.4152327,0.5102868,-0.6512148,-0.316352,0.19102612,0.3558862,-0.44698966,0.8558553,0.81765956,-0.1223051,1.1811169,1.6282455,-1.9081724,-0.39532778,0.09189457,-0.2431467,0.58740693,1.2760707,1.024615,-1.1857606,1.0836359,-0.672366,-0.059484802,-0.163041,-0.5141458,0.5955275,-1.1382511,-1.1912111,0.853037,-1.3119719,-0.64073974,-2.1034415,-0.5110227,-2.3011422,-0.06839609,-3.0982795,-1.5371897,-0.08211947,-0.8475556,0.24378131,-0.88253206,1.216869,0.11558094,-1.7453022,1.1146199,-0.8122543,-1.4756099,0.42524806,0.05297792,-1.0151442,1.5934758,-1.0465884,-0.6099694,2.0442855,-0.6357492,-0.14153251,2.4373853,1.0374553,1.0095012,-0.3523961,-0.30965406,0.19240013,1.4017398,0.4535817,0.29703215,-0.31736794,-0.26440844,1.0171958,-0.27768958,-0.6797652,-0.5598603,0.30942798,-0.4579724,0.016745217,-0.27673632,0.76496565,0.42197874,-1.0034999,-0.48408127,1.7782866,-1.646672,0.8348986,0.608671,0.024214953,0.47109565,-0.029293105,0.5972354,0.5601369,-1.1243364,2.368294,-0.025370684,-0.5098008,-0.1889217,0.3024386,-0.94393003,-0.1896999,1.8056959,-0.049002655,-0.6347298,-1.092387,1.0992912,-0.5361397,1.221318,1.3506048,1.5242226
MMRF_1037,0.016735852,-1.9876952,-1.0503697,0.3259004,2.4785578,0.82592636,0.6047229,-2.1356564,1.3382796,-0.33450446,1.0747936,1.1892446,-0.85684377,0.071790196,0.94445837,-0.8931948,1.233163,0.40446988,1.3830788,0.017637027,-0.38173625,-1.2392962,-1.3546596,0.3831786,0.6162273,-0.5508007,-0.12488189,-0.23683564,0.696138,-0.62566584,-1.1328895,-0.69133556,-0.96415067,0.57269454,1.3117068,0.021069774,0.3643815,0.4382918,-0.9647219,-0.037660092,1.0924067,1.6835434,0.52521455,0.43172568,0.896823,-1.5684128,-1.2821428,-0.7434112,-0.73006994,-0.029989485,-0.92767054,1.760567,-0.69131285,-0.29973623,-1.4120362,0.17672321,-2.7322836,0.56482303,-0.86284894,0.64875615,1.1512841,1.003403,0.086032964,-0.93829167,1.4077421,-1.0755175,-0.20446172,0.7041808,0.38681296,-2.681809,0.86662155,1.3925925,-0.43413243,0.005335667,-1.4573115,-0.7779267,1.8081834,0.2293572,-0.1881331,0.80302125,-0.47368693,-0.13077362,0.7515852,0.047331158,0.5229035,-0.31583658,2.3319097,-1.6329532,0.6334911,-0.7908482,-0.12280601,0.3680483,0.24692799,0.28095403,-0.7559382,1.0900041,0.7751999,-0.9618537,0.58825743,-1.4228787,-0.21821915,0.27287948,1.5344478,0.1832936,-0.24630424,1.1786953,-1.927962,-1.0725472,0.94807017,-0.81369233,0.6814369,-1.0327202,2.0235672,-0.94741803,-0.43240994,0.80981976,-0.86736995,-0.9039694,-0.34710822,0.088254124,-0.48116845,0.9840726,0.2101877,0.42455187,-0.29459864,1.038472,-1.1533427,0.063797005
MMRF_1033,1.4496105,-0.59478843,-0.49621645,0.097971916,0.8174237,1.1373094,-0.020748517,-0.5719472,0.40025818,-0.35915345,0.81014895,1.3007193,-0.35507578,-0.4385174,1.2540082,-0.45464137,1.5232494,0.28052408,0.8130145,-0.9224677,-0.1543595,-2.0026705,-0.11483431,0.48762998,0.7447196,0.7179048,-1.0196326,0.57009834,1.2171049,-2.2497756,-0.84397316,-0.6292839,0.3367687,-0.9836155,-0.72825915,1.6225165,0.48127174,0.7850402,-0.9037178,3.2517867,-0.050349876,0.53122425,0.24819538,-0.89654493,0.5277266,0.6200336,-0.78136027,-1.1996609,0.709388,0.850243,0.73376673,1.5714248,-0.40240037,-0.47711602,-1.5388807,-0.2767599,-1.821534,-0.98144066,-0.44737703,2.031863,-0.32239288,-0.043110218,0.66358864,-0.44048747,1.4614345,-1.9185525,0.33277008,-0.48519194,-0.27440915,-1.1933814,0.7156056,2.0859716,0.3429296,-0.99626136,-1.2376325,-0.09594606,0.45899844,-2.3103817,0.93422645,0.5123924,-0.29664487,-1.2644416,0.074820235,-0.62480575,0.36650753,0.856166,1.5109959,-1.120697,0.91592765,0.15265319,-0.52302915,1.5285535,0.062866695,0.7500861,-1.250143,-0.49218097,-0.36378604,0.836078,-1.433509,-1.1230706,1.0342395,0.24594879,0.3022439,1.7940278,0.26718226,0.6041693,-0.56735355,-0.44245362,0.49923787,-0.33816049,-0.53122276,-0.78674465,1.1432111,0.561827,-0.68723464,0.7318353,0.08484668,-1.2094672,1.2511586,-2.408896,-1.2507695,-0.13529441,0.4057098,-1.1105366,0.7574937,-0.28608856,-1.8310219,0.021922601
MMRF_1031,0.36377075,0.057506923,0.35492128,0.82317257,1.8817992,-0.099895075,0.4592687,-0.76626956,0.3332976,0.04003067,1.051038,0.2319101,-0.24755432,-0.24280657,2.3901312,-0.17038344,0.11847465,0.38212112,0.6767972,-0.044896454,1.3578913,-0.046800435,-0.34109938,0.9151643,-0.8073157,-0.08913657,-0.058118798,-0.5214507,0.454108,-0.7295981,-1.6325463,-1.1456338,0.98446697,0.27670547,0.55802685,-0.06299167,0.06131705,-0.40359765,0.99607515,0.76072186,0.5549171,0.8376808,-1.0844728,-0.1486358,2.020109,-1.2160298,-0.46573544,-0.67513525,2.2435207,-0.22296646,-0.69834274,0.08050267,-1.3037392,-0.012209506,-0.54431206,-0.6295251,-2.0629587,0.015384292,-0.6289553,-1.4198705,-0.5303551,0.41696888,1.3792793,-1.0592597,0.12308276,-0.84786433,-1.7012299,-0.50413775,1.1857301,-1.9950596,-0.8803935,0.30143747,0.7112438,0.737017,-0.69308877,-2.541505,2.989,-0.8120031,1.1751734,-0.8712057,0.026321283,0.012613999,-1.4384699,0.86797374,0.8630082,-1.1222978,2.3861768,-0.8219783,1.1397387,-0.9082405,-1.373589,0.08216433,-0.20416723,-0.025270412,0.5652914,0.7766632,0.5357471,1.55938,0.25278032,-0.7425096,-0.9271803,1.1558654,2.3377757,1.3932282,0.66909236,-0.37551427,-0.21452324,-0.27322698,0.05543686,-0.6462622,-0.97867787,-1.1393067,-0.07623845,-1.3842514,-1.1917452,1.213499,-1.358807,-1.4216654,2.1823692,-0.5344121,-0.01948295,0.007241451,0.08839361,0.37370786,-0.4881296,-0.17934075,-0.56972456,0.6146333
MMRF_1068,1.5757645,1.0603566,-1.9843812,-0.21131077,-0.14958723,-0.044784468,-0.44813654,-0.3664625,0.09661252,-1.7540417,-0.38244548,-0.21638286,0.24695101,0.5784147,0.6709868,1.3559281,-0.4520128,1.3370589,-0.03171987,-1.4898629,-1.4080783,-1.3763674,0.9543037,0.72940856,1.2777967,1.0550047,-0.85115033,0.31742692,1.8725379,-1.7594843,-0.15854524,-0.47730145,-2.0333836,-2.1447573,0.16503698,-0.82237226,0.45831475,1.1670413,-0.25679904,2.350465,-0.69783366,1.9074279,0.9225642,0.20674376,-0.10550209,1.1726849,-1.4264842,-0.533986,1.7877797,-0.17891344,-0.17698824,-1.0951117,-0.23871516,1.4853518,-0.9579785,-1.5167952,-0.28906813,0.14387165,-0.3583879,-0.72217375,0.49609315,-0.504017,0.33830342,-0.2969738,-0.64072025,-0.0270447,-0.96858424,-0.46239975,-1.0546837,-0.8893868,1.2591556,-0.3814851,0.5867635,0.83495766,-0.72837734,0.06988597,-0.011856938,-0.44054028,-0.320791,0.18561342,2.3006632,0.87412155,1.0787868,-1.1662889,-0.41658694,1.3543,-0.013970735,-0.05517301,-0.85088956,0.60557616,0.99567884,1.1596726,-0.13329154,-0.25928366,-0.84533626,-2.09273,-1.0984869,-0.38828686,0.32804483,0.8921368,-1.4606332,0.7684583,-0.58109325,0.55771375,0.12713826,0.49033162,-1.2306505,-0.3118697,0.17251648,-0.1988253,-1.0695239,0.37687406,1.9723252,0.13371904,-2.1453362,-0.72058976,0.49890578,0.13007769,0.16985565,-0.7136879,0.87759566,0.7330756,-0.254346,-0.22941293,1.4234986,0.9773047,-0.29403743,2.716899
MMRF_1078,0.68239623,1.8350888,-0.15018687,0.86195946,-1.4265296,-2.0848372,0.72373784,-0.034541205,0.82793474,-0.013933095,-1.0179499,-1.2016623,1.3556883,0.8875609,0.29788724,0.33300072,-1.4340202,-0.45288664,-0.38738233,-0.117637776,0.5575794,-0.32066277,1.3388633,-0.67503005,-0.020460129,-0.97115767,-0.41607106,-0.88179004,-1.5951942,-1.5021693,-0.07147997,0.8614679,1.2112998,0.61026835,1.0844307,0.027044775,-0.59004533,-0.7030391,0.26059222,0.2568494,0.10118239,-0.019229382,-0.9029636,-1.3621904,-0.20476311,1.5177317,1.6060399,1.3591769,2.6701314,-0.69969267,0.5109135,-0.9134793,-1.2109815,-0.28662696,0.29888344,-0.93843764,1.5979872,-0.93143135,1.296907,-1.9724001,1.2272943,-1.9840308,1.1270652,0.26973897,-0.047578268,1.273337,-1.2992219,-0.30204678,-0.0037089977,0.014705071,-0.8042942,-2.5991683,0.28329307,0.890738,1.8378081,-0.6899634,0.8344483,-0.84793913,0.5200934,-0.0703298,-0.2795259,1.6032668,-0.23422986,-0.7051385,0.34266534,-0.71604073,-0.7051057,1.6720377,2.1302924,0.15981194,-0.76638085,-0.9674393,0.80804324,-0.07513989,-0.19792587,1.1562376,0.4906008,0.68649393,-0.26419735,-0.07851145,-0.94232243,0.95151067,0.5134624,-0.9315429,-0.34706768,-0.51869583,0.37127578,0.37989593,1.124803,-0.41289973,-2.1807427,0.19573496,-0.14302552,-0.563372,-1.1015044,1.3164308,0.42151123,-0.9399018,0.9252025,-0.53601366,0.12706676,-0.61769295,-0.9923823,-0.36088476,-1.3299577,-0.20743507,0.4404444,2.272921
MMRF_1086,1.3690382,0.8157912,-1.8112845,-0.07279313,-1.3113395,0.48151433,1.0825822,-1.2569245,0.6458848,-1.1778983,-0.040215567,-0.3198987,-0.024018105,1.2067745,1.220645,0.36759752,-0.5742481,1.1394335,0.8650919,-1.4914308,-0.35854608,-1.6091405,2.387982,-0.7131739,0.19379619,1.6142051,0.3839622,-0.010322802,0.88828397,-1.2327027,0.06304101,0.82295007,-1.1682379,-2.0338497,-0.06914864,-0.9105281,-2.0164075,1.1126673,-0.26954585,2.4960117,-1.4329122,1.3850363,-0.8366473,0.75166804,0.08330081,0.38877502,0.88723767,0.0049481913,0.42696217,-1.3556612,0.06527313,-0.5657967,0.87043285,0.2928601,0.14996058,-1.6982633,0.44181037,-0.002312705,0.85756296,-1.2200751,0.6172171,-1.7449902,1.041371,0.8162892,1.110539,-1.305916,-0.8285327,-0.5511124,-0.6135549,-0.4891297,-0.037355967,-1.4117197,0.2548534,0.33565605,1.6137486,0.081170484,-0.088600285,-0.6526582,-0.67366534,0.010184538,1.320403,-0.2586534,0.098422036,-0.9481164,-0.36843595,-0.76077795,0.44627258,1.5111357,0.7243492,-0.5233909,0.99866134,0.37628636,1.2683765,0.8543803,-0.7768312,-1.6537999,-0.9112992,0.081406206,-0.0047068167,1.4049921,-2.0106912,1.200202,0.034373533,-0.06662654,-1.1668199,0.6185087,-0.83178705,0.35503733,0.96327883,-0.4238758,-0.30039445,0.5468037,0.37986013,-0.84961116,-1.5172101,0.5419632,0.47149062,-0.6910648,2.0098736,-0.8719476,-0.3563891,1.1022432,-0.6375588,0.25147805,0.43975332,-0.3157881,-1.657363,2.3025558
MMRF_1082,0.43612394,0.7129272,0.71429354,-0.6099355,0.42978778,-1.3684014,-0.6355043,1.0081513,-1.3273934,-0.16853891,-0.7137796,-0.5892171,-0.29313228,-0.32213306,0.39359757,0.37561783,-1.0009094,-0.54745513,-1.9607646,1.4673612,-1.1149474,-1.0951979,0.26104695,1.5902352,-0.8013292,0.6529305,0.29175192,0.061402533,0.97544646,-1.4789317,2.5840347,0.747587,-0.3742302,0.046473157,-0.7790239,0.08450745,-0.0721139,-0.49271604,-0.3297291,-0.12786964,-0.8491808,1.2306101,1.0820662,-1.3452349,-0.12691131,0.5070405,0.43504348,1.0655233,1.5880736,0.092271835,0.7533409,-1.6297547,0.66210103,-0.6863208,-0.6190957,-0.7922121,0.32894793,-1.0322111,-0.62827104,1.1676332,-1.0016232,0.30717483,-0.86820376,-0.07551958,0.38134205,1.119149,0.48255584,0.76789236,-1.69413,1.9169769,0.12517843,-0.121343315,-1.1376729,-0.61662966,-2.294127,0.5036402,-1.2925872,-0.38294435,0.49356973,1.1550138,0.85527664,-0.6524085,0.5492471,-0.84941334,-0.33233044,0.6580967,-0.4794263,2.3475103,-0.96999764,0.3819869,-0.3337566,-0.3331503,-0.23833573,-1.6516649,-1.4920995,-1.4381024,0.12556392,0.12069921,-1.2250973,-0.0847944,0.055841874,-0.30387604,0.50734824,-0.13057539,1.0352043,-0.20078784,2.4686768,-1.1214548,0.9087617,-0.09890533,-0.10090835,-1.7964338,2.1228356,2.1612582,-0.66300666,-0.86573344,2.2066817,0.8765968,-0.48623562,0.41405722,0.49976274,-0.9348508,-0.4400108,-0.43945754,2.4424355,0.72577083,0.07772222,0.51790357
MMRF_1092,-0.14118053,0.18832016,-0.6010752,-0.28743196,0.86420345,-1.2111996,-1.1220481,0.68952733,1.6898408,-0.3275377,-0.44770327,1.3353428,1.2976745,0.5678697,0.016817462,0.73113686,0.151519,-0.14999117,0.007504897,-1.0337896,0.74799865,-1.1783469,-0.32606062,-0.39595962,1.8268594,-0.9725007,-2.3318832,-0.033250667,-0.45996186,-0.69727975,-1.3585796,0.80731845,0.6867382,-0.47201788,0.12389333,2.271874,2.0190716,2.310718,0.6803556,3.9087849,1.3490844,0.6822146,0.7938976,0.9609952,0.53665024,-0.18672438,0.4280709,-0.62963855,1.6702763,0.38862115,0.22144088,-0.100593664,-1.9543926,0.19584647,-0.6007038,-0.17318003,-1.5800338,-1.3722368,-0.91463596,-1.2221575,0.51149744,-0.7447079,1.6799186,-1.1723256,-0.4056651,-1.2533828,0.105129085,-0.1431327,-0.74299246,-1.2672045,-0.9038265,-0.29684782,0.216217,0.5590883,-0.14916876,0.10311,0.22665429,-1.6969439,1.0603776,0.04710953,-0.51059735,-0.5362356,0.50867325,0.35619965,0.429888,1.5895224,-0.052439697,-0.30545917,-0.49235812,-1.9346778,-0.354456,1.192719,-0.536381,1.359087,0.65839624,-1.5578483,1.2043114,-0.28390834,-0.67069125,0.025166482,0.1014542,-0.5517531,0.24253032,-0.93820864,0.22721566,1.3997312,0.025481936,0.6516085,0.1851245,0.87933797,-0.65178955,-0.7528074,0.8619215,0.933238,-1.3313178,-0.04943575,-1.5087687,0.47013268,-0.57790977,-1.7168301,-0.29570168,-0.94038516,0.05657763,0.7707101,-0.8022615,-0.46787286,-1.1295451,1.2207646
MMRF_1325,-0.11527534,0.66268045,1.2896597,-0.090501115,-2.183776,0.11393538,-0.31824854,1.0131658,-1.9437172,-0.884235,0.86408937,-0.6624008,-1.2287235,-0.6866319,-0.3151314,-0.66367376,1.1074002,-1.2239889,-0.34296736,0.6214441,-0.43866888,-0.11484395,-0.21825308,1.1919374,0.34957004,0.19190028,-0.052565463,-0.15142563,0.8765073,-0.30526695,1.680666,-1.8172944,0.4339242,0.6524985,-1.1016817,0.8902006,-0.046271086,-0.64479053,0.037598163,-0.117017545,0.8535434,-0.43259853,0.30273673,-1.4088906,-0.47250012,0.1730237,-0.21375215,-0.19028205,1.1734632,-1.3084037,0.68364084,-0.6378133,-0.41832355,-0.703181,-0.57597494,-0.053293053,1.2447591,-0.3140327,1.5021571,2.2026947,-0.733925,1.0596262,-0.38206652,1.0588837,-0.5080051,-0.29288733,1.4126803,-0.83370817,-1.3978013,0.60352945,0.99361694,1.4960897,1.2529098,-1.6907158,-0.8995156,-0.5088366,-0.9050217,-1.0385878,0.96733475,1.0025092,-1.2330991,-1.5827705,0.043807574,-0.2496266,0.047876615,0.37695697,0.57762325,0.04912077,0.3386766,2.5875552,-1.9537928,0.19401017,1.1139224,-0.5489565,-0.81149304,-1.0285281,-0.89235115,1.5092618,-0.6049089,-1.2342999,1.0378149,-0.61602604,-0.13346794,0.9432899,0.3113231,-1.4259833,1.6983418,0.4703829,0.8543619,1.3823942,0.6462774,0.3540895,-0.16148934,1.0996379,0.6406175,1.7204335,1.4178768,-1.030897,1.1799228,-1.0983312,0.34198442,-0.78178644,0.8584442,-2.286229,1.1873177,-0.56018203,-0.97600126,-2.2128303
MMRF_1364,-0.36572915,0.84776884,-0.47932315,-1.2324367,0.7286919,0.4425708,0.28679648,-0.51571506,0.836441,0.7161651,-0.46937943,0.70001423,0.47066444,2.0372813,1.308588,0.8121337,-1.5897857,1.0704192,-0.6993989,-1.488621,0.1338462,-0.45325506,-0.8099247,-0.07635358,-1.1817929,0.02521586,-1.9892919,0.19362913,-0.62774646,-0.44464234,-0.36334297,0.28192195,1.7629806,-1.0106807,0.65248966,0.5945254,1.386503,0.5540106,-0.9562517,2.1325965,1.1258752,1.4411236,0.25010607,0.56301564,1.3348042,-0.43534535,-1.1460795,1.0362669,1.0232637,1.3379502,0.50825,0.34922886,-2.014931,-1.2022914,0.9843613,0.8085135,-0.6668364,-0.018027887,-0.5766144,-0.7647674,1.0243026,-1.8181745,1.5014424,-2.236078,-0.8553093,-1.1074554,-0.24297366,-0.17394745,0.7295122,-0.66438526,-1.561767,-1.181798,-0.22732642,0.4460751,0.9126697,-0.81904894,1.1057082,-0.35762307,0.9860795,-0.9139219,-1.0156097,0.48280984,-0.603818,0.769101,0.107850425,-0.7620505,2.082221,-0.27875042,-0.8078762,-1.4277525,-1.3856208,-0.32663536,-0.90378886,0.20282383,2.1677706,0.36522174,-0.91632706,1.4426402,1.877418,-0.15083048,0.06910933,-0.17417672,1.1364326,0.45289588,-0.7592575,-0.8675103,0.30593383,0.77720994,0.35221782,-0.21161893,-0.6699785,-0.9403115,-1.2145518,-1.5466529,-0.54708,0.23927484,-1.4749181,0.3421712,1.4140488,-0.17125106,-2.116684,-0.46564656,-0.0102088265,-0.047447775,0.4393635,0.2515117,1.4278364,1.4635757
MMRF_1383,1.118921,0.3916476,-1.733196,-1.1293409,-1.266924,0.40206087,1.746978,-0.35632676,0.08430418,-0.43943444,0.55874527,-0.77896065,0.58686924,0.92246485,0.0995532,-0.014390569,-0.9273383,1.1626259,0.15872343,-1.0737342,-1.2283549,-0.47133744,0.82221013,0.94039893,-0.597648,1.9176365,-0.28374824,0.81063396,0.7987382,-0.575739,0.8466073,1.3827703,-1.3994327,-1.7794127,2.0239441,-2.9998906,-2.3703523,0.30264145,-0.83698094,0.3458773,-0.9514738,0.98076177,-1.7159061,0.058528148,-0.7677922,-0.5361496,-0.067555994,0.04550551,-0.23487626,-1.6721151,-0.12047683,-0.38421676,1.4075307,-0.44429818,-0.26933977,-1.1636053,1.3033195,1.1731502,0.35403255,-0.6093436,0.027367469,-0.4286077,0.025015013,1.4971968,1.0924618,-0.35400775,-0.051857393,-0.28889683,-0.10509171,-0.42750302,-0.2616566,0.09939178,-0.17593658,0.714134,0.7556155,0.5978612,-0.13099012,-0.7224299,-1.5154161,0.07666246,1.3771715,-0.09748641,0.8765492,-0.56304246,-1.0977199,-0.043065928,-0.5632772,0.7758646,-0.28923,-0.41069865,1.6585561,-0.12770164,0.4915279,1.8627405,0.33088136,-2.2320359,-2.6863632,0.14686267,0.73726225,0.46492764,-2.0726402,1.3294199,0.2295441,0.589237,-1.0890692,-0.42642793,-0.9764528,0.6625499,-0.60160977,0.61586505,0.09825986,0.03749288,-0.8440808,-0.562275,-0.66532284,0.31076923,0.9634713,-0.36345243,2.268629,1.6256456,0.55571455,0.87134266,-0.58698773,-0.30100003,0.80810565,0.48511174,1.0495498,1.4066116
MMRF_1377,1.5781374,0.3019103,-1.118376,-0.8710531,0.33759817,-0.21635875,1.0750046,-0.15213056,-0.41602498,-1.0098226,0.020094551,0.38503698,-0.013920083,0.7990191,1.4073533,-0.74987334,0.10424444,1.1948615,0.37705612,0.52465,-0.4475894,-1.6165189,1.6523819,0.27483904,-0.1471125,0.68349284,0.62525445,0.6512319,2.2813416,-1.6608577,0.116420835,1.261106,-0.76178277,-1.9467566,0.49196723,-3.1928813,-1.3257611,-0.51709867,0.042969152,1.5740827,-1.054971,1.004974,-1.4683974,-0.10656148,0.26855394,1.1776797,0.4292132,-1.1103486,1.0317997,-1.0718544,-0.21709731,-0.5805043,0.5125618,1.1856759,0.012168859,-0.9068963,0.7214625,0.9973493,1.4612267,0.5062107,0.0061894376,-1.8806882,1.1248232,0.50873625,0.8586427,-0.8676465,-0.51955974,-0.38420117,-0.6072335,1.208134,0.59797454,-1.0678085,0.27326137,-0.5644744,1.356007,-0.17148396,0.1943382,-0.0052282196,-0.9982137,0.6157725,2.0884454,0.4989415,0.1642728,-1.3052874,-0.5226107,0.2528071,-0.6709107,0.45046142,-0.0023580156,-0.9773817,1.2809324,-0.34991172,-0.009702165,0.5829254,-0.021026826,-2.1516342,-2.3061194,0.09966008,-0.18681937,-0.747554,-2.5092783,2.2480419,0.9047586,-0.37039092,-0.7872863,-0.029497737,-0.78381914,0.6343641,-0.3514975,0.5006388,-0.4789775,0.5192995,0.9516841,-0.94177693,-0.94457287,-0.7849755,0.022963207,-0.25685403,2.444423,-0.16304943,-0.7747879,1.7776967,-0.39889836,-0.174948,-0.1348263,0.11855684,-0.7796459,0.35154614
MMRF_1360,-1.3504622,0.25211436,-0.26206353,-0.04976072,-0.25967845,-0.70249987,-1.2541724,0.17458837,0.7699075,-0.88245606,-0.59048533,-0.7333535,2.4844525,0.058606263,-0.8522503,0.21963951,1.6049571,-0.1400623,0.6611341,-0.3363999,1.5486296,1.5387282,0.20757134,0.17318438,2.3697555,-2.002287,-2.2237356,-0.38800722,-1.8194027,0.5218331,-1.0030113,0.062601104,-0.6501563,1.3814074,0.009000724,2.151499,2.7510083,1.4643817,0.85247767,0.59537286,-0.68975616,0.020600667,2.0374465,0.8950999,0.02947162,0.18166023,-0.28630605,-0.35550958,0.16537648,-0.24851108,0.15380391,0.01758508,-0.6751688,1.2328318,-0.8149711,0.11454132,-1.4671108,-1.4034413,-0.7459874,-1.2290368,-0.64522237,0.75893474,-0.25730628,-1.1566367,-1.5910654,0.0037946105,0.4624913,-0.8963308,0.12477879,-1.5125012,-0.17231926,1.0551864,1.4008399,-0.22138442,-1.0484924,0.5898912,0.70162034,-0.46115968,1.2801088,-1.1903616,-0.6087,0.3056494,-0.4666521,0.08177291,0.89027,0.7766555,0.397158,-0.31864592,0.11940659,0.022475777,-1.7389636,1.1099867,0.120853685,1.4133984,0.37788904,-1.3083707,1.3152252,-0.93162656,-0.11422422,1.3952467,0.21275428,-1.9928771,-0.40127954,0.10271796,2.0789323,0.8838387,-0.40322554,-0.9658589,-0.98185027,0.34675586,0.30791938,-0.09037797,0.5535374,1.9702364,-0.44280937,-0.42389137,-0.09120738,0.5914758,-2.1569824,-0.8356325,0.26756665,-0.9705365,-0.12915805,0.35244387,-0.27785754,-0.54313856,-0.16158946,-0.24892133
MMRF_1371,-1.0094457,-0.9522082,0.11993753,1.3425122,0.9395116,-1.0626682,-1.5499307,0.43684855,-1.6007622,-1.6697829,-0.7240258,-1.0609682,0.9424031,-1.9393102,0.09386234,0.010743958,1.6629221,-1.4256871,0.18822278,0.02815906,-0.49983868,1.9698952,-0.88267785,0.10105544,0.5083618,-1.1986951,-0.6496675,-1.0421095,-0.61634415,1.9212676,0.4505198,-1.4560905,-0.13877277,-0.088942766,1.1268228,1.2649133,0.40459839,0.4647953,1.7333953,-1.5034206,0.35361692,0.37294868,1.6177098,-0.1277093,1.1651771,-0.8511872,-1.969742,-0.98655075,-0.8311497,1.5819757,0.19975999,-0.39825034,-0.9383666,0.3139214,-0.44426152,0.11374465,0.2566693,0.48883188,-0.8041542,-1.0983454,-0.08752217,0.30293316,-1.6724936,-0.8612939,-2.5074353,0.9478993,-0.5886259,0.1251494,0.029107567,-0.12882198,-0.21702367,-0.075295486,0.7743888,0.36593744,-0.9082119,0.88448185,1.1297461,0.3676894,0.95863265,0.18648589,1.4390206,0.67823845,-0.245787,0.79795974,0.19542263,0.18560503,1.737673,-2.4244556,-0.2524959,1.606174,-0.4369966,0.3474202,-0.8332788,-1.575037,0.36441553,0.43499407,1.4698006,-1.073044,0.12765312,0.6016721,-0.13880162,-0.17640567,-0.7749915,0.5321917,2.1197538,-0.5487314,-0.069533214,-0.54822904,0.1725513,-0.39349917,0.09260996,0.3234954,1.6427056,0.36836952,-0.59569657,-0.17694952,-0.24796282,-1.4005145,-1.9796742,0.20809607,1.9702816,1.2428318,0.4848428,0.70399207,0.6877258,1.3411868,0.7027131,-0.452859
MMRF_1089,-0.5464683,-1.9428324,-0.51760185,0.803378,2.2688475,0.103959784,-0.2522624,-0.5110613,1.4751614,0.9306427,-0.4998067,1.0098919,0.18566754,-0.38475156,0.10793735,-1.6323749,1.4900571,0.47425228,0.13540307,-0.80063254,-0.18438809,0.2492725,-1.6759095,-1.2774856,1.5668466,-1.5497167,-0.45931965,0.032710522,-1.9083676,0.80774516,-0.024774628,-0.6710696,0.6516633,-0.28698426,1.95406,0.47866628,0.9682064,0.9937695,-0.13817571,0.1065635,1.9500074,0.2931731,0.74052215,0.74279976,0.60650337,-0.025310539,-1.1748291,-0.46393153,-1.9045662,1.503897,-0.6027606,2.2246249,-1.1189488,0.15126374,-0.24622545,-0.48656112,-1.7948384,0.98285264,-1.3215201,0.36994505,-0.067981526,-0.011925435,0.40449387,-1.0114965,0.9695428,-0.58642715,-0.37003294,0.9943159,0.67935467,-1.3942782,-0.08029939,0.37094277,-0.59836847,0.6247046,-0.2895837,-0.07494716,1.772873,1.2262952,0.14770913,0.77685785,0.019018339,0.6184109,0.22898868,0.45075896,1.3022401,-0.36697644,2.0234036,-1.262044,-0.47386178,-0.9414591,-0.72244316,0.042252015,-0.17018951,-0.3411575,1.0204397,2.0594938,1.6633712,-0.51721185,0.8203162,-0.45004287,-0.75373834,-0.4998433,-0.23732245,-1.4105169,0.16340393,0.6483234,-1.3380584,-1.7393476,0.53887856,-1.0539398,0.50565666,-0.49197558,1.8492479,-0.04931587,-0.15589929,-1.6853406,-1.5607529,-0.6904576,-2.211475,-0.8414164,-0.2035405,0.23485452,-0.78923917,0.42073348,-0.3629972,1.4385262,0.7770335,-0.9424134
MMRF_1365,0.97639203,-0.9866421,0.41042572,-0.22617942,-0.9522467,0.4771332,-0.20240654,-0.5094166,-1.3262885,-0.25146055,1.7676138,-0.12997478,-2.194844,-0.3738173,0.72415346,-0.67014563,0.3366055,-1.0298027,-0.6336479,0.18949392,-0.9788876,-0.7573651,-0.63389814,1.1611822,0.19173168,1.0090276,0.9723238,-0.5329825,1.4248496,-1.1225473,0.41219386,-1.9993489,0.4109237,-0.74970675,-2.2623377,-0.49679387,-0.7463486,-0.73836076,-0.1197502,0.28940853,0.91010463,-0.22312431,-0.5058963,-1.8055838,-0.7809996,-0.076177254,-0.38589996,-1.5702126,1.837251,-0.12250237,-0.024183197,1.1511333,-0.70254505,0.7725476,0.26665047,0.9883134,0.53855944,-0.14771707,2.1810696,1.7838188,0.11550778,1.2987399,1.5103233,0.856056,0.54653585,-0.577903,0.46744403,-0.368163,0.0016715974,-0.4308467,1.6681631,1.5551411,1.2829012,-1.587866,-1.6482838,-1.3536986,0.35495567,-1.0798272,-0.76223266,1.0933115,-0.495781,-0.059850454,0.8516858,-1.3768964,-0.27747655,0.3572703,-0.0482805,-1.1709498,0.70030344,1.8371806,-0.82559085,-0.17366958,1.1047624,-0.63623166,-1.4543014,0.21715114,-0.66675925,1.2728589,-0.13245818,-1.2844892,0.08713098,0.84670156,0.13119522,0.8866037,-0.9936345,-1.3930309,-0.12218425,0.23982082,1.5081838,1.2728401,1.3446295,0.45752722,0.7057969,0.28821546,0.22618507,1.3156441,1.1743023,-1.8614403,1.4266235,-0.7936026,-0.47269338,0.9853698,1.4219187,-1.1694233,0.4380903,0.10405949,-1.1446127,-1.8109995
MMRF_1356,-0.3752809,-0.4731634,0.7171464,0.11485322,1.0108955,-0.3627537,1.2546748,0.58281195,-0.2709319,-0.88410443,-0.08835101,-0.51371336,1.1965432,-0.95739293,0.7777856,-0.3876872,-0.25758967,-0.69580966,0.76681966,1.0011412,1.1586516,2.1045687,-0.87187135,-1.3268087,-1.179112,-1.9592795,2.103039,0.2888431,-1.3790064,2.000181,0.21664432,-0.4776643,-0.69201124,1.7403622,1.1373607,-1.2648287,-1.1125811,0.12178227,-0.9167874,-2.657808,1.6708267,-0.6320797,-1.3219798,0.11493527,0.34675467,-1.0498041,0.31789008,-0.24724218,-1.1197367,-0.8039965,-0.9039713,-0.17395899,0.9907607,-0.7173236,0.37888288,0.25801817,0.93212116,1.6529803,-0.020529428,-1.2807906,-0.040390864,0.8130996,-1.4800785,0.4170985,0.5352921,0.59035766,-0.9697899,0.6212139,0.8537397,0.60090697,-0.70243067,-1.2042096,0.6693051,1.2522106,-0.30605426,-1.284327,1.1931742,0.9955067,-0.52408236,-0.93205136,-1.3417462,0.6031297,-1.6975918,0.78010243,-0.02695259,-1.2086161,-0.37377402,-0.3945697,0.91006225,-0.644995,0.03352548,-1.4061723,-0.20168671,0.42972374,2.5120301,1.6026595,0.47832263,-0.3372611,0.017417165,-1.3445047,-0.3410151,0.8175948,0.5833707,-0.14938894,0.41334853,-0.85649455,0.9407868,0.22606952,-0.5080708,-0.69909656,0.72497,1.859829,-1.1414713,-1.3361135,1.6512356,0.71151316,-0.68828994,-0.49817425,-0.3553341,1.4758363,-0.13808179,1.0125287,0.51474404,-0.63258094,-1.5369871,1.1542358,0.74557555,-1.0648859
MMRF_1270,-0.56999636,0.813757,-1.9894856,-0.8422575,0.61178756,1.1916448,1.279187,-1.1093478,-0.9592672,0.5067336,0.3603627,-0.19914865,-0.5474382,-0.0567755,0.39368534,0.18291336,0.21434194,0.12966046,0.24891597,-0.36462426,-0.49303243,-0.17811117,-0.58887994,2.4570467,-1.492764,1.6157979,-0.65124965,-0.60523766,1.0065949,-0.29339978,-0.04992872,2.019904,-0.8074617,-0.506894,0.3334101,-1.501075,-0.69311637,-0.8532037,-1.4100823,-0.36356017,-0.72938794,0.92942923,-1.6338098,1.0379896,0.069103666,-1.0856172,0.1512784,-0.65912765,-0.90813,-0.22986239,-1.5400447,0.6438703,0.7751667,-1.9746724,-2.1384661,0.17397536,-0.74671936,0.5264934,-1.3555781,-1.8162662,1.0693585,1.5338026,-1.1892235,0.5523084,1.9396735,-0.30873358,-0.08200357,-0.58603966,-0.70914114,-1.3947105,1.0182183,1.0226228,-1.6887356,0.9339678,0.79672813,-0.56863534,0.6930481,-0.26875487,-1.0318161,1.7869282,0.28164005,-1.7156347,0.6530585,1.7078432,-0.63387114,0.20024098,0.032697786,0.009216702,0.75364083,-0.015730876,2.3463972,-0.17422317,-1.3583984,0.8874208,-0.2008305,-0.28086102,-0.8770214,-0.7372903,0.28263256,1.114065,-0.0073798206,0.90803754,2.2081242,-0.29936275,-0.5474555,1.1319311,-0.5240315,1.8315766,0.17347886,-0.5517239,0.57732695,-1.1681793,-0.19543836,-0.3375476,-0.6970348,0.5943163,-0.43327817,0.14170511,1.1078954,2.0934312,0.0895507,-0.29858574,-0.4982272,1.6676804,-0.24623942,0.584094,0.1961181,1.0351458
MMRF_1323,-1.7161721,0.86028296,0.78017366,-0.7664002,-0.117959134,-1.2434646,0.15484315,1.2383835,-1.5641229,-0.31082776,0.08246048,-0.31878144,1.0838759,-0.8639853,0.00017869007,1.4855212,0.23136044,0.8522521,-0.32849646,0.69091105,1.1405017,0.15091147,-0.86333674,0.397575,-1.78961,-0.36638495,-0.44368985,0.93275225,0.48942682,1.0387866,2.1246016,-0.5235431,0.14100699,1.6052667,1.1085747,0.7429568,-1.0148,-0.5334624,-0.49313146,-1.7941681,-0.4483498,0.33358386,0.56536514,1.2538341,1.734837,-0.22998287,-0.69316804,1.4267212,0.1786033,-0.05705954,1.3274812,-2.0331776,1.2316297,-1.269739,-0.37442505,-0.4641635,-0.20843211,1.6493195,-1.8031104,-1.1840423,-2.1676645,-0.3727708,-2.0597448,0.16437016,-1.1823934,0.7205883,-0.85385805,1.0113033,-0.6950098,0.36198294,-0.31207842,-0.24168546,-0.007750827,0.36569872,-0.6569308,1.5529937,0.46295935,-0.2437993,1.5978416,-0.61523753,0.80608547,-0.36060497,-0.799812,0.06629889,-0.15585877,0.5965549,0.082913786,0.52906,-1.0393909,0.81502575,0.34880033,-0.2984996,-1.2109051,-1.1806526,1.4092404,-0.83018106,-1.8528061,0.251606,0.4844035,-0.9876019,0.7750371,-1.2760376,0.10021889,0.6048619,1.6074898,-1.6880196,2.089722,0.9887051,-1.4786608,0.24725918,-0.66489047,0.03433574,0.7467702,0.57541424,-0.2208783,-1.6055682,0.32647425,-0.05681385,-0.8630647,1.2190173,0.6780707,-0.7402597,-0.46014425,-1.0611894,2.4280984,0.3696509,0.4185177,0.07457158
MMRF_1180,0.30772576,1.1285098,-0.73427635,0.73253024,0.09453752,-0.7744335,0.39635324,0.3548295,-0.4282875,-1.368032,-0.31673282,-0.2281465,-0.16043939,0.32250395,1.2173355,0.9566749,-1.19199,0.40778062,0.6647315,0.7389799,0.2197878,-0.024804335,0.7711785,-0.44707242,-0.34062332,0.24908835,1.2558881,0.4567417,-0.32775778,-0.6908248,1.1928076,-0.2582995,0.08576294,-0.3317036,1.381336,-2.473917,-0.8949569,-0.6296676,-0.2930358,-1.0425003,0.5066977,0.7819501,-0.24147663,-0.60067356,0.46284682,0.35390833,-0.34047633,0.8816519,0.74312717,-0.97104126,-0.19413337,-2.750674,0.56997544,0.19906297,1.3531924,-0.7582899,1.7335633,0.5398376,0.19859293,-0.30793366,-0.1444329,-1.6388354,-0.43005913,-0.5729235,-0.65429425,1.6607926,-2.354267,1.1916424,0.17743304,0.01978936,-0.76925534,-3.1155522,1.1526834,1.5560054,1.4961514,0.99202824,1.1990975,0.15027082,-0.29761115,0.88781655,2.089635,0.9330399,-1.0818832,0.18814573,0.082015924,-0.06706277,-0.37820083,1.070406,-0.3350898,-0.99146944,0.53276724,-0.73603433,-0.34389532,-1.3099132,-0.5034152,-0.002560502,-1.7616364,0.37416783,-0.42876962,-0.15475762,-2.302857,0.7152744,0.44120365,0.9128988,-0.0035065338,-1.6436846,-0.30818143,-1.1585381,-0.22732012,-0.09071689,-2.08092,1.6069769,0.7713394,-1.4205651,-1.4194702,0.46009108,0.09252314,-1.1992625,2.3493848,-0.24578866,1.4060508,0.35325715,-0.098259255,0.21589036,0.29432258,0.35485357,1.5199122,0.8707292
MMRF_1188,1.1853002,1.5672995,-1.4581593,0.35862902,-2.1710994,-0.21701945,0.43077853,-0.28206363,0.13746296,-1.1575642,-1.1174495,-0.2503995,0.32494023,0.56525016,0.925802,0.928036,-1.3076273,0.8865212,0.5746799,-0.54223835,-0.37407622,-1.8737274,2.288215,-0.1974999,0.29029799,1.6724727,-0.83939165,0.3208081,0.7010909,-1.3309772,-0.21636797,0.06778241,-1.2779032,-1.9322836,0.6415686,-0.8749786,-1.1092011,0.95197684,0.55121917,2.8458784,-1.7922008,0.28879717,0.37055916,-0.08681563,-0.08716746,0.64742047,-0.08316478,-0.06910372,1.1444457,-1.4432809,0.41972244,-1.3496678,1.0368303,0.79238266,0.38018262,-1.7340609,0.5754281,-0.35897353,0.6655699,-1.1382015,0.054280095,-1.2216185,1.4154953,1.4638165,-0.015054174,-0.25167012,-0.45911774,0.14633103,-0.35316363,-0.19870162,0.7615314,-1.474882,0.23576027,0.875223,1.2452222,1.0519586,-1.3461233,-0.27019304,-0.40335685,-0.61047924,2.1487987,-0.52019083,0.48550487,-1.2282153,-0.23892088,-0.2305606,-0.14759319,1.3536843,0.31890586,0.87598985,-0.036090806,0.68384415,1.0529603,0.8094341,-0.7948654,-1.6382974,-1.4331404,0.5223969,-0.54384094,1.7421378,-1.5683564,0.7386615,-1.1049778,0.7177045,-0.54275984,0.14634031,-0.7450068,-0.41823274,0.6626312,0.44471815,-0.72349286,0.1968814,0.6676017,-0.16175643,-1.7709371,0.46278948,0.66272163,-0.25098082,1.093695,-1.4003904,0.39829454,0.45170584,-0.5138266,-0.4911144,0.81413543,-0.7958241,-1.2949874,2.6110582
MMRF_1300,-0.3883318,0.22633488,0.30736214,-0.34111905,0.7151393,-1.2726017,1.5485628,-0.32175964,1.0379305,-0.061526548,0.2552805,-0.041204236,1.3026873,0.91144514,-0.7233877,-0.100201875,-1.096528,1.5892179,0.8674797,0.28796375,0.15968116,-0.37412235,-0.11684075,-1.0948036,-0.44134408,-0.77816063,0.23831782,0.5041444,-0.19965461,-0.32241562,0.84477735,-0.6232946,0.22122991,0.23480842,2.4616594,-1.304967,-0.942522,-0.89240986,-1.1676149,-1.3536901,0.63673913,1.8038605,0.7838398,1.838255,1.7035977,-0.1077068,-1.2445533,2.4484272,0.06262789,-0.09527284,0.709246,-1.5832075,-0.02510448,-1.1066248,0.58967465,-1.1793013,0.5720372,1.5754901,-0.4759426,-0.5000709,-0.20525338,-1.4800376,-0.8510338,0.13468334,-0.3197952,1.1998701,-1.4489372,1.0606272,0.40668425,-0.30352238,-0.48196587,-2.8130763,0.07515802,1.0364947,0.7947246,0.74477303,0.9907432,0.5402988,0.4717478,-0.9243676,0.7352193,0.8775523,0.21908633,-0.4147272,-0.042597633,-0.56744564,1.26565,-0.30286857,-0.805676,-0.68142927,0.9840155,-0.48461902,-0.47343054,-0.89154965,1.3510896,0.6262141,-1.8362311,0.6192836,1.6419145,-1.2680196,-1.234341,-0.19888218,-0.010295983,-0.15096073,0.061774187,-2.3782952,0.16411448,-1.0694938,-0.21275234,-0.09818575,-2.419484,0.68589884,0.88048077,-1.5461092,-1.2148578,-0.118614964,0.28328487,-0.47560084,0.15676646,1.1035076,0.5893919,0.27522942,-1.7608167,-1.1979944,0.9528179,1.0279633,1.656527,0.8677851
MMRF_1331,-0.44336838,0.99923027,-0.5013384,-1.4600327,0.064815454,-0.32445624,-0.16984084,0.49730816,1.2733607,0.4070028,-2.3073592,0.7513849,0.4504182,1.0049157,-0.19509341,0.753801,-1.0661466,0.46249077,-0.888056,-1.2445735,0.43936586,-0.059188053,-0.9827582,-0.84601647,-0.04202228,0.19744982,-3.2623706,0.6945952,-2.223184,-1.0528209,-0.17648599,0.88799435,1.6300356,-0.3745658,1.0269496,1.9659325,1.4879375,0.87008506,0.0068733795,3.0330143,0.5929498,-0.10820043,0.81824595,0.93356144,0.3920461,1.2642021,-0.22825776,1.2423352,0.1361233,0.89642805,0.93476534,0.42617708,-1.3014952,-0.8625937,1.010088,-0.4267727,-0.589771,-0.84743094,-1.0765246,-0.23027658,0.3507061,-2.20639,1.7592834,-1.0619298,-1.1550999,-0.120958,-0.6750549,0.4030263,0.7217796,-0.4790282,-1.9215103,-1.553489,-0.06274221,1.294554,0.9892463,0.61737806,0.4012121,0.36201307,1.510058,-0.8092745,-0.5100773,0.8092569,0.18465398,0.28369153,0.7379306,-0.15810552,0.3383422,0.68619597,0.20530516,-0.020925587,-0.96854955,0.054190505,0.6270793,1.0162318,2.046768,0.8404073,-0.5316988,0.49275634,0.5690866,0.9178475,-0.25052902,-1.7589186,-1.3363162,-0.8300187,-0.588669,0.17382048,1.4191253,-0.10378525,-0.027370868,0.09947863,-0.5689824,-1.1787717,-0.6588674,0.26557767,-0.641995,0.060547218,-0.9174527,0.3752659,-0.912118,-1.1558813,-0.8164447,-1.4777393,-1.0868784,-0.50943017,0.14240967,-0.40746605,0.46473655,1.9852848
MMRF_1185,0.95109737,-0.32446253,-0.43300784,0.03261959,-1.7031691,1.409404,1.4026686,-0.2489602,-0.74956596,-1.2082748,1.6090963,-0.3948257,-0.05582677,-0.62798744,-0.9116732,-1.2181016,1.0230458,-0.25715646,0.64567626,-0.90747535,-1.0984317,-0.017106462,0.51398695,0.03354655,0.5189906,0.3642718,-0.5374122,0.27199543,1.8440683,-0.17610955,1.0418016,1.3324977,-1.7152473,-1.7990277,0.43850893,1.2166711,-0.32215112,-0.004290006,-0.1469159,0.14825228,-0.7993331,-0.8324375,0.4918171,-1.8289492,0.47267765,0.17461681,-0.7800514,-0.0030276552,-0.5249833,0.75597703,0.20705673,1.4730551,0.64256054,-1.4365617,-2.219026,-0.6840636,0.66024137,0.67629296,1.5016488,3.1538913,-1.2006124,1.4808807,-2.0933864,1.0372204,0.8606309,-0.9189691,1.1054914,-0.1682499,-0.12830055,0.67689663,0.26360983,2.2454975,0.81433153,-1.9589773,-0.7962497,0.8156156,-1.3659756,-0.2828261,0.4427005,-0.046833098,-0.76217276,-2.2026064,1.004077,-0.25832033,0.40221444,-0.15245223,0.43725455,0.61205757,1.240147,0.67164326,0.41773123,0.5192228,1.1694003,0.6118839,-0.58045685,-1.5473126,-1.4342538,-0.040294826,-0.35127634,-0.45241454,0.22869213,0.0031309277,-1.5352256,0.95718753,0.99303997,-1.0697474,0.39619642,0.16673544,-0.41548568,-0.040850945,0.22747785,0.30688107,-1.2622031,0.117568046,0.90616846,0.38772237,1.1387851,-0.008661972,-0.08093797,-0.10093539,-0.26172438,1.1569667,-0.38931492,-1.4853041,1.2273144,0.67879534,-1.3712397,-2.0557082
MMRF_1348,-0.23396514,1.31824,-0.71172804,-0.3900189,-1.9025106,-0.07147144,0.9886538,0.2931723,-1.0304738,-0.284293,-0.0054293284,-0.99818915,-1.7186611,-0.42799416,0.07260264,0.29587808,-0.49333727,0.26610672,-0.38548878,-0.30528876,-1.2761501,-0.08247575,1.3909909,0.9515153,-0.4557516,1.4045697,-0.36603925,0.5060441,2.0353138,-1.6872352,0.6306893,0.5862977,-0.105147466,-1.260233,-0.36882877,1.3148764,-1.0353279,-0.30361685,-0.9081475,0.5123397,-1.9509232,0.2735766,0.9558665,-1.1539038,0.47178015,0.44956875,0.58506715,0.9755613,0.8300937,-0.06480531,0.9941489,-0.5705771,1.2984191,-0.49009734,-0.22569698,-0.1619871,0.0074417116,-0.16674906,1.5258695,2.2721155,-1.423236,0.38251054,-0.63367254,2.2034762,-0.6184695,-0.857437,1.9117638,0.021944636,-0.9423094,1.1219633,-0.06967089,0.7365977,1.4131967,-1.3123974,-0.15509756,0.6824689,-2.2058089,-0.66214126,1.5027889,0.17861196,0.47998878,-1.5244818,0.2894645,-1.1270498,-0.28649715,-0.4269047,-0.11165514,2.3251047,1.2223885,0.89027715,-0.9139739,0.07850158,1.3023071,-1.1010362,-0.9461712,-1.6433842,-2.06632,0.81602204,-0.58199894,-0.46044514,0.14586353,-0.01836602,-0.91767627,1.1457539,0.16119254,-1.5883907,1.4807489,-1.0005503,-0.06510156,0.4155449,0.17758246,-0.35702452,-1.1706703,0.6352575,-0.47396457,0.21989858,1.4140173,1.206886,0.7759879,-0.43672717,-0.19698638,0.19907977,-0.30180335,-1.6324806,2.1818278,-0.18947704,-1.1531675,0.22912867
MMRF_1284,0.71718836,-0.6583082,0.49925944,-0.1469793,-0.30947432,0.90116715,0.5246897,0.04180065,1.9208335,-0.19070366,0.5991818,1.3043411,0.44788688,0.7877224,-0.038297445,-1.5428345,-0.24130866,0.0710139,-0.37735185,-0.8973452,-0.6970606,0.28549343,-0.05896298,-1.2837952,-0.5242531,-0.38671508,-0.8641971,-0.035837498,0.6885272,-0.8883712,-0.1459181,-0.6459151,0.25144926,-1.0588533,0.24994203,1.627554,1.4206072,-0.4846659,-0.12765743,-0.34003815,-1.4076328,0.7080044,2.6247826,0.81047493,1.6405082,-0.4279078,-1.7208227,1.1257554,-1.1244189,2.1100533,1.45232,0.23420203,-0.16470401,-0.68239087,0.48508093,-1.1424029,-0.4435504,0.21476656,0.2600674,2.2849796,-1.2478237,0.15831423,-0.35809875,-0.70270836,-0.9714852,0.11618475,1.6949575,0.17026035,0.82162803,1.4923749,-1.2168084,0.037258256,-1.6361642,-1.4961854,-1.6586822,0.66021913,-0.47895822,0.9545253,0.5148105,-1.9094535,-0.6621312,-0.75429267,0.43778804,0.11578876,0.3222388,0.022411374,2.2251804,0.41747117,-0.6102447,-0.7228634,-0.4698569,1.5328285,0.6623511,-1.2707652,0.43595135,0.46822536,-0.5652875,1.143799,0.49522817,-0.34853825,1.1180688,-0.4132906,-0.92120975,1.3928384,0.64246136,-1.8592497,0.6057484,-2.4460113,-0.7100742,-1.4654781,-1.1362264,0.16957328,-0.29321578,-0.20144007,0.2789074,-0.8170736,0.72288054,1.6378235,-0.9120505,-0.18648593,0.0505424,0.015361978,-1.2261658,-0.90112936,1.935315,1.006445,0.59535205,-1.8163218
MMRF_1202,0.101589456,1.2836584,0.38572475,-0.50647527,-1.601668,0.46869913,1.1832684,0.795825,-0.45299023,0.8917905,-0.38701186,-1.5434256,0.23763165,-1.7080075,-2.0002272,-0.31595096,0.09148581,-1.4000382,0.15906261,1.3505063,0.43378207,1.2599752,0.54454947,-1.0530798,-1.2334672,-0.9409981,0.5076059,0.55070764,0.48945808,0.693139,0.4300913,1.6380211,-1.0555667,0.03297972,-0.10142057,0.42985153,-1.1313673,-0.014694884,-0.6515717,-2.229258,-1.4715947,-2.036303,-1.6808554,-0.73305416,-1.6733319,0.4779447,1.2820942,1.461167,-0.8530071,-0.36590132,0.17869529,-0.86602426,1.7767483,0.23078798,-0.42804524,0.7553612,1.4061812,0.04806354,0.7811861,0.9213741,-0.72188884,-0.10382381,-1.7855169,1.6942571,-0.16792408,0.8771551,0.47459257,1.2792833,-0.13801262,1.7769815,-0.52059144,0.25596577,-0.3855654,0.20523301,0.66058266,0.63000387,-0.5547592,1.4201272,-0.04004725,-0.10048231,-0.78830755,-0.4127355,-0.5523789,1.4678029,-0.2802349,-0.13186401,-2.1312075,1.3097186,0.9566132,-0.008583941,1.0010515,-1.5851655,0.069033645,0.5548809,0.6855428,0.84116435,-0.47924936,-1.1657623,-1.3240811,-0.2661569,1.3562287,1.1030499,-1.4161551,-0.28481147,-0.3687122,0.25287077,1.4013698,0.57705545,-0.9795098,-0.40222877,-0.17284784,1.6766238,-2.0742788,-0.57546514,1.4544754,-0.1575286,1.1288067,1.4365226,-0.55355906,1.6491216,0.8171319,-0.20757069,0.022740021,-0.8815005,-0.5084171,-0.36270225,-0.2092754,-1.1900305
MMRF_1466,0.3951157,-0.59013444,0.54161984,1.5834218,0.67731404,-1.1930885,-0.8146006,-0.88611686,0.8079022,-0.30080318,0.66299915,-1.4927406,0.0058361087,-0.5388567,1.2364494,-0.48261732,0.38215244,0.137152,0.40649536,0.37657723,0.76692617,-0.1390565,1.2495215,-1.4408561,0.27430022,-0.95897603,0.6763262,-0.2848016,-1.3415586,0.6251163,0.042432122,-3.0315745,0.7035941,-0.30863103,1.4547129,-0.5161147,-0.85173494,-0.34905413,0.96657085,-0.13732862,-0.01520071,-0.10594607,0.6754441,0.334178,0.39410746,-0.8018859,-0.33942875,-0.54274863,1.363551,-0.35394445,-1.3632003,-0.5038956,0.04935323,3.118783,1.1490273,-1.2642485,0.010560113,0.3921912,0.96196365,-1.4926671,0.36385924,-0.3970691,1.6883141,-0.5311536,-1.2926025,1.0067424,-1.3291864,0.28384966,0.6198263,-0.95640475,0.92804587,-1.3628978,1.2111279,0.68759084,0.64701957,-0.78279626,2.0497458,0.0008897055,0.6005572,-1.9770033,1.8941522,0.95124775,-0.4636927,-0.7352851,-0.8132274,-0.65414584,0.6708256,-1.407341,0.4459078,0.5042441,-1.0096592,-0.41365692,0.6720166,-0.16071117,-0.21497153,1.4328016,0.8022247,0.83522576,1.1532441,0.032469124,-2.3367412,1.0342425,-0.6264562,0.18516928,-0.45663208,-0.2192107,-0.4604824,-1.1536887,0.9697632,1.0437052,-1.2224458,1.0170128,1.8246573,0.30104548,-1.3572177,0.44760212,-0.22292337,-2.1571426,0.8338813,-1.8462414,-0.06684134,1.3473265,0.28162977,-0.870605,-0.9934116,0.0036116764,-0.8035945,0.54715854
MMRF_1446,-0.13124,-1.0167989,-0.5091437,-0.79048896,-2.0018246,0.46725404,0.24866693,-1.7069093,-1.5455277,-0.62337655,2.0950422,-1.1204193,-2.0651057,0.35569862,0.08049488,-0.62332374,0.64123976,-0.2132955,-0.2767112,-0.33472595,-0.9574721,0.16120109,-1.7678013,2.2799735,0.14488766,1.8716047,0.50032055,-0.16184185,1.2011969,-0.47505832,1.6323438,-1.3926811,-0.37818253,-0.61611676,-1.5775692,0.51933795,-0.20876619,-0.31937802,-0.1787549,-1.0090878,-0.3608985,0.57528275,0.083549425,-2.2249923,0.11166415,-0.38420042,-1.148193,-0.46065918,0.5184148,-0.0009221658,-0.059358686,0.42170522,-0.25051534,-1.1578356,-1.0018101,0.68836486,0.6884524,-0.33475134,0.8977011,1.9138541,-0.009592261,2.2305954,-0.52713567,1.3351805,0.40080863,-0.7609606,1.4609758,-0.22368683,-0.060371086,-0.8288541,-0.058964625,2.3209975,0.95684457,-1.3345833,-2.013654,-0.837139,-0.9825475,-0.85230345,0.35557893,2.292065,-0.7135683,-0.6285941,0.9860096,-0.5019306,-0.8370643,-0.2577249,0.04859884,-0.35884318,0.2173355,1.8249273,-1.1314675,0.56297857,0.9700651,-0.03739334,-1.0286914,-0.093314946,-0.4198269,-0.07164595,0.37727496,-0.7357867,1.155419,-0.31042656,-0.39880127,1.6935151,-0.16448644,-0.5779435,0.25969687,0.67334527,1.5166155,1.0411456,0.67909473,-0.249202,-0.57496184,0.7557541,0.18046032,2.150447,0.937062,-0.60592544,0.55349576,0.8771716,1.251998,0.11999771,1.1168206,-1.4566771,0.6223322,0.6207695,-0.40061623,-1.200217
MMRF_1447,0.44467217,0.74316955,-2.6803503,-0.8128078,-0.036252927,2.0441167,1.2773014,-1.6458391,-0.43613398,-0.10908866,0.45846647,-0.5612927,-0.5343819,0.44537568,-0.043965444,1.675876,0.4024281,1.6407664,0.89250535,-1.7257897,-1.0816455,-0.76497877,0.94694334,1.3910578,-0.6734488,2.1587334,-0.3833541,0.37752086,1.4111166,-1.3727065,0.089274175,1.6722491,-1.2234691,-2.5296202,0.18798515,0.31262413,-1.7955446,0.9701591,-0.7642256,1.9826812,-1.7065579,1.0621893,-1.1228412,-0.007624073,-0.5160284,-0.15683134,0.13296989,-0.30973044,-0.48342022,0.2185164,-0.5306946,1.3608168,1.7859058,-0.19017538,-0.77709687,-0.3332974,-1.093163,0.26549825,-0.565458,-0.88610744,0.66518927,0.35410643,0.39441007,0.6894139,1.110637,-1.9308915,-0.16110358,-1.5302577,-1.4628391,-1.1408693,0.5730649,1.3535095,-0.39797434,-0.36710328,0.5350905,-0.094730824,-0.21842647,-1.2490444,-1.0487515,0.941415,1.0579168,-1.5776298,-0.09737979,-0.17488778,-0.10892564,-0.76999587,0.5438161,0.58202446,0.5284874,-0.37265655,1.117117,0.30540478,0.1328537,1.5505997,-0.54270804,-2.0508466,-1.1404817,-1.1973498,0.63662916,1.1069252,-0.50339985,0.22630984,0.38256115,0.38166288,-0.38072753,0.8142364,-1.0598651,1.386689,-0.23285763,0.032153793,1.0344249,-1.1780246,-0.33252487,-0.26244777,-0.7581701,0.20466278,0.5588223,0.37356177,1.3133146,0.1594821,-0.6139286,0.6294621,0.43202454,0.96200556,0.9729243,0.010588776,-1.0459921,1.558386
MMRF_1445,0.08049211,-0.22812635,-1.8958509,-2.2030582,0.33909398,-0.63916177,0.9565097,0.1334338,-0.31484342,-0.7046386,-0.5067399,0.7557172,0.079806834,-0.11723788,1.124536,0.3416991,0.17245018,0.18558589,-0.6512291,0.31568366,-0.7880823,0.6301936,0.46692872,1.1273751,-0.7357781,1.1148863,0.9219994,0.26400608,1.127431,0.018108472,1.8309667,2.4470682,-1.4238138,-0.2900671,-0.30284202,-2.6509671,-1.8474054,1.3856909,-0.55137664,0.14772771,-0.19026437,1.6474246,-2.6721392,0.31780347,-0.98325104,-0.43532154,1.0131605,-0.5869346,-1.4444181,-1.4917591,-0.88362247,-0.1516755,1.2630785,-0.67171884,-0.5607079,-0.5079979,-0.25800526,1.1710087,-0.16687462,-1.061795,1.1682788,0.22606036,0.0758729,0.6771652,1.8845131,-1.0136507,0.19343103,-0.17835648,-1.0422523,0.8848302,0.12795362,1.7270103,-0.48763868,0.48719487,-0.01684742,-0.5157389,-0.25964877,0.54684407,-0.6982712,1.674672,0.5896061,0.49627432,1.2326889,0.54376256,-0.9412932,-0.0050450824,-1.5906053,1.4581296,0.50404227,-1.1153586,1.4632083,-0.82049286,-0.4468093,1.5914341,0.5239954,-2.490786,-1.5940026,-1.6569917,0.13692461,-0.2131667,-0.82587826,0.7633627,0.13503477,-0.72925854,-0.6083995,1.3630735,-0.1957068,1.5266956,-0.11156537,0.3512684,1.8094828,-0.9859662,0.22261597,-0.5781484,0.31200162,-0.8617087,-0.32165208,-0.20887199,0.5511428,1.8254536,-0.42001727,0.8242071,-0.2605404,0.4373779,-1.1160592,0.48014304,-0.25833535,0.35378793
MMRF_1433,0.61487955,1.200901,-0.009492826,-1.2596698,0.027445672,-0.2903578,0.82681996,0.42120332,-0.33352393,-0.46566835,-1.5796479,-0.8176876,0.4012196,-0.41287678,-1.6301739,2.2403114,-0.36805835,-0.012900328,0.07884935,2.6667588,1.1477175,0.44807673,-0.28626665,-1.3792729,-2.16357,-0.3708992,1.3145926,1.4039451,-1.1024123,0.5238955,1.7548835,1.2625544,-0.62727666,1.3519156,0.13697144,-1.2747073,0.20965244,-0.16354018,-0.49094284,-1.6874772,-0.92622894,0.5056347,-0.95889276,0.52749264,-0.88205475,0.59360015,0.48335207,1.5461149,-0.3319203,-1.2931294,0.08403707,-1.4487289,1.007079,-0.8930006,-0.48318416,-0.53168875,1.3281345,0.68113136,-1.896877,-0.4640813,-0.64811766,-0.71387887,-1.8515384,1.1351815,0.33954668,0.9924191,-1.2042061,2.184594,-0.9273407,0.35567448,0.4194921,-1.1181809,-1.0122452,1.3723662,-0.24827158,0.21048805,-0.1778955,0.66218174,-1.4704309,0.84808064,0.74160874,-0.18000755,-0.21975587,0.9756264,0.47268006,1.1950831,-1.5115618,2.0599365,-0.97425836,0.6815998,1.625119,-1.615489,-0.93498,0.10484695,0.13878752,0.10884553,-0.4358485,-0.20708017,-1.0964282,-0.124992594,0.46242878,-0.62562305,-0.065098934,-0.7170371,0.027015913,-0.0363373,1.2836323,-0.2539197,-1.7453153,0.589946,-1.1534187,1.6120546,0.16343682,-0.9487374,0.31196317,-0.34461895,0.47397998,0.082954,-0.18761227,1.832269,1.8900814,-0.47227228,-0.46556798,-0.3845702,-0.37171558,-0.16692315,0.8201481,0.4269761
MMRF_1434,0.3624222,0.10229803,-0.9862769,1.6419712,-2.654603,1.1920551,0.047613464,-0.29497343,-2.148333,-0.43350506,-0.050874718,-0.9114551,-0.65454435,0.53711104,0.6110519,1.4064268,0.90912294,0.0009178519,1.0966675,-1.1862628,-0.3031517,-0.35460028,0.77716345,-0.5535398,-0.3785026,1.3740234,0.5278403,-0.64559,0.052086532,-0.71668434,-0.031812243,-1.144523,0.015750317,-0.84525204,0.41085446,0.67095315,-1.8318557,-0.003152621,0.702106,0.1720888,-0.23493156,-0.6049409,0.22902502,-1.523378,-0.85529745,-0.39160568,-0.65937936,-0.4284462,1.2595868,0.16650595,0.25605482,0.4031471,0.76065516,0.7646057,0.628665,0.1956304,1.1168537,-0.15848668,1.981864,0.45148772,0.1443683,0.2359829,1.016277,2.15116,0.17257567,-1.2755249,0.903291,-1.7970827,-0.053911824,-0.30057353,0.842953,0.19325516,1.9979331,-1.712857,1.4451245,-1.0285122,-1.390096,-1.7065687,0.29322845,-0.96352124,0.21300435,-0.8464607,-1.0246176,-2.0863483,-0.453199,-1.2175081,-0.009611247,0.31611577,0.7586146,1.4681594,-1.177471,1.180089,1.1496286,0.1259553,0.27629474,-0.26774123,-0.608894,0.87178016,0.14323433,0.28176314,-1.0866934,-0.33724076,-0.35635865,1.6485257,0.33218625,-2.2631135,-0.11093968,0.4651709,0.3779924,1.534497,-0.4673208,0.5716881,-1.2878177,0.33752972,0.7756931,1.8274068,1.3650613,-1.3071328,1.9371376,0.12521157,-0.80252784,0.93350947,0.96746945,-1.3500935,0.64585835,-0.51400465,-2.0811515,0.051644232
MMRF_1436,0.5370524,-2.219083,-0.37238985,0.4219724,2.0567486,1.5584942,-0.8434249,-0.5965739,2.0244763,1.0120627,0.87262267,1.5526049,-0.12036296,-0.4706572,0.9792967,-1.793394,2.1001751,-0.43516293,0.673466,-0.7299175,0.19315164,-0.9890158,-0.58291185,-0.56652397,1.3811702,-1.0966343,-1.3286628,-0.20520031,-1.317465,-0.39190048,-1.4566782,-1.4994154,0.2728909,-0.70765543,0.030447198,1.3753023,1.3627788,0.6880331,0.17521837,1.012397,0.8703036,-0.1254345,1.2788619,0.13865834,0.4891922,-1.0170771,-1.1106021,-1.5783355,-0.926584,1.1764591,-0.7034075,1.5704653,-0.74123526,1.232107,0.024439003,-0.16403352,-0.9719297,-0.38600674,0.16679431,1.2668618,0.29430708,1.2657712,1.0785494,-0.52459687,0.038715046,-1.020283,0.654157,0.38309515,1.1369467,-2.3669572,-0.249987,1.8128035,-0.3238415,-0.8348479,-1.687262,-0.3702924,1.0411175,-0.47698483,-0.08465456,-0.8808931,-0.045108657,-0.92348605,-0.1139382,1.0075175,0.36331293,0.7858027,1.8614509,-2.0507102,-0.69792324,-0.94064206,-1.4947118,1.6252329,1.2376493,0.46295565,-0.45719442,0.6815544,1.3863037,0.027298175,0.32008016,0.08321318,0.7721608,-0.10088605,0.4456682,0.5358537,0.87563145,0.56740373,-1.2353582,-1.0329571,0.4398724,-0.080895945,-0.4627166,-0.66034824,1.1653992,0.52830726,-0.43809816,-0.30374488,-0.33483323,-0.98969334,-0.4442817,-2.182257,-0.64435923,0.46771723,0.5554782,0.5473419,-0.52319133,0.23597829,-1.5157135,-1.2539995
MMRF_1424,0.4699812,-0.13634366,-2.0980024,-0.79547703,-0.47796506,1.2539923,-0.39161974,-0.8525549,0.13609564,1.1214331,0.44195768,-0.42408523,0.20171085,-0.8136096,0.19811206,-0.6162398,-0.20468542,0.049974337,0.14852448,-0.18673778,-0.04853626,0.8121475,0.32021236,0.91231537,0.2934606,1.135967,0.8783097,0.04393934,-0.3242051,0.90401834,0.601227,2.4786305,0.12393771,-0.6414422,-1.0132538,0.73634577,-0.84964824,0.11499952,-0.4652723,-1.4190803,-0.99901044,-0.42032358,-2.4768257,-0.97952634,-0.6661505,-1.039943,1.451957,-0.23116896,-1.380733,0.19336039,-0.50502676,0.26162902,1.9619057,-0.8530303,-0.26847115,1.1317562,-0.09669122,1.5797896,-0.6800846,-1.8989276,0.61860096,0.93790907,-1.221174,1.1830103,2.610414,-0.9682757,0.5971174,0.017207468,0.6089664,-0.38451475,0.19814587,-0.00296049,-0.037271976,1.1349998,1.8104547,-0.41136336,-0.47124553,-1.0125194,-1.1083263,0.73899865,-0.94519776,-1.381498,-1.041089,2.1189582,0.23062457,-0.10513681,-0.82898194,-0.16968393,-0.106656775,-1.4076271,2.0727983,-1.2498273,-2.1567154,1.8210433,-0.013120839,0.3359935,0.9357595,-1.8706274,-0.6399847,-0.08686309,0.35549876,0.73918384,0.45968232,0.1110509,-0.15311354,1.903912,-0.72102803,0.8850713,-0.24396712,-0.204562,0.32688853,0.25519994,-1.6363351,-0.6828191,0.03813678,-0.27425557,-1.5719547,-0.18969448,0.5259024,1.1633397,1.4874623,1.2119635,0.3232794,1.3445814,-2.0098515,0.4002634,0.67570144,-0.5564309
MMRF_1425,-0.073133945,-1.3650907,-0.65146714,-0.07394834,2.3473148,0.4937481,-0.29887402,-1.3397973,1.0863848,0.92027646,0.6321161,0.8340317,0.07506631,-0.23035626,0.51864654,-0.38296613,0.9934664,-0.5324676,-0.19320743,-1.2704419,-0.23932095,-1.2743608,-2.250853,0.7052822,1.0933671,-0.5726607,-1.9080452,-0.46500152,-0.15580651,-0.16960865,-0.32897553,-0.45771876,-0.082508095,0.58370626,1.2803646,0.43757856,1.5499955,-0.20830216,-0.6287387,0.3702585,2.1693437,0.7206369,0.72147083,0.45204043,-0.77208567,-0.70552176,-1.2227386,-0.971179,-0.72019386,0.7812001,-1.2299513,2.4241436,-1.6368905,-0.4950151,-1.6038439,0.6971762,-2.075299,-0.5128009,-1.202748,0.1282303,1.64312,0.53813356,0.09647314,-0.8462144,0.49378717,-0.67218685,-0.9099802,0.66301304,0.37238118,-3.0799055,0.823218,0.9748347,-0.88618195,0.8250943,-1.2232734,-0.22972764,1.6612266,-0.3385468,-0.10772424,1.0350366,-0.52366465,0.27233484,1.5805259,0.8366927,0.2688958,0.7879728,1.237696,-1.9631988,0.18743834,0.34040532,0.9898333,0.71261394,0.63960445,-0.12647301,-0.49273744,1.4088463,1.0178087,-0.8417841,1.2221503,-0.676611,-0.018956814,0.22474352,1.0384183,-1.0557966,-0.20653293,1.4573998,-1.1114938,0.49734917,0.767188,-0.16254333,0.03860227,-1.4364378,1.9713129,0.68483746,-1.0326432,0.24246888,-0.8118107,-1.0607009,-1.435894,0.0081526125,-0.92543894,0.1130044,-0.15479024,0.665082,-1.2973348,0.9917287,0.115287915,0.5119201
MMRF_1439,-0.2988071,-0.3637518,-1.3282273,0.82801414,-2.5119467,0.5458003,0.20538622,-0.47753572,-2.2640305,-0.67269313,0.5239304,-1.3141536,-0.57346386,0.8021611,0.24638668,0.71119744,0.8022542,0.21858898,0.7532961,-1.6748691,-0.27064103,0.72037053,0.37194243,-0.20586136,-0.65002227,1.3536894,-0.18595093,-0.703679,0.32114264,-0.8429662,0.39945385,-1.1950339,-0.59009784,-1.5775673,0.13272229,0.51156425,-0.88869506,-0.115350306,0.7550544,-0.82219225,-0.4983654,0.14436425,1.0209711,-1.5439923,0.029686805,-0.4780856,-1.8602788,0.090647474,0.5364715,1.0379565,0.13960686,0.70913637,0.70030487,0.40482667,0.23921737,-0.080385566,1.1417365,0.2616131,2.1866388,1.3965986,-0.02149883,1.0150404,0.0012744432,1.6953037,-1.1494036,-0.4872287,0.9600204,-1.030281,0.49708927,-0.39666975,1.158226,0.7030797,2.0465615,-1.8629009,0.42452046,-0.9015701,-1.6931906,-0.7634818,0.3441585,-0.76158077,0.74473166,-0.39483643,0.089751795,-1.6201417,-0.5746616,-0.49125636,0.95037776,-0.39987147,0.8394129,2.1986809,-1.2373431,0.9376434,1.9041774,-1.0048031,0.55179524,-0.46332207,-0.53129953,0.54733,0.6053453,0.20342992,-1.2995565,-0.38965008,-0.70648193,1.9007107,0.3490552,-2.5877793,-0.074931085,0.0060375035,0.9352781,1.0529817,0.10018242,0.59407586,-1.041947,-0.46502012,0.34127834,2.139408,1.3087095,-0.85790855,0.24646677,0.31083453,-0.5855203,1.2247576,0.96750104,-1.8106207,1.1161546,0.19978034,-1.765766,-0.089778505
MMRF_1450,-1.4531013,0.9634901,0.59766805,-0.11257386,0.94826823,-1.3978435,-1.0757704,1.3660684,-2.3616254,-0.764511,-2.1564558,-1.2381879,1.4169768,0.42341045,0.49575716,2.373158,-1.1322776,0.1076927,-0.8421391,1.3546344,1.324361,0.49765465,-0.93157095,-0.21497987,1.4702492,-1.3387494,0.55366814,1.0698974,-0.68749696,0.28073466,1.5227768,0.20643659,0.07157254,1.5320116,0.59925365,-1.1139342,0.53440213,0.7660939,0.11292359,0.051109135,1.9108778,0.35384223,-0.10780601,0.3246449,-0.13355842,0.46524912,0.11382218,-0.08513206,1.0618293,-0.5249554,-0.5334402,-0.3531728,-1.462943,0.024666205,-0.5906001,-0.19649348,-1.1339786,0.67844397,-2.2444756,-1.281643,-0.6623082,-1.5009224,-0.14626952,-2.4836001,0.31667674,0.16580284,-1.8455538,-0.00799484,-1.0268509,0.6594303,0.0062476825,-0.79156923,-0.33751032,1.5570562,-0.72014976,0.071053654,1.4336734,-0.005773574,0.99339354,1.3872443,0.20673196,1.9569159,-1.4101825,-0.55070764,1.1896251,0.8554476,-0.018568547,1.3939762,-0.36756095,0.08810567,-0.73302513,-0.28203577,-1.6565361,-1.5666996,0.7774079,-0.077850014,0.39105773,0.73667157,-0.1999658,-0.20893832,-1.5800259,-1.4677073,0.041979104,-1.200546,0.8136439,0.36760733,1.4421381,0.040484257,-0.7513722,0.58588636,0.9642696,-0.5833247,1.55786,0.9451421,-0.083798446,-0.73702055,-0.27266955,-0.9564042,-0.19466636,0.74182385,0.42773402,-0.83264965,-0.5714234,0.45043913,0.3401138,0.5747466,1.5145602,0.74346626
MMRF_1451,0.65259326,-0.51798105,-0.34338856,1.4379044,1.2607158,-0.38669178,0.0730182,-0.70310926,-0.29510736,0.53889227,-0.45499116,0.25184268,-0.21639068,-0.3791183,-0.08948644,-1.1003886,1.6187377,-1.2182698,1.7421697,0.8516734,-0.2551233,0.29148442,-1.3007979,0.02342068,1.2335597,-1.0029142,1.4910105,-0.2618873,0.07288964,0.004529318,-1.1280649,0.6586781,-0.008099313,0.05913591,1.5193532,-0.79689276,-1.3930901,-0.41439733,0.43177974,-1.3889424,1.0595845,-1.7352684,-1.2625265,-0.8233841,-0.7551068,0.67766434,0.49388656,-0.53758913,-1.8018485,0.30796158,-0.054901242,0.07356075,1.323223,0.6836441,0.4000184,0.5861958,-0.7147346,0.375375,0.32009807,-0.59738207,0.004264946,0.26904655,-0.77741784,1.3819771,0.5008588,-0.06380711,-1.4636554,0.8826839,1.4778575,0.58624756,-1.4198112,-1.6262858,1.627465,1.0731655,1.2680838,0.04963093,1.4117783,0.94110936,-0.5268446,0.79261804,0.5977573,0.6668117,-2.1539814,1.6239442,0.9158481,-0.8589136,0.0021344926,0.589349,2.0970223,-3.0184944,0.52892303,-0.3250266,0.79798484,-0.00066873734,0.45885918,1.2533146,2.0692866,-2.1067505,-0.3014467,-0.58982474,-0.1609283,0.40138966,0.14291048,-0.24440771,1.0533161,0.46787018,-0.17574166,1.0551703,-0.11732906,-2.404184,-0.40586987,-0.13430423,0.5595226,-0.826337,-0.48255616,-0.71683896,-0.53733706,-0.177732,-0.09877518,-0.8145653,-0.50973785,1.1077193,-0.5525687,0.91744345,-2.593489,0.023853589,-0.141152,-1.875311
MMRF_1454,0.76133984,0.39597088,-1.7995988,0.99702024,-0.088176176,-0.87640125,1.5037873,-1.2159777,0.15479086,-0.27395052,-0.094920844,-0.58100903,0.7438873,-0.15493008,0.9967331,-0.05196965,-0.6249654,0.18083902,0.7238854,-1.2124258,-1.0979723,1.4145136,0.94633836,-0.46885756,-0.15357599,-0.7783488,1.260266,-0.7745714,-0.37097833,-1.4643244,-1.3030889,1.6213324,0.473991,-0.5889158,-0.4655726,-0.592661,-0.45472986,0.30518043,-0.7070103,-0.92346597,0.52088195,-0.2206956,-0.33389136,-2.0080507,-1.027966,0.8794233,1.7400824,0.34990066,-0.52835333,0.75592023,-0.50360537,1.0718387,1.3189576,-0.14752765,0.4823576,0.16354334,0.19731244,-0.231967,2.7063675,-0.7353908,1.0158644,-0.15896882,-0.15973781,0.4578281,0.4047694,0.69749147,-0.8269365,-0.041626625,1.3896177,0.83620036,-0.68460023,-1.97081,0.62834066,0.48826423,0.9087974,-1.1732548,0.64610696,-0.16564964,-1.5668585,1.0804467,0.15589288,1.1521991,-0.37177867,-0.14792013,0.5421813,-1.2981813,-1.5374151,1.3288615,3.6354318,-0.3737326,0.150499,-1.5960112,0.87683886,-1.1833167,-0.7197075,0.71644235,1.1552854,-2.0752926,-0.71130383,-0.21615475,-0.8992448,1.5167941,0.23737395,-0.7817721,0.33147326,0.28004903,-1.273328,-0.7624369,1.1065177,-2.0302567,1.0225406,0.81269586,-0.56665456,-1.6646459,0.3707567,0.75571716,0.330369,-0.30043304,-0.7550016,0.9508245,-0.90934056,1.4349508,0.24799034,0.8439234,-1.6526883,-0.18009546,-0.3912696,0.87758553
MMRF_1460,0.81154424,-1.3887053,-0.72740775,1.8963047,1.6756389,-0.15248965,-0.7292223,-0.9600761,0.51481205,-0.5165159,0.11295096,0.9813564,-0.99439746,-1.1991237,1.0091877,-1.0837742,-0.044576388,-0.29889634,1.472113,0.17634584,-1.0269563,-0.08438202,0.56602377,0.5528729,1.9465019,0.3629704,0.85271883,0.012938862,-0.06861006,-0.69385505,-0.90001833,-1.1947508,-1.1778363,-0.17018795,-1.6986287,1.8233995,-0.4185865,1.2980486,0.6739653,1.81232,-1.5770928,-0.5881533,0.6264646,-0.21397322,0.54238224,0.21365185,1.43764,-1.4288616,-0.80377716,-0.78100824,-0.14250642,1.256165,-0.06752912,0.53843755,-0.67829823,0.41372642,-1.8744339,-1.5494789,-0.353657,1.0823325,-0.5869795,1.5746362,0.61721826,0.44997585,0.13543864,-1.0748901,-0.6552807,0.5200941,0.44640857,-0.93947333,0.54057,1.7508786,1.1620036,0.07856679,-1.5459,-0.35710144,-0.34303397,-0.5796761,0.054673158,0.0484202,0.31983283,-0.13007511,-0.6903632,-0.5036738,-0.2863883,0.35577458,1.5961009,-0.033574656,1.6342434,-0.14749444,-1.4101806,1.0974928,0.24733357,1.2148287,-1.6902685,0.5943314,1.7076559,-0.94140106,-1.264837,1.1345979,-0.36284107,-0.47291067,-1.2373319,1.0369927,1.6628846,2.2400146,-1.1928127,-3.2049034,0.23101456,-0.3808887,0.61156905,-0.4451011,0.7261743,0.66722035,-0.19030395,-1.2670352,0.18497226,-0.0613906,-1.1527963,-1.2978599,0.028197326,0.67350346,0.054486148,-0.09826119,0.39643976,0.45621875,-1.7183295,0.9044544
MMRF_1461,0.55948734,0.63484913,-0.45101163,0.318281,-0.59314,-0.96129,0.4042516,0.30643022,-0.77781975,-1.215109,-1.4766042,-0.83647406,0.38688496,-0.6735719,0.42666283,1.6680894,-0.77570003,0.33517656,0.25818306,0.38563973,0.36409727,0.60894597,0.49363655,-0.8610525,-1.3878175,0.75809234,1.5656632,1.4469028,-0.25048572,-0.0486652,1.5083189,-0.55521744,-0.26054528,-0.54606044,0.6460845,-2.7253666,-0.6776532,-0.6351238,0.18025064,-2.3267775,-0.34381124,0.1677235,0.2638423,-0.5974481,-0.1696783,0.51324904,-0.3209596,1.1198038,0.6447152,0.68792844,0.35099423,-2.2058983,1.0379777,1.0343221,1.1979867,-0.92778385,2.580164,0.81914204,-0.04845176,-0.8788056,-0.6303449,-1.8869864,-0.74247926,1.1793894,-1.6589913,1.3718843,-1.1313167,1.0619987,0.27007157,0.23311517,-0.292313,-2.7021973,1.2088201,1.5485673,0.22852035,-0.00521384,0.35436076,0.7412979,-0.702732,-0.32641768,1.4854952,1.1579634,-0.7279451,-0.17089897,-0.7932087,0.6667246,0.5590728,0.7313271,-0.04139536,0.6164633,0.66225326,-1.0901614,-0.32657397,-0.9421631,1.0368235,0.2193597,-1.5684321,-0.16949145,-0.71217465,-0.7734267,-2.0513163,1.8134011,-0.16349211,1.125439,-0.1929452,-1.4275126,0.9141393,-0.8932222,-0.07806285,-0.25325435,-1.4592208,1.6608623,0.7163127,-2.025278,-0.50121075,0.059529923,0.09102628,-0.14457968,1.2065701,0.78177774,1.0642552,1.3300227,-0.64350593,-0.91900826,0.1254601,0.85400474,0.7385536,0.15206409
MMRF_1324,-0.04069725,0.16182515,0.67015713,0.21325625,0.7853103,0.55322134,-0.15172422,0.5230883,0.037959944,1.3802192,-1.6560385,-0.9154224,-0.1968752,-1.9529682,-0.5022387,-0.7846056,2.5853472,-1.7118992,-0.67364246,1.6709653,0.6294923,0.30027533,-0.5417337,-0.8737744,-0.99104106,-0.3411985,0.65128917,0.77592695,-1.1473176,2.495079,0.8996515,0.46187767,-0.7621736,0.63100994,0.253413,-0.08643215,-1.0605761,-0.47630242,0.23348497,-2.4375012,-1.0815557,-1.7155442,-1.3310487,0.62270826,-0.64151716,-0.021345083,1.2469511,-0.2325995,-2.1428444,-0.38614383,-0.9345504,-0.25323728,1.3949145,1.7990491,-0.18760747,-0.10288666,-0.5919445,1.3721154,-1.7344443,-0.71148735,-0.050842296,0.06020018,-0.1493196,0.8484141,0.7597426,0.7865712,-0.18555091,1.4952182,0.9156619,0.14625877,0.45510256,0.0801067,-0.14031443,-0.1263644,0.9762028,0.29829666,0.40898374,1.8760561,0.09219256,-0.4605427,0.28733236,-0.12205738,-0.41607603,1.2967838,-0.46110094,0.37273636,-1.0205383,-0.6479632,-0.07480625,-0.18716101,1.4050173,-0.9578942,0.3266107,0.6431938,1.7325401,2.1650493,1.2125962,-0.55974364,-0.742624,0.041665398,0.52760905,0.7443806,-1.7130384,-0.840701,-0.050678313,0.5036498,1.1990653,1.0583863,-1.6374122,-0.120130524,-0.30036724,1.3056089,0.5442757,-0.095852025,0.98953766,-1.4772962,-0.8020975,0.8309998,-1.7799715,-0.101012565,0.4318562,0.99425936,-1.0670584,-0.3164138,-2.0809934,-0.047264647,-0.4306985,-1.7177178
MMRF_1392,-1.5185698,0.004047091,-0.22698824,-0.66391945,1.354993,0.15894677,-2.1963081,1.5655074,0.77706325,0.37014297,-1.3097346,0.30903485,1.8174791,-0.9129644,0.054918267,0.65857744,0.45959657,-0.35935616,-1.2676907,-1.1510837,0.41016796,-0.16205426,-1.106299,0.3537373,2.3850977,-1.3679459,-2.7470322,0.29331982,-0.6759545,-0.59623826,-0.6726066,0.37494832,0.6364742,-0.16742928,-0.5700083,1.8254744,1.6447576,0.9623573,-0.13442762,2.5462368,1.4416742,0.21534373,1.0455076,1.376024,-0.18370491,0.74504334,-0.5792841,-1.2854433,1.1157435,0.8209754,-0.5826039,0.04157664,-2.1608632,1.4456356,-0.536847,0.47509646,-1.6402829,-0.071219586,-1.0818566,-0.750641,0.5651819,-0.9495834,1.3210219,-2.0976765,-1.6860312,-0.30492005,-0.7886465,0.4951694,-0.22791794,-0.90148693,0.037547037,0.08933842,0.053657502,0.26082647,-0.68528306,-0.189093,0.9311471,-0.03245303,0.92467695,-0.26344764,0.45755118,1.3047723,-0.09479756,0.34513995,0.1367011,1.8824745,-0.4985974,-1.131591,-1.4809501,0.06843927,-0.17653899,1.0349375,-0.5303162,-0.20367163,1.010113,-0.44866213,0.47852606,-0.034785695,0.8371032,0.92457783,-0.39378914,-1.0073758,-0.75621307,-0.9166247,1.3654169,0.34874612,0.074847445,0.81152225,-0.50306946,1.6436641,0.19675726,-0.83706886,1.2624451,1.1261786,-1.1553526,-1.7820041,-1.3439585,0.52538806,-1.3449514,-0.9766842,0.031344056,-0.28634015,0.40840718,0.5048237,-0.24807435,0.124032244,0.34489307,1.3129053
MMRF_1413,0.33721945,1.216355,-2.3931756,-0.1642276,-0.62925327,1.0652214,-0.33621204,-0.7397886,-1.1156046,-0.12385775,-0.63195574,-1.1147754,0.101268314,-0.22992808,1.2147894,1.9700878,0.47475708,0.97300535,0.8789913,-1.2678912,-0.7206917,-0.9847462,1.8921663,1.9523108,0.16025406,1.8281221,0.1425999,0.029236713,1.0953405,-1.0796077,0.22916281,1.1916746,-2.2933898,-1.6113994,-0.10374457,0.14857468,-2.2873967,0.687282,-0.043278378,1.7587062,-1.8284303,-0.052538887,-1.11649,-0.27848622,-1.042829,-0.6504687,0.2525926,-0.84263843,0.49863005,-0.90066224,-0.566575,-0.30167773,1.7471634,0.47398236,-0.98735106,-0.3792422,-1.1344435,-0.43257412,-0.6285505,-2.1228263,0.72356737,0.8900133,0.43812564,0.93144196,1.30852,-1.1860046,0.0199534,-1.5164585,-0.31335118,-1.4679116,1.4825515,0.71904474,0.34002832,0.050897278,0.5991102,-0.84828764,0.28085744,-1.4977093,-0.5840756,-0.073401645,0.90879446,-1.1507455,-0.07942713,0.13365743,-0.03491078,-0.51890063,0.16741401,0.55008227,1.0458167,-0.28704315,0.45597023,1.064385,-0.18684262,1.2426099,-0.18227443,-2.1534135,-0.6640402,-0.906154,-0.07746573,2.1030433,-0.52722114,0.85531896,0.3835304,0.54456204,0.05069995,0.3135787,-0.40512866,1.4926705,0.20640466,0.91375136,1.5253849,-1.2422954,-0.2993654,0.28133386,-1.2098329,0.6701526,0.42458615,-0.43709335,0.4543009,0.34689656,0.19690597,0.5955765,0.38570532,1.3042445,0.20003152,0.16669168,-1.9370626,1.8744124
MMRF_1393,0.92827004,-1.8028163,-0.083537795,1.247945,1.7191036,0.48527196,-0.6856053,0.36749935,0.439663,0.536467,0.4540743,1.1364926,0.089213245,-0.7113939,1.1149788,-1.7762316,2.4197233,-1.3030968,-0.5672308,-0.38104436,-0.24027823,-0.22822097,-1.8590888,-1.1763071,-0.0073434263,-1.5267699,-1.0329138,-0.031455677,-1.6647052,1.2319326,-0.29864332,-0.39204848,0.45264038,-0.46219027,1.5231404,1.2770693,0.6670275,0.6439697,0.44181308,-0.43470362,1.6541716,-0.85062,1.399338,0.8382394,1.2487743,-0.49088162,-0.99095094,-0.7709173,-1.0052705,2.6093652,0.17082137,1.6086165,-0.62018013,0.5013352,-0.67017573,0.3687987,0.0033502784,1.2540731,-0.5366596,0.555625,-0.5312321,0.28512248,-0.5955624,-0.43211788,0.0773215,-0.15071952,0.2192182,1.3605127,0.8629514,-1.2029042,0.020752188,0.22825731,0.44518563,-0.31501767,0.1830729,0.5918389,0.46085355,0.051306754,0.6372749,-0.5694794,-0.6839816,-0.7775141,0.025422407,0.56995606,0.9582867,0.43159798,1.9583957,-2.6868925,0.39989808,-0.4343528,0.021314096,0.30835488,-0.45748392,-0.7376014,1.3251036,2.0773263,1.591531,-0.16829808,-0.21352091,-0.840567,-0.23706414,-0.72897255,0.11377205,-0.39727202,0.97021025,-0.9665236,-0.49578297,-0.6829026,0.2489286,-1.3391229,-0.3487352,0.28480744,1.1831598,-0.62544197,-0.27258065,-1.4282259,-1.0269461,-1.356865,-2.4826183,-1.4669394,-0.15675934,1.517573,-0.08593092,-0.26457912,-0.36406165,1.7913481,-0.35614204,-2.181799
MMRF_1148,-0.708695,-0.52906483,0.39234263,-0.51463723,1.4667121,1.447356,-1.516243,1.7888457,0.32792938,-0.04626614,-0.086755,0.7477227,-0.54117626,-0.013100117,1.2064631,0.8437483,-0.8743749,0.22920594,-0.9738817,0.6461129,0.8857292,0.5208732,-1.1890631,0.38031238,-1.2502598,-0.012619879,0.5072639,-0.4774443,-0.79362994,0.8760428,-0.435305,0.078699276,1.295959,1.7298993,-0.500083,-1.7908866,0.08753306,-0.43891767,-0.31511998,-1.4436128,2.0944018,-0.27365786,-0.5178582,1.2397801,0.7309369,-1.7008,-0.88757646,-1.1759953,0.71452314,-0.4879104,-1.7152358,-0.00036728312,-1.1700222,0.91678184,-0.5326582,0.7299061,-2.0332935,1.2225232,-1.0849336,-2.8175635,1.2625519,-0.68784755,0.7063206,-2.181417,-0.5884252,0.051352877,-0.39112228,-0.017043157,1.2085404,-1.5910137,0.8028747,-0.025731122,-0.5023341,0.3794027,-0.47400782,-0.1879833,2.0464292,0.74852496,-0.2575031,-0.17293724,0.17237459,1.3045592,-0.68258643,0.5998101,-0.7995304,0.1304041,1.0475754,-1.4597284,-1.0731449,-0.750468,-0.65352833,-0.9157694,-1.1913338,-0.038405187,1.2119623,0.15085249,-0.04361664,2.1034036,1.5939473,-0.26566744,-0.24897625,0.5535523,1.2442807,0.17274807,0.41447303,-0.42974183,-0.52904624,1.295841,-0.5052544,1.130108,1.7478675,-0.7721498,-0.34579393,-1.4084388,-0.006849991,0.17324014,-1.9904402,0.26556304,0.7885593,0.63210636,-0.8244077,-0.30931944,1.3289781,1.621276,-0.58031815,0.053334396,1.5723339,0.12103272
